epoch,W1[0],W1[1],W1[2],W1[3],W1[4],W1[5],W1[6],W1[7],W1[8],W1[9],W1[10],W1[11],W1[12],W1[13],W1[14],W1[15],W1[16],W1[17],W1[18],W1[19],W2[0],W2[1],W2[2],W2[3],W2[4],W2[5],W2[6],W2[7],W2[8],W2[9]
0,1.3797305331506409,-0.3164971438773722,0.3904914935411019,-1.9598081985253364,-0.03505157443909176,-1.713598739702976,-0.021971653332422215,-0.44373597636820217,0.102420761011449,-1.790953842126641,-1.154314596749722,-1.298543235915139,-0.8743492445904679,-1.3826421123533152,-1.1952068377240395,-0.5148784641037657,0.06151966518779784,-0.8437505793214298,-0.6955893376658256,-1.4932199201001193,-0.5913632447282736,0.17245601556481435,-0.7887860559384412,0.14709360933191362,-1.9396477828767065,-0.8161069885989302,-1.7748939107705857,1.95098017213929,0.11425063302169228,0.23272771570077014
1,1.3781141952021378,-0.3162692864324128,0.38852595513017435,-1.9597719904725621,-0.03844559933163797,-1.7143112174398805,-0.02667025898358172,-0.44041464629980126,0.10269506061405284,-1.7908960016249587,-1.155675015095198,-1.2983618839135127,-0.875987925965038,-1.3826686356120859,-1.198025779064096,-0.51505061565957,0.05780233880086787,-0.8412638465399005,-0.6953669430038949,-1.493247962198852,-0.5877715394306333,0.17198854339893746,-0.7872033438192491,0.1455081112009177,-1.9395548954889847,-0.8176000527784967,-1.7724275005407053,1.9508483678128978,0.11548957974112228,0.23120067962237115
2,1.3764949594202862,-0.31604101759165704,0.3865540986649568,-1.9597362754219096,-0.04184111958656081,-1.7150283838366496,-0.031394300203082516,-0.4370613603020582,0.10297415354798407,-1.790838791306119,-1.1570377655811912,-1.2981801086148221,-0.8776319129686001,-1.3826957668199111,-1.2008469561792139,-0.5152189215731289,0.05406796089555564,-0.8387530601367615,-0.6951407511344175,-1.4932770446706338,-0.5841888165716925,0.17149529603894811,-0.7856445554906656,0.14389467877082684,-1.9394961773717156,-0.8191268890153975,-1.7699937700490382,1.9507009478779065,0.116712970018331,0.22964625578740214
3,1.374873249323245,-0.3158124413604773,0.38457638981904185,-1.9597010762365157,-0.04523711174664657,-1.7157501030879845,-0.0361425358300667,-0.4336766363032964,0.10325798218794839,-1.7907822468592052,-1.158402519904758,-1.2979979824317294,-0.8792808691986338,-1.3827234924506577,-1.2036696736706625,-0.5153832290676855,0.05031753332297728,-0.8362185162838793,-0.6949108066192587,-1.4933071659649584,-0.5806165017775169,0.17097583426614957,-0.784110698295781,0.14225328583444838,-1.9394722319315132,-0.8206877081532075,-1.7675941032859939,1.9505375959067297,0.11792001127823934,0.22806440792745244
4,1.3732494915363185,-0.3155836636801987,0.3825933008508124,-1.959666415208714,-0.04863254658071085,-1.7164762349623304,-0.04091369220821549,-0.4302610229245736,0.10354648239803016,-1.7907264033651442,-1.1597689478400717,-1.2978155792711894,-0.8809344540623213,-1.3827517974045762,-1.2064932340169658,-0.5155433869689366,0.04655208082961509,-0.8336605312612998,-0.6946771588964811,-1.4933383228031603,-0.5770560182454506,0.1704297418867615,-0.7826027604782565,0.1405839353191366,-1.9394836309858474,-0.822282689465687,-1.7652298554781791,1.9503580123305944,0.11910992317088767,0.22645512842176774
5,1.3716241147247665,-0.3153547921666664,0.38060530943940124,-1.959632313977709,-0.05202639168871488,-1.7172066351637196,-0.045706466243156996,-0.4268150981055983,0.10383958362956168,-1.7906712951749244,-1.1611367180617702,-1.297632974369385,-0.8825923236174703,-1.3827806649947691,-1.2093169393067353,-0.5156992461095953,0.042772648618977095,-0.8310794406446069,-0.6944398622028826,-1.493370510135903,-0.5735087826012736,0.16985662749073457,-0.7811217080269777,0.13888665994972296,-1.9395309126431963,-0.8239119795190906,-1.762902348915093,1.9501619159968886,0.12028194020609595,0.224818438989485
6,1.3699975485090747,-0.3151259358364186,0.37861289748576055,-1.9595987934487697,-0.05541761415461102,-1.7179411557168647,-0.05051952862397175,-0.42333946757722546,0.1041372090508424,-1.790616955788857,-1.1625054989791153,-1.2974502441182663,-0.8842541314347576,-1.3828100769402958,-1.2121400929906125,-0.5158506597339052,0.03898029979639024,-0.8284755983948561,-0.6941989754732484,-1.4934037211074804,-0.5699762007133768,0.16925612614729885,-0.779668481558758,0.13716152280567656,-1.9396145792861639,-0.8255756911424906,-1.7606128688572589,1.949949045694988,0.12143531438001007,0.22315439127847245
7,1.3683702223701109,-0.31489720482224076,0.3766165498868444,-1.9595658737146016,-0.05880518322901166,-1.7186796453730553,-0.055351527187928885,-0.4198347631895652,0.10443927570830287,-1.7905634177378296,-1.1638749595752278,-1.2972674658847783,-0.8859195294755076,-1.3828400133661807,-1.214962001640483,-0.5159974838993324,0.03517611271352396,-0.8258493758564591,-0.693954562216659,-1.493437947027394,-0.5664596634942421,0.1686279010229776,-0.7782439932629505,0.135408617765792,-1.9397350956743271,-0.827273902516038,-1.758362659557144,1.949719161637929,0.12256931777344163,0.22146306734385712
8,1.3667425645518065,-0.31466871008002667,0.37461675329131155,-1.9595335739795463,-0.06218807302311972,-1.7194219500341525,-0.06020109040579064,-0.41630164110642665,0.1047456947183723,-1.7905107124675066,-1.165244770245536,-1.2970847178239593,-0.8875881689789705,-1.3828704528105307,-1.2177819767038431,-0.5161395778726084,0.03136117823053166,-0.8232011606694654,-0.6937066903704426,-1.4934731773496057,-0.562960542720423,0.16797164490807157,-0.7768491239318669,0.13362806983451864,-1.9398928871828878,-0.829006656386301,-1.7561529204238215,1.9494720468872322,0.12368324510156604,0.2197445800101132
9,1.365115000969109,-0.3144405630890012,0.37261399484545427,-1.959501912487249,-0.06556526519493999,-1.7201679131917373,-0.06506683096350563,-0.41274077987839236,0.10505637148897504,-1.7904588702264197,-1.166614603629509,-1.2969020786871686,-0.8892597013528957,-1.382901372238906,-1.2205993362410732,-0.5162768045172864,0.027536596914767716,-0.8205313556036908,-0.693455432132598,-1.493509399659812,-0.5594801869027294,0.16728708163809278,-0.7754847201006193,0.13182003534496423,-1.9400883381922793,-0.8307739594168935,-1.753984802361491,1.9492075087082732,0.12477641619447671,0.21799907311147995
10,1.363487954128962,-0.3142128755474588,0.3706087609382445,-1.9594709064524016,-0.06893575160862025,-1.7209173763782797,-0.06994734941490524,-0.4091528784082507,0.10537120596925736,-1.7904079199588703,-1.167984135429778,-1.2967196276267752,-0.8909337790611016,-1.3829327470660224,-1.2234134066334061,-0.5164090306699924,0.02370347619586343,-0.8178403773230642,-0.6932008637737458,-1.4935465996710071,-0.5560199172383891,0.1665739673973002,-0.7741515913193793,0.12998470203461376,-1.940321790642734,-0.8325757816815494,-1.7518594043107159,1.9489253798438884,0.12584817838831194,0.21622672160646608
11,1.361861842071966,-0.313985759066246,0.3686015359544542,-1.9594405719971417,-0.07229853694785832,-1.7216701796270348,-0.07484123787914884,-0.4055386538237709,0.10569009292583725,-1.7903578892035281,-1.1693530452128433,-1.296537443998685,-0.8926100565017409,-1.3829645511847917,-1.2262235242495798,-0.5165361275026167,0.01986292749750889,-0.8151286550893747,-0.6929430654298911,-1.4935847612275286,-0.5525810236765847,0.16583209189235887,-0.7728505075800988,0.12812228899088923,-1.940593542766447,-0.8344120563056199,-1.7497777700195531,1.9486255196943596,0.12689790880718108,0.21442773156326675
12,1.360237077342177,-0.3137593248622563,0.3665928010447526,-1.9594109240926403,-0.0756526412646577,-1.7224261619372658,-0.07974708375615144,-0.4018988392738641,0.10601292224358107,-1.790308803998562,-1.170721017185756,-1.296355607164116,-0.8942881908700336,-1.3829967570026396,-1.2290290370595212,-0.5166579708677866,0.016016063366574695,-0.8123966294153004,-0.6926821208774796,-1.4936238663177053,-0.5491647611279489,0.16506127938519777,-0.771582196918464,0.12623304646482153,-1.940903848008422,-0.8362826792606908,-1.7477408850696696,1.9483078153925713,0.12792501651691512,0.21260234001405248
13,1.3586140659921873,-0.31353368345421767,0.3645830329215059,-1.9593819765063623,-0.078997102445318,-1.7231851617413243,-0.0846634734330836,-0.3982341816650135,0.10633957924865045,-1.7902606887940713,-1.1720877409434105,-1.2961741962920403,-0.8959678429994089,-1.3830293354849637,-1.2318293061839263,-0.5167744416250987,0.012163994620212051,-0.8096447506771576,-0.69241811729242,-1.4936638950951344,-0.5457723458473406,0.16426138957536857,-0.770347343210272,0.12431725555229418,-1.9412529141453492,-0.8381875093156543,-1.7457496741800953,1.9479721827639465,0.12892894453274728,0.21075081467727128
14,1.3569932066302346,-0.3133089443630288,0.3625727026887102,-1.9593537417554237,-0.08233097857639583,-1.723947017370104,-0.08958899595526136,-0.3945454393554602,0.10666994505133187,-1.790213566372521,-1.1734529121814254,-1.2959932901637055,-0.897648678175235,-1.3830622562055257,-1.23462370736927,-0.5168854259457535,0.008307827531290156,-0.8068734776982222,-0.6921511449949069,-1.49370482590854,-0.5424049520175463,0.1634323183235864,-0.7691465841795584,0.12237522774353284,-1.9416409026099937,-0.8401263681461407,-1.7438049988084952,1.9476185671617543,0.12990917166437535,0.20887345354831657
15,1.3553748895155981,-0.31308521581884685,0.3605622747140806,-1.9593262310664048,-0.08565335019445625,-1.7247115675134177,-0.09452224663533867,-0.39083337982498473,0.10700389690596684,-1.790167457777787,-1.1748162333699814,-1.2958129669806187,-0.8993303669156454,-1.3830954874035029,-1.2374116323785818,-0.5169908155934444,0.00444866107197193,-0.8040832763137405,-0.6918812971820143,-1.493746635340071,-0.5390637085594776,0.16257399820964713,-0.767980509633688,0.12040730434273424,-1.9420679280265851,-0.8420990406027471,-1.7419076550667896,1.9472469441695102,0.1308652141834504,0.20697058436013538
16,1.353759495707963,-0.3128626044770446,0.3585522055508031,-1.95929945434191,-0.088963322404731,-1.7254786516719227,-0.09946183057566317,-0.387098777338228,0.10734130858514529,-1.7901223822533383,-1.1761774143844401,-1.2956333041773302,-0.9010125857143582,-1.3831289960468554,-1.2401924902892503,-0.5170905081795751,0.0005875842344044008,-0.8012746179288451,-0.6916086696501375,-1.4937892982518215,-0.5357496961920004,0.1616863989195346,-0.7668496599382911,0.11841385576093398,-1.942534057960628,-0.8441052751370188,-1.740058371964678,1.9468573201634545,0.1317966273003474,0.2050425639165639
17,1.3521473962758017,-0.3126412151450397,0.35654294291584926,-1.9592734201340878,-0.09226002685528613,-1.7262481105973462,-0.10440636607993764,-0.38334241061934254,0.10768205076521005,-1.790078357189969,-1.177536173089076,-1.2954543782402888,-0.9026950177408443,-1.3831627479016058,-1.242965708690156,-0.517184407391142,-0.003274326553573892,-0.7984479780805362,-0.691333360509443,-1.4938327878402677,-0.5324639447617886,0.16076952745823173,-0.7657545247424203,0.11639528068638504,-1.9430393128844403,-0.8461447843826584,-1.7382578099911785,1.9464497327294739,0.13270300643907298,0.20308977730236083
18,1.350538951568122,-0.31242115052185776,0.3545349247310575,-1.9592481356252502,-0.0955426235549494,-1.7270197867179344,-0.10935448793191603,-0.37956506055536476,0.10802599142004948,-1.790035398083398,-1.178892235870796,-1.2952762645339568,-0.904377353493715,-1.3831967076065674,-1.2457307347715492,-0.5172724231898892,-0.007136009901106889,-0.7956038350146797,-0.6910554698925305,-1.493877075698245,-0.529207430860579,0.15982342818649986,-0.7646955419616662,0.11435200513783901,-1.9435836663575998,-0.8482172458879941,-1.7365065600407477,1.9460242509302879,0.1335839883013161,0.2011126369750446
19,1.348934510553193,-0.3122025109521265,0.3525285782324229,-1.959223606615653,-0.09881030252502516,-1.7277935245462526,-0.11430485052072036,-0.37576750794506497,0.1083729962201274,-1.7899935185019396,-1.1802453381202982,-1.2950990371352813,-0.906059291403753,-1.3832308387530095,-1.2484870363022793,-0.5173544719816396,-0.01099642180027486,-0.792742668288607,-0.6907750996595265,-1.493922131884009,-0.52598107574399,0.15884818268166145,-0.7636730970242507,0.11228448140717211,-1.9441670454193836,-0.8503223029943477,-1.7348051426869548,1.945580975420256,0.13443925171291127,0.19911158174470947
20,1.3473344102270912,-0.31198539419601035,0.35052431915221804,-1.9591998375184192,-0.10206228527669955,-1.7285691710667097,-0.11925613079445384,-0.37195053130917294,0.10872292893371505,-1.7899527300643368,-1.181595224658717,-1.2949227686775022,-0.9077405383836066,-1.3832651039687007,-1.2512341024902107,-0.5174304767550052,-0.014854537831894905,-0.7898649574094008,-0.6904923531018179,-1.4939679249968705,-0.5227857435626985,0.15784390942418275,-0.7626875223823619,0.11019318689876145,-1.9447893311882498,-0.8524595658536299,-1.733154007803113,1.9451200384067175,0.13526851824831948,0.19708707564898117
21,1.345738975094132,-0.3117698952163959,0.3485225509777107,-1.9591768313615145,-0.10529782610797526,-1.7293465761004538,-0.12420703102606344,-0.36811490477682335,0.10907565182734678,-1.7899130424277474,-1.1829416501084005,-1.2947475302041616,-0.9094208103217806,-1.3832994650057402,-1.2539714447229189,-0.5175003671889891,-0.01870935521953772,-0.7869711805173196,-0.6902073346465845,-1.4940144222588199,-0.5196222399133187,0.15681076331357302,-0.7617390972882545,0.10807862287388004,-1.9454503596614674,-0.8546286125772742,-1.7315535345257822,1.944641603458347,0.1360715526310967,0.19503960673116175
22,1.3441485167204554,-0.31155610598441963,0.3465236642893603,-1.9591545897966096,-0.10851621321593954,-1.7301255926455832,-0.1291562813778244,-0.3642613960618333,0.10943102606261791,-1.7898744632857562,-1.1842843792070743,-1.2945733910340493,-0.911099832519185,-1.3833338828315496,-1.2566985971870104,-0.5175640797292995,-0.022559894722031733,-0.784061813123068,-0.6899201495642208,-1.494061589601525,-0.5164913107128544,0.1557489350187681,-0.7608280478319588,0.10594131310912855,-1.946149922706189,-0.8568289905075215,-1.7300040315537157,1.944145865162561,0.13684816291067203,0.192969685730389
23,1.342563333361279,-0.31134411530420936,0.34452803618048866,-1.9591331131145953,-0.11171676962212587,-1.7309060771909326,-0.13410264225333485,-0.36039076454104635,0.10978891208657576,-1.789836998376191,-1.1856231870652245,-1.2944004186376852,-0.9127773400671313,-1.3833683177223879,-1.25941511736565,-0.5176215576335004,-0.02640520235668957,-0.781137326906778,-0.6896309036806342,-1.4941093917580313,-0.5133936413971593,0.1546586501697218,-0.7599545472348701,0.10378180247854972,-1.9468877692315962,-0.8590602176010979,-1.7285057377716562,1.943633048635515,0.1375982004180568,0.19087784469329422
24,1.3409837096615684,-0.31113400865748153,0.3425360297595358,-1.9591124002674571,-0.11489885391064648,-1.731687890002027,-0.13904490642847062,-0.3565037594454838,0.11014917001312068,-1.7898006514984246,-1.186957859367108,-1.2942286785257993,-0.9144530781662855,-1.3834027293587334,-1.26212058641507,-0.5176727509854143,-0.030244350947481125,-0.7781981885856483,-0.6893397030962882,-1.4941577923584686,-0.5103298564405047,0.153540168398363,-0.7591187163910624,0.10160065546956831,-1.9476636065302644,-0.8613217839145015,-1.727058823185488,1.9431034088896602,0.13832155950531233,0.1887646355171683
25,1.3394099164291806,-0.31092586806840944,0.3405479937351566,-1.959092448896154,-0.11806186078061902,-1.7324708953781245,-0.14398190095531488,-0.35260111817346,0.11051165999302713,-1.7897654245397505,-1.1882881925163278,-1.2940582341501368,-0.9161268023866856,-1.3834370769218762,-1.264814609421972,-0.5177176166794759,-0.03407644149435804,-0.7752448588562068,-0.6890466539137154,-1.4942067540290471,-0.507300519190167,0.15239378223837124,-0.7583206246459276,0.09939845464326415,-1.9484771017755995,-0.8636131531794422,-1.7256633901526064,1.9425572300651746,0.13901817707568484,0.18663062843504208
26,1.3378422104788594,-0.3107197719889544,0.3385642620835874,-1.9590732553640997,-0.1212052214161577,-1.7332549618796118,-0.1489124888355983,-0.34868356473318424,0.11087624257041262,-1.7897313175103498,-1.1896139937274133,-1.2938891468167744,-0.9177982788695024,-1.3834713191910704,-1.2674968155447979,-0.5177561183759919,-0.03790060436187176,-0.7722777914161443,-0.688751861975066,-1.49425623849361,-0.5043061320069631,0.15121981589435898,-0.7575602907997135,0.09717579904971392,-1.949327883661123,-0.8659337644564596,-1.7243194748890542,1.941994824532801,0.13968803191323637,0.18447641045334556
27,1.336280834544863,-0.3105157952046364,0.33658515379693876,-1.9590548147958031,-0.12432840367882386,-1.7340399625253375,-0.15383557046262425,-0.3447518083207108,0.11124277902371756,-1.7896983285862884,-1.1909350810652928,-1.2937214756120041,-0.9194672844717547,-1.3835054146406074,-1.2701668580428132,-0.5177882264285051,-0.041716000287091895,-0.7692974320696285,-0.6884554326110864,-1.4943062066770116,-0.5013471366999154,0.1500186238920126,-0.7568376843217445,0.09493330260923243,-1.9502155441665137,-0.8682830338543938,-1.723027049232991,1.9414165318767245,0.14033114382253759,0.18230258375293532
28,1.3347260172594533,-0.3103140087605158,0.33461097271035145,-1.9590371211201887,-0.12743091212891178,-1.7348257749597964,-0.15875008483297268,-0.34080654203744487,0.11161113168950891,-1.7896664541599334,-1.192251283434958,-1.2935552773407144,-0.9211336068556837,-1.383539321536194,-1.2728244141978289,-0.5178139177846746,-0.04552182120859574,-0.7663042179189674,-0.6881574704027419,-1.4943566188095934,-0.49842391524077034,0.1487905896215287,-0.7561527267595808,0.09267159247030751,-1.9511396404346772,-0.8706603563031826,-1.721786022642434,1.9408227177670647,0.1409475725905184,0.1801097640642723
29,1.3331779731940028,-0.3101144799069677,0.3326420074053037,-1.9590201671180922,-0.13051228788326694,-1.735612281590372,-0.1636550105314444,-0.3368484417497923,0.11198116426767785,-1.7896356888971223,-1.1935624405239638,-1.2933906064770793,-0.9227970445249272,-1.3835729980300417,-1.275469185134145,-0.5178331758622697,-0.049317290919940374,-0.763298576644467,-0.6878580789565065,-1.494407434532048,-0.4955367907419248,0.1475361237872786,-0.7555052933261133,0.0903913073548634,-1.9520996967436954,-0.8730651073674247,-1.7205962444039458,1.9402137727323523,0.14153741678387863,0.17789857902739958
30,1.3316369029590593,-0.30991727206465636,0.33067853118577745,-1.9590039444734104,-0.13357210831848387,-1.7363993696951368,-0.1685493664946988,-0.33287816509197976,0.1123527421068631,-1.7896060258003879,-1.1948684027007073,-1.2932275151272572,-0.9244574068100286,-1.3836064022541157,-1.278100895542962,-0.5178459904020389,-0.05310166555252616,-0.7602809258733421,-0.6875573606941603,-1.4944586129999853,-0.49268602867948535,0.14625566277704513,-0.754895214646612,0.08809309590120984,-1.95309520655731,-0.8754966450882526,-1.7194575060280473,1.9395901108429898,0.1421008123965357,0.1756696665471181
31,1.3301029933593835,-0.30972244480796074,0.3287208021234926,-1.9589884438273706,-0.13660998662930146,-1.7371869315019621,-0.1734322125608308,-0.3288963506115937,0.11272573246919179,-1.7895774562775157,-1.1961690308716693,-1.293066053003703,-0.9261145138061433,-1.3836394924110187,-1.2807192933180338,-0.5178523572993403,-0.056874233894100554,-0.7572516726375909,-0.687255416657738,-1.4945101129875422,-0.48987183834168213,0.1449496669644015,-0.754322278647046,0.08577761501465198,-1.9541256346375988,-0.8779543118413144,-1.7183695438065787,1.938952168317161,0.14263793136242112,0.1734236731533984
32,1.3285764175997044,-0.3095300538659674,0.32676906316799603,-1.958973654835389,-0.13962557125280106,-1.7379748642399326,-0.17830264981371408,-0.32490361705600673,0.11310000477368452,-1.7895499702146949,-1.1974641963009836,-1.2929062674106098,-0.9277681962660816,-1.3836722268620403,-1.2833241491097638,-0.5178522784165251,-0.060634317550322024,-0.7542112129198667,-0.6869523463300963,-1.4945618929894195,-0.4870943744816982,0.14361861895785027,-0.7537862325645635,0.08344552823525735,-1.9551904192037175,-0.8804374361990358,-1.7173320415070374,1.9383004020609544,0.1431489799495347,0.1711612523766092
33,1.327057335536751,-0.30934015114002966,0.32482354231705385,-1.9589595662259853,-0.14261854516961894,-1.7387630701642591,-0.183159820732294,-0.3209005627965992,0.11347543081791672,-1.7895235560535199,-1.1987537803958304,-1.2927482032399196,-0.9294182954520473,-1.3837045642119372,-1.285915255805244,-0.517845761378135,-0.06438127095780088,-0.7511599312855654,-0.6866482474713828,-1.4946139113207684,-0.48435373915315005,0.14226302181021944,-0.7532867850608579,0.081097504131715,-1.9562889741209561,-0.8829453347858348,-1.7163446331790326,1.9376352881546048,0.14363419705152752,0.16888306314659968
34,1.325545893972996,-0.30915278473679897,0.3228844528425347,-1.9589461658612348,-0.14558862509381068,-1.7395514565560675,-0.18800290915614581,-0.3168877653865479,0.11385188497776205,-1.789498200871111,-1.2000376744612264,-1.2925919029772863,-0.9310646629495885,-1.383736463390068,-1.2884924279419327,-0.5178328193510161,-0.06811448125785294,-0.7480982005986148,-0.6863432159715266,-1.4946661262143974,-0.4816499837059579,0.14088339720153517,-0.7528236084192306,0.07873421472959057,-1.9574206911049228,-0.8854773141155525,-1.7154069060484143,1.9369573202967476,0.1440938523932237,0.16658976822405663
35,1.3240422269874856,-0.3089679990155591,0.320951993566791,-1.9589334407982613,-0.1485355605632615,-1.740339935698588,-0.1928311400795173,-0.3128657812469576,0.11422924438526107,-1.7894738904626313,-1.201315779427812,-1.2924374067173134,-0.932707160447386,-1.38376788372755,-1.291055501062754,-0.5178134708114703,-0.07183336804084559,-0.7450263818178035,-0.6860373457187096,-1.494718495914824,-0.4789831109201546,0.13948028360817083,-0.7523963408064698,0.07635633398159332,-1.9585849419263521,-0.888032672401049,-1.7145184034753203,1.936267008218416,0.14452824466641667,0.16428203267188224
36,1.3225464562991398,-0.3087858346486418,0.3190263491844368,-1.9589213773512866,-0.15145913294263003,-1.7411284248313863,-0.19764377928675916,-0.30883514547525265,0.11460738908485904,-1.7894506094255023,-1.2025880055562148,-1.2922847521873622,-0.9343456594865613,-1.3837987850301605,-1.2936043310203904,-0.5177877393015538,-0.07553738297148846,-0.7419448238699246,-0.6857307284836334,-1.4947709787687415,-0.4763530772552867,0.13805423447052417,-0.7520045885811939,0.07396453628674013,-1.9597810806028635,-0.8906107013266672,-1.7136786279533047,1.9355648760782254,0.14493769961200584,0.16196052237361674
37,1.321058691657961,-0.30860632869366716,0.31710769062438354,-1.9589099611537895,-0.15435915435075728,-1.7419168460843677,-0.20244013284251636,-0.3047963717690337,0.11498620216843827,-1.7894283412446552,-1.2038542721215162,-1.2921339747791925,-0.9359800411831887,-1.3838291276467531,-1.2961387932384392,-0.5177556531765979,-0.07922600930572966,-0.7388538635955398,-0.6854234538192691,-1.4948235333115334,-0.47375979519343,0.13660581637081917,-0.751647928631007,0.07155949506454026,-1.9610084455649128,-0.8932106877750772,-1.712887044127842,1.9348514608497782,0.14532256806409252,0.15962590260517662
38,1.3195790312596964,-0.3084295146763375,0.3151961754470205,-1.9588991772203503,-0.1572354665242812,-1.74270512639335,-0.2072195464503243,-0.3007499524580307,0.1153655698897309,-1.7894070683781846,-1.2051145070812412,-1.2919851075876863,-0.937610195927663,-1.3838588725330152,-1.2986587819369206,-0.5177172453459782,-0.0828987613100739,-0.7357538257627867,-0.6851156089756564,-1.4948761183495196,-0.4712031356544494,0.13513560723187942,-0.7513259107216855,0.06914188138954652,-1.9622663617841851,-0.8958319155008615,-1.7121430818137973,1.9341273107118024,0.14568322397104982,0.15727883666540476
39,1.3181075621796512,-0.3082554226825137,0.3132919482715106,-1.9588890100077936,-0.160087939628884,-1.743493197399032,-0.21198140469333812,-0.2966963586363505,0.11574538175883882,-1.7893867723428163,-1.2063686467301753,-1.291838181455898,-0.9392360230644972,-1.3838879813104337,-1.3011642093293745,-0.5176725530090774,-0.08655518359415224,-0.7326450231443562,-0.684807278829221,-1.4949286930376733,-0.46868293046295223,0.13364419454689822,-0.7510380598426094,0.06671236269083479,-1.9635541428537382,-0.89847366674408,-1.7114461389928914,1.9333929834509382,0.1460200624078412,0.1549199845701479
40,1.316644360821534,-0.3080840794583209,0.31139514122830686,-1.9588794434752757,-0.16291647102918178,-1.7442809953311975,-0.2167251301708379,-0.29263604038691127,0.1161255306177061,-1.7893674337986447,-1.2076166353451463,-1.291693225025684,-0.9408574305560106,-1.3839164163203923,-1.3036550047984656,-0.5176216173883065,-0.09019485036725843,-0.7295277566525602,-0.6844985458259925,-1.4949812169526016,-0.46619897484738027,0.1321321736493511,-0.7507838785337617,0.06427160152019569,-1.9648710930103153,-0.9011352237779361,-1.7107955847737322,1.9326490448864007,0.14633349759300948,0.15255000181379844
41,1.3151894933774353,-0.30791550851705907,0.3095058744321738,-1.9588704611430021,-0.16572098402775765,-1.745068460879983,-0.22145018254391713,-0.2885694270897791,0.1165059126974878,-1.7893490326326444,-1.2088584248227423,-1.2915502647931718,-0.9424743346332317,-1.3839441406733606,-1.3061311140566592,-0.5175644834609392,-0.09381736462933743,-0.7264023155272727,-0.6841894899380332,-1.4950336501606363,-0.4637510299528322,0.1306001460312792,-0.7505628491808055,0.061820254392059765,-1.966216509090363,-0.9038158703855529,-1.7101907622985884,1.9318960673250125,0.1466239609228134,0.1501695382014734
42,1.3137430162952792,-0.30774973025173774,0.3076242564712142,-1.9588620461492938,-0.16850142658325992,-1.7458555390560029,-0.22615605750339254,-0.2844969278060538,0.11688642765883722,-1.7893315480405072,-1.2100939743127357,-1.2914093251683534,-0.9440866594371703,-1.3839711182931795,-1.308592498298116,-0.5175011996914082,-0.09742235730658344,-0.7232689775714737,-0.683880188632334,-1.4950859532809304,-0.461338825350472,0.12904871771723098,-0.7503744362659943,0.05935897069743964,-1.9675896824124246,-0.9065148932617386,-1.7096309915827463,1.9311346280543178,0.1468918990339757,0.14777923675426222
43,1.312304976750344,-0.3075867620521041,0.30575038490764805,-1.9588541813057612,-0.1712577700168463,-1.7466421790410807,-0.23084228567249168,-0.28041893172898874,0.11726697861619231,-1.7893149586064094,-1.2113232498497797,-1.2912704285381154,-0.9456943366534294,-1.3839973139564894,-1.3110391333475309,-0.5174318177655836,-0.10100948634139176,-0.7201280094291316,-0.6835707168513896,-1.4951380875435032,-0.45896206152773017,0.12747849770020153,-0.7502180885639522,0.05688839169346658,-1.9689899005796925,-0.9092315833364677,-1.709115572273954,1.9303653078806768,0.1471377719054435,0.1453797326892627
44,1.3108754131177238,-0.30742661842509617,0.30388434678636106,-1.958846849150381,-0.1739900077155746,-1.7474283340312649,-0.23550843145629843,-0.27633580869415997,0.11764747214718331,-1.7892992423803633,-1.2125462239857294,-1.2911335953320475,-0.9472973051429292,-1.3840226933273747,-1.3134710088111712,-0.5173563923284313,-0.10457843574592639,-0.7169796669002312,-0.6832611470046361,-1.4951900148422201,-0.45662041234491785,0.12589009644496688,-0.7500932412726522,0.054409149569431284,-1.970416449197592,-0.9119652370176199,-1.708643786321114,1.9295886897184207,0.14736205100847083,0.14297165247545257
45,1.3094543554428772,-0.3072693111177169,0.30202621914752714,-1.9588400319983055,-0.17669815384062848,-1.7482139610737353,-0.24015409184928416,-0.27224790974070845,0.11802781828830723,-1.7892843769528546,-1.2137628754247203,-1.2909988440904119,-0.9488955105713,-1.3840472229873366,-1.3158881272349123,-0.5172749807263162,-0.10812891462802769,-0.7138241952878733,-0.682951548969919,-1.4952416977827354,-0.4543135274453207,0.12428412446328674,-0.7499993180712079,0.0519218665896147,-1.9718686135023233,-0.9147151573512932,-1.7082149005430205,1.928805357235313,0.14756521751323104,0.14055561296581107
46,1.3080418259076922,-0.3071148492413989,0.30017606953990944,-1.9588337119902686,-0.17938224204753958,-1.748999020899115,-0.2447788952115417,-0.2681555677159588,0.11840793051802427,-1.7892703395265204,-1.2149731886629143,-1.29086619153369,-0.9504889050392843,-1.3840708704607303,-1.3182905032735832,-0.5171876427550804,-0.11166065619760478,-0.7106618297725419,-0.6826419901041495,-1.4952930997254625,-0.45204103460729733,0.12266119096455536,-0.7499357330973583,0.04942715431261804,-1.9733456798972873,-0.9174806550987344,-1.707828169089505,1.9280158935587564,0.14774776055906913,0.13813222060552105
47,1.3066378392897733,-0.3069632393970016,0.2983339565317492,-1.958827871138487,-0.18204232422483527,-1.7497834777506092,-0.24938250002358692,-0.2640590979160534,0.11878772572842611,-1.7892571069846648,-1.2161771536346095,-1.2907356526331737,-0.9520774467162689,-1.3840936042358263,-1.3206781628754678,-0.5170944404148994,-0.11517341676104888,-0.7074927958088392,-0.6823325352623143,-1.4953441848236682,-0.4498025420283529,0.12102190258462375,-0.7499018928387478,0.0469256128863747,-1.9748469373952664,-0.92026104972961,-1.7074828357888647,1.927220880046376,0.14791017559442826,0.13570207071554716
48,1.3052424034129337,-0.3068144857996606,0.29649993021645926,-1.9588224913699814,-0.18467846925681483,-1.750567299211287,-0.25396459362881296,-0.2599587987556244,0.11916712418660975,-1.7892446559564557,-1.217374765366194,-1.2906072406821034,-0.9536610994788424,-1.3841153937816781,-1.3230511424853382,-0.5169954376727806,-0.1186669747105782,-0.7043173095402263,-0.6820232468240144,-1.495394918056818,-0.4475976405325782,0.11936686219470695,-0.7498971979332807,0.0444178304175525,-1.9763716789651178,-0.9230556703319563,-1.7071781363768783,1.9264208951238517,0.14805296279143929,0.13326574685040196
49,1.3038555195871395,-0.3066685904027856,0.29467403271064285,-1.958817554567275,-0.187290761815445,-1.7513504560307258,-0.2585248909718898,-0.25585495245994067,0.11954604948686334,-1.7892329628786858,-1.2185660236392175,-1.2904809673669064,-0.9552398325560587,-1.3841362095609926,-1.3254094882689444,-0.5168907002334499,-0.12214112951479157,-0.7011355782275676,-0.6817141847267285,-1.4954452652593242,-0.445425905694215,0.11769666779153162,-0.7499210448749413,0.04190438241363247,-1.9779192027825432,-0.9258638564397205,-1.706913300604048,1.925616513192135,0.14817662553916186,0.13082382022848119
50,1.3024771830364068,-0.3065255530205788,0.2928562986422563,-1.9588130426064492,-0.18987930118567542,-1.7521329219521165,-0.26306313334060843,-0.25174782577341537,0.11992442849473439,-1.789222004054024,-1.2197509326636624,-1.2903568428381296,-0.9568136201828744,-1.3841560230392131,-1.3277532553614482,-0.5167802953192436,-0.12559570071607773,-0.6979478006875552,-0.6814054065050229,-1.4954951931448703,-0.44328689987142295,0.11601191146917782,-0.7499728276225142,0.03938583129558185,-1.9794888133852462,-0.9286849587793016,-1.7066875542189461,1.9248083036054944,0.14828166901851558,0.12837684923297055
51,1.3011073833134006,-0.30638537144852107,0.29104675562702254,-1.9588089373925623,-0.19244420012781469,-1.752914673540835,-0.2675790871178844,-0.24763767067881523,0.12030219128400833,-1.7892117557057112,-1.2209295007623022,-1.290234875780705,-0.9583824412630204,-1.3841748066900388,-1.3300825071418727,-0.516664291459508,-0.1290305269399065,-0.6947541677373855,-0.6810969673349601,-1.495544669326503,-0.44118017414556804,0.11431317847242638,-0.7500519391096102,0.03686272597872078,-1.9810798227334552,-0.9315183399369563,-1.7065001208266841,1.9239968297211936,0.1483685988610496,0.1259253789810006
52,1.2997461046997048,-0.3062480415813451,0.2892454247314776,-1.9588052208924551,-0.1949855837799786,-1.7536956900153686,-0.2720725425498708,-0.2435247251219859,0.12067927106757587,-1.7892021940286946,-1.2221017400668672,-1.2901150734832323,-0.9599462790423754,-1.3841925339976038,-1.3323973145352521,-0.5165427582898978,-0.13244546492042505,-0.6915548626423503,-0.6807889200829961,-1.4955936623326975,-0.4391052701625174,0.11260104633084256,-0.7501577726552919,0.0343356015191154,-1.9826915511773857,-0.9343633749493183,-1.7063502236225472,1.923182648021011,0.1484379198928721,0.12346994095844925
53,1.2983933265909506,-0.3061135575280843,0.2874523209212955,-1.958801875164986,-0.19750358860303308,-1.7544759530813867,-0.2765433125353909,-0.23940921373737628,0.12105560412311461,-1.7891932952372183,-1.2232676662265694,-1.2899974419059996,-0.9615051207937233,-1.3842091794555516,-1.3346977553437922,-0.5164157663618636,-0.13584038854620162,-0.6883500615633145,-0.6804813153586924,-1.4956421416196117,-0.4370617218735094,0.11087608407230747,-0.750289723275401,0.03180497882261045,-1.9843233283337387,-0.9372194518196182,-1.7062370870017651,1.9223663073042674,0.1484901349643016,0.12101105271756418
54,1.2970490238661874,-0.305981911723851,0.28566745349378253,-1.9587988823887577,-0.19999836136990418,-1.75525544676964,-0.28099123144119453,-0.2352913485701119,0.1214311297144542,-1.7891850356089147,-1.2244272981293942,-1.2898819857475055,-0.9630589575136019,-1.3842247185632364,-1.3369839136080193,-0.5162833869625179,-0.13921518792940588,-0.6851399340013424,-0.680174201570611,-1.4956900775797564,-0.43504905717416154,0.10913885151425134,-0.7504471888954158,0.029271364413440963,-1.9859744938737827,-0.9400859719624676,-1.706159938047208,1.9215483479515407,0.14852574386511228,0.11854921763439537
55,1.2957131672410556,-0.3058530950380604,0.2838908264936605,-1.9587962248874053,-0.20247005820061995,-1.756034157278283,-0.2854161539468714,-0.2311713297908234,0.12180579000943495,-1.7891773915254658,-1.2255806576364259,-1.2897687085092817,-0.9646077836317918,-1.3842391278192854,-1.3392558789985813,-0.516145691944985,-0.1425697685011927,-0.6819246432370348,-0.6798676249848037,-1.4957374415473088,-0.4330667994410823,0.10738989863044618,-0.750629571466311,0.026735250259231565,-1.9876443982259533,-0.9429623505803008,-1.7061180078975067,1.9207293012578148,0.14854524232462532,0.11608492472288935
56,1.2943857236044898,-0.3057270968788727,0.2821224391114729,-1.958793885152533,-0.2049188436439843,-1.7568120728201135,-0.2898179539226267,-0.22704934639987703,0.12217952999501118,-1.7891703395099183,-1.2267277693293515,-1.2896576125588526,-0.9661515967338442,-1.3842523847127517,-1.3415137462390827,-0.5160027535692596,-0.1459040501355668,-0.6787043467624161,-0.6795616297853484,-1.4957842058003032,-0.4311144689663681,0.10562976499087584,-0.7508362779854546,0.024197113649100613,-1.9893324031962194,-0.9458480169747459,-1.7061105329987172,1.9199096888334255,0.14854912109534849,0.11361864850239818
57,1.293066656338823,-0.30560390529367926,0.28036228606414004,-1.9587918458643885,-0.20734488980636215,-1.7575891834751451,-0.29419652334253693,-0.22292557691807932,0.12255229739028987,-1.7891638562607572,-1.2278686602711797,-1.289548699190696,-0.9676903972969131,-1.3842644677120843,-1.3437576145600758,-0.5158546443535219,-0.1492179663035516,-0.6754791967034911,-0.6792562581364319,-1.4958303435599307,-0.42919158429098947,0.10385897927191998,-0.7510667214250635,0.021657417121531252,-1.9910378825097246,-0.9487424147963326,-1.7061367562431646,1.9190900220708396,0.14853786511838374,0.1111508489152942
58,1.291755925623297,-0.30548350706550775,0.2786103579573665,-1.9587900899103803,-0.2097483755276767,-1.75836548104884,-0.2985517712353643,-0.218800190061328,0.12292404255813653,-1.7891579186828526,-1.2290033597801104,-1.2894419686851026,-0.9692241884390335,-1.3842753562521362,-1.34598758718411,-0.5157014369357994,-0.15251146325906823,-0.6722493402318467,-0.6789515502455173,-1.4958758289871787,-0.427297663438706,0.10207805883385752,-0.7513203215711506,0.01911660843864938,-1.9927602222774128,-0.9516450022360354,-1.7061959279995342,1.9182708016750225,0.1485119527684077,0.10868197129135362
59,1.2904534887210974,-0.30536588780526275,0.276866641629763,-1.958788600401541,-0.21212948560438327,-1.7591409589362617,-0.30288362267450963,-0.214673345397063,0.12329471841592154,-1.789152503915408,-1.230131899216407,-1.28933742036486,-0.9707529756818792,-1.3842850307194206,-1.3482037708415329,-0.5155432039458027,-0.15578449925754762,-0.6690149199639208,-0.6786475444271802,-1.4959206371770386,-0.4254322250527035,0.10028750936251557,-0.7515965057762362,0.016575120603556016,-1.9944988213914916,-0.9545552521622053,-1.7062873070386235,1.917452517254919,0.14847185517567668,0.10621244635557374
60,1.2891593002501294,-0.3052510320397603,0.27513112047868643,-1.9587873606870463,-0.21448841005888833,-1.759915611992334,-0.30719201780823463,-0.2105451939807242,0.12366428034592439,-1.7891475893570434,-1.2312543117820471,-1.2892350526497043,-0.9722767667269357,-1.3842934724358245,-1.3504062753165633,-0.5153800178867157,-0.15903704380795447,-0.665776074346793,-0.6783442771672361,-1.4959647441505008,-0.42359478943761464,0.09848782457175466,-0.7518947096293749,0.014033371917395178,-1.996253091853691,-0.9574726522064648,-1.706410161359437,1.9166356469733838,0.14841803562221598,0.10374269027611704
61,1.2878733124378448,-0.30513892329554737,0.2734037747679261,-1.9587863543669044,-0.21682534345462484,-1.7606894364083323,-0.3114769109308766,-0.20641587897075284,0.12403268610585841,-1.789143152688157,-1.2323706323328687,-1.2891348631085155,-0.9737955712449383,-1.3843006636409712,-1.352595213023008,-0.515211951026678,-0.16226907695859039,-0.6625329380295618,-0.6780417831868236,-1.4960081268445562,-0.421784879509982,0.09667948596338903,-0.7522143775472603,0.011491766072895046,-1.9980224590403248,-0.9603967048021298,-1.7065637689205033,1.9158206572527563,0.1483509490091161,0.10127310474912779
62,1.2865954753604951,-0.3050295441785296,0.2716845819174747,-1.958785565302925,-0.21914048425577456,-1.761462429594675,-0.3157382695954149,-0.2022855362209759,0.12439989573992734,-1.7891391718907066,-1.2334808972028681,-1.289036848509242,-0.975309400678352,-1.3843065874734195,-1.3547706986088592,-0.515039075299659,-0.1654805886167681,-0.6592856422195752,-0.6777400955061419,-1.4960507631004076,-0.42000202166054335,0.09486296264108596,-0.7525549632903317,0.008950692281196531,-1.9998063619081865,-0.9633269271786815,-1.7067474182814308,1.9150080025331633,0.1482710413916748,0.09880407711723882
63,1.2853257371672533,-0.30492287644945587,0.269973516775715,-1.9587849776280841,-0.22143403423044117,-1.7622345900700342,-0.31997607376742737,-0.19815429484948988,0.12476587149077568,-1.789135625265565,-1.2345851440402702,-1.2889410048665633,-0.9768182680566067,-1.3843112279508751,-1.35693284858891,-0.514861462215396,-0.16867157790220502,-0.6560343150229577,-0.6774392455075803,-1.496092631650094,-0.41824574653197866,0.09303871117476806,-0.752915930407912,0.006410525428876587,-2.001604253145283,-0.9662628513157565,-1.706960409159788,1.914198125080567,0.14817874957898639,0.09633598051867605
64,1.284064044289691,-0.30481890109533233,0.26827055187443516,-1.958784575754396,-0.22370619789592375,-1.763005917356739,-0.3241903150201907,-0.1940222777834118,0.12513057771264885,-1.7891324914475917,-1.23568341165495,-1.288847327487311,-0.9783221878237457,-1.3843145699495782,-1.3590817810044284,-0.5146791827780436,-0.17184205253377238,-0.6527790817690455,-0.6771392629980086,-1.4961337121017149,-0.4165155897159539,0.09120717551205296,-0.7532967526164707,0.003871626262180721,-2.0034155992703733,-0.9692040238600343,-1.7072020529084255,1.9133914548415332,0.14807450079448753,0.0938691740639723
65,1.2828103416371426,-0.30471759839685747,0.26657565766715147,-1.9587843443793995,-0.22595718200461457,-1.7637764118824037,-0.3283809957704343,-0.18988960227909174,0.12549398078603574,-1.7891297494185714,-1.2367757398767607,-1.2887558110136852,-0.979821175678104,-1.3843165991830229,-1.36121761510887,-0.5144923074131617,-0.1749920282490528,-0.6495200653184846,-0.6768401762700298,-1.4961739849234363,-0.41481109237343916,0.08936878693330143,-0.7536969141151237,0.0013343415955976074,-2.005239880685195,-0.9721500060083098,-1.70747167291833,1.9125884093416856,0.14795871239391406,0.09140400303741766
66,1.2815645727785174,-0.3046189479919856,0.264888802751273,-1.9587842684913686,-0.2281871950689469,-1.7645460748876842,-0.3325481285540458,-0.18575638041758274,0.12585604903402683,-1.7891273785181665,-1.2378621694243028,-1.2886664494643103,-0.981315248423594,-1.38431730218015,-1.3633404710785493,-0.5143009059026561,-0.1781215282560043,-0.6462573863548836,-0.6765420121620247,-1.4962134314264481,-0.41313180178237013,0.08752396404690564,-0.7541159098424712,-0.001200995457963937,-2.007076591683172,-0.975100373359919,-1.7077686049520466,1.9117893936248302,0.14783179163710508,0.088940799120499
67,1.2803266801111368,-0.3045229289357397,0.26320995407468667,-1.9587843333733495,-0.2303964469237445,-1.7653149083400264,-0.33669173534084834,-0.1816227195753438,0.12621675264058332,-1.7891253584530231,-1.2389427417836514,-1.2885792362731827,-0.9828044238321504,-1.3843166662631492,-1.3654504697471543,-0.5141050473272785,-0.18123058271589748,-0.6429911636600273,-0.6762447961168458,-1.496252033747032,-0.4114772718167715,0.08567311282152901,-0.7545532456788232,-0.003734065238001377,-2.008925240418277,-0.9780547157415675,-1.7080921974126078,1.9109948002297639,0.14769413551010224,0.08647988063471305
68,1.2790966050171977,-0.3044295197564048,0.26153907712737523,-1.9587845246061246,-0.23258514832427205,-1.766082914853259,-0.3408118468874205,-0.1774887228703083,0.12657606357087922,-1.789123669304174,-1.240017499096557,-1.2884941643265775,-0.9842887205168643,-1.384314679524987,-1.3675477323629641,-0.513904800016282,-0.18431922825658598,-0.6397215143727605,-0.6759485522390424,-1.4962897748278903,-0.40984706336146776,0.0838166266521059,-0.7550084385977948,-0.006264561270715353,-2.010785348837596,-0.9810126370074752,-1.708441811552785,1.910205009201846,0.1475461305940316,0.08402155280127513
69,1.2778742880084633,-0.304338698508241,0.2598761361187063,-1.9587848280701983,-0.2347535105782538,-1.7668500976128498,-0.34490850212680885,-0.17335448958358765,0.1269339554938474,-1.7891222915328702,-1.2410864840576237,-1.288411225997977,-0.9857681578153199,-1.3843113308067783,-1.3696323803676145,-0.5137002315038321,-0.18738750751508435,-0.6364485542317427,-0.6756533033505195,-1.4963266383988731,-0.40824074466648186,0.08195488645651991,-0.7554810167711521,-0.008792189989102658,-2.0126564525809982,-0.9839737548176093,-1.7088168216293393,1.909420388136481,0.14738815297731714,0.08156610801538512
70,1.276659668859789,-0.30425044282086106,0.25822109414104655,-1.9587852299468953,-0.23690174521011165,-1.7676164603066344,-0.3489817475938857,-0.16922011555719635,0.12729040370703223,-1.7891212059849704,-1.2421497398199783,-1.2883304131810973,-0.9872427556826405,-1.3843066096750998,-1.371704535195255,-0.5134914084917689,-0.19043546870836034,-0.6331723978023497,-0.6753590710445577,-1.4963626089572335,-0.4066578916451685,0.08008826080000071,-0.7559705196306781,-0.011316670441028085,-2.014538100851163,-0.9869377003966378,-1.7092166150067736,1.9086412922517453,0.1472205682078579,0.07911382613285506
71,1.275452686732087,-0.30416472994542093,0.25657391332036655,-1.9587857167186593,-0.2390300636556741,-1.7683820070608123,-0.3530316368850313,-0.16508569356828656,0.12764538506382647,-1.789120393894018,-1.2432073099089398,-1.2882517173210857,-0.9887125345937445,-1.3843005063993374,-1.373764318090946,-0.5132783968183244,-0.19346316523119914,-0.6298931586880631,-0.6750658757381339,-1.4963976717475287,-0.4050980881200459,0.07821710604440953,-0.7564764978906944,-0.013837733987315411,-2.016429856257058,-0.9899041182760832,-1.7096405922149185,1.907868064487495,0.14704373128189863,0.07666497476704368
72,1.2742532802853241,-0.3040815367977749,0.25493455495450423,-1.958786275168632,-0.24113867698562128,-1.7691467423809932,-0.35705823015076305,-0.16095131368046198,0.12799887790314673,-1.789119836883116,-1.2442592381432127,-1.2881751294439692,-0.9901775154543112,-1.3842930119291514,-1.3758118499471585,-0.5130612614324025,-0.19647065527996305,-0.6266109497267469,-0.6747737367225054,-1.4964318127412757,-0.40356092602018984,0.0763417665197195,-0.7569985135347332,-0.016355123991756506,-2.0183312946338003,-0.9928726660220115,-1.7100881669644867,1.9071010356283924,0.14685798666643643,0.07421980959418475
73,1.2730613877821428,-0.3040008399987453,0.2533029796397536,-1.9587868923795904,-0.24322779565595384,-1.76991067109807,-0.36106159361990053,-0.15681706357281094,0.12835086198158258,-1.7891195169657197,-1.245305568563137,-1.2881006401844326,-0.9916377195199628,-1.3842841178721321,-1.3778472511572617,-0.5128400663730366,-0.1994580015010491,-0.623325883172251,-0.6744826722120293,-1.496465018616461,-0.40204600553393494,0.07446257471513763,-0.757536139769701,-0.018868595504798746,-2.0202420048416654,-0.9958430139504411,-1.7105587661245327,1.9063405244484068,0.14666366835212866,0.0717785746653343
74,1.271876947182673,-0.3039226159116585,0.25167914738643904,-1.9587875557323116,-0.24529762928380983,-1.770673798318691,-0.3650417991538309,-0.15268302884735369,0.12870131840803514,-1.7891194165454474,-1.2463463453655375,-1.2880282398120064,-0.9930931683231728,-1.3842738164717125,-1.3798706414849062,-0.5126148747536537,-0.20242527066283864,-0.6200380708618195,-0.6741926993912057,-1.496497276736994,-0.40055293522049323,0.07257985148745832,-0.7580889609507139,-0.021377914942535447,-2.022161588546848,-0.9988148448325096,-1.7110518296655521,1.905586837874464,0.1464610999337986,0.06934150272329684
75,1.2706998962310936,-0.30384684067729545,0.2500630177241241,-1.9587882529034357,-0.24734838644699322,-1.7714361293800982,-0.36899892382943383,-0.1485492933156418,0.12905022958084658,-1.7891195184150137,-1.2473816128447333,-1.2879579182557426,-0.9945438836074217,-1.3842621005853957,-1.3818821399482444,-0.5123857487507805,-0.2053725333499344,-0.6167476243698102,-0.6739038344599435,-1.4965285751321844,-0.39908133208395685,0.07069390628438187,-0.758656572479624,-0.023882859762492464,-2.0240896599864064,-1.001787853591295,-1.711566810571745,1.9048402711670396,0.14625059471577295,0.06690881552302315
76,1.26953017253448,-0.303773490246403,0.24845454979709095,-1.9587889718628853,-0.2493802745056282,-1.7721976698091026,-0.3729330495492284,-0.14441593926528024,0.12939757912740696,-1.7891198057543771,-1.2484114153392807,-1.2878896651274598,-0.995989887268134,-1.384248963663345,-1.3838818647179616,-0.5121527495968414,-0.208299863678491,-0.6134546551482517,-0.6736160926770562,-1.4965589024763188,-0.3976308216129985,0.0688050373806755,-0.7592385806800866,-0.026383218137577342,-2.026025845719668,-1.0047617469920411,-1.7121031747257611,1.9041011081156163,0.146032455839426,0.06448072415409815
77,1.2683677136344564,-0.30370254040990796,0.24685370245070892,-1.9587897008709,-0.2513934994444056,-1.7729584252849653,-0.3768442626773189,-0.14028304770716565,0.12974335184621402,-1.7891202621281885,-1.2494357971840429,-1.2878234697436335,-0.9974312012999421,-1.3842343997273838,-1.3858699330281339,-0.5119159375767139,-0.21120733903146324,-0.6101592746547787,-0.6733294884020077,-1.4965882480683987,-0.39620103778942517,0.0669135321251961,-0.7598346026518513,-0.02887878862943554,-2.027969784368204,-1.0077362433274086,-1.7126604007690391,1.9033696212470514,0.14580697643044996,0.06205742936406023
78,1.2672124570721477,-0.303633966826973,0.24526043430929162,-1.9587904284747417,-0.253388265733947,-1.773718401605955,-0.38073265369974024,-0.13615069860424758,0.13008753365135034,-1.7891208714826248,-1.250454802667196,-1.2877593211460063,-0.9988678477498398,-1.3842184033504377,-1.38784646109896,-0.5116753720277157,-0.21409503981262112,-0.6068615944684957,-0.6730440351349296,-1.4966166018120997,-0.3947916230685776,0.0650196671969329,-0.7604442661067946,-0.031369379862341944,-2.0299211263463373,-1.0107110720992323,-1.7132379799406459,1.902646072045024,0.14557443976351456,0.05963912188140953
79,1.2660643404469096,-0.3035677450510274,0.24367470384602194,-1.9587911435051129,-0.25536477620987186,-1.774477604659361,-0.38459831690783236,-0.1320189710826275,0.13043011151933448,-1.7891216181416802,-1.2514684759917987,-1.287697208120994,-1.0002998486758035,-1.3842009696364532,-1.3898115640704645,-0.5114311113427178,-0.21696304921820958,-0.6035617263943227,-0.6727597455549447,-1.4966439541960013,-0.3934022283344045,0.06312370886836483,-0.7610672091890466,-0.03385481019864526,-2.0318795335839885,-1.0136859736981456,-1.713835415897327,1.9019307111788522,0.1453351194421234,0.05722598273727419
80,1.2649233014692869,-0.3035038505539012,0.2420964694455012,-1.95879183507234,-0.25732323196821655,-1.7752360403947403,-0.388441350103311,-0.12788794362580935,0.13077107343829472,-1.7891224868029891,-1.2524768612415724,-1.287637119217956,-1.001727226110476,-1.3841820942008174,-1.391765355946305,-0.511183212976089,-0.219811453025166,-0.6002597825563756,-0.67247663155683,-1.4966702962741314,-0.3920325128318762,0.06122591327455835,-0.7617030802814021,-0.03633490741667803,-2.033844679243523,-1.0166606990823086,-1.7144522245172804,1.901223778740097,0.14508927959161683,0.054818183584808354
81,1.263789278008631,-0.3034422587481869,0.24052568945945593,-1.9587924925623557,-0.25926383227591887,-1.7759937148001863,-0.3922618543237415,-0.12375769425291096,0.1311104083594088,-1.78912346253324,-1.2534800023505575,-1.287579042766401,-1.003150002029528,-1.3841617731512978,-1.3937079495468658,-0.5109317334521939,-0.2226403393948454,-0.5969558754809307,-0.6721947042860629,-1.4966956196468648,-0.390682144079239,0.059326526686559425,-0.7623515378000525,-0.03880950839194633,-2.035816247432123,-1.0196350094563604,-1.7150879336899836,1.900525504485478,0.14483717506341023,0.05241588701549548
82,1.2626622081357854,-0.303382945007945,0.2389623222561115,-1.9587931056325216,-0.26118677449514566,-1.7767506338814154,-0.39605993358716807,-0.11962830068163505,0.13144810615054725,-1.7891245307632442,-1.2544779430763282,-1.2875229668921908,-1.0045681983243284,-1.38414000306952,-1.3956394564708543,-0.5106767283761805,-0.2254497986912434,-0.5936501181695149,-0.6719139741722918,-1.4967199164422067,-0.3893507977624523,0.05742578578775442,-0.7630122499795181,-0.041278458782320095,-2.0377939329110797,-1.022608675951609,-1.7157420830942203,1.8998361080847495,0.1445790516486934,0.05001924687162357
83,1.261542030161222,-0.3033258846878665,0.23740632626371774,-1.9587936642073212,-0.2630922540203073,-1.7775068036434674,-0.3998356946546975,-0.11549984047678463,0.1317841575520552,-1.7891256772827109,-1.2554707269764698,-1.2874688795328093,-1.0059818367785718,-1.3841167809929922,-1.3975599870646698,-0.5104182524468097,-0.2282399233127491,-0.5903426241626532,-0.6716344509612816,-1.4967431792974881,-0.3880381576139912,0.055523917951992054,-0.763684894649519,-0.04374161271785842,-2.0397774408032654,-1.0255814793083682,-1.7164142239662823,1.8991557993722858,0.144315146299948,0.04762840855428657
84,1.2604286826689943,-0.30327105314099856,0.2358576600086872,-1.9587941584739543,-0.26498046422666627,-1.778262230074832,-0.4035892468098867,-0.11137239118509004,0.13211855413460355,-1.7891268882347795,-1.2564583973880357,-1.2874167684517506,-1.0073909390485358,-1.384092104397689,-1.3994696503988473,-0.5101563594710921,-0.23101080753650308,-0.5870335075947927,-0.6713561437453801,-1.496765401341499,-0.38674391527804775,0.05362114152236906,-0.7643691590053786,-0.04619883249582276,-2.041766486299934,-1.0285532095612506,-1.7171039188601551,1.898484778601238,0.14404568735876785,0.04524350932634792
85,1.2593221045468481,-0.30321842573513375,0.2343162821487816,-1.9587945788778616,-0.26685159642951145,-1.7790169191338183,-0.4073207016538341,-0.10724603045709492,0.13245128825903937,-1.7891281501103522,-1.2574409974097254,-1.287366621252089,-1.0087955266466522,-1.384065971181193,-1.4013685542509273,-0.5098911023805132,-0.23376254737447996,-0.5837228832409098,-0.671079060992559,-1.496786576177073,-0.38546777016401323,0.051717666089687364,-0.7650647393734203,-0.048649988281355895,-2.0437607943678864,-1.0315236657281408,-1.7178107414013426,1.8978232366992187,0.143770894788589,0.04286467860987788
86,1.2582222350128067,-0.30316797786795785,0.2327821515017593,-1.9587949161181986,-0.2687058398529313,-1.7797708767369866,-0.41103017291492555,-0.1031208361568259,0.13278235303816285,-1.7891294497422698,-1.2584185698865347,-1.28731842538928,-1.010195620928097,-1.3840383796464,-1.4032568050941376,-0.5096225332486422,-0.2364952404404589,-0.5804108665552894,-0.6708032105740787,-1.4968066978641401,-0.3842094292899837,0.04981369276969002,-0.7657713409726916,-0.05109495781423451,-2.045760099457922,-1.0344926555034806,-1.7185342760358364,1.8971713555245706,0.14349098041105288,0.04049203827764695
87,1.2571290136385367,-0.303119684981046,0.23125522706987067,-1.958795161143285,-0.27054338160728003,-1.7805241087494814,-0.41471777627223955,-0.098996886459947,0.13311174230035835,-1.7891307742993658,-1.2593911573966514,-1.287272168183247,-1.0115912430801246,-1.3840093284857857,-1.4051345080913173,-0.5093507033099318,-0.2392089858270897,-0.5770975737029511,-0.6705285997908315,-1.4968257609032596,-0.3829686071178934,0.04790941447827648,-0.7664886776742259,-0.05353362612203895,-2.047764145215409,-1.037459994956424,-1.7192741177755937,1.8965293081223626,0.14320614814483823,0.03812570293832243
88,1.2560423803697682,-0.30307352257279124,0.2297354680605676,-1.9587953051460452,-0.27236440667449036,-1.7812766209771036,-0.41838362919166555,-0.09487425994107435,0.13343945055500642,-1.7891321112804326,-1.2603588022403824,-1.287227836829798,-1.012982414113885,-1.3839788167662284,-1.4070017670935473,-0.509075662979532,-0.24190388399230595,-0.5737831215841789,-0.670255235398414,-1.4968437602196363,-0.38174502538175137,0.04600501620398534,-0.7672164717589418,-0.05596588524002441,-2.0497726841937083,-1.0404255082343439,-1.720029871941761,1.8958972589793461,0.14291659424590233,0.03576578021507515
89,1.2549622755440357,-0.30302946621034377,0.2282228339037681,-1.9587953395594577,-0.2741690979004409,-1.7820284191599711,-0.42202785077384186,-0.09075303565090086,0.13376547295960362,-1.789133448508129,-1.2613215464309149,-1.2871854184114195,-1.0143691548584788,-1.383946843914383,-1.4088586846429898,-0.5087974618739507,-0.24458003665437938,-0.5704676278525921,-0.6699831236309824,-1.4968606911476288,-0.380538412910332,0.04410067527711469,-0.7679544536751678,-0.05839163393792353,-2.051785477571096,-1.0433890272721023,-1.720801153906754,1.895275364277181,0.1426225075481717,0.03341237101735808
90,1.2538886399059792,-0.3029874915406354,0.22671728426599733,-1.9587952560520265,-0.2759576359936444,-1.7827795089676273,-0.4256505616130695,-0.08663329318375394,0.1340898052885185,-1.7891347741228552,-1.2622794316867267,-1.2871448999074906,-1.0157514859570267,-1.383913409702601,-1.4107053619794758,-0.5085161488324098,-0.24723754669495143,-0.56715121092718,-0.6697122702239411,-1.4968765494157499,-0.3793485054455532,0.04219656163492644,-0.7687023617966829,-0.06081077745386074,-2.05380229487176,-1.0463503915074377,-1.7215875888361893,1.8946637721433173,0.14232406970381764,0.03106556980566886
91,1.2528214146204328,-0.3029475743005576,0.22521877906170346,-1.9587950465232882,-0.2777301995295713,-1.783529895995461,-0.4292518836664071,-0.08251511273618213,0.13441244390331178,-1.7891360765766195,-1.26323249942548,-1.2871062682039538,-1.0171294278645397,-1.3838785142353818,-1.412541899050409,-0.5082317719387542,-0.24987651806941932,-0.5638339899987014,-0.6694426804355177,-1.4968913311321574,-0.37817504545766456,0.0402928380824518,-0.7694599421820669,-0.06322322723551357,-2.0558229136913573,-1.0493094476027593,-1.72238881143156,1.894062622898993,0.14202145542233893,0.028725464849153667
92,1.2517605412835102,-0.30290969032635684,0.22372727846202795,-1.9587947030993647,-0.2794869649599762,-1.7842795857623144,-0.43283194013219856,-0.07839857515714005,0.13473338572455149,-1.7891373446269163,-1.264180790759236,-1.287069510102483,-1.0185030008473936,-1.3838421579363513,-1.4143683945235919,-0.507944378543783,-0.2524970557240927,-0.5605160850308337,-0.6691743590672732,-1.4969050327706352,-0.37701778195826424,0.0383896605484809,-0.7702269483360665,-0.06562890068861534,-2.057847119427563,-1.052266049173591,-1.7232044656744423,1.8934720493038661,0.14171483270775825,0.02639213847595153
93,1.2507059619318786,-0.3028738155623083,0.22224274290128904,-1.9587942181285702,-0.2812281066266406,-1.7850285837091557,-0.43639085533733374,-0.07428376199031421,0.13505262820505382,-1.7891385673306321,-1.2651243464908521,-1.2870346123291798,-1.0198722249842262,-1.3838043415357506,-1.4161849458026046,-0.5076540152878843,-0.25509926551957557,-0.5571976167564382,-0.6689073104835974,-1.4969176511570583,-0.37587647031206445,0.03648717833637982,-0.7710031409736023,-0.0680277209328564,-2.059874705015975,-1.0552200565238516,-1.7240342045729342,1.8928921767968683,0.14140436309331475,0.02406566731621531
94,1.2496576190504036,-0.30283992606872145,0.22076513308142,-1.9587935841770812,-0.28295379677899035,-1.7857768951987127,-0.4399287546325835,-0.07017075550910583,0.13537016930448367,-1.7891397340380002,-1.266063207111425,-1.2870015615428336,-1.021237120168088,-1.3837650660584246,-1.4179916490444018,-0.5073607281238632,-0.2576832541598639,-0.5538787066692891,-0.668641538630237,-1.4969291834563372,-0.37475087204823326,0.034585534369434394,-0.771788287786965,-0.07041961656520847,-2.0619054706716704,-1.0581713363881242,-1.7248776899109366,1.8923231237329197,0.14109020187310833,0.02174612253777943
95,1.248615455578326,-0.3028079980293307,0.21929440997458483,-1.9587927940246739,-0.2846642055950902,-1.786524525515955,-0.44344576429539556,-0.06605963874476109,0.13568600746524925,-1.7891408343866113,-1.26699741279866,-1.2869703443427725,-1.0225977061096903,-1.3837243328122983,-1.4197885991788133,-0.507064562339863,-0.26024912912668535,-0.5505594770115985,-0.6683770470519034,-1.4969396271598332,-0.3736407546720561,0.03268486543047095,-0.7725821632166779,-0.07280452143066607,-2.0639392236366767,-1.0611197616810144,-1.7257345920008118,1.8917650016151961,0.14077249833021707,0.01943357007447447
96,1.247579414914124,-0.3027780077581176,0.21783053482417805,-1.958791840660536,-0.28635950120555625,-1.787271479869335,-0.4469420114395768,-0.061950495508114205,0.13600014158962814,-1.7891418582954965,-1.267927003416055,-1.2869409472763338,-1.0239540023416072,-1.3836821433773232,-1.4215758899296653,-0.5067655625822891,-0.2627969986186399,-0.5472400507576508,-0.6681138389090057,-1.4969489800732367,-0.3725458914775784,0.03078530239555133,-0.7733845482264413,-0.07518237440037344,-2.065975777933553,-1.0640652112536748,-1.726604589439883,1.8912179153226916,0.14045139596087175,0.017128070847115658
97,1.2465494409192006,-0.30274993170560843,0.2163734691443996,-1.9587907172791554,-0.2880398497199669,-1.788017763392694,-0.4504176239313272,-0.05784341040538403,0.1363125710180639,-1.7891427959592903,-1.2688520185127967,-1.28691335684598,-1.0253060282232997,-1.383638499594883,-1.4233536138372618,-0.5064637728786529,-0.26532697149473194,-0.5439205515938446,-0.667851916993552,-1.4969572403048985,-0.3714660613618183,0.028886970461581774,-0.774195230082509,-0.07755311915708124,-2.068014954125245,-1.0670075696575276,-1.7274873688711683,1.8906819633328589,0.1401270326943281,0.014829680977216066
98,1.2455254779205243,-0.3027237464646891,0.21492317471857966,-1.9587894172762892,-0.2897054152553869,-1.788763381147749,-0.45387273031112746,-0.05373846884844154,0.1366232955085741,-1.7891436378424816,-1.2697724973242774,-1.286887559516084,-1.0266538029468402,-1.3835934035576403,-1.4251218622819852,-0.50615923666026,-0.26783915722191454,-0.5406011038954232,-0.6675912837442618,-1.496964406254605,-0.3704010486410687,0.026989989367714438,-0.7750140021377998,-0.07991670398785702,-2.07005657908133,-1.069946726915197,-1.7283826247486886,1.890157237939154,0.13979954110813023,0.01253845199349639
99,1.244507470712337,-0.3026994287759729,0.21347961359641576,-1.9587879342450163,-0.2913563599666544,-1.7895083381270867,-0.4573074597210165,-0.049635757059942574,0.13693231521721355,-1.7891443746737625,-1.2706884787731478,-1.2868635417194045,-1.0279973455432247,-1.3835468575998129,-1.4268807255088019,-0.5058519967846776,-0.2703336658262955,-0.5372818327001619,-0.6673319412609298,-1.4969704766027836,-0.36935064286974445,0.025094473610455047,-0.7758406636209897,-0.0822730815839553,-2.072100485750742,-1.0728825782986329,-1.7292900591076268,1.889643825463347,0.13946904863850648,0.010254431031281515
100,1.2434953645570401,-0.302676955532757,0.2120427480902695,-1.9587862619718728,-0.29299284407810966,-1.790252639257587,-0.46072194183683,-0.04553536207369853,0.13723963067953787,-1.7891449974404756,-1.2716000014708286,-1.2868412898632735,-1.0293366748891748,-1.38349886428786,-1.428630292652472,-0.5055420955579194,-0.2728106078476803,-0.5339628636792627,-0.6670738913180803,-1.49697545030013,-0.36831463866217184,0.023200532652422227,-0.7766750194307904,-0.08462220884773725,-2.0741465129410175,-1.0758150241143838,-1.7302093813395707,1.8891418064624916,0.13913567778568414,0.007977661024890136
101,1.2424891051853553,-0.3026563037855986,0.21061254077065938,-1.9587843944330732,-0.29461502591647665,-1.7909962894042153,-0.46411630680500027,-0.04143737173063661,0.13754524279301547,-1.789145497383169,-1.2725071037194127,-1.2868207903355122,-1.0306718097143333,-1.3834494264115673,-1.4303706517632886,-0.5052295747562948,-0.27527009429715354,-0.530644323105695,-0.6668171353779502,-1.4969793265576423,-0.3672928355176637,0.021308271124732256,-0.7775168799355754,-0.08696404670651686,-2.0761945051040964,-1.0787439694959586,-1.731140307973026,1.888651255930484,0.13879954631394853,0.005708180893137425
102,1.2414886387958464,-0.30263745074654025,0.20918895446107344,-1.958782325790816,-0.2962230619446326,-1.7917392933741176,-0.4674906851835489,-0.0373418746706814,0.13784915280033763,-1.7891458659902597,-1.273409823513895,-1.2868020295100957,-1.0320027686087703,-1.383398546975512,-1.4321018898331783,-0.5049144756478753,-0.2777122366174232,-0.5273263378202073,-0.6665616746028354,-1.4969821048370517,-0.36628503764917386,0.01941778902300869,-0.7783660607784766,-0.0892985599331986,-2.0782443121286662,-1.0816693242031965,-1.7320825624593412,1.8881722434941568,0.13846076744630992,0.0034460257180825575
103,1.2404939120538856,-0.3026203737930103,0.20777195223221456,-1.9587800503896744,-0.2978171067960286,-1.7924816559209673,-0.47084520788693096,-0.03324896032087041,0.1381513622735789,-1.7891460949928069,-1.2743081985446747,-1.2867849937525784,-1.033329570030725,-1.3833462291908951,-1.4338240928220252,-0.5045968390135352,-0.2801371466456748,-0.5240090351952219,-0.6663075098668363,-1.4969837848416356,-0.3652910538157796,0.01752918189703893,-0.7792223826880447,-0.09162571697356195,-2.0802957891390252,-1.0845910024285492,-1.7330358749641546,1.887704833603892,0.13811945005367407,0.0011912269171627673
104,1.2395048720901372,-0.3026050504714239,0.20636149739578197,-1.9587775627530715,-0.2993973133095464,-1.7932233817495071,-0.47418000613441474,-0.029158718879998033,0.138451873099162,-1.7891461763594,-1.2752022662002758,-1.286769669425298,-1.0346522323145115,-1.3832924764677261,-1.4355373456840788,-0.5042767051675319,-0.2825449365787028,-0.5206925430968117,-0.6660546417670334,-1.496984366507401,-0.3643106971591986,0.015642541034120053,-0.7800856712945303,-0.09394548978004058,-2.08234879630042,-1.0875089226101673,-1.733999982164436,1.8872490857187474,0.13777569883844337,-0.0010561875911361046
105,1.2385214664986237,-0.3025914585005057,0.20495755349788172,-1.9587748575798363,-0.3009638325645994,-1.7939644755202426,-0.47749521140170675,-0.025071241300065515,0.13875068746358338,-1.7891461022911603,-1.2760920635702468,-1.2867560428923697,-1.035970773678528,-1.3832372924073415,-1.437241732394336,-0.5039541139775906,-0.28493571894010666,-0.5173769898449493,-0.6658030706341272,-1.4969838499946249,-0.3633437850445104,0.013757953636153973,-0.7809557569518197,-0.09625785365183696,-2.0844031986307883,-1.090423007251668,-1.7349746270511703,1.8868050544861177,0.13742961451250177,-0.0032961932279159533
106,1.237543643334435,-0.3025795757743557,0.20356008431215125,-1.958771929740844,-0.3025168139163051,-1.7947049418542427,-0.4807909553755534,-0.02098661926479782,0.1390478078398583,-1.7891458652168541,-1.276977627448194,-1.2867441005244833,-1.0372852122333125,-1.3831806807952478,-1.438937335974787,-0.5036291048844708,-0.28730960654935633,-0.5140625041722054,-0.6655527965425688,-1.4969822356797398,-0.3623901389052172,0.011875502990567654,-0.7818324745650327,-0.09856278708120837,-2.08645886581883,-1.0933331827484556,-1.735959558737698,1.8863727899159637,0.13708129396956198,-0.005528768600647679
107,1.2365713511111338,-0.30256938036527625,0.202169053832674,-1.9587687742757336,-0.3040564050305754,-1.795444785338009,-0.4840673699110731,-0.01690494516547331,0.13934323697464485,-1.789145457788123,-1.277858994334915,-1.286733828703513,-1.038595565989596,-1.383122645594271,-1.440624238520435,-0.5033017169209864,-0.2896667124925487,-0.5107492151810643,-0.6653038193202122,-1.4969795241475503,-0.3614495840927482,0.009995268635147679,-0.782715663423768,-0.10086027160575627,-2.0885156720483105,-1.0962393792204514,-1.7369545322737103,1.8859523375496647,0.13673083045187484,-0.007753895355931347
108,1.235604538797908,-0.3025608505263775,0.200784426266753,-1.9587653863897054,-0.30558275191898987,-1.7961840105283777,-0.48732458699159126,-0.012826312074297394,0.13963697787601032,-1.789144872874823,-1.2787362004415987,-1.2867252138269536,-1.0399018528663067,-1.3830631909379993,-1.4423025212250076,-0.5029719887304639,-0.2920071500946934,-0.5074372523000136,-0.665056138557514,-1.4969757161837685,-0.3605219497304839,0.00811732651689026,-0.7836051670409635,-0.10315029166654834,-2.0905734958284916,-1.0991415303510914,-1.7379593084648737,1.885543738623554,0.1363783137113206,-0.009971558038066273
109,1.2346431558165096,-0.3025539646939763,0.19940616602760505,-1.958761761450392,-0.30709599897332945,-1.796922621957421,-0.4905627386907704,-0.00875081371553776,0.13992903380180308,-1.7891441035604783,-1.279609281693068,-1.286718242312187,-1.0412040906984863,-1.383002321124509,-1.4439722644062856,-0.5026399585846208,-0.2943310328933787,-0.5041267452385597,-0.6648097536163066,-1.496970812767855,-0.3596070685723512,0.006241749144977785,-0.7845008329973209,-0.10543283447190058,-2.092632219830573,-1.1020395732324355,-1.738973653698037,1.885147030227218,0.13602383016491856,-0.01218174395326011
110,1.2336871520380233,-0.3025487014898035,0.19803423772703074,-1.9587578949848048,-0.3085962889996671,-1.7976606241373225,-0.49378195713684364,-0.004678544434625822,0.14021940824859663,-1.7891431431378428,-1.280478273731035,-1.286712900600594,-1.0425022972450828,-1.382940040610353,-1.4456335475309885,-0.502305664400852,-0.2966384746136841,-0.5008178239413074,-0.6645646636381688,-1.4969648150661548,-0.3587047768660175,0.004368605738001654,-0.7854025127912279,-0.10770788986664595,-2.0946917307300215,-1.104933448216235,-1.7399973397719652,1.8847622454566413,0.1356674630448082,-0.014384443039304966
111,1.2327364777794956,-0.3025450397230316,0.1966686061681093,-1.9587537826763504,-0.3100837632519216,-1.7983980215651965,-0.49698237447877736,-0.0006095991654169654,0.14050810494117316,-1.78914198510457,-1.2813432119173522,-1.286709175161513,-1.0437964901965895,-1.3828763540048064,-1.4472864492391606,-0.5019691437589142,-0.2989295891442167,-0.4975106185412361,-0.6643208675524177,-1.496957724425314,-0.35781491422069245,0.0024979623655581344,-0.7863100616941016,-0.10997545020671617,-2.096751919054657,-1.1078230987707964,-1.7410301437335234,1.884389413562296,0.13530929254276636,-0.01657964774054835
112,1.2317910838004582,-0.3025429583921346,0.195309236337962,-1.9587494203619162,-0.31155856146479527,-1.7991348187278302,-0.5001641228542013,0.0034559266042091816,0.14079512782251613,-1.7891406231589886,-1.2822041313372379,-1.286707052496057,-1.045086687182502,-1.3828112660643543,-1.4489310473680115,-0.5016304339170027,-0.3012044905141606,-0.4942052593123003,-0.6640783640837428,-1.4969495423659671,-0.35693732347952756,0.0006298820843499645,-0.7872233386110616,-0.11223551023886351,-2.0988126790383554,-1.110708471343482,-1.7420718477192272,1.8840285600922753,0.13494939594933875,-0.018767352887987178
113,1.2308509212993706,-0.30254243668659114,0.19395609340062234,-1.9587448040290225,-0.31302082188602715,-1.7998710201063286,-0.5033273343589613,0.007517936868238021,0.14108048104428303,-1.7891390511959808,-1.2830610668024611,-1.2867065191407943,-1.04637290577857,-1.3827447816874077,-1.4505674189751687,-0.5012895718272131,-0.30346329287123947,-0.49090187662146856,-0.6638371517595032,-1.4969402705766803,-0.3560718505965871,-0.001235574931068989,-0.7881422059468352,-0.11448806698535081,-2.100873908480231,-1.1135895152286808,-1.7431222388020646,1.8836797070305775,0.13458784778767302,-0.020947555584314194
114,1.2299159419100074,-0.30254345398844,0.19260914269004725,-1.9587399298130377,-0.3144706813079027,-1.8006066301806412,-0.506472141018159,0.011576335139738304,0.14136416895773063,-1.7891372633029616,-1.2839140528544728,-1.2867075616712957,-1.0476551635138245,-1.3826769059092379,-1.4521956403613128,-0.5009465941503889,-0.3057061104605017,-0.4876006008803156,-0.6635972289167082,-1.496929910908144,-0.35521834451835144,-0.0030983512627649227,-0.7890665294767839,-0.11673311963343987,-2.1029355086091535,-1.116466182441088,-1.744181108843484,1.8833428729306583,0.13422471994214977,-0.023120255093747717
115,1.2289860976978113,-0.3025459898736965,0.19126834970329812,-1.958734793994455,-0.31590827509797137,-1.8013416534339566,-0.5095986747585578,0.015631024489258478,0.1416461961050669,-1.789135253755956,-1.2847631237674713,-1.2867101667055603,-1.0489334778773607,-1.3826076438971198,-1.4538157870921622,-0.5006015372703515,-0.30793305760384704,-0.4843015624962711,-0.6633585937086988,-1.496918465367599,-0.3543766570697001,-0.004958392128967403,-0.7899961782229423,-0.11897066942950997,-2.104997383953447,-1.1193384275941292,-1.7452482543504373,1.8830180730443629,0.1338600817819153,-0.02528545273647778
116,1.2280613411562291,-0.30255002411363846,0.18993368009391767,-1.9587293929962288,-0.3173337372289318,-1.8020760943569514,-0.5127070673822438,0.019681907584258744,0.14192656721120528,-1.7891330170157702,-1.2856083135513914,-1.2867143209073169,-1.0502078663248655,-1.38253700094567,-1.45542793401979,-0.5002544373075163,-0.3101442486802205,-0.4810048918236249,-0.6631212441115475,-1.4969059361134893,-0.35354664284431175,-0.006815645268539146,-0.7909310243349432,-0.1212007195776416,-2.107059442215629,-1.1222062077833623,-1.746323476337364,1.8827053194463608,0.13349400027942615,-0.027443151787564235
117,1.2271416252030483,-0.3025555366759678,0.18860509966552427,-1.9587237233811654,-0.31874720030765175,-1.8028099574518777,-0.5157974505414392,0.02372888672944501,0.14220528717589764,-1.7891305477242572,-1.2864496559548113,-1.2867200109892116,-1.051478346284874,-1.3824649824723716,-1.45703215530325,-0.49990533013189675,-0.31233979810640916,-0.4777107191143822,-0.6628851779301946,-1.4968923254503272,-0.3527281590994081,-0.008670060830225437,-0.7918709429757087,-0.12342327514250283,-2.109121594152037,-1.1250694824747,-1.7474065801929906,1.8824046211542038,0.13312654012412042,-0.029593357380125154
118,1.2262269031767468,-0.30256250772585547,0.18728257436564233,-1.9587177818493688,-0.32014879560329695,-1.8035432472364825,-0.5188699557143776,0.027771863907878395,0.14248236106622472,-1.789127840700669,-1.2872871844677698,-1.2867272237158827,-1.0527449351647469,-1.382391594013276,-1.4586285244285029,-0.4995542513755014,-0.3145198203183821,-0.4744191744690584,-0.6626503928043338,-1.4968776358237652,-0.3519210656547622,-0.010521591266535953,-0.7928158122117775,-0.12563834295637924,-2.1111837534571873,-1.1279282133972868,-1.7484973755518225,1.8821159842441306,0.1327577638313357,-0.03173607641265716
119,1.2253171288328681,-0.3025709176268743,0.18596607027978437,-1.9587115652357387,-0.32153865307455043,-1.8042759682477483,-0.5219247141821568,0.031810740822741476,0.1427577941094228,-1.789124890938097,-1.288120932324488,-1.2867359459069263,-1.0540076503563618,-1.3823168412188707,-1.4602171142276301,-0.49920123644412967,-0.3166844297531215,-0.4711303877874964,-0.662416886214064,-1.4968618698158613,-0.3511252247958835,-0.012370191232111838,-0.7937655129081382,-0.1278459315301918,-2.113245836652727,-1.130782364440876,-1.7495956761702012,1.8818394119627424,0.1323877318465958,-0.033871317460332555
120,1.2244122563404323,-0.30258074694182624,0.18465555362579747,-1.958705070507515,-0.3229169013959077,-1.805008125045447,-0.5249618570064944,0.03584541893964908,0.14303159168602747,-1.7891216935999943,-1.2889509325059945,-1.2867461644397589,-1.0552665092415108,-1.3822407298501058,-1.4617979968973307,-0.4988463205285733,-0.31883374083089816,-0.467844488719786,-0.6621846554853201,-1.4968450301405303,-0.35034050118128574,-0.014215817486431503,-0.7947199286274347,-0.13004605096835054,-2.1153077629808203,-1.1336319015575484,-1.750701299806794,1.8815749048346737,0.13201650264539197,-0.03599909069012184
121,1.2235122402783907,-0.3025919764334678,0.18335099074848438,-1.9586982947618718,-0.32428366798304026,-1.8057397222155027,-0.5279815150083164,0.039875799529397925,0.14330375932331627,-1.7891182440167794,-1.2897772177426479,-1.2867578662523755,-1.0565215291970003,-1.3821632657745695,-1.4633712440166968,-0.49848953861523176,-0.3209678679379499,-0.4645616066173611,-0.6619536977950959,-1.4968271196391705,-0.34956676175374174,-0.016058428800709835,-0.7956789455334115,-0.13223871288729597,-2.117369454301824,-1.136476792667618,-1.7518140681073888,1.8813224607663825,0.1316441328285852,-0.03811940777959389
122,1.222617035632132,-0.302604587065139,0.1820523481145074,-1.958691235223554,-0.3256390790172237,-1.8064707643731561,-0.5309838187471168,0.04390178371105547,0.14357430268903257,-1.7891145376825168,-1.2905998205165583,-1.2867710383460107,-1.0577727275994524,-1.3820844549628049,-1.4649369265642704,-0.4981309254961506,-0.3230869254095264,-0.46128187048434494,-0.6617240101764712,-1.4968081412764602,-0.3488038756554211,-0.017897985868846816,-0.7966424522984638,-0.13442393033758396,-2.1194308349961135,-1.1393170075695767,-1.75293380649386,1.8810820751461823,0.13127067721355826,-0.04023228183925
123,1.2217265977900447,-0.30261856000129883,0.18075959230758107,-1.9586838892425573,-0.32698325946883,-1.807201256165929,-0.5339688985010341,0.047923272495293816,0.14384322758537482,-1.7891105702516723,-1.2914187730639046,-1.2867856677877019,-1.0590201218298039,-1.3820043034847602,-1.4664951149343808,-0.4977705157784928,-0.3251910275132683,-0.4580054089292106,-0.6614955895234549,-1.4967880981363118,-0.34805171414680763,-0.01973445122228363,-0.797610340015158,-0.13660171772937368,-2.1214918318699016,-1.1421525178539282,-1.754060344057175,1.8808537409406387,0.13089618892124597,-0.04233772733825196
124,1.220840882540141,-0.30263387660797175,0.17947269002395744,-1.9586762542918488,-0.3283163331198894,-1.807931202276385,-0.5369368842475922,0.05194016682787993,0.1441105399432355,-1.7891063375359395,-1.2922341073771497,-1.2868017417127584,-1.0602637292775041,-1.3819228175063647,-1.4680458789527693,-0.497408343893453,-0.32728028843289225,-0.454732350116821,-0.6612684325956543,-1.4967669934179775,-0.3473101505292885,-0.021567789148626327,-0.7985825021115882,-0.13877209076118271,-2.123552374064923,-1.1449832968207676,-1.7551935134543108,1.8806374487874513,0.13052071945917273,-0.0444357600334084
125,1.2199598460667447,-0.3026505184531077,0.17819160806820689,-1.9586683279651247,-0.32963842258572845,-1.8086606074246854,-0.5398879056450607,0.055952367633238444,0.14437624581667574,-1.789101835501136,-1.2930458552071513,-1.2868192473271391,-1.0615035673444135,-1.3818400032862233,-1.4695892878915078,-0.49704444410462695,-0.3293548222521574,-0.4514628217209078,-0.6610425360227817,-1.4967448304323006,-0.3465790600713062,-0.023397965613899615,-0.7995588342704377,-0.14093506635177705,-2.1256123929718345,-1.1478093194009646,-1.7563331508089512,1.8804331870849385,0.13014431880062596,-0.046526396901287716
126,1.2190834449472485,-0.30266846730685915,0.17691631334929483,-1.958660107974606,-0.33094964933569476,-1.8093894763709386,-0.5428220920143947,0.05995977585800797,0.14464035137762185,-1.7890970602641654,-1.2938540480651732,-1.2868381719097397,-1.0627396534484022,-1.3817558671724235,-1.4711254104832188,-0.49667885051584687,-0.3314147429390916,-0.4481969508770463,-0.6608178963090069,-1.496721612598101,-0.3458583199379633,-0.025224948188295942,-0.8005392343516111,-0.1430906625750685,-2.1276718221472017,-1.1506305620808162,-1.7574790956158342,1.880240942078244,0.129767035460093,-0.04860965607333005
127,1.2182116361489383,-0.30268770514177784,0.1756467728769545,-1.9586515921488679,-0.3322501337129816,-1.8101178139173428,-0.5457395723217162,0.06396229251451624,0.14490286291077115,-1.7890920080900417,-1.2946587172247965,-1.2868585028145907,-1.0639720050266552,-1.3816704155994484,-1.4726543149346085,-0.49631159707849565,-0.3334601643304594,-0.44493486413618044,-0.660594509837164,-1.496697343438692,-0.34514780912396925,-0.027048705975287878,-0.8015236023183099,-0.14523889859789535,-2.129730597233935,-1.1534470028300305,-1.758631190648626,1.8800606979423777,0.12938891656508847,-0.05068555677383487
128,1.2173443770258887,-0.3027082141329334,0.1743829537583534,-1.958642778430703,-0.33353999495356745,-1.8108456249101244,-0.548640475161306,0.06795981872410366,0.14516378680869507,-1.7890866753889774,-1.2954598937237327,-1.2868802274729703,-1.0652006395386848,-1.3815836550851885,-1.4741760689393226,-0.49594271759831204,-0.3354912001164556,-0.4416766874187481,-0.6603723728728228,-1.4966720265785185,-0.3444474083898181,-0.02886920954397476,-0.8025118401664216,-0.14737979462056705,-2.131788655885047,-1.1562586210329169,-1.7597892818711958,1.8798924368622032,0.1290100079244975,-0.05275411926070481
129,1.216481625315929,-0.30272997665795653,0.17312482319505168,-1.9586336648750151,-0.33481935120428735,-1.8115729142412704,-0.551524928739074,0.07195225576022887,0.14542312956712852,-1.7890810587135277,-1.2962576083655424,-1.286903333395431,-1.0664255744690558,-1.3814955922280487,-1.4756907396901395,-0.4955722457417003,-0.3375079638256118,-0.43842254596945524,-0.660151481568231,-1.496645665739913,-0.3437570002010862,-0.030686430864537633,-0.8035038518570984,-0.1495133718200573,-2.133845937690602,-1.1590653974226515,-1.760953218352167,1.8797361391094822,0.1286303540935579,-0.05481536476883055
130,1.2156233391376805,-0.30275297529700845,0.17187234848024788,-1.9586242496467432,-0.33608831954005536,-1.81229968685006,-0.5543930608564855,0.07593950509129352,0.14568089778043483,-1.7890751547557922,-1.2970518917212626,-1.2869278081737434,-1.0676468273298292,-1.3814062337041426,-1.4771983938905124,-0.4952002150415568,-0.3395105688099036,-0.4351725643127439,-0.6599318319661344,-1.4966182647399613,-0.3430764686707407,-0.0325003432466797,-0.804499543252399,-0.15163965229573417,-2.1359023841077387,-1.1618673140184987,-1.7621228521826284,1.879591783117083,0.1282499984356041,-0.05686931545600549
131,1.214769476987663,-0.3027771928326792,0.17062549699630788,-1.9586145310188143,-0.33734701598025835,-1.8130259477243946,-0.5572449988949167,0.07992146842312711,0.14593709813723652,-1.7890689603446694,-1.2978427741309442,-1.2869536394827574,-1.0688644156627285,-1.3813155862645707,-1.478699097765477,-0.4948266589026279,-0.3414991282300501,-0.431926866208997,-0.6597134200034828,-1.496589827487473,-0.3424056995043481,-0.034310921280932806,-0.8054988220538772,-0.15375865901751962,-2.137957938393639,-1.1646643540658697,-1.7632980383968868,1.8794593455504542,0.12786898318069134,-0.05891599435126291
132,1.2139199977374695,-0.302802612249816,0.1693842362125719,-1.9586045073701228,-0.33859555550434234,-1.8137517019019316,-0.5600808698004208,0.08389804774107619,0.1461917374162026,-1.789062472443164,-1.298630285705104,-1.2869808150821824,-1.070078357041036,-1.3812236567327785,-1.4801929170719386,-0.4944516106064118,-0.34347375504099803,-0.4286855746115194,-0.6594962415150278,-1.496560357980051,-0.3417445799480761,-0.03611814078271369,-0.8065015977439945,-0.15587041577637523,-2.1400125455413326,-1.1674565019791003,-1.7644786348961445,1.879338801376469,0.12748734948121881,-0.06095542530553238
133,1.2130748606310116,-0.30282921673528396,0.16814853368343335,-1.9585941771835356,-0.33983405206661427,-1.8144769544710235,-0.5629008000688859,0.08786914535164536,0.14644482248198376,-1.7890556881457436,-1.2994144563260952,-1.2870093228182882,-1.0712886690712244,-1.3811304520019863,-1.4816799171083552,-0.4940751033156189,-0.34543456197758454,-0.42544881162433396,-0.6592802922368179,-1.4965298603012553,-0.34109299873938104,-0.037921978739017134,-0.8075077815302449,-0.15797494713701424,-2.142066152218222,-1.1702437432868413,-1.7656645023749935,1.8792301239297335,0.12710513746466598,-0.06298763294451584
134,1.2122340252818264,-0.30285698967765984,0.1669183570466832,-1.958583539043922,-0.3410626186102828,-1.8152017105714675,-0.5657049157315681,0.09183466392364063,0.14669636028128757,-1.7890486046757417,-1.3001953156493995,-1.2870391506255268,-1.0724953693943315,-1.3810359790326912,-1.4831601627238336,-0.49369717007820363,-0.3473816615403737,-0.4222166984608275,-0.6590655678095968,-1.4964983386178554,-0.3404508460602769,-0.03972241325763645,-0.8085172862918776,-0.16007227839274407,-2.1441187067072125,-1.1730260645799497,-1.7668555042506155,1.8791332849764597,0.12672238628355517,-0.06501264262368764
135,1.2113974516704518,-0.30288591466686166,0.16569367402211266,-1.9585725916362073,-0.3422813670807619,-1.815925975395068,-0.5684933423409868,0.09579450652876866,0.14694635783908572,-1.789041219382808,-1.3009728931048432,-1.2870702865280779,-1.0736984756870838,-1.3809402448502341,-1.4846337183266538,-0.49331784383098265,-0.34931516598166396,-0.4189893554032796,-0.65885206378211,-1.4964657971771667,-0.33981801349308155,-0.04151942351880521,-0.809530026529109,-0.16216243552234713,-2.146170158850353,-1.1758034534617794,-1.768051506594583,1.8790482547759888,0.1263391341627504,-0.06703048038532633
136,1.2105651001418603,-0.3029159754937146,0.16447445241036693,-1.958561333743449,-0.3434904084382622,-1.8166497541860176,-0.5712662049571678,0.09974857668164808,0.14719482225494648,-1.7890335297404023,-1.301747217897744,-1.2871027186413162,-1.074898005662778,-1.380843256542428,-1.4861006478922412,-0.4929371574028522,-0.3512351872916639,-0.415766901763306,-0.6586397756143253,-1.4964322403044674,-0.3391943939785396,-0.0433129897291572,-0.8105459183147176,-0.16424544514891126,-2.14822045999487,-1.1785758985007697,-1.7692523780671572,1.878975002140061,0.1259554184441997,-0.06904117291748998
137,1.2097369314029545,-0.302947156149455,0.16326066009204218,-1.9585497642449339,-0.3446898526696951,-1.8173730522410998,-0.5740236281342254,0.10369677837919221,0.14744176069948586,-1.789025533343329,-1.30251831900999,-1.287136435173205,-1.0760939770719262,-1.3807450212572463,-1.487561014970602,-0.49255514351761925,-0.35314183718483555,-0.4125494558432446,-0.6584286986805695,-1.4963976724004906,-0.33857988177622256,-0.045103093077905304,-0.8115648792479179,-0.16632133450052478,-2.150269562941506,-1.1813433891852358,-1.7704579898539867,1.878913494489913,0.12557127562922588,-0.0710447475148498
138,1.2089129065201185,-0.30297944082517386,0.16205226502701756,-1.9585378821142958,-0.34587980879991537,-1.8180958749097205,-0.5767657359072718,0.10763901613932442,0.14768718041093096,-1.7890172279053136,-1.303286225201055,-1.2871714244256156,-1.077286407702674,-1.3806455462005647,-1.4890148826932412,-0.4921718347964599,-0.3550352270864038,-0.40933713489851137,-0.6582188282725886,-1.4963620979389882,-0.33797437242710887,-0.04688971569514283,-0.8125868284104142,-0.1683901313727543,-2.1523174218950616,-1.1841059158802667,-1.771668215605106,1.8788636979112887,0.12518674141846764,-0.07304123204130035
139,1.208092986916825,-0.3030128139112009,0.1608492352540139,-1.9585256864176543,-0.3470603849023271,-1.8188182275937705,-0.5794926517796479,0.11157519503899058,0.14793108869179003,-1.7890086112566184,-1.304050965008955,-1.2872076747955716,-1.078475315380998,-1.3805448386339574,-1.49046231377958,-0.4917872637600186,-0.35691546811903324,-0.40613005510095096,-0.6580101596025323,-1.4963255214643618,-0.3373777627182496,-0.04867284061217449,-0.8136116863245361,-0.17045186409282698,-2.154363992417048,-1.1868634697866414,-1.7728829313761445,1.878825577207444,0.12480185074957009,-0.07503065489426852
140,1.2072771343712934,-0.30304725999643045,0.15965153889037065,-1.9585131763117714,-0.34823168810887944,-1.819540115747327,-0.5822044987104665,0.11550522075143493,0.1481734929056237,-1.7889996813416937,-1.3048125667511485,-1.2872451747764229,-1.079660717970692,-1.3804429058725403,-1.4919033705428904,-0.49140146283016267,-0.3587826710896732,-0.4029283315032044,-0.6578026878058683,-1.4962879475893593,-0.3367899506494267,-0.0504524517237871,-0.8146393749133622,-0.1725065614854419,-2.1564092313803624,-1.1896160429016758,-1.774102015571653,1.8787990959502225,0.12441663783272135,-0.07701304497064547
141,1.2064653110141965,-0.30308276386759103,0.1584591441320322,-1.958500351042227,-0.34939382461947743,-1.8202615448761956,-0.5849013991024621,0.1194289995827084,0.14841440047391238,-1.788990436216867,-1.305571058525387,-1.287283912958947,-1.0808426333731485,-1.380339755282862,-1.4933381148957658,-0.49101446433140455,-0.3606369464765719,-0.3997320780041151,-0.6575964079442294,-1.4962493809928312,-0.33621083540171426,-0.05222853375237347,-0.8156698174627417,-0.17455425284013862,-2.1584530969258955,-1.1923636279819185,-1.775325348890461,1.8787842165292772,0.12403113618412873,-0.07898843163427006
142,1.2056574793264159,-0.3031193105084588,0.15727201925373482,-1.9584872099416128,-0.3505468997108335,-1.8209825205373031,-0.5875834747901433,0.12334643850738035,0.14865381887301518,-1.7889808740480657,-1.306326468210514,-1.2873238780323817,-1.0820210795269443,-1.3802353942808394,-1.4947666083551454,-0.4906263004920057,-0.36247840441646223,-0.3965414073151921,-0.6573913150081959,-1.4962098264175447,-0.3356403173078548,-0.05400107221382576,-0.8167029385851242,-0.17659496788015352,-2.1604955484209927,-1.195106218507613,-1.7765528142729825,1.8787809001995104,0.12364537865752555,-0.08095684468489453
143,1.2048536021368386,-0.303156885099017,0.15609013260938553,-1.9584737524277427,-0.3516910177447852,-1.8217030483379428,-0.5902508470282418,0.1272574452034271,0.14889175563121593,-1.7889709931085747,-1.3070788234672226,-1.2873650587853855,-1.0831960744072395,-1.3801298303297336,-1.496188912046908,-0.49023700344477583,-0.36430715469192126,-0.3933564309281478,-0.6571874039200166,-1.4961692886680535,-0.33507829782436577,-0.055770053385117965,-0.8177386641851152,-0.17862873673269813,-2.1625365464196857,-1.1978438086488488,-1.7777842968503843,1.8787891071268015,0.12325939747379656,-0.08291831432856621
144,1.2040536426201962,-0.30319547301456223,0.15491345263262327,-1.9584599780018803,-0.3528262821761038,-1.8224231339348795,-0.5929036364804555,0.13116192808627267,0.14912821832585238,-1.7889607917768247,-1.3078281517387713,-1.2874074441069328,-1.0843676360249948,-1.3800230709381656,-1.4976050867100568,-0.48984660522758,-0.36612330671890675,-0.3901772590835252,-0.6569846695362709,-1.4961277726086186,-0.33452467950529297,-0.05753546427349981,-0.8187769214266732,-0.1806555899005955,-2.164576052624617,-1.200576393233331,-1.7790196838955445,1.8788087964320892,0.12287322424880755,-0.08487287114936212
145,1.2032575642949424,-0.3032350598247586,0.15374194783755424,-1.9584458862469836,-0.35395279555982007,-1.8231427830333196,-0.5955419632084812,0.1350597963419591,0.14936321458052454,-1.7889502685342136,-1.3085744802516623,-1.2874510229871388,-1.0855357824260181,-1.379915123658171,-1.4990151927005078,-0.48945513778356664,-0.36792696953447274,-0.38700400074042834,-0.6567831066504745,-1.4960852831611793,-0.3339793659775312,-0.05929729258722738,-0.8198176387018716,-0.1826755582352143,-2.166614029850583,-1.2033039677156911,-1.7802588647757198,1.878839926233873,0.12248689001952169,-0.0868205460824157
146,1.202465331021164,-0.3032756312926415,0.1525755868196518,-1.9584314768259643,-0.3550706595580899,-1.823862001385752,-0.5981659466613359,0.13895095995942594,0.1495967520623789,-1.7889394219629566,-1.3093178360162867,-1.28749578451802,-1.0867005316898477,-1.3798059960832887,-1.5004192899945046,-0.48906263296112956,-0.36971825178466816,-0.38383676354736834,-0.6565827099956307,-1.4960418253033696,-0.33344226191763426,-0.061055526707758746,-0.8208607456011465,-0.18468867291064253,-2.1686504419896258,-1.2060265281482738,-1.7815017309068528,1.8788824536891948,0.12210042526848287,-0.08876137038817762
147,1.2016769069985271,-0.3033171733735714,0.15141433825681233,-1.9584167494799647,-0.3561799749466257,-1.8245807947906665,-0.6007757056649637,0.1428353297618799,0.1498288384794651,-1.7889282507439674,-1.3100582458275385,-1.2875417178941881,-1.0878619019284788,-1.3796956958466844,-1.501817438191672,-0.4886691225136161,-0.37149726171262176,-0.38067565381423446,-0.65638347424673,-1.4959974040665809,-0.3329132730300386,-0.06281015566334532,-0.8219061728849605,-0.18669496539904482,-2.170685253977601,-1.2087440711533337,-1.7827481757094477,1.8789363350331605,0.12171385994674322,-0.09069537562785529
148,1.2008922567642528,-0.3033596722141396,0.15025817091055804,-1.9584017040266484,-0.3572808416207162,-1.8252991690911529,-0.6033713584121263,0.1467128174372384,0.1500594815781621,-1.7889167536547665,-1.3107957362654017,-1.28758881241348,-1.0890199112849428,-1.379584230619306,-1.5032096965177275,-0.4882746380987944,-0.3732641071468166,-0.377520776485399,-0.6561853940231986,-1.4959520245340663,-0.3323923060266282,-0.06456116910395256,-0.822953852456809,-0.18869446744715065,-2.17271843176216,-1.2114565938965773,-1.7839980945659455,1.8790015256170591,0.1213272234953098,-0.09262259363997774
149,1.2001113451911198,-0.3034031141510271,0.1491070536273779,-1.958386340358507,-0.3583733586008591,-1.82601713017339,-0.6059530224525761,0.15058333556763162,0.15028868914067095,-1.7889049295674178,-1.311530333695514,-1.287637057477523,-1.0901745779317464,-1.3794716081080707,-1.5045961238268675,-0.4878792112780911,-0.3750188954895582,-0.3743722351139631,-0.6559884638912992,-1.4959056918390847,-0.33187926860757033,-0.06630855727744626,-0.8240037173375033,-0.19068721105382233,-2.1747499422720784,-1.2141640940619902,-1.7852513847795384,1.8790779799451347,0.12094054486518271,-0.09454305651803532
150,1.199334137485493,-0.3034474857098172,0.14796095534019804,-1.9583706584411815,-0.35945762403802817,-1.8267346839650276,-0.6085208146835116,0.15444679765795,0.15051646898257165,-1.7888927774464929,-1.312262064269708,-1.28768644259224,-1.091325920069179,-1.3793578360540804,-1.505976778603843,-0.4874828735156124,-0.37676173370563915,-0.3712301318371486,-0.6557926783664841,-1.4958584111630846,-0.3313740694433535,-0.06805231100698306,-0.8250557016406641,-0.192673228448654,-2.176779753387873,-1.2168665698278898,-1.786507945534355,1.879165651710061,0.1205538525360544,-0.09645679658914544
151,1.1985605991853738,-0.3034927736037637,0.14681984506997314,-1.9583546583118001,-0.3605337352185983,-1.8274518364334686,-0.6110748513403124,0.15830311816342582,0.15074282895044153,-1.7888802963470611,-1.312990953926536,-1.2877369573682904,-1.0924739559234935,-1.379242922230867,-1.507351718965743,-0.4870856561769596,-0.37849272831120534,-0.36809456735283963,-0.6555980319157038,-1.4958101877339234,-0.330876618157963,-0.06979242166954619,-0.8261097405493634,-0.1946525520715556,-2.1788078339136474,-1.2195640198441493,-1.787767677856962,1.8792644938271732,0.12016717453373747,-0.09836384639369809
152,1.1977906961584732,-0.30353896473251574,0.14568369192738997,-1.9583383400773282,-0.36160178856895,-1.8281685935840564,-0.6136152479875547,0.16215221251623885,0.15096777691953292,-1.7888674854127051,-1.3137170283917778,-1.2877885915214522,-1.0936187037449727,-1.3791268744426641,-1.5087210026634996,-0.4866875905278505,-0.380211985362826,-0.3649656408972765,-0.6554045189596698,-1.4957610268241226,-0.3303868253131294,-0.0715288811755703,-0.8271657702938545,-0.1966252145532768,-2.1808341535501072,-1.2222564432105383,-1.7890304845791205,1.8793744584675025,0.11978053844638609,-0.10026423866593676
153,1.1970243946002996,-0.30358604618080065,0.14455246511467518,-1.9583217039129353,-0.36266187965977437,-1.828884961458173,-0.6161421195103068,0.16599399715113788,0.1511913207915083,-1.7888543438735622,-1.3144403131789373,-1.2878413348729454,-1.0947601818058836,-1.3790097005227042,-1.5100846870831308,-0.48628870773255883,-0.3819196104467723,-0.36184345022390235,-0.6552121338750762,-1.495710933749156,-0.3299046023935905,-0.07326168194960088,-0.828223728130333,-0.1985912486968289,-2.1828586828686993,-1.2249438394561272,-1.7902962703017467,1.8794954970896605,0.1193939714395734,-0.10215800631543226
154,1.1962616610322656,-0.30363400521706585,0.14342613392749878,-1.9583047500603756,-0.3637141032100998,-1.829600946131255,-0.6186555801057027,0.16982838953007176,0.15141346849223042,-1.7888408710443902,-1.3151608335897278,-1.2878951773496956,-1.0958984083983307,-1.3788914083315431,-1.511442829246736,-0.48588903885218165,-0.38361570866850747,-0.3587280915833621,-0.6550208709967783,-1.495659913865771,-0.32942986179330663,-0.07499081691193654,-0.8292835523206724,-0.20055068745976387,-2.1848813932868105,-1.2276262085197083,-1.7915649413600179,1.8796275604706196,0.11900750027028545,-0.10404518240940924
155,1.1955024622998065,-0.30368282929208124,0.14230466775696557,-1.958287478826384,-0.3647585530910602,-1.8303165537107302,-0.6211557432747947,0.17365530816582442,0.15163422796960627,-1.788827066322657,-1.3158786147145511,-1.2879501089845413,-1.097033401832013,-1.378772005755407,-1.5127954858132593,-0.4854886148427463,-0.3853003846423925,-0.35561965970465165,-0.6548307246199309,-1.4956079725703386,-0.3289625168025737,-0.0767162794612043,-0.8303451821130833,-0.2025035639372719,-2.186902257043988,-1.2303035507311837,-1.7928364057895794,1.8797705987354312,0.11862115129988962,-0.1059258001558864
156,1.1947467655705122,-0.3037325060375036,0.14118803609168643,-1.9582698905810854,-0.3657953223294247,-1.8310317903338835,-0.6236427218146859,0.1774746726446506,0.1518536071914826,-1.7888129291866555,-1.31659368143297,-1.2880061199163855,-1.0981651804318928,-1.378651500704564,-1.5141427130790364,-0.4850874665531673,-0.3869737424816105,-0.35251824777741375,-0.6546416890020861,-1.495555115297236,-0.32850248159597895,-0.07843806345782023,-0.831408557723643,-0.20444991134606044,-2.188921247179128,-1.2329758667938768,-1.7941105732937996,1.879924561385921,0.11823495050613349,-0.10779989288759374
157,1.193994538332268,-0.303783023264404,0.140076208519922,-1.9582519857564202,-0.3668245031109074,-1.8317466621656546,-0.6261166278109394,0.1812864036479099,0.15207161414359194,-1.7887984591936388,-1.3173060584141782,-1.2880632003902919,-1.0992937625357846,-1.3785299011117196,-1.515484566978134,-0.4846856247230632,-0.38863588578831315,-0.34942394743537625,-0.6544537583652528,-1.4955013475172545,-0.3280496712211477,-0.08015616320828986,-0.8324736203186499,-0.20638976300897938,-2.190938337508585,-1.2356431577677223,-1.7953873552120279,1.8800893973284052,0.11784892349422788,-0.10966749404663156
158,1.1932457483914045,-0.3038343689617594,0.13896915473179103,-1.9582337648445847,-0.3678461867832764,-1.832461175396375,-0.6285775726302663,0.1850904229726982,0.15228825682754737,-1.7887836559779822,-1.3180157701174704,-1.2881213407575274,-1.100419166491866,-1.3784072149304327,-1.5168211030825032,-0.484283119980444,-0.3902869176439929,-0.34633684874092613,-0.6542669268979171,-1.4954466747360375,-0.3276040015882309,-0.08187057345030452,-0.8335403119977535,-0.20832315234035867,-2.1929535026051665,-1.2383054250532928,-1.7966666644888107,1.880265054900461,0.11746309550706588,-0.11152863716983742
159,1.1925003638708525,-0.3038865312949109,0.13786684452153622,-1.9582152283964842,-0.3688604638592787,-1.8331753362394492,-0.6310256669134923,0.1888866535514774,0.152503543258885,-1.7887685192493656,-1.3187228407927114,-1.2881805314755528,-1.101541410656124,-1.3782834501335555,-1.518152376601953,-0.4838799828392785,-0.3919269406000832,-0.34325704017081243,-0.6540811887570257,-1.4953911024925428,-0.32716538946008483,-0.08358128933859195,-0.8346085757778178,-0.21025011283202608,-2.194966717777961,-1.2409626703766234,-1.7979484156440253,1.88045148189679,0.11707749143462752,-0.11338335587482919
160,1.1917583532083036,-0.30393949860398795,0.13676924778984048,-1.9581963770202038,-0.3698674240193994,-1.8338891509289832,-0.6334610205688013,0.19267501947070484,0.15271748146515246,-1.788753048790979,-1.3194272944808108,-1.288240763107961,-1.1026605133897365,-1.378158614711693,-1.519478442383962,-0.48347624369695175,-0.3935560566687902,-0.34018460860296995,-0.6538965380699316,-1.4953346363575322,-0.32673375244309777,-0.08528830643148112,-0.8356783555774746,-0.2121706780399746,-2.196977959052967,-1.2436148957747954,-1.7992325247438854,1.8806486255942096,0.11669213582261773,-0.1152316838466933
161,1.1910196851543748,-0.30399325940230226,0.13567633454618658,-1.9581772113794926,-0.37086715611447135,-1.8346026257173687,-0.6358837427652565,0.19645544598846562,0.15293007948404302,-1.7887372444577503,-1.3201291550142,-1.2883020263243672,-1.1037764930563994,-1.378032716671686,-1.5207993549133383,-0.48307193283162075,-0.39517436731415884,-0.3371196393044534,-0.6537129689363043,-1.4952772819320845,-0.3263090089786183,-0.08699162067814309,-0.8367495962023273,-0.21408488157164987,-2.1989872031544824,-1.2462621035822417,-1.800518909372785,1.8808564327758048,0.11630705288038345,-0.11707365482528917
162,1.1902843287707727,-0.30404780237471085,0.13458807491125352,-1.9581577321922634,-0.37185974816815054,-1.8353157668728246,-0.638293941926599,0.20022785955111222,0.1531413453615734,-1.788721106174594,-1.3208284460173176,-1.2883643119002466,-1.1048893680196052,-1.3779057640351116,-1.5221151683117402,-0.48266708039947936,-0.39678197344337574,-0.3340622159204717,-0.6535304754300025,-1.4952190448461338,-0.3258910783349441,-0.08869122840647128,-0.8378222433307647,-0.2159927570738298,-2.2009944274872146,-1.2489042964177397,-1.8018074886059396,1.881074849754271,0.11592226648815405,-0.11890930259314177
163,1.1895522534284602,-0.3041031163759507,0.1335044391193431,-1.9581379402291084,-0.37284528737927425,-1.8360285806769043,-0.640691725725323,0.20399218780891654,0.15335128715030483,-1.7887046339346846,-1.3215251909071017,-1.288427610716728,-1.1059991566398764,-1.3777777648368077,-1.5234259363370708,-0.4822617164319394,-0.3983789753983109,-0.33101242046451124,-0.6533490516009134,-1.4951599307570294,-0.3254798805998298,-0.09038712631156652,-0.838896243500351,-0.21789433822106974,-2.2029996101190825,-1.251541477172058,-1.8030981829827921,1.8813038223944833,0.11553780020364683,-0.12073866096389575
164,1.1888234288058208,-0.3041591904289462,0.13242539752083052,-1.9581178363118295,-0.3738238601241149,-1.8367410734219687,-0.6430772010770263,0.2077483596307411,0.15355991290760657,-1.7886878277977483,-1.3222194128934928,-1.2884919137603401,-1.107105877271961,-1.3776487271234146,-1.5247317123827573,-0.4818558708327374,-0.39996547294730134,-0.3279703333095341,-0.6531686914767549,-1.4950999453481206,-0.3250753366734763,-0.09207931144479321,-0.8399715440947535,-0.21978965870468745,-2.205002729764672,-1.2541736489962256,-1.804390914481144,1.8815432961353158,0.11515367726807839,-0.12256176377130582
165,1.188097824886822,-0.3042160137230902,0.1313509205846327,-1.9580974213119848,-0.37479555195854536,-1.8374532514086348,-0.6454504741350376,0.21149630511773698,0.15376723069396042,-1.7886706878883782,-1.3229111349799463,-1.2885572121227102,-1.1082095482619978,-1.3775186589519384,-1.5260325494769253,-0.48144957337497585,-0.40154156527717794,-0.3249360331802387,-0.6529893890648446,-1.4950390943273622,-0.3246773682619636,-0.09376778120337517,-0.8410480933311781,-0.22167875222226394,-2.2070037657693145,-1.2568008152903893,-1.8056856064919875,1.881793216010744,0.1147699206116203,-0.124378644858739
