epoch,W1[0],W1[1],W1[2],W1[3],W1[4],W1[5],W1[6],W1[7],W1[8],W1[9],W1[10],W1[11],W1[12],W1[13],W1[14],W1[15],W1[16],W1[17],W1[18],W1[19],W2[0],W2[1],W2[2],W2[3],W2[4],W2[5],W2[6],W2[7],W2[8],W2[9]
0,-1.9316371183184144,0.2211084181044834,-0.06411058161553213,1.8631458618929693,-0.2091445740393073,0.34814843027957,-0.7107289332727522,-0.7023922624569657,-0.9441897568146995,0.5730031463354803,0.34668562646986384,0.4313229320333432,-0.18095135696493575,-0.7120123773736206,1.1618388153727204,-0.25927481122904383,-1.9742432016254776,-0.6818017361547276,1.0875228663193,0.613391064301853,0.7964646198866182,0.5049076643540013,-1.3376504479315197,-1.985820164249288,1.1148341967573117,-0.17989804729835512,0.6027473246797568,0.49495988305988775,0.09466615995351436,0.32683694898180776
1,-1.9298412573809716,0.22266381462409188,-0.06882483966123744,1.856967987296707,-0.20629614812000174,0.34749289270193146,-0.7109508132216446,-0.7014852990338343,-0.9438168890219808,0.5737198891083446,0.3448546720206898,0.4311505249558893,-0.18084134360528917,-0.710152338082751,1.1622734952803209,-0.2592807314567095,-1.9748803737141782,-0.682508127563421,1.087644728357239,0.6130274181168418,0.7762045739758209,0.4916327562982662,-1.3519338564664232,-1.9931891560833146,1.1003572466302163,-0.19263851432824533,0.5888829593516625,0.479333363435221,0.0776333413252975,0.31435751716350646
2,-1.9280082205208846,0.22430171298125373,-0.07393657883434225,1.8505400734992998,-0.2032072872502965,0.34674307984129493,-0.7110548501660391,-0.7005074634597923,-0.9434944916757682,0.574481455397432,0.34307108473229797,0.4310007850532469,-0.18078421576355078,-0.7082549629163444,1.1627328033423925,-0.25929494217619725,-1.9754955692506995,-0.6831800261173577,1.0877479088281943,0.6126869789635163,0.7565957803895195,0.4794271950163245,-1.3653478446519676,-1.999339950082649,1.0868897941965772,-0.20434386092190418,0.5758029175067862,0.4645134258204958,0.06139113743581731,0.3030290887560194
3,-1.9261663072674426,0.2259886606252245,-0.07935769677927465,1.843945157366956,-0.19994944422653718,0.34591049883080793,-0.7110671011395922,-0.699486736090133,-0.943230160621158,0.5752685057734113,0.34135263742595756,0.43087749109054035,-0.180793704083559,-0.7063557948154894,1.1632204362734202,-0.2593201099050452,-1.976083893948835,-0.6838111784960976,1.0878319671716414,0.6123724216904497,0.7377263613249028,0.4682621636098521,-1.3778946325719843,-2.004388709689086,1.0744317517304702,-0.21505289578531986,0.5635024799020716,0.45051509399701267,0.045991843525662456,0.2928053027032405
4,-1.9243363430073661,0.22769947234597349,-0.08501396515124861,1.8372494607322907,-0.19657920775009993,0.3450067214861204,-0.7110086495781592,-0.6984443470120585,-0.9430273762557873,0.5760668830551348,0.3397129998088942,0.4307839888154483,-0.1808837241920806,-0.7044893119611387,1.1637410081092365,-0.25935907847302875,-1.9766417965375334,-0.6843970764175231,1.0878968052012046,0.6120856095400267,0.7196495838064655,0.4580972527855777,-1.389592056698004,-2.0084449613941686,1.062967063123197,-0.22481456318874005,0.5519585896732317,0.4373320097436935,0.03146250427898921,0.28363174776540867
5,-1.9225329090235304,0.2294159061112407,-0.09084471590826156,1.8305038796616377,-0.1931400543229865,0.3440426598352639,-0.7108962397621139,-0.6973958706071396,-0.9428866143998007,0.5768666548889126,0.3381614830023205,0.43072275985512143,-0.18106664807868147,-0.7026861589463146,1.1642989254096103,-0.2594145622045417,-1.977167082533617,-0.6849350750947873,1.0879424764555532,0.6118274933777793,0.7023883152624179,0.4488826110648707,-1.4004708841523372,-2.0116105292688813,1.052465475914541,-0.23368527728802485,0.5411347433192891,0.4249406642578436,0.017807339676136485,0.2754476118515445
6,-1.920765623712399,0.2311252922704578,-0.09680162987453504,1.8237461344302706,-0.18966445296167314,0.3430281515580974,-0.7107429827367449,-0.6963523494725803,-0.9428063125952271,0.5776611896912013,0.3367033261489865,0.430695270700165,-0.18135228117614693,-0.7009716024893476,1.164897721644212,-0.2594889157929057,-1.9776587814565223,-0.6854242514244832,1.087969095599897,0.6115981718138088,0.6859408195573028,0.44056166471717473,-1.410571599977318,-2.013978952895809,1.0428854022299738,-0.24172607159435228,0.5309856950921128,0.4133050000375869,0.005011633564474944,0.2681878499903067
7,-1.919040322807516,0.23281926967384922,-0.1028470807519933,1.8170031170236838,-0.18617598086682854,0.3419717805437577,-0.7105590379713681,-0.6953213233945289,-0.9427836427613664,0.5784463433557108,0.3353403105619714,0.43070201985374795,-0.18174747427012078,-0.6993650361316934,1.1655397797969247,-0.25958400212422533,-1.9781169319631193,-0.6858651105273225,1.087976809103831,0.6113970444339569,0.6702868262535735,0.4330739441737211,-1.419941154426659,-2.0156352595098883,1.034177223077367,-0.24899991704272803,0.5214614983264958,0.4023807508231242,-0.006953787437257395,0.2617854946227356
8,-1.9173600637239534,0.23449270462654473,-0.1089523598802988,1.8102931351928904,-0.18269124895356867,0.34088085749254593,-0.7103522200090371,-0.6943077044290742,-0.9428150881237048,0.5792197878246601,0.33407150636808164,0.4307426957947879,-0.18225619922497188,-0.6978802291311802,1.1662263247335278,-0.2597011490634097,-1.9785423406960823,-0.6862592366089126,1.0879657949815933,0.61122299901178,0.6553931300221318,0.4263576475253204,-1.428630036578211,-2.0166560253981607,1.0262864978709811,-0.2555694593806627,0.5125106720381402,0.3921191349023485,-0.018128179230202362,0.25617377808342784
9,-1.9157259332324506,0.2361428143368976,-0.11509598588113798,1.803627890340457,-0.17922154421781533,0.33976149732270916,-0.7101285104020313,-0.6933144834243631,-0.9428968485675321,0.5799804825416522,0.33289401120800277,0.4308163760877142,-0.18287990199898654,-0.6965260092317628,1.1669575696038796,-0.25984117158284836,-1.978936353318922,-0.6866089549560124,1.0879362709385003,0.6110745923383645,0.6412183181939256,0.42035172801575116,-1.4366898760378828,-2.017109672892865,1.0191567373517743,-0.2614952912995823,0.5040824835734151,0.38246974785652177,-0.02855704463532454,0.25128786340012377
10,-1.9141376698062065,0.2377684840125779,-0.12126220666047385,1.7970141269657798,-0.17577416807977084,0.33861874626847477,-0.7098924742088994,-0.6923432789739458,-0.9430251088486246,0.580728273416871,0.33180359982701413,0.43092172245677834,-0.18361797882257552,-0.6953071303477784,1.167732927319483,-0.26000443320977884,-1.9793006586691675,-0.6869170418098416,1.0878885006131738,0.6109502031463927,0.6277164962348367,0.41499743637279357,-1.4441716311804356,-2.0170569449637474,1.012731588266101,-0.26683476248987686,0.4961284574260379,0.37338266577516227,-0.038289032542739285,0.24706610778556456
11,-1.9125941272844105,0.23936975097433683,-0.12743973397844494,1.7904549544073185,-0.17235349125050475,0.3374567269863637,-0.7096475902825975,-0.6913947516851972,-0.9431962043638196,0.5814635973418969,0.33079525083051164,0.43105714827928543,-0.18446826964623847,-0.6942251568419567,1.1685512297144844,-0.26019092511196684,-1.9796371334724607,-0.6871864956929519,1.0878227945184311,0.6108481497376226,0.614840056609508,0.4102393480754893,-1.4511243262803777,-2.0165514974203136,1.0069564172036976,-0.27164126116489506,0.4886032691498219,0.3648098624877205,-0.0473735951207907,0.2434508762736928
12,-1.9110936108525725,0.24094742436551853,-0.1336207096796305,1.783950874932494,-0.16896176478794062,0.33627878240479464,-0.7093965085673085,-0.6904689097923533,-0.9434067144512077,0.582187269687529,0.3298635478688214,0.43122095019143913,-0.18542750768125216,-0.6932792681965255,1.1694109234266017,-0.2604003477114454,-1.9799477265772092,-0.6874203692507491,1.0877395059230393,0.6107667734963438,0.6025416266576082,0.40602595789412155,-1.4575942504682577,-2.0156405535782644,1.0017793616214878,-0.27596387036306413,0.4814651858176189,0.35670607992173486,-0.055859326142257054,0.2403889742949728
13,-1.9096341146520295,0.24250281042115876,-0.13979988113798136,1.7775005653876865,-0.16559973210325252,0.33508760795718584,-0.709141248123053,-0.6895653305413003,-0.9436535068141019,0.5829003346649161,0.3290029691034717,0.43141140446717813,-0.18649169724709738,-0.692466940895613,1.1703102298536119,-0.2606321858670693,-1.9802343773751845,-0.687621653362648,1.0876390233030653,0.610704493571807,0.590775360793661,0.40230994075098203,-1.4636245164326687,-2.0143655761953965,0.9971519500567938,-0.2798472993688987,0.4746761931199988,0.3490292903427679,-0.06379285994314067,0.2378317862043276
14,-1.9082134859772601,0.2440375174592481,-0.1459739548212838,1.7711014608747429,-0.1622670841480231,0.33388536766620946,-0.7088833483444305,-0.6886833181172477,-0.9439337504983044,0.583603962008428,0.3282080853097829,0.4316268331144907,-0.18765641351484094,-0.691784498034914,1.1712472674714949,-0.2608857733348437,-1.9804989616189408,-0.6877932028150371,1.0875217611447086,0.6106598392100702,0.5794977364997638,0.39904817319744124,-1.4692548822821117,-2.0127629233524917,0.9930293974895633,-0.2833320024908982,0.4682019195814547,0.3417408707831048,-0.07121820351401945,0.23573520428440475
15,-1.9068295360019756,0.24555331973845834,-0.15214109577110946,1.7647501841773987,-0.15896279411627867,0.3326737930467818,-0.7086239839062481,-0.6878220147512362,-0.9442449096953925,0.5842993770723407,0.32747368751302064,0.431865645980367,-0.1889170295168538,-0.691227535706318,1.1722201403362553,-0.2611603452833879,-1.980743258012671,-0.6879376930939536,1.0873881505133698,0.6106314658478814,0.5686679909593977,0.3962015949169323,-1.4745217550558687,-2.010864466238497,0.9893706700128035,-0.2864544150535343,0.46201143933200584,0.33480558539303945,-0.07817638666245315,0.23405942008115324
16,-1.9054801123067389,0.24705206403824032,-0.15830054352623368,1.7584428576256568,-0.15568536122837628,0.3314542656998404,-0.7083640519461493,-0.6869804778150118,-0.9445847266801233,0.5849878146228188,0.3267948626684847,0.43212636492842166,-0.19026888105317166,-0.6907912434970676,1.1732269987214072,-0.26145507940774587,-1.980968929870804,-0.6880575993634261,1.0872386303165773,0.6106181600531146,0.5582483075646288,0.39373497197346713,-1.4794583120342708,-2.0086981561577253,0.9861383951521341,-0.2892472543382655,0.4560770103404985,0.3281914474350881,-0.08470533541712966,0.23276863411337384
17,-1.9041631445649077,0.2485356068203003,-0.16445231929876758,1.752175326809572,-0.1524329867982131,0.3302278853612796,-0.708104238164406,-0.6861577325046916,-0.9449511993087114,0.5856704891917212,0.3261670324696265,0.43240763524238146,-0.19170738147586694,-0.6904706386034221,1.174266078081331,-0.2617691270405805,-1.9811775172817652,-0.68815519055853,1.087073639761588,0.610618837226333,0.5482038352104904,0.39161660696746137,-1.4840946925062672,-2.0062885351105235,0.9832986759393466,-0.2917398487141642,0.4503737860184915,0.32186951217980664,-0.09083989509731485,0.23183072490988982
18,-1.9028766716525718,0.25000577302640886,-0.17059700376311443,1.7459433190115823,-0.1492037003470295,0.32899552546519517,-0.7078450669861165,-0.6853528071733318,-0.9453425564946767,0.5863485768525658,0.32558596692260283,0.432708228320145,-0.19322809762845022,-0.6902607319826507,1.1753357218692344,-0.26210163594834057,-1.981370436308552,-0.6882325332873211,1.086893612197274,0.6106325349161188,0.5385026009661177,0.3898180274846995,-1.4884582264398885,-2.003657189163809,0.9808208508529096,-0.29395847047915374,0.44487952423337346,0.3158136358695594,-0.09661194844482283,0.23121690565919475
19,-1.901618856101976,0.25146433001968566,-0.17673556900869336,1.739742553767617,-0.14599544913398976,0.3277578782501691,-0.7075869397002793,-0.6845647564345982,-0.9457572337212854,0.5870232047669004,0.325047781319922,0.4330270387056553,-0.19482679662345992,-0.6901566424736683,1.1764343927570842,-0.2624517664719503,-1.9815489826873678,-0.6882915017183214,1.086698970330712,0.6106584037373852,0.5291153590384376,0.3883136735714553,-1.4925736772438978,-2.000823146922247,0.9786772288768374,-0.2959266570748209,0.4395743080828584,0.31000022392468457,-0.10205058972640138,0.23090138691993792
20,-1.9003879900839735,0.2529129720085513,-0.18286925178958446,1.7335688186147387,-0.14280616104857455,0.3265154912496153,-0.7073301635310487,-0.6837926757174365,-0.9461938497578135,0.5876954459347357,0.32454892282119663,0.4333630776564622,-0.19649947131906018,-0.6901536719406242,1.1775606758061878,-0.2628187024908004,-1.9817143382223956,-0.6883337907908074,1.086490122697278,0.6106956972253915,0.5200154055812226,0.3870805971485016,-1.4964634837821063,-1.997803227181122,0.9768428191577045,-0.2976655118270964,0.4344402862659865,0.3044079829806359,-0.10718232770224248,0.23086105661618334
21,-1.8991824958473453,0.25435331163634445,-0.18899945813314453,1.7274180197139128,-0.13963378820127945,0.3252687967596985,-0.7070749738625687,-0.6830357098961755,-0.9466511851766557,0.5883663173618533,0.32408615098817317,0.43371546478128176,-0.1982423506377013,-0.6902473517612432,1.17871327625636,-0.2632016584531095,-1.9818675786327824,-0.6883609309521469,1.0862674612119572,0.6107437614816776,0.5111783791292164,0.3860981807681937,-1.500147992501931,-1.9946123406871097,0.9752950676189157,-0.2991939797859102,0.42946143665341374,0.29901768539447077,-0.1120312992624819,0.23107518346652445
22,-1.8980009226428105,0.25578687639266107,-0.19512769169738006,1.7212862144800687,-0.13647633659367403,0.32401813562392434,-0.7068215512838238,-0.6822930578570375,-0.9471281629143515,0.5890367804096782,0.32365651524183886,0.4340834187858582,-0.20005189939557877,-0.6904334686165134,1.1798910138821985,-0.26359988347819285,-1.9820096820168231,-0.6883743032523136,1.08603135961651,0.6108020251344273,0.5025820594718389,0.38534787937903586,-1.5036456744861022,-1.9912637511703355,0.9740136078746529,-0.3005290971289482,0.4246233540150057,0.2938119508550091,-0.11661948195354188,0.23152514657258572
23,-1.8968419415219737,0.2572151082006501,-0.20125550008252832,1.7151696314382419,-0.13333188579860772,0.3227637764381897,-0.7065700347033265,-0.6815639743142203,-0.9476238309079186,0.5897077424823668,0.32325733121325656,0.4344662480065183,-0.2019248111144351,-0.6907080755994666,1.1810928153048792,-0.2640126633222142,-1.9821415373905065,-0.6883751540653675,1.085782172645715,0.6108699899090916,0.49420617292366315,0.3848129863165796,-1.506973324888405,-1.9877693006743842,0.9729800303572175,-0.3016862144008051,0.41991306128888356,0.2887750471161294,-0.12096689812953526,0.23219419167853098
24,-1.8957043389533412,0.25863936503214996,-0.20738443470099277,1.709064681106034,-0.13019860151339308,0.32150593107451736,-0.7063205314719598,-0.6808477697978226,-0.9481373467179081,0.5903800594776201,0.3228861572554124,0.43486334115775277,-0.20385799634984791,-0.6910674931263503,1.1823177052259841,-0.2644393208179874,-1.9822639529619275,-0.688364609009235,1.08552023575519,0.6109472219556038,0.48603220862875035,0.38447842320917297,-1.5101462439388527,-1.9841396038635308,0.9721776712991557,-0.30267919491851125,0.41531884290551574,0.2838927102234268,-0.12509180656520863,0.23306721325365082
25,-1.894587009884655,0.26006092375553075,-0.21351602087844615,1.7029679606577772,-0.12707474306600522,0.32024476724820067,-0.7060731252198124,-0.6801438094580534,-0.9486679639875123,0.5910545386167132,0.32254077189448743,0.4352741585458046,-0.2058485683548002,-0.6915083029481655,1.1835647972398682,-0.2648792152522377,-1.982377663943208,-0.6883436858371541,1.0852458652765469,0.6110333439830513,0.47804324831267114,0.3843305525856609,-1.5131783997809303,-1.9803842155370086,0.9715914217582365,-0.3035205902360237,0.4108300982594202,0.279151983611311,-0.1290108794489239,0.2341305607755115
26,-1.893488950663657,0.26148098367051104,-0.21965173567116247,1.6968762543596667,-0.1239586673822008,0.3189804187098389,-0.7058278819393211,-0.6794515111332543,-0.9492150205605964,0.5917319413999775,0.32221915266574436,0.4356982238828052,-0.2078938273618662,-0.6920273376607863,1.1848332846577445,-0.26533174102729107,-1.9824833397957473,-0.6883133062060803,1.084959358888964,0.6111280281941439,0.47022381044185096,0.38435701149139523,-1.5160825740392163,-1.9765117750974697,0.9712075559866217,-0.304221794799717,0.4064372132784162,0.27454107489072443,-0.1327393640354066,0.23537186720531816
27,-1.89240925207966,0.26290067035986,-0.22579299150008736,1.6907865312050927,-0.1208488305039649,0.3177129935271774,-0.7055848547174077,-0.6787703429900167,-0.9497779280763005,0.5924129865239854,0.3219194565564907,0.43613511675887007,-0.20999124437265387,-0.6926216674378688,1.1861224316186096,-0.2657963258638142,-1.9825815908664728,-0.6882743063108039,1.0846609963176597,0.6112309899779914,0.4625597088267881,0.38454656421164213,-1.5188704913568452,-1.972530131246252,0.9710135779422425,-0.30479318196548094,0.4021314480631484,0.27004922887425076,-0.13629122909834884,0.2367798975114534
28,-1.891347092685757,0.2643210396111936,-0.2319411241677686,1.6846959407709203,-0.117743787445273,0.3164425808277123,-0.705344087422226,-0.6780998209454279,-0.950356162864676,0.5930983526583342,0.32164000213315475,0.43658446578047433,-0.21213844505601523,-0.6932885852111044,1.1874315646521354,-0.2662724287321491,-1.982672974412204,-0.6882274464230397,1.0843510401883656,0.611341982302039,0.45503792514411273,0.38488897216600226,-1.5215529342918106,-1.9684464497345633,0.970998084490634,-0.3052442234674632,0.3979048386846518,0.26566661529118685,-0.13967929684096442,0.2383444151160612
29,-1.8903017324919242,0.26574308124833124,-0.2380973841763806,1.67860180801797,-0.1146421909492275,0.3151692562977592,-0.705105617577278,-0.6774395060123036,-0.9509492579809216,0.5937886810218651,0.3213792533374683,0.43704594235352906,-0.2143331941501769,-0.6940255911552364,1.1887600647834882,-0.26675953764758764,-1.9827580000333687,-0.6881734194032556,1.0840297369825298,0.6114607907366427,0.4476464945332286,0.38537487910496965,-1.524139844989812,-1.9642673065983203,0.9711506437589054,-0.30558359428262877,0.3937501113887262,0.2613842296601738,-0.1429153612105831,0.2400560642486757
30,-1.8892725070726035,0.2671677227717719,-0.24426293053146034,1.6725016275425755,-0.1115427895488243,0.31389308667363514,-0.7048694786007883,-0.6767890016597202,-0.9515567962316562,0.5944845777264627,0.3211358048810797,0.4375192550725989,-0.21657338061743497,-0.6948303770676191,1.1901073602197818,-0.2672571674258636,-1.982837134552127,-0.688112858267099,1.0836973180507727,0.6115872290447673,0.4403744032636955,0.38599570986462794,-1.526640415007031,-1.9599987689488885,0.9714616871183517,-0.3058192646587502,0.38966060763428545,0.25719380586497237,-0.14601029369984225,0.2419062663478299
31,-1.888258822101552,0.26859583274949583,-0.2504388264176971,1.666393057628907,-0.10844442521560975,0.31261413341279126,-0.704635701546767,-0.6761479512472123,-0.9521784040631979,0.5951866158754746,0.32090836913668663,0.4380041446692577,-0.21885700369742753,-0.6957008110385142,1.191472919625184,-0.2677648574661581,-1.9829108063769543,-0.6880463428931658,1.083354000652397,0.6117211352720286,0.43321149741275605,0.3867435810881314,-1.5290631645707333,-1.9556464650818042,0.9719224133468195,-0.30595858088779065,0.38563021857168434,0.25308773908993515,-0.1489741377561648,0.24388712882908486
32,-1.8872601483069193,0.270028223927962,-0.25662603628607894,1.660273914337729,-0.10534603079443114,0.311332455694712,-0.7044043164527553,-0.6755160355674125,-0.9528137461978281,0.5958953374162269,0.32069576440867015,0.43850037946964654,-0.22118215993423138,-0.6966349226694574,1.1928562459712864,-0.2682821696075814,-1.9829794093983144,-0.6879744059580513,1.08299998899689,0.6118623682771005,0.4261484014998759,0.38761122248437085,-1.5314160124596445,-1.9512156453978113,0.9725247036288308,-0.3060083362248108,0.3816533277367559,0.24905901789663482,-0.15181619289995368,0.2459913647190586
33,-1.8862760168271906,0.2714656560527171,-0.262825424007857,1.6541421657847015,-0.10224662735972925,0.31004811287116074,-0.7041753533753258,-0.6748929705156387,-0.953462520918879,0.5966112547541239,0.32049690446150625,0.43900775131181635,-0.2235470312047012,-0.6976308889983566,1.1942568709373687,-0.26880868608952463,-1.9830433064598536,-0.687897538180478,1.0826354752697092,0.6120108046482503,0.4191764460709088,0.38859190735374305,-1.5337063375728426,-1.9467112354011844,0.9732610461728085,-0.3059748331817837,0.37772476089208407,0.24510116435024412,-0.15454508959516072,0.2482122218297433
34,-1.8853060149414482,0.2729088384011913,-0.26903775183912687,1.6479959267017272,-0.0991453215830906,0.30876116646130825,-0.70394884317614,-0.6742785048938458,-0.9541244559189024,0.5973348521408394,0.3203107891860322,0.43952607187601,-0.22594987374400363,-0.6986870212206926,1.195674349828949,-0.2693440076350099,-1.9831028324476898,-0.6878161929503566,1.0822606406295492,0.6121663359578143,0.4122876032913196,0.38967939126169826,-1.5359410331435936,-1.9421378818449082,0.9741244693493178,-0.3058639382696677,0.3738397420869019,0.24120818122672136,-0.15716885584010684,0.25054342031012083
35,-1.88434978214368,0.27435843203895477,-0.27526368000708723,1.6418334533319672,-0.09604130316850108,0.3074716817681447,-0.7037248181073701,-0.6736724183489355,-0.9547993046370964,0.5980665868521037,0.3201364962893077,0.44005516938474665,-0.22838900814438504,-0.6998017522482434,1.1971082569805491,-0.26988775166809525,-1.9831582970375758,-0.6877307904118957,1.0818756561680518,0.6123288663123427,0.40547442968458386,0.39086785787935413,-1.5381265544478568,-1.9374999929265335,0.9751084823752153,-0.3056811301221263,0.3699938551307079,0.23737450544586006,-0.1596949763623862,0.25297909756015147
36,-1.8834070065294497,0.27581505181630983,-0.2815037667802815,1.6356531386784856,-0.09293384238759754,0.30617972917734443,-0.7035033122345363,-0.673074519440575,-0.9554868430226062,0.5988068901722527,0.3199731739015867,0.44059488563380544,-0.23086281029134859,-0.7009736251142419,1.1985581816086124,-0.2704395506706751,-1.9832099871364868,-0.6876417210629713,1.0814806838257527,0.6124983101617262,0.3987300152313057,0.3921518711355167,-1.5402689607586704,-1.9328017732983371,0.976207022682105,-0.3054315418104015,0.3661830097839314,0.23359496697902457,-0.1621304452161991,0.25551375962475487
37,-1.8824774214633468,0.2772792681255474,-0.2877584689241592,1.6294535081047417,-0.08982228772977531,0.3048853851876193,-0.7032843617265294,-0.6724846438306493,-0.9561868666693941,0.5995561682034892,0.3198200340026516,0.44114507331958136,-0.23336970319507297,-0.7022012822124472,1.2000237240820255,-0.2709990506800209,-1.9832581690518145,-0.6875493489262582,1.0810758772601974,0.6126745903357375,0.392047938122346,0.39352633293575,-1.542373952208432,-1.9280472545371707,0.9774144092115454,-0.3051199980502529,0.3624034120629829,0.2298647525733638,-0.16448181249770386,0.2581422383026441
38,-1.8815608024967192,0.2787516084411788,-0.2940281424729693,1.6232332152699345,-0.08670606366951542,0.30358873321193963,-0.7030680050361919,-0.671902652584729,-0.9568991882762065,0.6003148025180279,0.3196763465787233,0.44170559363255907,-0.23590814967225512,-0.7034834553440686,1.2015044925800673,-0.2715659099256653,-1.9833030904180446,-0.6874540143413505,1.080661382663736,0.6128576362810378,0.38542222453278535,0.39498644580219905,-1.5444469021414697,-1.9232403216198706,0.9787253009732624,-0.30475104790739543,0.35865153813821465,0.22617937371665936,-0.1667552258163582,0.26085965330764677
39,-1.8806569645068587,0.2802325586664273,-0.3003130437714682,1.6169910383717854,-0.08358466854445556,0.302289864181317,-0.7028542829898964,-0.6713284305750716,-0.9576236353919007,0.6010831506711776,0.31954143442989374,0.44227631409068163,-0.23847664583329814,-0.7048189565385085,1.2030001001104151,-0.2721397976023839,-1.9833449819076638,-0.6873560364213471,1.080237339529664,0.6130473824758026,0.3788473128514896,0.39652767987359744,-1.5464928854689641,-1.9183847358665342,0.9801346602861761,-0.30432899352613874,0.3549241113731732,0.22253463833933274,-0.1689564670889845,0.2636613789095953
40,-1.8797657590308454,0.2817225643095529,-0.3066133307568107,1.6107258766624466,-0.08045767253160944,0.30098887697674703,-0.7026432388007463,-0.670761884974442,-0.9583600484121583,0.6018615465930731,0.31941466855626344,0.4428571065900944,-0.2410737153309605,-0.7062066696097691,1.2045101618627614,-0.27272039277481824,-1.9833840587501432,-0.6872557152122069,1.0798038813662225,0.6132437670027401,0.3723180218628306,0.39814574377936096,-1.5485167034766896,-1.9134841547439914,0.9816377201957535,-0.30385791533557405,0.3512180821134556,0.21892662581332592,-0.17109098515892915,0.2665430145592599
41,-1.8788870717694621,0.28322203151341085,-0.31292906446352226,1.6044367471989505,-0.07732471570505402,0.2996858787100881,-0.7024349180170852,-0.670202943830223,-0.9591082787985307,0.6026503008763225,0.3192954640585692,0.4434478456540881,-0.2436979043285791,-0.70764554240888,1.2060342928764423,-0.2733073834085153,-1.9834205220802126,-0.6871533335885734,1.0793611363585665,0.6134467302644316,0.3658295224326551,0.39983655896601067,-1.550522905482419,-1.9085421488633645,0.9832299556257099,-0.30334169412733436,0.3475306098848104,0.2153516648624874,-0.17316392468521882,0.2695003590684064
42,-1.8780208202388748,0.2847313279611557,-0.31926021074354693,1.5981227817872898,-0.07418550615585871,0.2983809848708603,-0.702229368415743,-0.6696515547087678,-0.959868187494948,0.6034497009763105,0.3191832764959939,0.44404840686403024,-0.24634777714831593,-0.7091345797329276,1.2075721060031357,-0.2739004655216881,-1.9834545601342748,-0.6870491589157239,1.0789092279792516,0.6136562138276582,0.35937731230010733,0.4015962371094942,-1.552515807693431,-1.9035622164570298,0.9849070578781716,-0.3027840303474366,0.3438590477040218,0.21180631404665207,-0.17518015169577694,0.27252938797311244
43,-1.877166951550058,0.2862507836802946,-0.325606642199738,1.591783224078382,-0.07103981815366157,0.2970743193529958,-0.702026639847725,-0.6691076834006181,-0.9606396435203768,0.6042600113403425,0.319077598650056,0.4446586654586686,-0.24902191256224446,-0.7106728368525816,1.2091232101480474,-0.2744993424517315,-1.9834863493116996,-0.6869434445037464,1.0784482755480862,0.6138721593857248,0.3529571936207838,0.40342106029431923,-1.5544995095745557,-1.8985477955800907,0.9866649121448713,-0.3021884609008754,0.3402009282436463,0.2082873445226713,-0.17714427615412523,0.27562623375709383
44,-1.8763254402981866,0.28778069176643295,-0.33196814033534744,1.585417426774471,-0.06788749032884184,0.2957660143732973,-0.7018267840427456,-0.6685713126780175,-0.961422522719316,0.6050814734812329,0.3189779576490063,0.4452784950904235,-0.2517189006912755,-0.7122594136219317,1.2106872087750515,-0.27510372423037566,-1.9835160551158837,-0.6868364308769785,1.0779783947424209,0.6140945078297964,0.3465652529454132,0.4053074636807399,-1.5564779080028452,-1.8935022742484366,0.988499577733579,-0.30155837373047295,0.3365539516237457,0.20479172482104183,-0.17906067185004654,0.27878716865301784
45,-1.8754962865463896,0.2893213090470703,-0.3383443979244884,1.5790248489057224,-0.06472842385450416,0.2944562102916406,-0.701629854378036,-0.6680424410970278,-0.9622167066543544,0.6059143060103339,0.3188839124120575,0.4459077667291762,-0.2544373404787934,-0.7138934491366485,1.212263698662945,-0.27571332706128115,-1.9835438329883197,-0.6867283468790742,1.0774996980591058,0.6143231984219358,0.340197843352318,0.4072520204154108,-1.558454709455539,-1.8884289986985476,0.9904072707495031,-0.300897020400104,0.3329159746311969,0.20131660740723606,-0.18093349389087968,0.28200858977452414
46,-1.874679513890349,0.2908728567047266,-0.34473502160952446,1.5726050531386888,-0.061562580608334694,0.2931450553416906,-0.7014359056161423,-0.6675210818374872,-0.9630220816271392,0.6067587046443701,0.31879505137709463,0.44654634770562945,-0.25717583770735314,-0.7155741169087401,1.213852268901312,-0.27632787289383254,-1.9835698290474932,-0.6866194106317747,1.0770122952294783,0.6145581680639326,0.33385156848184944,0.40925142856972235,-1.5604334404528604,-1.8833312799325013,0.9923843490015509,-0.30020752688602237,0.3292850011906386,0.19785931682302085,-0.18276669404091225,0.2852870063607763
47,-1.87387516759222,0.2924355208775039,-0.35113953473113674,1.5661577030808296,-0.05838998129570807,0.29183270527999977,-0.7012449936159217,-0.6670072615749966,-0.9638385378158846,0.6076148421997741,0.31871099047931567,0.4471941008875824,-0.25993300352784704,-0.7173006205283132,1.2154525001154963,-0.2769470890868518,-1.9835941807431725,-0.6865098303634896,1.0765162935888442,0.614799350657139,0.327523268247278,0.41130249991415346,-1.5624174564557192,-1.8782123986944026,0.9944272989287336,-0.2994929027579128,0.3256591739312571,0.1944173392255557,-0.18456403413120348,0.2886190289395561
48,-1.8730833127742466,0.2940094532539349,-0.35755738039564827,1.5596825605482845,-0.055210703517133794,0.290519322960755,-0.7010571750205985,-0.6665010193800756,-0.9646659685190228,0.6084828685875019,0.3186313713515941,0.447850883983448,-0.2627074534711801,-0.7190721897846886,1.2170639639108303,-0.2775707081559142,-1.9836170174355678,-0.6863998051221105,1.0760117984020234,0.6150466765494284,0.32121000601974636,0.4134021503570467,-1.5644099494000736,-1.8730756090109948,0.9965327243632421,-0.2987560489128709,0.322036766710925,0.19098831316141593,-0.18632909774060635,0.29200136023485374
49,-1.872304032664232,0.29559477167762355,-0.36398792478222725,1.553179482767518,-0.0520248797651672,0.28920507784307325,-0.7008725069265128,-0.666002405640567,-0.965504269495817,0.6093629108205294,0.3185558597202954,0.44851654896807247,-0.2654978069127194,-0.7208880772208711,1.218686222526632,-0.27819846759789946,-1.9836384609078859,-0.6862895253850334,1.075498913146624,0.6153000720660672,0.31490905710526307,0.4155473918927843,-1.5664139540340178,-1.8679241404189395,0.9986973369643406,-0.2979997640102196,0.3184161779741438,0.18757002142935325,-0.18806530033029784,0.2954307876611881
50,-1.8715374268867133,0.29719156077575415,-0.3704304606899968,1.5466484194852317,-0.048832695338215173,0.28789014543756736,-0.7006910465360627,-0.6655114810042922,-0.966353338395753,0.6102550730453883,0.31848414397286906,0.4491909416264059,-0.2683026869596465,-0.7227475550967342,1.2203188286905482,-0.2788301097863496,-1.9836586258199795,-0.6861791735781307,1.074977739755815,0.6155594591217777,0.3086178983497346,0.4177353259179268,-1.5684323532101765,-1.8627611989936477,1.000917948171714,-0.2972267497424216,0.3147959248331866,0.18416038389999925,-0.1897758979983328,0.29890417726004886
51,-1.8707836097952577,0.29879987262402957,-0.37688421132199795,1.5400894099650089,-0.04563438616119176,0.28657470669886365,-0.700512850798273,-0.6650283153398393,-0.9672130742693301,0.611159436608176,0.31841593387582884,0.4498739012108574,-0.27112072073089155,-0.7246499127373106,1.2219613256636421,-0.27946538193113707,-1.983677620110063,-0.6860689245143567,1.0744483788224832,0.615824754911574,0.3023341987240414,0.41996313778492633,-1.5704678822743094,-1.8575899672891187,1.0031914625387257,-0.2964396150669036,0.31117463777312526,0.180757451173196,-0.19146399500721012,0.30241846894437124
52,-1.870042708842758,0.30041972745900036,-0.3833483342995066,1.5335025798534543,-0.04243023650567298,0.28525894737081675,-0.7003379760404009,-0.6645529867142111,-0.9680833771535223,0.6120760601644749,0.3183509594237705,0.45056526020825494,-0.2739505399986352,-0.7265944542433201,1.2236132474662356,-0.2801040360958712,-1.9836955453508285,-0.6859589457617525,1.0739109297667726,0.6160958716781035,0.29605581075547327,0.42222809247195553,-1.5725231326807843,-1.8524136032945717,1.0055148723156004,-0.2956408795149815,0.30755105589133697,0.17735939896452282,-0.19313255022580916,0.30597067292527597
53,-1.8693148629879452,0.30205111444707244,-0.389821925896527,1.5268881379030632,-0.03922057660501611,0.28394305729129465,-0.7001664775939941,-0.6640855803868503,-0.9689641477256902,0.6130049798415281,0.31828896980190097,0.45126484421225604,-0.27679078215949476,-0.7285804965415148,1.2252741192739467,-0.28074582926640507,-1.9837124970657354,-0.6858493979498244,1.0733654909691297,0.6163727165532372,0.28978076268472425,0.424527531254588,-1.5746005549564788,-1.847235238511327,1.0078852531602478,-0.2948329756869095,0.30392402259087,0.1739645231221572,-0.19478438261698416,0.3095578672018452
54,-1.8686002211375419,0.3036939925177419,-0.39630402548048704,1.5202463725436275,-0.03600578016279485,0.28262722966357007,-0.6999984094188271,-0.6636261878202874,-0.969855287020131,0.6139462094598563,0.31822973244619823,0.4519724718968375,-0.2796400915025446,-0.7306073677526347,1.2269434579726681,-0.2813905234637494,-1.9837285650107372,-0.6857404350225733,1.0728121598711096,0.6166551914715364,0.28350725123934384,0.4268588692708699,-1.5767024611264164,-1.8420579752520445,1.0102997608606277,-0.2940182510360532,0.30029248165490957,0.17057123518370546,-0.19642217589328498,0.31317719599982907
55,-1.8678989406245667,0.3053482912668136,-0.4027936201413634,1.5135776482985988,-0.03278626175580705,0.28131166030152244,-0.6998338237281562,-0.6631749057083222,-0.9707566962017679,0.6148997408202609,0.3181730321868237,0.4526879550861598,-0.28249712074033756,-0.7326744058547758,1.2286207728604381,-0.28203788589466844,-1.9837438334262596,-0.6856322044458317,1.0722510330463173,0.6169431931530162,0.27723363492525466,0.4292195938760595,-1.5788310267067982,-1.8368848832637101,1.0127556289575756,-0.2931989690400223,0.29665547363670003,0.16717805839027794,-0.19804848245542891,0.3168258690492403
56,-1.867211185724242,0.30701391193353983,-0.40928964948777785,1.5068824020473959,-0.02956247413578176,0.2799965468560047,-0.6996727706187237,-0.6627318350232336,-0.9716682763917222,0.615865544060858,0.3181186704617905,0.4534110989156793,-0.28536053276816803,-0.7347809576198258,1.2303055664833273,-0.2826876891332345,-1.9837583812638262,-0.6855248473760002,1.071682206243984,0.6172366131523245,0.27095842774785023,0.43160726368727187,-1.58098829236386,-1.8317189957753708,1.0152501671611605,-0.29237730985203053,0.29301213250579666,0.16378362408204672,-0.1996657267210296,0.3205011615941102
57,-1.8665371262097499,0.3086907284537789,-0.41579101058513784,1.5001611391391059,-0.026334905436692566,0.2786820880298369,-0.6995152977089151,-0.6622970800840197,-0.9725899285397109,0.6168435680874398,0.3180664645891792,0.4541417020788971,-0.2882290026160294,-0.7369263778003825,1.2319973355916238,-0.28333971132665947,-1.9837722823913457,-0.6854184987967596,1.0711057744077874,0.6175353379710998,0.2646802932834229,0.4340195082217193,-1.5831761653299723,-1.8265633050712542,1.0177807604572127,-0.29155537052155833,0.2893616824975614,0.16038666840596597,-0.20127620794447804,0.3242004150305396
58,-1.8658769359507472,0.3103785885894604,-0.422296563007739,1.4934144293672826,-0.023104076297220236,0.2773684827889382,-0.6993614497884079,-0.6618707476480833,-0.9735215533383648,0.6178337410790768,0.31801624708740195,0.45487955715361256,-0.29110121955713864,-0.7391100285442822,1.233695572201811,-0.2839937364188147,-1.983785605780714,-0.6853132876298421,1.0705218316726235,0.6178392492298692,0.25839803903035913,0.43645402803542055,-1.5853964206614835,-1.82142075768933,1.020344868803911,-0.29073516486937134,0.2857034351184785,0.15698602927238814,-0.20288210262257594,0.3279210380718475
59,-1.8652307915580406,0.3120773151328662,-0.4288051339740038,1.4866429028195447,-0.019870536910345217,0.27605592957708497,-0.6992112684825516,-0.6614529460291084,-0.9744630511746978,0.6188359710694898,0.31796786503416336,0.4556244510010221,-0.2939758893365885,-0.7413312790135833,1.2353997647491157,-0.2846495543849971,-1.9837984156810438,-0.6852093368254731,1.0699304713421103,0.6181482238954237,0.25211061097776555,0.43890859527237114,-1.5876507024158744,-1.8162942493443526,1.022940027321455,-0.28991862309793454,0.282036786265226,0.15358064350307662,-0.20448546657438535,0.3316605083423204
60,-1.864598871078185,0.3137867071825351,-0.4353155235317694,1.4798472456193108,-0.016634864014240205,0.27474462554167045,-0.6990647919345717,-0.661043784244095,-0.9754143221140884,0.6198501466033395,0.3179211794558632,0.45637616523049085,-0.29685173648370433,-0.7435895051846337,1.2371093993148177,-0.2853069614717083,-1.9838107717805078,-0.6851067634376374,1.0693317858496603,0.6184621345591844,0.24581708833702473,0.4413810545374107,-1.5899405248187581,-1.8111866196727708,1.0255638468811001,-0.28910759121411217,0.2783612134205549,0.1501695441186818,-0.20608823677764754,0.3354163743040021
61,-1.8639813527419686,0.31550654148599866,-0.44182650975883003,1.4730281955802458,-0.013397657840528132,0.27343476577764037,-0.6989220545085074,-0.6606433711926583,-0.9763752659122541,0.6208761374652463,0.3178760647402353,0.45713447672235547,-0.29972750667206355,-0.7458840898057378,1.2388239609120721,-0.28596576043548383,-1.983822729359461,-0.6850056786888652,1.0687258667059836,0.6187808497616611,0.2395166783892667,0.44386932400952894,-1.5922672734840981,-1.806100646894474,1.0282140150033345,-0.2883038303366524,0.2746762728939406,0.14675185771917357,-0.20769223303794354,0.3391862574242954
62,-1.8633784137708103,0.317236573843085,-0.4483368539428379,1.466186537796734,-0.010159539037531976,0.2721265425964776,-0.6987830865155565,-0.6602518148717322,-0.9773457820508404,0.6219137954780748,0.3178324080660302,0.45789915820070903,-0.30260196909191844,-0.7482144224889765,1.2405429348137413,-0.2866257607751451,-1.983834339437207,-0.6849061880287778,1.0681128044358748,0.6191042343577322,0.23320871140891125,0.4463713967162451,-1.5946322067436913,-1.8010390424830383,1.0308882969788828,-0.28750901595624484,0.2709815970797027,0.14332680191605035,-0.20929915956044354,0.34296785449599637
63,-1.8627902292450087,0.3189765405622131,-0.4548453057041977,1.4593231001959235,-0.006921145587337757,0.2708201448267127,-0.6986479139662306,-0.6598692216287653,-0.9783257697923982,0.6229629553658286,0.3177901088445197,0.45866997884779714,-0.30547391880095753,-0.7505798999129546,1.242265807905678,-0.2872867789522424,-1.9838456489144645,-0.6848083911901764,1.0674926885071019,0.6194321499171509,0.22689263563029313,0.4488853418940531,-1.5970364571345004,-1.7960044459318971,1.0335845371306107,-0.28672473721085995,0.2672768917098561,0.13989368278039555,-0.2109106064875867,0.34675894002584423
64,-1.862216971037588,0.3207261599609674,-0.4613506080257793,1.452438749078534,-0.003683129736297532,0.26951575715194753,-0.698516558350409,-0.6594956954563473,-0.9793151282506958,0.6240234356754196,0.3177490781685338,0.4594467049514286,-0.308342179020955,-0.7529799261136833,1.2439920700490683,-0.28794863859491154,-1.9838567007133017,-0.6847123822459967,1.0668656072541394,0.6197644551544238,0.22056801223092756,0.45140930636479615,-1.5994810330848401,-1.7909994196986485,1.0363006601393436,-0.2859524962336167,0.2635619330833489,0.13645189227603235,-0.212528051459331,0.35055736861278874
65,-1.8616588068171456,0.322485133901311,-0.4678515021541123,1.4455343846766866,-0.0004461549590019805,0.2682135594918038,-0.6983890364470347,-0.6591313373309882,-0.9803137564725168,0.6250950397506301,0.317709238265631,0.4602291005766947,-0.3112056033498763,-0.7554139128414643,1.2457212154358308,-0.2886111706808735,-1.9838675339160206,-0.6846182496699919,1.066231647799382,0.6201010063820255,0.21423451031118643,0.45394151586323567,-1.6019668208327988,-1.7860264444035594,1.0390346723621362,-0.28519370762458285,0.25983656525756177,0.13300090565212916,-0.21415286124572952,0.3543610772429675
66,-1.86111589912269,0.3242531493490765,-0.47434673233819497,1.4386109367574675,0.002789107024250892,0.26691372643055444,-0.6982653601648199,-0.6587762445984652,-0.9813215535273166,0.6261775567507798,0.317670521952844,0.4610169282532993,-0.3140630778614064,-0.7578812799625382,1.2474527439216836,-0.2892742136958561,-1.9838781839041943,-0.6845260764035488,1.0655908959743328,0.6204416579808177,0.20789190185601786,0.4564802762569964,-1.6044945866026556,-1.7810879143512923,1.0417846630776035,-0.2844496980917355,0.2561006971919603,0.12954027877460725,-0.21578629349455974,0.3581680874348264
67,-1.8605884045129362,0.3260298799468851,-0.48083505037411395,1.4316693603007986,0.0060219791568652346,0.26561642669748203,-0.6981455364149377,-0.6584305104078011,-0.9823384186013687,0.6272707627059766,0.3176328720912329,0.4618099496699368,-0.31691352306660836,-0.7603814558853901,1.2491861623223248,-0.28993761376430216,-1.9838886824987965,-0.6844359399305896,1.0649434362430878,0.6207862628815354,0.2015400566698181,0.4590239746064527,-1.6070649790575504,-1.7761861334370517,1.0445488055995358,-0.283721706299847,0.2523542998375919,0.12606964538057003,-0.21742949862961508,0.36197650717484875
68,-1.860076472791943,0.32781498758937894,-0.4873152199262721,1.4247106312794746,0.009251781863390063,0.2643218227022425,-0.6980295670162667,-0.6580942231955191,-0.9833642510933089,0.6283744216003575,0.31759624103921014,0.4626079263674144,-0.3197558957154511,-0.7629138779929613,1.250920985659203,-0.2906012247498367,-1.9838990581021083,-0.6843479123620674,1.0642893516302392,0.6211346730512903,0.19517893728062652,0.46157108001890573,-1.6096785320393425,-1.77132331148986,1.04732535820708,-0.2830108829593979,0.24859740316966897,0.12258871424466868,-0.21908352192813224,0.3657845325918968
69,-1.8595802463123376,0.3296081239896199,-0.49378602059909144,1.4177357425679613,0.01247783575728281,0.2630300701277146,-0.6979174486333495,-0.6577674662213729,-0.9843989507082886,0.6294882864744392,0.31756059010426746,0.46341062042259645,-0.3225891904192129,-0.7654779930635722,1.2526567383425766,-0.2912649083235882,-1.9839093358418505,-0.6842620605311387,1.0636287236550883,0.621486739979227,0.1888085938144254,0.46412014425848813,-1.612335667599573,-1.7665015610966754,1.0501126648471961,-0.282318291180842,0.2448300931637586,0.11909726625079886,-0.22074930579876234,0.3695904493261089
70,-1.8590998593567083,0.3314089322256897,-0.5002462517365227,1.4107457000048038,0.01569946422272907,0.2617413175820018,-0.6978091727468191,-0.6574503171562734,-0.9854424175482669,0.6306121005375832,0.31752588899333417,0.4642177951157425,-0.32541244107820055,-0.7680732576651025,1.2543929552809316,-0.291928533999081,-1.9839195377177665,-0.6841784460996891,1.0629616322738196,0.6218423151557331,0.18242915884445896,0.4666698020805217,-1.6150366993188068,-1.761722894941725,1.052909155572764,-0.28164490711276524,0.24105250871907133,0.11559515136674199,-0.22242769227458734,0.3733926335564973
71,-1.858635437597057,0.333217048256919,-0.5066947359304534,1.4037415186313003,0.018915995855972957,0.26045570631044085,-0.6977047256556588,-0.6571428477226423,-0.986494552196306,0.6317455982816392,0.31749211526251825,0.4650292155744052,-0.3282247221027574,-0.7706991385088509,1.256129182907325,-0.2925919791330267,-1.9839296827506838,-0.6840971256765057,1.06228815583102,0.6222012505399654,0.17604084222410912,0.46921877126641365,-1.6177818359054748,-1.7569892236859352,1.0557133466875226,-0.28099162087579616,0.23726483853499206,0.11208228552327525,-0.22411942572903432,0.3771895526597242
72,-1.85818709763153,0.3350321023997511,-0.5131303222230827,1.3967242191265528,0.022126766753553007,0.2591733699676754,-0.69760408851029,-0.6568451233869345,-0.9875552557930766,0.6328885065870548,0.3174592537674288,0.4658446493877375,-0.3310251494190926,-0.7733551127514929,1.257864980114813,-0.29325512889193306,-1.9839397871338948,-0.6840181509470414,1.0616083710216606,0.622563399010878,0.16964392591496463,0.4717658523424885,-1.6205711850597366,-1.7523023544018785,1.0585238405767916,-0.28035923779765254,0.23346731794929604,0.10855864740283645,-0.22582515581624119,0.38097976548083873
73,-1.8577549465969811,0.33685372075399017,-0.519551888992414,1.38969482445616,0.02533112263694705,0.25789443444909255,-0.6975072373751445,-0.656557203103591,-0.988624430104121,0.6340405458131126,0.3174272961156437,0.46666386718581243,-0.33381288125498043,-0.776040668235604,1.2595999190947704,-0.29391787618500353,-1.9839498643865496,-0.6839415688143998,1.0609223528643805,0.6229286147974296,0.16323875882427613,0.4743099279732863,-1.6234047575829225,-1.747663989570409,1.0613393252105756,-0.27974847994855173,0.22966022574843206,0.10502427514600374,-0.22754544063156854,0.3847619222048901
74,-1.8573390818553057,0.33868152657106915,-0.5259583465141247,1.382654356748771,0.028528420805350244,0.25661901778020463,-0.69741414331907,-0.6562791391092284,-0.9897019775767649,0.6352014308644659,0.31739624012317214,0.46748664317936134,-0.33658711870378005,-0.7787553036612972,1.261333586073568,-0.2945801215643163,-1.9839599255086098,-0.6838674215508901,1.06023017468664,0.6232967538841925,0.15682575166800455,0.47684996202668495,-1.6262824717088291,-1.7430757266363062,1.0641585733129881,-0.27915998797046954,0.22584388096182192,0.101479262986806,-0.22928075008261273,0.3885347638261436
75,-1.8569395907509014,0.3405151415569692,-0.5323486391971047,1.3756038344115353,0.031718031910587786,0.25534723006190807,-0.6973247725316549,-0.6560109767654464,-0.9907878013858958,0.6363708722267658,0.3173660892769677,0.468312755656178,-0.33934710606845725,-0.7814985286835874,1.2630655819447296,-0.29524177309373517,-1.9839699791368128,-0.6837957469592666,1.0595319081220445,0.6236676743891596,0.1504053718771445,0.479384998314618,-1.6292041576296021,-1.7385390581119518,1.066980441198885,-0.27859432318849464,0.22201863965331795,0.0979237578301952,-0.231031469456324,0.39229712121898364
76,-1.8565565504361077,0.3423541871035013,-0.5387217474938378,1.368544269492256,0.03489934155044379,0.2540791734689645,-0.6972390864633347,-0.6557527544482515,-0.9918818054681442,0.6375485769648971,0.3173368522056771,0.4691419874312852,-0.34209213099028796,-0.7842698639320936,1.2647955227952914,-0.2959027461884129,-1.9839800317010048,-0.6837265785425708,1.0588276231198854,0.6240412369111487,0.14397813856595462,0.48191415901905005,-1.6321695621861263,-1.7340553722104448,1.069803867285015,-0.278051969987859,0.21818489172378405,0.09435795578687274,-0.2327979031637228,0.39604791382136917
77,-1.85619002776102,0.34419828544279474,-0.5450766894904507,1.3614766652928476,0.038071751678919394,0.25281494229854745,-0.6971570419869682,-0.6555045034817575,-0.9929838945442951,0.6387342496781259,0.31730854216086607,0.4699741262488086,-0.34482152436964664,-0.787068840951599,1.266523040326606,-0.296562963427094,-1.9839900875801453,-0.6836599456813425,1.0581173879667087,0.6244173048448107,0.13754461758117684,0.48443664281815885,-1.6351783536908069,-1.7296259539827794,1.072627870288801,-0.27753333843619515,0.21434305773923049,0.09078209868206508,-0.2345802786402766,0.39978614794781364
78,-1.8558400792237117,0.3460470607209944,-0.5514125221846191,1.354402014235585,0.04123468183407073,0.2515546230652747,-0.6970785915784428,-0.6552662481135374,-0.9940939741300314,0.6399275934073091,0.3172811765109524,0.47080896513432713,-0.34753466008869344,-0.7898950020637675,1.2682477821712503,-0.2972223543397085,-1.9840001492572472,-0.6835958738168556,1.0574012693195003,0.6247957446618538,0.13110541665130696,0.486951722732287,-1.6382301268493107,-1.7252519869278018,1.075451547132983,-0.27703876712720904,0.21049358579905791,0.08719647055579482,-0.23637875037726627,0.40351091475420836
79,-1.855506750976595,0.3479001399883228,-0.5577283424625378,1.3473212959806784,0.04438757018608038,0.2502982946388131,-0.697003683513787,-0.6550380055287712,-0.9952119505353498,0.6411283104901836,0.3172547762500047,0.4716463026972541,-0.35023095454784314,-0.7927479001519363,1.2699694121089866,-0.29788085517296564,-1.9840102174725025,-0.6835343846389657,1.0566793322498904,0.6251764261576778,0.12466118065453015,0.48945874371312,-1.6413244077472504,-1.7209345550387332,1.0782740705787124,-0.2765685262192918,0.20663694845877556,0.08360139417270762,-0.23819340405744305,0.40722138788134554
80,-1.855190078884438,0.3497571541037915,-0.5640232877888047,1.340235475790956,0.04752987441005104,0.2490460284198935,-0.6969322620802316,-0.6548197859001578,-0.9963377308532073,0.6423361033616289,0.3172293655234406,0.4724859433835369,-0.35290986602961205,-0.7956270983723481,1.2716876101858627,-0.29853840863681097,-1.9840202913738487,-0.6834754962771241,1.0559516402986062,0.6255592226631717,0.11821258702310161,0.49195712000269426,-1.6444606588678674,-1.716674645246105,1.081094686613272,-0.2761228206406203,0.20277363972108003,0.07999722755961614,-0.2400242607669373,0.410916820807683
81,-1.8548900886294162,0.3516177385539209,-0.5702965366253003,1.3331455031369424,0.05066107238965081,0.2477978885504111,-0.6968642677986686,-0.6546115924704374,-0.9974712229381311,0.6435506752966647,0.31720497117248664,0.4733276976796333,-0.3555708939047896,-0.7985321697964364,1.273402072741531,-0.2991949636347038,-1.984030368664257,-0.6834192234931193,1.0552182555392633,0.6259440112219429,0.11176034130078485,0.4944463322912313,-1.6476382841074602,-1.7124731502140147,1.0839127116213823,-0.27570179343100903,0.1989041721084505,0.07638436058864154,-0.2418712812547036,0.4145965439447244
82,-1.8546067958585095,0.35348153418583883,-0.5765473085969625,1.3260523105334014,0.05378066275916667,0.24655393215320476,-0.6967996376550036,-0.6544134216643075,-0.9986123353756775,0.6447717310947734,0.3171816222990562,0.47417138226931915,-0.35821357769687084,-0.8014626969898211,1.275112512350673,-0.2998504749807044,-1.98404044574506,-0.6833655778741398,1.0544792386504744,0.6263306727337159,0.10530517286851165,0.49692592470444635,-1.6508566337565482,-1.70833087144465,1.0867275293710517,-0.2753055291901372,0.19502907382946627,0.07276321162320813,-0.2437343702107304,0.41825996151037276
83,-1.8543402063685577,0.355348187856049,-0.5827748644237529,1.318956812596509,0.05688816529272432,0.24531420959710376,-0.6967383053379785,-0.6542252632264949,-0.9997609774437387,0.6459989777049339,0.3171593498524674,0.47501682014539964,-0.3608374960213276,-0.8044182715345122,1.2768186576850813,-0.3005049031063408,-1.98405051785469,-0.6833145680248169,1.0537346489951729,0.6267190920650553,0.0988478308517524,0.49939550165191793,-1.6541150094164767,-1.7042485226450168,1.089538587846167,-0.2749340576017525,0.1911488860499257,0.06913422424321965,-0.24561338053475446,0.421906548216785
84,-1.8540903163243552,0.3572173529969909,-0.5889785056390986,1.311859905309221,0.05998312115040419,0.24407876478289317,-0.696680201481154,-0.6540471003827794,-1.000917059066778,0.6472321247914762,0.3171381862391662,0.4758638406788328,-0.3634422654166069,-0.8073984935014481,1.2785202533034228,-0.30115821376015744,-1.9840605792022656,-0.6832661997569941,1.0529845447059858,0.6271091581289271,0.09238908022123957,0.5018547245683762,-1.6574126688232824,-1.70022673330966,1.0923453959585396,-0.2745873570039806,0.18726416027857537,0.06549786406456304,-0.24750811756823837,0.42553584580965925
85,-1.8538571125052874,0.3590886901042357,-0.5951575741156849,1.3047624654811385,0.063065092991725,0.2428476354459747,-0.6966252539068802,-0.6538789100208336,-1.00208049076413,0.6484708852415385,0.31711816495635786,0.4767122796481253,-0.36602753908375313,-0.8104029708809316,1.2802170593760438,-0.30181037770273417,-1.9840706230955294,-0.6832204762760686,1.0522289827754676,0.6275007639349123,0.0859296980967229,0.5043033085794266,-1.6607488305530813,-1.6962660524738236,1.0951475201719805,-0.2742653579768971,0.18337545587588955,0.061854615666694444,-0.24941834326382611,0.42914745949558797
86,-1.8536405725761793,0.3609618671477784,-0.6013114514197094,1.29766535038821,0.06613366496748649,0.2416208534716777,-0.6965733878702435,-0.6537206628878532,-1.0032511835935272,0.6497149756154933,0.3170993202501783,0.4775619792321293,-0.3685930055512812,-0.8134313189787674,1.2819088513523436,-0.3024613703998194,-1.9840806420627233,-0.6831773983628766,1.051468019149996,0.6278938066121241,0.07947047026140486,0.5067410191223389,-1.6641226785859147,-1.69236695259287,1.0979445810702428,-0.2739679469199697,0.17948333769290356,0.05820497964051016,-0.2513437802683136,0.43274105429318366
87,-1.853440665378239,0.36283655991139263,-0.6074395580145986,1.290569397576961,0.06918844260127159,0.240398445219397,-0.696524526301149,-0.6535723238020876,-1.0044290490910075,0.650964116542225,0.3170816867987705,0.4784127879695587,-0.371138387281419,-0.8164831597859804,1.283595419578284,-0.30311117171604296,-1.9840906279680641,-0.6831369645502152,1.0507017088261499,0.6282881874070638,0.0730121878926554,0.5091676685511729,-1.667533366707831,-1.6885298335057495,1.1007362498994164,-0.2736949695937856,0.17558837384564102,0.054549469767040885,-0.2532841158972872,0.43631635134220836
88,-1.853257351236221,0.3647124522644122,-0.6135413523347933,1.2834754248175697,0.07222905257202215,0.23918043185199236,-0.6964785900428891,-0.6534338518755467,-1.005613999208344,0.6522180330615699,0.3170652994203772,0.47926456068865647,-0.37366343923312056,-0.8195581213299075,1.2852765688715082,-0.30375976561147416,-1.9841005721205622,-0.6830991712932324,1.0499301059484232,0.6286838116587703,0.06655564451258073,0.5115831127537551,-1.6709800227339195,-1.6847550264428028,1.1035222451136615,-0.2734462346025674,0.17169113362921226,0.05088861033577391,-0.25523900598191757,0.43987312420300495
89,-1.853090582278201,0.36658923637059515,-0.6196163297495477,1.2763842301900064,0.07525514240903901,0.23796682966716792,-0.6964354980857322,-0.6533052007453386,-1.0068059462490846,0.6534764549165861,0.31705019280631397,0.4801171584104897,-0.3761679473963663,-0.8226558370142338,1.286952118061344,-0.30440713984307605,-1.9841104653760109,-0.6830640131330487,1.0491532639071866,0.6290805887536918,0.06010163316005778,0.5139872478059475,-1.6744617525379673,-1.6810427980410716,1.106302328951125,-0.27322151679627954,0.16779218557423126,0.04722293360964858,-0.2572080785708799,0.44341119517622146
90,-1.852940302764635,0.36846661283892224,-0.6256640214358145,1.269296592287576,0.07826638011053734,0.23675765042785313,-0.6963951677942658,-0.6531863188112902,-1.0080048028042359,0.6547391167985894,0.31703640127846683,0.4809704482293313,-0.3786517273112442,-0.8257759449552075,1.2886218995006722,-0.3050532856728775,-1.9841202982320447,-0.6830314828531097,1.0483712354358707,0.6294784320627286,0.05365094378397943,0.5163800066863324,-1.6779776438773382,-1.67739335433349,1.1090763040645484,-0.27302056057357055,0.16389209564682433,0.043552977442022044,-0.25919093747293986,0.44693043167022817
91,-1.852806449423674,0.37034429082128395,-0.6316839931782396,1.2622132705225475,0.08126245369653358,0.23555290168892018,-0.6963575151274138,-0.6530771494777062,-1.009210481688548,0.6560057585480974,0.3170239585707526,0.48182430317351455,-0.3811146225841877,-0.8289180873208305,1.2902857585562717,-0.3056981975844545,-1.984130060916244,-0.6830015716278975,1.0475840727064287,0.6298772588628739,0.0472043608557095,0.5187613560719521,-1.6815267700045158,-1.6738068446817371,1.1118440102285585,-0.27284308306931393,0.1599914255922073,0.039879283049199334,-0.26118716562833305,0.4504307426408342
92,-1.8526889517899956,0.3722219880620325,-0.6376758441131025,1.2551350055190578,0.08424307070637271,0.23435258711788998,-0.6963224548502361,-0.6529776313973306,-1.0104228958782764,0.6572761253149513,0.3170128976338027,0.4826786020500268,-0.38355650341255626,-0.8320819096793162,1.2919435530838153,-0.30634187300907917,-1.9841397434673265,-0.6829742691637517,1.0467918274222194,0.6302769902458202,0.04076266119714504,0.5211312932331584,-1.6851081930594538,-1.6702833656260536,1.114605321142978,-0.2726887772130505,0.15609073142060612,0.03620239294049302,-0.263196328299625,0.45391207512499515
93,-1.8525877325447164,0.3740994309043232,-0.6436392054317541,1.2480625195791464,0.08720795765064596,0.23315670680759404,-0.6962899007367936,-0.6528876987157798,-1.0116419584512037,0.6585499676809565,0.3170032504619767,0.4835332292759522,-0.3859772651275232,-0.8352670603625326,1.2935951528932197,-0.3069843120626666,-1.9841493358095315,-0.6829495638316624,1.0459945509075514,0.6306775510158068,0.034326612019339814,0.5234898430430067,-1.6887209672394239,-1.6668229646288897,1.1173601413487912,-0.2725573146471429,0.15219056203320128,0.03252284900624581,-0.26521797607521824,0.45737441088723463
94,-1.852502707854232,0.37597635425805614,-0.649573739057757,1.2409965172085502,0.09015685942662038,0.2319652575790667,-0.6962597657635313,-0.6528072813149247,-1.01286758252961,0.6598270417483938,0.3169950479416841,0.4843880746996818,-0.3883768267639991,-0.838473189849552,1.295240439209538,-0.30762551729442955,-1.9841588278203544,-0.6829274427920062,1.0451922941932204,0.631078869578866,0.027896969165369333,0.5258370551140216,-1.6923641417453992,-1.6634256436927755,1.1201084032706976,-0.27244834849588334,0.14829145798479887,0.028841190762834888,-0.26725164768103465,0.46081776319455003
95,-1.8524337877061101,0.37785250153406214,-0.6554791363105519,1.233937685689754,0.09308953870562338,0.23077823327323754,-0.6962319622927843,-0.6527363050538914,-1.014099681226781,0.6611071091977151,0.3169883197198895,0.48524303341459885,-0.39075512966510123,-0.8416999501747963,1.2968793041340596,-0.30826549344794224,-1.9841682093918378,-0.6829078921112833,1.0443851080974744,0.6314808778254843,0.021474475550019127,0.5281730010726334,-1.696036763506145,-1.6600913628362397,1.122850064397541,-0.27236151597911373,0.14439395037907418,0.025157953752391927,-0.26929687259811474,0.46424217373268384
96,-1.852380876240429,0.379727624548966,-0.6613551165670896,1.2268866956907307,0.09600577530011375,0.22959562503027395,-0.6962064022461548,-0.6526746920065409,-1.0153381675975468,0.6623899373176629,0.31698309409159947,0.4860980055677182,-0.39311213612749074,-0.8449469943646388,1.298511650109751,-0.3089042472351164,-1.9841774704856672,-0.6828908968709978,1.0435730433019417,0.6318835110085418,0.015059859787955175,0.5304977719791499,-1.699737879683092,-1.65682004341488,1.1255851046093572,-0.27229644086609067,0.14049855989150287,0.021473668093828138,-0.2713531734859117,0.4676477096738708
97,-1.852343872075199,0.38160148340491806,-0.6672014259315042,1.219844201898771,0.09890536551744512,0.228417421555684,-0.6961829972676364,-0.6526223606944647,-1.0165829545932483,0.6636752990109325,0.3169793979050748,0.48695289616551973,-0.39544782809276696,-0.848213975905698,1.3001373893946382,-0.3095417871234134,-1.9841866011823501,-0.6828764412688926,1.0427561504221439,0.6322867076182267,0.008653835001287028,0.5328114758988421,-1.703466539960743,-1.6536115712777881,1.1283135236573765,-0.2722527357673367,0.13660579591448593,0.017788857180753907,-0.27342006841290684,0.4710344609035503
98,-1.8523226686247347,0.38347384634811416,-0.6730178359215792,1.2128108436697926,0.10178812150659952,0.22724360937253255,-0.6961616588764722,-0.6525792263146948,-1.0178339550214368,0.6649629727783578,0.3169772564834794,0.4878076148789733,-0.39776220588903527,-0.8515005482474485,1.301756443546226,-0.31017812313645,-1.984195591724784,-0.6828645087128065,1.041934480072321,0.6326904092554513,0.0022570977968530788,0.5351142356276014,-1.7072217986288025,-1.6504657997523966,1.1310353388010734,-0.272230004264044,0.13271615581868673,0.014104036521029388,-0.27549707289781417,0.4744025374110946
99,-1.8523171544100587,0.38534448960974077,-0.6788041421794909,1.2057872456845176,0.10465387060345262,0.22607417305934102,-0.696142298609836,-0.6525452009614828,-1.0190910815105212,0.6662527426844359,0.31697669356166625,0.4886620758495119,-0.4000552870257688,-0.854806364341198,1.303368742919547,-0.31081326666800707,-1.98420443255654,-0.6828550819074677,1.041108082924371,0.63309456050512,-0.0041296725968636705,0.537406186573683,-1.7110027164634238,-1.647382552453454,1.1337505826043046,-0.27222784287622986,0.1288301243242259,0.010419712711974014,-0.2775837017660791,0.47775206684736793
100,-1.852327213360608,0.3872131972326833,-0.6845601632131182,1.1987740186038687,0.10750245467943695,0.2249090954734399,-0.6961248281555091,-0.6525201938416337,-1.0203542464795026,0.6675443983068241,0.3169777312368052,0.48951619749747316,-0.402327105044169,-0.8581310762169302,1.3049742261809711,-0.31144723030932037,-1.984213114355198,-0.6828481429345741,1.0402770097607965,0.6334991088104323,-0.010505815043553291,0.5396874747953087,-1.7148083624159554,-1.6443616259141958,1.1364593008907142,-0.2722458428722809,0.12494817297511483,0.006736382544694628,-0.2796794708276021,0.4810831922499111
101,-1.852352725106686,0.38907976088703894,-0.6902857391730864,1.1917717597168953,0.11033372949780447,0.22374835795971654,-0.6961091594747955,-0.652504111483008,-1.0216233621128552,0.6688377346722527,0.316980389931581,0.49036990233430094,-0.4045777084243999,-0.861474334599005,1.3065728398394725,-0.31208002768941795,-1.984221628061081,-0.682843673326535,1.0394413115216183,0.633904004349231,-0.016870687074129496,0.541958255192357,-1.718637815118346,-1.641402792039895,1.1391615508569424,-0.27228359192376045,0.12107075971014511,0.0030545322305571276,-0.28178389838264223,0.484396069934753
102,-1.8523935652622592,0.39094397967717537,-0.6959807306696879,1.1847810535754348,0.11314756408106094,0.22259194054485437,-0.696095204915979,-0.6524968579359136,-1.0228983403405492,0.6701325521810996,0.3169846883687231,0.49122311677958463,-0.40680715955033,-0.8648357885612479,1.3081645377966442,-0.31271167332817146,-1.9842299649017336,-0.682841654134267,1.0386010393452916,0.6343091999132511,-0.023223665333524032,0.5442186898490274,-1.7224901642149428,-1.638505800385817,1.1418573993407293,-0.27234067561040387,0.11719832852337693,-0.0006253632574834654,-0.2838965065636813,0.4876908675522797
103,-1.852449605697826,0.3928056599427879,-0.701645017632874,1.1778024726105822,0.11594384009255698,0.2214398221172904,-0.6960828773186725,-0.6524983349672048,-1.0241790928231478,0.6714286565226738,0.31699064355567774,0.49207577098381006,-0.4090155337317617,-0.8682150852215363,1.3097492809163895,-0.313342182501648,-1.9842381164124938,-0.6828420659894442,1.0377562446037116,0.6347146507909676,-0.029564145909637594,0.5464689465232218,-1.726364511530822,-1.6356703802631853,1.1445469212397794,-0.2724166787810853,0.1133313092073791,-0.004302840736174556,-0.2860168225216713,0.49096776230324535
104,-1.852520714803209,0.3946646150561231,-0.7072784982176689,1.1708365777268401,0.11872245123467771,0.22029198059322871,-0.6960720901094434,-0.6525084422469895,-1.0254655309418614,0.6727258585830574,0.3169982707782855,0.49292779865750963,-0.41120291828355987,-0.8716118694756219,1.3113270366148866,-0.3139715711192822,-1.9842460744534907,-0.6828448891616034,1.036906978931457,0.6351203146546036,-0.035891544554665415,0.5487091972774326,-1.7302599720870189,-1.6328962426781042,1.1472301980762178,-0.27251118677723046,0.10947011717245295,-0.00797744926344989,-0.2881443794655555,0.4942269393098789
105,-1.8526067577402185,0.3965206652172722,-0.712881087756595,1.163883918870571,0.12148330266557611,0.2191483930691398,-0.6960627573891288,-0.6525270775279185,-1.0267575657933938,0.674023974347163,0.31700758360239345,0.49377913690732944,-0.41336941166060825,-0.8750257837695977,1.312897778471136,-0.3145998556123368,-1.9842538312234042,-0.6828501036105026,1.0360532942494567,0.635526151451727,-0.04220529680873927,0.5509396172451597,-1.7341756749731256,-1.6301830821094792,1.1499073167006288,-0.2726237865256727,0.10561515333521479,-0.011648750497674375,-0.2902787175642641,0.49746859013611233
106,-1.852707596685219,0.3983736372491808,-0.7184527177600318,1.1569450355700581,0.12422631043594562,0.21800903596124963,-0.6960547940122693,-0.6525541368170892,-1.0280551081893783,0.6753228247964778,0.31701859388239534,0.4946297260793752,-0.4155151226471151,-0.8784564679101424,1.314461485858142,-0.31522705283308,-1.9842613792702974,-0.6828576890341187,1.0351952427833138,0.6359321233017463,-0.048504858035482254,0.5531603835262712,-1.7381107640876765,-1.6275305781328557,1.1525783681290087,-0.2727540675083257,0.10176680407010685,-0.015316318972134535,-0.2924193847205534,0.5006929114502233
107,-1.8528230910617043,0.40022336439378814,-0.7239933349648452,1.1500204574451076,0.12695140094692503,0.21687388513257955,-0.6960481156590997,-0.6525895145406471,-1.0293580686601729,0.6766222358037904,0.3170313117757673,0.4954795096100646,-0.41764016959845934,-0.8819035589114282,1.3160181435945595,-0.31585317996408147,-1.9842687114998279,-0.6828676249126575,1.0343328770765383,0.6363381943975115,-0.05478970337867149,0.5553716742042824,-1.742064398756601,-1.624938396897769,1.155243446505469,-0.27290162261628825,0.09792544121764397,-0.018979742292105264,-0.2945659372260951,0.5039001038226253
108,-1.8529530977630448,0.4020696861104885,-0.7295029004311249,1.1431107046846867,0.12965851042987134,0.21574291600814238,-0.6960426389005402,-0.6526331037012115,-1.0306663574627548,0.6779220380260274,0.3170457457627377,0.4963284338845901,-0.41974467973350327,-0.8853666908773886,1.3175677416164513,-0.31647825443701005,-1.98427582118112,-0.6828798905489316,1.0334662499989813,0.6367443309121283,-0.06105932764875912,0.5575736674782221,-1.746035754239782,-1.6224061924666902,1.1579026481831796,-0.27306604889611613,0.09409142214347639,-0.02263862126161041,-0.2967179403071546,0.5070903706511424
109,-1.8530974713656125,0.4039124478779077,-0.7349813886864418,1.1362162884915974,0.13234758444842407,0.2146161036789291,-0.6960382812566275,-0.6526847960282823,-1.03197988459244,0.6792220667961721,0.31706190267030365,0.49717644810299494,-0.42182878847509836,-0.8888454949178763,1.3191102746686478,-0.31710229386031014,-1.9842827019505695,-0.6828944651054412,1.0325954147507665,0.6371505009110173,-0.06731324514752397,0.559766540901577,-1.7500240221354393,-1.6199336080239721,1.1605560709158322,-0.27324694819601214,0.090265089842648,-0.026292569946732777,-0.2988749685700288,0.5102639172058558
110,-1.8532560643325333,0.40575150099980584,-0.7404287869166803,1.1293377114936307,0.13501857742301293,0.21349342299533966,-0.6960349612488181,-0.6527444821218102,-1.033298559798136,0.680522162015098,0.3170797876998804,0.49802350415377344,-0.4238926388363634,-0.8923395990971208,1.3206457420150688,-0.3177253159551329,-1.9842893478138288,-0.6829113276384722,1.0317204248620424,0.6375566742691722,-0.07355098943862626,0.5619504707207396,-1.7540284106916775,-1.6175202769633847,1.1632038131518199,-0.2734439277196101,0.08644677308374761,-0.029941215682028306,-0.30103660635516793,0.513420949785481
111,-1.8534287272083376,0.4075867024157533,-0.7458450942022137,1.1224754681210387,0.1376714521777292,0.21237484865071957,-0.6960325984465858,-0.6528120515891351,-1.034622292600835,0.681822168044011,0.317099404457939,0.4988695564948337,-0.4259363808502206,-0.8958486284127989,1.3221741471672737,-0.3183473384989059,-1.9842957531462035,-0.6829304571295018,1.0308413341888734,0.6379628225935182,-0.0797721130713236,0.56412563130542,-1.7580481450341106,-1.6151658238628694,1.165845973423332,-0.2736566004948754,0.08263678658798179,-0.033584199026268684,-0.3032024480085932,0.5165616749772248
112,-1.8536153088048035,0.40941791451708126,-0.7512303207979565,1.1156300449504994,0.1403061795092857,0.21126035525566395,-0.6960311135087197,-0.6528873931755073,-1.0359509923150436,0.6831219335980837,0.31712075498905823,0.49971456204159836,-0.427960171039622,-0.8993722048039676,1.323695497630426,-0.31896837927593663,-1.9843019126916748,-0.6829518325141797,1.0299581969056035,0.6383689191502172,-0.08597618726408769,0.5662921946635914,-1.7620824673180142,-1.612869865355091,1.16848264982268,-0.27388458576542873,0.07883543123853533,-0.037221173673384525,-0.3053720980788569,0.5196862990121552
113,-1.8538156563783004,0.4112450049684786,-0.7565844874556519,1.1088019210160436,0.14292273777762818,0.21014991740374292,-0.6960304282197153,-0.6529703948884171,-1.0372845680728469,0.6844213116417497,0.3171438398108809,0.5005584800619709,-0.42996417192588554,-0.9029099471860698,1.3252098046658045,-0.31958845603446534,-1.9843078215607393,-0.6829754327091279,1.029071067494019,0.6387749387967289,-0.0921628015543426,0.5684503300337255,-1.7661306368129628,-1.6106320109022074,1.1711139395583379,-0.27412750931133145,0.07504299431592473,-0.040851806324115,-0.3075451714473841,0.5227950272082778
114,-1.8540296157989455,0.4130678465354935,-0.7619076247866168,1.1019915680876562,0.14552111251762892,0.2090435097292888,-0.6960304655216292,-0.6530609441159642,-1.038622928850315,0.6857201592860365,0.3171686579505271,0.501401272077856,-0.43194855157257933,-0.9064614715112018,1.3267170830689579,-0.32020758644960107,-1.9843134752272447,-0.6830012366367817,1.028180000729634,0.6391808579184038,-0.09833156342003588,0.5706002035473163,-1.77019192992741,-1.608451863483055,1.1737399385834288,-0.2743850037060603,0.0712597497553862,-0.04447577652349626,-0.3097212933996008,0.5258880634937455
115,-1.8542570317118938,0.4148863169181009,-0.7671997726630774,1.0951994509184761,0.14810129607118905,0.20794110695786683,-0.6960311495417519,-0.6531589277394959,-1.0399659834959574,0.6870183376882262,0.3171952069820749,0.5022429017728951,-0.4339134831624362,-0.9100263908518373,1.3282173509625796,-0.3208257880916019,-1.9843188695243774,-0.6830292232484689,1.0272850516654175,0.6395866543693638,-0.10448209787825515,0.5727419779549726,-1.7742656401801602,-1.6063290202006506,1.176360741289675,-0.2746567085160615,0.06748595842266969,-0.048092776468945136,-0.31190009964379684,0.528965610002912
116,-1.854497747691076,0.4167002985904114,-0.772460979656173,1.0884260274616815,0.15066328723899536,0.2068426839500287,-0.6960324056164311,-0.6532642322407483,-1.041313640760943,0.6883157119540626,0.3172234830647721,0.5030833349060588,-0.4358591446048514,-0.9136043155062132,1.3297106296031762,-0.32144307839898517,-1.9843240006399467,-0.6830593715459039,1.0263862756132722,0.6399923074174027,-0.11061404706562146,0.5748758124096829,-1.778351078125168,-1.6042630728175802,1.1789764402601586,-0.27494227044891173,0.06372186840493087,-0.05170251079332232,-0.31408123628420515,0.5320278667382627
117,-1.8547516063857001,0.41850967864652655,-0.7776913025086776,1.0816717490582917,0.15320709095111887,0.20574821573892269,-0.6960341603113565,-0.6533767438037148,-1.0426658093308188,0.6896121510426553,0.3172534809816933,0.5039225392307258,-0.4377857181716001,-0.9171948531236174,1.3311969432006046,-0.32205947465598356,-1.9843288651110875,-0.6830916606012546,1.0254837281235598,0.6403977976926375,-0.11672706980472905,0.5770018623012025,-1.7824475712356063,-1.6022536082264616,1.181587126074597,-0.27524134345573825,0.059967715313720735,-0.05530469632699368,-0.31626435975430894,0.5350750312916175
118,-1.8550184496598217,0.42031434865248557,-0.7828908056404916,1.074937060597217,0.1557327179556014,0.20465767756230638,-0.6960363414386005,-0.6534963484114668,-1.0440223978584642,0.6909075276741776,0.3172851941785998,0.5047604844188736,-0.43969339015851355,-0.9207976088478568,1.3326763187495767,-0.3226749939738903,-1.9843334598184978,-0.6831260695759179,1.0245774649629589,0.6408031071396275,-0.12282084116046134,0.5791202791358746,-1.78655446375265,-1.6003002088622738,1.1841928871612124,-0.2755535887931698,0.05622372259736749,-0.05889906184255365,-0.3184491367159211,0.5381072986183741
119,-1.8552981187252815,0.4221142045041985,-0.7880595606849771,1.068222400648974,0.1582401845241529,0.2035710448894784,-0.6960388780706849,-0.6536229319381395,-1.0453833149980367,0.6922017182404095,0.31731861480280205,0.505597141990006,-0.4415823505709609,-0.9244121854772338,1.3341487858722494,-0.3232896532758686,-1.9843377819803043,-0.6831625777381244,1.0236675420909256,0.6412082189726831,-0.1288950519895976,0.5812312104565694,-1.7906711165039517,-1.5984024530629257,1.1867938096896644,-0.2758786750497062,0.05249010186032387,-0.0624853477855327,-0.3206352439291203,0.5411248608589572
120,-1.8555904542683008,0.4239091462912216,-0.7931976460542467,1.0615282015745362,0.16072951217407117,0.20248829344361602,-0.6960417005519246,-0.6537563802362953,-1.0467484694396805,0.6934946027181322,0.31735373374186077,0.5064324852444505,-0.44345279283110445,-0.9280381836394156,1.3356143766710518,-0.323903469284828,-1.9843418291456436,-0.6832011644794747,1.0227540156350128,0.6416131176340871,-0.13494940848673462,0.583334799797804,-1.7947969066963352,-1.5965599153840084,1.189389977499901,-0.276216278141017,0.04876705318731574,-0.06606330599408525,-0.3228223680976817,0.5441279072020312
121,-1.8558952965700113,0.42569907816619884,-0.7983051465315745,1.0548548896108356,0.16320072740549696,0.2014093992199744,-0.6960447405072838,-0.653896579219862,-1.0481177699447777,0.694786064585353,0.3173905406619941,0.5072664892006626,-0.445304913505016,-0.9316752019796407,1.3370731255909363,-0.3245164585140021,-1.9843455991880297,-0.6832418093304969,1.021836941865286,0.6420177887549589,-0.14098363172918293,0.5854311866714765,-1.798931227686798,-1.5947721668732526,1.191981472062184,-0.276566081278309,0.04505476547037379,-0.06963269941034428,-0.3250102056942116,0.5471166237844387
122,-1.856212485621186,0.4274839082197686,-0.8033821528891565,1.0482028849344418,0.16565386145312788,0.20033433850037263,-0.6960479308489577,-0.6540434149428394,-1.0494911253815447,0.6960759907403097,0.31742902404608825,0.5080991305361939,-0.44713891204786976,-0.9353228373607737,1.3385250692902846,-0.32512863725988933,-1.9843490902985719,-0.6832844919753002,1.0209163771680594,0.6424222191184991,-0.14699745722315988,0.5875205065790202,-1.8030734887355109,-1.5930387753097819,1.1945683724639198,-0.2769277749135439,0.04135341673705837,-0.07319330178583819,-0.3271984627687801,0.5500911936232152
123,-1.8565418612314268,0.42926354836071795,-0.8084287615295248,1.0415726017049605,0.16808895005153343,0.1992630878643625,-0.6960512057808779,-0.6541967736739587,-1.050868444760785,0.6973642714231822,0.3174691712312331,0.5089303875319887,-0.4489549905655505,-0.9389806850737837,1.3399702465197347,-0.32574002159724647,-1.9843523009790964,-0.6833291922653861,1.0199923780191604,0.642826396625367,-0.1529906344532888,0.5896028910461386,-1.8072231147441173,-1.5913593054128417,1.1971507554193122,-0.27730105666494326,0.03766317447839872,-0.07674489738309244,-0.3293868547444607,0.5530517965754186
124,-1.856883263133052,0.43103791420115345,-0.8134450741489966,1.034964448089679,0.17050603321323762,0.19819562419744524,-0.6960545008013235,-0.654356541967468,-1.0522496372716295,0.6986508001404234,0.31751096844572657,0.509760240019696,-0.450753353591141,-0.9426483390572902,1.3414086980082476,-0.3263506273758536,-1.9843552300352134,-0.6833758902326731,1.019065000956912,0.6432303102609516,-0.15896292643712814,0.5916784676766287,-1.8113795459822812,-1.5897333190242788,1.1997286952982085,-0.27768563122588935,0.033984195975262525,-0.08028728067528498,-0.3315751062028127,0.5559986093218813
125,-1.8572365310799128,0.4328069249464505,-0.818431197421622,1.028378826270974,0.1729051550187661,0.19713192469667418,-0.6960577527038035,-0.6545226067302111,-1.0536346123171063,0.6999354735916065,0.31755440084550923,0.5105886693316986,-0.45253420787487453,-0.9463253921248894,1.3428404663557716,-0.32696047021879154,-1.9843578765693672,-0.6834245661017754,1.0181343025550078,0.6436339500643137,-0.1649141092861921,0.5937473602221313,-1.8155422378050994,-1.5881603752686564,1.202302264170862,-0.2780812102600211,0.030316628622049036,-0.08382025604558963,-0.3337629506620017,0.5589318053713521
126,-1.8576015049413601,0.43457050328973956,-0.8233872427021806,1.0218161324379684,0.17528636341788725,0.19607196687395312,-0.6960608995763634,-0.6546948552851579,-1.0550232795494014,0.7012181915986816,0.31759945255000677,0.5114156582535818,-0.45429776218625545,-0.9500114361990398,1.3442655959319119,-0.3275695655220005,-1.9843602399739007,-0.6834752003015729,1.0172003393954387,0.6440373070985916,-0.1708439717746874,0.5958096886649599,-1.8197106603636903,-1.5866400306945199,1.2048715318656642,-0.2784875122850305,0.026660610246761043,-0.08734363748762576,-0.33595013034993043,0.5618515550818333
127,-1.857978024791569,0.43632857531068714,-0.8283133257468613,1.0152767567638898,0.17764971004131316,0.1950157285573147,-0.6960638807994539,-0.6548731754315344,-1.056415548904679,0.7024988570375224,0.3176461066773707,0.512241190978784,-0.45604422712716447,-0.9537060625503525,1.3456841327800526,-0.32817792845490956,-1.9843623199241551,-0.6835277734761004,1.0162631680416165,0.6444403734226767,-0.17675231491697574,0.5978655693114564,-1.823884298310988,-1.5851718393999785,1.207436566037209,-0.2789042625473942,0.023016269426657354,-0.09085724830823483,-0.3381363959744565,0.5647580256962383
128,-1.8583659309944172,0.43808107037833316,-0.8332095664503474,1.0087610833705487,0.17999525002216407,0.19396318789043784,-0.6960666370424898,-0.6550574555016969,-1.057811330637348,0.7037773757716439,0.31769434537911845,0.5130652530651882,-0.45777381495487357,-0.9574088620411974,1.3470961245264288,-0.3287855739619492,-1.9843641163716255,-0.6835822664947788,1.0153228450118206,0.6448431420639803,-0.182638951554579,0.5999151148935993,-1.828062650504515,-1.583755353145433,1.2099974322423486,-0.2793311928900195,0.0193837257988194,-0.09436092083362421,-0.34032150649249887,0.567651381389803
129,-1.8587650642841047,0.43982792105774965,-0.838076088598109,1.0022694902813036,0.18232304182653825,0.1929143233306403,-0.6960691102592146,-0.6552475844148825,-1.0592105353536752,0.7050536565879728,0.31774414987418226,0.5138878313934386,-0.459486739413998,-0.9611194253725982,1.348501620293681,-0.32939251676477876,-1.9843656295371834,-0.6836386604620072,1.0143794267530863,0.6452456069921318,-0.18850370595337168,0.6019584346768486,-1.8322452297076732,-1.5823901214559701,1.2125541940221656,-0.27976804161455104,0.015763090365083846,-0.0978544961197558,-0.34250522887958645,0.570531783326957
130,-1.8591752658416905,0.4415690630202939,-0.8429130196327933,0.99580234936384,0.18463314709256845,0.19186911364556036,-0.6960712436819749,-0.6554434517279649,-1.0606130740446513,0.7063276111345473,0.3177955004823829,0.5147089141267785,-0.4611832155765088,-0.9648373433334503,1.3499006706184735,-0.3299987713650806,-1.9843668599043809,-0.6836969367261289,1.013432969615635,0.6456477630934593,-0.19434641341145184,0.603995634572453,-1.8364315622908802,-1.5810756917156565,1.2151069129880485,-0.28021455333986794,0.012154465790898612,-0.10133782366770956,-0.34468733790117184,0.5733993897256332
131,-1.8595963773677135,0.4433044349572367,-0.8477204904336756,0.989360026264034,0.18692563047738492,0.19082753790872128,-0.6960729818150042,-0.6556449476833361,-1.0620188581180348,0.7075991538600307,0.3178483766573496,0.5155284906722316,-0.4628634596890208,-0.9685622070511534,1.3512933273727876,-0.33060435204778793,-1.9843678082128369,-0.6837570768877834,1.0124835298279347,0.6460496061461207,-0.20016691987804594,0.6060268172526637,-1.8406211879336856,-1.5798116092556926,1.2176556489102837,-0.2806704788581044,0.008557946697753182,-0.1048107611446204,-0.3468676158868279,0.5762543559272287
132,-1.8600282411510567,0.44503397849655524,-0.8524986351082147,0.9829428803321231,0.18920055951144268,0.18978957549415285,-0.6960742704267994,-0.6558519632540285,-1.0634277994295032,0.7088682019549235,0.3179027570189105,0.5163465516429607,-0.4645276890266532,-0.972293608242808,1.352679643688547,-0.33120927288463153,-1.9843684754517157,-0.6838190628076529,1.0115311634724704,0.6464511327957692,-0.2059650815836849,0.608052082267506,-1.844813659328833,-1.5785974174381405,1.220200459807792,-0.2811355749893465,0.004973619948916672,-0.10827317411066888,-0.3490458525082575,0.5790968344706564
133,-1.860470700134202,0.44675763812269154,-0.8572475907948268,0.9765512645423526,0.19145800445970854,0.188755206070227,-0.6960750565416741,-0.656064390186186,-1.0648398103128545,0.7101346752943638,0.317958619384981,0.5171630888216598,-0.46617612175284007,-0.976031139466177,1.3540596738852602,-0.33181354773790395,-1.9843688628532954,-0.683882876613609,1.0105759264622907,0.6468523405316461,-0.21174076468178388,0.6100715261619408,-1.8490085418890776,-1.5774326577367115,1.2227414020378387,-0.2816096044359951,0.0014015649282894428,-0.11172493575250185,-0.35122184456187927,0.5819269751691305
134,-1.8609235979750218,0.4484753610990861,-0.8619674974760623,0.9701855254072097,0.19369803818923867,0.18772440959284803,-0.6960752884305598,-0.6562821210389893,-1.06625480360921,0.7113984963824111,0.3180159408029773,0.5179780951248476,-0.46780897678453903,-0.9797743943696655,1.355433473400398,-0.3324171902643534,-1.9843689718866278,-0.6839485007072668,1.0096178745183846,0.6472532276630129,-0.21749384490166893,0.6120852425924229,-1.8532054134574332,-1.576316869815889,1.2252785303847167,-0.2820923356376379,-0.00215814618776278,-0.11516592662336675,-0.353395395756603,0.5847449251885152
135,-1.8613867791052365,0.4501870973933089,-0.8666584978014313,0.963846002887304,0.19592073604271226,0.18669716629812289,-0.6960749156011212,-0.6565050492221315,-1.0676726926951776,0.7126595902977134,0.3180746975807846,0.5187915645679486,-0.4694264736623515,-0.9835229679406202,1.3568010987222618,-0.333020213919132,-1.9843688042512873,-0.6840159177699502,1.0086570631479383,0.6476537932958409,-0.22322420721301597,0.6140933224420089,-1.8574038640213997,-1.5752495916094722,1.2278118981465684,-0.28258354262714086,-0.00570544816566872,-0.11859603439016222,-0.35556631650727444,0.5875508291262339
136,-1.8618600887856718,0.4518927996046195,-0.8713207369191901,0.957533030297901,0.1981261757175197,0.18567345669462332,-0.6960738887872496,-0.6567330690309401,-1.0690933915099412,0.7139178846404638,0.3181348653173074,0.519603492231063,-0.4710288324251298,-0.9872764567512984,1.3581626073251125,-0.3336226319597335,-1.9843683618712076,-0.6840851107680735,1.0076935476235076,0.648054037309694,-0.22893174550160234,0.6160958539333116,-1.8616034954316196,-1.5742303593994549,1.2303415572196539,-0.28308300488855104,-0.009240282457034777,-0.12201515358753724,-0.3577344237341533,0.5903448290898885
137,-1.8623433731584327,0.4535924228937997,-0.8759543623164516,0.9512469342130548,0.20031443715003455,0.18465326155533887,-0.6960721599379867,-0.6569660756792339,-1.0705168145812531,0.7151733094805593,0.31819641893262857,0.520413874225335,-0.47261627348870006,-0.9910344592018969,1.3595180576063708,-0.33422445744986684,-1.984367646888601,-0.6841560629579432,1.0067273829631354,0.6484539603347443,-0.23461636225621446,0.6180929227387175,-1.8658039211253123,-1.5732587078959912,1.232867558179503,-0.2835905072172981,-0.012762596948140963,-0.12542318537910951,-0.3598995406686839,0.5931270647748769
138,-1.862836479296114,0.4552859249151131,-0.8805595236670412,0.9449880343682385,0.20248560240472838,0.18363656190940866,-0.6960696822059332,-0.657203965330001,-1.0719428770503083,0.71642579730688,0.31825933269780365,0.5212227076598492,-0.4741890175283807,-0.9947965757600782,1.3608675088257118,-0.33482570326321875,-1.984366661657957,-0.684228757889984,1.0057586239114396,0.6488535637288778,-0.24027796826651052,0.6200846120873952,-1.870004765854758,-1.5723341703190672,1.2353899503585066,-0.2841058395830875,-0.01627234571650511,-0.12882003732582142,-0.36206149666572846,0.5958976735404174
139,-1.8633392552481558,0.4569732657502557,-0.8851363726865648,0.9387566435623133,0.20463975556781488,0.18262333903370867,-0.6960664099351886,-0.6574466351239794,-1.0733714946954878,0.7176752829776128,0.31832358026431284,0.5220299906089882,-0.47574728536501926,-0.9985624091964677,1.3622110210459046,-0.33542638208706943,-1.984365408740116,-0.6843031794123966,1.004787324921683,0.6492528495548495,-0.2459164823315977,0.6220710028687204,-1.874205665421029,-1.5714562784823651,1.2379087819196013,-0.2846287969957968,-0.019769488794442458,-0.13220562316140674,-0.36422012702235523,0.5986567904835005
140,-1.8638515500844484,0.4586544078441724,-0.8896850629942042,0.932553067559628,0.20677698264513553,0.18161357444436257,-0.6960622986488647,-0.6576939832062195,-1.0748025839549615,0.7189217036715511,0.31838913469319263,0.5228357220802008,-0.47729129785431246,-1.0023315648156375,1.3635486550752656,-0.3360265064257299,-1.9843638908964125,-0.6843793116742494,1.003813540138837,0.6496518205574598,-0.25153183097905396,0.6240521737318317,-1.8784062664131058,-1.5706245628796955,1.2404240999257954,-0.2851591793746139,-0.023253991939524373,-0.13557986257490343,-0.3663752728032063,0.601404548510382
141,-1.8643732139362916,0.4603293159426236,-0.8942057499807949,0.9263776049929867,0.20889737146402312,0.18060724988823487,-0.6960573050362151,-0.6579459087507039,-1.0762360619481504,0.7201649988403064,0.31845596848386565,0.5236399019821368,-0.4788212757792098,-1.0061036506821277,1.3648804724116104,-0.3366260886037777,-1.9843621110828837,-0.684457139128014,1.0028373233836427,0.6500504801407313,-0.2571239481940998,0.6260282011811035,-1.882606225952463,-1.5698385527742733,1.2429359504053616,-0.28569679142059295,-0.026725826411820846,-0.13894268100011614,-0.36852678067241273,0.6041410784053216
142,-1.8649040980348028,0.46199795703139673,-0.8986985906827806,0.920230547268174,0.21100101157890214,0.1796043473344578,-0.6960513869394164,-0.6582023119830969,-1.0776718464960453,0.7214051101613757,0.31852405360268554,0.5244425310931141,-0.4803374397452316,-1.0098782778410913,1.3662065351876103,-0.3372251407690728,-1.9843600724445392,-0.6845366465315501,1.001858728137666,0.6504488323450688,-0.26269277515860745,0.6279991596673935,-1.8868052114431655,-1.5690977762910228,1.2454443784125917,-0.2862414424927495,-0.030184968757796235,-0.1422940094119059,-0.3706745027319767,0.6068665088963412
143,-1.8654440547468658,0.4636603002770639,-0.9031637436616767,0.9141121784706772,0.21308799418040508,0.1786048489660361,-0.6960445033400364,-0.6584630942016935,-1.079109856140391,0.7226419814920098,0.31859336151121004,0.5252436110298909,-0.48184001007856275,-1.0136550605331829,1.3675269061174655,-0.33782367489554027,-1.984357778309686,-0.6846178189495487,1.000877807529345,0.6508468818243965,-0.2682382599996222,0.6299651216749781,-1.8910029003274749,-1.5684017605120213,1.247949428084067,-0.28679294648776904,-0.03363140060071583,-0.14563378412916309,-0.3728182963664998,0.6095809667178472
144,-1.8659929376087119,0.46531631696919823,-0.9076013688887038,0.9080227752751976,0.21515841200780358,0.17760873717156778,-0.6960366143452218,-0.6587281577966368,-1.0805500101617393,0.7238755588238392,0.31866386319421364,0.5260431442167228,-0.48332920672680746,-1.0174336164033473,1.3688416484448307,-0.3384217027857114,-1.9843552321843059,-0.6847006417544425,0.9998946143210143,0.6512446338232679,-0.2737603575470605,0.6319261578041376,-1.8951989798469393,-1.5677500315751198,1.2504511426904534,-0.2873511217233623,-0.0370651084374118,-0.14896194662430298,-0.3749580240941032,0.6122845766700147
145,-1.8665506013572186,0.466965980463967,-0.9120116276342835,0.9019626068584957,0.21721235926457008,0.17661599453711302,-0.696027681173634,-0.6589974062674673,-1.0819922285963894,0.7251057902382134,0.31873552918744813,0.5268411338546922,-0.48480524916231066,-1.0212135667031887,1.3701508258919295,-0.33901923607301765,-1.9843524377464816,-0.6847851006267953,0.9989092008968995,0.6516420941539491,-0.2792590291002463,0.6338823368494003,-1.8993931468089091,-1.5671421147757219,1.252949564683868,-0.28791579082526825,-0.04048608344125073,-0.15227844333911034,-0.3770935534233593,0.6149774616748823
146,-1.8671169019590084,0.4686092661290284,-0.9163946823621181,0.89593193481607,0.21924993153690261,0.1756266038382385,-0.6960176661411633,-0.6592707442390675,-1.0834364322522207,0.7263326258622166,0.3188083296051575,0.5276375838913001,-0.48626835628797366,-1.0249945364866395,1.3714545026098133,-0.33961628622383677,-1.984349398840866,-0.6848711815551807,0.9979216192520581,0.6520392691734839,-0.2847342422029435,0.6358337258734852,-1.9035851073584027,-1.5665775346716484,1.2554447357409062,-0.28848678061787486,-0.04389432127114068,-0.15558322550674922,-0.3792247567160328,0.6176597428291488
147,-1.8676916966374273,0.4702461512896653,-0.9207506966275969,0.8899310130831256,0.22127122571505956,0.1746405480322598,-0.6960065326464457,-0.6595480774760649,-1.0848825427234439,0.7275560178253285,0.3188822341673495,0.5284324989903183,-0.4877187463455052,-1.0287761547986694,1.372752743129722,-0.3402128645392912,-1.9843461194731942,-0.6849588708355622,0.9969319209822539,0.6524361657607476,-0.29018597042654504,0.6377803902770204,-1.9077745767552272,-1.5660558151909738,1.2579366968014478,-0.28906392201840525,-0.04728982188641324,-0.15887624897974795,-0.38135151105541243,0.6203315394536956
148,-1.8682748438974819,0.4718766151760952,-0.9250798349802963,0.8839600878602448,0.2232763399173648,0.1736578102507008,-0.695994245156208,-0.6598293128957494,-1.0863304824042816,0.728775920216701,0.31895721222682655,0.5292258845019017,-0.4891566368260645,-1.032558054856811,1.3740456123155191,-0.3408089821568039,-1.9843426038048337,-0.6850481550701902,0.9959401572747388,0.6528327912935048,-0.29561419316108156,0.6397223938641333,-1.9119612791562481,-1.5655764797426817,1.2604254881033827,-0.2896470499345974,-0.0506725893674152,-0.16215747406376466,-0.38347369812000426,0.6229929691398927
149,-1.8688662035488088,0.4735006388719031,-0.9293822628703617,0.8780193975441323,0.2252653734167563,0.17267837379198459,-0.6959807691904645,-0.660114358579565,-1.0877801745016038,0.7299922890430243,0.3190332327959731,0.5300177464329656,-0.4905822443832641,-1.0363398742252994,1.375333175317172,-0.3414046500514157,-1.9843388561473718,-0.6851390211660282,0.9949463788999207,0.6532291536254847,-0.3010188954137184,0.6416597989040351,-1.9161449474026895,-1.565139051329954,1.2629111492134217,-0.2902360031657885,-0.05404263174164506,-0.16542686535693626,-0.385591204062347,0.6256441477927679
150,-1.8694656367267481,0.4751182052635474,-0.9336581465585754,0.8721091726637656,0.22723842656976156,0.17170222211436859,-0.6959660713075864,-0.660403123783231,-1.0892315430465374,0.7312050821869637,0.31911026457329783,0.5308080914178357,-0.49199578474851124,-1.040121254981652,1.3766154975252631,-0.34199987903687373,-1.984334880957237,-0.6852314563327238,0.9939506362038902,0.6536252610634931,-0.30640006761441657,0.6435926661887341,-1.9203253228123394,-1.564743052665887,1.265393719054171,-0.29083062430730483,-0.05739996081527091,-0.16868439159461412,-0.3877039193927074,0.6282851896711407
151,-1.8700730059115933,0.476729298990896,-0.9379076530299337,0.8662296358222445,0.22919560074779488,0.17072933882913208,-0.6959501190892653,-0.660695518945546,-1.0906845129050742,0.7324142593661472,0.31918827596972454,0.5315969266891798,-0.4933974726486733,-1.0439018438755423,1.3778926445265143,-0.3425946797664984,-1.9843306828303549,-0.685325448080142,0.992952979101781,0.6540211223445799,-0.3117577054284416,0.6455210550870306,-1.9245021549765313,-1.5643880062914022,1.2678732359276628,-0.2914307596580459,-0.06074459200986895,-0.17193002549929004,-0.3898117388674101,0.6309162074248377
152,-1.8706881749460842,0.47833390639875234,-0.9421309499105713,0.8603810016445942,0.23113699827067863,0.1697597076940234,-0.6959328811253899,-0.6609914556959292,-1.0921390097877024,0.7336197820926886,0.31926723513462585,0.5323842600492346,-0.4947875217260602,-1.047681292479841,1.3791646820603185,-0.3431890627338396,-1.9843262664968366,-0.6854209842154761,0.9919534570719333,0.6544167466132844,-0.3170918095754139,0.6474450235949516,-1.928675201561769,-1.5640734346951044,1.2703497375355406,-0.29203625913114717,-0.06407654420422475,-0.1751637436355194,-0.3919145613815572,0.6335373121291199
153,-1.8713110090512097,0.4799320154893377,-0.9463282053878818,0.8545634767317423,0.23306272234230085,0.1687933126069708,-0.6959143269988541,-0.6612908468607479,-1.0935949602580861,0.7348216136332343,0.31934710998159044,0.5331700998413405,-0.4961661444607228,-1.0514592573337291,1.380431675976271,-0.34378303827313406,-1.984321636815699,-0.6855180528399546,0.9909521191508329,0.6548121433989795,-0.3224023856546039,0.6493646283827934,-1.9328442281158582,-1.56379886043483,1.272823260996109,-0.2926469761675994,-0.0673958395810434,-0.17838552626965132,-0.3940122898658955,0.6361486133164614
154,-1.8719413748403846,0.48152361587569786,-0.9504995881336985,0.8487772596208552,0.2349728769883279,0.16783013760005955,-0.6958944272703149,-0.6615936064684841,-1.0950522917408194,0.7360197189695227,0.3194278682139149,0.5339544549218007,-0.49753355209506844,-1.055235400077801,1.3816936921926972,-0.34437661655957463,-1.9843167987696173,-0.6856166423451605,0.9899490139287953,0.655207322593338,-0.32768944397618666,0.6512799248389451,-1.9370090078784137,-1.5635638062606154,1.2752938428584533,-0.2932627676526995,-0.07070250347841861,-0.18159535723418016,-0.3961048311875931,0.6387502190058266
155,-1.8725791403320633,0.4831086987360064,-0.9546452672304112,0.8430225407521849,0.23686756699589748,0.16687016683377592,-0.6958731534629148,-0.6618996497537857,-1.0965109325282825,0.7372140647594486,0.3195094773498087,0.5347373346320807,-0.4988899545607996,-1.0590093875811077,1.3829507966561783,-0.34496980760940504,-1.9843117574597098,-0.6857167414089848,0.9889441895463633,0.6556022944279462,-0.33295299939818124,0.6531909671106673,-1.941169321595606,-1.5633677952388112,1.2777615191138423,-0.2938834938352084,-0.07399656424591529,-0.18479322379653815,-0.39819209605469363,0.6413422357295966
156,-1.8732241749608518,0.4846872567687408,-0.9587654120998993,0.8372995024425479,0.23874689785522446,0.1659133845915177,-0.6958504780469865,-0.6622088931604525,-1.0979708117866258,0.738404619298626,0.319591904747301,0.5355187487713641,-0.500235560408183,-1.062780892060105,1.3842030553020723,-0.34556262127985216,-1.9843065181003567,-0.6858183389912291,0.9879376936913885,0.6559970694520867,-0.3381930711688124,0.6550978081420017,-1.9453249573390201,-1.5632103508770667,1.2802263252046249,-0.2945090182490894,-0.0772780531051251,-0.1879791165321539,-0.40027399892402155,0.6439247685582987
157,-1.8738763495871766,0.48625928414870895,-0.9628601924351771,0.8316083188655246,0.24061097570305578,0.16495977527436875,-0.6958263744247539,-0.6625212543434009,-1.0994318595609116,0.7395913524824445,0.3196751176288354,0.5362987075694844,-0.5015705767376567,-1.0665495911894936,1.385450534016039,-0.3461550672689097,-1.9843010860140522,-0.6859214243288807,0.986929573596764,0.6563916585107166,-0.34340968277404327,0.6570004997089889,-1.949475710328494,-1.5630909972499059,1.2826882960308243,-0.2951392076377028,-0.08054700401455898,-0.1911530292016084,-0.40235045791232094,0.6464979211232942
158,-1.8745355365055694,0.4878247764839075,-0.9669297781346505,0.8259491560384411,0.24245990726791664,0.16400932339613492,-0.6958008169150424,-0.6628366521696535,-1.1008940067794404,0.7407742357686166,0.31975908310554074,0.537077221660249,-0.5028952091337856,-1.0703151682049612,1.3866932985965665,-0.34674715511498616,-1.9842954666262915,-0.6860259869310759,0.9859198760387777,0.656786072722663,-0.3486028617900393,0.6588990924523656,-1.9536213827588194,-1.563009259124618,1.285147465954638,-0.2957739318803347,-0.08380345353874555,-0.19431495863172524,-0.40442139471041877,0.6490617956375769
159,-1.8752016094516215,0.4893837307731947,-0.9709743392388938,0.8203221718161676,0.24429379981709423,0.1630620135786371,-0.6957737807380137,-0.6631550067183972,-1.102357185257289,0.741953242140214,0.3198437682011626,0.5378543020551736,-0.5042096616015723,-1.0740773119978497,1.3879314147185087,-0.34733889419643005,-1.9842896654604953,-0.6861320165737744,0.9849086473360543,0.6571803234590607,-0.35377263974033635,0.6607936359079131,-1.9577617836301766,-1.5629646620871915,1.2876038688030382,-0.2964130639209409,-0.08704744072140955,-0.19746490460043972,-0.4064867345002112,0.6516164929148365
160,-1.875874443607668,0.49093614536476293,-0.9749940458698585,0.8147275158917391,0.24611276110530858,0.16211783054725656,-0.6957452419999366,-0.663476239280152,-1.1038213276990914,0.7431283460691912,0.3199291398756415,0.5386299601176453,-0.5055141365051329,-1.0778357172017947,1.3891649478976345,-0.34793029373094647,-1.984283688132973,-0.6862395032941631,0.9838959333490552,0.6575744223220552,-0.35891905195749585,0.6626841785346235,-1.9618967285821964,-1.5629567326680227,1.2900575378686676,-0.2970564796989902,-0.09027900696260889,-0.20060286972529676,-0.408546405874283,0.6541621123869324
161,-1.876553915607248,0.49248201991539786,-0.978989068172437,0.8091653298037826,0.24791689932502403,0.1611767591267273,-0.6957151776780064,-0.6638002723550924,-1.1052863677010871,0.7442995234803983,0.32001516504832317,0.5394042075375304,-0.5068088345087435,-1.081590084271397,1.3903939634561968,-0.34852136277491713,-1.9842775403479258,-0.6863484373848091,0.9828817794801049,0.6579683811237924,-0.3640421374490425,0.6645707677408441,-1.9660260397315317,-1.5629849984671385,1.2925085059092156,-0.29770405808229533,-0.0934981958997139,-0.20372885935543503,-0.4106003407579776,0.6566987521199269
162,-1.8772399035384006,0.4940213553505125,-0.9829595762583031,0.8036357469507108,0.24970632305835755,0.16023878423716895,-0.6956835656052234,-0.6641270296505621,-1.106752239752469,0.7454667517160816,0.32010181062078696,0.5401770563062448,-0.5080939545202634,-1.0853401195530072,1.391618526489524,-0.34911211022263716,-1.9842712278924926,-0.6864588093875833,0.9818662306739132,0.6583622118657182,-0.36914193876749063,0.6664534499085585,-1.9701495455128362,-1.5630489882786804,1.2949568051454543,-0.2983556808017251,-0.09670505329211698,-0.20684288146692087,-0.41264847433374746,0.6592265088288133
163,-1.8779322869458421,0.49555415382494566,-0.9869057401519599,0.7981388926116173,0.25148114123054266,0.15930389089035393,-0.6956503844553422,-0.6644564360778203,-1.1082188792360534,0.746630009500875,0.32018904349927596,0.5409485186923024,-0.5093696936369381,-1.0890855353477134,1.3928387018336388,-0.3497025448054809,-1.9842647566318412,-0.6865706100873717,0.9808493314185632,0.658755926718208,-0.37421850188427525,0.6683322704159523,-1.9742670805230493,-1.5631482322144044,1.2974024672581035,-0.299011232387695,-0.09989962690956532,-0.20994494656130222,-0.4146907449676222,0.6617454778910778
164,-1.8786309468320757,0.49708041868451586,-0.990827729738928,0.7926748839737939,0.2532414630649103,0.15837206418620195,-0.6956156137279018,-0.6647884177480594,-1.109686222428307,0.7477892769072848,0.3202768306167159,0.5417186072173577,-0.5106362470935826,-1.0928260499666442,1.3940545540339073,-0.35029267509100903,-1.9842581325043067,-0.6866838305055974,0.9798311257469359,0.6591495380005465,-0.379271876067416,0.6702072736584103,-1.9783784853688895,-1.5632822618259625,1.2998455233836892,-0.29967060010833957,-0.10308196642401384,-0.21303506756725915,-0.4167270941376432,0.6642557533592224
165,-1.8793357656574827,0.4986001544283222,-0.9947257147160109,0.7872438301667658,0.2549873980393495,0.1574432893094944,-0.6955792337333453,-0.66512290196773,-1.1111542064987512,0.7489445353216677,0.32036513895430785,0.5424873346327556,-0.5118938082131457,-1.096561387778708,1.3952661473147234,-0.3508825094820285,-1.9842513615165787,-0.6867984618935696,0.9788116572385402,0.6595430581612758,-0.3843021137627502,0.6720785030680807,-1.9824836065174674,-1.5634506102257424,1.302286004109548,-0.30033367390927396,-0.10625212330489953,-0.2161132597452337,-0.41875746636412287,0.666757427972371
166,-1.8800466273394425,0.500113366671785,-0.9985998645435766,0.7818458323027255,0.2567190558442133,0.15651755152680125,-0.6955412255782387,-0.6654598172332108,-1.1126227695087754,0.7500957674107077,0.3204539355626804,0.5432547138966045,-0.5131425683596489,-1.1002912792509028,1.3964735455502288,-0.3514720562156167,-1.9842444497389422,-0.6869144957256804,0.9777909690217237,0.6599364997589311,-0.3893092704785817,0.673946001132139,-1.9865822961499306,-1.563652812206051,1.3047239394681254,-0.3010003463548582,-0.10941015071774247,-0.21917954059492803,-0.420781809141596,0.6692505931670784
167,-1.8807634172505248,0.5016200621104195,-1.0024503483997995,0.7764809835232309,0.25843654634163576,0.15559483618361303,-0.695501571150598,-0.6657990932248565,-1.1140918504098853,0.7512429570883921,0.32054318758258904,0.5440207581513824,-0.5143827168934965,-1.1040154609813466,1.3976768122360699,-0.3520613233621211,-1.984237403300573,-0.6870319236924683,0.9767691037762314,0.6603298754431798,-0.39429340467360274,0.6758098094098743,-1.9906744120180608,-1.56388840435644,1.3071593589307002,-0.3016705125708818,-0.11255610342598257,-0.22223392976556533,-0.42280007287234067,0.6717353390874483
