epoch,W1[0],W1[1],W1[2],W1[3],W1[4],W1[5],W1[6],W1[7],W1[8],W1[9],W1[10],W1[11],W1[12],W1[13],W1[14],W1[15],W1[16],W1[17],W1[18],W1[19],W2[0],W2[1],W2[2],W2[3],W2[4],W2[5],W2[6],W2[7],W2[8],W2[9]
0,0.08036331987669507,0.05421449183988944,0.3481751130641782,0.027310363734738555,0.7678933713998245,-0.10295547402816144,0.4252536841560558,0.3474881847624206,-0.42040626776135886,1.143308508609045,-0.7717434973363843,-0.5533817963461122,1.2606823089449664,-1.0878961678667267,0.22975853752286243,-0.19582405770982123,-1.2646799140705718,-1.162182625466124,0.5596781894052417,-1.9582105835476957,0.05575693752494998,-0.29277332645227605,-0.5310578516994131,-0.9817510130379827,0.9540985024647639,-0.6514146092354652,-1.5113609518354458,0.7696631336548314,0.3783606245878234,-0.3694386728900151
1,0.08054823636593252,0.05316208069487693,0.3473643612875262,0.02472771534310002,0.7707242265631666,-0.10543428437645513,0.4205236312815659,0.3499101627081559,-0.41890712488160525,1.1420079840885407,-0.7716352730336195,-0.5539695687780131,1.2603060155335706,-1.0894979801828026,0.23068249980008804,-0.19712697075570196,-1.2681415544341519,-1.1604888302601866,0.5605538325877211,-1.9593912008218284,0.05200192702460524,-0.2961880757700805,-0.5305628443994896,-0.986234467656228,0.9547598435968682,-0.6546988644135306,-1.5150477000759515,0.7659651569189884,0.3754383032938576,-0.3726599964475172
2,0.08072285392734324,0.05208559883930994,0.3465343880978206,0.02209861095632619,0.7735883027935566,-0.10795139953947609,0.4157428172858377,0.35235586806423314,-0.41740484646572706,1.1406864417833058,-0.7715323603884375,-0.5545757247356711,1.2599142105242547,-1.0911343361237837,0.23164311589283576,-0.1984631174074032,-1.2716435657520822,-1.1587747212564128,0.5614378462452824,-1.9605889306494197,0.04846645927128416,-0.29938219431258917,-0.5297632894878701,-0.9905246196995119,0.9557221130088684,-0.6577617487206475,-1.5185429193576867,0.76249514452366,0.3727779320152287,-0.3756666000237676
3,0.08088732119164369,0.05098740697997876,0.3456884236311103,0.019429305447381074,0.7764813372669647,-0.11050215807908934,0.41092102945753,0.354821534463407,-0.4159008068000334,1.139346277446712,-0.7714348676126657,-0.555198302466205,1.2595093019430519,-1.0928002370490923,0.232634827159873,-0.1998281518747439,-1.2751782480579905,-1.157043579875414,0.5623284174912792,-1.9618018926004082,0.045123678632782015,-0.30238369597008524,-0.5286987799209641,-0.9946463304729969,0.9569483089282983,-0.6606325907872844,-1.521873235994541,0.7592269065302308,0.37034773682584005,-0.37848606971370413
4,0.08104182323437707,0.04986955068262257,0.34482922805693933,0.016725131772161027,0.7793997871557378,-0.11308258098458128,0.4060665624490445,0.3573040543968871,-0.4143960847317049,1.137989554761441,-0.771342842495208,-0.555835577575296,1.2590933754385292,-1.0944913568735082,0.23365288082452418,-0.20121830496780965,-1.2787389844130255,-1.1552981651684193,0.5632240480553644,-1.9630284567731204,0.04195061693702923,-0.30521654764082956,-0.5274031780313108,-0.9986208802366364,0.9584068767552696,-0.663336502004539,-1.5250613744558104,0.756138085863408,0.36812049776462885,-0.3811419268706337
5,0.0811865652023898,0.04873381074212627,0.3439591718447099,0.013990665581952087,0.7823406826688081,-0.11568925107903731,0.40118649109129867,0.359800843556905,-0.4128915334538291,1.1366180613957988,-0.7712562897455544,-0.5564860290747051,1.2586682439440195,-1.09620393212934,0.23469318645691126,-0.20263029196313231,-1.282320057467325,-1.1535408137166616,0.5641234901767304,-1.9642672030818866,0.038927527902708266,-0.3079013594586412,-0.5259056016524406,-1.0024665722842534,0.9600707528073146,-0.6658950904639617,-1.5281268206394232,0.7532094939278453,0.3660727740219355,-0.38365433470258686
6,0.0813217612279462,0.047581744354034054,0.34308030025019265,0.01122985588192863,0.7853015138732458,-0.1183192169531452,0.39628688551835206,0.36230973651728465,-0.41138783269253926,1.1352333541939639,-0.7711751835716066,-0.5571483109085432,1.258235488567155,-1.0979346729501542,0.23575220216098328,-0.20406123752684582,-1.2859165022494108,-1.151773517703533,0.5650256971513078,-1.9655168881619127,0.036037353818916026,-0.310455938403148,-0.5242312134037407,-1.006199218814099,0.9619166025200404,-0.6683270346214158,-1.5310863545712758,0.7504245797954114,0.3641842822000671,-0.3860406624905381
7,0.08144762699394946,0.04641471890776249,0.34219438544031383,0.008446129470528876,0.788280142846015,-0.12096991593403442,0.3913729820610592,0.36482890586914035,-0.40988552800654215,1.1338367958049955,-0.77109947683491,-0.5578212280375505,1.2577964923944396,-1.0996806905824537,0.23682684366312173,-0.20550861422509875,-1.2895239872808617,-1.1499979863906513,0.5659297848942692,-1.9667764183348502,0.033265295091847086,-0.3128957355091879,-0.5224018568907638,-1.0098325344597945,0.963924209052961,-0.6706485474653446,-1.533954481256106,0.747769002926856,0.362437393878699,-0.38831593948718995
8,0.08156437483018598,0.045233939852538894,0.3413029688885738,0.005642475005319697,0.7912747349690507,-0.12363911190957229,0.386449320001504,0.3673567990539501,-0.40838506057299595,1.132429584540777,-0.7710291077309497,-0.558503716300445,1.2573524685666275,-1.1014394380083794,0.23791441117323975,-0.20697019189167812,-1.2931387179480518,-1.1482156948840294,0.5668350018450281,-1.968044827410499,0.03059846033907509,-0.315234209669888,-0.5204365730954749,-1.0133784572357238,0.9660759790315039,-0.6728737546829361,-1.536743781582842,0.7452302867121262,0.36081672676050164,-0.3904932227411351
9,0.08167221056812923,0.044040473788805344,0.3404073960731385,0.0028215111361960506,0.7942837048025206,-0.12632484481419715,0.38151985179978415,0.3698920886543314,-0.40688678989741517,1.131012778854929,-0.7709640046686276,-0.5591948254010121,1.2569044837094892,-1.1032086610175893,0.23901253012935803,-0.20844399570517666,-1.2967573574563949,-1.1464279230972054,0.5677407052367816,-1.969321258361698,0.028025579983531303,-0.3174831256237318,-0.5183520223893007,-1.0168474120546667,0.9683565401495068,-0.6750150048423569,-1.539465200067168,0.7427975355455383,0.35930880970006707,-0.3925838972903498
10,0.08177133161791016,0.04283526770025099,0.3395088450518149,-1.4457901157727271e-05,0.7973056731412714,-0.1290253893236039,0.37658803256990064,0.3724336329955559,-0.40539101122361326,1.1295873175279414,-0.7709040898321968,-0.5598937044829554,1.2564534775864937,-1.1049863576485957,0.24011910285893787,-0.20992827128356675,-1.300376961751441,-1.1446357871008292,0.5686463422559364,-1.9706049481141918,0.02553677024752951,-0.319652799659667,-0.5161628317179324,-1.0202485285125102,0.970752411307693,-0.67708312548532,-1.542128282361938,0.740461202200027,0.3579018064487057,-0.3945979228449663
11,0.08186192589274828,0.04161916505378968,0.3386083501386598,-0.002863396623828556,0.8003394327102444,-0.13173922086483114,0.3716568932168551,0.3749804447035902,-0.4038979689480371,1.1281540364075504,-0.7708492817746754,-0.5605995898505238,1.2560002796661225,-1.1067707443686323,0.24123226887970706,-0.2114214554594142,-1.303994925597362,-1.1428402645193507,0.5695514349839325,-1.9718952148529916,0.023123337418120643,-0.3217523035165833,-0.5138818820732667,-1.023589822015778,0.9732517304176149,-0.6790876359062986,-1.5447413725566894,0.7382128952974782,0.35658528636575776,-0.39654403783953607
12,0.08194417131777088,0.040392919346771854,0.3377068216395823,-0.00572350055596472,0.8033839205780736,-0.13446498747200875,0.3667291006261152,0.37753166544515804,-0.40240786700376424,1.1267136823712531,-0.7707994972965371,-0.5613117944727164,1.2555456231585842,-1.1085602277076996,0.24235037208103966,-0.21292215167614997,-1.3076089376191504,-1.1410422152429067,0.570455568283805,-1.97319144737132,0.020777614502617496,-0.3237896346366997,-0.5115205480104223,-1.0268783453374841,0.9758440283534572,-0.6810369250261904,-1.547311778079595,0.7360452189577475,0.3553500329394,-0.39842992929363585
13,0.0820182357377989,0.039157205564164674,0.33680506239899605,-0.008593164830464727,0.8064381958284246,-0.13720148634060966,0.36180700752812667,0.38008654550256654,-0.4009208769336342,1.125266925037091,-0.7707546527954064,-0.5620296989744605,1.255090156967404,-1.1103533803308512,0.2434719334189536,-0.2144291091623237,-1.3112169425870948,-1.1392423984291493,0.5713583799935864,-1.9744930960855114,0.018492824103262112,-0.32577185916723056,-0.5090888984113576,-1.030120316166493,0.9785200400735655,-0.6829384009596026,-1.5498459083307699,0.733951638442178,0.35418788293678627,-0.4002623750687282
14,0.08208427709306337,0.03791262991658511,0.3359037817513079,-0.011470957911000612,0.8095014213711418,-0.13994764417991054,0.3568926940785036,0.3826444271533419,-0.3994371441923748,1.123814366639649,-0.7707146652234569,-0.5627527438717261,1.2546344559147462,-1.1121489207414057,0.24459562805606266,-0.21594120521028615,-1.314817109585861,-1.1374414865490212,0.5722595529375952,-1.9757996654153576,0.016262962648981815,-0.3277052327520392,-0.5065958657390356,-1.0333212250477573,0.9812715458689767,-0.6847986174862037,-1.5523493918836164,0.7319263669300837,0.3530915905194901,-0.40204736369713295
15,0.08214244377014131,0.03665973815755454,0.3350036073484703,-0.014355599468812614,0.8125728490319654,-0.14270250065328483,0.35198800275098263,0.3852047310621137,-0.39795679308533793,1.1223565504032336,-0.7706794527536459,-0.5634804228511405,1.254179029530603,-1.113945695970539,0.24572026610615236,-0.21745743001889276,-1.3184078049920196,-1.1356400770632937,0.5731588083784946,-1.9771107072891465,0.014082702130117832,-0.32959530311235447,-0.5040493895184404,-1.0364859272087033,0.9840912371804326,-0.6866233815642814,-1.5548271760939085,0.7299642695823839,0.352054711829721,-0.4037901958750134
16,0.0821928750625565,0.03539902272094242,0.3341050952394805,-0.01724594165024938,0.8156518072533147,-0.14546519434283994,0.34709456780018183,0.3877669450710651,-0.3964799306533734,1.1208939676777434,-0.7706489352299536,-0.5642122769300992,1.2537243296413265,-1.1157426667362669,0.24684477631888227,-0.21897687366475968,-1.3219875694027567,-1.1338387021892256,0.5740559006175515,-1.9784258155797105,0.01194730626277419,-0.3314469976072818,-0.5014565386129475,-1.0396187210662065,0.9869726025705611,-0.6884178451919885,-1.557283612182732,0.7280607818314621,0.3510715064601295,-0.40549557087406457
17,0.08223570169482218,0.03413092887399212,0.3332087385031909,-0.020140953127228012,0.8187376908858368,-0.14823495078911608,0.3422138402889956,0.3903306149109661,-0.3950066497401213,1.119427064050584,-0.770623034457706,-0.5649478893621601,1.2532707569494101,-1.1175388946551932,0.24796819217630897,-0.22049871484962189,-1.3255550978295227,-1.1320378371189317,0.5749506125148481,-1.9797446213149907,0.009852558617767992,-0.3332646983345353,-0.49882361595489066,-1.0427234156611032,0.9899098303268125,-0.6901865842715941,-1.5597225282557852,0.7262118394465283,0.3501368529279559,-0.40716766047605213
18,0.08227104637751742,0.03285586004501836,0.33231497467726995,-0.023039705444513406,0.8218299526629755,-0.15101107224581695,0.33734710947212665,0.3928953364584196,-0.3935370314229484,1.1179562446068503,-0.7706016743759622,-0.5656868811759125,1.2528186667615744,-1.1193335311697248,0.24908963997899655,-0.2220222111372692,-1.329109222604611,-1.1302379069756117,0.5758427517504399,-1.9810667885361486,0.007794700725856947,-0.3350523068375784,-0.4961562486766816,-1.0458033888370895,0.9928977248647256,-0.6919336666215995,-1.5621472922479376,0.7244138184009729,0.34924617582971096,-0.4088101725258966
19,0.08229902437088982,0.0315741824558452,0.3314241921799857,-0.025941361273075825,0.8249280960373978,-0.1537929288596421,0.3324955211687415,0.3954607492445434,-0.39207114694712436,1.1164818784774304,-0.7705847811434654,-0.5664289072545766,1.2523683739942584,-1.121125807916414,0.25020832858254205,-0.223546690446097,-1.332648898554498,-1.1284392927352465,0.5767321476853682,-1.9823920106997552,0.005770378546536987,-0.33681330009569566,-0.4934594660277971,-1.0488616376411755,0.995931634645955,-0.6936627108786809,-1.5645608664083344,0.7226634829435442,0.3483953827907126,-0.4104264057993329
20,0.08231974404158468,0.03028622916577387,0.33053673588488436,-0.02884516425386928,0.8280316691250982,-0.1565799510406121,0.32766009363302023,0.398026530981812,-0.39060905927117934,1.1150043027887835,-0.7705722831618337,-0.5671736528791322,1.2519201575631074,-1.1229150283112652,0.2513235405107144,-0.22507154360537357,-1.3361731900776073,-1.1266423362957014,0.57761864871079,-1.983720007539386,0.0037765959852698525,-0.3385507791646703,-0.490737767018876,-1.0519008221531754,0.9990073897555697,-0.6953769377117537,-1.566965854645059,0.7209579405720448,0.3475808096712169,-0.4120192975652979
21,0.08233330740220712,0.028992303615127,0.3296529119793031,-0.03175043017577954,0.8311402595550933,-0.15937162283214035,0.3228417313335613,0.40059239292355886,-0.3891508243071899,1.1135238261074667,-0.7705641110537995,-0.5679208306704855,1.2514742642448653,-1.124700560168005,0.2524346242231071,-0.22659621781712247,-1.3396812598308394,-1.1248473448393643,0.5785021199963293,-1.9850505223170216,0.001810674380968038,-0.3402675115896849,-0.48799517938090853,-1.0549233037364913,1.0021212476243995,-0.6970792145155474,-1.5693645438121935,0.7192946028442816,0.3467991727677722,-0.41359146497220206
22,0.0823398106270872,0.02769268274127209,0.32877299221435274,-0.03465653927871205,0.8342534900633299,-0.1621674761250373,0.31804123697522063,0.40315807590794417,-0.3876964919211623,1.1120407314559038,-0.770560197609893,-0.5686701778765983,1.2510309120853356,-1.1264818291975773,0.25354098735628244,-0.22812021089277737,-1.3431723587824607,-1.123054594607235,0.5793824415666203,-1.9863833194068108,-0.0001297829247695287,-0.3419659685150491,-0.4852353111451208,-1.057931178529841,1.0052698456543554,-0.6987720945468083,-1.5717589398329177,0.7176711511496744,0.3460475269701842,-0.4151452411867794
23,0.08233934454024033,0.02638761972774704,0.3278972176352922,-0.0375629295104939,0.8373710147013997,-0.16496708558757212,0.3132593220354755,0.40572334696746637,-0.38624610674435433,1.1105552789625412,-0.7705604777136269,-0.5694214539590602,1.2505902934150748,-1.1282583132631596,0.2546420907901732,-0.22964306615583133,-1.3466458174316616,-1.121264334180052,0.5802595066490451,-1.9877181821635574,-0.002046921672622134,-0.343648357256845,-0.48246139592236825,-1.0609263068604624,1.0084501597227356,-0.7004578513017635,-1.5741507993999733,0.7160855067164725,0.34532322901294776,-0.41668270705329363
24,0.08233199507338133,0.02507734643711703,0.3270258018661169,-0.04046909059649856,0.8404925155558608,-0.16777006420615737,0.308496616038329,0.40828799640816443,-0.38479970883528664,1.109067708198758,-0.7705648882527163,-0.5701744384406306,1.250152577524681,-1.1300295372860685,0.2557374434177798,-0.23116436791963504,-1.3501010380294773,-1.1194767873442946,0.5811332202467363,-1.9890549110362699,-0.003942664037367001,-0.3453166499764297,-0.47967633277787275,-1.0639103391466735,1.0116594677171276,-0.7021385088004175,-1.576541657871593,0.7145358042518658,0.34462390510429314,-0.4182057189110811
25,0.08231784369316779,0.02376207557003018,0.3261589340099546,-0.043374558805247904,0.843617699893923,-0.17057605934931827,0.3037536747494469,0.41085183528092106,-0.3833573342235784,1.107578240246142,-0.7705733680219515,-0.5709289289811078,1.249717913043501,-1.1317950687150633,0.25682659751735,-0.23268373746412316,-1.3535374876635657,-1.1176921556067339,0.5820034978996873,-1.9903933218935914,-0.00581873275909053,-0.34697260898865545,-0.4768827214488432,-1.066884738766006,1.0148953173945399,-0.7038158683350982,-1.578932853880847,0.7130203687114928,0.34394742233319275,-0.4197159331032128
26,0.08229696779776652,0.02244200258624976,0.3252967812169094,-0.04627891231293038,0.8467462976671165,-0.17338474928225833,0.299030987444576,0.41341469318178903,-0.3819190153600336,1.1060870795306328,-0.7705858576218839,-0.5716847396537038,1.2492864300589601,-1.133554513485532,0.2579091446433086,-0.2342008294472211,-1.356954692091884,-1.1159106204098546,0.5828702646037808,-1.9917332445332285,-0.00767667248465394,-0.34861780915373974,-0.47408289353180283,-1.069850802290201,1.018155497973792,-0.7054915321523706,-1.5813255510945672,0.7115376947756988,0.34329186335029527,-0.42121482762339224
27,0.08226944108346408,0.021117307417937593,0.324439490962865,-0.04918176708575235,0.8498780593172103,-0.17619584007124123,0.2943289833777344,0.41597641632984295,-0.38048478149216064,1.1045944154542064,-0.7706022993563771,-0.5724416993981225,1.2488582420082452,-1.1353075124064966,0.2589847119660644,-0.23571532869652456,-1.3603522302286868,-1.1141323450913423,0.5837334538631096,-1.9930745213518462,-0.009517868683345289,-0.3502536577321079,-0.4712789401677517,-1.0728096774268319,1.0214380149643612,-0.7071669244650136,-1.5837207574909087,0.7100864286760752,0.34265550389711397,-0.4227037212781296
28,0.08223533388245854,0.0197881560009202,0.32358719307608624,-0.05208277321206096,0.8530127538387673,-0.17900906282672302,0.28964803755493584,0.4185368658803301,-0.3790546589802099,1.1031004238500066,-0.770622637131235,-0.5731996506298841,1.248433447369534,-1.1370537379227899,0.26005295900209685,-0.23722694733495966,-1.363729729201286,-1.1123574766234634,0.5845930068554167,-1.99441700615547,-0.011343564445552208,-0.35188141202421896,-0.4684727366722509,-1.0757623789565613,1.0247410678120696,-0.7088433101310915,-1.5861193424692965,0.7086653520702285,0.3420367928222966,-0.4241837906836409
29,0.08219471347323234,0.018454701645904497,0.3227400015429595,-0.05498161162683033,0.856150167060848,-0.18182417124212671,0.2849884759023351,0.42109591643834476,-0.3776286715655955,1.1016052682828974,-0.7706468163554752,-0.5739584479882431,1.2480121311761723,-1.1387928912075276,0.26111357468494784,-0.23873542220085298,-1.3670868599083523,-1.1105861471621903,0.5854488716940567,-1.9957605630933957,-0.013154875427729779,-0.353502195069982,-0.4656659644906849,-1.0787098029129725,1.0280630300055278,-0.7105218112877733,-1.5885220520607093,0.7072733677076805,0.3414343342771281,-0.4256560853693754
30,0.0821476443650589,0.01711708626847866,0.3218980161196614,-0.05787799117985304,0.8592901001169126,-0.184640939391693,0.2803505799038875,0.42365345474425903,-0.3762068406010464,1.1001091012141666,-0.7706747838463323,-0.5747179572074029,1.2475943663740328,-1.1405246995464386,0.26216627473530124,-0.2402405125284288,-1.370423333020702,-1.1088184754310733,0.586301002772764,-1.9971050657010512,-0.014952803169095873,-0.35511700964299386,-0.4628601308036046,-1.0816527392169029,1.0314024313397832,-0.7122034221865104,-1.5909295224681472,0.7059094866670826,0.3408468718266934,-0.42712154122064677
31,0.08209418855826854,0.015775441494119184,0.3210613237727596,-0.060771646006194856,0.8624323680772549,-0.18745915975624153,0.27573459077229484,0.4262093785070051,-0.37478918524984894,1.0986120650464135,-0.7707064877387085,-0.5754780540977147,1.2471802150396196,-1.1422489139809748,0.2632107992945616,-0.24174199785941475,-1.3737388953739376,-1.107054567960899,0.5871493601818399,-1.9984503960393039,-0.016738246973914555,-0.3567267507419654,-0.46005658606101046,-1.0845918829479244,1.0347579420772368,-0.7138890224419083,-1.593342292135297,0.7045728169760109,0.34027327425005455,-0.42858099245999925
32,0.08203440578191629,0.01442988965223379,0.3202299999685904,-0.06366233316344565,0.865576798722576,-0.19027864145015383,0.27114071320768174,0.42876359536524977,-0.37337572265998303,1.0971142930624118,-0.770741877399511,-0.5762386236252305,1.2467697294742341,-1.143965307181597,0.26424691079148926,-0.243239676160347,-1.3770333267093013,-1.105294520202929,0.5879939091862628,-1.9997964439194045,-0.01851201452676993,-0.3583322167541613,-0.4572565396859659,-1.087527844411013,1.0381283587822618,-0.7155793888778785,-1.5957608125146678,0.7032625534506084,0.33971252283372766,-0.4300351823394518
33,0.08196835371047242,0.013080544671425318,0.31940410982860334,-0.0665498305052672,0.8687232314407854,-0.1930992086266123,0.2665691187907234,0.43131602195971985,-0.37196646811773143,1.0956159102698615,-0.7707809033471097,-0.5769995590794101,1.2463629531875997,-1.1456736715263942,0.26527439201572145,-0.2447333621234578,-1.3803064367249551,-1.1035384175308454,0.588834619757757,-2.0011431062041916,-0.02027483138596169,-0.35993411944248516,-0.45446107415564907,-1.0904611581356969,1.0415125916364227,-0.7172752061304404,-1.5981854576839307,0.7019779686142119,0.3391636999887662,-0.43148477269266433
34,0.08189608816110733,0.011727512886603142,0.3185837091656279,-0.06943393476488696,0.8718715162319424,-0.1959206990412441,0.2620199490505276,0.4338665831025637,-0.37056143518437573,1.0941170341623685,-0.7708235171759953,-0.5777607613200003,1.2459599217827166,-1.1473738173633568,0.2662930443755693,-0.2462228856318108,-1.3835580624047938,-1.1017863361443276,0.5896714661541137,-2.0024902861773883,-0.022027349481323184,-0.3615330928882285,-0.4516711576407408,-1.0933922909273774,1.044909653066824,-0.718977076146037,-1.600616532940092,0.7007184045725591,0.33862597904375036,-0.4329303524765606
35,0.08181766327307624,0.010370893767245992,0.3177688454141238,-0.07231445982566587,0.875021512808569,-0.1987429627569305,0.2574933182422114,0.4364152110317936,-0.36916063581883707,1.0926177754056632,-0.7708696714866075,-0.5785221380951503,1.2455606637523204,-1.1490655714373053,0.26730268632046134,-0.24770809037171335,-1.3867880655960445,-1.1000383438853611,0.5905044265400814,-2.003837892973845,-0.023770154726771898,-0.3631297015048402,-0.4488876553610095,-1.096321649075539,1.0483186475417692,-0.7206855266968069,-1.6030542824848695,0.6994832657388254,0.33809861508464467,-0.43437244541540027
36,0.08173313167063215,0.009010780574992671,0.31695955846586354,-0.07519123515879915,0.8781730897804668,-0.20156586097474616,0.2529893158646146,0.4389618447406288,-0.36776408048852494,1.0911182384569402,-0.7709193198202168,-0.579283603423729,1.2451652011961127,-1.1507487754647594,0.26830315191091014,-0.24918883257745167,-1.3899963308103993,-1.0982945009768597,0.5913334826449868,-2.0051858410644394,-0.025503773844262712,-0.36472444722385655,-0.44611133979536044,-1.099249584810754,1.051738762406291,-0.7224010190193684,-1.6054988963007502,0.6982720123150775,0.33758093672839784,-0.43581151684620023
37,0.08164254461081173,0.00764726095777243,0.3161558814211186,-0.07806410441069009,0.8813261239147262,-0.2043892649778572,0.24850800894479666,0.44150642937302964,-0.36637177827018974,1.089618522124248,-0.7709724165986943,-0.5800450770355855,1.244773550466897,-1.1524232848419806,0.2692942895209952,-0.2506649798951233,-1.3931827632264155,-1.0965548606919113,0.5921586194529446,-2.0065340497901065,-0.02722868048413077,-0.3663177759419493,-0.4433428998678807,-1.1021764020913944,1.0551692596457807,-0.7241239546709136,-1.6079505163052719,0.6970841544481301,0.33707233873078163,-0.437247979852348
38,0.08154595211735383,0.006280417486857181,0.315357841264237,-0.08093292412464563,0.8844804994629166,-0.2072130551767964,0.24404944411274732,0.44404891567793064,-0.3649837369422102,1.0881187200720355,-0.7710289170689586,-0.5808064838641714,1.2443857227528496,-1.154088967473094,0.2702759606601526,-0.2521364103538298,-1.39634728687347,-1.0948194699608962,0.5929798249220898,-2.0078824429400832,-0.028945300716759978,-0.36791008330756575,-0.4405829492170502,-1.1051023617914735,1.0586094684793546,-0.7258546816854146,-1.6104092418607887,0.6959192469875896,0.3365722753406781,-0.4386822007618917
39,0.08144340310192377,0.004910328142501591,0.3145654594714779,-0.0837975625833455,0.887636107548514,-0.21003712024588922,0.2396136494870003,0.4465892595157004,-0.3635999630694595,1.0866189212782607,-0.7710887772518682,-0.5815677535865313,1.2440017246023645,-1.155745702706643,0.27124803890259475,-0.25360301143378,-1.3994898429797509,-1.093088369922819,0.5937970897297455,-2.0092309483700226,-0.030654017961831665,-0.36950171991657405,-0.4378320336429129,-1.1080276863528289,1.062058778696134,-0.7275935001032369,-1.6128751347080725,0.6947768847823148,0.3360802543231392,-0.4401145040780533
40,0.08133494547373321,0.003537066753216098,0.3137787525580849,-0.08665789876008344,0.8907928456085177,-0.21286135634177217,0.23520063638949232,0.44912742141120515,-0.3622204620816705,1.0851192104478629,-0.7711519538953134,-0.5823288202061837,1.2436215583972297,-1.1573933803701808,0.27221040891399717,-0.25506467922197484,-1.4026103884686645,-1.091361596426443,0.5946104070408419,-2.010579497656092,-0.032355177413878757,-0.37109299597846684,-0.4350906378162921,-1.1109525639577251,1.0655166346575715,-0.7293406669392009,-1.6153482233843677,0.6936566984588382,0.3355958315823118,-0.44154517690176925
41,0.08122062623856363,0.002160703393177052,0.3129977325708076,-0.08951382136811414,0.8939506168839606,-0.21568566639594963,0.23081040090598687,0.4516633661485717,-0.3608452383460443,1.0836196683868713,-0.7712184044312544,-0.5830896216748691,1.24324522277928,-1.159031899893598,0.2731629655662212,-0.2565213176471189,-1.4057088945896958,-1.0896391804861532,0.5954197722972353,-2.0119280257815895,-0.03404909001631648,-0.3726841855078293,-0.43235919132482414,-1.1138771522717212,1.0689825298975955,-0.731096400646932,-1.6178285071797613,0.6925583506316467,0.3351186063229517,-0.44297447289933095
42,0.08110049158812437,0.0007813047418052967,0.31222240753140906,-0.09236522799859656,0.8971093299546442,-0.21850995947420945,0.22644292530663362,0.4541970624033503,-0.3594742952347114,1.0821203723409676,-0.7712880869364522,-0.5838500995495398,1.2428727130351418,-1.1606611695128337,0.27410561313182286,-0.2579728377862634,-1.4087853456711885,-1.087921148696929,0.5962251830258655,-2.0132764708529782,-0.03573603603039337,-0.37427553008979186,-0.42963807412246213,-1.1168015818012005,1.0724560022598617,-0.7328608851310442,-1.6203159596798282,0.6914815325007686,0.33464821669592076,-0.44440261586232016
43,0.08097458698060254,-0.0006010655908706764,0.31145278183610564,-0.09521202433863131,0.9002688983139697,-0.22133415019647681,0.22209817933971032,0.4567284824082938,-0.3581076351875466,1.0806213963019202,-0.7713609600966439,-0.5846101986813229,1.2425040214432095,-1.162281105546465,0.2750382645509504,-0.25941915723643805,-1.4118397379837877,-1.086207523612317,0.5970266386639249,-2.014624773842541,-0.03741626824048465,-0.37586724226293855,-0.426927621441987,-1.11972595890517,1.0759366295179766,-0.7346342733531712,-1.6228105319373132,0.6904259607969646,0.33418433587890817,-0.44582980290188795
44,0.08084295721319316,-0.001986346769816786,0.31068885661536433,-0.09805412346177188,0.9034292399801892,-0.22415815821135135,0.21777612141026303,0.45925760164940993,-0.3567452597707567,1.0791228112849587,-0.7714369831739194,-0.5853698669335003,1.242139137586577,-1.1638916317384083,0.27596084076398075,-0.2608601995451954,-1.4148720787043947,-1.0844983240888868,0.5978241403994248,-2.015972878355155,-0.039090014832732826,-0.37745950855851806,-0.4242281282238069,-1.122650368496718,1.0794240254303167,-0.7364166905729914,-1.6253121553110463,0.6893913750390868,0.3337266685487611,-0.44725620731490234
45,0.0807056464873331,-0.0033744804686340942,0.3099306300580248,-0.10089144518416313,0.9065902771407944,-0.22698190772015753,0.21347669965419078,0.46178439858931997,-0.35538716973159445,1.0776246855798446,-0.7715161159770666,-0.5861290549258332,1.241778048635271,-1.1654926786606192,0.27687327010390017,-0.26229589369458406,-1.4178823849714748,-1.0827935656002852,0.5986176910257154,-2.017320730416918,-0.04075748198014202,-0.3790524922307272,-0.42153985310880937,-1.125574876465787,1.0829178361861482,-0.7382082372610841,-1.6278207440062458,0.6883775350719246,0.33327494770635335,-0.44868198115550273
46,0.08056269846730252,-0.004765410628598955,0.30917809770330523,-0.10372391548014429,0.9097519358270962,-0.22980532704585382,0.20919985291728724,0.4643088544152845,-0.354033365049502,1.0761270849781248,-0.7715983188346618,-0.5868877158028074,1.2414207396008021,-1.1670841831702712,0.27777548774301425,-0.26372617363359263,-1.4208706830234343,-1.0810932605236914,0.5994072948086738,-2.0186682782835885,-0.042418856163783734,-0.38064633570922213,-0.4188630220381454,-1.1284995318516218,1.0864177372042292,-0.7400089917166467,-1.6303361973467827,0.6873842188561772,0.3328289318189396,-0.45010725754207453
47,0.08041415633280143,-0.006159083240719126,0.30843125270388866,-0.10655146595175835,0.912914145616343,-0.2326283482426033,0.20494551164783684,0.46683095280953935,-0.3526838449839475,1.074630072978809,-0.7716835525706938,-0.587645805023603,1.2410671935657485,-1.1686660879164035,0.278667435189086,-0.2651509778545772,-1.423837007412564,-1.0793974184011965,0.6001929573654032,-2.0200154722669903,-0.044074306256711306,-0.3822411628018077,-0.41619783149849154,-1.1314243687903125,1.0899234302490484,-0.7418190124197117,-1.6328584018068102,0.68641122048513,0.3323884022485139,-0.45153215272653324
48,0.08026006282605712,-0.007555446148650862,0.3076900860629646,-0.10937403334714822,0.9160768393589794,-0.2354509067422148,0.20071359871054742,0.46935067973983097,-0.3513386081191858,1.073133710974497,-0.7717717784825217,-0.5884032801717938,1.240717391890823,-1.1702383408915085,0.27954905982645867,-0.26657024900960624,-1.4267814002877488,-1.0777060461783843,0.6009746855534032,-2.021362264577708,-0.045723985394458926,-0.3838370806724011,-0.4135444514474766,-1.1343494082602443,1.0934346408333797,-0.743638340144487,-1.6353872328263253,0.6854583484052292,0.3319531609378681,-0.452956767950032
49,0.08010046029397086,-0.008954448870526573,0.3069545868478128,-0.11219155912329948,0.9192399529288761,-0.23827294103402608,0.19650403012887413,0.47186802326825766,-0.34999765240615177,1.0716380584197882,-0.7718629583209778,-0.5891601007829651,1.2403713144016322,-1.1718008950239385,0.2804203144981287,-0.2679839335630355,-1.429703910739772,-1.076019148422172,0.601752487369274,-2.022708609182563,-0.04736803265357574,-0.3854341816168238,-0.41090302795051814,-1.137274659645937,1.096951115878976,-0.7454669998577531,-1.637922556432719,0.6845254238200681,0.3315230283288783,-0.45438119110673525
50,0.07993539072576779,-0.010356042437926283,0.30622474238225744,-0.11500398904901922,0.9224034249945545,-0.2410943923751249,0.19231671576213585,0.4743829733767119,-0.34866097520167183,1.0701431729836328,-0.77195705427244,-0.5899162281886033,1.2400289395571216,-1.1733537078073957,0.28128115712510043,-0.2693919814769655,-1.4326045942036034,-1.0743367275197788,0.6025263718561058,-2.0240544616754885,-0.04900657455747954,-0.38703254465670195,-0.40827368555723487,-1.1402001221386782,1.1004726216100238,-0.7473050024238435,-1.640464230688115,0.6836122792593781,0.3310978414900839,-0.4558054982350963
51,0.07976489578657367,-0.011760179250391363,0.30550053842009023,-0.11781127284442573,0.9255671968096141,-0.2439152045280949,0.18815155992323998,0.47689552180738787,-0.3473285733051659,1.0686491106871279,-0.772054028942707,-0.5906716253747598,1.239690244601505,-1.1748967409641087,0.2821315503596857,-0.270794345926543,-1.4354835119125782,-1.0726587838605133,0.6032963490187832,-2.0253997791605673,-0.0506397264269773,-0.38863223696972216,-0.40565652944284275,-1.1431257859904889,1.1039989416564944,-0.749152346135582,-1.6430121069802865,0.6827187572964661,0.33067745243288915,-0.45722975485410683
52,0.07958901684730489,-0.013166812944027913,0.30478195930135193,-0.12061336385357006,0.9287312120207207,-0.24673532352373465,0.18400846194230183,0.47940566191696693,-0.3460004429929967,1.0671559260281227,-0.7721538453425248,-0.5914262568541273,1.2393552057013029,-1.1764299601386068,0.2829714612697081,-0.272190983042344,-1.438340730399829,-1.0709853160019152,0.6040624297465079,-2.0267445201460847,-0.05226759359106425,-0.3902333151726672,-0.40305164733746696,-1.1460516336362996,1.1075298753467704,-0.7510090180886189,-1.6455660311731357,0.681844709399202,0.3302617265977552,-0.45865401716022286
53,0.0794077950112239,-0.014575898272881707,0.3040689880931772,-0.12341021874712346,0.9318954164916634,-0.2495546974464344,0.17988731668096802,0.4819133885432278,-0.3446765800506124,1.0656636720938697,-0.772256466874619,-0.5921800885502906,1.2390237980689556,-1.1779533346192834,0.28380086105084207,-0.27358185167732924,-1.441176321042754,-1.0693163208216505,0.6048246257419052,-2.028088644448582,-0.05389027247205608,-0.3918358264720202,-0.40045911126407535,-1.1489776406977115,1.1110652361709463,-0.7528749954148717,-1.6481258446311091,0.6809899949011438,0.3298505414935771,-0.4600783330990917
54,0.07922127113748094,-0.01598739100188819,0.30336160671673784,-0.12620179725234631,0.9350597581421088,-0.25237327624010814,0.17578801500182079,0.4844186978829449,-0.3433569798026206,1.0641724006628455,-0.7723618573221012,-0.5929330876930227,1.2386959960743358,-1.1794668370851946,0.28461972476456,-0.2749669131960892,-1.4439903596466819,-1.0676517936564291,0.6055829494561344,-2.029432113105965,-0.05550785155771075,-0.39343980969545733,-0.39787897910373554,-1.1519037768803815,1.1146048503980164,-0.7547502463892223,-1.6506913851304668,0.6801544800807255,0.32944378547508524,-0.46150274332478597
55,0.07902948586193424,-0.01740124781031119,0.3026597960616706,-0.12898806190780987,0.9382241867998031,-0.25519101153277113,0.17171044419684828,0.48692158738004687,-0.3420416371409202,1.0626821622967604,-0.7724699808381262,-0.5936852227236019,1.2383717733453536,-1.1809704433757666,0.2854280310993848,-0.2763461312843047,-1.446782926064241,-1.0659917284291012,0.6063374140294795,-2.030774888298825,-0.05712041227173921,-0.39504529621622597,-0.3953112960050917,-1.1548300067758592,1.1181485558317934,-0.7566347314222146,-1.6532624876690245,0.6793380373376299,0.32904135664459055,-0.46292728205797845
56,0.07883247961551468,-0.018817426204683827,0.3019635360892371,-0.1317689778405735,0.941388654065073,-0.25800785647802776,0.16765448837861002,0.4894220556231017,-0.3407305465510138,1.0611930064236832,-0.772580801936686,-0.594436463209215,1.2380511028587333,-1.1824641322812977,0.28622576215334455,-0.27771947177653594,-1.4495541038472481,-1.0643361177649855,0.607088033236938,-2.0321169332791924,-0.058728029752973365,-0.39665231078121793,-0.3927560956533269,-1.157756290577621,1.121696200691876,-0.758528403950239,-1.6558389851848154,0.6785405444565447,0.32864316186572806,-0.4643519778533458
57,0.07863029264037666,-0.020235884440355675,0.30127280592534256,-0.1345445125637297,0.9445531131865758,-0.26082376561189313,0.16362002883740337,0.4919201022512814,-0.33942370213661355,1.0597049814131216,-0.7726942854844336,-0.5951867797655969,1.2377339570219348,-1.1839478853523295,0.287012903235712,-0.2790869025006242,-1.4523039799282225,-1.06268495309839,0.607834821438372,-2.0334582123060287,-0.06033077355244132,-0.3982608722524752,-0.39021340141240757,-1.1606825847200677,1.1252476426073077,-0.7604312112335498,-1.6584207091930665,0.6777618839494761,0.3282491158780557,-0.46577685428546
58,0.07842296500405525,-0.021656581450832574,0.30058758394442797,-0.13731463579241993,0.947717518947334,-0.26363869472351525,0.15960694436744263,0.4944157278680377,-0.3381210976426482,1.0582181346438237,-0.7728103966934422,-0.5959361439871352,1.237420307747098,-1.185421686726137,0.28778944268627826,-0.2804483931371459,-1.4550326443288863,-1.061038224770197,0.6085777935328186,-2.034798690586812,-0.06192870825668252,-0.3998709942709005,-0.38768322735307487,-1.163608842448376,1.1288027477117681,-0.7623430950714379,-1.6610074903499374,0.6770019424686614,0.32785914050245185,-0.46720193056150044
59,0.07821053661182946,-0.023079476784170102,0.29990784784515034,-0.14007931927659747,0.9508818275601718,-0.26645260073849536,0.15561511156479413,0.49690893396178987,-0.336822726476774,1.0567325125649931,-0.7729291011148064,-0.5966845283837349,1.2371101265178013,-1.1868855229687427,0.2885553717105639,-0.28180391509250147,-1.4577401898932507,-1.05939592211731,0.6093169649165987,-2.036138334224639,-0.06352189404480861,-0.40148268585007585,-0.38516557917784877,-1.1665350143263025,1.132361389830219,-0.7642639924429573,-1.6635991589506185,0.6762606102829138,0.327473163928235,-0.46862722206828444
60,0.07799304721747305,-0.024504530545749796,0.29923357471867607,-0.14283853664897123,0.9540459965717415,-0.26926544161362337,0.15164440509956686,0.4993997228329897,-0.3355285817294854,1.0552481607515474,-0.7730503646330062,-0.5974319063238035,1.2368033844493498,-1.1883393829310094,0.2893106842295098,-0.283153441384348,-1.4604267120430983,-1.0577580335546863,0.6100523514448873,-2.037477110170314,-0.06511038718607032,-0.40309595190730657,-0.38266045505322166,-1.1694610486883241,1.1359234497479056,-0.7661938360807691,-1.6661955453686141,0.6755377808109417,0.3270911200738154,-0.4700527408603626
61,0.07777053643255796,-0.025931703346828896,0.2985647411103295,-0.14559226328670716,0.9572099847743984,-0.27207717624195227,0.14769469796463533,0.5018880975269879,-0.3342386561929161,1.0537651239539936,-0.7731741534609552,-0.598178251982777,1.2365000523432357,-1.1897832576174892,0.2900553767423188,-0.28449694653820545,-1.463092308553874,-1.0561245466506204,0.6107839693964434,-2.0388149861789535,-0.06669424048401848,-0.40471079373830204,-0.38016784635823725,-1.1723868920418579,1.1394888145534976,-0.7681325549849167,-1.668796480442354,0.6748333502058229,0.32671294801348777,-0.4714784960952492
62,0.07754304373445964,-0.027360956258310684,0.2979013230752666,-0.14834047618559498,0.960373752125243,-0.274887764367235,0.14376586170296857,0.5043740617721765,-0.33295294237841755,1.0522834461434392,-0.7733004341356641,-0.5989235402966554,1.236200100736352,-1.1912171400668357,0.290789448201236,-0.28583440649416975,-1.4657370793491735,-1.0544954481958753,0.6115118354412195,-2.040151930770658,-0.06827350367274086,-0.40632720944126444,-0.3776877383577595,-1.1753124894247264,1.1430573770489487,-0.7700800748826652,-1.6714017958146454,0.6741472169853941,0.32633859146369815,-0.47290449442124716
63,0.07731060847320015,-0.02879225076923352,0.2972432962287761,-0.15108315384550627,0.9635372596717043,-0.2776971665068359,0.13985776661545432,0.5068576199229313,-0.3316714325329953,1.0508031705522096,-0.7734291735144558,-0.5996677469200693,1.2359034999454825,-1.1926410252426878,0.2915128998971617,-0.2871657985227667,-1.4683611263121745,-1.0528707242672142,0.612235966610598,-2.041487913194869,-0.06984822377010934,-0.4079451942955825,-0.37522011080793166,-1.1782377847225112,1.1466290352193844,-0.7720363186399265,-1.6740113242299255,0.673479281703835,0.325967998322771,-0.47433074032277683
64,0.077073269877252,-0.030225548749523285,0.29659063579174993,-0.15382027616607824,0.966700469483095,-0.2805053438823106,0.13597028195093824,0.5093387769069229,-0.33039411865468016,1.0493243397105003,-0.7735603387716723,-0.6004108481884401,1.2356102201075403,-1.1940549099340374,0.29222573535509017,-0.2884911011490672,-1.4709645531125182,-1.0512503602858319,0.6129563802700236,-2.0428229033980467,-0.07141844539247884,-0.4095647410998068,-0.372764938500598,-1.1811627209499667,1.1502036917569713,-0.774001206629243,-1.6766248997937658,0.6728294466601965,0.32560112025867366,-0.47575723642762435
65,0.0768310670584139,-0.031660812416596226,0.29594331663181267,-0.15655182435165585,0.9698633445876114,-0.2833122583569225,0.13210327608004446,0.5118175381764001,-0.32912099250690585,1.0478469954794514,-0.77369389739582,-0.6011528210838378,1.2353202312159748,-1.1954587926641829,0.29292796023845513,-0.28981029408426645,-1.4735474650472684,-1.049634341071138,0.6136730940938173,-2.044156871994343,-0.0729842110348339,-0.4111858404731142,-0.37032219175279973,-1.1840872405002494,1.15378125363332,-0.775974657058797,-1.6792423581986298,0.6721976156400485,0.3252379123399287,-0.4771839837800767
66,0.07658403901585978,-0.03309800430543771,0.2953013133005481,-0.15927778082461472,0.9730258489143014,-0.28611787237943187,0.12825661665420343,0.5142939096630917,-0.3278520456319614,1.0463711790809964,-0.7738298171871041,-0.6018936432041763,1.2350335031537354,-1.196852673607453,0.29361958226154705,-0.291123358164003,-1.476109968894712,-1.0480226508903112,0.6143861260419814,-2.045489790238977,-0.07454556131997761,-0.41280848112404733,-0.36789183684686183,-1.187011285365327,1.1573616317155033,-0.777956586266472,-1.681863536919472,0.6715836936868017,0.3248783327052688,-0.47861098208351
67,0.07633222463945177,-0.034537087241817394,0.29466460006721834,-0.1619981291462685,0.9761879472395593,-0.28892214893355417,0.12443017075118483,0.5167678977363995,-0.32658726936358173,1.044896931124804,-0.7739680662553071,-0.6026332927354195,1.2347500057231293,-1.1982365545129612,0.29430061110923933,-0.29243027529276044,-1.4786521727798656,-1.0464152735039967,0.6150954943388187,-2.0468216300040436,-0.07610253521999505,-0.4144326500899327,-0.36547383642604603,-1.1899347973305978,1.1609447404212578,-0.7799469089825807,-1.6844882753824064,0.6709875868996058,0.3245223422680623,-0.4800382299156338
68,0.07607566271240034,-0.035978024318333274,0.29403315094933113,-0.164712853944639,0.979349605137746,-0.291725051492541,0.12062380500831685,0.5192395091645894,-0.325326654838736,1.043424291632601,-0.7741086130179701,-0.6033717484265032,1.234469708672887,-1.1996104386347186,0.2949710583633316,-0.29373102839375675,-1.4811741860506673,-1.044812192208493,0.6158012174532046,-2.048152363756517,-0.07765517025289746,-0.4160583329500373,-0.3630681498502579,-1.1928577181464366,1.1645304974093722,-0.7819455385645111,-1.6871164151093307,0.6704092022550378,0.32416990445193494,-0.4814657249192694
69,0.07581439191334571,-0.0374207788730059,0.2934069397403745,-0.16742194084843495,0.9825107889355702,-0.2945265439783883,0.11683738574446673,0.5217087510787125,-0.3240701930086699,1.0419533000601395,-0.7742514261988387,-0.6041089895667014,1.2341925817227117,-1.2009743306674976,0.2956309374348791,-0.29502560136377975,-1.4836761191639134,-1.043213389874739,0.616503314080366,-2.049481964538222,-0.07920350265705829,-0.4176855140152144,-0.36067473351585405,-1.195779989679105,1.1681188233016604,-0.783952387206214,-1.6897477998411086,0.6698484474500722,0.32382098495436556,-0.4828934639712444
70,0.0755484508179284,-0.038865314470170526,0.2927859400350054,-0.17012537642664619,0.9856714656698903,-0.2973265907252209,0.11307077907176066,0.5241756309390142,-0.3228178746492541,1.040483995317042,-0.7743964748265414,-0.604844995965197,1.2339185945855613,-1.202328236687895,0.29628026350193476,-0.29631397903248047,-1.4861580835800943,-1.0416188489843856,0.6172018031250335,-2.0508104059475833,-0.08074756754578732,-0.41931417649650815,-0.35829354114319495,-1.1987015540432173,1.1717096414332777,-0.7859673661251549,-1.6923822756416322,0.6693052307640827,0.323475551535359,-0.4843214433317218
71,0.07527787789990924,-0.04031159488343877,0.29217012525195063,-0.17282314813321684,0.9888316030486359,-0.30012515644644794,0.10932385099793301,0.5266401565036095,-0.3215696903706878,1.0390164157847426,-0.7745437282334665,-0.6055797479326337,1.2336477169878903,-1.2036721641000923,0.29691905345218306,-0.2975961471256798,-1.4886201916663555,-1.0400285516632075,0.6178967036858454,-2.0521376621229677,-0.08228739904414979,-0.4209443026549369,-0.3559245240352301,-1.2016223537177235,1.1753028776284584,-0.7879903857290902,-1.6950196909848545,0.6687794609378471,0.323133573828586,-0.4857496587760443
72,0.07500271153189429,-0.041759584080523236,0.2915594686548509,-0.17551524425631101,0.9919911694145659,-0.30292220620531857,0.1055964675201141,0.5291023357992269,-0.32032563062660274,1.0375505993327157,-0.7746931560548115,-0.6063132262644498,1.2333799186880519,-1.2050061215858638,0.2975473258299924,-0.29887209223228695,-1.4910625566068834,-1.0384424797120937,0.6185880350408917,-2.053463707727455,-0.08382303040992198,-0.42257587393444634,-0.35356763131007285,-1.2045423316471702,1.1788984599990444,-0.7900213557647808,-1.69765989682666,0.6682710470677404,0.322795023172645,-0.48717810571095865
73,0.07472298998571363,-0.043209246209738136,0.2909539433712563,-0.1782016538717315,0.9951501337116094,-0.3057177053885443,0.10188849471079318,0.5315621770938378,-0.31908568572261115,1.0360865833331665,-0.7748447282277785,-0.6070454122258149,1.2331151694930405,-1.2063301190584206,0.29816510078745556,-0.3001418017744665,-1.4934852923200754,-1.0368606146358257,0.6192758166342984,-2.054788517934899,-0.08535449414038067,-0.4242088710798208,-0.35122281011022966,-1.2074614313298193,1.1824963187634403,-0.7920601854505461,-1.700302746663253,0.6677798985134796,0.32245987246033575,-0.48860677927689283
74,0.07443875143249876,-0.04466054558800712,0.29035352240995926,-0.18088236680009326,0.9983084654535574,-0.308511619682686,0.09819979879662621,0.5340196888710087,-0.31784984582433556,1.0346244046743434,-0.7749984149908924,-0.6077762875380024,1.2328534392737407,-1.2076441676197183,0.29877240003902844,-0.30140526398072376,-1.495888513381916,-1.0352829376698383,0.6199600680637603,-2.0561120684171343,-0.08688182206644922,-0.4258432742411557,-0.3488900057908814,-1.2103795968940376,1.186096386083868,-0.7941067835943589,-1.7029480965775599,0.6673059248179554,0.3221280960040476,-0.49003567443778534
75,0.07415003394249872,-0.04611344669022554,0.28975817867683223,-0.18355737356739207,1.0014661346948925,-0.3113039150530308,0.09453024623069785,0.5364748798058269,-0.31661810096495935,1.0331640997726146,-0.7751541868834207,-0.6085058343660537,1.2325946979788254,-1.2089482795208975,0.2993692468194128,-0.30266246786161216,-1.4982723349550302,-1.0337094298051395,0.6206408090689362,-2.0574343353322213,-0.08840504543556577,-0.42747906306633027,-0.34656916208937355,-1.2132967731642255,1.1896985959200048,-0.7961610586990124,-1.7055958052749942,0.6668490356378345,0.32179966941556004,-0.4914647860598092
76,0.07385687548467072,-0.047567914139839344,0.28916788498932017,-0.18622666536864316,1.0046231120035654,-0.31409455772471256,0.09087970375879167,0.538927758742265,-0.3153904410523306,1.0317057045834368,-0.7753120147448768,-0.6092340353075966,1.232338915647436,-1.2102424681255484,0.29995566584436195,-0.3039134031877921,-1.500636872722936,-1.0321400718115468,0.6213180595206347,-2.0587552953136083,-0.0899241949844974,-0.42911621678276923,-0.344260221277855,-1.2162129057174174,1.1933028838972883,-0.798222919055727,-1.708245734109785,0.6664091406837529,0.3214745694987234,-0.4928941089801942
77,0.07355931392607769,-0.04902391270051609,0.28858261408972213,-0.18889023403429572,1.0077793684355407,-0.31688351416585075,0.08724803848017294,0.5413783346718621,-0.31416685587565224,1.030249254611334,-0.7754718697145878,-0.6099608733827006,1.232086062420763,-1.2115267478755296,0.30053168327411833,-0.3051580604701984,-1.5029822428290585,-1.0305748442593863,0.6219918394107179,-2.060074925460125,-0.09143930100319725,-0.43075471426964895,-0.34196312430081066,-1.2191279409315743,1.1969091871883422,-0.8002922728274253,-1.7108977471029467,0.6659861496690406,0.32115277415364707,-0.49432363806722357
78,0.0732573870311217,-0.05048140726879574,0.28800233865738273,-0.19154807199915835,1.010934875510956,-0.31967075107250653,0.0836351179033423,0.5438266167136124,-0.31294733511178724,1.0287947849189898,-0.7756337232313144,-0.6106863320246566,1.2318361085526313,-1.2128011342590905,0.3010973266792197,-0.30639643094209706,-1.5053085618201099,-1.0290137275397842,0.6226621688426615,-2.061393203326713,-0.09295039339068648,-0.432394534121583,-0.339677810899054,-1.2220418260264732,1.2005174444061355,-0.8023690281227771,-1.7135517109528529,0.6655799722660305,0.3208342622911614,-0.49575336827236904
79,0.07295113246063917,-0.05194036286761992,0.2874270313199009,-0.19420017227359557,1.0140896051917438,-0.32245623535527246,0.08004080999717789,0.5462726140949589,-0.31173186833120664,1.0273423301355478,-0.7757975470329059,-0.6114103950715851,1.2315890244191852,-1.2140656437810755,0.30165262500843426,-0.3076285065428314,-1.5076159465934755,-1.0274567018836716,0.6233290680227145,-2.062710106915813,-0.09445750170384085,-0.4340356547047141,-0.33740421972158885,-1.2249545090980096,1.2041275955076318,-0.8044530930619961,-1.7162074950392752,0.6651905180691013,0.32051901375644754,-0.49718329467542666
80,0.07264058777088107,-0.05340074464064827,0.28685666466345316,-0.19684652841677927,1.017243529860592,-0.32523993412733104,0.07646498323784545,0.5487163361338045,-0.31052044500360576,1.0258919244642062,-0.7759633131559798,-0.6121330467587819,1.2313447805277595,-1.2153202939350076,0.3021976085586101,-0.3088542799030795,-1.5099045143482772,-1.025903747379609,0.6239925572516062,-2.0640256146693434,-0.09596065519986872,-0.4356780542060412,-0.3351422884266042,-1.2278659391466409,1.2077395817068095,-0.8065443758352727,-1.7188649714216584,0.6648176965636933,0.32020700926084283,-0.49861341252342367
81,0.0723257904123988,-0.05486251784727962,0.286291211242318,-0.19948713451180028,1.0203966223011165,-0.3280218146938331,0.07290750665182208,0.5511577922214577,-0.3093130545032119,1.0244436016891827,-0.7761309939356146,-0.6128542717117227,1.2311033475250113,-1.2165651031768685,0.30273230894624176,-0.3100737443314602,-1.5121743825398148,-1.0243548439905295,0.6246526569167532,-2.0653397054612,-0.0974598828731845,-0.43732171067672493,-0.33289195377273817,-1.2307760661006193,1.2113533453960523,-0.8086427847546321,-1.7215240148323183,0.6644614171006155,0.31989823032093356,-0.5000437172639866
82,0.07200677772885414,-0.05632564785830369,0.2857306435876783,-0.20212198514246404,1.0235488556791421,-0.3308018445424613,0.0693682498553482,0.5535969918064372,-0.30810968611380524,1.0229973951821174,-0.776300562005046,-0.6135740549396536,1.2308646962043819,-1.2178000909004125,0.30325675908057853,-0.31128689380234237,-1.5144256688371158,-1.0228099715694865,0.625309387484924,-2.066652358590222,-0.09895521348730694,-0.4389666020700338,-0.3306531517016292,-1.2336848408345982,1.2149688300750128,-0.810748228299922,-1.7241845026651788,0.6641215888750367,0.3195926592041377,-0.5014742045737849
83,0.07168358695576989,-0.05779010015211672,0.2851749342157719,-0.20475107537161194,1.0267002035249924,-0.3335799913350573,0.06584708309059435,0.556033944379072,-0.30691032903347354,1.0215533379079769,-0.7764719902953572,-0.6142923818297021,1.2306287975129493,-1.2190252774138643,0.3037709931381143,-0.31249372294472544,-1.5166584910833458,-1.0212691098744926,0.6259627694953226,-2.0679635537735725,-0.10044667560234512,-0.44061270627452603,-0.32842581741266846,-1.2365922151841298,1.2185859802861436,-0.812860615159563,-1.7268463149605942,0.6637981209096133,0.3192902788800649,-0.5029048703826021
84,0.07135625521923548,-0.05925584031144087,0.2846240556354521,-0.2073744007208256,1.0298506397166984,-0.3363562229002035,0.06234387725880365,0.5584686594568342,-0.30571497237911843,1.0201114624305145,-0.7766452520351557,-0.6150092381414508,1.230395622557728,-1.2202406839178692,0.30427504653831405,-0.3136942270320724,-1.518872967258852,-1.019732238582515,0.6266128235530543,-2.0692732711404878,-0.10193429759857425,-0.4422600011429961,-0.3262098854307738,-1.2394981419565185,1.2222047415561754,-0.814979854266626,-1.7295093343867496,0.6634909220412679,0.31899107297701496,-0.5043357108935235
85,0.07102481953458084,-0.060722834020493374,0.2840779803552139,-0.2099919571513855,1.033000138464048,-0.33913050722666077,0.05885850395064795,0.5609011465703495,-0.30452360519073124,1.0186718009173374,-0.776820320750231,-0.6157246100019199,1.230165142611463,-1.2214463324845724,0.3047689559204481,-0.31488840197298884,-1.5210692154466383,-1.0181993373026992,0.6272595703229443,-2.0705814912263496,-0.10341810769655047,-0.44390846451766014,-0.32400528966791853,-1.242402574938446,1.225825060342898,-0.8171058548307405,-1.7321734462180747,0.6631999009111836,0.31869502574304387,-0.50576672259968
86,0.07068931680502953,-0.06219104706255694,0.2835366808897353,-0.212603741046368,1.0361486742933996,-0.34190281245757237,0.05539083547401436,0.5633314152500386,-0.30333621643545383,1.017234385144624,-0.7769971702631854,-0.6164384839009126,1.2299373291179654,-1.2226422460377229,0.3052527591214148,-0.31607624430265135,-1.5232473538000828,-1.0166703855888788,0.6279030305236778,-2.0718881949670496,-0.10489813397416478,-0.4455580742520037,-0.32181196347907476,-1.2453054689007357,1.2294468839866677,-0.8192385263662851,-1.734838538311061,0.6629249659576258,0.31840212201108636,-0.507197902297939
87,0.07034978382034159,-0.06366044531790767,0.28300012976597866,-0.215209749193777,1.0392962220332003,-0.3446731068853552,0.051940744879419964,0.5657594750133424,-0.30215279501143916,1.015799246501531,-0.7771757746930333,-0.6171508466866793,1.2297121536970255,-1.2238284483337014,0.3057264951544472,-0.3172577511748986,-1.5254075005127263,-1.0151453629514249,0.6285432249222358,-2.073193363693605,-0.10637440438099367,-0.44720880822966824,-0.3196298397131596,-1.2482067796005882,1.2330701606661234,-0.8213777787172625,-1.7375045010778303,0.6626660254112446,0.3181123471676783,-0.5086292470998905
88,0.07000625725545467,-0.06513099476206151,0.28246829952889174,-0.2178099787706158,1.0424427568001413,-0.34744135894720535,0.048508105983235204,0.5681853353524922,-0.30097332975152524,1.0143664159943304,-0.7773561084547654,-0.6178616855618628,1.2294895881489427,-1.2250049639433862,0.3061902041886072,-0.31843292035490744,-1.5275497737899781,-1.0136242488684863,0.6291801743286037,-2.0744969791270034,-0.10784694675026472,-0.44886064438071394,-0.31745885075951324,-1.2511064637815827,1.2366948393576536,-0.8235235220792188,-1.7401712274577645,0.6624229872925481,0.3178256871248711,-0.5100607544404397
89,0.06965877366913137,-0.0666026614643039,0.281941162746744,-0.22040442732781557,1.0455882539859036,-0.35020753722115383,0.04509279338888071,0.5706090057227872,-0.29979780942673484,1.0129359242503018,-0.7775381462588724,-0.6185709880796909,1.2292696044587028,-1.226171818234777,0.3066439275289813,-0.319601750212384,-1.5296742918225958,-1.0121070227966638,0.62981389959073,-2.075799023373243,-0.10931578880872118,-0.45051356069555937,-0.31529892859038067,-1.2540044791717049,1.2403208697981984,-0.8256756670185279,-1.7428386128874707,0.6621957594112728,0.3175421282949742,-0.511492422084283
90,0.06930736950261934,-0.06807541158647125,0.2814186920161301,-0.2229930927759441,1.0487326892444424,-0.3529716104226133,0.041694682506148134,0.5730304955313489,-0.2986262227496128,1.011507801521414,-0.7777218631108258,-0.619278742140384,1.2290521747998304,-1.2273290373563068,0.30708770759750054,-0.3207642397152059,-1.5317811727618096,-1.010593664181159,0.6304444215897149,-2.077099478918548,-0.11078095818463836,-0.4521675352368651,-0.31315000479982047,-1.256900784479638,1.2439482024510244,-0.827834124489327,-1.7455065552693296,0.6619842493674044,0.31726165756779984,-0.5129242481305138
91,0.06895208107833027,-0.069549211381956,0.2809008599666691,-0.22557597337162696,1.051876038479766,-0.3557335474013642,0.0383136495687826,0.5754498141263195,-0.29745855837741136,1.0100820776878203,-0.7779072343105129,-0.619984935987752,1.2288372715379434,-1.2284766482207772,0.3075215879143148,-0.3219203884234599,-1.5338705346959711,-1.0090841524654366,0.6310717612352134,-2.07839832862474,-0.11224248241421667,-0.45382254614960005,-0.3110120106394183,-1.2597953393895251,1.2475767884741396,-0.8299988058483587,-1.7481749549388448,0.6617883645536307,0.31698426229012105,-0.5143562310155787
92,0.06859294459854252,-0.07102402719490987,0.2803876392654249,-0.22815306770462,1.0550182778341735,-0.35849331713893207,0.03494957165045274,0.57786697078648,-0.29629480491513327,1.008658782261187,-0.7780942354516229,-0.6206895582059535,1.2286248672340336,-1.229614678489859,0.3079456130796583,-0.3230701964838237,-1.53594249562862,-1.0075784671004298,0.6316959394610335,-2.079695555724738,-0.1137003889465518,-0.4554785716695032,-0.3088848770511437,-1.2626881045543878,1.2512065796910588,-0.8321696228679477,-1.7508437146309854,0.6616080121590332,0.31670993024708405,-0.5157883695147777
93,0.06822999614413194,-0.07249982545962289,0.2798790026210711,-0.23072437468547755,1.0581593836769103,-0.36125088874631495,0.03160232667922354,0.5802819747112627,-0.2951349509184423,1.0072379443878805,-0.7782828424209836,-0.6213925977163975,1.228414934647492,-1.2307431565591096,0.3083598287561508,-0.3242136646242465,-1.5379971734578677,-1.006076587553322,0.6323169772209174,-2.0809911438181823,-0.11515470514735979,-0.4571355901301295,-0.3067685346976517,-1.2655790415883679,1.2548375285636604,-0.8343464877473149,-1.7535127394456986,0.6614430991738448,0.3164386496453444,-0.517220662742485
94,0.0678632716733345,-0.07397657270005772,0.2793749227878198,-0.23328989353376794,1.0612993325932156,-0.3640062314620215,0.028271793450637753,0.5826948350111366,-0.29397898489644875,1.0058195928520277,-0.7784730313978452,-0.6220940437747663,1.2282074467389,-1.231862111543457,0.3087642816514829,-0.3253507941488871,-1.5400346859570049,-1.0045784933159316,0.6329348954844906,-2.082285076867157,-0.11660545830161531,-0.4587935799686486,-0.30466291399029977,-1.2684681130579387,1.2584695881668992,-0.83652931312241,-1.7561819368127407,0.6612935323951192,0.31617040909772304,-0.5186531101512422
95,0.06749280702054376,-0.0754542355295215,0.27887537256913386,-0.2358496237667912,1.0644381013737296,-0.3667593146503867,0.024957851639502676,0.585105560698345,-0.29282689531437905,1.004403756078466,-0.7786647788531118,-0.6227938859681418,1.2280023766726018,-1.2329715732631112,0.3091590195014402,-0.326481586933273,-1.5420551507562539,-1.003084163912725,0.6335497152333681,-2.0835773391920016,-0.11805267561524346,-0.4604525197305454,-0.30256794511512086,-1.2713552824722196,1.2621027121651727,-0.8387180120744236,-1.7588512164559675,0.6611592184331778,0.3159051976091986,-0.520085711529863
96,0.06711863789514594,-0.0769327806504588,0.2783803248212384,-0.2384035651887594,1.0675756670042351,-0.36951010780013405,0.02166038181047123,0.5875141606779786,-0.2916786705961348,1.002990462135598,-0.7788580615485187,-0.6234921142122206,1.2277996978190746,-1.2340715722298659,0.3095440910532263,-0.3276060454196477,-1.5440586853255838,-1.0015935789084796,0.6341614574574063,-2.084867915467203,-0.11949638421598976,-0.462112388073356,-0.3004835580569677,-1.2742405142725086,1.2657368547901549,-0.8409124981371231,-1.761520490357202,0.6610400637187127,0.315643004564075,-0.5215184670006721
97,0.06674079988039444,-0.07841217485435156,0.2778897524564462,-0.24095171788040423,1.0707120066557119,-0.37225858052315675,0.01837926542749911,0.5899206437393678,-0.29053429912674955,1.001579738738164,-0.7790528565357547,-0.6241887187486035,1.2275993837571082,-1.2351621396337542,0.3099195460490466,-0.328724172612477,-1.5460454069585214,-1.0001067179156178,0.6347701431510893,-2.086156790717352,-0.12093661115357883,-0.463773163769557,-0.29840968262202017,-1.2771237738211376,1.2693719708199385,-0.843112685303139,-1.7641896727197859,0.6609359745104395,0.3153838197141796,-0.5229513770159839
98,0.0663593284323258,-0.079892385021713,0.27740362844631045,-0.24349408218897922,1.0738470976746828,-0.3750047025534934,0.01511438486225315,0.5923250185477781,-0.2893937692547489,1.0001716132499407,-0.7792491411555305,-0.6248836901421453,1.2274014082758098,-1.2362433073300334,0.31028543520992186,-0.3298359720740875,-1.54801543275689,-0.998623560601233,0.6353757933100436,-2.0874439503131588,-0.12237338339925959,-0.4654348257087132,-0.2963462484588277,-1.2800050273897432,1.2730080155593362,-0.8453184880293174,-1.7668586799319124,0.6608468569032053,0.3151276331679645,-0.5243844423539211
99,0.06597425887871816,-0.0813733781221643,0.27692192582461683,-0.24603065871862856,1.0769809175738325,-0.3777484437464763,0.011865623401540036,0.594727293636397,-0.2882570692944191,0.9987661126863795,-0.7794468930365902,-0.6255770192783566,1.227205745376442,-1.2373151078264657,0.31064181021970083,-0.3309414479204147,-1.5499688796164184,-0.9971440866938212,0.6359784289276695,-2.088729379967519,-0.1238067278448236,-0.46709735289897614,-0.29429318507803814,-1.2828842421470361,1.2766449448212183,-0.8475298212412388,-1.7695274305298219,0.6607726168364698,0.31487443538039733,-0.5258176641136553
100,0.06558562641809351,-0.08285512121458381,0.27644461769022516,-0.2485614483210961,1.080113444022883,-0.3804897740780326,0.008632865253819207,0.5971274773985995,-0.28712418752799,0.99736326371719,-0.7796460900946696,-0.6262686973608454,1.2270123692741064,-1.2383775742708756,0.3109887237092466,-0.33204060481683867,-1.551905864213163,-0.995668275989736,0.6365780709918843,-2.0900130657316227,-0.12523667130117339,-0.46876072446801725,-0.29225042187095046,-1.2857613861461412,1.28028271490877,-0.8497466003369935,-1.772195845160935,0.6607131601030848,0.31462421714354155,-0.5272510437101467
101,0.06519346611876407,-0.08433758144731979,0.27597167720977067,-0.2510864520867519,1.083244654839711,-0.38322866364412,0.00541599555485873,0.5995255780804817,-0.28599511220773755,0.9959630926688782,-0.7798467105313981,-0.6269587159087908,1.2268212543992814,-1.2394307404389595,0.31132622924077274,-0.3331334479740895,-1.5538265029906928,-0.994196108359382,0.637174740481969,-2.0912949939910983,-0.12666324049650804,-0.47042491966346767,-0.29021788812701144,-1.288636428311574,1.28392128259857,-0.8519687411902946,-1.7748638465469893,0.6606683923583081,0.31437696957773686,-0.5286845828684512
102,0.06479781291792361,-0.08582072605845878,0.2755030776202333,-0.2536056713359152,1.0863745279816945,-0.38596508266028295,0.002214900372588495,0.6019216037736518,-0.28486983155800905,0.9945656255272448,-0.7800487328331471,-0.6276470667544409,1.2266323753992212,-1.2404746407223304,0.3116543812923094,-0.33421998314420565,-1.5557309121479905,-0.9927275637531573,0.6377684583655131,-2.0925751514621918,-0.12808646207418636,-0.47208991785293003,-0.28819551305036456,-1.291509338425912,1.2875606051243995,-0.8541961601530003,-1.777531359447236,0.6606382191289961,0.3141326841233017,-0.5301182836176516
103,0.06439870162078357,-0.08730452237614264,0.2750387922313827,-0.25611910761045587,1.0895030415372762,-0.3886990014613131,-0.0009705332887989899,0.6043155624082708,-0.28374833377717695,0.99317088793985,-0.780252135769824,-0.6283337420406284,1.2264457071392272,-1.2415093101167762,0.3119732352422792,-0.33530021661653026,-1.5576192076280237,-0.991262622207159,0.6383592455954518,-2.0938535251879693,-0.12950636259031986,-0.4737556985236199,-0.2861832257755476,-1.2943800871162108,1.2912006401617089,-0.8564287740571074,-1.7801983106217483,0.660622545822923,0.3138913525326878,-0.531552148284468
104,0.06399616689975435,-0.08878893781892779,0.2745787944281065,-0.25862676266565665,1.092630173717734,-0.39143039050100337,-0.004140417485453733,0.6067074617463333,-0.282630607039524,0.9917789052184494,-0.7804568983936123,-0.6290187342182972,1.226261224703795,-1.2425347842107215,0.3122828473541682,-0.3363741552137326,-1.5594915051069496,-0.9898012638486622,0.6389471231071897,-2.0951301025345455,-0.13092296851114227,-0.47542224128168703,-0.28418095538242344,-1.297248645840213,1.2948413458126662,-0.8586665002162752,-1.782864628794886,0.6606212777381854,0.3136529668630263,-0.5329861794865933
105,0.06359024329367124,-0.09027393989618139,0.2741230576726274,-0.2611286384623225,1.0957559028491493,-0.3941592203519836,-0.007294863331136147,0.6090973093751818,-0.28151663949706357,0.9903897023414058,-0.7806630000376605,-0.6297020360440356,1.2260789033976447,-1.2435510991738736,0.31258327476127584,-0.3374418062878428,-1.5613479199839104,-0.9883434689013819,0.6395321118158079,-2.096404871187329,-0.13233630621019613,-0.477089525851262,-0.2821886309104206,-1.3001149868723887,1.2984826805917338,-0.8609092564269283,-1.7855302446189543,0.660634320072653,0.31341751946901103,-0.5344203801257947
106,0.06318096520706487,-0.09175949620850961,0.2736715555066155,-0.2636247371591225,1.0988802073645645,-0.3968854617056276,-0.010433980995107697,0.6114851127012477,-0.28040641928129906,0.9890033039560799,-0.780870420314718,-0.6303836405776106,1.2258987187466426,-1.2445582917460443,0.3128745754515317,-0.3385031777162899,-1.5631885673713901,-0.9868892176905282,0.6401142326133481,-2.0976778191472865,-0.13374640196537266,-0.47875753207326716,-0.28020618137215114,-1.3029790832898436,1.3021246034117149,-0.8631569609689833,-1.7881950906380928,0.660661577933433,0.3131850029960717,-0.5358547533808177
107,0.06276836690947563,-0.09324557444821363,0.27322426155320106,-0.266115061105153,1.102003065796323,-0.39960908537202383,-0.01355787970060714,0.6138708789440123,-0.27929993450492446,0.9876197343812043,-0.7810791391157204,-0.6310635411795006,1.225720646498616,-1.2455563992261327,0.3131568082523677,-0.3395582778979338,-1.5650135620860954,-0.9854384906476621,0.640693506366172,-2.0989489347272205,-0.13515328195583606,-0.48042623990402755,-0.2782335357664648,-1.3058409089581293,1.305767073570228,-0.8654095326062411,-1.7908591012524229,0.6607029563463186,0.3129554103737957,-0.5372893027001252
108,0.06235248253481147,-0.09473214239976983,0.2727811495188922,-0.26859961283271083,1.1051244567685852,-0.4023300622800007,-0.01666666772387771,0.6162546151301816,-0.2781971732634701,0.9862390176092412,-0.7812891366083253,-0.6317417315084211,1.2255446626240676,-1.2465454594612624,0.3134300328156348,-0.3406071157490834,-1.5668230186403336,-0.9839912683153608,0.6412699539123906,-2.100218206548058,-0.13655697225885988,-0.48209562941371237,-0.27627062309099415,-1.3087004385169811,1.3094100507365647,-0.8676668905864772,-1.7935222126824804,0.6607583602651973,0.31272873480956137,-0.5387240317945009
109,0.061933346080748373,-0.09621916794033082,0.2723421931954017,-0.27107839505026715,1.1082443589900148,-0.4050483634772005,-0.019760452393713095,0.6186363280880723,-0.27709812363689545,0.9848611773087288,-0.7815003932353997,-0.6324182055188426,1.2253707433167964,-1.2475255108360603,0.3136943096025565,-0.3416497006994942,-1.5686170512338569,-0.9825475313516987,0.641843596059362,-2.1014856235351527,-0.1379574988465994,-0.4837656807846341,-0.27431737235423637,-1.3115576473660102,1.3130534949388983,-0.8699289546412647,-1.7961843629339556,0.6608276945813985,0.3125049697823519,-0.5401589446295403
110,0.061510991408172705,-0.09770661904024454,0.27190736646138763,-0.27355141063563293,1.111362751246631,-0.40776396013019556,-0.022839340091492095,0.6210160244421999,-0.27600277369113196,0.9834862368266167,-0.7817128897134583,-0.6330929574584968,1.2251988649944243,-1.2484965922620725,0.3139496998687102,-0.3426860426883383,-1.5703957737461494,-0.9811072605345524,0.6424144535812524,-2.1027511749145913,-0.1393548875828214,-0.48543637430942965,-0.27237371258721443,-1.314412511650373,1.3166973665518122,-0.8721956449855569,-1.7988454917627614,0.6609108641329604,0.3122841090367213,-0.5415940454180532
111,0.061085452240664535,-0.09919446376358901,0.2714766432841107,-0.27601866262930863,1.1144796123948215,-0.41047682352464065,-0.02590343625167393,0.6233937106080687,-0.2749111114795779,0.9821142191905917,-0.7819266070310573,-0.6337659818658686,1.2250290042988374,-1.2494587431673065,0.31419626564903025,-0.343716152160143,-1.5721592997291292,-0.979670436765734,0.6429825472166599,-2.1040148502095146,-0.14074916421960887,-0.487107690389144,-0.2704395728547545,-1.3172650082464374,1.3203416262841197,-0.8744668823170533,-1.801505540640444,0.6610077737138021,0.3120661465768883,-0.5430293386123968
112,0.06065676216402105,-0.10068267026872069,0.271049997721012,-0.27848015422801037,1.1175949213545127,-0.41318692506545807,-0.028952845362727964,0.6257693927871566,-0.27382312504454803,0.9807451471113959,-0.7821415264471413,-0.6344372735676735,1.2248611380965422,-1.2504120034858963,0.31443406974282717,-0.3447400400606919,-1.5739077424002448,-0.9782370410749592,0.6435478976662976,-2.1052766392364393,-0.14214035439405714,-0.4887796095312353,-0.2685148822664121,-1.3201151147474626,1.3239862351669534,-0.8767425878153742,-1.8041644527199527,0.6611183280827867,0.3118510766609379,-0.5444648288967563
113,0.060224954625818984,-0.10217120680883443,0.2706274039212144,-0.2809358887783669,1.1207086571024945,-0.4158942362770502,-0.031987670968473256,0.6281430769620927,-0.2727388024186791,0.979379042985138,-0.7823576294893467,-0.6351068276763173,1.224695243478942,-1.2513564136478827,0.3146631756988169,-0.3457577178328858,-1.5756412146359433,-0.9768070546236575,0.6441105255907329,-2.10653653210159,-0.14352848362497497,-0.4904521123475178,-0.26659956998707657,-1.3229628094493098,1.3276311545421058,-0.8790226831410618,-1.80682217280178,0.6612424319726649,0.3116388937951118,-0.545900521179389
114,0.059790062935015084,-0.10366004173253383,0.27020883612694985,-0.28338586977078145,1.1238207986658966,-0.41859872880353655,-0.03500801566980502,0.6305147688920232,-0.27165813162629426,0.9780159288955982,-0.7825748979522626,-0.6357746395873382,1.2245312977625353,-1.2522920145691039,0.3148836478001566,-0.3467691974125587,-1.57735982896549,-0.9753804587086252,0.6446704516081824,-2.1077945191972374,-0.1449135773096021,-0.49212517955205637,-0.26469356524727866,-1.3258080713361968,1.3312763460506019,-0.8813070904344257,-1.809478647300482,0.66137999009889,0.3114295927281722,-0.5473364205848449
115,0.05935212026158343,-0.10514914348441037,0.2697942686749159,-0.2858301008334527,1.1269313251158135,-0.4213003744090115,-0.038013981126786243,0.6328844741081625,-0.27058110068472735,0.9766558266165274,-0.7827933138956501,-0.6364407049768289,1.2243692784890405,-1.2532188476411903,0.3150955510494829,-0.34777449122424786,-1.57906369756512,-0.9739572347655312,0.6452276962923597,-2.10905059119804,-0.14629566072035383,-0.49379879195902526,-0.2627967973532249,-1.3286508800665096,1.3349217716214896,-0.8835957323142497,-1.8121338242115899,0.6615309071682971,0.3112231684458266,-0.5487725324461753
116,0.058911159636188606,-0.10663848060563044,0.26938367599756374,-0.2882685857265514,1.130040215561076,-0.423999144977821,-0.041005668061084334,0.635252197909527,-0.269507697605609,0.975298757613941,-0.7830128596426207,-0.6371050197988395,1.2242091634254484,-1.2541369547216628,0.3152989511539496,-0.34877361217691366,-1.580752932252506,-0.972537364372275,0.645782280170374,-2.110304739057396,-0.1476747590016011,-0.4954729304805424,-0.260909195696578,-1.3314912159586803,1.3385673934608386,-0.8858885318763737,-1.814787653078915,0.6616950878876386,0.3110196161652004,-0.550208862297141
117,0.05846721394989348,-0.10812802173452928,0.2689770326243197,-0.2907013283365466,1.1331474491421683,-0.42669501251485425,-0.04398317625873366,0.637617945358848,-0.2684379103961161,0.9739447430484081,-0.7832335177777766,-0.6377675802827587,1.2240509305640064,-1.2550463781241266,0.3154939145102624,-0.34976657365960845,-1.5824276444815217,-0.9711208292522051,0.6463342237206788,-2.1115569540037944,-0.14905089716649353,-0.49714757612448807,-0.259030689764001,-1.3343290599771447,1.3422131740409335,-0.8881854126921631,-1.8174400849622594,0.6618724369719746,0.31081893132934973,-0.5516454158644285
118,0.058020315953900455,-0.10961773560721111,0.2685743131827427,-0.29312833267067984,1.1362530050252881,-0.4293879491458504,-0.046946604573205986,0.6399817212786608,-0.2673717270601863,0.9725938037773344,-0.7834552711453131,-0.6384283829306747,1.2238945581221354,-1.2559471606085595,0.31568050818970783,-0.35075338953709234,-1.5840879453372891,-0.9697076112771987,0.6468835473710682,-2.1128072275371803,-0.15042410009383164,-0.49882270999231676,-0.2571612091464812,-1.3371643937183841,1.3458590760896563,-0.8904862988068775,-1.82009107240553,0.6620628591529112,0.310621109601805,-0.5530821990598813
119,0.05757049825932504,-0.1111075910581549,0.2681754923996198,-0.29554960285158166,1.1393568623965498,-0.4320779271177165,-0.04989605092877199,0.6423435302475695,-0.26630913559969854,0.9712459603572418,-0.7836781028470844,-0.6390874245147146,1.2237400245422836,-1.256839345371691,0.315858799923176,-0.35173407414539515,-1.5857339455314916,-0.9682976924706083,0.6474302714967197,-2.1140555514253196,-0.15179439252499363,-0.5004983132768696,-0.25530068354844704,-1.339997199397062,1.3495050625800478,-0.8927911147379487,-1.8227405694052665,0.6622662591866868,0.3104261468611391,-0.5545192179727564
120,0.05711779333700051,-0.11259755702082523,0.26778054510200133,-0.29796514311202854,1.1424590004563269,-0.4347649187988565,-0.05283161232413775,0.6447033765966813,-0.2652501240156211,0.9699012330460406,-0.7839019962406347,-0.6397447020743614,1.2235873084917177,-1.2577229760374686,0.3160288580861744,-0.35270864228732285,-1.5873657553979394,-0.9668910550100774,0.6479744164182828,-2.1153019177001737,-0.15316179906092078,-0.5021743672601925,-0.2534490427966897,-1.342827459832261,1.353151096720047,-0.895099785473178,-1.8253885313795803,0.6624825418621028,0.31023403919555487,-0.555956478862009
121,0.05666223351731249,-0.1140876025282879,0.2673894462181779,-0.30037495778983697,1.145559398413737,-0.43744889667950987,-0.0557533848363413,0.6470612644062119,-0.2641946803091285,0.9685596418052981,-0.784126934937196,-0.6404002129137509,1.2234363888622544,-1.2585980966476096,0.3161907516838332,-0.3536771092279084,-1.5889834848883762,-0.9654876812302303,0.6485160024000113,-2.116546318654281,-0.15452634415916564,-0.5038508533113675,-0.2516062168491011,-1.3456551584338268,1.3567971419423994,-0.8974122364688599,-1.8280349151375086,0.6627116120082989,0.31004478289748666,-0.5573939881486134
122,0.05620385099006224,-0.11557769671383013,0.26700217077860056,-0.30277905132289173,1.1486580354812654,-0.4401298333720982,-0.058661463624894765,0.6494171975022576,-0.2631427924826883,0.9672212063024997,-0.7843529027996523,-0.6410539545989457,1.2232872447699346,-1.2594647516522357,0.31634455033590025,-0.35463949068980644,-1.5905872435685102,-0.964087553625236,0.6490550496479385,-2.117788746837145,-0.15588805213100526,-0.5055277528843594,-0.24977213580323604,-1.3484802791888253,1.3604431618947321,-0.8997283936478403,-1.8306796788487845,0.6629533745023724,0.30985837445821357,-0.558831752407923
123,0.055742677804357474,-0.1170678088115851,0.2666186939167462,-0.3051774282443061,1.1517548908695268,-0.44280770161157973,-0.061555942936158875,0.6517711794537321,-0.2620944485411185,0.9658859459133053,-0.7845798839404741,-0.6417059249551884,1.223139855554641,-1.260322985900589,0.3164903242617266,-0.35559580284863135,-1.592177140614262,-0.9626906548512533,0.6495915783080948,-2.1190291950516325,-0.15724694713862247,-0.5072050475158838,-0.24794672990470776,-1.3513028066481163,1.364089120429796,-0.9020481833975164,-1.833322782014024,0.6632077342768414,0.3096748105624807,-0.5602697783620758
124,0.055278745868529516,-0.11855790815716068,0.2662389908699295,-0.30757009317771156,1.154849943782166,-0.44548247425581056,-0.06443691610793682,0.654123213569467,-0.2610496364926176,0.9645538797237972,-0.784807862719622,-0.6423561220641344,1.2229942007796633,-1.2611728446318253,0.31662814426524133,-0.3565460623282391,-1.5937532848082148,-0.9612969677287558,0.6501256084647655,-2.1202676563503773,-0.15860305319235657,-0.5088827188232998,-0.24612992955542348,-1.3541227259130482,1.3677349815958688,-0.9043715325677839,-1.83596418543533,0.6634745963269537,0.30949408808312695,-0.5617080728724476
125,0.05481208695007559,-0.12004796418827242,0.2658630369800629,-0.3099570508326751,1.1579431734108978,-0.4481541242859126,-0.06730447557427548,0.6564733028954731,-0.2600083443497666,0.9632250265327226,-0.7850368237424227,-0.6430045442610629,1.2228502602312092,-1.2620143734658849,0.31675808171991726,-0.3574902861959525,-1.595315784536258,-0.9599064752447437,0.6506571601387894,-2.121504124032196,-0.15995639414802504,-0.510560748502529,-0.24432166532166616,-1.3569400226222785,1.3713807096273218,-0.9066983684689371,-1.8386038511873088,0.6637538657178412,0.3093162040757178,-0.563146642932157
126,0.05434273267562511,-0.12153794644538077,0.26549080769436617,-0.31233830600024165,1.1610345589306832,-0.45082262480664714,-0.07015871287046249,0.658821450212361,-0.258970560130506,0.9618994048537267,-0.785266751857417,-0.6436511901320684,1.222708013917867,-1.2628476183944395,0.31688020855372645,-0.3584284919577311,-1.5968647477844127,-0.9585191605548401,0.6511862532858957,-2.122738591638512,-0.1613069937043173,-0.5122391183260042,-0.24252186794202787,-1.3597546829387244,1.3750262689353465,-0.9090286188695271,-1.8412417425885064,0.6640454475915234,0.3091411557731823,-0.5645854956586249
127,0.05387071453092879,-0.1230278245723326,0.26512227856602694,-0.3147138635486001,1.1641240794950432,-0.4534879490467943,-0.0729997186382083,0.6611676580329192,-0.2579362718590865,0.9605770329175792,-0.7854976321541822,-0.644296058511232,1.2225674420700177,-1.263672625771912,0.3169945972340873,-0.35936069755328465,-1.598400282135831,-0.9571350069852794,0.6517129077950801,-2.123971052949792,-0.16265487540026113,-0.5139178101406513,-0.2407304683351996,-1.3625666935366423,1.3786716240988428,-0.9113622119941829,-1.8438778241732527,0.6643492471737595,0.3089689405804539,-0.5660246382861919
128,0.05339606386086941,-0.12451756831700712,0.2647574252548138,-0.31708372841887106,1.167211714231511,-0.45615007035953814,-0.0758275826310027,0.6635119285998476,-0.25690546756699567,0.9592579286743905,-0.7857294499611297,-0.6449391484777731,1.2224285251392013,-1.2644894423065687,0.31710132075280356,-0.3602869213511328,-1.5999224947679584,-0.9557539980347864,0.6522371434870174,-2.125201501981992,-0.16400006261276204,-0.515596805865903,-0.23894739760762135,-1.3653760415888445,1.3823167398554697,-0.9136990765213995,-1.8465120616639221,0.6646651697807542,0.30879955606911497,-0.5674640781587942
129,0.05291881186949318,-0.12600714753196632,0.26439622352764275,-0.3194479056210147,1.1702974422372217,-0.4588089622228573,-0.07864239371963613,0.6658542638836455,-0.2558781352938607,0.957942109795819,-0.7859621908432786,-0.6455804593531834,1.222291243797437,-1.2652981150516835,0.31720045261099616,-0.36120718214360975,-1.6014314924498518,-0.9543761173763501,0.6527589801125125,-2.1264299329830156,-0.1653425785542159,-0.5172760874917492,-0.23717258706099634,-1.3681827147540517,1.3859615810928572,-0.9160391415812972,-1.8491444219435995,0.6649931208257165,0.3086329999720461,-0.5689038227227027
130,0.05243898962006048,-0.12749653217511012,0.2640386492590984,-0.32180640022985685,1.1733812425746368,-0.4614645982399208,-0.08144423989787629,0.6681946655806512,-0.2548542630883284,0.9566295936772684,-0.7861958406000078,-0.6462199906983415,1.2221555789364986,-1.2660986913967711,0.3172920668040291,-0.3621214991418159,-1.602927381539644,-0.9530013488588941,0.6532784373509859,-2.1276563404291853,-0.1666824462701948,-0.5189556370768239,-0.23540596819967202,-1.3709867011643844,1.389606112839982,-0.9183823367533548,-1.8517748730291566,0.6653330058252772,0.3084692701780797,-0.5703438795193246
131,0.051956628035114985,-0.12898569231033644,0.2636846784319121,-0.324159217381232,1.1764630942674097,-0.4641169521394899,-0.08423320828829108,0.6705331351112321,-0.2538338390089224,0.9553203974400745,-0.7864303852627863,-0.6468577423106102,1.2220215116671482,-1.266891219058889,0.3173762378064308,-0.36302989197051705,-1.6044102679821473,-0.951629676508846,0.6537955348089958,-2.128880719021729,-0.16801968863720546,-0.5206354367465285,-0.233647472737891,-1.3737879894129956,1.3932503002587073,-0.9207285920641215,-1.8544033840447307,0.6656847304057656,0.30830836472666,-0.5717842561780712
132,0.05147175789657005,-0.13047459810820636,0.2633342871373966,-0.32650636226824187,1.179542976296385,-0.466765997776325,-0.08700938514820945,0.6728696736181248,-0.25281685112487906,0.9540145379336801,-0.7866658110928837,-0.647493714220918,1.2218890233183286,-1.2676757460740085,0.317453040556812,-0.36393238066299194,-1.6058802573065878,-0.9502610845316072,0.6543102920187948,-2.130103063683277,-0.16935432836052053,-0.5223154686911948,-0.23189703260691355,-1.3765865685418461,1.3968941086354887,-0.9230778379849095,-1.8570299251956073,0.6660482003093495,0.30815028180251,-0.5732249604092917
133,0.0509844098458113,-0.13196321984661458,0.26298745157583964,-0.3288478401376277,1.182620867595737,-0.46941170913159896,-0.08977285587581199,0.6752042819649204,-0.251803287516962,0.9527120317377986,-0.786902104579062,-0.6481279066908228,1.2217580954363148,-1.2684523207884508,0.31752255044278177,-0.36482898565582966,-1.6073374546244659,-0.9488955573129255,0.6548227284369211,-2.131323369554378,-0.1706863879720814,-0.5239957151642873,-0.2301545799620144,-1.3793824280296239,1.4005375033732463,-0.9254300054294703,-1.8596544677425002,0.6664233214000415,0.30799501973030646,-0.5746659999972762
134,0.050494614383814404,-0.1334515279114653,0.26264414805685743,-0.3311836562862554,1.185696747049245,-0.4720540603133163,-0.09252370501634341,0.677536960734698,-0.2507931362782565,0.9514128951645648,-0.7871392524352494,-0.6487603202095612,1.2216287097838276,-1.2692209918503914,0.3175848432858637,-0.36571972778367756,-1.608781964627532,-0.9475330794201733,0.6553328634428234,-2.1325416319900268,-0.17201588982847255,-0.5256761584806441,-0.22842004718935477,-1.382175557779809,1.4041804499834083,-0.9277850257516578,-1.8622769839762285,0.6668099996695739,0.3078425769693658,-0.5761073827933273
135,0.050002401871277045,-0.1349394927973541,0.26230435299970883,-0.3335138160577118,1.1887705934867046,-0.47469302555673853,-0.09526201626843969,0.6798677102288,-0.24978638551494345,0.9501171442606726,-0.7873772415981981,-0.6493909554910829,1.221500848339111,-1.2699818082014271,0.31763999532641335,-0.36660462827394097,-1.6102138915858755,-0.9461736356035315,0.6558407163375185,-2.1337578465562133,-0.17334285610896624,-0.5273567810147589,-0.2266933669127315,-1.384965948108885,1.4078229140781215,-0.9301428307430809,-1.8648974471927866,0.667208141243147,0.30769295210834025,-0.5775491167089032
136,0.049507802528764015,-0.13642708510825552,0.26196804293357134,-0.3358383248390107,1.1918423856804778,-0.4773285792248162,-0.09798787249056265,0.6821965304657511,-0.2487830233470544,0.9488247948094989,-0.7876160592251259,-0.6500198134710705,1.221374493294971,-1.2707348190682093,0.31768808320853903,-0.3674837087414362,-1.611633339346117,-0.9448172107970827,0.6563463063422831,-2.1349720090264825,-0.17466730881363723,-0.5290375651991036,-0.2249744720002046,-1.3877535897346986,1.411464861362638,-0.932503352630747,-1.867515831668803,0.6676176523850521,0.3075461438599284,-0.5789912097088314
137,0.04901084643686459,-0.13791427555821711,0.2616351944977805,-0.33815718805740785,1.19491210234218,-0.4799606958086279,-0.1007013557075353,0.6845234211803183,-0.2477830379092074,0.9475358623332135,-0.7878556926913439,-0.6506468953039465,1.2212496270577824,-1.2714800739541394,0.31772918396502803,-0.36835699118299814,-1.6130404113297014,-0.9434637901198143,0.656849652597376,-2.1361841153785175,-0.175989269761546,-0.5307184935224913,-0.22326329557060376,-1.390538473764967,1.4151062576278728,-0.9348665240746997,-1.870132112637387,0.668038439504174,0.30740215105560026,-0.5804336698045963
138,0.04851156353636114,-0.13940103497205977,0.2613057844420332,-0.34047041117732296,1.197979722119503,-0.48258934992782637,-0.1034025471171714,0.6868483818227095,-0.24678641735132437,0.9462503620948741,-0.788096129587871,-0.6512722023598676,1.2211262322464596,-1.2722176226311288,0.31776337500228,-0.36922449797204304,-1.614435210531283,-0.9421133588765341,0.657350774160794,-2.1373941617907386,-0.17730876058899017,-0.5323995485284805,-0.22155977099991533,-1.393320591685936,1.4187470687431403,-0.937232278165652,-1.8727462662643568,0.6684704091593755,0.3072609726403394,-0.5818765050476993
139,0.04800998362840809,-0.14088733428608477,0.2609797896265562,-0.3427779996973681,1.201045223593176,-0.4852145163310923,-0.1060915270969931,0.6891714115579106,-0.24579314983933073,0.9449683091005058,-0.7883373577190356,-0.6518957362217075,1.221004291691397,-1.2729475151314193,0.31779073408524966,-0.3700862518530888,-1.6158178395171994,-0.9407659025586999,0.6578496900070576,-2.138602144638922,-0.17862580274782303,-0.5340807128138202,-0.21986383192755002,-1.396099935351186,1.4223872606490664,-0.9396005484226181,-1.8753582696248474,0.6689134680647673,0.30712260766740423,-0.5833197235230935
140,0.04750613637472038,-0.14237314454878777,0.2606571870222413,-0.3450799591474809,1.2041085852740634,-0.4878361698965957,-0.10876837521103083,0.6914925092651584,-0.24480322355583728,0.9436897181011643,-0.7885793651000662,-0.6525174986820282,1.2208837884333767,-1.2736698017394663,0.31781133932240074,-0.37094227593623363,-1.61718840042403,-0.9394214068451636,0.6583464190260286,-2.1398080604928373,-0.17994041750383782,-0.5357619690269363,-0.21817541226249232,-1.398876496970592,1.426026799350681,-0.9419712687905442,-1.8779681006802955,0.6693675230948667,0.30698705529310977,-0.5847633333426941
141,0.04700005129777047,-0.1438584369215798,0.26033795371074697,-0.3473762950861611,1.2071697856004,-0.4904542856324657,-0.11143317021669946,0.6938116735375481,-0.243816626700805,0.9424146035949835,-0.7888221399546722,-0.6531374917400419,1.2207647057224467,-1.2743845329838825,0.317825269150674,-0.37179259369159456,-1.6185469949572304,-0.9380798576028344,0.658840980021758,-2.1410119061129085,-0.1812526259352173,-0.5374432998664589,-0.2164944461893319,-1.4016502690994315,1.4296656509106918,-0.9443443736379411,-1.8805757382557953,0.6698324812896487,0.30685431477163255,-0.5862073426389641
142,0.04649175778099311,-0.14534318267951551,0.26002206688456925,-0.34966701309780973,1.2102288029351613,-0.49306883867726903,-0.11408599007174562,0.6961289026817749,-0.24283334749219324,0.9411429798292057,-0.7890656707126148,-0.653755717598562,1.2206470270167697,-1.2750917596294424,0.31783260232047067,-0.37263722894370727,-1.6198937243898432,-0.9367412408872587,0.6593333917113634,-2.142213678446892,-0.18256244893104726,-0.539124688079791,-0.21482086817417778,-1.4044212446276465,1.4333037814429408,-0.946719797754521,-1.8831811620178238,0.6703082498594914,0.30672438544984026,-0.5876517595585762
143,0.045981285068997055,-0.14682735321202917,0.25970950384708114,-0.3519521187901696,1.2132856155635727,-0.49567980430049735,-0.11672691194126081,0.6984441947180049,-0.2418533741665913,0.9398748608021942,-0.7893099460072697,-0.6543721786609475,1.2205307359814448,-1.2757915326691456,0.31783341788065433,-0.37347620586588864,-1.6212286895612766,-0.9354055429431221,0.6598236727239374,-2.1434133746265798,-0.18386990718989327,-0.5408061164617175,-0.2131546129704554,-1.4071894167692565,1.4369411571060453,-0.9490974763488378,-1.8857843524523314,0.6707947361900211,0.30659726676214816,-0.5890965922561531
144,0.045468662267782824,-0.1483109200236779,0.2594002420125427,-0.3542316177918651,1.2163402016907534,-0.4982871579030635,-0.11935601220475524,0.700757547379879,-0.24087669497983427,0.9386102602654284,-0.7895549546731826,-0.6549868775280379,1.2204158164873,-1.2764839033163407,0.31782779516357335,-0.3743095489745637,-1.622551990876149,-0.9340727502046724,0.660311841599484,-2.1446109919645235,-0.1851750212184392,-0.542487567853056,-0.2114956156245869,-1.4099547790519236,1.440577744097225,-0.9514773450459354,-1.8883852908431937,0.6712918478468572,0.3064729582254043,-0.5905418488880847
145,0.04495391834496593,-0.14979385473489304,0.25909425890608206,-0.3565055157500416,1.2193925394394967,-0.5008908750178079,-0.12197336646328778,0.7030689581146425,-0.2399032982076031,0.9373491917254807,-0.7898006857436185,-0.6555998169950812,1.2203022526096619,-1.2771689229969074,0.31781581377010626,-0.37513728312355815,-1.6238637283031954,-0.9327428492960668,0.6607979167878849,-2.145806527950781,-0.18647781133018704,-0.5441690251393472,-0.2098438114815553,-1.4127173253066712,1.4442135086463161,-0.9538593398850033,-1.8909839592510216,0.6717994925802643,0.30635145943380576,-0.5919875376064241
146,0.04443708213000462,-0.15127612908273932,0.2587915321636491,-0.35877381832810123,1.2224426068481866,-0.5034909313100145,-0.12457904954664718,0.705378424083403,-0.23893317214600931,0.9360916684459744,-0.7900471284481048,-0.6562110000486566,1.2201900286270972,-1.2778466433414966,0.3177975535547327,-0.3759594334983584,-1.6251640013742306,-0.9314158270316432,0.6612819166478938,-2.1469999802496877,-0.1877782976442166,-0.545850471249587,-0.2081991361903523,-1.415477049657755,1.4478484170099752,-0.9562433973170418,-1.8935803404923246,0.6723175783297091,0.3062327700538471,-0.5934336665528626
147,0.043918182314431516,-0.1527577149216822,0.25849203953194155,-0.3610365312035359,1.2254903818688507,-0.5060873025779372,-0.12717313552058032,0.7076859421615129,-0.23796630511216485,0.9348377034495226,-0.7902942722099698,-0.6568204298635908,1.2200791290201334,-1.2785171161778288,0.3177730946106322,-0.37677602561034,-1.6264529091831679,-0.9300916704161188,0.6617638594461597,-2.14819134669665,-0.18907650008400445,-0.5475318891549978,-0.20656152570931055,-1.4182339465126859,1.4514824354660711,-0.9586294542025389,-1.8961744181190265,0.6728460132283304,0.3061168898193039,-0.594880243852784
148,0.04339724745208848,-0.15423858422436326,0.2581957588683059,-0.3632936600658547,1.2285358423653459,-0.5086799647533363,-0.12975569769406312,0.709991508939076,-0.23700268544473715,0.933587309519648,-0.7905421066438785,-0.6574281097998695,1.2199695384699534,-1.27918039352305,0.3177425172548136,-0.3775870852909668,-1.6277305503850867,-0.9287703666447167,0.6622437633562769,-2.149380625294966,-0.19037243837630075,-0.5492132618678416,-0.20493091631131993,-1.4209880105524086,1.4551155303082701,-0.9610174478091582,-1.8987661763983261,0.6733847056073216,0.3060038185262529,-0.5963272776094004
149,0.04287430595936393,-0.15571870908238417,0.25790266814061275,-0.36554521061460493,1.231578966111681,-0.5112688939020269,-0.1323268086266101,0.7122951207215754,-0.23604230150448977,0.9323404992026827,-0.7907906215533635,-0.6580340433995455,1.21986124185707,-1.2798365275761432,0.3177059020132779,-0.3783926386859615,-1.6289970231953494,-0.9274519031032206,0.6627216464578641,-2.150567814212669,-0.19166613205006341,-0.5508945724402708,-0.20330724458892868,-1.42373923672163,1.4587476678408113,-0.963407315809442,-1.9013556002929026,0.6739335640002297,0.3058935560281299,-0.5977747758979665
150,0.042349386115432076,-0.1571980617070987,0.25761274542710816,-0.3677911885574862,1.2346197307904736,-0.5138540662244369,-0.13488654013561854,0.7145967735306225,-0.235085141674809,0.9310972848096478,-0.7910398069283558,-0.6586382343836428,1.2197542242599786,-1.280485570710399,0.31766332960621624,-0.3791927122494501,-1.6302524253887614,-0.9261362673679621,0.6631975267356698,-2.151752911779398,-0.19295760043544846,-0.5525758039632214,-0.20169044745932907,-1.4264876202193024,1.4623788143734762,-0.9657989962785278,-1.9039426754414601,0.6744924971471747,0.3057861022308286,-0.5992227467600769
151,0.04182251606249333,-0.15867661443041348,0.2573259689162418,-0.37003159960855514,1.2376581139915395,-0.5164354580561775,-0.13743496330374372,0.7168964631048241,-0.23413119436221666,0.9298576784181132,-0.791289652942713,-0.6592406866490589,1.2196484709537898,-1.28112757546594,0.3176148809332469,-0.37998733273808066,-1.6314968542987731,-0.9248234472057388,0.6636714220787043,-2.152935916483292,-0.1942468626628555,-0.5542569395653434,-0.2000804621692282,-1.4292331564892602,1.466008936216751,-0.9681924276918817,-1.906527388139608,0.6750614139989893,0.305681457087841,-0.600671198198045
152,0.041293723806015356,-0.16015433970559695,0.25704231690647295,-0.37226644948652016,1.2406940932106165,-0.5190130458686252,-0.13997214848630113,0.7191941849007675,-0.23318044799686904,0.9286216918740362,-0.7915401499517472,-0.6598414042654653,1.219543967408842,-1.281762594542301,0.3175606370586936,-0.38077652720511895,-1.6327304068167214,-0.9235134305736666,0.6641433502793996,-2.1541168269679156,-0.19553393766202784,-0.5559379624119724,-0.19847722629960388,-1.4319758412110073,1.4696379996771847,-0.9705875489230487,-1.9091097253210745,0.6756402237212854,0.30557962059544164,-0.602120138169363
153,0.04076303721497423,-0.16163121010809722,0.2567617678060544,-0.37449574391312523,1.2437276458482205,-0.5215868062695148,-0.14249816531869267,0.7214899340941195,-0.2322328910330429,0.9273893367935796,-0.7917912884897533,-0.6604403914722066,1.219440699289296,-1.2823906807910668,0.31750067919690694,-0.38156032299452197,-1.633953179391106,-0.9222062056189667,0.6646133290327941,-2.1552956420292047,-0.19681884416120585,-0.557618855704139,-0.19688067777034585,-1.4347156702906598,1.47326597105294,-0.972984299241421,-1.9116896745392482,0.6762288356984464,0.30548059278791717,-0.6035695745812457
154,0.040230484022095024,-0.16310719833636805,0.25648430013279644,-0.3767194886116205,1.2467587492086336,-0.5241567160035455,-0.14501308272385313,0.7237837055808413,-0.23128851194960812,0.9261606245649087,-0.792043059267539,-0.6610376526751994,1.2193386524517122,-1.2830118872085627,0.31743508869763354,-0.38233874773499105,-1.6351652680269002,-0.9209017606786886,0.6650813759357447,-2.1564723606124456,-0.19810160068633323,-0.5592996026776182,-0.1952907548447826,-1.4374526398520386,1.4768928166295423,-0.9753826183100269,-1.914267223949046,0.6768271595375503,0.30538437373284316,-0.6050195152852571
155,0.039696091824091395,-0.16458227721270363,0.25620989251381043,-0.3789376893053193,1.2497873804990245,-0.5267227519529981,-0.1475169689197138,0.726075493978513,-0.2303472992504875,0.924935566349967,-0.7922954531699551,-0.6616331924438327,1.219237812943609,-1.2836262669286005,0.3173639470314338,-0.383111829334006,-1.636366768284893,-0.9196000842793712,0.6655475084861631,-2.1576469818092785,-0.19938222556031487,-0.5609801866020161,-0.19370739613409388,-1.4401867462279168,1.4805185026758212,-0.9777824461833381,-1.916842362289101,0.6774351050722253,0.3052909635264094,-0.6064699680720205
156,0.03915988808190365,-0.16605641968408175,0.25593852368523384,-0.3811503517162396,1.2528135168286978,-0.5292848911383656,-0.15000989142668003,0.7283652936277711,-0.2294092414651041,0.9237141730862307,-0.7925484612534291,-0.6622270155078678,1.2191381670020076,-1.2842338732152792,0.31728733577515256,-0.3838795959718419,-1.6375577752810602,-0.9183011651366425,0.666011744082279,-2.1588195048547303,-0.20066073690232583,-0.562660590779896,-0.19213054060160942,-1.4429179859514167,1.48414299544005,-0.9801837233050997,-1.919415078864272,0.6780525823664388,0.30520036228879527,-0.6079209406660131
157,0.03862190012093473,-0.16752959882301544,0.25567017249193674,-0.3833574815638294,1.255837135208475,-0.5318431107189956,-0.1524919170751198,0.7306530985938526,-0.22847432714881602,0.9224964554884415,-0.7928020747435026,-0.6628191267543416,1.21903970105196,-1.2848347594558391,0.31720533659744465,-0.3846420760955701,-1.6387383836859624,-0.9170049921547591,0.6664741000219275,-2.1599899291242757,-0.20193715262717044,-0.5643407985459429,-0.1905601275669936,-1.4456463557475612,1.487766261146281,-0.9825863905061826,-1.9219853635284634,0.6786795017182261,0.30511257015959714,-0.6093724407204448
158,0.03808215513128377,-0.16900178782841307,0.25540481788721137,-0.3855590845637737,1.2588582125502035,-0.534397387993745,-0.15496311201286037,0.7329389026682472,-0.22754254488333894,0.9212824240503175,-0.7930562850323712,-0.6634095312244722,1.2189424017050623,-1.2854289791535702,0.3171180312443585,-0.385399298413045,-1.6399086877241678,-0.9157115544260874,0.666934593501861,-2.161158254130927,-0.20321149044469086,-0.5660207932661645,-0.18899609671031695,-1.4483718525249734,1.4913882659908744,-0.9849903890024577,-1.9245532066677595,0.6793157736633556,0.3050275872933086,-0.6108244758122222
159,0.03754068016797671,-0.1704729600264466,0.2551424389324446,-0.38775516642688224,1.261876725666394,-0.5369477004016486,-0.15742354171269007,0.7352226993704546,-0.22661388327715684,0.9200720890462428,-0.7933110836764303,-0.6639982341105672,1.218846255757955,-1.2860165859207735,0.3170255015249806,-0.3861512918868778,-1.641068781173699,-0.9144208412305282,0.6673932416170868,-2.162324479522352,-0.20448376785922426,-0.5677005583371315,-0.1874383880760143,-1.45109447336773,1.4950089761392258,-0.9873956603926959,-1.9271185991838662,0.6799613089789378,0.30494541385485524,-0.6122770534369977
160,0.03699750215119356,-0.1719430888714282,0.2548830147967751,-0.3899457328580571,1.2648926512699858,-0.5394940255225988,-0.15987327097986276,0.7375044819498449,-0.22568833096592086,0.9188654605329353,-0.793566462393825,-0.664585240752937,1.2187512501908093,-1.2865976334717761,0.316927829297144,-0.3868980857283995,-1.6422187573655,-0.9131328420348838,0.6678500613602275,-2.163488605078025,-0.20575400216910789,-0.569380077185254,-0.18588694207673,-1.4538142155273646,1.4986283577226862,-0.9898021466564914,-1.9296815324778556,0.6806160186869764,0.30486605001518546,-0.6137301810043048
161,0.03645264786649191,-0.1734121479466949,0.25462652475673514,-0.39213078955533787,1.2679059659742367,-0.5420363410780397,-0.16231236395960202,0.7397842433876209,-0.22476587661283645,0.917662548351092,-0.7938224130620065,-0.6651705566368119,1.2186573721658018,-1.2871721756159988,0.31682509645320334,-0.38763970939161385,-1.6433587091829238,-0.911847546492171,0.6683050696209066,-2.164650630706402,-0.20702221046623143,-0.5710593332660957,-0.18434169949705076,-1.4565310764150197,1.5022463768356786,-0.9922097901522114,-1.9322419984342134,0.6812798140578663,0.3047894959469183,-0.6151838658327791
162,0.035906143965026394,-0.1748801109655012,0.25437294819587813,-0.3943103422090237,1.27091664629274,-0.5445746249316721,-0.16474088414460294,0.7420619763988813,-0.2238465089090392,0.916463362127013,-0.7940789277152949,-0.6657541873892656,1.2185646090255773,-1.2877402662510768,0.3167173849058794,-0.38837619256714223,-1.6444887290612373,-0.9105649444408812,0.668758283185157,-2.1658105564421306,-0.20828840963563577,-0.572738310063725,-0.1828026014971259,-1.459245053593751,1.5058629995330075,-0.9946185336149723,-1.934799989405183,0.681952606613838,0.30471575182004945,-0.6166381151454664
163,0.03535801696376362,-0.17634695177191947,0.2541222646043929,-0.39648439650087075,1.2739246686395647,-0.5471088550901733,-0.16715889438252862,0.74433767343478,-0.22293021657395956,0.9152679112742036,-0.7943359985424489,-0.6663361387761441,1.2184729482916996,-1.2883019593560323,0.31660477657417685,-0.38910756517616174,-1.6456089089871446,-0.9092850259041865,0.6692097187348528,-2.1669683824432866,-0.20955261635515762,-0.5744169910901024,-0.18126958961617626,-1.4619561447709786,1.5094781918273628,-0.9970283201546419,-1.9373554981954035,0.682634308132353,0.30464481779771735,-0.6180929360652178
164,0.034808293245692346,-0.17781264434174796,0.25387445357870486,-0.3986529581033633,1.2769300093295186,-0.549639009703928,-0.1695664568834995,0.7466113266847839,-0.22201698835567618,0.9140762049949541,-0.7945936178842432,-0.6669164166990013,1.2183823776630944,-1.2888573089845001,0.31648735336937667,-0.3898338573643384,-1.646719340498323,-0.908007781089096,0.6696593928471651,-2.1681241089886445,-0.21081484709511925,-0.5760953598845043,-0.1797426057758911,-1.4646643477910883,1.5130919196870152,-0.9994390932538704,-1.93990851804684,0.6833248306494487,0.30457669403202947,-0.6195483356101709
165,0.03425699906002858,-0.17927716278342637,0.25362949482106506,-0.40081603267905763,1.2799326445785342,-0.5521650670677727,-0.1719636332275727,0.7488829280790245,-0.22110681303125873,0.9128882522818982,-0.7948517782310546,-0.6674950271920423,1.2182928850144794,-1.2894063692580042,0.31636519718110795,-0.3905550994957565,-1.647820114682975,-0.9067332003855613,0.6701073219940396,-2.1692777364749762,-0.21207511811806276,-0.5777734000129833,-0.17822159228371437,-1.467369660628181,1.5167041490337052,-1.0018507967661487,-1.9424590426239998,0.6840240864630381,0.30451138065995054,-0.6210043206893205
166,0.03370416052241523,-0.18074048133895854,0.253387368139128,-0.4029736258799969,1.2829325505041735,-0.5546870056217523,-0.17435048437220974,0.7511524692907415,-0.2201996794070998,0.9117040619195489,-0.7951104722204558,-0.6680719764190751,1.2182044583947877,-1.289949194359288,0.31623838986350056,-0.3912713221468457,-1.648911322179393,-0.9054612743655335,0.670553522541697,-2.170429265414381,-0.2133334454785283,-0.5794510950678634,-0.17670649183602005,-1.4700720813789685,1.5203148457407207,-1.004263374913897,-1.9450070659994343,0.6847319881361631,0.30444887779925367,-0.6224608980981761
