epoch,W1[0],W1[1],W1[2],W1[3],W1[4],W1[5],W1[6],W1[7],W1[8],W1[9],W1[10],W1[11],W1[12],W1[13],W1[14],W1[15],W1[16],W1[17],W1[18],W1[19],W2[0],W2[1],W2[2],W2[3],W2[4],W2[5],W2[6],W2[7],W2[8],W2[9]
0,-0.8049479895286646,1.806381276689652,0.8674006864225924,-1.1462615733246801,0.533845158767285,-0.16516474762658476,1.4516748904789676,0.4134904098322162,-0.770934610295765,-0.4083128300576457,-0.17327500097099105,0.48931849954027967,-0.5862522606450661,0.04934641399630962,0.5312050651881122,1.4909786721629852,0.3273920224082358,0.6800427319035393,0.5600426113079652,-0.14320120050726542,-0.46118882625217206,0.5020244169814907,-0.8875375686506837,-0.15064636638395904,-2.8255759630881903,-0.07614343528107041,-1.426413662416508,0.5612554906248647,-1.2149503951715614,0.7073930295300803
1,-0.8051937064658402,1.8064904148335594,0.866808275348171,-1.146337922815729,0.5324131000608266,-0.16519768653997308,1.4512071419236146,0.41376975864026555,-0.77175115746512,-0.4078714227121115,-0.17351501764314545,0.48941453849065836,-0.5868361955031661,0.04927278718405042,0.5297897180583051,1.4909447038981183,0.32695555276878124,0.6803205426651305,0.5592364159216631,-0.14276533599296473,-0.46076015464747033,0.5041483045220776,-0.8863067348214996,-0.15028274771481734,-2.8238877426493434,-0.07432864729470842,-1.4244255025488333,0.5629577870643446,-1.2140589756087874,0.7080695492975085
2,-0.8054422795935318,1.8066013723159555,0.8662088421625433,-1.146415066411144,0.5309607562691451,-0.16523024621606078,1.4507336853228474,0.4140534088807539,-0.7725775475493791,-0.40742373956047384,-0.17375776101212526,0.48951202965985174,-0.5874269946744515,0.04919842392214217,0.5283544648559436,1.4909111150786771,0.3265140590823196,0.6806026188826754,0.558420656810068,-0.1423233255103876,-0.4603283225513829,0.506297455186852,-0.8850630439290907,-0.14991661325867464,-2.8221816494532574,-0.07249255747516685,-1.4224141368390018,0.5646802914342084,-1.213159584540506,0.7087534557351001
3,-0.8056937694508715,1.8067141955752288,0.8656022380232977,-1.146493020018926,0.5294876427113486,-0.16526240600044034,1.450254398948719,0.41434146622075596,-0.773413992426888,-0.4069696303148179,-0.17400328737431514,0.4896110054768332,-0.5880248027323483,0.049123310116035455,0.5268988329043176,1.4908779270049144,0.32606744147316347,0.680889065146435,0.55759513225748,-0.14187502302210886,-0.4598933096162386,0.5084723880431746,-0.8838062670694107,-0.14954795500169862,-2.820457361826312,-0.07063473308326593,-1.4203790957698572,0.5664234163167685,-1.2122521106752489,0.7094448801707218
4,-0.8059482382968486,1.8068289325809443,0.8649883098934552,-1.1465717999870564,0.5279932593865669,-0.1652941442716818,1.4497691576686316,0.41463403970478985,-0.774260710062739,-0.4065089399254701,-0.1742516545689391,0.4897114992344934,-0.5886297683031031,0.0490474313051565,0.525422334676525,1.4908451619984064,0.3256155975540655,0.6811799893885925,0.5567596349221609,-0.141420277901723,-0.45945509679894303,0.5106736357521799,-0.8825361706921654,-0.14917676655493786,-2.8187145513836467,-0.06875473021960914,-1.4183198977682787,0.56818758495087,-1.211336441817398,0.7101439564195378
5,-0.8062057501654729,1.806945632891729,0.8643669004095962,-1.14665142311775,0.5264770904144804,-0.1653254383928096,1.4492778328414637,0.41493124187805286,-0.7751179247062697,-0.406041508406575,-0.1745029220244875,0.48981354511003455,-0.5892420441926505,0.04897077265227916,0.5239244672568144,1.4908128434548455,0.32515842236556564,0.6814755030055196,0.5559139516633873,-0.1409589347674715,-0.4590136665117043,0.5129017449229013,-0.8812525165621738,-0.14880304331428518,-2.8169528829560826,-0.06685209354380418,-1.416236048904419,0.5699732314985307,-1.2104124649662242,0.7108508207843409
6,-0.8064663709224712,1.8070643477153245,0.8637378477465588,-1.146731906682156,0.5249386034557039,-0.16535626466021133,1.4487802922113346,0.4152331889139911,-0.7759858670941766,-0.40556717065536113,-0.17475715080619675,0.489917178185151,-0.5898617875167705,0.048893318932652155,0.5224047117827252,1.4907809958997522,0.3246958083153036,0.6817757209843964,0.5550578633643586,-0.1404908333099545,-0.45856900278590296,0.515157276468826,-0.8799550617288676,-0.14842678263378692,-2.8151720145266954,-0.06492635599274342,-1.414127042590173,0.571780801312196,-1.209480066428078,0.7115656120490012
7,-0.8067301683235053,1.8071851299708561,0.8631009854787715,-1.1468132684355101,0.5233772491116254,-0.16538659824984578,1.4482763997991,0.41554000074627234,-0.7768647746592068,-0.4050857562649677,-0.17501440366454044,0.4900224344658797,-0.5904891598344798,0.048815054522888465,0.5208625328676589,1.4907496450472724,0.32422764511752444,0.6820807620342596,0.5541911447510861,-0.14001580811381728,-0.45812109145022867,0.5174408059657967,-0.8786435585051394,-0.14804798401341213,-2.8133715971785813,-0.06297703849892981,-1.4119923592779633,0.5736107512016253,-1.2085391319430476,0.7122884714641148
8,-0.8069972120738864,1.8073080343533598,0.8624561424383113,-1.1468955266327445,0.5217924603033558,-0.16541641316061345,1.4477660157917047,0.4158518012052168,-0.7777548917443601,-0.404597089330721,-0.17527474508467952,0.49012935090198767,-0.5911243272845687,0.048735963389625714,0.5192973780035708,1.4907188178622284,0.32375381973303835,0.6823907487215463,0.5533135642074372,-0.13953368847331846,-0.45766992032430115,0.5197529240099966,-0.8773177544568855,-0.1476666493024904,-2.8115512750555047,-0.061003649709987603,-1.4098314661610951,0.5754635496992819,-1.2075895468275204,0.7130195427238418
9,-0.8072675738897522,1.807433117400605,0.8618031425698098,-1.1469787000445553,0.5201836516295024,-0.16544568215474714,1.4472489964295472,0.41616871815872275,-0.7786564698224884,-0.40410098824976887,-0.17553824133680548,0.4902379654057455,-0.5917674607251717,0.04865602907796895,0.5177086769435281,1.4906885426256045,0.3232742163099335,0.6827058076101796,0.5524248835865491,-0.13904429820170547,-0.45721547942909996,0.5220942365745624,-0.8759773924047405,-0.14728278292012997,-2.809710685337327,-0.05900568571066916,-1.407643816877123,0.5773396773229227,-1.206631196134223,0.7137589719328047
10,-0.8075413275606572,1.807560437562244,0.8611418047823657,-1.147062807973931,0.5185502187025637,-0.16547437669507592,1.446725193892046,0.4164908836577049,-0.7795697677211356,-0.4035972655140044,-0.17580496052729555,0.49034831686991276,-0.5924187358762211,0.04857523469972984,0.5160958410639612,1.490658849003654,0.32278871612538407,0.6830260694062291,0.551524858018885,-0.13854745543434815,-0.456757761215641,0.52446536536314,-0.8746222104396677,-0.14689639209403887,-2.8078494582323184,-0.05698262974886271,-1.405428851215877,0.5792396268338964,-1.2056639648314618,0.7145069075617992
11,-0.8078185490135127,1.8076900552713049,0.8604719427986628,-1.147147870273137,0.5168915374638287,-0.16550246687901168,1.4461944561816393,0.4168184340860383,-0.780495051852405,-0.40308572749624044,-0.17607497265058195,0.4904604451847408,-0.5930783334645949,0.048493562921479653,0.514458262706522,1.4906297681208238,0.32229719752894054,0.6833516691071518,0.5506132357172643,-0.13804297242560898,-0.4562967608134618,0.5268669481584519,-0.8732519419542566,-0.1465074871192936,-2.8059672169887038,-0.05493395196732232,-1.403185994834039,0.5811639034894459,-1.2046877380034475,0.7152635003909348
12,-0.8080993163777944,1.807822033018041,0.8597933650015438,-1.1472339073611553,0.5152069634767792,-0.16552992136910366,1.4456566270064928,0.4171515103149714,-0.7814325964475796,-0.40256617422962915,-0.17634834964161775,0.4905743912537686,-0.5937464393717274,0.04841099595243668,0.5127953144995718,1.4906013326366967,0.3217995358877455,0.6836827461555975,0.5496897577792699,-0.13753065533946277,-0.45583247630061247,0.5292996391636619,-0.8718663156917789,-0.14611608163872955,-2.804063577928033,-0.05285910914308426,-1.4009146589784196,0.5831130252870683,-1.2037024010737702,0.7160289034386664
13,-0.8083837100519154,1.8079564354261293,0.8591058742783394,-1.1473209402415676,0.5134958311991222,-0.165556707320003,1.4451115456622454,0.4174902578619395,-0.782382683796149,-0.40203839918036205,-0.17662516542879933,0.49069019700816047,-0.594423244783397,0.048327515532213025,0.5111063486594505,1.490573576827166,0.32129560353417336,0.6840194445977276,0.5487541579875138,-0.13701030403391895,-0.45536490899699383,0.531764109334007,-0.8704650558152829,-0.14572219294677044,-2.80213815050328,-0.05075754443680572,-1.3986142402203836,0.5850875231987217,-1.2027078400542757,0.7168032718750219
14,-0.8086718127706388,1.808093329331198,0.8584092678633176,-1.1474089905208757,0.5117574532337341,-0.16558279030167744,1.4445590469131793,0.41783482705366887,-0.7833456044888131,-0.4015021890137346,-0.1769054959871813,0.4908079054192994,-0.5951089463413495,0.04824310291845003,0.5093906962718235,1.4905465366700579,0.32078526971646076,0.6843619132459615,0.5478061626083338,-0.13648171183934665,-0.45489406378304353,0.5342610466958144,-0.8690478819992536,-0.1453258423186659,-2.8001905373848612,-0.04862868715456575,-1.3962841202042038,0.5870879413923641,-1.2017039418218132,0.7175867629171394
15,-0.8089637096733778,1.8082327838616468,0.857703337178687,-1.1474980804272394,0.5099911195589798,-0.1656081342187151,1.4439989608732666,0.41818537319341587,-0.7843216576639422,-0.4009573233537145,-0.17718941939179086,0.4909275605093148,-0.5958037462963484,0.048157738874376826,0.5076476665535871,1.4905202499354289,0.32026840055296646,0.6847103058460234,0.5468454901895944,-0.13594466533085825,-0.4544199494459401,0.5367911566496251,-0.8676145095466384,-0.14492705536727304,-2.798220334578146,-0.04647195252500794,-1.393923665412489,0.5891148374379792,-1.20069059442555,0.7183795357050334
16,-0.8092594883732015,1.8083748705216942,0.8569878676746668,-1.1475882328296159,0.5081960967390817,-0.16563270122555543,1.4434311128876234,0.418542056732133,-0.7853111512568623,-0.40040357453622005,-0.1774770158708168,0.49104920735917984,-0.5965078526621693,0.04807140365633226,0.5058765460960065,1.4904947562807653,0.3197448589907803,0.685064781248108,0.5458718513583817,-0.1353989440949713,-0.45394257905568003,0.5393551622537032,-0.8661646495343418,-0.14452586242969584,-2.7962271315763827,-0.04428674149508345,-1.3915322269522499,0.5911687824948667,-1.1996676874277983,0.7191817511552846
17,-0.809559239026328,1.8085196632765708,0.8562626386692285,-1.147679471257273,0.5063716271154576,-0.16565645163748863,1.4428553234149817,0.41890504344328977,-0.786314402251216,-0.3998407073563905,-0.17776836785841277,0.49117289211397064,-0.5972214793699712,0.04798407700129671,0.5040765980900089,1.4904700973513259,0.3192145047694924,0.6854255035819306,0.5448849486195124,-0.1348443204908439,-0.453461970373582,0.5419538044837188,-0.8646980089906232,-0.14412229898628906,-2.7942105115534144,-0.04207244054807616,-1.3891091403656226,0.593250361476559,-1.1986351122815737,0.7199935717901054
18,-0.809863054401851,1.8086672386397373,0.8555274231882118,-1.1477718199196472,0.5045169279802331,-0.16567934383726618,1.4422714079118888,0.4192745046010057,-0.7873317369315107,-0.3992684788102196,-0.1780635600468138,0.49129866198482547,-0.5979448464223796,0.04789573811448788,0.5022470615348209,1.4904463168858617,0.3186771943910331,0.685792642435358,0.5438844761559218,-0.13428055940646488,-0.4529781462959866,0.5445878424638376,-0.863214291108197,-0.14371640611474085,-2.7921700516009995,-0.03982842154806255,-1.3866537254697822,0.5953601731892615,-1.1975927627483964,0.7208151615389654
19,-0.8101710299513986,1.808817675761979,0.8547819878066378,-1.147865303726505,0.502631190733464,-0.16570133417717275,1.441679176719451,0.41965061716107027,-0.7883634911358094,-0.398686637831027,-0.17836267943741968,0.4914265652470872,-0.5986781800465126,0.04780636565708234,0.5003871504314619,1.4904234608279612,0.31813278109660525,0.6861663730362394,0.5428701196321644,-0.1337074180102803,-0.45249113533615093,0.5472580536638396,-0.8617131954972345,-0.1433082309821705,-2.7901053230160833,-0.03755404161548378,-1.3841652862311513,0.5974988304391969,-1.1965405353601701,0.7216466855096676
20,-0.810483263878374,1.8089710565221826,0.8540260924921663,-1.1479599483083667,0.5007135800259809,-0.16572237687641686,1.4410784349535541,0.4200335639443285,-0.789410010507341,-0.39809492502135996,-0.17866581539044768,0.49155665123404846,-0.5994217128450563,0.04771593773413419,0.4984960529629684,1.4904015774432564,0.31758111485185553,0.686546876436968,0.5418415560024437,-0.1331246454988527,-0.45200097214758533,0.5499652340562036,-0.8601944184829083,-0.14289782737841725,-2.7880158916439077,-0.03524864303909042,-1.3816431106796396,0.5996669601036574,-1.1954783299293166,0.7224883097254421
21,-0.8107998572063746,1.809127465619562,0.8532594904517946,-1.148055780037132,0.4987632328902074,-0.1657424239137098,1.440468982399636,0.4204235338218032,-0.7904716507436111,-0.3974930723810552,-0.17897305967270066,0.4916889703256477,-0.6001756839443588,0.04762443188277171,0.4965729306636444,1.490380717442736,0.317022042341565,0.6869343397012027,0.5407984533247985,-0.13253198284128156,-0.4515076980923455,0.5527101982263353,-0.8586576534526014,-0.14248525629395165,-2.7859013182834693,-0.032911553230168054,-1.3790864708693569,0.6018652031599308,-1.19440605011172,0.7233402008242711
22,-0.8111209138463165,1.8092869906670364,0.8524819279830548,-1.1481528260468463,0.4967792578618025,-0.16576142491491758,1.4398506134132292,0.42082072190079955,-0.7915487778413645,-0.39688080303234613,-0.17928450650293187,0.49182357393138826,-0.600940339138363,0.047531825060764754,0.49461691758011145,1.4903609341123953,0.31645540697529273,0.6873289560920626,0.5397404705833045,-0.1319291625212647,-0.4510113618580767,0.5554937794282719,-0.8571025912584281,-0.14207058654611363,-2.783761159162497,-0.030542084725670132,-1.3764946228930182,0.6040942146655582,-1.1933236040274393,0.724202525716273
23,-0.8114465406617264,1.8094497222854133,0.8516931443311535,-1.1482511142545289,0.4947607340955481,-0.1657793270356909,1.439223116827668,0.42122532971109644,-0.7926417683355004,-0.3962578309430815,-0.1796002525942168,0.4919605144666644,-0.6017159310270208,0.04743809363556776,0.4926271194274843,1.4903422834494535,0.3158810489055702,0.6877309252609743,0.5386672575204153,-0.13131590827785286,-0.4505120201279114,0.5583168295772591,-0.8555289206812956,-0.14165389545767212,-2.781594966489861,-0.028139535247680238,-1.37386680695813,0.6063546636825958,-1.1922309049445818,0.7250754511945471
24,-0.8117768475315791,1.809615754197951,0.8508928715537007,-1.1483506733809745,0.492706710479558,-0.16579607483900283,1.4385862758705377,0.4216375653901663,-0.7937510095297555,-0.39562386064932487,-0.1799203971926631,0.4920998453215837,-0.6025027191476438,0.047343213373957464,0.49060261274461886,1.4903248243053477,0.3152988050604297,0.6881404534361997,0.5375784544818554,-0.1306919348461469,-0.4500097383076416,0.5611802191695604,-0.8539363289633567,-0.14123526959200947,-2.7794022890941092,-0.025703187827505622,-1.3712022475339936,0.6086472331376835,-1.1911278720321965,0.7259591434944228
25,-0.8121119474099696,1.8097851833248002,0.8500808343949057,-1.1484515329714255,0.49061620475262446,-0.1658116101675557,1.4379398680906577,0.4220576438661822,-0.7948768997166495,-0.39497858697883864,-0.18024504211170037,0.49224162082126943,-0.6033009700974266,0.047247159432399786,0.48854244405309466,1.4903086185357015,0.31470850919224813,0.6885577536098996,0.5364736922768073,-0.13005694769941045,-0.44950459131493037,0.5640848371187122,-0.8523245024163947,-0.14081480554955858,-2.7771826731576983,-0.023232311003675222,-1.3685001535796248,0.6109726196087685,-1.190014431188548,0.7268537677955516
26,-0.81245195638181,1.8099581098767303,0.8492567501713738,-1.1485537234159915,0.4884882026303651,-0.16582587201105725,1.4372836652976206,0.42248578703736245,-0.7960198483838303,-0.39432169477722,-0.18057429176109352,0.4923858961765107,-0.6041109576451432,0.04714990634829744,0.4864456290253977,1.4902937311574371,0.314109991945113,0.6889830457223961,0.5353525920564964,-0.12941064279432524,-0.44899666443568476,0.5670315904961725,-0.8506931271144192,-0.14039261083046428,-2.7749356630574264,-0.020726159104185873,-1.3657597188638435,0.6133315330282708,-1.1888905159516656,0.7277594876607356
27,-0.8127969937136275,1.8101346374474434,0.8484203286719239,-1.1486572759696807,0.4863216569467875,-0.1658387963684129,1.4366174335161732,0.4229222239459662,-0.7971802764035582,-0.393652858638759,-0.1809082531697139,0.49253272742349935,-0.6049329628297465,0.047051428032288865,0.4843111516686852,1.4902802305131717,0.31350308094315416,0.6894165568420706,0.5342147652146806,-0.12875270632140445,-0.44848605425309107,0.5700214041629188,-0.8490418896795594,-0.1399688047687969,-2.7726608023225854,-0.01818397262451752,-1.3629801223900675,0.6157246962913195,-1.187756068499624,0.7286764644047947
28,-0.8131471818984165,1.8103148731036616,0.8475712720741609,-1.1487622227718846,0.48411548681897076,-0.16585031610493775,1.4359409329580086,0.42336719094498926,-0.7983586162016184,-0.39297174264442747,-0.18124703600098163,0.4926821713512532,-0.6057672740433077,0.04695169776178988,0.4821379635315459,1.4902681884429965,0.3128876009025533,0.6898585213390883,0.5330598133140002,-0.12808281446290345,-0.44797286965520433,0.5730552202770195,-0.8473704781712079,-0.13954351954401903,-2.770357634723443,-0.01560497871422983,-1.360160528939747,0.6181528447564109,-1.1866110407486197,0.729604856386135
29,-0.8135026466933586,1.8104989274720398,0.8467092748808936,-1.1488685968651329,0.48186857684378376,-0.1658603608047603,1.43525391801386,0.4238209318553079,-0.7995553119014597,-0.3922780001097927,-0.1815907525597586,0.4928342854151708,-0.6066141870954028,0.046850688175992285,0.4799249829423309,1.4902576804636884,0.3122633737702284,0.6903091810508575,0.5318873280426392,-0.12740063316093467,-0.44745723292739226,0.5761339976605246,-0.845678583089305,-0.13911690127578905,-2.7680257055038493,-0.012988391786366052,-1.357300089749906,0.6206167256244441,-1.1854553955575315,0.7305448182129939
30,-0.8138635171490697,1.810686914821806,0.8458340238798715,-1.1489764322129155,0.4795797763369313,-0.16586885661866976,1.4345561372691353,0.424283698110682,-0.8007708194388019,-0.3915712733460825,-0.1819395177893249,0.49298912763499586,-0.6074740052556925,0.046748371272558924,0.4776710942889396,1.4902487859553437,0.3116302188925033,0.690768785436815,0.530696891206292,-0.12670581789890484,-0.4469392809363493,0.5792587110071914,-0.8439658985036529,-0.13868911120857594,-2.7656645627730096,-0.010333414265432321,-1.3543979433419318,0.6231170971805701,-1.1842891080483162,0.7314964998555978
31,-0.8142299256288651,1.8108789531418623,0.844945198130748,-1.1490857637163352,0.47724789862616146,-0.16587572610775553,1.4338473335467192,0.42475574888765194,-0.80200560664135,-0.3908511934381146,-0.1822934492569098,0.4931467564752859,-0.6083470392710407,0.04664471840628206,0.4753751473514112,1.4902415883553446,0.3109879532174103,0.6912375917197757,0.5294880747610365,-0.12599801349985507,-0.44641916641281876,0.5824303499105584,-0.8422321233222206,-0.1382603269929543,-2.7632737590728103,-0.0076392374913979615,-1.3514532165205713,0.625654727881626,-1.1831121670522717,0.7324600456546839
32,-0.8146020078163445,1.811075164210889,0.8440424689836443,-1.149196627229328,0.47487172041219144,-0.16588088808329873,1.4331272439809855,0.42523735121694095,-0.8032601532675753,-0.39011738004334756,-0.18265266712607067,0.4933072307062833,-0.6092336073530795,0.04653970029000193,0.4730359567003084,1.4902361753594833,0.3103363915346363,0.6917158650106868,0.5282604408933671,-0.1252768539458008,-0.44589705934058294,0.5856499176897187,-0.8404769627125329,-0.1378307440708393,-2.7608528531385015,-0.004905042798979885,-1.3484650255640631,0.6282303952701387,-1.1819245766929092,0.7334355932159964
33,-0.8149799027093932,1.8112756736587854,0.8431255001342078,-1.149309059572154,0.4724499812128327,-0.1658842574435087,1.4323956001275329,0.4257287800725047,-0.8045349509977875,-0.38936944121692035,-0.18301729411402182,0.4934706092428721,-0.6101340351316487,0.046433286998114685,0.4706523011757119,1.4902326391299583,0.3096753467575146,0.6922038784131855,0.5270135421543684,-0.12454196222274519,-0.4453731484596952,0.5889184299877952,-0.8387001296914328,-0.13740057717230153,-2.758401411872028,-0.0021300027934348167,-1.3454324776284596,0.6308448846939375,-1.1807263581168792,0.7344232721794903
34,-0.8153637525984712,1.8114806110175368,0.8421939477206195,-1.1494230985428227,0.46998138290793834,-0.1658857450078494,1.4316521281136503,0.4262303184338475,-0.8058305033699087,-0.3886069732682236,-0.18338745543180374,0.49363695095907545,-0.6110486555690133,0.04632544797303409,0.46822292346366984,1.4902310765098268,0.3090046302518774,0.6927019131038697,0.5257469216557902,-0.12379295019667994,-0.44484764289232204,0.5922369131156042,-0.8369013468997593,-0.13697006193196054,-2.7559190125488606,0.0006867171538121344,-1.3423546723914732,0.6334989878083406,-1.1795175513851215,0.7354232028510499
35,-0.8157537030268129,1.8116901097593412,0.8412474604686202,-1.149538782926078,0.46746458940516655,-0.1658852573498796,1.4308965488350627,0.42674225731664656,-0.8071473256514742,-0.3878295606552993,-0.18376327870495812,0.4938063144753034,-0.6119778088291955,0.046216152035008985,0.4657465297891971,1.490231589243347,0.3083240522170256,0.6932102583836451,0.5244601133366387,-0.12302941852659692,-0.444320773899929,0.5956064021102973,-0.8350803485797779,-0.13653945663328176,-2.7534052452807805,0.003545957164127997,-1.3392307039636149,0.6361935008356538,-1.1782982175371002,0.7364354946835691
36,-0.8161499027298992,1.811904307319533,0.8402856798912856,-1.1496561524995246,0.464898226449175,-0.16588269662973615,1.4301285782050954,0.42726489576608784,-0.8084859446384234,-0.387036775924196,-0.1841448938721292,0.493978757915302,-0.6129218420961418,0.04610536739573883,0.4632217897473958,1.490234284201465,0.3076334221245332,0.6937292116949157,0.5231526423098121,-0.12225095662131699,-0.44379279678086325,0.5990279384759044,-0.8332368827745316,-0.13610904408937718,-2.750859715758713,0.006448560837266184,-1.3360596630969725,0.6389292225543718,-1.177068440841662,0.7374602445932626
37,-0.8165525035512664,1.8121233451015177,0.839308240550992,-1.1497752480364314,0.46228088159973846,-0.16587796042762507,1.429347927463014,0.4277985408066183,-0.8098468983702035,-0.3862281797013222,-0.18453243305875164,0.4941543386294814,-0.6138811093337899,0.045993061676272394,0.46064733629698995,1.4902392736114867,0.3069325492210854,0.6942590785987266,0.5218240252992965,-0.12145714264780186,-0.44326399291763746,0.6025025675696868,-0.8313707137696232,-0.13567913366911874,-2.7482820483013577,0.009395372933136463,-1.3328406397246857,0.6417069519879904,-1.1758283312486668,0.73849753509608
38,-0.8169616603314169,1.8123473684605842,0.8383147703917773,-1.1498961113046908,0.45961110440743225,-0.16587094157995655,1.4285543035489667,0.4283435073410549,-0.8112307357495906,-0.38540332074784245,-0.18492603042270872,0.49433311288101633,-0.6148559709803948,0.04587920192971973,0.45802176594353894,1.4902466752897394,0.30622124310204185,0.6948001727052484,0.5204737711794812,-0.12064754359955483,-0.44273467198338556,0.6060313355950487,-0.8294816247992715,-0.13525006347748914,-2.7456718892369807,0.012387236716687313,-1.3295727258669972,0.6445274857607657,-1.1745780270560806,0.7395474322481096
39,-0.8173775307662606,1.8125765266630658,0.8373048911511048,-1.1500187850613688,0.4568874068189486,-0.165861528020067,1.4277474095536482,0.4289001179911622,-0.8126380160544385,-0.3845617360862533,-0.18532582196855368,0.49451513549082166,-0.6158467935687287,0.04576375466935466,0.4553436391428214,1.49025661287574,0.30549931436292027,0.6953528155502162,0.5191013816292572,-0.11982171543473756,-0.4422051743170073,0.6096152861585068,-0.8275694210397745,-0.13482220269909176,-2.7430289106473045,0.015424990930158216,-1.32625501894266,0.6473916150850998,-1.1733176978076403,0.7406099833729077
40,-0.8178002752311706,1.8128109728169135,0.8362782188608872,-1.1501433130422143,0.4541082638478149,-0.16584960262582027,1.426926945251541,0.42946870287091415,-0.8140693083273081,-0.3837029512104585,-0.1857319453265841,0.4947004594372091,-0.6168539492629934,0.04564668590273337,0.4526114809583635,1.4902692160660624,0.3047665753364934,0.6959173364090926,0.5177063519147209,-0.11897920329473256,-0.4416758734764152,0.613255456344898,-0.8256339329147189,-0.13439595411358388,-2.7403528145038654,0.018509466354245684,-1.3228866255274203,0.6503001223425509,-1.172047547436464,0.7416852145577925
41,-0.8182300565663742,1.8130508637692835,0.8352343644485034,-1.15026973994544,0.4512721145502515,-0.16583504307677327,1.4260926077273308,0.43004959928270253,-0.815525190627603,-0.38282648039193184,-0.18614453949274792,0.4948891354057387,-0.6178778153024714,0.04552796117250427,0.4498237820108144,1.4902846208457332,0.30402284092367665,0.6964940720398258,0.5162881718154931,-0.11811954181506364,-0.44114717897900124,0.6169528722616993,-0.8236750197373425,-0.1339717567914467,-2.7376433372284703,0.021641481917031934,-1.3194666656042104,0.6532537772177913,-1.1707678176700431,0.7427731279003544
42,-0.8186670398190229,1.8132963599662664,0.8341729344494454,-1.1503981114090271,0.4483773633501288,-0.1658177217240318,1.4252440921058598,0.43064315132573455,-0.8170062491294742,-0.381931827095913,-0.18656374452504546,0.49508121128449606,-0.6189187733411203,0.04540754560463355,0.44697899976082583,1.4903029697145527,0.3032679295268407,0.6970833663441208,0.5148463267108813,-0.11724225554184135,-0.4406195392379048,0.6207085440001028,-0.8216925737163316,-0.1335500889779135,-2.7349002547103805,0.024821840306918353,-1.3159942773525153,0.6562533323422604,-1.1694787917118419,0.7438736984857938
43,-0.8191113919369071,1.813547625269374,0.8330935318441324,-1.1505284739807369,0.44542238176142146,-0.1657975054764126,1.4243810923967308,0.43124970940480223,-0.8185130770473595,-0.38101848452300663,-0.18698970119177924,0.495276731599762,-0.619977208671485,0.045285403964819025,0.4440755601712462,1.4903244119052743,0.3025016640945866,0.6976855699361397,0.5133802988433198,-0.11634685946822039,-0.44009344470183054,0.6245234599574473,-0.8196865243519237,-0.13313147117198776,-2.7321233878134654,0.028051323043376698,-1.3124686225269986,0.6592995184018452,-1.168180798214187,0.7449868710752601
44,-0.8195632814083981,1.8138048267228657,0.831995757032327,-1.1506608750799554,0.4424055105611708,-0.1657742557070699,1.4235033024654038,0.43186962962650327,-0.8200462733696324,-0.38008593629304543,-0.1874225505667041,0.49547573688681357,-0.6210535093204921,0.04516150072391047,0.44111185979873907,1.4903491035900291,0.3017238732873579,0.6983010396065134,0.5118895687777066,-0.11543285970672455,-0.4395694312049695,0.6283985804628808,-0.8176568432494066,-0.13271646940623308,-2.7293126084067243,0.03133068495719191,-1.3088888924778004,0.6623930386608079,-1.1668742155561584,0.7461125564852219
45,-0.8200228778428371,1.8140681342654519,0.8308792089594317,-1.1507953629504293,0.4393250624706782,-0.16574782818534017,1.4226104171433052,0.43250327306887293,-0.8216064413794748,-0.37913365728960396,-0.18786243356585164,0.4956782629904124,-0.6221480650039228,0.045035800133195844,0.4380862683693183,1.4903772080707949,0.30093439277349004,0.6989301376684927,0.5103736170763554,-0.11449975431469249,-0.43904808353194363,0.6323348306458785,-0.8156035493768353,-0.13230569873132944,-2.7264678459510647,0.03466064803016196,-1.305254314866765,0.6655345628524767,-1.1655594764387063,0.7472506276381112
46,-0.8204903514852432,1.8143377203793563,0.8297434864097223,-1.1509319866028969,0.4361793254073764,-0.16571807303920386,1.4217021334900564,0.4331510049092723,-0.8231941869408141,-0.3781611146850869,-0.18830949042056153,0.4958843402894227,-0.623261265925663,0.044908266310447094,0.4349971318966639,1.4904088959490447,0.30013306666539424,0.6995732311720202,0.5088319262102725,-0.11354703429149485,-0.43853003920053435,0.6363330924856729,-0.8135267147928912,-0.13189982690718355,-2.723589094673947,0.038041894543113866,-1.3015641611350672,0.6687247203861246,-1.1642370728070894,0.7484009152651799
47,-0.8209658726589134,1.8146137596691776,0.8285881894822288,-1.1510707957465605,0.4329665663744262,-0.16568483475445964,1.4207781522213998,0.43381319339430113,-0.8248101165260238,-0.3771677691678245,-0.18876386008106324,0.49609399283998057,-0.624393501407251,0.044778863337644095,0.4318427764063203,1.4904443452689906,0.29931974910548115,0.7002306909704894,0.5072639827282682,-0.11257418476753338,-0.4380159924621739,0.640394195979004,-0.8114264708691252,-0.1314995782995573,-2.7206764213611927,0.0414750594807996,-1.2978177547780274,0.67196409281916,-1.162907561107846,0.7495632032437944
48,-0.8214496111292459,1.8148964283624685,0.8274129212654634,-1.1512118407083054,0.429685036059411,-0.1656479522174435,1.4198381793166888,0.43449020863450494,-0.8264548349611583,-0.3761530763940361,-0.18922567954483677,0.496307237431733,-0.6255451583328221,0.04464755537130756,0.42862151233283075,1.4904837416280494,0.29849430601111104,0.7009028906240171,0.5056692797059593,-0.11158068640630509,-0.4375066985166651,0.6445189093641648,-0.8093030150281754,-0.13110573797763297,-2.7177299737917395,0.044960722142999954,-1.294014480482098,0.6752532055445115,-1.161571567883699,0.7507372235534252
49,-0.8219417353819607,1.8151859037234852,0.8262172897274487,-1.1513551723385371,0.426332974217334,-0.16560725880889757,1.4188819278198714,0.43518242120577855,-0.8281289428638631,-0.3751164886888073,-0.18969508310396258,0.49652408255191494,-0.6267166193943513,0.044514306766366835,0.4253316396603228,1.4905272782473227,0.29765661698724855,0.7015902051222407,0.5040473194969162,-0.11056601704193889,-0.43700297793322884,0.6487079283414433,-0.8071566180157039,-0.13071915600354972,-2.7147499898360787,0.04849939691328248,-1.2901537941767285,0.678592518645186,-1.1602297957049255,0.7519226508375229
50,-0.8224424118088541,1.8154823633711685,0.8250009098374468,-1.1515008419024915,0.4229086159162139,-0.1655625825573854,1.417909119847651,0.4358902005386983,-0.8298330337488616,-0.37405745702128834,-0.19017220150578204,0.4967445272524767,-0.6279082611221876,0.044379082214462455,0.42197145387979196,1.4905751559939886,0.2968065774145321,0.7022930094090132,0.502397616807954,-0.10952965357551017,-0.4365057212646327,0.6529618642341534,-0.8049876317185322,-0.1303407518995994,-2.7117368072323105,0.052091523140673474,-1.2862352340497125,0.6819824168717636,-1.1588830294295864,0.7531190965625036
51,-0.8229518037943279,1.8157859844921378,0.823763405935344,-1.1516489009558808,0.4194101987256048,-0.16551374636144356,1.4169194888178818,0.4366139130766191,-0.8315676907762232,-0.37297543328005744,-0.19065716102145996,0.49696855991615135,-0.6291204516863378,0.044241846897530475,0.4185392528380289,1.490627583346585,0.29594410071906974,0.703011676690996,0.5007197021197294,-0.10847107415401691,-0.4360158938346953,0.6572812310409588,-0.8027964975344828,-0.12997151927233053,-2.708690874044799,0.05573745409540564,-1.2822584325682782,0.6854231987044463,-1.1575321427774419,0.7543261027704011
52,-0.8234700706962381,1.8160969429393623,0.822504414363701,-1.1517994012037718,0.4158359709289625,-0.16546056829042777,1.4159127819101502,0.4373539201833474,-0.8333334831185677,-0.3718698728748901,-0.1911500824175122,0.4971961569183179,-0.630353548454889,0.044102566657429815,0.4150333445534462,1.4906847762932205,0.2950691208283558,0.7037465765121133,0.49901312547224413,-0.10738976065604622,-0.43553454067174474,0.6616664313396617,-0.8005837552904823,-0.12961253056514419,-2.7056127597990063,0.05943744496833454,-1.2782231295390967,0.6889150644696509,-1.1561781051931515,0.7555431354286092
53,-0.8239973667151415,1.8164154122072589,0.8212235863759225,-1.1519523943416596,0.41218420083949486,-0.16540286197472312,1.4148887627688056,0.43811057578165724,-0.8351309619251678,-0.3707402376908868,-0.19165107982607688,0.49742728118282475,-0.6316078952974618,0.043961208182248586,0.41145205607256063,1.4907469581518273,0.2941815948151772,0.7044980725762522,0.497277460632414,-0.10628520150773983,-0.4350627915515118,0.6661177410156196,-0.7983500526942192,-0.12926494190194834,-2.7025031672718307,0.06319163989506664,-1.274129186228068,0.6924581034925074,-1.1548219889633125,0.7567695773887909
54,-0.8245338396468409,1.816741562274318,0.8199205913317059,-1.1521079318778147,0.40845318729545527,-0.16534043709659807,1.4138472144563146,0.4388842237049852,-0.8369606558637168,-0.36958599941988013,-0.19216025951071536,0.49766188063164896,-0.6328838196237827,0.04381773920975305,0.4077937434370921,1.4908143593006833,0.29328150572814643,0.7052665203015789,0.49551230965734255,-0.10515689485152667,-0.4346018661023267,0.6706352928051067,-0.7960961552907726,-0.12892999797395133,-2.6993629448993075,0.06700005800083672,-1.269976600544594,0.6960522802815263,-1.153464976538785,0.758004720977714
55,-0.8250796295143039,1.817075558305051,0.8185951201877545,-1.1522660649361363,0.4046412714041851,-0.16527309999344117,1.4127879426616032,0.43967519474646266,-0.8388230662245769,-0.3684066432920735,-0.19267771852588134,0.4978998865304471,-0.6341816291504772,0.04367212874821585,0.4040568028249996,1.490887216806646,0.29236886560346137,0.7060522640915318,0.4937173078621691,-0.10400435208805572,-0.43415307891327254,0.6752190586659085,-0.793822956878809,-0.12860903690962702,-2.6961930997424726,0.07086257848126457,-1.2657655232744995,0.6996974197606786,-1.1521083679984656,0.7592477602557527
56,-0.8256348670765997,1.8174175592041513,0.8172468892875411,-1.1524268440389744,0.4007468495939307,-0.16520065438536327,1.411710779163883,0.44048380339218857,-0.8407186615777953,-0.36720167222775923,-0.1932035432699471,0.4981412117347622,-0.6355016083931505,0.043524347314570125,0.4002396829186827,1.490965773937893,0.2914437186475552,0.7068556343101037,0.49189212919511877,-0.10282710180864027,-0.43371784457205453,0.6798688310148976,-0.7915314903208956,-0.12830349505422103,-2.6929948109272286,0.07477892475786779,-1.2614962753201961,0.703393191587748,-1.1507535885730482,0.7604977829943067
57,-0.8261996722145467,1.8177677160173498,0.8158756444485369,-1.1525903188696625,0.3967683880178667,-0.165122902239102,1.4106155855472116,0.44131034422947957,-0.8426478719803259,-0.3659706114244889,-0.19373780793388018,0.49838574884495734,-0.6368440148858814,0.04337436718947536,0.39634089853938564,1.4910502795475304,0.2905061445743731,0.7076769439525862,0.49003649201447297,-0.10162469413110599,-0.4332976825437772,0.6845842029059338,-0.7892229386589558,-0.12801491156988498,-2.689769443444913,0.07874864777613826,-1.2571693658755476,0.7071390936266073,-1.1494021961272896,0.7617537624416426
58,-0.8267741521953328,1.8181261701756328,0.8144811653386319,-1.1527565380148765,0.3927044383351177,-0.16503964477974556,1.4095022571545808,0.4421550880259425,-0.84461108273992,-0.36471301338899703,-0.1942805728503703,0.49863336828189697,-0.6382090751365215,0.043222162688441965,0.3923590455678703,1.4911409873143,0.2895562620740286,0.7085164850077006,0.4881501652524056,-0.10039670544600454,-0.4328942217846346,0.6893645472617287,-0.7868986464187302,-0.1277449327507016,-2.6865185621668073,0.08277110854856913,-1.2527855114256798,0.7109344346754882,-1.1480558884769143,0.7630145489678007
59,-0.8273583998215296,1.8184930515823192,0.8130632701253434,-1.1529255486873835,0.38855365486817395,-0.1649506836609009,1.4083707272625645,0.4430182774817722,-0.846608627753269,-0.3634284634152668,-0.1948318827514618,0.4988839163000421,-0.6395969803337976,0.04306771044763837,0.38829281714701713,1.491238154826854,0.28859423238150655,0.7093745245131351,0.4862329749388233,-0.09914274357249554,-0.43250920496589373,0.6942089953207459,-0.7845601309562735,-0.12749531592867125,-2.6832439458880573,0.08684546008558933,-1.2483456554183177,0.714778316593724,-1.1467165103916845,0.7642788617032933
60,-0.8279524914737078,1.8188684765460983,0.8116218203717437,-1.153097396430289,0.3843148131042721,-0.16485582230246693,1.407220971448416,0.4439001226658511,-0.8486407824493489,-0.3621165855001557,-0.195391764946579,0.4991372129599758,-0.6410078818312281,0.042910989722393295,0.3841410211315523,1.4913420424988093,0.2876202629048983,0.7102513003141065,0.484284811044384,-0.09786245331361373,-0.4321444921637802,0.6991164145149915,-0.7822090936651367,-0.12726793282747503,-2.6799476011746193,0.09097062890407621,-1.2438509884029734,0.7186696160159881,-1.145386060109646,0.7655452803132655
61,-0.8285564850603062,1.8192525455675514,0.8101567261417836,-1.1532721248045323,0.379986829469511,-0.16475486740302375,1.406053012110955,0.4448007961561497,-0.8507077563846459,-0.3607770486757785,-0.19596022743725341,0.4993930500884306,-0.6424418864433301,0.04275198269570524,0.3799025987130923,1.491452912303124,0.2866346108624252,0.7111470165437878,0.48230563458569903,-0.09655552238895906,-0.43180206385042075,0.7040853860565857,-0.7798474308253349,-0.1270647722009736,-2.6766317757414466,0.09514529635585939,-1.2393029683775616,0.7226069658956339,-1.1440666951596576,0.7668122370783489
62,-0.8291704178935103,1.8196453409919684,0.8086679512648736,-1.1534497750621127,0.37556878225833135,-0.16464763063091212,1.4048669230946715,0.44572042791668615,-0.8528096855550282,-0.35940957372324395,-0.19653725698985552,0.49965118926058866,-0.6438990516014869,0.04259067479328536,0.3755766441048255,1.4915710263163922,0.2856375868663711,0.7120618388553642,0.480295484917388,-0.0952216877089661,-0.4314840230005163,0.7091141825797717,-0.7774772438351304,-0.12688794157359673,-2.673298971042049,0.09936788007691595,-1.234703341019314,0.7265887371768786,-1.1427607372607842,0.7680780094851211
63,-0.8297943045156233,1.820046924547467,0.8071555186953125,-1.1536303858083619,0.37105993354743916,-0.16453393049425072,1.4036628343533408,0.4466590999569091,-0.8549466245093843,-0.35801394021531663,-0.19712281719314723,0.49991135984667373,-0.6453793804300499,0.04242705500079666,0.3711624251193891,1.4916966450665328,0.2846295583802197,0.7129958894481218,0.47825448711534385,-0.09386074193880464,-0.4311925961087832,0.7142007462594498,-0.7751008485250941,-0.1267396678808975,-2.6699519537001546,0.10363651592084087,-1.2300541594092167,0.7306130209583321,-1.1414706760390212,0.7693407135621335
64,-0.8304281345066888,1.8204573347944824,0.8056195158866607,-1.1538139926574846,0.3664597518626147,-0.16441359438534878,1.402440936575298,0.4476168408347316,-0.8571185383724709,-0.35658999381620693,-0.19771684653340338,0.5001732571724674,-0.6468828168175487,0.042261116178028205,0.3666594044161878,1.4918300256811625,0.2836109529631228,0.7139492419442248,0.47618285933362064,-0.09247254028173059,-0.43093013289553805,0.7193426679056608,-0.7727207832122891,-0.12662229679169698,-2.6665937653652825,0.10794904080612458,-1.2253578027882517,0.7346776115762305,-1.1401991712755468,0.7705982982307741
65,-0.8310718703108058,1.820876584520535,0.804060100084806,-1.154000627886563,0.3617679352999686,-0.16428646078916848,1.4012014856777906,0.44859362008134135,-0.8593252949082499,-0.3551376537452245,-0.19831925652604832,0.5004365408511233,-0.648409240572914,0.04209285536378205,0.3620672611313805,1.4919714198387701,0.2825822612037695,0.7149219161885247,0.4740809199943342,-0.09105700739159664,-0.4306991044634887,0.724537167613146,-0.7703398151126641,-0.12653829047979492,-2.6632277305280416,0.11230297697357677,-1.2206169938118374,0.7387799911024898,-1.1389490533779374,0.7718485409723068
66,-0.8317254451254655,1.8213046581226608,0.8024775034268126,-1.1541903200942263,0.3569844347315601,-0.1641523816386795,1.3999448070629978,0.44958934264396416,-0.8615666567796182,-0.3536569202879029,-0.1989299299489956,0.5007008333511723,-0.649958462771894,0.04192227406428539,0.35738591253647733,1.4921210715306943,0.2815440392343971,0.715913873060469,0.47194909464666024,-0.08961414430268905,-0.430502099659469,0.7297810776227273,-0.7679609446942846,-0.1264902236047765,-2.6598574617908817,0.11669551821492559,-1.215834813699248,0.7429173158173992,-1.1377233217486666,0.7730890451413774
67,-0.8323887609050609,1.8217415090287283,0.8008720377163818,-1.154383093871187,0.3521094766511074,-0.16401122479219266,1.398671299514095,0.4506038434613798,-0.8638422741848748,-0.35214788221410753,-0.19954871922887685,0.5009657188724796,-0.6515302214136582,0.04174937851701573,0.35261553530208667,1.4922792146488488,0.28049691070582494,0.7169250094044366,0.46978792230847416,-0.08814403524274582,-0.43034181939237626,0.7350708281223518,-0.7655874075258007,-0.1264807772598307,-2.6564868620594386,0.12112351869241114,-1.2110147146114698,0.7470864052756181,-1.1365251407161108,0.774317239279754
68,-0.833061686536104,1.822187057217748,0.7992440987318158,-1.1545789694908004,0.34714358514185734,-0.16386287659920654,1.3973814385970362,0.45163688230540194,-0.8661516780742721,-0.3506107239385173,-0.20017544503673504,0.5012307426076024,-0.653124177521122,0.04157417992099647,0.3477565858747722,1.4924460704220495,0.2794415680968949,0.7179551532018639,0.46759806108372254,-0.08664685417285126,-0.4302210686649554,0.7404024367748744,-0.7632226731569622,-0.12651273065169144,-2.6531201231026227,0.1255834850174913,-1.2061605285388661,0.7512837346325741,-1.1353578326948557,0.7755303787993781
69,-0.8337440562472223,1.8226411869077255,0.7975941699098378,-1.154777962628631,0.34208760237946595,-0.1637072445121974,1.3960757794235221,0.4526881390387196,-0.868494274170018,-0.3490457322359672,-0.20080989515411132,0.5014954104698812,-0.6547399118297375,0.0413966946239479,0.3428098194109578,1.4926218447325301,0.2783787732275588,0.7190040591244151,0.46538029283182064,-0.08512287087707125,-0.43014274609441244,0.745771502800754,-0.7608704405647809,-0.1265889502958509,-2.649761719930642,0.1300715722892835,-1.2012764719448281,0.7555054309310386,-1.1342248682571385,0.7767255504078793
70,-0.8344356683211613,1.823103744487075,0.7959228252397368,-1.1549800841206672,0.33694270702273393,-0.16354425969247857,1.3947549586241141,0.4537572094542416,-0.8708693380283747,-0.3474533023039567,-0.20145182367328246,0.5017591893710092,-0.6563769222172675,0.04121694425623692,0.3377763066568752,1.4928067253535118,0.2773093568451349,0.7200714046210508,0.4631355266540188,-0.0835724564066229,-0.430109830727125,0.7511732064599571,-0.758534629714051,-0.12671237654102183,-2.646416400463809,0.13458358480425006,-1.1963671453995284,0.7597472740587629,-1.133129852828472,0.7778996796393495
71,-0.8351362841782818,1.8235745367714389,0.7942307311984105,-1.1551853397702194,0.3317104297996942,-0.16337387954922145,1.3934196953788562,0.45484360187197803,-0.8732760113910808,-0.3458339429489182,-0.20210095059619207,0.5020215081290336,-0.6580346220301191,0.04103495580143415,0.3326574481228397,1.4930008791581515,0.27623421715902896,0.7211567867018708,0.46086480095768373,-0.08199608766970558,-0.43012536599768214,0.7566023147613203,-0.7562193688181766,-0.126886007282111,-2.643089170015589,0.13911498213186071,-1.1914375274554148,0.764004703071522,-1.1320765097703458,0.779049541825185
72,-0.8358456279008041,1.8240533296712322,0.7925186475593352,-1.1553937302135877,0.3263926655717767,-0.16319609014254077,1.3920707913573176,0.455946734675028,-0.87571330007321,-0.3441882806635137,-0.20275696189483886,0.5022817590820823,-0.6597123394589436,0.04085076159353722,0.3274549848792171,1.4932044493593464,0.2751543172114589,0.7222597195866463,0.45856928386472573,-0.08039435095064039,-0.43019244074335433,0.7620531941725306,-0.753928976949001,-0.12711287878187888,-2.639785270194611,0.14366089120073294,-1.1864929620693936,0.7682728285259011,-1.1310686596832364,0.7801717767913054
73,-0.8365633862638147,1.8245398473556245,0.7907874269185589,-1.1556052508542314,0.32099168116055643,-0.16301090837487095,1.3907091294317822,0.4570659349648788,-0.8781800736238571,-0.34251706236123586,-0.20341951009106438,0.5025393004729499,-0.6614093181062483,0.04066439923162473,0.32217100530591025,1.4934175528481188,0.27407068099122994,0.7233796333845934,0.4562502717467378,-0.07876794414248092,-0.4303141672623324,0.7675198310037192,-0.7516679417350671,-0.12739604359841192,-2.6365101519447998,0.1482161249510648,-1.1815391389710637,0.7725464513776352,-1.1301101958549098,0.7812629074968221
74,-0.837289209332324,1.8250337719952712,0.7890380127995229,-1.1558198918743299,0.31551011825547304,-0.16281838389042247,1.3893356710472562,0.45820043850654346,-0.8806750669730821,-0.34082115654378253,-0.20408821540543884,0.5027934596546019,-0.6631247188707862,0.04047591140392493,0.3168079471621904,1.4936402777050013,0.27298438822483145,0.7245158739628824,0.45390918569822375,-0.07711767748745323,-0.43049365649712074,0.772995859988156,-0.7494408920076104,-0.12773854570792417,-2.633269442591206,0.1527752079785329,-1.1765820665156408,0.7768200888707283,-1.1292050558918756,0.7823193627340698
75,-0.8380227116731551,1.8255347441583356,0.7872714362265198,-1.1560376383312634,0.3099509907913994,-0.16261860060104127,1.3879514521605318,0.4593493911149175,-0.8831968842422359,-0.3391015526975783,-0.20476266751305502,0.5030435371464627,-0.6648576232469413,0.04028534561505184,0.3113685944133511,1.4938726809632414,0.2718965678140879,0.7256677041435505,0.4515475658014317,-0.07544447264083151,-0.4307339905314963,0.7784746013829399,-0.7472525654018699,-0.12814339301837885,-2.6300689069400685,0.15733240942093393,-1.1716280367457093,0.7810880076685727,-1.1283571897038838,0.7833375038910924
76,-0.8387634742160339,1.826042363921803,0.7854888106939889,-1.1562584703446261,0.30431767629480466,-0.16241167775896947,1.3865575776976813,0.4605118516044219,-0.885744004844736,-0.3373593587494455,-0.20544242792849954,0.5032888115462063,-0.6666070381021408,0.04009275381248559,0.3058560683574346,1.4941147867040878,0.27080838993173706,0.7268343063412799,0.4491670630918454,-0.07374935990701512,-0.43103819270717597,0.7839491066626064,-0.745107771095057,-0.1286135275856986,-2.626914402690897,0.16188178312333357,-1.1666835826159292,0.7853442642624623,-1.1275705241588097,0.7843136556372913
77,-0.8395110467801069,1.8265561927426637,0.7836913255050779,-1.156482363376948,0.29861390084689116,-0.16219777050335984,1.3851552145243848,0.461686796384434,-0.8883147919411335,-0.33559579645803134,-0.20612703302334257,0.5035285452722105,-0.6683719019520871,0.039898191911220356,0.30027381273933235,1.4943665845622607,0.2697210568344162,0.7280147867178332,0.44676942920139484,-0.07203347354178244,-0.4314091957899676,0.7894122125849876,-0.7430113480560041,-0.12915179396614168,-2.6238118306487754,0.16641721486547867,-1.161755427603824,0.7895827524403193,-1.1268489248823874,0.7852441402351644
78,-0.8402649512607097,1.8270757561114719,0.7818802375066027,-1.1567092886083794,0.2928437174988884,-0.1619770698182406,1.3837455829749639,0.46287312573388406,-0.8909075032375573,-0.3338121946764978,-0.2068159976577432,0.5037619910788953,-0.6701510927036003,0.03970171921879669,0.29462557271823653,1.4946280287135214,0.268635792504708,0.7292081808834793,0.44435650373489055,-0.07029804507120081,-0.4318498087384716,0.7948566030817836,-0.7409681193869533,-0.1297609062595643,-2.6207670804663206,0.170932476155705,-1.1568504282282217,0.7937972573181039,-1.126196155836386,0.7861253150123112
79,-0.8410246854473533,1.8276005469847194,0.7800568613065698,-1.1569392134023089,0.28701147819273604,-0.16174980185497798,1.3823299470417443,0.4640696717312665,-0.893520304033192,-0.33200998049141256,-0.20750881938409643,0.5039883992523048,-0.6719434367801403,0.03950339776655353,0.2889153677619045,1.4948990374057973,0.2675538312875661,0.7304134611229381,0.4419301995208603,-0.0685443946437012,-0.43236268274390166,0.8002748780809811,-0.7389828435444967,-0.1304434145114056,-2.617785972883833,0.1754212838013437,-1.1519755103111515,0.7979815151410672,-1.1256158374606962,0.7869536123566583
80,-0.8417897274187182,1.8281300299634524,0.778222558121875,-1.157172101855373,0.2811217994803286,-0.16151622659179724,1.380909603383528,0.4652752077536397,-0.896151282334285,-0.3301906683198716,-0.2082049831562343,0.5042070253583906,-0.6737477194883629,0.0393032915567146,0.28314745876845315,1.4951794930806845,0.2664764057384959,0.7316295450655137,0.43949248596658375,-0.06677392050457685,-0.43295027730911406,0.8056596280233393,-0.7370601634217425,-0.1312016712382343,-2.614874199658091,0.17987736417289468,-1.1471376001317737,0.8021292777679834,-1.125111404299068,0.7877255814344398
81,-0.8425595404353454,1.8286636461550974,0.7763787234641372,-1.1574079154217554,0.2751795225838798,-0.161276635825865,1.3794858693671177,0.46648845939321903,-0.8987984657642085,-0.32835584712773047,-0.20890396645395856,0.5044171383837188,-0.6755626964286431,0.0391014657386627,0.2773263099515161,1.4954692431137757,0.2654047339478462,0.7328553056591814,0.4370453708335351,-0.06498808675788177,-0.4336148272101602,0.8110035125124876,-0.7352045544436353,-0.13203779891439935,-2.61203726255888,0.18429452080664147,-1.1423435519123786,0.8062343804774936,-1.1246860631342508,0.7884379306862032
82,-0.8433335782272718,1.829200818625306,0.7745267739269762,-1.157646613598295,0.2691896685839745,-0.16103135051869794,1.378060070405328,0.46770811657679573,-0.9014598399168346,-0.32650716601170376,-0.20960524471118,0.5046180290800729,-0.6773871057019788,0.03889798573123006,0.27145654625346083,1.4957681011809134,0.2643400066439558,0.7340895822500537,0.43459088082801295,-0.06318840965490255,-0.4343583112269368,0.8162993412608417,-0.7334202729583129,-0.13295365929819672,-2.6092804129521325,0.18866670375762185,-1.1376000733256946,0.8102908115015175,-1.1243427527260612,0.789087570042546
83,-0.8441112905536867,1.8297409583187627,0.7726681333844887,-1.1578881546539173,0.2631573897444414,-0.16078071754180953,1.3766335268950816,0.4689328466156453,-0.9041333677295988,-0.32464631846183073,-0.21030829691823136,0.504809018302963,-0.6792196806236683,0.038692916310813286,0.2655429072587769,1.4960758492342827,0.2632833744044271,0.7353311925157381,0.432131041466787,-0.06137644271617604,-0.43518242353460573,0.821540155283942,-0.7317113062870737,-0.13395082547894063,-2.6066085935657246,0.1929880789409179,-1.1329136508994981,0.814292781515465,-1.1240841062671498,0.7896716517290664
84,-0.8448921288963304,1.8302834703043138,0.7708042189446076,-1.1581324963845145,0.25708791816841575,-0.16052510589489088,1.3752075410867632,0.47016130786600113,-0.9068170093984584,-0.322775025683206,-0.21101261125642162,0.5049894651213622,-0.6810591626239434,0.03848632068739147,0.2595901987507617,1.4963922400485878,0.2622359353168278,0.7365789449574834,0.42966785672398405,-0.05955376105058229,-0.4360885486104518,0.8267193061732648,-0.7300813258143222,-0.13503055748758616,-2.6040263840384315,0.19725309560040025,-1.1282904773014972,0.8182347912151853,-1.1239124176404245,0.7901876085076922
85,-0.8456755521390577,1.830827760182265,0.7689364270196006,-1.15837959687279,0.2509865131137499,-0.1602649024917186,1.3737833842284835,0.4713921636462622,-0.9095087423238872,-0.32089501940224163,-0.21171769061673165,0.505158774473559,-0.6829043139999151,0.03827825959190429,0.2536032431760705,1.4967170002749208,0.26119872342593153,0.7378316516250669,0.42720328898909216,-0.05772194527603245,-0.4370777404306909,0.83183053125617,-0.728533644451053,-0.13619378223214237,-2.601537951778949,0.20145655003212284,-1.1237363825021327,0.8221116950981441,-1.1238296124772098,0.790633188234599
86,-0.8464610320836325,1.831373240481715,0.7670661198773249,-1.158629415231892,0.24485840836742798,-0.16000050762776302,1.372362284324815,0.4726240960397361,-0.9122065805680778,-0.3190080246093663,-0.21242305785540513,0.5053164041526182,-0.6847539301833796,0.038068790398807166,0.2475868303435485,1.497049833919843,0.2601726982836634,0.7390881407327254,0.4247392398643663,-0.055882565468351124,-0.43815070661064415,0.8368680225384114,-0.7270711796901754,-0.1374410783973084,-2.5991470095107787,0.20559364377019412,-1.1192567707292864,0.82591875964704,-1.1238372248783723,0.791006483704801
87,-0.8472480586567424,1.8319193368742286,0.7651946130204811,-1.1588819123119707,0.23870876108154143,-0.15973233025676417,1.3709454148287017,0.47385581921253833,-0.9149085933198593,-0.31711574269469517,-0.21312826064724005,0.5054618709245322,-0.686606851205641,0.03785796630690351,0.24154566968038904,1.497390426151034,0.25915873588097715,0.7403472688255736,0.42227753230242876,-0.05403716556614759,-0.43930779798516145,0.8418264875183272,-0.7256964232936816,-0.1387726667910852,-2.5968567806567693,0.20966003461476032,-1.114856564948341,0.829651714286653,-1.1239363804780422,0.7913059568972857
88,-0.8480361446752287,1.8324654940372684,0.763323163707832,-1.1591370513500854,0.23254260340669985,-0.15946078321039012,1.3695338845487066,0.4750860918955293,-0.9176129219047168,-0.315219835415243,-0.21383287581224938,0.5055947556117782,-0.6884619720726853,0.03764583559977923,0.23548434529946502,1.4977384473196897,0.2581576211899964,0.7416079321740673,0.4198198945328553,-0.052187248639420265,-0.44054900394266716,0.8467012002526733,-0.7244114184198386,-0.14018840643800376,-2.5946699734366057,0.21365187913607395,-1.1105401603327685,0.833306793740536,-1.1241277863112227,0.7915304569249709
89,-0.8488248300548595,1.8330111810161605,0.761452960883328,-1.1593947985461015,0.22636479812699517,-0.1591862784950475,1.3681287290039135,0.4763137287156616,-0.9203177949400516,-0.3133219100928966,-0.21453651301211976,0.5057147070129709,-0.6903182518096835,0.037432441004426026,0.22940727500130215,1.4980935570843776,0.2571700424830645,0.7428690771080309,0.4173679461533256,-0.0503342633896665,-0.441873953626427,0.8514880414244868,-0.7232177447271123,-0.14168779651972713,-2.592588764228651,0.21756586561018162,-1.1063113878506312,0.8368807707378745,-1.1244117277054644,0.7916792312196727
90,-0.8496136853713727,1.8335558959558909,0.7595851167195924,-1.159655123550211,0.22017999931339924,-0.15890922279308498,1.3667309033989672,0.47753761011326473,-0.9230215413160995,-0.3114235063844922,-0.21523881773818998,0.5058214445731937,-0.6921747209898294,0.0372178191631021,0.22331867415199252,1.4984554085214792,0.2561965875268374,0.7441297090491669,0.41492318667141165,-0.04847959219225407,-0.44328192291262575,0.8561835265895826,-0.7221165116973374,-0.14326998406106553,-2.5906147904045262,0.22139923671000397,-1.1021734887028067,0.8403709783917824,-1.1247880721675974,0.7917519297297362
91,-0.8504023147094144,1.834099170102088,0.7577206599153172,-1.159917999851271,0.2139926187833772,-0.1586300132826706,1.365341277325982,0.4787566906439789,-0.9257226007751761,-0.30952608489318717,-0.21593947354082182,0.5059147597666221,-0.6940304876251039,0.037002000229358144,0.2172225251575563,1.4988236521134428,0.2552377416786279,0.7453889000584434,0.4124869866833021,-0.04662454092188171,-0.44477184687880117,0.8607848222326062,-0.7211083601221757,-0.14493377706499994,-2.5887491525020976,0.22514980166668924,-1.0981290999346012,0.8437753219645009,-1.1252562799943908,0.7917486021615445
92,-0.8511903577635823,1.8346405710021598,0.7558605308162373,-1.160183405059078,0.2078067988997803,-0.15834903387263616,1.36396063123266,0.4799700055329107,-0.9284195319599318,-0.30763101780903,-0.21663820347922194,0.5059945162002355,-0.6958847413615863,0.036785007594702865,0.21112255301140204,1.499197939517125,0.25429388784328294,0.7466457947782756,0.41006058177226995,-0.04477033072406178,-0.4463423372993932,0.8652897497171241,-0.7201934714122813,-0.14667766262531046,-2.5869924252807883,0.22881593800536146,-1.094180251129869,0.8470922801274635,-1.125815421115058,0.7916696885402555
93,-0.8519774911842513,1.8351797048705993,0.75400557836086,-1.1604513210777272,0.20162639197892077,-0.15806665192700306,1.3625896546310972,0.4811766754195234,-0.9311110178988105,-0.30573958168174564,-0.21733477079920188,0.5060606484919151,-0.6977367559853402,0.0365668577478561,0.20502220714097164,1.4995779270295153,0.2533653081859569,0.7478996147147542,0.40764506910890475,-0.04291809181495621,-0.44799170455701987,0.8696967776396861,-0.7193715841340482,-0.14849982939913414,-2.58534467692025,0.2323965833233909,-1.0903283717105348,0.8503208961913913,-1.1264641974856335,0.7915160035857076
94,-0.8527634291875471,1.835716218114807,0.7521565587889705,-1.1607217341711005,0.19545494632260643,-0.1577832155303365,1.3612289459630933,0.4823759093003678,-0.9337958689882045,-0.3038529523456521,-0.21802897887242412,0.5061131600155946,-0.6995858903030777,0.03634756026418643,0.19892464953798342,1.4999632786858579,0.2524521874425198,0.7491496608682383,0.40524140664279934,-0.041068859313650015,-0.449717983245358,0.8740050034717033,-0.7186420169673271,-0.15039819371090407,-2.58380549539333,0.23589121789814643,-1.0865743080256216,0.8534607601033088,-1.1272009702091683,0.7912887155849049
95,-0.8535479234723525,1.8362497980475998,0.7503141359962677,-1.1609946349251128,0.18929569865618037,-0.15749905132112949,1.3598790139881627,0.4835670057391451,-0.9364730236111212,-0.30197220194006036,-0.2187206704530807,0.506152119638445,-0.7014315875118385,0.0361271179189716,0.19283274893741503,1.5003536689442944,0.25155461762732245,0.7503953147779003,0.4028504146961099,-0.0392235710394835,-0.4515189606659469,0.8782141256776289,-0.718003697117886,-0.1523704284873313,-2.5823740208758124,0.2392998391698174,-1.0829183491384546,0.8565119822684075,-1.1280237904564874,0.7909893205846744
96,-0.8543307625065616,1.836780172838338,0.7484788833745646,-1.1612700181144213,0.1831515725554618,-0.15721446289756816,1.3585402805218,0.4847493524667683,-0.939141546598093,-0.30009829790226317,-0.2194097263257815,0.5061776575991441,-0.7032733732118126,0.03590552691472417,0.18674908062393247,1.5007487849303454,0.2506726039088874,0.751636038094511,0.4004727797063872,-0.037383067145852225,-0.45339220738755737,0.8823244077222373,-0.7174551931149794,-0.15441399419103335,-2.581048982952264,0.24262292933404458,-1.0793602600184515,0.8594751604455998,-1.128930433211285,0.7906196128226254
97,-0.855111770259341,1.837307110775312,0.7466512869449903,-1.1615478824837817,0.1770251822873579,-0.1569297297794901,1.3572130843247845,0.4859224245360427,-0.9418006257855546,-0.2982321037568752,-0.22009606343120977,0.5061899606915685,-0.7051108522451228,0.035682777210110504,0.18067593129771486,1.501148328232727,0.2498060714080137,0.7528713708340832,0.398109059820981,-0.0355480914132439,-0.45533510904090746,0.886336635519603,-0.7169947508771212,-0.15652617092597446,-2.5798287413381202,0.24586141739540693,-1.0758993207184628,0.8623513410829506,-1.1299184328584633,0.7901816523608257
98,-0.8558908044657142,1.8378304189271355,0.7448317495718031,-1.1618282304560488,0.17091884137538899,-0.1566451068930124,1.3558976859293765,0.4870857812253705,-0.9444495669593579,-0.2963743814861855,-0.22077963256375444,0.5061892669249207,-0.7069437045607366,0.03545885293601866,0.17461530832769545,1.501552016258237,0.24895487266905694,0.7541009284920811,0.3957596920183643,-0.033719293989346935,-0.4573448985590978,0.8902520699338664,-0.7166203319341655,-0.15870409092668875,-2.578711328857478,0.24901663707833122,-1.0725343700678622,0.865141976504974,-1.1309851196709075,0.7896777308874149
99,-0.8566677545145152,1.838349941300311,0.7430205960361179,-1.162111067779949,0.16483457513243974,-0.15636082453071423,1.3545942731843472,0.48823906190351135,-0.9470877874871412,-0.29452579524149464,-0.22146041573812952,0.5061758598300643,-0.7087716803123223,0.03523373288310935,0.16856895265890048,1.5019595831671129,0.2481187955623292,0.7553243982137867,0.3934250004218875,-0.03189723534286405,-0.4594186881392278,0.8940723959244632,-0.7163296527442428,-0.16094477070933716,-2.5776944954852294,0.2520902819732837,-1.0692638524286495,0.8678488793446395,-1.1321276563203464,0.7891103366121228
100,-0.8574425390511253,1.8388655565941796,0.7412180787507938,-1.1623964031312506,0.15877413637573007,-0.15607708873060716,1.3533029673064432,0.4893819810737186,-0.9497148089445059,-0.2926869161443031,-0.22213842332048395,0.5061500625738169,-0.7105945943930657,0.035007391044676914,0.16253835461876323,1.5023707804210213,0.24729757139171563,0.7565415342218794,0.39110520547674554,-0.03008239118929755,-0.4615535002863466,0.8977996698474888,-0.7161202241311863,-0.16324514224912354,-2.5767757523706005,0.25508435922298556,-1.0660858661364219,0.8704741755387436,-1.1333430736343566,0.7884821191096493
101,-0.8582151033830622,1.8393771756537571,0.7394243839081815,-1.16268424768086,0.15273902354808705,-0.15579408201131653,1.352023829239325,0.490514322811966,-0.952330249028696,-0.29085822792712246,-0.22281369101442752,0.5061122320295294,-0.7124123206008478,0.03477979719878106,0.15652477187989175,1.502785376983572,0.2464908830045267,0.7577521526986551,0.3888004336787006,-0.028275158149849648,-0.46374629740007806,0.9014362662938575,-0.7159893899820612,-0.16560208264836343,-2.5759524148954815,0.2580011429376422,-1.0629982123678288,0.8730202570879705,-1.134628304935436,0.7877958548683388
102,-0.8589854167702087,1.839884738716303,0.7376396378694419,-1.162974614642811,0.14673050050849512,-0.15551196439859594,1.3507568661402525,0.4916359348022786,-0.9549338130323748,-0.2890401331745255,-0.22348627678457358,0.5060627529349551,-0.7142247856106035,0.034550917514289285,0.15052924887736768,1.503203159218082,0.24569837272805228,0.7589561263092772,0.3865107275703867,-0.02647585991667262,-0.4659940094701455,0.904984825678354,-0.715934364475476,-0.1680124418657924,-2.5752216439739617,0.2608431283822651,-1.0599984433279475,0.8754897356350996,-1.135980218421155,0.7870544141889999
103,-0.8597534696730696,1.8403882125397757,0.7358639136257277,-1.1632675188141348,0.1407496173163933,-0.15523087467900618,1.349502037837844,0.4927467221543815,-0.9575252851219402,-0.28723295994354026,-0.22415625779046816,0.5060020322486564,-0.716031962909993,0.03432071516658211,0.1445526370402912,1.5036239305295274,0.2449196499871521,0.7601533785358368,0.38423605575484704,-0.02468475371678237,-0.46829355955359137,0.9084482036056148,-0.7159522672504145,-0.17047306818451638,-2.574580484959043,0.26361298781519504,-1.0570839088221649,0.8778853977486775,-1.1373956471694064,0.7862607299580424
104,-0.8605192710226899,1.8408875874915132,0.7340972371858066,-1.1635629761173676,0.13479723141111316,-0.1549509318197263,1.3482592631293175,0.49384664116694205,-0.9601045196322482,-0.28543696856631395,-0.22482372739293313,0.5059304937953532,-0.7178338668314604,0.034089150950105875,0.1385956152731014,1.504047510797595,0.24415429848765238,0.7613438779716293,0.38197632271352144,-0.02290203689079903,-0.47064188680875013,0.9118294228422485,-0.7160401560644731,-0.172980831198388,-2.5740259036799524,0.2663135286858485,-1.0542518004561419,0.8802101626261244,-1.138871416473605,0.7854177686973409
105,-0.8612828455654746,1.84138287466442,0.7323395937700338,-1.163861003155015,0.12887402867359865,-0.15467223649840964,1.3470284258111545,0.4949356931754295,-0.9626714325550008,-0.2836523584649621,-0.22548879228359509,0.505848573269843,-0.7196305467898598,0.03385618387659929,0.13265871020588474,1.5044737356459221,0.24340188287980877,0.7625276327025988,0.379731378254758,-0.02112785342924929,-0.473035966955192,0.9151316285294446,-0.7161950566232399,-0.1755326421907502,-2.573554819281994,0.2689476547307197,-1.051499192884544,0.8824670427590471,-1.1404043683246428,0.7845285041761433
106,-0.862044231325703,1.8418741030763608,0.7305909337156228,-1.1641616167837772,0.12298054394640598,-0.15439487269316213,1.3458093803618654,0.49601391859862043,-0.9652259933633756,-0.281879274836803,-0.22615156977728143,0.5057567136493353,-0.7214220818113356,0.03362177174957098,0.1267423158190121,1.5049024555894501,0.2426619548434912,0.7637046848798068,0.3775010264570633,-0.019362300336683156,-0.47547283011227154,0.9183580470860231,-0.7164139893843533,-0.178125471862818,-2.5731641336754927,0.27151833034704514,-1.0488230816968025,0.8846591079418274,-1.141991382956219,0.783595893762286
107,-0.8628034772184888,1.8423613169970208,0.7288511780218431,-1.1644648337148074,0.11711718067530841,-0.1541189092895691,1.344601957218536,0.49708139127331624,-0.9677682172822781,-0.2801178150962015,-0.22681218529648728,0.5056553610459171,-0.7232085754170199,0.03338587170737879,0.12084671213163702,1.505333535097729,0.24193405856125677,0.7648751055642191,0.37528503400718577,-0.017605433720880418,-0.4779495760400681,0.9215119490840539,-0.7166939932473435,-0.18075636543995335,-2.572850757518005,0.2740285484784987,-1.0462204176806977,0.8867894528576677,-1.1436293974558391,0.7826228575939678
108,-0.8635606408366617,1.84284457343564,0.7271202234853815,-1.1647706701447909,0.11128422941811332,-0.15384440166877683,1.3434059676094572,0.4981382131438757,-0.9702981580830166,-0.2783680349858369,-0.22747077006756947,0.505544961014857,-0.7249901509050142,0.033148440728988066,0.1149720827225462,1.5057668516073934,0.24121773556663612,0.7660389899039586,0.37308313786567426,-0.01585727452985726,-0.4804633868648001,0.924596616231875,-0.7170321461319302,-0.18342245524216097,-2.572611632752921,0.2764813021201813,-1.0436881373384868,0.8888611683475779,-1.1453154215145358,0.7816122605711014
109,-0.8643157864267438,1.843323939813113,0.7253979473951538,-1.165079141421245,0.10548188504109955,-0.15357139324758715,1.342221207923027,0.49918450935236486,-0.9728159014539544,-0.2766299542945201,-0.22812745903990678,0.5054259553207937,-0.7267669470564728,0.03290943609811029,0.10911853092331848,1.5062022945121916,0.2405125289725822,0.7671964526850436,0.3708950522211058,-0.014117813882472966,-0.48301153741641184,0.9276153124745539,-0.7174255825224722,-0.18612097085048054,-2.5724437518076813,0.27887955944267645,-1.0412231896438167,0.8908773163590025,-1.1470465504442675,0.7805668970974863
110,-0.8650689830620053,1.8437994918331806,0.7236842117721393,-1.1653902617441831,0.0997102624893194,-0.15329991694807457,1.3410474636081133,0.5002204237568937,-0.9753215589751861,-0.27490356214020634,-0.22878238903207654,0.5052987791526248,-0.7285391142765907,0.03266881582290762,0.1032860945863659,1.506639764154153,0.23981798709914667,0.7683476242798962,0.3687204747184277,-0.012387017958722157,-0.48559140333972345,0.9305712591199967,-0.7178715081151117,-0.1888492470343433,-2.5723441736167367,0.2812262424473851,-1.0388225591204183,0.8928409084822223,-1.1488199756338382,0.779489478451525
111,-0.8658203030145434,1.8442713115599365,0.7219788671532877,-1.1657040439051785,0.0939694110732044,-0.15302999658020378,1.3398845126132264,0.5012461148902179,-0.9778152627056107,-0.2731888217953158,-0.22943569710315467,0.5051638587690345,-0.7303068111689361,0.0324265390097675,0.09747475938361913,1.5070791708349107,0.23913366653025586,0.7694926470037079,0.366559091966784,-0.010664832433070669,-0.4882004671634398,0.9334676138192082,-0.7183672117479108,-0.1916047296275457,-2.5723100366795255,0.283524208997001,-1.0364832853962611,0.894754887913598,-1.150632992643319,0.7783826226231232
112,-0.8665698203234151,1.8447394857026305,0.7202817559293265,-1.1660204990639107,0.08825932726041978,-0.15276164812619705,1.3387321283813096,0.5022617523579397,-0.9802971603748548,-0.2714856750468465,-0.23008751914250367,0.5050216095499342,-0.7320702015317463,0.032182566190792704,0.0916844706353887,1.5075204338619903,0.23845913463726087,0.7706316718770966,0.3644105843479843,-0.008951186448442975,-0.49083632252481113,0.9363074531699848,-0.718910074824469,-0.19438497955366016,-2.5723385693940344,0.2857762380143829,-1.034202479440986,0.896622114633657,-1.1524830071549232,0.7772488464264717
113,-0.867317609552006,1.8452041041037455,0.7185927152545767,-1.1663396365614938,0.08257996599915197,-0.15249488091992963,1.3375900824239981,0.5032675136655157,-0.9827674111600732,-0.26979404609615576,-0.23073798866778242,0.5048724344243998,-0.7338294517573148,0.03193685960561244,0.0859151437037391,1.5079634806411093,0.23779397161210242,0.7717648557842576,0.36227463015875605,-0.007245996139831726,-0.4934966767533028,0.9390937586723677,-0.7194975784599223,-0.19718767520693398,-2.5724270979240322,0.28798501760827827,-1.0319773367320142,0.8984453535529956,-1.1543675390068042,0.7760905596811163
114,-0.8680637447249246,1.8456652584224607,0.7169115795529466,-1.1666614637692443,0.07693125062772851,-0.15222969871841036,1.336458146504079,0.5042635814555526,-0.9852261820183773,-0.26811384501291663,-0.23138723581827803,0.5047167226427212,-0.735584728610195,0.031689383438904206,0.08016667301130548,1.508408245822254,0.23713777205586187,0.7728923590087893,0.3601509091285181,-0.005549167725211193,-0.49617935201573565,0.9418294057389827,-0.7201273085867492,-0.20001061339350373,-2.5725730518649765,0.29015313586318103,-1.0298051476180083,0.90022726535776,-1.1562842245370204,0.7749100612454017
115,-0.868808298432674,1.84612304100276,0.7152381826483953,-1.1669859859710583,0.07131308144659314,-0.15196610066547178,1.335336094457959,0.5052501411312798,-0.9876736445391292,-0.26644497076492285,-0.23203538652889205,0.5045548488586736,-0.7373361973563245,0.03144010401563502,0.0744389397657913,1.508854670504503,0.23649014616955832,0.7740143431243204,0.35803910536009464,-0.0038606001877921113,-0.4988822852194016,0.9445171554513763,-0.7207969592582874,-0.20285170903147728,-2.5727739679720067,0.2922830740208149,-1.027683305159685,0.9019703997767998,-1.1582308174595837,0.7737095366854285
116,-0.8695513410910305,1.8465775439134844,0.7135723595506603,-1.1673132062772036,0.0657253430432177,-0.15170408215020095,1.334223703691501,0.5062273788383298,-0.9901099722761596,-0.26478731385043486,-0.232682561869079,0.5043871724877862,-0.7390840202130718,0.031188989956497246,0.06873181848341724,1.509302701502249,0.2358507205936778,0.7751309692137035,0.35593890974401904,-0.002180187577978907,-0.5016035268599097,0.9471596487521032,-0.7215043343820551,-0.20570899379838498,-2.5730274922052816,0.29437720178014437,-1.025609310729583,0.903677190992243,-1.1602051884845686,0.772491057367508
117,-0.8702929403413483,1.847028858146414,0.7119139479282112,-1.1676431255670838,0.06016791046956429,-0.15144363556446158,1.3331207563829397,0.507195479774743,-0.992535338517735,-0.26314075856297203,-0.23332887753060294,0.5042140373079989,-0.7408283550893212,0.030936012296346058,0.06304518241236438,1.5097522906735925,0.23521913894142327,0.7762423963885877,0.35385002189831527,-0.0005078209660093443,-0.5043412389880996,0.9497594027693004,-0.7222473481044307,-0.20858061390179652,-2.573331380334906,0.2964377744494073,-1.0235807776464247,0.9053499549221641,-1.1622053238810244,0.7712565807713474
118,-0.8710331605777824,1.8474770729578698,0.7102627893005,-1.1679757424583823,0.05464065437621452,-0.1511847509651668,1.3320270404259937,0.5081546267981522,-0.9949499144514165,-0.26150518492017594,-0.23397444344802643,0.5040357712704205,-0.7425693545848048,0.03068114456865902,0.057378907960736754,1.5102033943101898,0.23459506206835884,0.7773487805803887,0.35177215168530657,0.0011566099225151373,-0.507093692456215,0.9523188089837089,-0.7230240240543555,-0.21146482713449585,-2.5736834973313334,0.2984669316956218,-1.02159543310802,0.9069908881163735,-1.1642293231660272,0.770007951833586
119,-0.871772062587581,1.8479222753392166,0.708618729980872,-1.168311053299927,0.04914344520817815,-0.1509274166478366,1.3309423501449964,0.5091049992991363,-0.9973538676814865,-0.2598804702888995,-0.23461936353626822,0.5038526864897352,-0.7443071652187232,0.03042436285915157,0.05173287823365151,1.5106559725867184,0.23397816811824096,0.7784502735737828,0.34970502035546247,0.0028132153558739614,-0.5098592635884609,0.9548401329657641,-0.7238324936376483,-0.21435999936029246,-2.5740818157486585,0.30046669765278133,-1.019651118670914,0.9086020680225423,-1.1662753960865713,0.7687469051457848
120,-0.872509703291051,1.8483645496019347,0.706981621800188,-1.1686490521856172,0.0436761565655012,-0.1506716196384912,1.3298664868120718,0.5100467723105291,-0.9997473610580702,-0.25826649073828234,-0.23526373553026256,0.503665079385985,-0.746041926859077,0.030165645831711368,0.046106985781543514,1.511109989067276,0.23336815238160272,0.7795470222546598,0.3476483613658773,0.004462104498631069,-0.5126364304056874,0.9573255154309309,-0.7246709935562164,-0.21726460056095545,-2.5745244132886547,0.30243898216818405,-1.0177457895065565,0.9101854543985557,-1.1683418590438674,0.7674750678466543
121,-0.8732461355684639,1.8488039770634828,0.7053513226394738,-1.168989730986811,0.03823866782782803,-0.15041734611115887,1.328799258994261,0.5109801158238186,-1.002130551779178,-0.25666312215148435,-0.23590765091264526,0.5034732309518466,-0.7477737723258839,0.029904974729775952,0.04050113465732876,1.5115654102654628,0.23276472700025266,0.7806391680457802,0.3456019209179527,0.006103384536922972,-0.5154237685187647,0.9597769743836727,-0.7255378627086825,-0.2201772005593777,-2.5750094697135637,0.30438558298596574,-1.015877512643796,0.911742891667057,-1.1704271310925936,0.7661939630644792
122,-0.87398140816198,1.8492406358209446,0.7037276967979015,-1.169333079400665,0.03283086613663569,-0.15016458173827774,1.3277404827561936,0.5119051942855208,-1.0045035907294455,-0.25507024112516846,-0.23655119491641013,0.5032774071219969,-0.7495028271434572,0.029642333356185734,0.034915241874288794,1.5120222052545194,0.2321676205474061,0.781726846505046,0.34356545825545587,0.007737159998132067,-0.5182199467905773,0.9621964081432929,-0.7264315386113174,-0.2230964645192767,-2.5755352632561292,0.30630818868705206,-1.0140444643869069,0.9132761120287164,-1.1725297296311514,0.7649050137818206
123,-0.8747155656415702,1.849674600600351,0.7021106152202389,-1.1696790850120513,0.02745264782245242,-0.14991331198109903,1.3266899817414985,0.5128221662483957,-1.006866622022154,-0.25348772568391154,-0.23719444659056874,0.5030778592236506,-0.7512292094190407,0.029377708034410963,0.029349238349892025,1.512480345323694,0.23157657750978533,0.7828101870631801,0.3415387457605277,0.009363532238501546,-0.521023722852752,0.9645855990676133,-0.7273505534611153,-0.22602114830777445,-2.576100166656625,0.3082083822247424,-1.0122449270778275,0.9147867391711657,-1.1746482658833526,0.7636095470102099
124,-0.8754486484248594,1.8501059426705446,0.7004999556056745,-1.1700277333668196,0.022103919357398777,-0.14966352232689945,1.3256475871537636,0.5137311841545029,-1.0092197827140654,-0.25191545583461006,-0.23783747891796328,0.5028748244897774,-0.7529530298272669,0.029111087553887995,0.02380306941364274,1.5129398036769472,0.23099135769478238,0.7838893128796068,0.33952156888156204,0.01098259907445908,-0.5238339385504068,0.9669462178124699,-0.728293529946692,-0.22895009379424328,-2.5767026429389834,0.31008764491449237,-1.0104772853513637,0.916276292430273,-1.1767814402573873,0.7623087981774049
125,-0.8761806928417796,1.850534729811463,0.6988956024177103,-1.1703790080543481,0.016784597906168215,-0.14941519847942397,1.324613137655524,0.5146323942292651,-1.011563202665556,-0.2503533139837451,-0.2384803589754925,0.502668526618822,-0.7546743916820405,0.028842463102016384,0.018276694949745213,1.513400555170134,0.23041173558272526,0.7849643407973701,0.3375137259232762,0.01259445453568547,-0.526649515376463,0.9692798279859041,-0.7292591768976349,-0.23188222414695447,-2.577341241021793,0.311947360754813,-1.0087400220131688,0.9177461912791262,-1.17892803765456,0.7610039156436562
126,-0.8769117312358614,1.8509610263277334,0.6972974468126605,-1.1707328907974848,0.01149461154133925,-0.1491683265085356,1.323586479201544,0.5155259364678575,-1.0138970045214464,-0.24880118523815306,-0.23912314812808771,0.5024591763669238,-0.7563933910795255,0.028571828185171965,0.012770089238119786,1.5138625760829147,0.22983749964145853,0.78603538137993,0.3355150277258218,0.014199188720217167,-0.5294694499464525,0.9715878910754302,-0.7302462848491139,-0.23481653917836717,-2.5780145912449823,0.31378882097331817,-1.0070317136526041,0.9191977600375204,-1.1810869227881526,0.7596959652761885
127,-0.8776417920949073,1.8513848930994514,0.6957053865022448,-1.1710893615481663,0.00623389918186573,-0.1489228929645729,1.32256746482058,0.5164119446973223,-1.0162213037907022,-0.24725895760778013,-0.23976590224880398,0.5022469721606425,-0.7581101170978666,0.02829917854088885,0.007283240550280083,1.5143258439218177,0.2292684516178621,0.7871025390146279,0.3335252972565036,0.01579688773405352,-0.5322928095552757,0.9738717715447003,-0.7312537215860351,-0.23775211078034286,-2.5787214008795476,0.31561322870768815,-1.0053510260862646,0.920632232710755,-1.1832570355619243,0.7583859350227024
128,-0.8783709002046517,1.8518063876629576,0.6941193255638457,-1.1714483985871702,0.0010024103068556967,-0.14867888496242845,1.3215559543578967,0.5172905466997809,-1.0185362090058145,-0.24572652212682145,-0.2404086719583554,0.5020321007200323,-0.7598246520411153,0.02802451204316013,0.0018161505498952742,1.5147903372510745,0.22870440581859228,0.7881659120694408,0.33154436913461216,0.01738763369981223,-0.5351187278489846,0.9761327420121895,-0.7322804277197832,-0.24068807848213591,-2.5794604496756253,0.31742170374560397,-1.0036967097131035,0.9220507578810749,-1.1854373865481347,0.7570747394351041
129,-0.8790990768198225,1.8522255643153145,0.692539174210219,-1.1718099786266238,-0.00419989550958822,-0.148436290239876,1.3205518141890502,0.5181618643839624,-1.0208418219451048,-0.24420377290768772,-0.24105150287831786,0.5018147376835629,-0.7615370717165141,0.02774782860260755,-0.0036311664584003436,1.5152560355480815,0.22814518839023643,0.7892255930913673,0.32957208910705826,0.018971504820914618,-0.5379464006373395,0.978371988439175,-0.7333254123406382,-0.2436236451566363,-2.580230585493593,0.31921528726054466,-1.0020675948487234,0.9234544035881372,-1.1876270525965438,0.7557632241039246
130,-0.8798263398477644,1.8526424742370036,0.6909648485288232,-1.1721740769140563,-0.009373049202578497,-0.1481950971942035,1.3195549169138783,0.5190260139939703,-1.02313823790345,-0.24269060714042426,-0.24169443589304188,0.5015950482278687,-0.7632474457358343,0.02746913006307728,-0.009058684394179495,1.5157229190805783,0.22759063660721846,0.7902816690363635,0.32760831348993136,0.020548575489570745,-0.5407750818665357,0.9805906152673134,-0.7343877487801919,-0.2465580728939573,-2.5810307200535645,0.3209949464917498,-1.0004625870944845,0.9248441621464712,-1.1898251725985076,0.7544521699720208
131,-0.8805527040404659,1.8530571656281176,0.6893962701994573,-1.1725406673369312,-0.014517072925216952,-0.14795529490075973,1.3185651410382127,0.5198831063457632,-1.0254255459989694,-0.2411869250485381,-0.24233750741606294,0.5013731876766204,-0.7649558378328537,0.027188420096034935,-0.014466366347902063,1.5161909688028794,0.22704059817416314,0.791334221522189,0.32565290858879054,0.022118916428466532,-0.5436040797660525,0.9827896504576078,-0.7354665705104699,-0.2494906790559908,-2.581859824830569,0.3227615793267068,-0.9988806627865635,0.9262209548581088,-1.1920309434239802,0.7531422975032426
132,-0.8812781811914513,1.8534696838540035,0.6878333661975752,-1.1729097225267409,-0.019631980832360015,-0.1477168731166001,1.3175823706495757,0.5207332470832305,-1.0277038295050531,-0.23969262981067108,-0.24298074965746613,0.5011493020939622,-0.7666623061903077,0.02690570409395941,-0.0198541655814284,1.5166601662687358,0.2264949305480093,0.7923833270968206,0.3237057501084266,0.023682594857529587,-0.5464327531789471,0.9849700503925943,-0.7365610671998893,-0.25242083252091074,-2.5827169271157713,0.3245160187533003,-0.9973208645608856,0.9275856365874642,-1.1942436160438583,0.7518342706878702
133,-0.8820027803345534,1.853880071596932,0.6862760684894634,-1.1732812139618753,-0.024717779914229684,-0.14747982227202563,1.3166064950920118,0.5215765369470049,-1.029973166198765,-0.23820762745619042,-0.24362419088926013,0.5009235288589643,-0.7683669037707516,0.026620989063773276,-0.025222026559002256,1.5171304935586354,0.22595350028393704,0.793429057516256,0.32176672256099925,0.025239674678471307,-0.5492605080810309,0.9871327046122655,-0.7376704809405581,-0.25534795012270917,-2.583601106258176,0.32625903715636356,-0.9957822970618622,0.928939000173244,-1.1964624918455702,0.7505287008718617
134,-0.8827265079420809,1.8542883690109142,0.6847243137244248,-1.1736551120685996,-0.029774470858685002,-0.14724413345244863,1.3156374086442386,0.5224130720502704,-1.0322336287181177,-0.2367318267415456,-0.24426785570634607,0.5006959972184036,-0.7700696786467496,0.02633428352119787,-0.030569885989181665,1.517601933219576,0.2254161824081253,0.794471480026559,0.3198357186798367,0.02679021667097653,-0.5520867942911328,0.9892784403617167,-0.7387941026566671,-0.2582714932876162,-2.5845114900962782,0.32799135043989375,-0.9942641228159845,0.9302817806587784,-1.1986869191460205,0.7492261504013844
135,-0.88344936812033,1.8546946138772766,0.6831780429281942,-1.174031386319583,-0.03480204892448612,-0.14700979837269054,1.3146750102044604,0.5232429441568185,-1.0344852849220083,-0.23526513901315743,-0.24491176528113323,0.5004668288159274,-0.7717706743266634,0.026045597386784084,-0.03589767386159637,1.5180744682155531,0.22488285981946504,0.7955106576459069,0.3179126388447731,0.028334278695447364,-0.5549111023720062,0.9914080269348545,-0.7399312686997317,-0.26119096486660814,-2.5854472515849616,0.32971362196174375,-0.9927655582854564,0.9316146593277723,-1.2009162899028842,0.7479271360778253
136,-0.8841713628007799,1.8550988417590308,0.6816372012010117,-1.1744100053295283,-0.039800504810985314,-0.14677680934552223,1.3137192029844593,0.524066240957464,-1.0367281982477319,-0.23380747806164914,-0.2455559376102612,0.5002361381962827,-0.7734699300730524,0.02575494188424517,-0.04120531446539821,1.518548081887199,0.22435342272160405,0.7965466494431984,0.3159973905236727,0.029871915898114765,-0.5577329607192901,0.9935221798038687,-0.741081357633132,-0.26410590616106994,-2.5864076056195087,0.3314264662722822,-0.9912858701120801,0.9329382675372094,-1.2031500366227013,0.7466321324215568
137,-0.8848924919256467,1.855501086152453,0.680101737423081,-1.1747909369475311,-0.04476982551239871,-0.14654515924599007,1.3127698942149642,0.5248830463416955,-1.0389624280619818,-0.23235875997139321,-0.2462003877522423,0.5000040332838239,-0.7751674812113462,0.025462329441605248,-0.04649272737887995,1.519022757919194,0.2238277680860747,0.797579510810468,0.31408988773373153,0.03140318091512086,-0.560551932834237,0.9956215645286499,-0.7422437872056902,-0.26701589413698845,-2.587391806055801,0.33313045265241736,-0.98982437155745,0.934253190343079,-1.205387629462186,0.7453415747452613
138,-0.8856127536267663,1.8559013786346108,0.6785716039695451,-1.1751741483458875,-0.049709995147181024,-0.14631484147283502,1.3118269948637642,0.5256934406620798,-1.0411880300020926,-0.23091890296861906,-0.2468451280551431,0.4997706158349496,-0.7768633594269976,0.02516777359557627,-0.05175982842200067,1.5194984803142286,0.223305799146741,0.7986092937269503,0.31219005052524385,0.03292812407285735,-0.563367614774594,0.997706800444035,-0.7434180115118332,-0.2699205388217397,-2.5883991429235294,0.3348261084496041,-0.9883804191420564,0.9355599699178472,-1.20762857351757,0.7440558620396555
139,-0.8863321443970283,1.8562997490058581,0.6770467564365948,-1.1755596061051337,-0.05462099575507591,-0.14608584990810258,1.3108904193675943,0.5264975009895085,-1.0434050563050155,-0.22948782727069703,-0.2474901683736852,0.4995359818644808,-0.7785575930497995,0.024871288899486317,-0.05700653056550619,1.519975233372456,0.2227874249253817,0.7996360470131512,0.3102978044897501,0.03444679358243165,-0.566179632777029,0.9997784641257875,-0.7446035183341527,-0.2728194808765501,-2.5894289398274744,0.3365139222130822,-0.9869534094830771,0.9368591087612371,-1.209872406295572,0.7427753596760706
140,-0.8870506592538011,1.856696225426558,0.675527153379893,-1.1759472762951655,-0.05950280805617853,-0.1458581788758559,1.3099600853784445,0.5272953013578472,-1.0456135561221445,-0.22806545493867267,-0.2481355162753663,0.49930022204628943,-0.7802502073244433,0.02457289083500266,-0.06223274479200213,1.5204530016755005,0.22227255978789037,0.8006598165737135,0.30841308029383563,0.035959235726632593,-0.568987641043767,1.0018370926386517,-0.7457998266628207,-0.27571238933700304,-2.5904805515305545,0.3381943466317032,-0.9855427763283401,0.9381510727080031,-1.2121186953586773,0.7415004019315987
141,-0.8877682918939719,1.8570908345474995,0.6740127560661238,-1.176337124552341,-0.06435541216785377,-0.14563182310074352,1.3090359135246386,0.5280869129969583,-1.0478135758186393,-0.22665170973466178,-0.2487811772353907,0.4990634220887171,-0.7819412246667338,0.024272595727823233,-0.06743838090575564,1.5209317700742149,0.22176112303030765,0.801680645628237,0.3065358132393071,0.03746549503819163,-0.5717913196856119,1.0038831865717452,-0.7470064843853028,-0.27859895951348523,-2.5915533617113296,0.3398678012793704,-0.9841479877821313,0.9394362937380513,-1.2143670361367815,0.740231294343457
142,-0.8884850348403838,1.8574836016336471,0.6725035282381725,-1.176729116152516,-0.0691787882766329,-0.145406777667032,1.3081178271867753,0.5288724045534078,-1.0500051592563395,-0.22524651698532405,-0.24942715482035255,0.4988256630855097,-0.7836306649051543,0.023970420667449394,-0.07262334828919845,1.5214115236794927,0.22125303849369696,0.8026985749295169,0.3046659428500244,0.03896561446849188,-0.5745903728132283,1.0059172128680387,-0.7482230661390664,-0.28147891104318284,-2.5926467808879163,0.34153467517439684,-0.9827685437170972,0.9407151725955402,-1.2166170498968232,0.7389683158999049
143,-0.88920087957958,1.8578745506810084,0.6709994358941818,-1.1771232160799996,-0.07397291726328828,-0.1451830379785913,1.3072057522884224,0.5296518422984507,-1.052188348059736,-0.22384980345230115,-0.2500734508607448,0.49858702184313375,-0.7853185455077029,0.02366638343110031,-0.077787556605104,1.5218922478555303,0.2207482342067226,0.8037136429689232,0.3028034124852995,0.04045963554617518,-0.5773845267684157,1.0079396074557951,-0.7494491713194796,-0.284351986085112,-2.5937602444998085,0.3431953291600488,-0.9814039733654218,0.9419880812245488,-1.2188683818618142,0.737711721075508
144,-0.8899158166908744,1.858263704526522,0.6695004470805198,-1.1775193890924607,-0.07873778128018567,-0.1449605997202166,1.3062996171012844,0.5304252903231269,-1.0543631818647794,-0.22246149721022793,-0.2507200656124706,0.498347571185444,-0.7870048817941099,0.02336050241178423,-0.08293091644424044,1.5223739282150288,0.22024664205468023,0.8047258861688528,0.3009481689794763,0.04194759852534333,-0.5801735284870956,1.00995077769064,-0.7506844222347816,-0.28721794764967185,-2.594893211138807,0.34485009811422346,-0.9800538330816725,0.9432553650295732,-1.2211206994705914,0.7364617417188226
145,-0.8906298359668566,1.8586510849509732,0.6680065316985255,-1.1779175997818327,-0.08347336428075723,-0.14473945882057931,1.3053993520644473,0.5311928107204879,-1.0565296985505495,-0.22108152753269456,-0.251366997907619,0.49810738023674267,-0.7886896871336967,0.023052796550503647,-0.08805333991897919,1.5228565506158995,0.21974819747365737,0.8057353390623565,0.29910016230706915,0.043429542523251076,-0.5829571439858245,1.011951104617479,-0.7519284623998586,-0.29007657805431614,-2.5960451609201676,0.34649929299666776,-0.9787177042691694,0.9445173449695596,-1.2233736907696593,0.7352185888006996
146,-0.891342926525512,1.8590367127750187,0.6665176613247584,-1.1783178126312996,-0.08817965250154677,-0.14451961141702396,1.3045048896171956,0.5319544637551337,-1.0586879344540228,-0.21970982478634815,-0.25201424529483096,0.49786651468431903,-0.7903729731292535,0.022743285272539344,-0.09315474120388763,1.5233401011591026,0.21925283916845978,0.806742034460181,0.29725934527265524,0.04490550564755155,-0.585735156963817,1.013940945061803,-0.7531809549605385,-0.2929276774971257,-2.5972155939850885,0.3481432027424097,-0.9773951914613969,0.9457743194944325,-1.2256270629286383,0.7339824540314102
147,-0.892055076914191,1.8594206079484707,0.6650338090443725,-1.1787199920684583,-0.09285663489776992,-0.14430105382236266,1.3036161640448325,0.5327103080203588,-1.0608379245683308,-0.218346320333168,-0.25266180416963474,0.4976250370215804,-0.7920547497874062,0.022431988427731545,-0.09823503702476989,1.523824566187311,0.21876050885292195,0.807746003605572,0.29542567322457536,0.046375525113284397,-0.5885073675127023,1.0159206335600688,-0.7544415812402064,-0.29577106274031867,-2.5984040291258057,0.34978209601018195,-0.9760859205498049,0.9470265663331716,-1.227880540871049,0.7327535113547033
148,-0.8927662752057098,1.8598027896330405,0.6635549492971509,-1.1791241025147736,-0.09750430353372067,-0.1440837824937647,1.3027331113368787,0.5334604005833035,-1.062979702725032,-0.2169909464408248,-0.25330966989516535,0.49738300677289465,-0.7937350256760113,0.022118926234654758,-0.10329414709795905,1.5243099322841434,0.21827115101122327,0.8087472763172687,0.2935991037913967,0.04783963734989856,-0.5912735909265231,1.0178904841388343,-0.7557100394007104,-0.2986065658960321,-2.599610002524767,0.35141622279460083,-0.9747895371493188,0.9482743441424596,-1.230133866012443,0.7315319183267268
149,-0.8934765090868955,1.8601832762787764,0.662081057735677,-1.179530108431451,-0.10212265392965855,-0.14386779400379313,1.3018556690569945,0.5342047971185776,-1.0651133017610155,-0.2156436362009364,-0.2539578369137095,0.4971404807012547,-0.7954138080691661,0.021804119228565517,-0.10833199452192005,1.5247961862737487,0.2177847126788504,0.8097458811211797,0.2917795966400215,0.04929787809867931,-0.5940336566048026,1.019850791952224,-0.7569860432097635,-0.301434033307043,-2.6008330665996495,0.35304581591074113,-0.9735057050929525,0.9495178940247844,-1.232386795098214,0.7303178173875127
150,-0.8941857659399115,1.8605620856944673,0.660612111095074,-1.1799379743618648,-0.10671168536703812,-0.1436530850136036,1.3009837762239493,0.5349435520308782,-1.0672387536707253,-0.2143043234549569,-0.2546062988495346,0.49689751299985835,-0.797091103080456,0.02148758821298856,-0.11334850612340942,1.5252833152205756,0.21730114324187833,0.8107418453712758,0.28996711325428115,0.05075028250100629,-0.5967874070418527,1.0218018347870743,-0.7582693209073328,-0.3042533245154522,-2.602072788946311,0.35467109235954936,-0.9722341050470895,0.9507574409246679,-1.234639099133765,0.7291113370324469
151,-0.8948940329167193,1.8609392351122933,0.6591480870737143,-1.180347664970685,-0.11127140115410714,-0.14343965224828958,1.3001173732029612,0.5356767185671555,-1.069356089744442,-0.21297294272737882,-0.25525504860346954,0.49665415546866665,-0.798766915785079,0.02116935421479683,-0.118343612760564,1.525771306429183,0.2168203942532841,0.8117351953602618,0.28816161673283447,0.052196885177909866,-0.5995346968958533,1.0237438744448388,-0.759559614163822,-0.30706431131272394,-2.6033287513721244,0.356292254582273,-0.9709744332392296,0.9519931949114121,-1.2368905624000928,0.7279125928908289
152,-0.895601297007037,1.8613147412470272,0.6576889642242876,-1.18075914507985,-0.11580180885401141,-0.14322749247433414,1.2992564016067234,0.5364043489189079,-1.0714653406933894,-0.21164942916588697,-0.25590407843970564,0.49641045767697084,-0.800441250331494,0.020849438442633376,-0.12331724958536869,1.526260147443981,0.21634241926505696,0.8127259564206086,0.28636307160518587,0.05363772030141922,-0.6022753921315961,1.0256771580089898,-0.7608566771232024,-0.30986687686485237,-2.6046005490125426,0.35790949161177577,-0.9697264002902888,0.9532253523564315,-1.2391409815482197,0.7267216887182895
153,-0.8963075451001618,1.861688620350092,0.6562347218546066,-1.1811723797015368,-0.1203029204776108,-0.14301660247910913,1.2984008042054576,0.537126494315194,-1.073566536762448,-0.21033371848807392,-0.25655338006528583,0.49616646711295626,-0.8021141100432451,0.020527862248518297,-0.12826935626798847,1.5267498260488197,0.2158671736749223,0.8137141530165286,0.28457144366464854,0.05507282165821042,-0.6050093692311581,1.0276019190062826,-0.762160275524602,-0.3126609149068005,-2.6058877895241292,0.3595229801282648,-0.9684897301438654,0.9544540970128826,-1.2413901647662993,0.7255387173094886
154,-0.8970127640410227,1.862060888258783,0.654785339937536,-1.1815873340682812,-0.12477475264324055,-0.14280697905234735,1.297550524845341,0.5378432051069528,-1.0756597078312664,-0.20902574693431067,-0.2572029447027399,0.49592222932120816,-0.8037854975115959,0.02020464709248143,-0.13319987718545193,1.5272403302663566,0.215394614586555,0.8146998088274814,0.2827866998171022,0.05650222270606741,-0.607736514467127,1.029518378469843,-0.7634701858962328,-0.315446329000732,-2.607190092347707,0.3611328854265911,-0.9672641590852389,0.9556796010049242,-1.2436379310136014,0.7243637613371517
155,-0.8977169406808245,1.8624315604409623,0.6533407990294336,-1.1820039736603984,-0.129217326705651,-0.14259861896950254,1.2967055083746823,0.5385545308432181,-1.0777448835045438,-0.20772545122635672,-0.2578527631563146,0.4956777880290577,-0.8054554146796041,0.019879814510060503,-0.13810876157714727,1.5277316483571592,0.2149247006822185,0.8156829468237818,0.281008807944426,0.05792595662366678,-0.6104567232333605,1.0314267459116235,-0.7647861948159025,-0.3182230318529191,-2.6085070880356667,0.3627393623019049,-0.9660494348432387,0.9569020257335464,-1.2458841093159654,0.7231968941231492
156,-0.8984200619226363,1.8628006520355278,0.6519010801965157,-1.182422264230856,-0.1336306688563336,-0.14239151897690366,1.2958657005772438,0.539260520339799,-1.0798220931922529,-0.20643276853129336,-0.2585028258722327,0.4954331852626189,-0.8071238629182396,0.019553386082505293,-0.14299596366954337,1.5282237688185083,0.2144573921068264,0.8166635893348736,0.27923773678152636,0.05934405635418786,-0.6131698994286072,1.0333272202113457,-0.7661080982327217,-0.3209909446845634,-2.609838417637895,0.3643425558600615,-0.9648453157685005,0.9581215227055124,-1.2481285381176743,0.722038180346965
157,-0.8991221147622699,1.8631681778889515,0.6504661649485666,-1.1828421718277438,-0.13801481019739442,-0.1421856757786047,1.2950310481121365,0.5399612217409838,-1.0818913661805458,-0.20514763643036862,-0.25915312299339993,0.4951884614533182,-0.8087908430951322,0.019225383409530426,-0.14786144277248245,1.528716680382883,0.21399265036248505,0.8176417581108091,0.2774734558059229,0.06075655464323665,-0.6158759548886437,1.0352199904286181,-0.7674357008449794,-0.32374999665210635,-2.6111837321411526,0.36594260225878783,-0.9636515700820091,0.9593382342915567,-1.2503710646850663,0.7208876766965525
158,-0.8998230863247794,1.863534152588172,0.6490360351794451,-1.1832636628144888,-0.14236978679107598,-0.14198108602482803,1.2942014984597454,0.5406566825748047,-1.0839527316940605,-0.20386999289235122,-0.25980364440896064,0.4949436555356705,-0.8104563556365088,0.018895828084462444,-0.15270516334931092,1.5292103720161196,0.21353043821263587,0.8186174743774598,0.2757159351389052,0.06216348407155453,-0.6185748088629076,1.0371052365444968,-0.7687688155295002,-0.32650012431293207,-2.6125426919571204,0.36753962938523843,-0.9624679751882084,0.9605522944195922,-1.2526115445575343,0.7197454324662399
159,-0.9005229638969026,1.8638985904901144,0.6476106731138564,-1.183686703887952,-0.14669563968695384,-0.14177774630189832,1.293376999873169,0.5413469498023747,-1.0860062189503152,-0.20259977625100442,-0.26045437979908576,0.4946988050370079,-0.8121204005828525,0.018564741671630892,-0.1575270950630254,1.529704832915239,0.21307071959497575,0.8195907588859536,0.27396514545732076,0.06356487708296292,-0.6212663875319059,1.0389831301383412,-0.7701072628181396,-0.32924127113267265,-2.613914966454684,0.3691337574751946,-0.961294317047333,0.9617638292082944,-1.2548498410418993,0.7186114901060159
160,-0.9012217349557484,1.8642615057481033,0.6461900612598882,-1.1841112620945442,-0.15099241492875193,-0.14157565312356335,1.292557501334693,0.5420320698617884,-1.0880518572068498,-0.2013369251863059,-0.26110531867535597,0.49445394615981986,-0.8137829776387907,0.01823214568585771,-0.1623272128005128,1.5302000525059518,0.21261345954239078,0.8205616319568141,0.2722210579151092,0.06496076600797313,-0.623950623561963,1.0408538350054124,-0.7714508704173889,-0.3319733870306203,-2.6153002335323845,0.3707250996788003,-0.960130389601979,0.9629729575460595,-1.257085824746446,0.7174858857262184
161,-0.901919387194022,1.864622912335413,0.6447741823668335,-1.1845373048444918,-0.15526016354263178,-0.14137480292360066,1.291742952516844,0.5427120887070477,-1.0900896758017335,-0.20008137870905718,-0.26175645041708506,0.49420911385731914,-0.8154440862176878,0.01789806157390449,-0.1671054966768619,1.5306960204398525,0.21215862411119435,0.8215301135192494,0.27048364407374687,0.06635118308346756,-0.626627455694148,1.042717507720277,-0.7727994727673694,-0.3346964279600257,-2.6166981792272717,0.37231376257737736,-0.9589759942532843,0.9641797916199761,-1.259319373151206,0.7163686495613484
162,-0.9026159085420624,1.8649828240661948,0.6433630193878529,-1.1849647999243766,-0.15949894150871685,-0.1411751920496101,1.2909333037476043,0.5433870518424512,-1.0921197041880282,-0.19883307614854556,-0.26240776430390805,0.49396434190280475,-0.8171037254813937,0.017562510697742808,-0.17186193202161787,1.5311927265913137,0.21170618031601354,0.8224962231460122,0.26875287584082025,0.06773616046883459,-0.6292968283644703,1.0445742981507042,-0.7741529106367846,-0.3374103555203209,-2.618108497356722,0.37389984665553005,-0.9578309393824253,0.9653844373991065,-1.2615503702113477,0.7152598063964482
163,-0.9033112871869543,1.8653412546140034,0.641956555447054,-1.1853937155080716,-0.16370880971751736,-0.14097681675789647,1.2901285059793934,0.5440570043528561,-1.094141971962761,-0.19759195714294048,-0.26305924954493964,0.4937196629533499,-0.8187618943755676,0.017225514319518565,-0.17659650934874496,1.5316901610541023,0.21125609607071785,0.8234599800842274,0.2670287254159964,0.06911573025891511,-0.631958691352673,1.046424349926389,-0.7755110307506734,-0.3401151365985474,-2.619530889190062,0.3754834467324296,-0.9566950399134617,0.966586995076049,-1.2637787059907912,0.7141593759592182
164,-0.9040055115889577,1.8656982175281307,0.6405547738105921,-1.1858240201661852,-0.1678898339128243,-0.14077967320934948,1.2893285107614556,0.544721990930197,-1.096156508890922,-0.19635796163212685,-0.2637108953047888,0.49347510860830507,-0.8204185916609719,0.016887093588087553,-0.18130922431195629,1.5321883141377364,0.21080834013483246,0.8244214032825563,0.26531116524370923,0.07048992449409505,-0.6346129994571755,1.0482678008665034,-0.7768736854480615,-0.3428107430374959,-2.6209650631471173,0.3770646523558688,-0.9555681169138635,0.9677875594704446,-1.2660042763234047,0.7130673732807935
165,-0.9046985704954871,1.866053726247943,0.6391576578614246,-1.1862556828741238,-0.17204208462254444,-0.14058375746623247,1.2885332702153158,0.5453820558966184,-1.0981633449249713,-0.19513102985269803,-0.2643626907266981,0.4932307094630676,-0.8220738159411008,0.016547269527005432,-0.18600007764696427,1.5326871763636054,0.21036288206492304,0.8253805114150428,0.26360016797192837,0.07185877516785412,-0.6372597121939207,1.0501047833697543,-0.7782407323668508,-0.345497151328274,-2.6224107345210497,0.378643548162392,-0.9544499972293451,0.9689862203978007,-1.2682269824993668,0.7119838090278662
166,-0.9053904529528548,1.8664077941154054,0.6377651910773765,-1.1866886730188762,-0.17616563707885233,-0.14038906548979627,1.2877427370129966,0.546037243224554,-1.100162510220305,-0.19391110233485073,-0.26501462495305655,0.4929864951585339,-0.8237275656864868,0.01620606302386162,-0.19066907510210282,1.5331867384608762,0.2099196921704814,0.8263373229019605,0.26189570641642435,0.07322231423205827,-0.6398987935170771,1.0519354247703332,-0.7796120341535105,-0.3481743423252137,-2.6238676252230966,0.3802202142065386,-0.9533405131499068,0.9701830630067293,-1.2704467309744842,0.7109086898086203
167,-0.9060811483159801,1.8667604343859612,0.6363773570121974,-1.1871229604046163,-0.18026057112894284,-0.14019559313863805,1.2869568643577103,0.5466875965540606,-1.1021540351470978,-0.19269811990094385,-0.26566668714351915,0.49274249442661794,-0.8253798392559966,0.015863494820852714,-0.19531622735867138,1.5336869913622073,0.20947874147388112,0.8272918559279583,0.260197753529988,0.07458057360026087,-0.6425302115597205,1.053759847662861,-0.7809874581953409,-0.35084230098120983,-2.6253354635470316,0.3817947262619881,-0.9522395021042328,0.9713781680874459,-1.2726634331004485,0.7098420184547423
