epoch,W1[0],W1[1],W1[2],W1[3],W1[4],W1[5],W1[6],W1[7],W1[8],W1[9],W1[10],W1[11],W1[12],W1[13],W1[14],W1[15],W1[16],W1[17],W1[18],W1[19],W2[0],W2[1],W2[2],W2[3],W2[4],W2[5],W2[6],W2[7],W2[8],W2[9]
0,-0.6244475126094831,-1.418614488845727,0.4646266150954445,0.7008793016955308,0.30930904106962537,0.12878507765604505,-0.577752134525518,-1.1257470528664462,-1.4037170339581946,2.4538576449127762,1.7555909529859572,-1.6669800649091746,2.0180933350972725,0.9833997213393153,2.5837978750585955,-1.0574052434124772,-1.2008400315357304,-0.7957921081454984,0.28923032932682347,-0.3334049392288412,0.7577349213049732,-1.5426082313032967,-0.15122725368564502,-0.44874773994662304,-0.17161303427246927,-0.6508386223768933,1.3438964202168682,-0.10570024634803986,-2.705122199505256,1.0471291501252689
1,-0.6249170660907813,-1.4163589797499192,0.4649452661651079,0.7014107045775841,0.3097300685408895,0.12922167926752595,-0.5796250819883438,-1.125644167632837,-1.4044082094120398,2.45410720028417,1.7568952412778964,-1.6669422130483784,2.0180259129151756,0.9830391517218594,2.5837395503634966,-1.058501825278189,-1.1997910887044503,-0.7958442205162554,0.2857827163952489,-0.33320435641404594,0.7573672573448803,-1.5468889635871044,-0.15302979805909328,-0.4515738748470635,-0.17283932207035924,-0.6568384725117179,1.338508820906517,-0.11018566053338967,-2.7086132724938,1.0429724133244485
2,-0.6253313954764984,-1.4141449536337103,0.46525932957765737,0.7019178006927419,0.31014497285889425,0.12961084854650087,-0.5814088683206994,-1.1255425526695433,-1.4052457451267626,2.4543851080163117,1.7582325783962887,-1.6669425313552022,2.017954115425616,0.9826566424368556,2.5836781629003234,-1.0596450189892437,-1.1986969799433345,-0.795903395439854,0.28217028155727875,-0.3329562404780261,0.757365864851881,-1.5510472277747458,-0.15439515488784067,-0.4539860841270714,-0.17362652972375822,-0.6625946006428952,1.333327787825947,-0.11449329943418597,-2.711894222678595,1.0392516877514246
3,-0.6256963060331039,-1.4119689709579637,0.46556843768842326,0.7024024225996987,0.3105533145480701,0.1299567464157939,-0.5831120261192048,-1.125442272179867,-1.4062129455886943,2.4546880458524756,1.7595986001630584,-1.6669762492661055,2.0178786095520005,0.9822552646044492,2.5836142373701074,-1.0608296531910206,-1.1975657456216036,-0.7959691982795373,0.2784184005480955,-0.33266779956962783,0.7576856134776421,-1.5550961316535261,-0.1553754838660829,-0.45603236479499615,-0.17402771599805877,-0.6681322277612277,1.3283319412736174,-0.11864259777859995,-2.7149907104609317,1.0359194777201957
4,-0.6260169377874814,-1.40982779001554,0.46587235294212087,0.7028663072537644,0.3109547985759619,0.1302631954446625,-0.5847422016558401,-1.1253433417331937,-1.4072948388427255,2.455013098264922,1.760989610471717,-1.6670392564582492,2.017799996991278,0.9818377009962879,2.5835482420802878,-1.0620512051400333,-1.1964041518411084,-0.7960412139502089,0.2745489002601675,-0.33234512106924646,0.7582875283512345,-1.559047127984708,-0.15601613605341136,-0.4577545986367695,-0.17408894981183884,-0.6734736066933402,1.323502613097778,-0.12265045902570189,-2.717925005160233,1.0329340361868586
5,-0.6262978426302324,-1.4077183848062595,0.4661709345305224,0.7033110825252267,0.3113492382100564,0.13053369178945898,-0.5863062343775435,-1.1252457416117316,-1.4084780254692146,2.4553577055424074,1.7624024642136908,-1.667127998006143,2.0177188177466983,0.9814062975111969,2.583480593415571,-1.0633057098956187,-1.1952179154598706,-0.796119050104794,0.2705806074040034,-0.33199337002597046,0.7591378487733484,-1.5629102487974615,-0.15635663634952437,-0.45918940577533823,-0.1738503309061922,-0.6786383915520996,1.3188234654431479,-0.12653162556696426,-2.7207164799781416,1.0302586242817937
6,-0.6265430548882149,-1.4056379502449134,0.4664641130393146,0.7037382617580152,0.3117365274528712,0.1307714235621149,-0.5878102364098047,-1.1251494269422806,-1.4097505265916772,2.4557196180216794,1.7638344718791137,-1.6672393874627398,2.017635554640537,0.9809631083772927,2.583411660599702,-1.0645896820564644,-1.194011886430511,-0.7962023383847688,0.26652980815913,-0.3316169493398024,0.7602072384873598,-1.5666943043478365,-0.15643152056263118,-0.46036887838751667,-0.1733468567798715,-0.6836439643962906,1.314280165294888,-0.13029899119825872,-2.7233820310427657,1.0278608597185772
7,-0.626756154545469,-1.403583899253428,0.46675187122886175,0.7041492435725815,0.31211662007587726,0.13097929233888198,-0.5892596683673386,-1.1250543353687261,-1.411101638347632,2.4560968556840286,1.7652833219097763,-1.667370734875303,2.017550638194978,0.9805099353831441,2.5833417704001684,-1.0659000488308972,-1.1927901956279854,-0.7962907344585559,0.26241063216531135,-0.3312196292765003,0.7614701247938207,-1.5704070517646571,-0.15627104525152272,-0.46132120762249657,-0.17260915590076367,-0.6885057212373763,1.3098601075382108,-0.13396386444155284,-2.7259364312270513,1.0257121492876977
8,-0.626940323108129,-1.401553854843957,0.4670342295039143,0.7045453149845946,0.31248951370804295,0.13115993573129572,-0.5906594095914354,-1.124960392849481,-1.4125217966780153,2.4564876728998635,1.7667470174823883,-1.6675196871361646,2.017464451515699,0.9800483616814658,2.5832712115845062,-1.0672340930607627,-1.1915563749053701,-0.7963839173267332,0.2582353730221199,-0.3308046524639361,0.7629041458496357,-1.5740553379834703,-0.15590178830159715,-0.4620712175188762,-0.17166410659441284,-0.6932373209467753,1.305552179586315,-0.1375361904582147,-2.728392628671025,1.0237871977195248
9,-0.6270983925415292,-1.3995456392914083,0.4673112349584844,0.704927656523489,0.31285523778656893,0.13131574974759191,-0.5920138220430745,-1.1248675180273753,-1.4140024540822689,2.4568905278897555,1.7682238249710207,-1.6676841784706888,2.017377334970242,0.9795797807944476,2.5832002390339825,-1.0685894048315117,-1.1903134548477403,-0.7964815882082276,0.25401475593055384,-0.33037481929713797,0.7644896881276536,-1.5776452210164675,-0.15534715675491795,-0.4626408191075324,-0.17053535925328728,-0.6978509011300738,1.3013465613020962,-0.14102473829076917,-2.7307619988037675,1.0220635841922792
10,-0.6272328879099601,-1.3975572617958005,0.4675829531427723,0.7052973484629177,0.3132138444547295,0.1314489102029418,-0.5933268077367614,-1.1247756255129249,-1.4155359686667692,2.4573040563866617,1.7697122318417688,-1.6678623892364455,2.0172895905524695,0.979105421450651,2.5831290774791853,-1.0699638404039344,-1.1890640446229739,-0.7965834692112213,0.24975816153570216,-0.32993255767496915,0.7662094986927293,-1.5811820730347173,-0.15462781648926488,-0.4630493966473279,-0.169243777333982,-0.7023572650456666,1.2972345547249595,-0.14443725916844935,-2.733054557442819,1.020521397807541
11,-0.6273460644176695,-1.3955869055546988,0.4678494619010293,0.7056553775720318,0.31356540170705943,0.13156139278030748,-0.5946018599691995,-1.1246846283399765,-1.417115505062539,2.4577270489737253,1.771210912160246,-1.668052711532306,2.017201485885671,0.9786263688412398,2.5830579248564085,-1.0713554873432767,-1.1878103974477683,-0.7966893019187854,0.24547381356515052,-0.32947998018180547,0.768048359431359,-1.5846706682041798,-0.1537620563270247,-0.46331413647915054,-0.16780781039873394,-0.7067660433957446,1.2932084388952003,-0.14778062069361178,-2.735279141387959,1.019142923942235
12,-0.6274399395430422,-1.3936329148377655,0.4681108467842797,0.7060026440010547,0.3139099882477053,0.13165499156219343,-0.5958421087878167,-1.1245944397903074,-1.4187349463927534,2.458158431600427,1.7727186982463423,-1.6682537203908903,2.0171132578537567,0.9781435828223413,2.5829869553027542,-1.0727626348702808,-1.1865544644750767,-0.7967988459702857,0.24116893656548832,-0.3290189311824129,0.7699928125557975,-1.5881152577417008,-0.15276609725069595,-0.4634503075199302,-0.16624381040092187,-0.7110858344493244,1.2892613457883315,-0.15106092092122125,-2.7374435618851276,1.0179123742101228
13,-0.6275163209123773,-1.3916937824325588,0.4683671976601409,0.7063399680546661,0.31424768965437055,0.13173133598917647,-0.5970503612265324,-1.1245049747364142,-1.4203888162940088,2.4585972488263748,1.7742345572990146,-1.6684641495556947,2.0170251158712538,0.9776579135240931,2.582916321817435,-1.0741837486010204,-1.1852979393390901,-0.7969118776872618,0.23684988893340728,-0.3285510257875553,0.7720309285693666,-1.591519634247384,-0.15165435569555544,-0.4634715010600336,-0.16456630059010474,-0.7153243255512923,1.2853871540078543,-0.1542835856567785,-2.7395547354341847,1.0168156536567554
14,-0.627576830496626,-1.3897681376804751,0.46861860623198925,0.7066680967019228,0.3145785955367993,0.13179190628226514,-0.5982291368543258,-1.1244161506159367,-1.4220722099494563,2.459042649394814,1.7757575720466081,-1.6686828710310582,2.016937244814289,0.9771701147626064,2.5828461586206046,-1.0756174489712773,-1.1840422951401826,-0.7970281887712997,0.23252227550967536,-0.328077682245067,0.7741521094444852,-1.594887187022921,-0.15043966840874237,-0.4633898363200317,-0.16278820484000253,-0.7194883986724789,1.281580397432918,-0.15745345172161226,-2.7416187956491296,1.0158401596777036
15,-0.6276229256461228,-1.387854735221481,0.4688651642481149,0.7069877097356271,0.3149027974522206,0.13183804741194682,-0.5993806991640381,-1.124327888124111,-1.4237807331207302,2.4594938737905294,1.7772869246649854,-1.6689088777451249,2.016849807640135,0.9766808555921624,2.5827765832415395,-1.07706249275417,-1.182788815292315,-0.7971475850877077,0.22819104323477693,-0.3276001489938571,0.776346921061938,-1.5982209497953273,-0.1491334851033218,-0.46321613717727733,-0.16092104387213138,-0.7235842222859746,1.2778361864817531,-0.16057483845568818,-2.743641189239248,1.0149746079454822
16,-0.6276559174114914,-1.3859524445002729,0.4691069622334681,0.7072994255368398,0.31522038739611735,0.13187098171993977,-0.600507083291713,-1.124240111690214,-1.4255104482341323,2.4599502434858374,1.7788218833551144,-1.6691412687891172,2.0167629477246116,0.9761907302828255,2.582707698366609,-1.0785177571767524,-1.181538619370253,-0.7972698855400839,0.2238605627321645,-0.32711952736838057,0.7786069500268477,-1.6015236420246093,-0.14774603407664888,-0.4629600845824133,-0.1589751037346026,-0.7276173315238222,1.2741501400413482,-0.1636516093330337,-2.7456267586485796,1.0142088813375818
17,-0.6276769865369803,-1.3840602400438662,0.4693440886161173,0.7076038064283192,0.3155314567293042,0.13189182030860883,-0.6016101205111857,-1.1241527497884958,-1.4272578266632812,2.460411151622373,1.7803617910910727,-1.6693792367957807,2.016676790946192,0.975700266963517,2.5826395934751485,-1.0799822262234617,-1.1802926848680604,-0.7973949210354622,0.2195346981672169,-0.3266367907440011,0.7809246808504887,-1.6047977047747142,-0.14628646507981513,-0.4626303484361199,-0.15695958097138696,-0.7315926982782974,1.270518326438491,-0.16668722524016172,-2.7475798134529024,1.0135338984730884
18,-0.6276871974569596,-1.3821771924938528,0.46957662915063214,0.7079013636187099,0.31583609543482066,0.13190157331326882,-0.6026914599008312,-1.124065735122369,-1.4290197064425505,2.4608760549149102,1.781906056144662,-1.6696220571002733,2.0165914475440476,0.9752099351320779,2.5825723462886283,-1.0814549787832874,-1.1790518656012248,-0.7975225335365149,0.21521686730751857,-0.3261528007579239,0.783293390200591,-1.6080453319628387,-0.14476297299359903,-0.46223470206949924,-0.1548827081537465,-0.7355147926617452,1.2669372120967124,-0.16968479070151438,-2.7495041922529997,1.0129414989929872
19,-0.6276875105775829,-1.3803024603605052,0.46980466656356173,0.7081925617505082,0.31613439162300133,0.1319011591678119,-0.6037525875329085,-1.1239790047117295,-1.430793254735734,2.4613444665966786,1.7834541440688962,-1.6698690783917303,2.0165070137750765,0.974720152201296,2.582506024055715,-1.0829351783550851,-1.177816907342547,-0.7976525751955228,0.21091009336594402,-0.32566832111702976,0.7857070555047709,-1.6112684976668536,-0.14318290526228805,-0.4617801219497936,-0.15275186281647454,-0.7393876370250481,1.2634036167467508,-0.17264709411761467,-2.751403316506996,1.0124243431675939
20,-0.6276787930834471,-1.378435282456999,0.4700282803637337,0.7084778230714281,0.31642643122212133,0.13189141296658505,-0.6047948434926859,-1.1238924999064832,-1.4325759344685178,2.461815950253963,1.7850055708834587,-1.6701197146162687,2.0164235733925384,0.9742312892225363,2.5824406846931494,-1.0844220640733064,-1.176588461168755,-0.7977849075639772,0.20661704992787439,-0.3251840294059848,0.7881602756663274,-1.6144689800590981,-0.1415528555387633,-0.4612728748002507,-0.15057366232415836,-0.7432148535531622,1.2599146742426741,-0.17557664290261096,-2.7532802375015923,1.011975823793124
21,-0.6276618284729379,-1.376574970967836,0.47024754677354236,0.7087575312523078,0.3167122978066214,0.13187309401669492,-0.605819436995347,-1.123806166344179,-1.4343654746096728,2.4622901144217564,1.7865598972539278,-1.6703734379347357,2.0163411989665185,0.9737436759057665,2.5823763777998927,-1.0859149428560757,-1.1753670949045614,-0.7979194008714309,0.20234010003575134,-0.32470052723098863,0.790648202038845,-1.6176483824428864,-0.1398787455840432,-0.46071859396433484,-0.14835404676731934,-0.746999706302578,1.2564677981884045,-0.17847569426100787,-2.755137677462555,1.0115899886577253
22,-0.627637324995185,-1.374720905104412,0.4704625387477202,0.7090320348761832,0.31699207252614736,0.1318468926658442,-0.606827459833811,-1.1237199538656641,-1.4361598436537986,2.4627666078324206,1.7881167234956503,-1.6706297725730097,2.016259953064159,0.9732576050357206,2.5823131455597736,-1.0874131825103774,-1.1741533029787428,-0.7980559333673183,0.19808133031828565,-0.3242183489722035,0.7931664781222844,-1.6208081517921908,-0.1381658971266099,-0.46012234654759543,-0.14609835163855084,-0.7507451384160468,1.2530606517056981,-0.1813462822226688,-2.7569780656408596,1.011261472124222
23,-0.6276059231354761,-1.3728725253014573,0.47067332605402223,0.7093016506233445,0.3172658341072878,0.13181343648195837,-0.6078198983599504,-1.1236338163996225,-1.4379572259180922,2.4632451152262593,1.7896756852645463,-1.67088828943072,2.0161798893054876,0.9727733363680864,2.5822510235458953,-1.0889162056562824,-1.1729475149489876,-0.7981943907197889,0.19384258089998632,-0.32373796936797034,0.7957111867018706,-1.6239495951322196,-0.13641909510838204,-0.4594886926247019,-0.14381137175101472,-0.7544538051408666,1.2496911207792794,-0.1841902414558011,-2.7588035700759486,1.0109854346003244
24,-0.6275682022739595,-1.371029327910025,0.4708799753963722,0.7095666661765503,0.31753365890656504,0.13177329585254796,-0.6087976441749777,-1.123547711824485,-1.4397560003175118,2.4637253536470953,1.7912364498224196,-1.6711486013370955,2.016101053308793,0.9722911000764181,2.582190041438345,-1.090423484354607,-1.1717501029057964,-0.7983346654660256,0.1896254717027754,-0.3232598101137816,0.7982788033629825,-1.6270738940466265,-0.13464264351447483,-0.458821737595528,-0.14149741762462342,-0.7581281031852468,1.2463572907016804,-0.18700922829565414,-2.760616125626293,1.0107575088540832
25,-0.6275246866238916,-1.3691908603452805,0.4710825505657346,0.7098273428694593,0.3177956209983863,0.13172698906412686,-0.6097615036816156,-1.123461601814374,-1.4415547213275781,2.464207069157812,1.7927987127847553,-1.6714103588613136,2.016023483537797,0.9718110998095074,2.5821302236652532,-1.0919345353409884,-1.1705613879282646,-0.7984766565090001,0.18543142565004841,-0.3227842456266146,0.8008661554891753,-1.6301821175539108,-0.13284041479411254,-0.4581251786053046,-0.1391603653696973,-0.7617701968700423,1.2430574252125521,-0.18980473935886746,-2.762417458765517,1.0105737522888538
26,-0.6274758505400535,-1.3673567166502516,0.47128111260761996,0.7100839180999522,0.31805179228564334,0.13167498691512533,-0.6107122066306794,-1.123375451674307,-1.4433521018826807,2.4646900339207445,1.7943621952754927,-1.6716732465999873,2.0159472120614104,0.9713335154098224,2.582071589975949,-1.0934489157847573,-1.169381645734321,-0.7986202686561056,0.1812616892003869,-0.3223116080990592,0.8034703859935484,-1.6332752335596261,-0.13101589372302605,-0.4574023458036279,-0.1368037009363027,-0.7653820414680916,1.2397899479873882,-0.1925781280572062,-2.76420910956619,1.0104306044230795
27,-0.6274221232747937,-1.3655265334396778,0.47147571999794363,0.7103366075285149,0.31830224262372514,0.13161771690959828,-0.6116504137774799,-1.1232892301687716,-1.4451469979909182,2.4651740435960976,1.7959266414266213,-1.6719369798769563,2.0158722652355405,0.9708585053360207,2.5820141559538508,-1.094966219503742,-1.168211111643469,-0.7987654121955767,0.17711735056979758,-0.3218421919464352,0.8060889211516424,-1.6363541190610085,-0.1291722164274815,-0.4566562391004654,-0.13443055946368795,-0.7689654040685485,1.236553426180878,-0.1953306192777019,-2.765992451230176,1.0103248489300103
28,-0.627363893248073,-1.363699986191042,0.4716664288211291,0.7105856070803207,0.3185470399510866,0.13155556707359709,-0.6125767237486468,-1.123202909346896,-1.446938394874922,2.465658915018504,1.797491816171309,-1.6722013018008484,2.0157986643153114,0.9703862088262061,2.5819579334757674,-1.0964860735767286,-1.167049984950157,-0.798912002507049,0.17299935594507085,-0.3213762577328201,0.8087194420015524,-1.6394195692555187,-0.12731220518192957,-0.4558895609800811,-0.1320437603532212,-0.7725218822572731,1.2333465557721992,-0.19806332245727132,-2.767768707471771,1.0102535796846517
29,-0.6273015118885483,-1.3618767858526781,0.47185329294602124,0.7108310947681591,0.31878625042134906,0.13148888943129217,-0.6134916792072341,-1.123116464366754,-1.4487253944724587,2.4661444841176547,1.7990575032880882,-1.6724659806343707,2.0157264260050503,0.9699167478332988,2.5819029311234623,-1.0980081353040996,-1.1658984327896578,-0.7990599597030119,0.16890852394438335,-0.3209140356478004,0.8113598588577431,-1.6424723056836998,-0.12543839950220229,-0.45510474585259897,-0.12964583859590068,-0.7760529208651565,1.230168148494928,-0.20077724324732213,-2.7695389680159095,1.0102141703427254
30,-0.6272352970948619,-1.3600566757414847,0.4720363641964645,0.7110732323519259,0.3190199385333224,0.13141800317374247,-0.6143957723930158,-1.123029873320779,-1.450507204151461,2.4666306040537953,1.8006235036608251,-1.6727308074363145,2.0156555629525528,0.9694502287594566,2.58184915455262,-1.0995320894744973,-1.164756593565073,-0.7992092082982765,0.1648455585427992,-0.3204557285942169,0.8140082885521875,-1.6455129835189908,-0.123553083981001,-0.4543039863549381,-0.12723907280852004,-0.7795598270030143,1.2270171201640225,-0.2034732939365425,-2.771304202436894,1.010204247041704
31,-0.6271655363596458,-1.3582394287052173,0.4722156925143873,0.7113121668490514,0.3192481672564205,0.13134319754954082,-0.6152894501054453,-1.1229431170638342,-1.452283126512026,2.467117143542978,1.8021896337250618,-1.672995593943075,2.015586084193391,0.9689867440127594,2.5817966068237417,-1.1010576459014652,-1.163624579993192,-0.799359676904899,0.160811060648391,-0.32000151493768797,0.8166630340723914,-1.6485421981021269,-0.12165831324948961,-0.4534892569557824,-0.12482551036820283,-0.7830437835734375,1.2238924802375022,-0.2061523027770917,-2.7730652725321616,1.0102216638691088
32,-0.6270924895931317,-1.3564248445265734,0.4723913261139901,0.7115480319089986,0.3194709981497723,0.13126473450336032,-0.6161731181886213,-1.1228561790451193,-1.4540525501632744,2.4676039853504017,1.8037557240761295,-1.673260170661324,2.015517995550376,0.9685263734062401,2.581745288698969,-1.102584537199127,-1.1625024818179917,-0.7995112979502932,0.15680553848811177,-0.31955155096088705,0.8193225663126175,-1.6515604908050356,-0.11975593439598378,-0.4526623351712091,-0.12240698998104838,-0.7865058614259046,1.2207933224717766,-0.20881502234000937,-2.7748229433995064,1.0102644807899124
33,-0.6270163916784828,-1.3546127475483278,0.472563311626206,0.7117809490638148,0.31968849147395706,0.13118285108562713,-0.6170471455705756,-1.1227690451448222,-1.4558149413761818,2.468091024933075,1.8053216182183633,-1.6735243851475092,2.015451299992729,0.9680691854166998,2.5816951989083803,-1.1041125167702392,-1.1613903682331843,-0.799664007416512,0.15282941694033989,-0.31910597305909116,0.8219855076938205,-1.6545683542983176,-0.11784760712825082,-0.4518248206570428,-0.11998516197524017,-0.7899470303008784,1.2177188165477075,-0.21146213700922856,-2.7765778933641196,1.010330943764504
34,-0.6269374547869105,-1.3528029845006317,0.47273169423303235,0.7120110288656687,0.3199007062947683,0.13109776165409784,-0.6179118679031206,-1.1226817035161871,-1.4575698365248888,2.468578169215493,1.8068871714379857,-1.6737881004532214,2.0153859979590107,0.967615238318506,2.5816463343888967,-1.105641356983543,-1.1602882900491114,-0.7998177445989016,0.14888304593240714,-0.31866489970816697,0.8246506174407684,-1.6575662372871618,-0.11593482192836983,-0.4509781524096523,-0.11756150657066892,-0.7933681686909629,1.2146682005599658,-0.21409426970961032,-2.778330722883052,1.01041946682239
35,-0.6268558704771879,-1.350995422513272,0.472896517791652,0.7122383719213452,0.32010770057876126,0.13100965988597635,-0.6187675908432168,-1.1225941444334857,-1.459316835238851,2.4690653354841015,1.8084522497848845,-1.6740511937183,2.015322087647438,0.9671645812056731,2.5815986904985984,-1.1071708475203683,-1.1591962816342107,-0.7999724518825243,0.144966708005766,-0.318228433231706,0.8273167783326493,-1.6605545487726396,-0.11401891641726389,-0.4501236242777169,-0.11513735034469949,-0.796770072732017,1.2116407742754887,-0.21671198795250324,-2.7800819625387536,1.0105286158856064
36,-0.626771811601217,-1.3491899472972118,0.47305782494849613,0.7124630698327921,0.3203095312805986,0.1309187206173261,-0.6196145930122309,-1.1225063601462313,-1.4610555941967456,2.4695524503880883,1.810016729150712,-1.6743135548959303,2.015259565276823,0.9667172549139015,2.581552261208943,-1.1087007938729958,-1.1581143626570565,-0.8001280745349104,0.14108062513823746,-0.3177966613903034,0.8299829847670259,-1.6635336618885204,-0.11210109011893987,-0.44926239896260245,-0.11271388108616531,-0.8001534642240242,1.2086358930782213,-0.2193158092721323,-2.781832080219674,1.0106570941604944
37,-0.6266854340347785,-1.3473864614811046,0.47321565724356657,0.7126852060520139,0.32050625442239383,0.13082510152488078,-0.6204531286654543,-1.1224183447398461,-1.462785821500484,2.470039449035565,1.811580494432547,-1.6745750855959893,2.0151984253210458,0.9662732928528639,2.5815070392771173,-1.1102310159794524,-1.1570425396514334,-0.8002845605138502,0.1372249649015826,-0.3173696588128583,0.8326483319970299,-1.6665039173578873,-0.1101824177913595,-0.44839552066368393,-0.11029216120618567,-0.8035189978701769,1.205652962527133,-0.22190620611735856,-2.7835814875741907,1.0108037289377156
38,-0.6265968782504157,-1.3455848830897277,0.4733700552054505,0.7129048566578856,0.32069792516538176,0.13072894466389987,-0.6212834301007477,-1.1223300940028988,-1.4645072715741831,2.470526274175479,1.8131434387728682,-1.674835698034608,2.015138660719667,0.965832721757835,2.581463016400511,-1.1117613469812544,-1.1559808074239377,-0.8004418602890585,0.13339984602310997,-0.31694748828715497,0.8353120064187779,-1.6694656266087602,-0.10826386147106241,-0.4475239265066577,-0.10787313985429736,-0.8068672678127816,1.2026914334629804,-0.22448361025579583,-2.785330545814025,1.0109674596586877
39,-0.6265062707475233,-1.343785144152399,0.47352105843753584,0.7131220910617911,0.32088459787433044,0.13063037787442727,-0.6221057098321057,-1.1222416053009436,-1.466219740538636,2.4710128754567253,1.8147054628678472,-1.6750953140793603,2.015080263067029,0.9653955623687317,2.581420183355112,-1.1132916320921886,-1.154929150321089,-0.800599926676659,0.12960534341188917,-0.3165302019247696,0.837973276800632,-1.6724190745835212,-0.10634628136163025,-0.44664845687710963,-0.10545766387111798,-0.8101988135360032,1.1997507976066495,-0.2270484167407319,-2.7870795709345733,1.011147327122486
40,-0.626413725353085,-1.3419871894304716,0.4736687056959796,0.7133369726483959,0.3210663261751632,0.1305295160671686,-0.6229201625512351,-1.1221528774569285,-1.4679230620168349,2.471499208756874,1.8162664743370156,-1.6753538643807357,2.015023222781956,0.9649618300437404,2.581378530119419,-1.1148217275675718,-1.153887543370816,-0.8007587146855312,0.12584149270315065,-0.3161178422134725,0.8406314863585128,-1.675364522273098,-0.10443044568137329,-0.44576986476795066,-0.10304648769385641,-0.8135141251979547,1.1968305835983224,-0.2296009874856244,-2.7888288384119835,1.0113424637210393
41,-0.6263193444050857,-1.3401909752539205,0.4738130349600037,0.7135495593573093,0.3212431630062859,0.13042646239918493,-0.6237269668978518,-1.122063910638087,-1.4696171033305148,2.4719852355737726,1.8178263871482419,-1.6756112875816063,2.0149675292599603,0.9645315353139303,2.5813380459853215,-1.1163514997645876,-1.1528559533113727,-0.8009181813746455,0.12210829436842893,-0.3157104429686987,0.8432860455923427,-1.6783022090035002,-0.10251703957287207,-0.4448888242374657,-0.10064028231808025,-0.8168136484480465,1.1939303534323036,-0.23214165448599317,-2.7905785874302147,1.0115520846024746
42,-0.6262232198293864,-1.3383964684578813,0.4739540834950964,0.7137599042108951,0.3214151606641254,0.13032130934869338,-0.6245262870572944,-1.1219747062491863,-1.4713017620515971,2.4724709224739927,1.819385121092691,-1.6758675295973204,2.0149131710096686,0.9641046843845776,2.5812987196572466,-1.117880824285308,-1.1518343395191981,-0.8010782857205904,0.11840571743379066,-0.3153080301942934,0.845936425808116,-1.6812323544993593,-0.10060667316591068,-0.444005938064374,-0.09823964340792768,-0.8200977887797044,1.1910496992472548,-0.23467072272420372,-2.792329024685521,1.0117754796729979
43,-0.6261254341197652,-1.3366036454107637,0.4740918879096893,0.7139680557930307,0.32158237084337904,0.13021413969744958,-0.6253182742021782,-1.1218852668319683,-1.4729769628758986,2.472956240592735,1.8209426013050731,-1.676122542959849,2.014860135775021,0.9636812795883283,2.581260539340742,-1.1194095851948767,-1.1508226548459077,-0.8012389884945563,0.11473370284395304,-0.3149106228615666,0.8485821532582909,-1.684155160746524,-0.09869988887564331,-0.44312174467723614,-0.09584509863715478,-0.8233669154634418,1.1881882404358952,-0.2371884727888421,-2.794080327810746,1.0120120063569522
44,-0.6260260612298719,-1.3348124911262633,0.47422648420586333,0.7141740586832023,0.3217448446724628,0.1301050274284563,-0.6261030677931498,-1.1217955959705987,-1.4746426547895595,2.47344116518035,1.8224987578250151,-1.67637628622009,2.014808410644643,0.9632613197948067,2.581223492821552,-1.1209376743080959,-1.149820846373461,-0.8014002521481054,0.11109216650613843,-0.3145182336146803,0.8512228038403551,-1.6870708136734824,-0.09679716800933416,-0.4422367244275795,-0.09345711433482455,-0.8266213651007284,1.1853456210420241,-0.23969516323703938,-2.7958326484573433,1.0122610830428542
45,-0.6259251673849988,-1.3330229984522288,0.4743579078246107,0.714377953849938,0.3219026327446224,0.12999403854608169,-0.6268807967523159,-1.1217056982029154,-1.4762988085014281,2.4739256751911225,1.8240535251958452,-1.6766287234030495,2.0147579821496557,0.9628448007808149,2.5811875675361384,-1.1224649905383244,-1.1488288560955588,-0.801562040707102,0.10748100204403611,-0.3141308694095133,0.8538579982997021,-1.689979484669348,-0.09489893674752553,-0.4413513052690914,-0.0910761015018919,-0.8298614448350671,1.1825215074160806,-0.24219103272515727,-2.7975861150691035,1.0125221831504319
46,-0.6258228118208211,-1.3312351673299236,0.4744861936861553,0.7145797790072386,0.3220557851451481,0.1298812318250735,-0.6276515805215942,-1.1216155789372542,-1.4779454141171173,2.4744097529104003,1.825606842097475,-1.6768798235111362,2.0147088363510663,0.9624317155648565,2.581152750634505,-1.1239914393031825,-1.1478466215324665,-0.8017243196732303,0.10390008328918389,-0.3137485320923892,0.8564873978884757,-1.6928813319543536,-0.09300557155887758,-0.4404658678990129,-0.08870242125827241,-0.8330874352530974,1.1797155861034359,-0.2446763019306352,-2.799340835378078,1.0127948297600937
47,-0.625719047455593,-1.3294490041177545,0.47461137622579985,0.7147795689373455,0.32220435147510385,0.12976665949441432,-0.6284155300170455,-1.121525244374621,-1.479582479032685,2.4748933836165277,1.8271586510103983,-1.6771295600712748,2.0146609589177773,0.9620220547093563,2.5811190290361012,-1.1255169319820801,-1.1468740762856955,-0.8018870559325649,0.10034926653437752,-0.3133712189243842,0.8591107004369246,-1.695776501817198,-0.09111740410206247,-0.4395807504123482,-0.08633638977407729,-0.8362995930053355,1.176927561942249,-0.24715117528548364,-2.801096898650099,1.013078590751966
48,-0.6256139215016903,-1.327664520974024,0.47473348942573845,0.7149773557828945,0.32234838087195233,0.12965036786146972,-0.6291727484891798,-1.1214347014359733,-1.481210026027908,2.4753765552743787,1.8287088979081234,-1.6773779107219524,2.014614335196143,0.9616158065936216,2.5810863894795024,-1.127041385421049,-1.145911150538325,-0.8020502176707,0.09682839257131669,-0.312998923056348,0.8617276367981326,-1.6986651297321618,-0.08923472566288394,-0.43869625251458944,-0.083978282733448,-0.839498153173295,1.174157156350078,-0.24961584253984767,-2.8028543777045285,1.0133730744067244
49,-0.6255074760218531,-1.3258817352937124,0.47485256684323995,0.715173169311239,0.3224879220274278,0.12953239788143267,-0.6299233322982696,-1.1213439576943662,-1.4828280915409335,2.475859258257596,1.8302575319756067,-1.677624856836678,2.014568950271924,0.9612129576602979,2.581054818566503,-1.1285647214807655,-1.1449577715061567,-0.8022137742939746,0.09333728853255986,-0.3126316339592557,0.8643379676308353,-1.701547341367638,-0.08735779117014593,-0.43781263933426895,-0.08162833937474591,-0.842683331407153,1.1714041057805296,-0.2520704801722269,-2.8046133307304273,1.0136779254250108
50,-0.625399748435006,-1.3241006691947006,0.47496864163557606,0.7153670371534844,0.3226230232029775,0.12941278567665693,-0.6306673716128433,-1.1212530213117238,-1.48443672410774,2.4763414850969094,1.831804505351489,-1.6778703831806587,2.0145247890253977,0.9608134926378159,2.5810243028011857,-1.1300868666240258,-1.144013863844378,-0.802377696356368,0.08987576955595243,-0.31226933781405275,0.8669414804884608,-1.7044232534965773,-0.08548682282963695,-0.43693014487271953,-0.07928676614667013,-0.8458553258558216,1.1686681603331117,-0.25451525266129627,-2.806373802919121,1.0139928213263065
51,-0.6252907719760953,-1.322321349049228,0.4750817465820365,0.7155589850205489,0.32275373224306403,0.12929156301009734,-0.6314049510387513,-1.1211619009799945,-1.4860359829513312,2.4768232302521485,1.8333497728921315,-1.6781144775977883,2.0144818361803236,0.9604173947410846,2.5809948286244886,-1.131607751539265,-1.1430793500139538,-0.8025419554916629,0.08644364028798329,-0.31191201786475126,0.869537987185596,-1.7072929748183305,-0.08362201341187074,-0.43604897512489804,-0.07695374001612809,-0.8490143189091972,1.165949082501125,-0.2569503136328019,-2.808135827931184,1.0143174691918186
52,-0.6251805761139932,-1.3205438050567186,0.475191914103345,0.7157490368983667,0.32288009658659467,0.12916875771673061,-0.632136150185497,-1.1210706058664535,-1.4876259367069384,2.477304489905784,1.8348932919556236,-1.6783571307253033,2.0144400763473764,0.9600246458524815,2.5809663824447275,-1.1331273107970057,-1.142154150611558,-0.8027065243505048,0.08304069624099017,-0.31155965473817465,0.8721273214158256,-1.7101566067004494,-0.08176352922587482,-0.43516931090195343,-0.07462941146031717,-0.852160478770492,1.163246646043939,-0.25937580689368855,-2.8098994292140915,1.0146516027192427
53,-0.6250691869311663,-1.318768070854427,0.4752991762787602,0.7159372152241593,0.3230021632767143,0.1290443940965149,-0.632861044175889,-1.1209791455629172,-1.4892066622707416,2.477785261776037,1.836435022204099,-1.6785983357336964,2.014399494062619,0.9596352266849956,2.5809389506644966,-1.1346454825363985,-1.1412381846664887,-0.8028713765420115,0.07966672501775218,-0.3112122267334271,0.874709336597355,-1.71301424384818,-0.07991151280830373,-0.43429131038336266,-0.07231390717244429,-0.8552939608748541,1.1605606349713458,-0.2617918673644304,-2.8116646211852063,1.0149949795602535
54,-0.624956627468478,-1.3169941831626533,0.4754035648611204,0.7161235410455328,0.323119978969178,0.12891849327215613,-0.6335797041044993,-1.1208875300386472,-1.4907782437607302,2.478265544947761,1.8379749254228364,-1.678838088089691,2.01436007382152,0.9592491169292066,2.580912519704321,-1.1361622081792573,-1.1403313699076865,-0.8030364865796039,0.07632150741576159,-0.3108697100838749,0.87728390392505,-1.7158659749086382,-0.07806608535443385,-0.4334151114238765,-0.07000733250777741,-0.8584149091689601,1.1578908426288963,-0.26419862191947374,-2.813431410293343,1.0153473789142784
55,-0.6248429180382086,-1.315222181461539,0.4755051112900649,0.7163080341639999,0.32323358993949286,0.1287910735146834,-0.6342921974498924,-1.1207957695967197,-1.4923407715793515,2.478745339719474,1.8395129653547455,-1.6790763853402688,2.0143218001089744,0.9588662953856301,2.5808870760234046,-1.137677432169214,-1.1394336230036783,-0.8032018298307607,0.07300481842234015,-0.3105320791941687,0.8798509106095218,-1.718711883015992,-0.0762273489151395,-0.43254083363818474,-0.0677097736942534,-0.861523457264877,1.1552370708742186,-0.2665961901447396,-2.815199795970857,1.0157085993545478
56,-0.6247280765081034,-1.3134521076967045,0.47560384670364364,0.7164907132643862,0.3233430420890014,0.12866215053958932,-0.6349985884451189,-1.1207038748336515,-1.493894341568518,2.47922464746506,1.8410491075489641,-1.6793132269159208,2.0142846574257445,0.9584867400838152,2.580862606137779,-1.1391911017338219,-1.1385448597780095,-0.8033673824704094,0.06971642811074588,-0.3101993068546013,0.882410258285695,-1.7215520462833587,-0.07439538838172698,-0.4316685802840975,-0.0654212998296336,-0.8646197294802425,1.1525991293352946,-0.2689846850202724,-2.816969771487067,1.016078456864635
57,-0.6246121185590217,-1.311684006011219,0.47569980194850314,0.7166715960314449,0.3234483809500555,0.1285317377760663,-0.6356989384105431,-1.1206118566020766,-1.4954390542483904,2.4797034705087966,1.842583319222387,-1.6795486139514457,2.0142486303116893,0.9581104283894528,2.580839096636126,-1.1407031666676202,-1.1376649954024811,-0.8035331214376932,0.06645610244649153,-0.3098713644348865,0.8849618615749254,-1.7243865382465904,-0.07257027327848907,-0.4307984399631269,-0.06314196468517481,-0.8677038417756799,1.149976834742562,-0.27136421353533924,-2.818741324712751,1.0164567830657003
58,-0.6244950579185334,-1.3099179225015993,0.4757930075888193,0.7168506992548895,0.32354965169041655,0.1283998466116621,-0.636393306052689,-1.120519725976277,-1.4969750141321272,2.480181812012472,1.844115569133053,-1.679782549122766,2.0142137033661265,0.9577373371006379,2.580816534193526,-1.1422135791343395,-1.136793944570301,-0.8036990243958653,0.06322360401225735,-0.309548222059253,0.8875056467862152,-1.7272154282646193,-0.0707520593810173,-0.42993048815561585,-0.06087180833394978,-0.8707759025993363,1.1473700103275009,-0.2737348772425833,-2.8205144388045365,1.0168434236164772
59,-0.6243769065726099,-1.3081539049957307,0.4758834939141287,0.7170280389239402,0.32364689911699773,0.12826648661448545,-0.6370817477324351,-1.120427494220383,-1.498502329109491,2.480659675873489,1.8456458274643974,-1.6800150364983633,2.0141798612656223,0.9573674425343208,2.580794905583355,-1.1437222934865843,-1.1359316216510555,-0.8038650696950829,0.060018692659019185,-0.30922984876457615,0.8900415507434092,-1.7300387818805907,-0.06894079017665156,-0.42906478860598657,-0.05861085862028611,-0.8738360136475021,1.1447784852810863,-0.27609677275719674,-2.8222890928171336,1.017238236769694
60,-0.6242576749573687,-1.3063920028507752,0.47597129094619384,0.7172036303123841,0.323740167679053,0.12813166573491738,-0.6377643177055775,-1.1203351727590634,-1.5000211098928475,2.481137066632931,1.8471740657194609,-1.6802460814040523,2.0141470887794872,0.9570007206038901,2.580774197687527,-1.1452292661014656,-1.1350779408292382,-0.8040312363378854,0.05684112609031972,-0.30891621264311364,0.8925695197264687,-1.732856661147607,-0.06713649818194255,-0.4282013945722488,-0.05635913248528165,-0.8768842705494271,1.1422020942661382,-0.27844999220650607,-2.8240652622506035,1.017641092070122
61,-0.6241373721326631,-1.3046322667693004,0.4760564284450233,0.7173774880550547,0.32382950147090245,0.12799539048862085,-0.6384410683384871,-1.1202427731505364,-1.5015314695196749,2.4816139893926694,1.8487002566242192,-1.6804756902999252,2.0141153707832204,0.9566371468887381,2.5807543975052694,-1.1467344552307923,-1.134232816227906,-0.8041975039471588,0.053690660385981345,-0.3086072809712692,0.8950895085160253,-1.7356691249225407,-0.06533920613063475,-0.4273403499526081,-0.054116637161980355,-0.879920763483684,1.1396406769781813,-0.2807946236348424,-2.8258429195391526,1.018051869180813
62,-0.6240160059391514,-1.3028747486320114,0.4761389359141543,0.7175496262165553,0.323914944234273,0.12785766612249178,-0.6391120503013302,-1.1201503070617407,-1.5030335229062353,2.4820904497406673,1.8502243740392643,-1.6807038706683937,2.0140846922701265,0.9562766966965857,2.5807354921605836,-1.1482378208645392,-1.1333961620188913,-0.8043638527363991,0.05056705047098538,-0.30830302032568063,0.8976014795314101,-1.7384762291310432,-0.06354892804443542,-0.4264816903008315,-0.05188337125254453,-0.8829455777327315,1.1370940777499616,-0.28313075136810023,-2.8276220344873124,1.0184704568253231
63,-0.6238935831403406,-1.3011195013455998,0.47621884260529207,0.7177200583529727,0.32399653936032285,0.12771849676505706,-0.6397773127410826,-1.1200577862455163,-1.504527386447552,2.4825664536837193,1.8517463928791302,-1.6809306309123528,2.0140550383613007,0.955919345119265,2.5807174689085484,-1.1497393246064271,-1.1325678925208642,-0.8045302634821034,0.047470050534720754,-0.30800339668781007,0.9001054020532683,-1.7412780270065764,-0.061765670197704556,-0.42562544374095335,-0.049659325698623774,-0.8859587941817049,1.1345621451952403,-0.2854584563419625,-2.829402574658802,1.018896751834856
64,-0.6237701095509655,-1.2993665787043625,0.4762961775223919,0.717888797567263,0.32407432989140883,0.12757788556269795,-0.6404369034363551,-1.1199652225196506,-1.50601317765927,2.4830420075869255,1.8532662890386165,-1.6811559802625695,2.014026394314161,0.9555650670825994,2.580700315140584,-1.151238929560543,-1.1317479222864226,-0.8046967174981278,0.04439941440532987,-0.30770837553810887,0.9026012515226886,-1.7440745693060236,-0.0599894319861734,-0.4247716317909252,-0.04744448465508843,-0.8889604897668856,1.1320447318879183,-0.2877778163973864,-2.831184505722843,1.019330658290277
65,-0.62364559015295,-1.2976160352643469,0.4763709694252565,0.7180558565589205,0.3241483585226472,0.12743583480296106,-0.6410908689358514,-1.119872627747656,-1.5074910148573952,2.483517118119271,1.8547840393255102,-1.6813799286934799,2.013998745529689,0.9552138373909547,2.580684018388805,-1.1527366002280233,-1.1309361661792723,-0.8048631966118608,0.04135489588344653,-0.3074179219407318,0.9050890089095307,-1.7468659045041883,-0.05822020670886385,-0.4239202701039253,-0.04523882627635596,-0.8919507378787852,1.129541694072934,-0.2900889065465957,-2.8329677917622518,1.0197720867498927
66,-0.6235200292000839,-1.2958679262288941,0.47644324683271605,0.7182212476684915,0.32421866760331214,0.12729234602611128,-0.6417392546821069,-1.119780013821152,-1.5089610168722645,2.4839917922047285,1.8562996213991618,-1.6816024868466453,2.0139720775585213,0.9548656307669862,2.5806685663295554,-1.1542323024129064,-1.130132539442468,-0.8050296831420772,0.03833624903922673,-0.30713200061968754,0.9075686601433133,-1.7496520789692713,-0.05645798227153113,-0.42307136913523324,-0.04304232342368409,-0.8949296087243085,1.1270528914057267,-0.29239179921251,-2.8347523955471816,1.0202209535547284
67,-0.6233934303124511,-1.2941223073445476,0.47651303802544753,0.7183849829174367,0.32428529913810916,0.12714742012598274,-0.6423821051219908,-1.1196873926437325,-1.510423302793443,2.4844660369783695,1.8578130137144087,-1.6818236659611858,2.01394637610602,0.9545204218870532,2.5806539467862324,-1.155726003136335,-1.1293369577585894,-0.8051961598783404,0.035343228476214156,-0.306850576027231,0.9100401956006431,-1.7524331371212098,-0.05470274181917832,-0.4222249347418402,-0.04085494430102713,-0.8978971696520315,1.1245781867173807,-0.29468656444425906,-2.8365382787780433,1.020677180203819
68,-0.6232657965615532,-1.2923792348063832,0.4765803710484849,0.7185470740438,0.32434829478835464,0.12700105744109288,-0.6430194638053178,-1.1195947761162088,-1.511877991742551,2.484939859746997,1.859324195470387,-1.6820434778105655,2.0139216270364417,0.9541781854127301,2.5806401477314687,-1.1572176705583626,-1.1285493373026492,-0.8053626100618346,0.032375589565255075,-0.30657361240523073,0.912503609643732,-1.7552091215745833,-0.05295446430448796,-0.4213809687212953,-0.0386766530263448,-0.9008534854442467,1.1221174458028431,-0.296973270111169,-2.8383254023007525,1.0211406927927218
69,-0.6231371305469892,-1.2906387651719016,0.4766452737134641,0.7187075325340999,0.32440769587308854,0.1268532578369016,-0.6436513734727773,-1.1195021761231216,-1.513325202671295,2.4854132679538785,1.8608331465638084,-1.6822619346451597,2.0138978163763017,0.9538388960188012,2.5806271572887627,-1.1587072739066824,-1.1277695947884498,-0.8055290173675185,0.029433088651379877,-0.30630107384017774,0.9149589002050565,-1.7579800732676258,-0.051213124998375874,-0.4205394692956805,-0.036507410144609516,-0.9037986185790732,1.119670537229876,-0.2992519820773771,-2.840113726297167,1.0216114215091017
70,-0.6230074344654738,-1.2889009552826989,0.4767077736006423,0.7188663696518166,0.3244635433701428,0.1267040207800205,-0.644277876134273,-1.119409604520428,-1.514765054182241,2.48588626914718,1.8623398475463109,-1.6824790491400832,2.0138749303170314,0.953502528418091,2.580614963733611,-1.1601947834116526,-1.1269976475090475,-0.8056953658874938,0.026515483236297415,-0.30603292431243956,0.9174060684136818,-1.7607460315787316,-0.04947869594829089,-0.4197004315460526,-0.03434717308817338,-0.9067326294656132,1.1172373321666342,-0.30152276435901926,-2.841903210453281,1.0220893001798206
71,-0.6228767101729099,-1.2871658621931998,0.476767898060725,0.7190235964628158,0.3245158779171841,0.12655334540510763,-0.6448990131386572,-1.11931707312427,-1.516197664370095,2.486358870951744,1.8638442795855295,-1.6826948343478048,2.013852955217009,0.953169057383446,2.58060355549421,-1.1616801702470527,-1.1262334133719067,-0.8058616401154982,0.023622532138901566,-0.3057691277403109,0.919845118259192,-1.7635070344317096,-0.04775114638935506,-0.418863847802189,-0.03219589658962409,-0.9096555766548485,1.1148177042259657,-0.3037856792657439,-2.8436938141074917,1.0225742658644852
72,-0.6227449592401634,-1.2854335431058024,0.47682567421653066,0.7191792238580147,0.3245647398127458,0.12640123057511818,-0.645514825235748,-1.1192245937007428,-1.51762315068146,2.4868310810438965,1.8653464244295608,-1.6829093036551146,2.0138318776030393,0.9528384577671559,2.5805929211517804,-1.1631634064760483,-1.1254768109292879,-0.8060278249324312,0.02075399563596511,-0.3055096480193585,0.9222760562895562,-1.7662631183909177,-0.04603044311295824,-0.41802970799201566,-0.03005353305177571,-0.9125675170287066,1.1124115293247323,-0.30604078752813385,-2.8454854963810265,1.0230662584908892
73,-0.6226121830031329,-1.2837040553118415,0.476881128964519,0.7193332625735691,0.32461016901726253,0.12624767493552266,-0.6461253526314288,-1.1191321779565815,-1.5190416297912441,2.487302907128976,1.8668462643745203,-1.6831224707440473,2.013811684171345,0.9525107045180724,2.5805830494405564,-1.1646444650018943,-1.124727759404346,-0.8061939055928347,0.017909635584991826,-0.30525444905751437,0.924698891339602,-1.7690143187472953,-0.044316550796984315,-0.4171979999546809,-0.02792003287900103,-0.9154685059694925,1.1100186855566085,-0.30828814841246116,-2.8472782162924064,1.0235652205282215
74,-0.6224783826076516,-1.2819774561378299,0.4769342889762046,0.71948572320883,0.32465220515411686,0.12609267696305007,-0.6467306350365493,-1.1190398375306967,-1.520453217494055,2.4877743569213338,1.8683437822349211,-1.6833343495564017,2.013792361788134,0.9521857726966603,2.5805739292474885,-1.1661233195229415,-1.1239861787133822,-0.8063598677122512,0.015089215531011965,-0.30500349480632793,0.9271136342870905,-1.7717606695962176,-0.04260943230144958,-0.41636870972086215,-0.025795344773712932,-0.9183585975116653,1.107639053076981,-0.31052781982405964,-2.8490719328576373,1.0240710966943019
75,-0.6223435590497102,-1.2802538028964878,0.47698518069947543,0.7196366162422972,0.32469088751070657,0.12593623500946383,-0.6473307117102772,-1.1189475839864889,-1.521858028609079,2.488245438126551,1.8698389613166222,-1.6835449542615282,2.0137738974897896,0.9518636374881924,2.580565549611693,-1.1675999444915557,-1.123251989484642,-0.8065256972553922,0.012292500798937544,-0.3047567492887501,0.9295202978336699,-1.774502203907998,-0.04090904893297333,-0.41554182176355003,-0.023679416001439964,-0.9212378444777475,1.1052725139987043,-0.31275985840047166,-2.850866605177648,1.0245838336934685
76,-0.6222077132114457,-1.2785331528421124,0.47703383035983316,0.7197859520457742,0.3247262550395384,0.12577834734083312,-0.6479256214984839,-1.11885542880488,-1.523256176897089,2.488716158425665,1.8713317853921176,-1.6837542992270826,2.013756278482735,0.9515442742142783,2.580557899723684,-1.1690743150765905,-1.1225251130740197,-0.806691380525052,0.009519258572940486,-0.3045141766237879,0.9319188963082481,-1.7772389535917879,-0.039215360681174,-0.4147173192222427,-0.02157219262761221,-0.9241062985999755,1.1029189522975955,-0.3149843195954114,-2.852662192514343,1.0251033799820635
77,-0.6220708458933008,-1.2768155631298816,0.477080263961569,0.7199337408969073,0.32475834635935347,0.12561901217272042,-0.6485154028676873,-1.1187633833780042,-1.524647774988351,2.4891865254611987,1.8728222386779574,-1.6839623989924772,2.01373949214301,0.9512276583429004,2.5805509689244177,-1.1705464071290854,-1.1218054715779906,-0.8068569041517075,0.0067692579641772345,-0.3042757410483362,0.934309445490558,-1.7799709495535452,-0.037528326429787255,-0.41389518410320303,-0.019473619728874812,-0.9269640106291448,1.1005782537266682,-0.3172012577544825,-2.854458654356499,1.0256296855587599
78,-0.6219329578427173,-1.275101090778725,0.47712450728888794,0.7200799929902758,0.3247871997562874,0.1254582277016683,-0.6491000939350265,-1.1186714590035036,-1.526032934320322,2.4896565468248175,1.8743103058141084,-1.6841692682447753,2.0137235260156015,0.95091376549711,2.580544746704172,-1.1720161971508947,-1.1210929878440643,-0.8070222550837522,0.004042270068057018,-0.3040414069364643,0.9366919624529065,-1.7826982217486813,-0.035847904145033284,-0.413075397458174,-0.017383641581475796,-0.9298110304319575,1.0982503057382018,-0.31941072618349403,-2.856255950476604,1.026162701777236
79,-0.621794049779702,-1.2733897926374242,0.47716658590699124,0.7202247184471833,0.3248128531850678,0.12529599213333392,-0.6496797324946889,-1.118579666879381,-1.5274117650841335,2.4901262300464544,1.8757959718450812,-1.6843749217968083,2.013708367813555,0.950602571462528,2.5805392227012915,-1.1734836622659754,-1.1203875854790222,-0.8071874205783115,0.0013380680121359177,-0.3038111388164087,0.9390664654182902,-1.7854207992299282,-0.03417405104351634,-0.4122579395437167,-0.015302201829028842,-0.9326474070780502,1.0959349974128383,-0.32161277721013437,-2.8580540409796416,1.0267023811789509
80,-0.621654122419561,-1.2716817253536414,0.4772065251631265,0.7203679273242835,0.32483534427025057,0.12513230370758768,-0.6502543560411723,-1.1184880180993613,-1.528784376178957,2.4905955825847506,1.8772792222026624,-1.6845793745673063,2.0136940054169044,0.9502940521937701,2.580534386700812,-1.1749487801940885,-1.1196891888551768,-0.8073523881925954,-0.0013435730043852142,-0.3035849013855013,0.941432973633239,-1.788138710190921,-0.03250672374171852,-0.41144278996312483,-0.013229243631729126,-0.9354731889177635,1.0936322193949803,-0.3238074622396861,-2.8598528863446964,1.02724867734399
81,-0.6215131764930811,-1.269976945345598,0.4772443501876128,0.7205096296211637,0.32485471030749546,0.12496716072086406,-0.6508240017897243,-1.1183965236487214,-1.5301508751734356,2.4910646118186834,1.8787600426901077,-1.6847826415628575,2.013680426871437,0.9499881838199158,2.5805302286329863,-1.1764115292266895,-1.1189977231148676,-0.8075171457757454,-0.004002875678675635,-0.303362659523238,0.9437915072539059,-1.7908519820059337,-0.03084587838894902,-0.41062992779268,-0.011164709798898336,-0.9382884236516085,1.09134186383384,-0.32599483180539596,-2.861652447460191,1.0278015447581474
82,-0.6213712127644047,-1.2682755087761557,0.477280085894847,0.7206498352869942,0.32487098826488153,0.12480056154602563,-0.6513887066942647,-1.1183051944005509,-1.5315113682734411,2.491533325040261,1.8802384194676611,-1.684984737861523,2.0136676203873227,0.9496849426491203,2.580526738571727,-1.1778718882048056,-1.1183131141733869,-0.8076816814611374,-0.006640060579004694,-0.30314437830267515,0.9461420872440681,-1.7935606412661693,-0.02919147078542858,-0.40981933169383816,-0.009108542906552091,-0.9410931583922881,1.089063824329552,-0.32817493561405153,-2.8634526856534643,1.0283609386945973
83,-0.6212282320468228,-1.2665774715290707,0.47731375698429673,0.720788554226342,0.32488421478426155,0.12463250464997785,-0.651948507463067,-1.1182140411124029,-1.5328659602954953,2.4920017294481727,1.8817143390392834,-1.685185678597956,2.01365557433763,0.9493843051724618,2.5805239067329815,-1.1793298364987153,-1.117635288720509,-0.807845983659104,-0.009255346125467051,-0.3029300230003231,0.9484847352838328,-1.796264713812959,-0.027543456487024477,-0.4090109800127838,-0.0070606854015174084,-0.9438874397200481,1.0867979958838303,-0.3303478225872609,-2.865253562715335,1.0289268151086617
84,-0.6210842352166923,-1.2648828891872195,0.47734538794148484,0.7209257963042383,0.32489442618265485,0.12446298860924977,-0.6525034405724454,-1.1181230744233077,-1.5342147546452516,2.4924698321423024,1.883187788240474,-1.6853854789498823,2.0136442772567373,0.949086248067108,2.580521723473047,-1.1807853539892605,-1.1169641742207812,-0.8080100410500439,-0.011848948576053533,-0.3027195591046886,0.9508194736879628,-1.7989642247681925,-0.025901790898002385,-0.40820485086864433,-0.005021079693477983,-0.9466713137320504,1.0845442748546938,-0.33251354089888063,-2.867055040920224,1.0294991305443333
85,-0.6209392232256602,-1.2631918170126053,0.47737500303896807,0.7210615713505775,0.32490165845367763,0.12429201212373611,-0.6530535422786691,-1.118032304851116,-1.5355578533005012,2.4929376401190115,1.8846587542270896,-1.6855841541258174,2.013633717838668,0.9487907481988752,2.5805201792868457,-1.1822384210506418,-1.1162996989127156,-0.8081738425778887,-0.014421082017482061,-0.3025129523236051,0.9531463253328397,-1.8016591985622668,-0.02426642935302687,-0.4074009222315324,-0.002989668236189182,-0.9494448260863951,1.0823025589148447,-0.3346721380089914,-2.868857083042353,1.0300778420513468
86,-0.6207931971113623,-1.261504309927983,0.477402626337314,0.7211958891639217,0.32490594726900873,0.12411957402877792,-0.6535988486283019,-1.1179417427901444,-1.5368953567982129,2.4934051602671135,1.8861272244650678,-1.6857817193539004,2.0136238849353525,0.9484977826242479,2.5805192648061626,-1.1836890185345554,-1.1156417918070116,-0.8083373774438981,-0.01697195836026056,-0.30231016859047527,0.9554653135911839,-1.8043496589598127,-0.022637327189520533,-0.4065991719914662,-0.0009663935989822343,-0.9522080220413514,1.0800727470133191,-0.3368236606947814,-2.870659652368481,1.0306629071117055
87,-0.6206461580067494,-1.259820422499945,0.4774282816860782,0.7213287595147732,0.32490732797989014,0.12394567330574237,-0.654139395467144,-1.1178513985090963,-1.5382273642251707,2.493872399364471,1.8875931867209692,-1.685978189871743,2.0136147675548375,0.9482073285919174,2.5805189707978538,-1.1851371277555494,-1.1149903826839196,-0.8085006351007594,-0.019501787337506297,-0.3021111740695386,0.9577764622737344,-1.8070356290834328,-0.021014439811381458,-0.4057995780191143,0.0010488014704341546,-0.9549609464903005,1.077854739340074,-0.3389681550786582,-2.872462712707584,1.0312542835746876
88,-0.6204981071481758,-1.2581402089233347,0.4774519927247834,0.7214601921483719,0.32490583561866,0.12377030909124723,-0.6546752184479359,-1.117761282149239,-1.539553973211814,2.4943393640751457,1.8890566290532669,-1.6861735809171972,2.0136063548594496,0.9479193635438956,2.58051928816204,-1.1865827304774825,-1.1143454020898524,-0.8086636052469677,-0.02201077650709319,-0.30191593516026544,0.9600797955771722,-1.8097171314356557,-0.019397722744959395,-0.40500211821921644,0.0030559739909666456,-0.9577036439928452,1.0756484372932065,-0.34110566665387887,-2.8742662283978593,1.0318519295994462
89,-0.620349045882375,-1.256463723006861,0.4774737828839026,0.7215901967870728,0.3249015049003164,0.123593480685162,-0.6552063530369656,-1.1176714037228102,-1.540875279928925,2.494806060947045,1.8905175398043108,-1.6863679077199552,2.0135986361639233,0.947633865116251,2.580520207930285,-1.1880258089009856,-1.1137067813333341,-0.8088262778214644,-0.024499131256741503,-0.30172441850097004,0.9623753380376433,-1.8123941879192969,-0.017787131688100977,-0.40420677057744825,0.0050551807001070915,-0.9604361588024892,1.073453743448536,-0.3432362403079572,-2.8760701643113675,1.0324558036044116
90,-0.6201989756724351,-1.254791018159802,0.4774936753858472,0.7217187831323463,0.3248943702241103,0.12341518755750491,-0.6557328345197069,-1.117581773111637,-1.5421913790868438,2.4952724964100135,1.8919759075929055,-1.6865611854939027,2.013591600933503,0.9473508111395104,2.5805217212637683,-1.189466345651828,-1.1130744524803702,-0.8089886429985166,-0.02696705481170303,-0.3015365909717248,0.9646631144892998,-1.8150668198563917,-0.01618262255299314,-0.40341351320141833,0.007046478012143831,-0.9631585348912528,1.0712705615313065,-0.34535992034407953,-2.8778744858566228,1.0330658642227823
91,-0.6200478981028726,-1.253122147379699,0.4775116932459612,0.7218459608664446,0.3248844656751655,0.12323542935434405,-0.6562546980056009,-1.117492400065951,-1.5435023639369256,2.4957386767743226,1.8934317213074436,-1.6867534294301552,2.013585238782025,0.9470701796387657,2.5805238194514555,-1.1909043237701074,-1.112448348349312,-0.8091506911828164,-0.02941474824472972,-0.30135241969665066,0.9669431500273368,-1.8177350480058507,-0.014584151503460603,-0.40262232435641876,0.009029921981952717,-0.96587081597155,1.0690987963897909,-0.34747675050073823,-2.8796791589793806,1.0336820702634617
92,-0.6198958148838998,-1.2514571632409448,0.4775278592735216,0.7219717396537729,0.3248718250261241,0.12305420590280033,-0.6567719784320842,-1.117403294203378,-1.5448083262749808,2.49620460822951,1.894884970099546,-1.6869446546907125,2.0135795394699896,0.9467919488335214,2.58052649390827,-1.1923397267001858,-1.1118284025052843,-0.8093124130047865,-0.031842410488045404,-0.3011718720456512,0.9692154699750568,-1.8203988925799715,-0.01299167498730711,-0.40183318249648664,0.011005568273772868,-0.9685730455156206,1.0669383539706068,-0.349586773969768,-2.8814841501618638,1.0343043806768641
93,-0.6197427278549642,-1.24979611788419,0.4775421960727459,0.722096129141996,0.32485648173881515,0.12287151721524095,-0.6572847105679526,-1.1173144650080928,-1.5461093564464659,2.4966702968435373,1.8963356433781562,-1.687134876402674,2.013574492902622,0.9465160971373119,2.580529736173274,-1.1937725382812998,-1.1112145492542334,-0.8094737993160757,-0.034250238347068654,-0.3009949156356509,0.9714800998545376,-1.8230583732599277,-0.011405149764230476,-0.4010460662912775,0.012973472134432382,-0.9712652667727792,1.064789141295567,-0.3516900334129529,-2.883289426420633,1.0349327545250753
94,-0.619588638987638,-1.2481390630064884,0.4775547260438073,0.7222191389629125,0.3248384689659452,0.1226873634927431,-0.6577929290161404,-1.117225921830122,-1.547405543353219,2.4971357485622283,1.8977837308040526,-1.6873241096529596,2.013570089127936,0.9462426031571197,2.580533537907856,-1.1952027427387844,-1.1106067236366508,-0.8096348411852295,-0.03663842651566071,-0.3008215183313925,0.9737370653605255,-1.8257135092103427,-0.00982453292978756,-0.4002609546492008,0.014933688370543449,-0.9739475227847165,1.0626510664399127,-0.3537865709773524,-2.8850949553032876,1.0355671509558972
95,-0.6194335503879219,-1.2464860498521162,0.4775654713838568,0.722340778733123,0.32481781955280864,0.1225017451279007,-0.6582966682159905,-1.1171376738847814,-1.548696974461553,2.4976009692089556,1.8992292222847347,-1.6875123694834935,2.013566318334795,0.9459714456926168,2.580537890893931,-1.1966303246758518,-1.1100048614210185,-0.8097955298935262,-0.039007167592695485,-0.30065164824584234,0.9759863923372122,-1.828364319093043,-0.008249781935836932,-0.39947782673722193,0.016886271329235248,-0.976619856399062,1.060524038511788,-0.3558764283094805,-2.886900704884161,1.0362075291803643
96,-0.6192774642980258,-1.2448371292040075,0.4775744540880531,0.7224610580545159,0.3247945660390161,0.12231466270703915,-0.658795962445075,-1.117049730252241,-1.5499837358115371,2.498065964484551,1.9006721079696507,-1.6876996708868,2.0135631708509854,0.9457026037352534,2.580542787032158,-1.1980552690658757,-1.1094088990970212,-0.8099558569309625,-0.04135665209976977,-0.3004852737402486,0.9782281067575898,-1.8310108210800775,-0.0066808546078431195,-0.3986966619976931,0.018831274882037157,-0.9792823102813983,1.0584079676328364,-0.35795964656845775,-2.8887066437591575,1.0368538484533538
97,-0.6191203830976802,-1.2431923513757475,0.47758169595059974,0.7225799865145923,0.3247687406602396,0.1221261170118976,-0.6592908458206264,-1.1169620998772014,-1.551265912027319,2.498530739967409,1.9021123782457343,-1.6878860288019804,2.013560637141293,0.945436056467213,2.5805482183401693,-1.19947756124513,-1.1088187738685613,-0.8101158139923824,-0.0436870684998905,-0.3003223634238916,0.9804622347051078,-1.8336530328660803,-0.005117709159387063,-0.397917440162539,0.020768752411564437,-0.9819349269258939,1.0563027649198045,-0.3600362664382417,-2.890512741039861,1.037506068056955
98,-0.6189623093050285,-1.2415517662040794,0.4775872185657893,0.7226975736866499,0.3247403753499728,0.1219361090208318,-0.6597813523006292,-1.1168747915686752,-1.5525435863283528,2.498995301113768,1.9035500237332208,-1.6880714581110294,2.0135587078055956,0.9451717832602528,2.580554176950824,-1.2008971869059453,-1.1082344236466115,-0.8102753929737364,-0.04599860321699321,-0.3001628861535628,0.9826888023573874,-1.8362909716800435,-0.0035603042041917974,-0.397140141265089,0.022698756800694518,-0.9845777486647056,1.0542083424670567,-0.362106328139033,-2.8923189663470312,1.038164147286297
99,-0.6188032455771427,-1.239915423041878,0.4775910433290549,0.7228138291298422,0.3247095017413045,0.12174463990958603,-0.6602675156846166,-1.1167878139998657,-1.5538168405414128,2.499459653258144,1.9049850352817164,-1.6882559736354628,2.0135573735769685,0.9449097636744442,2.580560655110475,-1.2023141320902384,-1.1076557870419357,-0.8104345859684637,-0.048291440656160894,-0.30000681103280386,0.984907835971769,-1.838924654296563,-0.0020085987659406146,-0.3963647456498178,0.024621340423954013,-0.9872108176762853,1.052124613329914,-0.3641698714379405,-2.894125289803584,1.0388280454375631
100,-0.6186431947102049,-1.2382833707515544,0.47759319143802814,0.7229287623891292,0.32467615116870413,0.12155171105167764,-0.660749369614213,-1.1167011757081313,-1.555085755113283,2.4999238016138974,1.906417403966498,-1.6884395901332245,2.013556625319808,0.9446499774568291,2.580567645177262,-1.203728383183387,-1.1070828033577051,-0.8105933852639892,-0.05056576322442664,-0.2998541074109358,0.987119361872497,-1.841554097046609,-0.00046255228613604387,-0.39559123398022844,0.026536555140865784,-0.9898341759927108,1.0500514915087353,-0.36622693565898334,-2.895931682027158,1.0394977217979513
101,-0.6184821596393888,-1.2366556576988526,0.4775936838936038,0.7230423829951325,0.32464035466981866,0.12135732401843326,-0.661226947573457,-1.1166148850950308,-1.5563504091240308,2.500387751273923,1.907847121085021,-1.688622322295851,2.01355645402797,0.9443924045400022,2.580575139619424,-1.2051399269084115,-1.1065154125820345,-0.810751783338326,-0.052821751352055524,-0.2997047448819034,0.9893234064393626,-1.844179315827873,0.001077875369777668,-0.3948195872450892,0.028444452291031277,-0.9924478655061494,1.0479888919336746,-0.3682775596924963,-2.8977381141223324,1.0401731356373638
102,-0.6183201434384749,-1.2350323317470107,0.4775925415010102,0.7231547004639075,0.32460214298727824,0.12116148057871255,-0.6617002828889371,-1.1165289504264428,-1.5576108803007738,2.5008515072114417,1.9092741781536144,-1.6888041847458648,2.013556850822932,0.9441370250406339,2.5805831310136336,-1.2065487503204417,-1.1059535553804565,-0.8109097728567799,-0.055059583514212855,-0.29955869328295837,0.9915199960976446,-1.8468003261147294,0.002612723907829356,-0.3940497867632106,0.030345082690747056,-0.9950519279745478,1.045936730450049,-0.37032178200400034,-2.899544557672579,1.040854246201632
103,-0.6181571493192272,-1.2334134402512567,0.4775897848708857,0.7232657242966438,0.3245615465705107,0.12096418269835134,-0.662169408729768,-1.1164433798327533,-1.5588672450318672,2.501315074280886,1.9106985669043488,-1.688985192034379,2.0135578069519737,0.9438838192579416,2.5805916120433565,-1.2079548408014371,-1.1053971730883587,-0.8110673466687462,-0.057279436252935585,-0.2994159226932027,0.9937091573092072,-1.849417142967856,0.004142032602294468,-0.39328181418693253,0.03223849663097525,-0.997646405026637,1.043894923804264,-0.37235964064259175,-2.9013509847320016,1.0415410127071016
104,-0.6179931806305597,-1.2317990300536135,0.4775854344203605,0.7233754639793026,0.32451859557756296,0.120765432539353,-0.6626343581074313,-1.1163581813091035,-1.5601195783814408,2.5017784572188626,1.9121202792820566,-1.6891653586388928,2.0135593137863803,0.9436327676721182,2.5806005754972343,-1.2093581860551423,-1.1048462077033954,-0.8112244978045948,-0.059481484199333114,-0.29927640343201056,0.9958909165646243,-1.852029781043541,0.005665840293667796,-0.39251565150447115,0.03412474387650694,-1.0002313381663257,1.0418633896302445,-0.37439117324889826,-2.9031573678169216,1.042233394336426
105,-0.6178282408575146,-1.2301891474779914,0.4775795103741435,0.7234839289822008,0.3244733198769291,0.12056523245885427,-0.6630951638755033,-1.1162733627156964,-1.561367954104225,2.502241660645187,1.9135393074414937,-1.6893446989612595,2.013561362819667,0.9433838509427274,2.58061001426749,-1.210758774102254,-1.1043006018778905,-0.811381219472638,-0.06166590009595171,-0.2991401060573456,0.9980653003762183,-1.8546382546027111,0.007184185387692543,-0.39175128104126067,0.03600387366617423,-1.0028067687765512,1.0398420464363292,-0.37641641706264517,-2.9049636798973553,1.042931350235424
106,-0.6176623336200736,-1.2285838383255485,0.47757203276561383,0.7235911287595491,0.32442574904938304,0.12036358500788896,-0.6635518587292885,-1.1161889317781555,-1.5626124446606127,2.5027046890639775,1.9149556437446282,-1.6895232273258134,2.0135639456658287,0.9431370499070711,2.5806199213483585,-1.2121565932757805,-1.1037602989112463,-0.8115375050561761,-0.06383285481924413,-0.29900700136398883,1.0002323352719091,-1.8572425775197055,0.008697105855318162,-0.3909886854604101,0.03787593471398227,-1.0053727381226492,1.0378308135925873,-0.3784354089298699,-2.9067698943884253,1.043634839510884
107,-0.6174954626718229,-1.2269831478703002,0.477563021437917,0.7236970727489503,0.3243759123898159,0.1201604929299709,-0.6640044752053761,-1.1161048960879307,-1.5638531212319073,2.5031675468647987,1.916369280758043,-1.6897009579776394,2.0135670540576123,0.9428923455785369,2.580630289834542,-1.2135516322165776,-1.1032252427423674,-0.811693348110616,-0.06598251740209272,-0.29887706038169076,1.0023920477897827,-1.8598427632908194,0.010204639233472892,-0.39022784776238273,0.03974097521104611,-1.0079292873552952,1.035829611318524,-0.38044818530981844,-2.9085759851417423,1.0443438212291978
108,-0.6173276318984873,-1.2253871208549623,0.47755249604506467,0.7238017703708656,0.32432383890907696,0.11995595915951497,-0.6644530456811345,-1.1160212631027506,-1.5650900537357144,2.503630238323852,1.9177802112504432,-1.6898779050809745,2.013570679844813,0.9426497191449283,2.5806411129196896,-1.214943879869045,-1.102695377942111,-0.8118487423606594,-0.06811505505634013,-0.29875025437325947,1.004544464473296,-1.8624388250426382,0.011706822626549243,-0.3894687512839941,0.041599042828229696,-1.0104764575130665,1.0338383606711414,-0.38245478228155527,-2.91038192643679,1.0450582544157294
109,-0.61715884531635,-1.2237958014870138,0.4775404760530384,0.7239052310280515,0.32426955733581714,0.1197499868201139,-0.664897602374156,-1.1159380401471135,-1.5663233108414387,2.5040927676052025,1.9191884281902576,-1.690054082717727,2.0135748149925954,0.9424091519667869,2.5806523838949005,-1.2163333254769704,-1.1021706497057722,-0.8120036816975559,-0.07023063319528713,-0.2986265548325957,1.0066896118670472,-1.8650307755401803,0.013203692708511572,-0.3887113796968142,0.043450184719395324,-1.0130142895246668,1.0318569835333296,-0.38445523555031225,-2.9121876929723354,1.0457780980548288
110,-0.6169891070705715,-1.2222092334349672,0.4775269807408968,0.7240074641049759,0.32421309611833465,0.11954257922268599,-0.6653381773416641,-1.115855234412818,-1.5675529599858538,2.504555138762037,1.920593924743326,-1.6902295048861071,2.0135794515798384,0.9421706255757055,2.5806640961472516,-1.217719958579504,-1.1016510038456135,-0.8121581601764183,-0.07232941545612184,-0.29850593348268445,1.008827516513044,-1.8676186271948652,0.014695285725544651,-0.38795571700505016,0.04529444752518172,-1.0155428242108515,1.02988540260256,-0.3864495804536017,-2.913993259857896,1.0465033110904105
111,-0.6168184214334201,-1.2206274598248337,0.4775120292018855,0.7241084789672135,0.324154483426422,0.11933373986350808,-0.6657748024798935,-1.115772852959528,-1.5687790673887119,2.505017355737947,1.9219966942706623,-1.6904041854993543,2.0135845817975064,0.941934121672641,2.580676243158351,-1.2191037690072597,-1.101136386783443,-0.8123121720135965,-0.07441156372224897,-0.29838836227355187,1.0109582049474117,-1.8702023920723208,0.016181637499171123,-0.38720174754297776,0.04713187737723807,-1.018062102286088,1.0279235413798622,-0.3884378519671147,-2.915798602605277,1.04723385242703
112,-0.6166467928024253,-1.219050523236775,0.4774956403445502,0.724208284960828,0.32409374715321365,0.1191234724221463,-0.6662075095234506,-1.1156909027153696,-1.5700016980683713,2.505479422368238,1.9233967303262902,-1.6905781383845588,2.013590197947041,0.9416996221262267,2.5806888185029138,-1.2204847468785245,-1.1006267455432486,-0.8124657115841071,-0.07647723814549144,-0.29827381338019476,1.0130817036974906,-1.8727820819000427,0.017662783429773413,-0.38644945597198194,0.04896251990284893,-1.0205721643599805,1.0259713241590616,-0.390420084710423,-2.9176036971201986,1.0479696809313919
113,-0.616474225698464,-1.217478465701932,0.47747783289385193,0.7243068914117413,0.324030914917034,0.11891178075929604,-0.6666363300446628,-1.1156093904775575,-1.5712209158574133,2.5059413423812487,1.9247940266551398,-1.6907513772815643,2.0135962924387836,0.9414671089710889,2.5807018158473602,-1.2218628825955733,-1.1001220277438932,-0.8126187734191159,-0.07852659716814035,-0.2981622592004899,1.0151980392792737,-1.8753577080749162,0.019138758500462913,-0.38569882727726074,0.05078642022989246,-1.0230730509384862,1.024028676016261,-0.3923963129525023,-2.9194085196940316,1.0487107554342372
114,-0.6163007247637887,-1.2159113286994239,0.4774586253922845,0.7244043076250953,0.32396601406324504,0.11869866891454148,-0.6670612954529233,-1.1155283229130504,-1.572436783418233,2.5064031193996903,1.9261885771910032,-1.690923915841949,2.0136028577904144,0.9412365644061689,2.5807152289484425,-1.2232381668410754,-1.0996221815918759,-0.8127713522034712,-0.08055979754483222,-0.29805367235308894,1.0173072381951465,-1.8779292816706106,0.020609597281245458,-0.38494984676424004,0.052603622992080545,-1.0255648024249457,1.0220955227995523,-0.3943665706170915,-2.921213046995645,1.0494570347325567
115,-0.616126294760006,-1.214349153153508,0.47743803620099434,0.724500542884607,0.3238990716660933,0.11848414110404389,-0.6674824369940364,-1.115447706559231,-1.5736493622585814,2.5068647569419933,1.9275803760545425,-1.6910957676280758,2.013609886625423,0.9410079707930546,2.5807290516518884,-1.2246105905745899,-1.0991271558741602,-0.8129234427732849,-0.08257699436423532,-0.2979480256753045,1.0194093269318885,-1.880496813444854,0.022075333933437902,-0.38420250005474244,0.05441417233443528,-1.02804745912095,1.0201717911189419,-0.3963308912879008,-2.9230172560633845,1.0502084775920892
116,-0.6159509405660116,-1.2127919794308986,0.4774160835009014,0.7245956064519197,0.3238301145305554,0.11826820171816721,-0.6678997857495698,-1.11536754782461,-1.5748587127470468,2.5073262584236606,1.9289694175513434,-1.69126694611221,2.0136173716715984,0.9407813106543214,2.580743277891072,-1.2259801450291379,-1.0986368999510772,-0.81307504011356,-0.08457834107052936,-0.29784529222099193,1.021504331958907,-1.8830603138465971,0.02353600221429556,-0.3834567730829476,0.05621811191896131,-1.0305210612270617,1.0182574083364777,-0.3982893082136812,-2.9248211242971855,1.0509650427500645
117,-0.6157746671758898,-1.2112398473382344,0.4773927852938221,0.7246895075659536,0.32375916919418235,0.11805085531904837,-0.6683133726362156,-1.1152878529895522,-1.5760648941284587,2.5077876271586272,1.9303556961700141,-1.691437464675694,2.0136253057595437,0.9405565666718848,2.5807579016857067,-1.227346821707851,-1.0981513637493014,-0.8132261393558617,-0.08656398948466493,-0.2977454452584313,1.0235922797266712,-1.8856197930230698,0.0249916354818149,-0.3827126520911779,0.05801548493047817,-1.032985648843406,1.0163523025565688,-0.40024185431316567,-2.92662462945083,1.0517266889181551
118,-0.615597479696782,-1.209692796119695,0.47736815940359323,0.7247822554422553,0.3236862619289417,0.11783210663811923,-0.6687232284051664,-1.1152086282070242,-1.5772679645392045,2.508248866360622,1.9317392065803205,-1.6916073366081792,2.013633681821216,0.9403337216853676,2.580772917140559,-1.2287106123806841,-1.0976704977549048,-0.8133767357760312,-0.08853408982539121,-0.2976484582682131,1.0256731966653225,-1.8881752608267393,0.026442266699679903,-0.38197012362553867,0.05980633408258088,-1.035441261970148,1.0144564026164842,-0.40218856217989063,-2.9284277496243503,1.052493374785607
119,-0.6154193833467306,-1.2081508644547585,0.4773422234771969,0.7248738592723494,0.32361141874305716,0.11761196057358633,-0.6691293836415073,-1.1151298795033588,-1.578467981022446,2.5087099791445286,1.933119943631358,-1.6917765751069094,2.0136424928884864,0.94011275869048,2.5807883184441853,-1.2300715090811938,-1.0971942530064889,-0.8135268247919392,-0.09048879073004223,-0.2975543049411314,1.0277471091834374,-1.890726726822171,0.027887928442324125,-0.3812291745314407,0.06159070162370064,-1.0378879405078685,1.0125696380770242,-0.404129464086907,-2.9302304632565868,1.0532650590225205
120,-0.6152403834525021,-1.2066140904560978,0.4773149949858866,0.7249643282230935,0.3235346653828464,0.11739042218787402,-0.6695318687636278,-1.1150516127790406,-1.5796649995432297,2.509170968527746,1.934497902349756,-1.691945193276051,2.013651732091726,0.939893660837417,2.580804099867688,-1.2314295041033718,-1.0967225810883983,-0.813676401961279,-0.09242823927507346,-0.29746295917608623,1.0298140436669219,-1.8932742002928002,0.029328652900083733,-0.3804897919490261,0.06336862934324083,-1.0403257242578472,1.0106919392133564,-0.4060645919913872,-2.9320327491178992,1.0540417002832605
121,-0.6150604854473938,-1.2050825116676132,0.47728649122631367,0.7250536714360368,0.3234560273345552,0.11716749670503593,-0.6699307140226551,-1.1149738338095054,-1.5808590750034803,2.5096318374315465,1.9358730779379094,-1.692113204126069,2.0136613926584133,0.9396764114292702,2.5808202557634976,-1.2327845899985341,-1.0962554341240154,-0.813825462979397,-0.09435258099634194,-0.29737439507799945,1.0318740264780206,-1.8958176902476132,0.030764471884419702,-0.3797519633085207,0.06514015857776645,-1.0427546529222682,1.0088232370060082,-0.40799397753913574,-2.933834586303039,1.0548232572099685
122,-0.6148796948690285,-1.2035561650625972,0.4772567293216545,0.7251418980267844,0.323375529826189,0.11694318950813953,-0.6703259495019113,-1.1148965482459574,-1.5820502612568723,2.510092588682427,1.9372454657722382,-1.6922806205731427,2.0136714679117618,0.9394609939204582,2.5808367805641708,-1.2341367595722583,-1.0957927647691366,-0.8139740036771584,-0.09626195990912463,-0.2972885869557449,1.0339270839544232,-1.8983572054277456,0.032195416833189945,-0.37901567632552874,0.06690533021722762,-1.0451747661043522,1.0069634631320086,-0.4099176520690073,-2.9356359542241774,1.0556096884361628
123,-0.6146980173571396,-1.20203508704203,0.477225726222738,0.7252290170843674,0.3232931978293412,0.11671750613662774,-0.6707176051163943,-1.1148197616161997,-1.5832386111235734,2.5105532250134592,1.9386150614014708,-1.6924474554386222,2.0136819512693727,0.9392473919151746,2.580853668781211,-1.2354860058813684,-1.0953345262054326,-0.814122020018849,-0.09815651852787038,-0.29720550932009504,1.0359732424084551,-1.900892754312997,0.033621518815954425,-0.3782809189962877,0.06866418471120034,-1.0475861033084255,1.0051125499561762,-0.4118356466172398,-2.9374368326040963,1.056400952590407
124,-0.6145154586513502,-1.2005193134330032,0.4771934987091731,0.7253150376706203,0.32320905606101746,0.11649045228366128,-0.6711057106122861,-1.1147434793254787,-1.5844241764048563,2.511013749065628,1.9399818605449477,-1.6926137214485195,2.013692836241908,0.939035589165853,2.5808709150039104,-1.2368323222309614,-1.0948806721339912,-0.8142695081001089,-0.10003639788568242,-0.29712513688168657,1.038012528126339,-1.9034243451282653,0.035042808539298295,-0.3775476795928962,0.07041676207512941,-1.0499887039399314,1.0032704305225448,-0.41374799192170486,-2.939237201469538,1.0571970083000333
125,-0.614332024588949,-1.1990088794872693,0.4771600633904768,0.7253999688195663,0.3231231289854571,0.11626203379344546,-0.671490295566487,-1.1146677066573423,-1.5856070078975721,2.511474163389165,1.941345859090947,-1.6927794312330349,2.0137041164317835,0.9388255695716519,2.580888513898208,-1.2381757021714763,-1.0944311567689442,-0.8144164641458999,-0.10190173755352865,-0.29704744454900545,1.040044967367517,-1.905951985849903,0.03645931635216017,-0.37681594665852797,0.07216310189656078,-1.0523826073053923,1.0014370385459253,-0.4156547184260808,-2.9410370411447135,1.0579978141949056
126,-0.6141477211026654,-1.1975038198799164,0.47712543670720153,0.7254838195368097,0.32303544081594976,0.1160322566585441,-0.6718713893861779,-1.114592448774509,-1.5867871554084847,2.511934470444875,1.9427070530950266,-1.6929445973261144,2.0137157855318844,0.9386173171769574,2.5809064602055707,-1.2395161394957988,-1.0939859348311773,-0.8145628845085039,-0.10375267565917835,-0.29697240742639325,1.0420705863640218,-1.908475684211995,0.03787107225115396,-0.37608570900264215,0.07390324334135172,-1.0547678526123256,0.9996123084035959,-0.4175558562839518,-2.9428363322449718,1.0588033289112133
127,-0.6139625542184449,-1.1960041687081655,0.4770896349320631,0.7255665987989387,0.322946015516649,0.1158011270171836,-0.6722490213084108,-1.1145177107197488,-1.5879646677684622,2.5123946726054514,1.9440654387783833,-1.6931092321650396,2.0137278373243,0.9384108161699056,2.5809247487418916,-1.2408536282364024,-1.093544961542124,-0.8147087656655514,-0.1055893489058641,-0.2969000008120755,1.0440894113198922,-1.9109954477125617,0.039278105885874354,-0.3753569556962,0.075637225159849,-1.0571444789691185,0.9977961751271208,-0.4194514353628357,-2.944635055670623,1.0596135110952836
128,-0.6137765300532295,-1.1945099594902897,0.4770526741710674,0.7256483155529356,0.32285487680438085,0.11556865115054975,-0.6726232203997276,-1.1144434974167756,-1.5891395928465242,2.512854772156781,1.9454210125262272,-1.6932733480900437,2.0137402656790795,0.9382060508809236,2.580943374396407,-1.2421881626625237,-1.0931081926176416,-0.8148541042180799,-0.10741189259066863,-0.2968302001962133,1.04610146841062,-1.9135112836196861,0.040680446564177304,-0.3746296760668958,0.0773650856930265,-1.0595125253848667,0.9959885743942893,-0.42134148524814374,-2.9464331926009213,1.0604283194074031
129,-0.6135896548127407,-1.1930212251646537,0.4770145703646376,0.7257289787155983,0.322762048150449,0.11533483548007925,-0.6729940155558074,-1.1143698136711477,-1.5903119775637413,2.5133147712992425,1.9467737708861688,-1.693436957343957,2.0137530645530077,0.9380030057812898,2.580962332130632,-1.243519737277367,-1.0926755842619713,-0.8149988968886205,-0.10922044062263696,-0.2967629812589786,1.0481067837826272,-1.916023198977567,0.0420781232574279,-0.37390385969440937,0.07908686287857487,-1.0618720307691816,0.9941894425211768,-0.4232260352470751,-2.948230724488196,1.0612477125256432
130,-0.6134019347892714,-1.1915379980888738,0.47697533928874036,0.7258085971729699,0.32266755278243486,0.11509968656474856,-0.6733614355011437,-1.1142966641711796,-1.5914818679069884,2.5137746721489904,1.9481237105666198,-1.6936000720718771,2.013766227988398,0.9378016654817137,2.5809816169773128,-1.2448483468153404,-1.0922470931617796,-0.8151431405193125,-0.11101512554061424,-0.2966983198686539,1.0501053835527632,-1.9185312006124968,0.04347116460570919,-0.3731794964056863,0.0808025942569367,-1.064223033931965,0.9923987164543207,-0.4251051143924474,-2.950027633052138,1.0620716491496793
131,-0.6132133763594836,-1.1900603100390947,0.4769349965560113,0.72588717977978,0.32257141368599357,0.11486321109836152,-0.6737255087887487,-1.1142240534888619,-1.5926493089425486,2.514234476739231,1.9494708284352047,-1.6937627043208647,2.013779750111907,0.9376020147309346,2.5810012240393996,-1.2461739862393195,-1.0918226764802805,-0.8152868320700448,-0.11279607853081076,-0.2966361920797572,1.0520972938078197,-1.9210352951387692,0.04485959892298633,-0.37245657627025164,0.08251231697728187,-1.06656557358316,0.9906163337630106,-0.4269787514464667,-2.951823900274235,1.0629000880046002
132,-0.6130239859822169,-1.1885881922093853,0.4768935576168802,0.7259647353588954,0.32247365360664554,0.11462541590683777,-0.6740862637998876,-1.1141519860807896,-1.5938143448295692,2.5146941870214854,1.9508151215171834,-1.6939248660396626,2.013793625133366,0.9374040384143396,2.581021148489032,-1.2474966507379377,-1.091402291851441,-0.8154299686166242,-0.11456342944409537,-0.2965765741311919,1.0540825406040584,-1.9235354889645104,0.046243454202221236,-0.37173508959556084,0.08421606780341835,-1.0688996883324766,0.9888422326316907,-0.4288469749044371,-2.953619508392348,1.0637329878447006
133,-0.6128337701963064,-1.187121675211251,0.4768510377606952,0.7260412727007811,0.322374295051563,0.1143863079455035,-0.6744437287438405,-1.1140804662890984,-1.5949770188333665,2.515153804866843,1.9521565869938826,-1.6940865690784377,2.013807847344633,0.9372077215526003,2.5810413855665457,-1.2488163357229018,-1.090985897374264,-0.8155725473489682,-0.11631730681301919,-0.2965194424444225,1.0560611499667467,-1.926031788297439,0.047622758120433734,-0.3710150269223929,0.08591388311963458,-1.0712254166890942,0.9870763518524697,-0.43070981299841304,-2.955414439895439,1.0645703074572528
134,-0.6126427356184121,-1.1856607890732618,0.47680745211684605,0.726116800562973,0.3222733602913523,0.11414589429638607,-0.6747979316576932,-1.1140094983424087,-1.5961373733385844,2.515613332067201,1.9534952222011377,-1.6942478251885447,2.0138224111184586,0.9370130493003288,2.5810619305794935,-1.2501330368263321,-1.090573451607154,-0.8157145655693238,-0.1180578378685719,-0.2964647736216766,1.0580331478896998,-1.9285241991505524,0.04899753804370556,-0.3702963790202887,0.08760579893646996,-1.0735427970613458,0.9853186308177383,-0.43256729370079516,-2.9572086775184316,1.0654120056662542
135,-0.6124508889408612,-1.1842055632407953,0.4767628156558865,0.7261913276695602,0.3221708713618308,0.1139041821655136,-0.6751489004061552,-1.1139390863567757,-1.5972954498622014,2.5160727703364922,1.9548310246277414,-1.6944086460223104,2.0138373109073746,0.9368200069447519,2.5810827789016817,-1.2514467498981254,-1.0901649135623566,-0.8158560206905097,-0.11978514855667274,-0.2964125444441722,1.059998560334824,-1.9310127273477424,0.05036782103212457,-0.369579136883037,0.08929185089641098,-1.0758518677563835,0.9835690095128918,-0.43441944472787064,-2.9590022042372146,1.0662580413361458
136,-0.6122582369295021,-1.1827560265758954,0.4767171431906558,0.7262648627106785,0.32206685006579977,0.11366117888022119,-0.6754966626814055,-1.1138692343366476,-1.598451289066391,2.5165321213119047,1.9561639919139004,-1.6945690431328395,2.0138525412425956,0.9366285799044042,2.581103925972224,-1.2527574710033407,-1.0897602427004813,-0.8159969102341831,-0.12149936355439911,-0.29636273187037165,1.0619574132316623,-1.933497378529335,0.05173363384466655,-0.3688632917242112,0.09097207427951053,-1.0781526669798265,0.9818274285091546,-0.4362662935432998,-2.9607950032637773,1.0671083733754994
137,-0.6120647864215737,-1.1813122073572435,0.47667044937739866,0.7263374143420154,0.32196131797481153,0.11341689188646453,-0.6758412460029656,-1.1137999461758286,-1.5996049307712334,2.5169913865550844,1.9574941218497004,-1.6947290279738385,2.01386809673294,0.9364387537278394,2.581125367294611,-1.2540651964196052,-1.089359398925097,-0.8161372318291292,-0.1232006062859552,-0.2963153130342618,1.063909732476936,-1.9359781581575597,0.053095002944012766,-0.36814883497275824,0.09264650400892867,-1.0804452328353942,0.9800938289565062,-0.4381078673615502,-2.9625870580414775,1.067962960740671
138,-0.6118705443235881,-1.1798741332802443,0.47662274871688476,0.726408991184325,0.3218542964309322,0.11317132874614216,-0.6761826777175988,-1.113731225658448,-1.6007564139672819,2.517450567553329,1.9588214123735754,-1.6948886118994597,2.0138839720637662,0.9362505140923596,2.5811470984357925,-1.2553699226345423,-1.0889623425774047,-0.8162769832095732,-0.12488899893838391,-0.29627026524365974,1.0658555439340844,-1.9384550715219449,0.054451954501301573,-0.3674357582686421,0.09431517465639354,-1.082729603324525,0.9783681525767067,-0.4399441931512784,-2.9643783522404386,1.0688217624394176
139,-0.6116755176092289,-1.1784418314572225,0.4765740555555263,0.7264796018229548,0.3217458065484995,0.11292449713442733,-0.6765209849992359,-1.113663076459936,-1.6019057768279796,2.5179096657207687,1.9601458615707859,-1.6950478061641627,2.0139001619959274,0.9360638468027628,2.5811691150252782,-1.2566716463432177,-1.088569034430985,-0.8164161622135145,-0.12656466247702508,-0.2962275659785453,1.0677948734327993,-1.94092812374464,0.055804514400813,-0.36672405345854203,0.09597812044758126,-1.085005816345983,0.9766503416564197,-0.44177529763866125,-2.9661688697530706,1.0696847375344756
140,-0.611479713317265,-1.1770153284177332,0.47652438408649467,0.7265492548073824,0.3216358692158748,0.11267640483711028,-0.6768561948489269,-1.113595502148003,-1.603053056721936,2.518368682399535,1.9614674676719006,-1.6952066219225943,2.013916661364738,0.9358787377901069,2.5811914127542495,-1.2579703644456066,-1.0881794356866206,-0.8165547667810833,-0.12822771666072305,-0.29618719288941914,1.0697277467685522,-1.9433973197856658,0.05715270824458517,-0.3660137125916076,0.09763537526741406,-1.0872739096954502,0.9749403390404314,-0.4436012073106769,-2.9679585946897142,1.0705518451470992
141,-0.6112831385494802,-1.1755946501089816,0.4764737483508357,0.7266179586507643,0.321524505097191,0.11242705974795199,-0.6771883340948173,-1.113528506183625,-1.6041982902250553,2.5188276188609158,1.9627862290512852,-1.6953650702294851,2.0139334650789618,0.9356951731104928,2.581213987374688,-1.2592660740440773,-1.087793507967189,-0.8166927949529172,-0.1298782800567871,-0.2961491237956864,1.071654189702116,-1.9458626644480892,0.05849656135696198,-0.3653047279152711,0.09928697266527615,-1.0895339210651105,0.9732380881249639,-0.4454219484183368,-2.9697475113744045,1.0714230444605581
142,-0.61108580046862,-1.1741798218963542,0.4764221622385835,0.7266857218294948,0.3214117346340947,0.11217646986604987,-0.6775174293921493,-1.1134620919220328,-1.6053415131325242,2.5192864763065024,1.964102144225596,-1.6955231620395643,2.013950568119809,0.9355131389438628,2.5812368346985175,-1.2605587724408946,-1.08741121331263,-0.8168302448685594,-0.13151647005570793,-0.29611333668406653,1.0735742279590772,-1.9483241623831267,0.05983609878907162,-0.3645970918711176,0.10093294586014724,-1.091785888043221,0.9715435328510826,-0.44723754697986884,-2.971535604340751,1.0722982947235922
143,-0.6108877062963544,-1.1727708685640597,0.47636963948987265,0.7267525527827758,0.3212975780474835,0.11192464329321646,-0.6778435072232878,-1.1133962626137053,-1.6064827604706573,2.51974525586932,1.9654152118522776,-1.6956809082074893,2.013967965539953,0.935332621592817,2.5812599505967575,-1.26184845713574,-1.0870325141749821,-0.8169671147648768,-0.13314240288563406,-0.2960798097070281,1.0754878872293414,-1.9507818180951724,0.061171345323235496,-0.36389079709081373,0.10257332774565332,-1.0940298481136743,0.9698566176981946,-0.4490480287838532,-2.9733228583279296,1.0731775552538216
144,-0.6106888633112585,-1.1713678143158779,0.476316193696049,0.7268184599121984,0.3211820553392375,0.11167158823137152,-0.678166593897769,-1.1133310214053675,-1.607622066508603,2.520203958614948,1.966725430728067,-1.6958383194877926,2.0139856524625612,0.9351536074814458,2.5812833309986942,-1.2631351258232486,-1.08665737341349,-0.8171034029744987,-0.1347561936266109,-0.2960485211812489,1.0773951931666284,-1.9532356359467533,0.06250232547730773,-0.36318583639209434,0.10420815089503518,-1.0962658386555524,0.9681772876776379,-0.45085341939231066,-2.9751092582767864,1.0740607854411146
145,-0.6104892788468113,-1.169970682776018,0.47626183830077884,0.7268834515813337,0.3210651862939465,0.11141731297994842,-0.6784867155523728,-1.1132663713409916,-1.608759464769909,2.5206625855426297,1.968032799787501,-1.695995406534844,2.014003624080338,0.9349760831541784,2.5813069718910615,-1.2644187763905639,-1.0862857542897792,-0.8172391079242738,-0.13635795622458682,-0.29601944958610127,1.079296171387958,-1.955685620163411,0.06382906350894507,-0.36248220277480847,0.10583744756603465,-1.098493896942671,0.9665054883263594,-0.45265374414374465,-2.9768947893260473,1.0749479447509076
146,-0.6102889602894107,-1.1685794969900825,0.47620658660115656,0.726947536115336,0.3209469904806311,0.11116182593331518,-0.678803898151218,-1.1132023153628017,-1.6098949880439524,2.521121137586368,1.969337318101428,-1.6961521799028276,2.014021875654583,0.9348000352746474,2.581330869317236,-1.2656994069149075,-1.0859176204631011,-0.8173742281337478,-0.13794780350518943,-0.29599257356216147,1.081190847473128,-1.9581317748385072,0.06515158341980753,-0.3617798894170237,0.10746124970569916,-1.1007140601431165,0.9648411657006815,-0.4544490281561374,-2.9786794368086333,1.0758389927274816
147,-0.6100879150764087,-1.1671942794261396,0.4761504517488103,0.7270107218005555,0.32082748725445887,0.11090513557821098,-0.6791181674858787,-1.113138856312281,-1.6110286683972308,2.5215796156160106,1.9706389848755257,-1.6963086500457352,2.0140404025142664,0.9346254506245696,2.581355019376444,-1.266977015661166,-1.0855529359856413,-0.8175087622136591,-0.1395258471872756,-0.29596787190974394,1.0830792469641803,-1.9605741039379576,0.06646990895969013,-0.36107888967118923,0.10907958895510504,-1.1029263653187764,0.9631842663701545,-0.4562392963299008,-2.9804631862480755,1.0767338889971916
148,-0.6098861506941633,-1.1658150519758999,0.47609344675100607,0.7270730168841619,0.3207066957584552,0.11064725049119842,-0.6794295491755237,-1.113075996931183,-1.612160537184521,2.522038020438322,1.971937799448821,-1.6964648273173726,2.0140592000551125,0.9344523161026411,2.5813794182229817,-1.268251601079493,-1.085191665297897,-0.8176427088644524,-0.14109219789625896,-0.2959453235874595,1.0849613953648598,-1.9630126113048902,0.06778406363058594,-0.3603791970603571,0.11069249665400029,-1.1051308494248617,0.9615347374114954,-0.4580245733507822,-2.9822460233550308,1.077632593271649
149,-0.6096836746761098,-1.1644418359559972,0.4760355844717499,0.7271344295737794,0.32058463492520833,0.1103881793361322,-0.6797380686670751,-1.1130137398625437,-1.6132906250599026,2.5224963527980457,1.973233761292215,-1.6966207219713823,2.014078263738701,0.9342806187234485,2.581404062065447,-1.2695231618029272,-1.0848337732241167,-0.8177760668748122,-0.1426469651772186,-0.29592490771079716,1.086837318140061,-1.9654473006642292,0.06909407069068121,-0.35968080527446183,0.11230000384536731,-1.107327549309423,0.9598925264026096,-0.4598048836927268,-2.984027934023892,1.078535065350858
150,-0.6094804946008512,-1.1630746521093742,0.4759768776328881,0.7271949680371307,0.3204613234785696,0.11012793086164467,-0.6800437512353895,-1.1129520876516985,-1.6144189619876508,2.5229546133789538,1.9745268700070127,-1.6967763441612782,2.014097589091579,0.9341103456163943,2.581428947165984,-1.2707916966450246,-1.0844792249678048,-0.817908835120212,-0.14419025750779227,-0.29590660355072945,1.0887070407152684,-1.9678781756272046,0.07039995315828297,-0.35898370816665764,0.11390214127990675,-1.1095165017128616,0.9582575814166967,-0.46158025162069555,-2.985808904329492,1.0794412651263041
151,-0.6092766180902666,-1.1617135206067706,0.475917338815206,0.7272546404016926,0.3203367799353475,0.1098665138986487,-0.6803466219834576,-1.1128910427472982,-1.6155455772529979,2.5234128028048843,1.975817125323455,-1.6969317039404967,2.0141171717043864,0.9339414840246372,2.581454069839537,-1.272057204597507,-1.0841279861072883,-0.8180410125614828,-0.14572218231085815,-0.29589039053234095,1.0905705884759846,-1.9703052396957874,0.0717017338156797,-0.3582878997497129,0.11549893942044286,-1.111697743267435,0.9566298510164385,-0.4633507011934404,-2.9875889205238977,1.080351152583996
152,-0.6090720528076399,-1.1603584610483122,0.4758569804595239,0.7273134547543616,0.3202110226069969,0.10960393735785813,-0.6806467058426243,-1.1128306075023295,-1.6166704994727656,2.52387092164077,1.9771045270992567,-1.6970868112624586,2.0141370072309956,0.933774021304046,2.5814794264531185,-1.2733196848279242,-1.0837800225913456,-0.8181725982433977,-0.14724284596700818,-0.2958762482334793,1.092427986767152,-1.972728496267051,0.07299943521293598,-0.35759337419246195,0.11709042844625159,-1.1138713104967561,0.9550092842482664,-0.4651162562662371,-2.9893679690332915,1.0812646878074599
153,-0.6088668064558068,-1.159009492465201,0.47579581486779177,0.7273714191411295,0.32008406960130237,0.10934021022732654,-0.6809440275728273,-1.1127707841751358,-1.6177937566058702,2.524328970393652,1.9783890753181466,-1.697241675980647,2.0141570913876614,0.9336079449221684,2.5815050134250868,-1.274579136677333,-1.0834353007348958,-0.8183035912932745,-0.14875235382681712,-0.2958641563834289,1.0942792608925638,-1.9751479486374572,0.0742930796716216,-0.3569001258163127,0.11867663825731228,-1.116037239815289,0.9533958306367096,-0.4668769404935754,-2.991146036454941,1.0821818309806868
154,-0.608660886775322,-1.1576666333215049,0.4757338542041813,0.7274285415667693,0.3199559388240558,0.10907534157000441,-0.681238611762855,-1.1127115749304393,-1.6189153759637005,2.5247869495136848,1.9796707700884135,-1.6973963078486964,2.014177419952184,0.9334432424572127,2.581530827224436,-1.2758355596579873,-1.083093787214747,-0.8184339909195935,-0.15025081022291054,-0.29585409486160624,1.096124436114268,-1.977563600007068,0.07558268928847611,-0.35620814909181087,0.12025759847848383,-1.11819556752784,0.9517894401788219,-0.46863277733180814,-2.9929231095542477,1.0831025423910314
155,-0.6084543015426456,-1.156329901516045,0.47567111049617616,0.7274848299945316,0.31982664798072874,0.10880934052131519,-0.6815304828306219,-1.1126529818403652,-1.6200353842203716,2.52524485939513,1.9809496116414544,-1.6975507165204962,2.0141979887630836,0.9332799015970431,2.581556864370094,-1.2770889534510468,-1.082755449065405,-0.8185637964106334,-0.1517383184818354,-0.2958460436962776,1.097963537651962,-1.9799754534836838,0.07686828593900939,-0.355517438635259,0.12183333846360643,-1.1203463298290461,0.9501900633386852,-0.470383790041759,-2.994699175261879,1.0840267824320653
156,-0.6082470585683488,-1.154999314384382,0.47560759563565974,0.72754029234585,0.31969621457813885,0.10854221628675062,-0.6818196650234618,-1.1125950068854662,-1.621153807422855,2.5257027003773382,1.9822256003303285,-1.697704911550305,2.014218793718788,0.9331179101381885,2.581583121430235,-1.2783393179042957,-1.0824202536749379,-0.8186930071331222,-0.1532149809357366,-0.29583998306329734,1.099796590682382,-1.9823835120869067,0.07814989128103926,-0.3548279892053906,0.12340388729952989,-1.122489562802857,0.9485976510419897,-0.4721300016912898,-2.9964742206709776,1.084954511606381
157,-0.6080391656953406,-1.1536748887008947,0.4755433213800008,0.7275949365000579,0.3195646559261108,0.10827397813948558,-0.682106182418439,-1.1125376519557475,-1.6222706710009862,2.52616047274572,1.9834987366283137,-1.6978589023928794,2.01423983077683,0.9329572559848632,2.5816095950215976,-1.2795866530298798,-1.0820881687808985,-0.8188216225309046,-0.1546808989338433,-0.2958358932848676,1.101623620338681,-1.9847877787521306,0.07942752675816692,-0.35413979570009846,0.12496927381006963,-1.1246253024220172,0.9470121546706899,-0.4738714351578277,-2.9982482330344467,1.0858856905283503
158,-0.6078306307971125,-1.1523566406809573,0.4754782993531369,0.7276487702941133,0.319431989139131,0.10800463541801283,-0.6823900589226751,-1.1124809188516933,-1.6233859997773512,2.5266181767327067,1.984769021127468,-1.6980126984036144,2.0142610959530556,0.9327979271480019,2.581636281808818,-1.2808309590020546,-1.081759162466303,-0.8189496421236249,-0.15613617285376777,-0.29583375482831836,1.1034446517098049,-1.9871882563344565,0.0807012136031909,-0.3534528531532165,0.1265295265598912,-1.1267535845475436,0.9454335260577341,-0.4756081131308527,-3.000021199762308,1.0868202799268347
159,-0.6076214617760054,-1.1510445859832075,0.4754125410466549,0.7277018015223353,0.31929823113799743,0.10773419752379797,-0.682671318273693,-1.1124248092852924,-1.6244998179770544,2.5270758125187007,1.986036454537196,-1.6981663088386947,2.0142825853208475,0.932639911744305,2.5816631785037694,-1.2820722361549486,-1.0814332031556635,-0.819077065505425,-0.15758090211262116,-0.2958335483049081,1.105259709839857,-1.9895849476125342,0.08197097284146072,-0.35276715673135467,0.12808467385832473,-1.128874444928201,0.9438617174818681,-0.4773400581143462,-3.001793108419133,1.0877582406478494
160,-0.6074116665614941,-1.1497387397119065,0.47534605782086986,0.7277540379361485,0.31916339865146254,0.10746267391895474,-0.6829499840397767,-1.1123693248810649,-1.6256121492373683,2.5275333802330144,1.9873010376828173,-1.6983197428552597,2.014304295010353,0.9324831979952978,2.581690281864913,-1.2833104849803418,-1.0811102596110755,-0.8192038923436589,-0.15901518517794855,-0.2958352544686438,1.1070688197274619,-1.9919778552923317,0.08323682529417085,-0.35208270173078626,0.1296347437631101,-1.1309879191999768,0.9422966816625097,-0.4790672924292008,-3.003563946721543,1.0886995336571794
161,-0.6072012531084944,-1.148439116419392,0.47527886090590066,0.7278054872438381,0.319027508217871,0.10719007412394128,-0.6832260796203466,-1.1123144671770882,-1.6267230166172648,2.527990879954799,1.988562771504142,-1.6984730095115785,2.0143262212077295,0.9323277742263998,2.581717588696657,-1.2845457061254566,-1.0807903009283584,-0.8193301223776204,-0.16043911957848733,-0.2958388542151208,1.1088720063251178,-1.9943669820108296,0.08449879158159596,-0.3513994835743869,0.13117976408407409,-1.1330940428855518,0.9407383717546957,-0.4807898382155921,-3.005333702535776,1.0896441200429503
162,-0.6069902293956879,-1.1471457301086165,0.47521096140274355,0.7278561571103142,0.31889057618679145,0.1069164077152772,-0.6834996282463499,-1.1122602376260229,-1.627832442606833,2.5284483117139627,1.9898216570540488,-1.6986261177672377,2.014348360154394,0.9321736288660073,2.581745095848728,-1.2857779003907626,-1.0804732965332478,-0.8194557554172873,-0.16185280191475174,-0.2958443285803819,1.11066929453855,-1.9967523303396446,0.08575689212626829,-0.3507174978086248,0.13271976238674038,-1.1351928513937726,0.9391867413440981,-0.48250771743531284,-3.0071023638753176,1.0905919610181514
163,-0.6067786034238691,-1.1458585942357775,0.4751423702843428,0.7279060551568851,0.3187526187206419,0.10664168432328198,-0.6837706529806659,-1.1122066375961384,-1.6289404491365813,2.5289056754920787,1.9910776954970677,-1.698779076483339,2.0143707081462865,0.9320207504445864,2.5817728002155476,-1.2870070687277966,-1.0801592161776399,-0.8195807913420792,-0.1632563278694472,-0.2958516587397948,1.1124607092260537,-1.9991339027885782,0.0870111471560982,-0.35003674010060165,0.13425476599587383,-1.1372843800191201,0.9376417444421102,-0.4842209518740697,-3.008869918898598,1.0915430179231134
164,-0.6065663832143114,-1.144577721713031,0.4750730983966588,0.7279551889610405,0.31861365179630957,0.10636591362983493,-0.6840391767185254,-1.1121536683723374,-1.6300470575866273,2.529362971223283,1.9923308881079687,-1.6989318944227094,2.014393261533145,0.931869127593777,2.5818006987356217,-1.288233212236996,-1.0798480299358861,-0.8197052300996299,-0.16464979221771725,-0.29586082600694835,1.1142462751978373,-2.0015117018090947,0.08826157670743849,-0.3493572062351427,0.13578480199895965,-1.1393686639411809,0.9361033354810003,-0.4859295631437439,-3.0106363559067493,1.0924972522279386
165,-0.6063535768071542,-1.143303124911291,0.4750031564597334,0.7280035660562434,0.31847369120676416,0.10608910536615676,-0.6843052221879451,-1.1121013311571801,-1.6311522887957748,2.529820198795163,1.9935812362703536,-1.699084580250121,2.0144160167177865,0.9317187490455081,2.5818287883909354,-1.2894563321655454,-1.079539708201137,-0.8198290717045746,-0.1660332888372266,-0.29587181183256656,1.116026017215359,-2.003885729797727,0.08950820062809361,-0.3486788921119372,0.13730989724961895,-1.141445738224115,0.9345714693091325,-0.4876335726846151,-3.0124016633414223,1.093454625534887
166,-0.6061401922598093,-1.1420348156631122,0.4749325550687525,0.7280511939317313,0.31833275256266563,0.10581126931061322,-0.6845688119501739,-1.112049627071906,-1.6322561630704817,2.5302773580496334,1.9948287414752532,-1.6992371425325228,2.0144389701553993,0.9315696036311235,2.5818570662063602,-1.290676429905239,-1.0792342216817365,-0.8199523162373504,-0.16740691071808309,-0.2958845978034406,1.117799959990662,-2.00625598909941,0.09075103858027456,-0.34800179374272655,0.13883007837096156,-1.1435156378161269,0.9330461011862539,-0.48933300176755,-3.01416582978266,1.0944150995807145
167,-0.6059262376453894,-1.140772805265654,0.47486130469510557,0.7280980800323266,0.3181908512939652,0.10553241528654078,-0.6848299684001543,-1.1119985571574564,-1.633358700193717,2.530734448783806,1.9960734053197304,-1.699389589739281,2.014462118352846,0.9314216802805181,2.5818855292490652,-1.2918935069903539,-1.0789315413976623,-0.8200749638430113,-0.16877074997260186,-0.29589916564137797,1.1195681281857044,-2.0086224820107423,0.09199011004350023,-0.34732590724854095,0.14034537175887707,-1.1455783975489349,0.9315271867788469,-0.49102787149615557,-3.0159288439468295,1.095378636238967
