epoch,W1[0],W1[1],W1[2],W1[3],W1[4],W1[5],W1[6],W1[7],W1[8],W1[9],W1[10],W1[11],W1[12],W1[13],W1[14],W1[15],W1[16],W1[17],W1[18],W1[19],W2[0],W2[1],W2[2],W2[3],W2[4],W2[5],W2[6],W2[7],W2[8],W2[9]
0,-0.30619275530985507,0.4761227285971859,0.03177798468945885,-0.03480032524991166,3.018014570796347,-0.161911669514966,-1.0629781337049786,-0.7458255511822464,1.505544595612544,-0.7905305913795262,0.5408147680807348,0.7403092693561689,1.1648738179070706,-2.6969371473758557,0.13819009572992158,-0.7407736617615439,0.6790568009918934,0.10652773938770171,0.493159911259519,-2.527018374216822,1.0068219749047067,-1.8024808229801457,-0.17744141868149535,-2.683229697444122,1.2791059243688578,-0.48178740898842765,-1.6070136399830155,0.14517835006199198,-1.582493182099378,-0.6721769252776321
1,-0.30402547778116334,0.47336999936311996,0.03150487036432766,-0.036022944795496684,3.018450385752899,-0.16276983108581175,-1.0663759149951173,-0.7455387255022834,1.5041076004482672,-0.7907002707736569,0.5428834137144782,0.737720038406811,1.1646118009818638,-2.6982103334488685,0.1384271029472369,-0.7415895437791568,0.6758269661556761,0.10679783308797056,0.49191634890219127,-2.5271909934318297,1.0112464114827155,-1.7962289259686341,-0.17124945773792233,-2.682902671824938,1.287060001086481,-0.4795890751324683,-1.6039539666503921,0.1477847019852432,-1.5752694875680375,-0.6720493647417394
2,-0.3017869858084193,0.4705359364365888,0.031233631317408656,-0.03727072065871396,3.0189012494673846,-0.16364778568531002,-1.0698604701745504,-0.7452381559841016,1.5026319278070046,-0.790873381235175,0.5450164691735742,0.7350600815163062,1.1643519624607375,-2.699513635417171,0.13866384752841376,-0.7424226747156167,0.6725221536993532,0.107080221772401,0.49064651689262617,-2.527367505823601,1.0157946823173378,-1.7898256276681757,-0.1648986711707195,-2.6825765447615346,1.2952290489451226,-0.47734404711613854,-1.6008442515604264,0.1504520204005587,-1.5678572418231067,-0.6719255833452862
3,-0.29947493481805304,0.4676183750630715,0.0309648927312162,-0.03854340958065368,3.0193677044710103,-0.16454578903381506,-1.0734334635563563,-0.7449231664478079,1.501116800019458,-0.7910498470545533,0.5472156919486032,0.7323281040382449,1.1640949195327148,-2.7008474057655865,0.13889937560591936,-0.743273116374038,0.6691417542639368,0.10737543278649425,0.4893506556890952,-2.5275479055703447,1.0204689471502215,-1.7832695579816582,-0.15838695805306793,-2.682252412372558,1.3036170642468328,-0.47505270464815696,-1.5976861837471945,0.1531802743673276,-1.5602535011204877,-0.6718065275451722
4,-0.2970871023626874,0.46461535592256725,0.030699346122782717,-0.0398405515151305,3.0198502746625224,-0.16546401545531056,-1.0770962775427764,-0.744593076595835,1.499561571970138,-0.7912295534149415,0.5494826665375092,0.7295230877835179,1.1638413512074033,-2.70221185971232,0.13913255666112503,-0.74414083505056,0.6656855395178705,0.10768398171014758,0.4880292230660218,-2.5277321588270167,1.025270819168477,-1.7765601461280367,-0.15171297597357605,-2.68193155901566,1.312227209940827,-0.4727158183139979,-1.5944820430418603,0.15596898542738866,-1.5524561378814468,-0.6716932883941651
5,-0.2946214416092393,0.4615251904689064,0.030437751904036112,-0.041161429925343454,3.020349454753635,-0.16640254046527025,-1.080849943149942,-0.7442472107558713,1.4979657651136602,-0.7914123393410113,0.5518187485210024,0.7266443591482616,1.1635919999999418,-2.7036070459637536,0.13936205873837074,-0.7450256838857269,0.6621537384581434,0.10800636227430727,0.48668293205787144,-2.5279201984092508,1.0302012286024003,-1.7696977881391964,-0.1448763130203492,-2.6816154823011136,1.3210616064213367,-0.470334621103083,-1.5912347900508241,0.1588171394710913,-1.5444640329979886,-0.6715871198860414
6,-0.2920761438884259,0.45834653585503404,0.03018094078626482,-0.04250502786839974,3.020865697803949,-0.16736132148259508,-1.0846950621554434,-0.743884908741529,1.496329105874125,-0.7915979898725704,0.5542250002136082,0.7236916658256733,1.1633476723597267,-2.7050328142664855,0.139586321729428,-0.7459273836164556,0.658547121521213,0.10834303420638458,0.4853127922959193,-2.528111917927768,1.0352602679208838,-1.7626840331163505,-0.13787768079133503,-2.6813059199067664,1.330121094918342,-0.46791088726963237,-1.5879481627385958,0.1617230887551331,-1.5362772922080539,-0.6714894585390936
7,-0.2894497106462963,0.4550784794468112,0.02992981360945125,-0.04386998023470223,3.021399400746371,-0.16834017684428357,-1.088631721357041,-0.7435055390615375,1.494651568268462,-0.7917862275167485,0.5567021178361231,0.72066526170551,1.163109237432482,-2.7064887800499204,0.1398035291478646,-0.746845501995518,0.6548670915992779,0.10869440884152341,0.483920154147491,-2.5283071654332363,1.040447018977018,-1.755521786733889,-0.1307191273708965,-2.681004877762413,1.3394049742877983,-0.46544701774366515,-1.5846267779011254,0.16468444483351566,-1.527897485506394,-0.671401943880939
8,-0.28674103471049006,0.45172063236267396,0.029685339116179852,-0.045254522876901015,3.0219508878859,-0.16933876346634003,-1.0926594000693683,-0.7431085146548383,1.492933420286411,-0.7919767030960916,0.5592503506437487,0.7175659989239397,1.162877623693943,-2.707974286735334,0.140011579073051,-0.7477794323235826,0.6511157803115059,0.10906083241130632,0.48250675467148246,-2.5285057366839654,1.0457593636799885,-1.7482155288787962,-0.12340426761510263,-2.6807146589209077,1.3489107138978047,-0.4629461306153167,-1.5812762348697484,0.16769796400516007,-1.519327906794554,-0.6713264393096755
9,-0.2839494901748016,0.4482732307098217,0.02944854914299343,-0.046656439836685666,3.0225203924740316,-0.17035655370270972,-1.0967768728076623,-0.7426933112367721,1.4911752731551209,-0.792168986192834,0.5618694131133406,0.714395425187735,1.1626538129594322,-2.7094883666467107,0.14020805526892985,-0.7487283717581306,0.6472961469428423,0.10944256703736535,0.48107476391331516,-2.52870736821541,1.0511937814131604,-1.7407715402610242,-0.11593852599792208,-2.680437892121841,1.358633647813835,-0.46041215433153315,-1.5779032176363559,0.1707594279720961,-1.5105738486590528,-0.671265052573196
10,-0.28107502939195533,0.444737242203705,0.02922053068209523,-0.0480730104595169,3.0231080366235576,-0.17139281220438818,-1.1009821101136077,-0.742259488201257,1.4893781321117296,-0.7923625554928921,0.564558392159302,0.7111558834548966,1.1624388312696945,-2.7110297018932816,0.14039019987131662,-0.7496913003202063,0.6434120763433405,0.10983976962270596,0.4796268294837328,-2.528911730471032,1.0567451385133335,-1.733198130323759,-0.10832938466991517,-2.6801775586832535,1.3685666586430276,-0.4578499201695662,-1.5745155902601384,0.17386352374660688,-1.5016428842785612,-0.6712201548312119
11,-0.2781182845396081,0.44111447466355486,0.0290024142889783,-0.049500958865598875,3.0237138100366536,-0.1724465738650412,-1.105272181641925,-0.7418067118278885,1.4875434467120054,-0.7925567894552672,0.5673156524070717,0.7078506098298094,1.162233736195012,-2.712596587090243,0.14055488947709552,-0.7506669618025551,0.6394684708183274,0.11025246905370487,0.47816611672271336,-2.5291184213462015,1.062406477654993,-1.7255058558875505,-0.10058662631769005,-2.6799370159390783,1.3786998631617124,-0.4552652493147512,-1.571122478968252,0.17700372841624484,-1.4925451450481269,-0.6711943969516423
12,-0.27508067001041114,0.43740768151572207,0.02879535839490873,-0.05093640898685169,3.0243375482697603,-0.17351662423957728,-1.1096431668825393,-0.7413347802879922,1.485673158045393,-0.7927509578684554,0.5701387437703636,0.7044838241861896,1.1620396002039106,-2.7141868963123157,0.14069861693180585,-0.7516538480695053,0.6354713297180404,0.1106805424005104,0.4766963410894523,-2.529326960595015,1.0681688178515933,-1.7177077168403592,-0.09272255803183586,-2.679720014999907,1.389020316061649,-0.45266502853990465,-1.567734332913492,0.18017220609340925,-1.4832935787290185,-0.6711907213631135
13,-0.2719644805375705,0.43362065800204125,0.028600529245179723,-0.05237484912285241,3.0249789115402486,-0.17460148410801624,-1.1140900801276212,-0.7408436496343217,1.4837697395601899,-0.7929442149949252,0.5730243168726972,0.7010608066798144,1.1618574899258287,-2.715798057182561,0.14081748155177543,-0.7526501884956802,0.6314278091937323,0.1111236911237065,0.47522178881810917,-2.529536785644549,1.0740209787917554,-1.7098193121235086,-0.08475219897021476,-2.6795307101951087,1.3995117524888894,-0.4500572671828011,-1.5643629542829285,0.1833597260945767,-1.4739041690898267,-0.6712123674703789
14,-0.26877297862161936,0.42975832043735956,0.028419076438920395,-0.053811110618490185,3.0256373653693376,-0.17569940008509646,-1.1186068173348052,-0.7403334596113007,1.4818362276104322,-0.7931355951314059,0.5759680530884711,0.6975879521322648,1.1616884414101716,-2.717427035409949,0.1409071908635883,-0.753653946469821,0.6273462536253959,0.11158141863858237,0.4737473214444789,-2.5297472494379876,1.0799494460374321,-1.7018589366921766,-0.0766934115753764,-2.6793736572186324,1.4101543940018584,-0.4474511270308339,-1.561021487611996,0.18655561288651568,-1.4643960945746899,-0.6712628683870525
15,-0.2655104636529785,0.4258267598091436,0.028252104399205277,-0.055239365693045134,3.0263121646171616,-0.17680834329050676,-1.1231861331633581,-0.7398045577674435,1.4798762374316472,-0.7933240115037503,0.5789646169565553,0.6940727934954833,1.1615334318483406,-2.719070333304586,0.14096307710585973,-0.7546628249332553,0.6232361897983221,0.11205301091744527,0.47227835967602494,-2.529957620968639,1.08593829574775,-1.693847598618057,-0.06856695406027286,-2.679253796832507,1.4209248454297565,-0.44485691609264916,-1.557724358055244,0.18974773929540018,-1.454791801170484,-0.671346036613163
16,-0.2621823143669371,0.42183326053734166,0.02810064054324909,-0.056653149498828874,3.027002342650541,-0.1779260180324814,-1.1278196564102838,-0.7392575200365007,1.477893960171268,-0.7935082594421867,0.5820076391911525,0.6905239855285711,1.1613933486654757,-2.720724005706459,0.14098013160961884,-0.7556742827670032,0.6191082752957217,0.11253752207098704,0.4708208423954747,-2.530167089149779,1.0919691984614015,-1.6858089357152306,-0.06039643152585648,-2.6791764210789504,1.4317961109978088,-0.4422860373520827,-1.5544871493278518,0.19292257453157866,-1.445116964133781,-0.6714659363580538
17,-0.2587949961968565,0.4177862756110314,0.027965601420478606,-0.058045410995005736,3.0277067074345108,-0.1790498821588863,-1.1324979510937734,-0.7386931657415601,1.4758941369803893,-0.7936870247153299,0.5850897382082101,0.6869512407217956,1.1612689573683883,-2.7223836962531056,0.14095305964795646,-0.7566855634314924,0.6149741940494418,0.11303376697460972,0.4693811574926921,-2.530374770569415,1.0980215204263453,-1.6777690136695196,-0.052208125153837166,-2.6791471194133436,1.4427377560814374,-0.43975088474879076,-1.551326414354667,0.1960652973580682,-1.4354003153994381,-0.6716268405581419
18,-0.25535602597190843,0.41369535085158243,0.027847758585769922,-0.059408596052581225,3.0284238461978275,-0.1801771801530973,-1.137210628331769,-0.738112564937379,1.473882007129867,-0.7938588977123126,0.5882025867564991,0.6833652116182323,1.1611608699955562,-2.7240446959055116,0.14087635734163595,-0.7576937365661565,0.610846494730428,0.1135403229237007,0.46796604279691306,-2.5305797214890298,1.1040725374338796,-1.6697559931431643,-0.044030684034590054,-2.6791717030753324,1.4537162352716633,-0.4372646810385292,-1.54825941551794,0.1991599819139994,-1.4256733190059065,-0.6718331713257935
19,-0.25187388842578706,0.4095709938697288,0.027747706398229335,-0.06073476429358627,3.029152139946861,-0.1813049891912257,-1.1419465108908755,-0.7375170362062985,1.4718632286943525,-0.7940223938361154,0.5913370277448993,0.6797773171000056,1.1610695163743268,-2.72570202413499,0.1407444106999106,-0.7586957522824332,0.606738371676069,0.1140555419531791,0.466582457623536,-2.5307809541571853,1.1100977697612935,-1.6617996618713007,-0.035894672617892476,-2.6792561073954637,1.464695397675969,-0.43484125593505085,-1.5453037967345076,0.20218985915954554,-1.4159696860546762,-0.6720894236163558
20,-0.24835790217774875,0.4054244873404493,0.02766583419174236,-0.062015738561084034,3.0298897884778038,-0.18243027727933636,-1.1466938479898785,-0.7369081335049473,1.4698437724984104,-0.7941759800120136,0.5944832397220222,0.6761995147902731,1.1609951205610622,-2.727350531225864,0.14055161492756782,-0.7596885066996832,0.6026633931106916,0.11457757481201498,0.4652374282151482,-2.5309774571364363,1.1160714377453107,-1.6539308389925669,-0.027831978244651723,-2.6794062735448634,1.4756371667825845,-0.4324947678783694,-1.5424771960688342,0.20513765078489696,-1.4063247332947966,-0.6724000732835729
21,-0.2448180370321438,0.40126765121069335,0.027602305265870177,-0.06324328281705696,3.030634845694704,-0.1835499713619416,-1.1514405730346657,-0.7362876214231114,1.467829792555778,-0.7943181066545667,0.597630947958699,0.6726440270643931,1.1609376847434367,-2.7289850179593045,0.14029250991220626,-0.7606689160089061,0.5986351870060216,0.11510440666381326,0.4639378733530387,-2.5311682189204294,1.1219670263608739,-1.6461806717423493,-0.019875096774100612,-2.679628013332423,1.4865023758563467,-0.4302393784815344,-1.5397968145139795,0.20798596523244398,-1.3967746043520077,-0.6727694723026895
22,-0.24126468918333208,0.3971125638054627,0.027557044835957837,-0.0644093010283676,3.0313852640634256,-0.18466103209900767,-1.1561745920707616,-0.7356574392063501,1.4658274788445822,-0.7944472438356731,0.6007696722275201,0.6691230335855456,1.1608969824752424,-2.730600366804212,0.13996192559953377,-0.7616339951855294,0.5946671002889541,0.11563390347337776,0.46269041921953385,-2.5313522537025586,1.1277579352379992,-1.6385798575406683,-0.012056328313618315,-2.6799268627946446,1.4972517226440327,-0.42808889447337717,-1.537278962974198,0.21071773809249197,-1.3873553881041327,-0.6732017355912641
23,-0.23770842556097888,0.39297125672418776,0.027529738451286322,-0.06550604670047817,3.032138946048987,-0.18576053104187887,-1.1608840866412777,-0.7350196549943706,1.4638429005478626,-0.7945619198396866,0.6038889978826888,0.6656483479231845,1.1608725624020357,-2.732191677002673,0.1395551291221822,-0.7625809366141622,0.590771851338532,0.11616386688015028,0.4615012147138941,-2.5315286278157867,1.1334181795630929,-1.631157835381415,-0.0044069273445774635,-2.6803079321898515,1.5078467917174176,-0.42605639688148605,-1.5349386142491988,0.2133166926832008,-1.3781021823887927,-0.6737006253063516
24,-0.23415971235077238,0.3888554020727605,0.027519841495858486,-0.06652633066255156,3.0328937995519434,-0.18684572538413657,-1.1655578121932162,-0.7343764127767576,1.4618818494381864,-0.7946607598739743,0.6069788535008127,0.6622310988082761,1.1608637626947618,-2.733754394938833,0.13906796442904523,-0.7635071835169127,0.586961197979547,0.11669209433556013,0.4603757594151069,-2.531696485161836,1.1389230991971777,-1.6239419972286682,0.0030437401148742356,-2.6807757612635417,1.5182510818089014,-0.4241538803715276,-1.5327889889378248,0.21576779229872092,-1.369048160656157,-0.674269439481543
25,-0.23062864497954141,0.3847760122373086,0.027526599346388143,-0.0674637139243657,3.0336477938277344,-0.1879141254517273,-1.1701853727439022,-0.7337298753910784,1.4599496935716918,-0.7947425225083391,0.6100297768177678,0.6588814372602342,1.1608697353704205,-2.735284431161859,0.1384969750475522,-0.7644104933037218,0.5832456429020427,0.1172164405769084,0.45931875595111665,-2.531855069935832,1.1442500297499394,-1.6169569712995544,0.010268977054635833,-2.6813341890135765,1.5284309712627318,-0.4223919263570382,-1.5308412029968836,0.21805765435984417,-1.3602237023577084,-0.6749109121664444
26,-0.22712469709772054,0.38074317167509897,0.02754907673607056,-0.06831267315022578,3.03439901224657,-0.1889635506645842,-1.1747574544002461,-0.7330821673371171,1.4580512507311756,-0.7948061314957396,0.6130331513633421,0.6556082889127788,1.1608894787089785,-2.736778256467184,0.1378395016195928,-0.7652889867919506,0.5796341954835951,0.11773487626543362,0.4583339966350677,-2.53200374514648,1.1493788912141092,-1.6102240240540016,0.017245422446397728,-2.6819862465023814,1.538356558414953,-0.4207794313986058,-1.5291040001287075,0.22017489898816087,-1.3516556438183187,-0.6756271317217057
27,-0.22365650422764097,0.37676581712085094,0.027586194026279383,-0.06906872849420743,3.0351456985627916,-0.189992170776597,-1.1792660042772818,-0.7324353211715863,1.4561906891974548,-0.7948507009830131,0.615981399017884,0.6524191665897847,1.160921875233911,-2.7382329713950866,0.13709374789363638,-0.766141180559889,0.5761342037472987,0.1182455398877371,0.4574242911095103,-2.5321420058095483,1.1542926570245016,-1.6037606169852998,0.023953563565044547,-2.6827340795702463,1.548002325040555,-0.419323407718789,-1.5275835847929562,0.22211041015254507,-1.3433666954427104,-0.6764194826220822
28,-0.22023169407713777,0.37285157767766736,0.02763676755300991,-0.0697285269049157,3.0358862940606466,-0.19099853061298885,-1.1837043467547919,-0.7317912307843891,1.4543714607279286,-0.794875552705335,0.6188681182386702,0.6493200522190383,1.160965732325226,-2.739646346073211,0.13625881164043055,-0.7669660012971224,0.5727512634778062,0.11874677976429521,0.456591437883746,-2.5322694861955997,1.15897767795807,-1.5975801395672284,0.030378067426789106,-2.6835789058191564,1.557347588216848,-0.41802886606109146,-1.5262835625518996,0.2238574956682053,-1.3353750550419186,-0.677288614192859
29,-0.2168567706771041,0.36900668030617645,0.027699551057593398,-0.07028987801758516,3.036619463906045,-0.19198155804833528,-1.188067234964197,-0.7311516140307782,1.452596267523096,-0.7948802244818238,0.6216881631635799,0.6463153505021411,1.1610198225224664,-2.741016830095835,0.13533468005917434,-0.7677627826406597,0.5694892044131209,0.11923718409269243,0.4558362386687868,-2.532385961061194,1.1634238492502798,-1.5916918233241024,0.03650792221554463,-2.6845210073243773,1.5663767262422041,-0.41689878365028515,-1.5252049850628053,0.22541194167325734,-1.3276942284358548,-0.6782344374310273
30,-0.21353705429053876,0.3652359201962464,0.027773275422536933,-0.07075174379968877,3.037344112099272,-0.19294055637600546,-1.1923508410019064,-0.7305179861552183,1.4508670619480755,-0.7948644700813817,0.6244376643119813,0.6434079104235457,1.1610829209174407,-2.742343534677277,0.13432219218918715,-0.768531246400402,0.5663501469968617,0.11971559818764403,0.45515855090221186,-2.532491341302691,1.167624623459132,-1.5861008264514456,0.04233639626797631,-2.685559757617377,1.5750791844376153,-0.4159341527973554,-1.52434648869269,0.22677196633016575,-1.3203330501928983,-0.6792561487739975
31,-0.21027667423906882,0.36154269026325164,0.027856684437332562,-0.07111418664394657,3.0380593854293014,-0.19387518332866693,-1.196552692877376,-0.7298916443660413,1.449185075261024,-0.794828251201489,0.6271139963707498,0.6405991055472878,1.1611538376370045,-2.743626191305666,0.13322297323932164,-0.769271471106812,0.5633346182418665,0.12018112926803606,0.45455737125850115,-2.532585664875354,1.171576883937897,-1.5808084658145847,0.04786083617378402,-2.686693678963065,1.5834492839135696,-0.41513409971155235,-1.5237045094927617,0.2279380851422652,-1.3132958819419567,-0.680352277686843
32,-0.20707860799748903,0.3579290601548894,0.02794856499902537,-0.07137828320758093,3.0387646676473548,-0.19478541971554647,-1.2006715691807288,-0.729273662960681,1.4475508698520656,-0.7947717228181578,0.6297157020256569,0.6378889606476565,1.1612314441477352,-2.7448650923672315,0.1320393473373145,-0.7699838513758813,0.5604417122692072,0.12063314012190812,0.45403094148426043,-2.532669084077626,1.175280702846981,-1.5758125647804313,0.05308233529851236,-2.687920524112579,1.591485868773635,-0.4144960589730785,-1.5232735536770174,0.22891290560154556,-1.3065829548247638,-0.681520753473221
33,-0.20394475744161958,0.3543958929474959,0.02804777088247549,-0.07154601278924781,3.0394595656308323,-0.19567153092622921,-1.2047073637872576,-0.7286648976680062,1.4459644086086814,-0.7946952134804814,0.6322423827398078,0.6352763106954061,1.1613146928502998,-2.7460610196791793,0.13077423590091425,-0.770669051692615,0.5576692800912082,0.12107123365558058,0.4535768675770959,-2.532741850402403,1.1787390127938202,-1.5711078815618198,0.05800530899200001,-2.6892373756861367,1.5991918339538442,-0.41401598711041543,-1.5230465018216288,0.22970087157639005,-1.3001908169893541,-0.6827589858882992
34,-0.20087605204448716,0.35094298709731886,0.02815323988809274,-0.07162012943418147,3.040143889581294,-0.19653402446440185,-1.2086609327799056,-0.7280659974167362,1.4444251349338249,-0.7945992022350937,0.6346945678530602,0.6327589783859537,1.1614026300716664,-2.7472151666608893,0.12943104871597724,-0.7713279579458661,0.555014133919806,0.12149523067505995,0.4531922439549326,-2.532804298121786,1.18195722254064,-1.5666865831367915,0.06263701322360613,-2.6906407561160384,1.60657357722982,-0.41368859866959734,-1.5230149263359198,0.2303079780700404,-1.2941128462457092,-0.684063953939715
35,-0.19787256892402688,0.34756923190560385,0.028264004717588255,-0.07160402644171439,3.04081762932156,-0.19737360631352427,-1.2125339345231647,-0.7274774215523732,1.4429320574815119,-0.794484293802359,0.6370735726551198,0.6303339578444271,1.161494403047686,-2.748329059168947,0.12801357405637498,-0.7719616295241198,0.5524722532244809,0.1219051432875131,0.45287377554919356,-2.5328568276340473,1.1849428054268503,-1.5625387333765894,0.06698704031470751,-2.692126741529307,1.613640415890486,-0.4135076096503075,-1.5231694046989606,0.23074147523479052,-1.288339791124182,-0.6854322976075676
36,-0.19493366064502737,0.34427276635214465,0.028379198307156024,-0.0715016007838058,3.0414809285862203,-0.1981911384103923,-1.2163286718882274,-0.7268994605655078,1.441483834623354,-0.7943511934338165,0.639381354552387,0.6279975943832126,1.161589261796835,-2.749404479027833,0.12652587302783452,-0.772571254129438,0.5500389824027431,0.12230114611681872,0.4526178923872538,-2.5328998894024815,1.1877048851746639,-1.5586527695866819,0.0710668200333996,-2.693691073878039,1.620404002585211,-0.41346597568435534,-1.523499814786258,0.23100957747828818,-1.2828603092898843,-0.6868604079451381
37,-0.19205808322187803,0.3410511332319238,0.028498054562234903,-0.07131712341426413,3.0421340589065817,-0.19898759891409026,-1.2200479434100628,-0.7263322585974573,1.4400788548039827,-0.7942006826114949,0.6416203744951795,0.6257457527551398,1.1616865569298476,-2.7504433931940717,0.12497218198959954,-0.7731581067933382,0.547709212779302,0.12268354718355981,0.4524208529319151,-2.5329339690938464,1.1902538385882742,-1.5550159480943782,0.07488914778371178,-2.6953292668224567,1.626877767335248,-0.41355611531673503,-1.5239956026807704,0.23112118981460625,-1.2776614792620622,-0.6883445119718866
38,-0.18924411853954365,0.33790142273505586,0.02861990551145373,-0.0710551198094136,3.0427773943407908,-0.1997640463866809,-1.2236949079697872,-0.7257758362874502,1.4387153101066659,-0.7940335964520064,0.6437934687886845,0.6235739688693126,1.1617857344510256,-2.751447890443046,0.12335682559040287,-0.7737235139620637,0.5454775443519635,0.12305275988593661,0.45227883401546687,-2.532959574309331,1.1926009291900248,-1.5516147458851464,0.07846775496681156,-2.6970367021477237,1.6330764048787425,-0.4137701117763109,-1.5246460171803626,0.2310856598541616,-1.2727292685700013,-0.6898807497884417
39,-0.1864896871607372,0.33482040167931126,0.028744175864048396,-0.0707202635242931,3.043411387945004,-0.20052158850048846,-1.2272729656525603,-0.725230112860021,1.4373912614088342,-0.7938508033892017,0.6459037345161719,0.6214775821693236,1.161886328524589,-2.7524201265582717,0.12168414177802314,-0.7742688230053059,0.5433384250225701,0.12340927709806261,0.45218800652105823,-2.532977223113229,1.1947579807052466,-1.5484352109712585,0.08181693052463669,-2.698808714705822,1.6390154192725037,-0.41409988937848613,-1.5254403084712103,0.23091256039267896,-1.2680489480651855,-0.6914652423129004
40,-0.18379244905314043,0.33180462637742253,0.02887037585170882,-0.07031728419709478,3.0440365505579154,-0.2012613554816637,-1.230785655844532,-0.7246949266776046,1.4361046943901266,-0.7936531874534604,0.6479544301980528,0.6194518476853693,1.1619879530416772,-2.753362278278325,0.11995841917653405,-0.7747953771099151,0.5412862668822827,0.12375364801999665,0.4521445969738348,-2.532987434413792,1.1967370949076692,-1.5454632588307853,0.08495119760662716,-2.7006406649240806,1.6447107315303526,-0.4145373630037695,-1.5263678909911185,0.2306115046836733,-1.2636054476467686,-0.6930941488821271
41,-0.18114989106424523,0.32885053852708973,0.02899809309517006,-0.06985089034872277,3.0446534321989107,-0.20198447819736015,-1.234236572434507,-0.7241700537730634,1.434853566336622,-0.7934416332565521,0.6499488920542768,0.6174920281267818,1.1620902926623513,-2.754276505725284,0.11818384649629339,-0.775304495246048,0.5393155404484399,0.12408645809433953,0.45214493591090704,-2.5329907201393933,1.1985504148498294,-1.5426849157749698,0.08788504538487307,-2.7025279987654316,1.6501783512607724,-0.4150745608731006,-1.5274184723435262,0.23019199425374082,-1.2593836529615925,-0.694763714641767
42,-0.1785594009659354,0.3259545445445245,0.029126984083432648,-0.06932570651579206,3.045262606167098,-0.20269207058722657,-1.2376292951550778,-0.7236552241155337,1.433635844169276,-0.7932170136321712,0.6518904653293958,0.6155934673077513,1.1621930938453142,-2.7551649226842976,0.11636447313884052,-0.7757974567227873,0.5374208486220846,0.1244083120562795,0.4521854943381313,-2.532987579078282,1.2002099319457324,-1.5400865125421668,0.09063271325789907,-2.70446629565218,1.6554341097765284,-0.4157037221030727,-1.5285821513105073,0.22966329753514883,-1.2553686457271716,-0.696470308155135
43,-0.17601832860042774,0.32311307945827905,0.029256765706925397,-0.06874622370340336,3.045864655773089,-0.20338521601448845,-1.240967335581384,-0.7231501355466766,1.4324495344362695,-0.7929801797710647,0.6537824495414878,0.6137516467603586,1.1622961562308467,-2.756029573897707,0.11450417985206357,-0.7762754897630934,0.535596982629371,0.12471982000565231,0.45226290980418565,-2.5329784922061394,1.2017273336602134,-1.5376548329252864,0.09320802289420595,-2.7064513052902903,1.6604934498472463,-0.41641737133147244,-1.5298494886630942,0.2290343565724479,-1.2515458923342224,-0.6982104500053142
44,-0.17352403512134865,0.3203226568957383,0.02938720715576194,-0.06811676181003658,3.0464601635309987,-0.2040649570503174,-1.2442540960384796,-0.7226544654563053,1.4312927061806526,-0.7927319536197056,0.6556280561723318,0.6119622276631059,1.1623993246173607,-2.7568724184454925,0.11260665814124929,-0.7767397635026766,0.5338389624142714,0.12502158627244556,0.4523740036831074,-2.532963919305617,1.2031138875511964,-1.5353772230050409,0.09562425258787052,-2.7084789745844473,1.66537126594486,-0.41720837313929854,-1.5312115547046747,0.22831371850542714,-1.247901386510652,-0.6999808333698507
45,-0.17107393158618595,0.31757990689280036,0.029518122385463898,-0.06744144251559393,3.047049702575588,-0.20473228819047615,-1.2474928395858804,-0.722167880353512,1.4301635076604147,-0.7924731222746962,0.6574303771668972,0.6102210802766862,1.1625024816715859,-2.7576953182746924,0.11067539710898075,-0.7771913828346637,0.5321420639474167,0.12531420077985217,0.4525157912054551,-2.5329442966794544,1.204380356950898,-1.5332416667735247,0.09789404803452292,-2.7105454659506076,1.6700817882656434,-0.4180699691481527,-1.5326599574266668,0.22750948832941867,-1.2444217522802803,-0.7017783376413773
46,-0.16866550826746599,0.31488160329735837,0.029649363266170632,-0.06672417109046463,3.047633830039202,-0.20538815102046665,-1.2506866692928718,-0.7216900435404663,1.4290601778890648,-0.7922044340934034,0.6591923625998203,0.6085243029992863,1.1626055414358878,-2.7585000309861565,0.10871367644520528,-0.7776313855658074,0.5305018357775304,0.12559823257962233,0.4526854856573159,-2.5329200357678943,1.2055369435108145,-1.53123683376218,0.10002936370728474,-2.7126471683473596,1.6746385037896143,-0.41899580062355546,-1.5341868549068167,0.22662929948359048,-1.2410943134202979,-0.7036000361784617
47,-0.16629635605337179,0.31222468247028073,0.029780813466009987,-0.06596862563904372,3.0482130821163445,-0.20603343138251703,-1.2538385151437252,-0.7212206211196501,1.4279810539070141,-0.7919265962473677,0.6609168059481108,0.6068682329859809,1.162708443640866,-2.7592882060655373,0.10672456438821637,-0.7780607414082177,0.5289141069339109,0.12587422523224684,0.4528804980077641,-2.532891522497357,1.2065932520440719,-1.5293521038755102,0.10204142936774695,-2.7147807022914074,1.6790541079777803,-0.4199799192347016,-1.535784955220114,0.22568029903200632,-1.2379071352750795,-0.7054431992242156
48,-0.16396418124049236,0.30960625485454635,0.029912383072237158,-0.06517825240300085,3.0487879705528376,-0.2066689581455346,-1.2569511270822205,-0.7207592865691964,1.4269245746078891,-0.7916402734626555,0.6626063355458448,0.6052494500622406,1.1628111487936375,-2.760061383840328,0.10471091960458581,-0.7784803523943729,0.5273749880323877,0.12614269372032538,0.45309843305238695,-2.5328591172071726,1.207558273473639,-1.5275775740853272,0.10394073676819679,-2.7169429200217503,1.6833404812661368,-0.4210167883642896,-1.537447506720594,0.22466914451257228,-1.2348490442496136,-0.7073052929467905
49,-0.16166681491046364,0.30702361081486784,0.030044003921731007,-0.06435626589267501,3.0493589803156462,-0.20729550323105383,-1.2600270728938867,-0.7203057241116764,1.425889281844393,-0.7913460877157009,0.6642634109605491,0.6036647754298075,1.1629136339883916,-2.760820996544506,0.10267539607434623,-0.7788910543666157,0.525880867172067,0.12640412261016293,0.4533370829888161,-2.5328231550221902,1.208440382157361,-1.5259040510385524,0.10573704220031836,-2.719130901851816,1.6875086851846202,-0.42210127706919764,-1.539168281131234,0.223602009884714,-1.2319096296795904,-0.7091839754523073
50,-0.15940221794958678,0.3044742219685336,0.030175625592258747,-0.06350565277090645,3.0499265682239933,-0.2079137825997965,-1.263068739814589,-0.7198596310842138,1.4248738194358874,-0.791044618680726,0.6658903232031158,0.602111266433951,1.1630158893725266,-2.7615683709693606,0.1006204502054034,-0.779293619251827,0.5244284019547351,0.126658965208859,0.45359441917955,-2.532783946559626,1.2092473443544183,-1.5243230330283588,0.10743938116128464,-2.7213419496138136,1.6915689736328936,-0.423228648492637,-1.5409415514760259,0.22248459837207804,-1.2290792321246113,-0.7110770905092244
51,-0.1571684826309881,0.30195573904811174,0.030307211994679385,-0.0626291785697197,3.0504911623492275,-0.20852445795198216,-1.26607833893437,-0.7194207194960025,1.4238769306012893,-0.7907364047530001,0.6674891978507533,0.6005862084465621,1.1631179151960414,-2.7623047322688685,0.09854834953092952,-0.7796887578855116,0.5230145087240372,0.12690764349814312,0.45386858271302427,-2.5327417788775954,1.2099863350847313,-1.5228266842077922,0.10905609200060876,-2.723573577965172,1.6955308155320281,-0.42439454423983713,-1.5427620665192219,0.22132216034833418,-1.2263489215004877,-0.7129826596121411
52,-0.15496383154241028,0.2994659871673137,0.030438738501494117,-0.061729396468359406,3.0510531620177486,-0.20912813893845214,-1.2690579116295249,-0.7189887169358584,1.4228974542501516,-0.7904219444993336,0.669062000318034,0.5990871047262972,1.1632197193714904,-2.7630312085681665,0.09646118246119677,-0.7800771231963033,0.5216363499130257,0.12715054865947084,0.4541578742480909,-2.5326969165898907,1.2106639610892733,-1.5214078034063787,0.11059484595654508,-2.725823504199899,1.6994029257106267,-0.42559496596363633,-1.544625023049682,0.22011951473823105,-1.223710467883039,-0.7148988729081026
53,-0.15278661451537587,0.29700295920785674,0.030570189546879525,-0.060808657496467855,3.0516129382767905,-0.20972538571832708,-1.272009337400796,-0.7185633669691791,1.4219343204839967,-0.7901016984122785,0.6706105426505383,0.5976116649478309,1.1633213154748971,-2.763748836093439,0.09436086866505337,-0.7804593136018293,0.5202913202081507,0.12738804203589293,0.4544607435200075,-2.5326496030864916,1.2112862880120412,-1.5200597894526227,0.11206268147708069,-2.7280896370918493,1.7031933014588776,-0.4268262551694,-1.5465260370656737,0.21888107269518403,-1.2211563072933018,-0.7168240794128622
54,-0.15063530409654868,0.2945648079098867,0.03070155663601245,-0.059869121646345155,3.052170834706192,-0.2103167117321964,-1.2749343426206472,-0.718144429141753,1.4209865455897477,-0.7897760908670034,0.6721364913373669,0.5961577929474647,1.163422721123171,-2.764458564600954,0.09224916974563152,-0.7808358765003204,0.5189770320846685,0.12762045640411923,0.4547757787966733,-2.5326000618120483,1.2118588702877604,-1.5187766045108078,0.11346604114346927,-2.730370065194244,1.7069092626875568,-0.42808507204251695,-1.5484611146763005,0.21761086256829681,-1.2186795043179024,-0.7187567768598604
55,-0.14850849000101862,0.29214983713181064,0.030832836705954877,-0.05891276948259036,3.0527271684800623,-0.21090258658798408,-1.2778345097985464,-0.7177316786879043,1.4200532267472945,-0.789445512199503,0.673641375742979,0.594723574110603,1.1635239566698155,-2.7651612629327404,0.09012769995047978,-0.7812073117699482,0.517691301140767,0.12784809745467227,0.4551016965004932,-2.5325484975652817,1.2123867825324084,-1.517552736606776,0.11481080987483483,-2.732663044930755,1.71055749406091,-0.4293683739259047,-1.5504266233368018,0.21631255538634556,-1.2162737130281085,-0.7206956014513337
56,-0.1464048729000523,0.2897564926464506,0.030964030785773356,-0.057941413926415386,3.053282231600346,-0.21148343898008504,-1.280711287061574,-0.7173249060227858,1.4191335366231257,-0.789110320841739,0.675126596846465,0.5933072627258164,1.1636250441673424,-2.7658577245674896,0.08799793671924877,-0.7815740752103242,0.5164321315527955,0.12807124539904785,0.4554373311519113,-2.5324950977910943,1.212874651498556,-1.5163831622395247,0.11610235339471828,-2.7349669887377477,1.7141440878364333,-0.43067339392754206,-1.5524192638719998,0.2149894902662503,-1.2139331373327882,-0.722639317718647
57,-0.14432325782190242,0.2873833527577917,0.031095142909333254,-0.056956711966635584,3.0538362922398288,-0.21205965958165274,-1.283565997620433,-0.7169239160832924,1.4182267179805774,-0.7887708454636208,0.6765934360490395,0.5919072695478944,1.163726006551369,-2.766548673068719,0.08586123092371757,-0.7819365818786409,0.5151977018888642,0.128290156640545,0.4557816257433191,-2.532440033844425,1.213326687878379,-1.5152633097474024,0.11734555619030332,-2.7372804534538604,1.7176745864469625,-0.4319976200162945,-1.554436043610571,0.21364469930228183,-1.2116524916283444,-0.7245868086468684
58,-0.1422625473824163,0.2850291189544671,0.031226179239940866,-0.055960176111196386,3.0543895961452305,-0.21263160386559374,-1.2863998490500845,-0.716528527568994,1.4173320784035217,-0.7884273870836763,0.6780430638700476,0.5905221497458638,1.1638268670075964,-2.767234767359211,0.08371881669679858,-0.7822952092872767,0.5139863514498685,0.12850506546018817,0.45613362261477763,-2.532383462210706,1.213746717418812,-1.5141890239129108,0.11854485839885301,-2.739602129100792,1.7211540241082641,-0.43333877486511185,-1.5564742508479665,0.21228093161347836,-1.2094269623859817,-0.7265370661757536
59,-0.140221735011089,0.2826926067606127,0.03135714737145717,-0.054953185443654226,3.0549423680619814,-0.21319959482242523,-1.2892139422617908,-0.7161385721234871,1.4164489852031472,-0.7880802211200951,0.679476548399926,0.589150591358993,1.1639276484885668,-2.767916606772203,0.08157182078063514,-0.7826503004409484,0.5127965672529672,0.12871618568128,0.4564924548740673,-2.5323255256724333,1.2141382109608299,-1.5131565321422642,0.11970429122005605,-2.741930828156597,1.7245869669358493,-0.4346947966209324,-1.5585314307734113,0.21090067632428863,-1.2072521711366537,-0.7284891821545424
60,-0.13819989829647256,0.2803727368999988,0.031488055775532035,-0.05393699618984755,3.0554948131513147,-0.21376392555317,-1.292009280081149,-0.7157538934874464,1.4155768605558687,-0.7877295993618181,0.6808948634170846,0.5877914043420713,1.1640283733522159,-2.7685947358467216,0.07942127135034094,-0.7830021667002368,0.5116269717302612,0.12892371228594487,0.45685733838145465,-2.532266354415032,1.2145043131331974,-1.5121624124390247,0.12082751058361685,-2.7442654753886355,1.7279775512150488,-0.4360638207173574,-1.5606053629326269,0.20950618433093443,-1.205124139170255,-0.7304423398001827
61,-0.13619619254113066,0.2780685268537079,0.03161891336913583,-0.05291275173254086,3.0560471183776885,-0.21432486172333873,-1.2947867753764202,-0.7153743466471649,1.4147151769033968,-0.7873757518457825,0.6822988961061527,0.5864435102487728,1.1641290630987422,-2.7692696488476014,0.0772681062905176,-0.7833510904650046,0.5104763111827705,0.12912782296489272,0.4572275643029396,-2.5322060670680537,1.2148478695248264,-1.5112035633000198,0.12191782890406519,-2.7466050982862673,1.7313295195949694,-0.43744416279665244,-1.5626940402493232,0.2080994887666977,-1.2030392541521875,-0.7323958056867097
62,-0.1342098445893671,0.27577908286354885,0.03174972918057575,-0.05188149203744137,3.056599453850533,-0.21488264387016603,-1.2975472587045256,-0.7149997969962945,1.413863452632805,-0.7870188886315332,0.6836894543388566,0.5851059325769813,1.1642297381862337,-2.7699417940008484,0.07511318091747295,-0.7836973276762749,0.5093434450049525,0.1293286795878608,0.45760249222351,-2.532144771679936,1.215171452233265,-1.5102771755917348,0.1229782448343068,-2.748948818112314,1.7346462550755897,-0.43883430276948576,-1.564795649592229,0.20668242412621224,-1.200994238772096,-0.734348922276552
63,-0.13224014696963649,0.2735035924115469,0.031880512095686944,-0.050844162473861476,3.057151974109095,-0.21543748955995143,-1.3002914854597516,-0.714630119523618,1.4130212480443411,-0.7866592014684155,0.6850672734971818,0.5837777877811202,1.1643304179088547,-2.770611577442633,0.07295727515194504,-0.7840411101388753,0.5082273356764222,0.1295264295870593,0.4579815438031662,-2.5320825666262134,1.2154773837434236,-1.509380706412476,0.12401147099012325,-2.7512958415761504,1.7379308127329758,-0.4402328700119414,-1.5669085538479832,0.20525664404441274,-1.1989861214717807,-0.7363011009916527
64,-0.1302864523768835,0.2712413171890767,0.03201127066891506,-0.0498016220284654,3.057704819342961,-0.2159895953958853,-1.303020142523522,-0.7142651980357978,1.4121881616071346,-0.786296865353654,0.6864330228324417,0.5824582769425733,1.1644311203242677,-2.7712793668858793,0.07080110015587678,-0.7843826476698533,0.5071270395039421,0.1297212072496971,0.4583641969524382,-2.5320195414523,1.215767759133538,-1.5085118549064704,0.12501995966326712,-2.753645453119175,1.7411859491847184,-0.4416386296779688,-1.569031275441584,0.20382363775223222,-1.1970122092481914,-0.7382518158127237
65,-0.128348168507207,0.2689915865565414,0.032142012986597454,-0.04875465092187814,3.058258116543812,-0.21653913887934476,-1.3057338544234216,-0.7139049244209954,1.41136382649738,-0.7859320399819711,0.6877873113643027,0.581146678079203,1.1645318622193745,-2.7719454950125177,0.0686453044530182,-0.7847221300795514,0.5060416980871033,0.12991313491850784,0.4587499805001857,-2.5319557776528523,1.2160444666372248,-1.507668539967905,0.12600592657401757,-2.7559970077945315,1.7444141498398649,-0.44305047009004855,-1.5711624812335774,0.20238474525026237,-1.1950700624896813,-0.7402005973880618
66,-0.1264247532474856,0.26675379148513206,0.03227274657195127,-0.047703957646197594,3.058811980586279,-0.21708628012951386,-1.3084331890167284,-0.7135491979568851,1.4105479074095713,-0.7855648710891401,0.6891306933314133,0.5798423390679411,1.1646326591054996,-2.77261026260234,0.06649047955738485,-0.7850597289934871,0.5049705304745494,0.13010232410130865,0.4591384693241563,-2.5318913493903366,1.2163092066135077,-1.5068488797533899,0.1269713727375817,-2.758349924716717,1.747617654007869,-0.4444673911602204,-1.5733009687153998,0.2009411712549169,-1.1931574717766569,-0.7421470276285942
67,-0.12451571021533159,0.2645273789654514,0.03240347832313423,-0.046650185447260115,3.059366515237525,-0.21763116346747458,-1.311118662718609,-0.7131979246647676,1.4097400976286278,-0.7851954916931233,0.6904636732106497,0.5785446711497734,1.1647335252358237,-2.773273941411306,0.06433716513630218,-0.7853955995239453,0.5039128259734241,0.1302888764921556,0.45952927991368653,-2.5318263241558387,1.2165635089927236,-1.5060511729085733,0.1279181045346239,-2.760703681052517,1.7507984779619294,-0.44588849378670875,-1.575445653420164,0.19949399798041512,-1.1912724365591234,-0.744090734762747
68,-0.12262058463945533,0.26231184686310166,0.032534214477303446,-0.04559391827938332,3.0599218140965094,-0.21817391887175475,-1.3137907452983428,-0.712851016710119,1.408940116348977,-0.7848240232373241,0.6917867103256098,0.577253142983615,1.1648344736392828,-2.773936776813322,0.06218585373627009,-0.785729881800587,0.5028679375723777,0.13047288490772876,0.4599220663337492,-2.531760763375398,1.2168087492767583,-1.5052738814070918,0.12884775208616978,-2.763057806522145,1.753958436065594,-0.4473129701673487,-1.5775955574647849,0.19804419682514973,-1.18941314561157,-0.7460313888229602
69,-0.12073895956680815,0.2601067391982666,0.03266496059489979,-0.04453568626267201,3.0604779614648514,-0.2187146633128117,-1.3164498642688451,-0.7125083918488978,1.4081477062256325,-0.784450576641044,0.6931002230672453,0.5759672752141546,1.164935516166305,-2.774598990220115,0.06003699510047147,-0.7860627023694927,0.5018352759375101,0.13065443414329067,0.4603165165600363,-2.5316947229652635,1.2170461631783571,-1.5045156148964787,0.1297617860385356,-2.7654118783781447,1.7570991600793273,-0.44874009496918554,-1.5797497991399916,0.19659263903354868,-1.1875779591586575,-0.7479686975349106
70,-0.11887045238039182,0.2579116418244925,0.03279572155946834,-0.04347597067416958,3.0610350331519074,-0.21925350197415483,-1.3190964088956774,-0.7121699729182084,1.4073626311418563,-0.7840752532625692,0.6944045927507448,0.5746866355183682,1.1650366635427079,-2.775260781293981,0.05789100010665276,-0.7863941754699699,0.5008143039407046,0.13083360175299352,0.4607123491557218,-2.531628253839512,1.2172768599872796,-1.5037751164450746,0.13066153286588447,-2.767765516829253,1.760222116767253,-0.4501692172934458,-1.5819075834668823,0.195140105405049,-1.185765392562067,-0.7499024025804957
71,-0.11701471161009747,0.25572617848100104,0.03292650158922277,-0.04241520850444793,3.0615930972171372,-0.21979052936783708,-1.3217307338519,-0.7118356873694086,1.4065846741779535,-0.783698145780463,0.6957001671332145,0.5734108340958088,1.1651379254288572,-2.775922329968068,0.055748244353504624,-0.7867244041982137,0.49980453168062927,0.13101045875952955,0.4611093102618297,-2.5315614023734048,1.217501834751644,-1.5030512495856079,0.13154818879738184,-2.770118380876764,1.7633286239245367,-0.4515997533761198,-1.584068193641825,0.19368729512080143,-1.1839741014586618,-0.7518322762061835
72,-0.1151714140181472,0.25355000719271115,0.03305730425730181,-0.04135379661087849,3.0621522146531297,-0.22032583035192183,-1.3243531625447518,-0.7115054668414255,1.4058136357660305,-0.7833193389986464,0.6969872636165548,0.5721395195687375,1.1652393104818253,-2.7765837982884523,0.05360907142270993,-0.7870534815665657,0.4988055119580461,0.13118507029817858,0.46150717087462034,-2.5314942108257856,1.2177219793615561,-1.5023429865543096,0.13242283247342146,-2.7724701645318035,1.7664198649437544,-0.4530311799663125,-1.586230983295341,0.19223483375664008,-1.1822028682420571,-0.7537581181492853
73,-0.1133402619404762,0.2513828169925179,0.033188132518274904,-0.04029209549799412,3.062712440012816,-0.220859481057304,-1.3269639901393664,-0.7111792467718409,1.4050493320160433,-0.7829389105807614,0.6982661721593585,0.5708723752595112,1.1653408264187968,-2.777245332091744,0.05147379584261832,-0.7873814914667058,0.4978168361687892,0.13135749620024773,0.46190572438501587,-2.5314267177236855,1.217938092619561,-1.501649397628717,0.13328643643156224,-2.77482059338315,1.7694969020347637,-0.4544630283270369,-1.5883953694948607,0.19078328054801028,-1.1804505897831545,-0.7556797528559357
74,-0.11152098086557102,0.24922432494112995,0.0333189887389537,-0.03923043275417887,3.063273821984456,-0.22139154973096084,-1.329563486303698,-0.7108569660432194,1.4042915931991145,-0.7825569317191433,0.6995371579207779,0.5696091158142521,1.1654424800803864,-2.7779070625313103,0.049342705778138346,-0.7877085095446488,0.49683813057972886,0.1315277915207551,0.4623047843567518,-2.5313589582121483,1.2181508893789752,-1.500969641472321,0.13413987751808967,-2.77716942148672,1.772560688207592,-0.4558948788060361,-1.590560826425726,0.18933313496920814,-1.1787162662897224,-0.7575970269659732
75,-0.10971331723275786,0.24707427342078317,0.03344987473197369,-0.03816910617251986,3.0638364039179695,-0.22192209750235636,-1.3321518976976048,-0.7105385666621288,1.4035402623748425,-0.7821734677435104,0.7008004636582381,0.5683494841435889,1.16554427749287,-2.778569107464483,0.04721606546997816,-0.7880346039949468,0.49586905295512573,0.1316960070150075,0.46270418252160933,-2.531290964372126,1.2183610088270755,-1.5003029563996382,0.13498394631582306,-2.779516428549467,1.7756120781220899,-0.4573263559273594,-1.5927268796893634,0.18788484268564534,-1.1769989912103145,-0.7595098070414206
76,-0.10791703643262268,0.2449324276803402,0.03358079179094298,-0.03710838658211025,3.064400224306088,-0.22245117907934242,-1.3347294502277116,-0.7102239934683447,1.402795194150132,-0.7817885786742246,0.7020563118996643,0.5670932486531043,1.1656462239285912,-2.7792315727123795,0.045094117444864704,-0.788359836281002,0.494909289502921,0.13186218956848034,0.4631037669717268,-2.531222765509122,1.2185690219856784,-1.4996486524809165,0.1358193556731861,-2.781861417382146,1.7786518379018939,-0.45875712395766616,-1.5948931011620746,0.18643880093406326,-1.175297942093431,-0.7614179775168263
77,-0.10613192099307663,0.24279857361058138,0.03371174072622479,-0.03604852041447005,3.0649653172237117,-0.2229788433795037,-1.3372963510882925,-0.7099131938718082,1.4020562535578998,-0.781402319724705,0.70330490690962,0.5658402007379972,1.1657483239640258,-2.7798945532031887,0.04297708451686851,-0.7886842617879153,0.4939585521126532,0.1320263825841447,0.4635034005305755,-2.531154388415074,1.2187754384970033,-1.4990061044113492,0.13664674841383487,-2.784204211597145,1.781680654003819,-0.4601868829044927,-1.5970591043622864,0.18499536338179584,-1.1736123723186247,-0.7633214388512853
78,-0.10435776893549852,0.24067251572984164,0.03384272190063849,-0.03498973202810318,3.065531712728683,-0.22350513410249437,-1.3398527906070195,-0.7096061176150089,1.4013233150448468,-0.7810147417572882,0.7045464364674529,0.5645901525183149,1.1658505815351452,-2.7805581340090275,0.04086517159848482,-0.7890079304138212,0.49301657585879305,0.13218862633111,0.4639029592857027,-2.5310858576058064,1.218980712758047,-1.4983747450752583,0.1374667043004369,-2.786544653529314,1.7846991412273727,-0.4616153649069272,-1.599224540278335,0.18355484451240303,-1.1719416036220842,-0.7652201058634915
79,-0.10259439228635288,0.23855407536150933,0.03397373526453996,-0.033932225812571826,3.066099437227046,-0.2240300902485202,-1.3423989439130477,-0.7093027165585956,1.400596261558296,-0.7806258916965438,0.7057810734742482,0.5633429347929156,1.1659529999898588,-2.7812223912857257,0.038758567338691784,-0.7893308871052037,0.49208311674532035,0.13234895825817278,0.4643023312677795,-2.5310171955362013,1.2191852494620619,-1.4977540597411247,0.1382797463206211,-2.788882602359386,1.7877078499427406,-0.463042330982246,-1.6013890936128765,0.1821175235813275,-1.1702850193449588,-0.767113906232656
80,-0.10084161573066457,0.23644308898624714,0.03410478038988316,-0.032876188091870574,3.066668513805665,-0.22455374658773525,-1.3449349724435722,-0.7090029444881432,1.399874983722891,-0.7802358129037675,0.7070089774041257,0.5620983951920518,1.166055582137416,-2.78188739312418,0.03665744560383784,-0.7896531723412514,0.4911579496693101,0.13250741327558677,0.46470141526183983,-2.5309484227950736,1.2193894086012498,-1.497143580828532,0.13908634635774436,-2.7912179324212323,1.7907072726094668,-0.4644675680950399,-1.6035524794038059,0.1806836481817079,-1.1686420583382462,-0.7690027791495422
81,-0.09909927539470717,0.23433940675310308,0.03423585650297727,-0.03182178884534232,3.067238962534919,-0.22507613408495458,-1.3474610253037063,-0.7087067569401513,1.3991593790986976,-0.7798445455160977,0.7082302956141924,0.5608563965101113,1.1661583302947214,-2.7825532003212454,0.03456196681591163,-0.7899748225719001,0.4902408665831333,0.1326640240081031,0.4651001197378543,-2.5308795582815833,1.2195935099804596,-1.4965428831930123,0.13988693030399557,-2.7935505316757157,1.7936978496521803,-0.4658908865181746,-1.6057144399851055,0.17925343745714037,-1.167012209463387,-0.7708866741032097
82,-0.0973672177462153,0.23224289113493377,0.034366962515743435,-0.030769183262908426,3.0678108007439855,-0.22559728028373144,-1.3499772404933181,-0.7084141110454845,1.3984493515129726,-0.7794521267534354,0.7094451645263017,0.5596168152016082,1.166261246329588,-2.7832198670774693,0.03247227916152445,-0.7902958706138217,0.4893316748366099,0.132818821022074,0.46549836188894894,-2.530810619364866,1.2197978372875822,-1.4959515798794165,0.1406818826685136,-2.7958803003353743,1.7966799747541613,-0.46731211745758294,-1.6078747422543525,0.17782708499503144,-1.165395006632757,-0.7727655497903169
83,-0.09564529860134868,0.23015341571475553,0.0344980970553456,-0.0297185131499961,3.0683840432710636,-0.2261172096535172,-1.352483746013306,-0.7081249653886049,1.3977448104585255,-0.7790585911960926,0.7106537106926671,0.5583795400249715,1.1663643317009842,-2.783887441628386,0.03038851968379032,-0.7906163460082577,0.48843019568206697,0.13297183302917204,0.465896066766657,-2.530741622028421,1.2200026417624688,-1.4953693182987602,0.14147155072864953,-2.7982071496255307,1.7996539996243097,-0.46873111091535913,-1.6100331752166535,0.17640476143124093,-1.1637900243389991,-0.7746393731350085
84,-0.09393338222851058,0.2280708640907637,0.034629258492125246,-0.028669908196240403,3.0689587026907112,-0.22663594390330927,-1.3549806608627233,-0.7078392798810812,1.3970456705522332,-0.7786639710358536,0.7118560517563433,0.5571444708200347,1.166467587496373,-2.784555966815501,0.028310815268222166,-0.7909362753442581,0.4875362629267611,0.13312308706904863,0.4662931665035853,-2.5306725810006703,1.2202081455025755,-1.4947957767875268,0.1422562482682617,-2.8005310006686983,1.8026202382881946,-0.470147733767926,-1.6121895477776027,0.17498661679397193,-1.1621968736265809,-0.7765081184085049
85,-0.09223134053995036,0.22599512888881412,0.034760444965812445,-0.027623487120818923,3.069534789520302,-0.22715350226490222,-1.357468095937162,-0.7075570156479828,1.3963518510478414,-0.7782682963029118,0.7130522973166252,0.5559115174063927,1.1665710144662618,-2.7852254806025827,0.026239283532773723,-0.7912556825505727,0.48664972171851484,0.13327260867304558,0.4666895996147851,-2.5306035098729738,1.2204145444401684,-1.4942306615121368,0.14303625894299518,-2.802851783480335,1.8055789709493186,-0.4715618680381743,-1.6143436867604357,0.17357278261232756,-1.1606151984630984,-0.7783717664385152
86,-0.09053905236285555,0.22392611087214392,0.03489165441001864,-0.026579358706143683,3.070112312407456,-0.22766990174858576,-1.3599461548378657,-0.7072781349258931,1.3956632753977303,-0.7778715950709278,0.7142425497085189,0.55468059859095,1.1666746130560914,-2.7858960165423685,0.02417403363124272,-0.7915745891591547,0.48577042745170407,0.133420422010875,0.4670853103699517,-2.530534421206282,1.22062201102279,-1.4936737036847303,0.14381183930885683,-2.8051694360650887,1.808530447462532,-0.47297340934243176,-1.6164954351249254,0.17216337381261113,-1.1590446724716772,-0.7802303038995282
87,-0.08885640278236351,0.2218637181390189,0.03502288457504116,-0.025537622730585425,3.070691278300141,-0.22818515737388353,-1.362414934600199,-0.7070026009713837,1.3949798708588104,-0.7774738936422647,0.715426904704606,0.5534516412740617,1.1667783834356122,-2.786567604198362,0.022115166978409408,-0.7918930145429708,0.48489824478191546,0.1335665500220029,0.4674802482293367,-2.5304653266274917,1.2208306966258056,-1.493124657059573,0.1445832215470444,-2.8074839036036874,1.8114748904576565,-0.47438226549492163,-1.6186446503677288,0.1707584904232942,-1.1574849959893547,-0.7820837226758799
88,-0.08718328254959538,0.21980786539983754,0.035154133049027717,-0.024498370809937033,3.0712716926010137,-0.22869928237769427,-1.364874526349295,-0.7067303779789009,1.3943015681381772,-0.7770752167152714,0.7166054521468659,0.5522245796446479,1.1668823255258887,-2.787240269525956,0.020062777904511168,-0.7922109761305643,0.4840330467386774,0.1337110145333043,0.4678743673369491,-2.530396236916482,1.2210407337231806,-1.4925832956822895,0.1453506159149091,-2.809795137721542,1.814412498147818,-0.4757883552540174,-1.6207912030858642,0.16935821910760215,-1.1559358934195783,-0.7839320192902804
89,-0.08551958754843733,0.21775847332599735,0.03528539727756222,-0.02346168715643223,3.0718535593074243,-0.22921228840198446,-1.3673250158899872,-0.7064614310071117,1.3936283010745596,-0.7766755875353185,0.7177782765153097,0.5509993544555666,1.1669864390240845,-2.7879140352167515,0.01801695424594534,-0.7925284895995981,0.48317471392666217,0.13385383636440568,0.46826762606525113,-2.5303271620847223,1.2212522378402082,-1.4920494118667778,0.14611421295011082,-2.8121030958309823,1.8173434468537302,-0.4771916071961074,-1.6229349756867977,0.1679626345408623,-1.1543971108499365,-0.7857751943911895
90,-0.08386521831536801,0.21571546796354066,0.03541667458174222,-0.022427649263318347,3.0724368811383993,-0.22972418566298522,-1.369766484237463,-0.7061957259128463,1.392960006351984,-0.7762750280311367,0.7189454574396446,0.5497759123713517,1.1670907234261731,-2.788588921009573,0.015977777878444507,-0.7928455690513936,0.4823231338066638,0.13399503542199032,0.46865998660612646,-2.5302581114462486,1.221465309309666,-1.4915228143770765,0.1468741854524475,-2.814407740539819,1.8202678932721834,-0.4785919587042557,-1.625075861230241,0.16657180064811122,-1.1528684139089709,-0.7876132522930764
91,-0.08222007960715835,0.21367878020525102,0.035547962174824116,-0.021396328522233766,3.073021659649799,-0.23023498310366722,-1.372199008094466,-0.7059332292918588,1.3922966232424212,-0.7758735589378646,0.7201070701595926,0.5485542053811769,1.1671951780477172,-2.7892649439713715,0.013945325198376898,-0.7931622271683001,0.48147820004848496,0.134134630784216,0.46905141460341515,-2.5301890936817477,1.2216800348508368,-1.4910033267936558,0.14763069026549097,-2.8167090391196172,1.8231859765142835,-0.47998935506009494,-1.6272137623882477,0.16518577171595875,-1.1513495858384006,-0.7894462005641912
92,-0.0805840800117532,0.21164834531546686,0.035679257177515376,-0.020367790779956985,3.0736078953387374,-0.23074468853110253,-1.3746226602803255,-0.7056739084257014,1.3916380933744947,-0.7754711999080862,0.7212631859389551,0.547334190270589,1.167299802042856,-2.789942118750902,0.011919667557285274,-0.7934784753555519,0.4806398119486182,0.1342726407762784,0.4694418788227809,-2.530120116896409,1.221896488988976,-1.4904907860456025,0.14838386987802057,-2.819006963027726,1.8260978199364994,-0.48138374862852196,-1.6293485905115277,0.1638045933913409,-1.1498404257593728,-0.7912740496570017
93,-0.07895713159808682,0.2096241025024243,0.03581055663199432,-0.019342096840470703,3.074195587738266,-0.23125330874017297,-1.3770375101165826,-0.7054177312340788,1.3909843605256205,-0.7750679696120159,0.7224138724380221,0.5461158281461777,1.1674045944216334,-2.790620457807795,0.009900871654287182,-0.7937943238691183,0.4798078739062941,0.1344090830380494,0.4698313508550979,-2.5300511886721457,1.2221147353311026,-1.489985041091988,0.14913385386330152,-2.8213014874776694,1.8290035327853376,-0.48277509812579583,-1.6314802647911133,0.16242830357855573,-1.1483407471134084,-0.7930968125769392
94,-0.07733914960098769,0.20760599453343712,0.035941857514737864,-0.01831930291771635,3.074784735503225,-0.2317608496249469,-1.3794436237735204,-0.7051646662321099,1.3903353704352028,-0.7746638858278811,0.723559194048483,0.5448990840079146,1.167509554065792,-2.7912999716193987,0.0078889998905132,-0.7941097819309076,0.4789822949520903,0.13454397458462442,0.47021980484993026,-2.5299823161147286,1.2223348277124542,-1.4894859517373558,0.14988076017248916,-2.82359259105305,1.8319032116744114,-0.48416336796257103,-1.6336087115056037,0.16105693324485304,-1.1468503762605986,-0.7949145045855297
95,-0.07573005213769618,0.2055939673886729,0.0360731567482361,-0.017299461043898005,3.0753753364880896,-0.2322673162789223,-1.3818410645814962,-0.7049146824919851,1.3896910706367507,-0.7742589655234566,0.7246992121945892,0.5436839263644089,1.167614679743154,-2.7919806688675406,0.00588411068935492,-0.7944248578325577,0.4781629883238614,0.13467733186052744,0.4706072172760201,-2.529913505896331,1.222556811226553,-1.488993387567754,0.15062469629683964,-2.8258802553605853,1.8347969419108285,-0.48554852765424245,-1.635733863345203,0.15969050714383146,-1.1453691512193076,-0.7967271429343825
96,-0.07412975995285352,0.20358796994969483,0.036204451211670485,-0.016282619437725354,3.0759673878175575,-0.23277271308522013,-1.3842298933105877,-0.7046677496085549,1.3890514103069882,-0.7738532249296086,0.7258339856039541,0.5424703268867883,1.1677199701206993,-2.7926625566071546,0.0038862587859269113,-0.7947395590289273,0.47734987108525995,0.1348091707882454,0.47099356670601583,-2.5298447642939266,1.222780723150551,-1.488507226995088,0.15136576031195698,-2.8281644647183297,1.8376847986861362,-0.48693055129174195,-1.6378556588046567,0.1583290444649761,-1.143896920533182,-0.798534746626866
97,-0.07253819618912463,0.20158795371931096,0.03633573775062956,-0.01526882283655945,3.07656088595057,-0.23327704379770858,-1.3866101684217214,-0.7044238376684379,1.3884163401302283,-0.7734466796066313,0.7269635705510408,0.5412582600973419,1.1678254237764498,-2.7933456404185346,0.0018954954888140522,-0.7950538922222969,0.47654286378258565,0.1349395068116932,0.4713788336229503,-2.529776097223944,1.223006593776381,-1.4880273563987947,0.1521040418159953,-2.8304452058755354,1.8405668481455542,-0.48830941706661524,-1.639974041637994,0.1569725594168381,-1.1424335422526681,-0.8003373362046219
98,-0.07095528618089388,0.19959387256960973,0.03646701318593284,-0.014258112796039049,3.0771558267383745,-0.23378031161394563,-1.3889819462921487,-0.7041829172222713,1.3877858121764504,-0.7730393445040783,0.7280880210760913,0.5400477030894353,1.167931039210254,-2.7940299245448115,-8.813108312597656e-05,-0.7953678634381894,0.4757418901361159,0.1350683549351489,0.47176300024623397,-2.529707510273548,1.2232344471571999,-1.4875536693549296,0.15283962277254823,-2.8327224677609477,1.8434431483478486,-0.48968510684482947,-1.6420889603687094,0.15562106175060575,-1.1409788830195058,-0.8021349335563581
99,-0.06938095726872304,0.19760568251536703,0.03659827432163014,-0.013250527960415388,3.0777522054772013,-0.2342825192407416,-1.3913452814178426,-0.7039449592597757,1.3871597797916804,-0.7726312340147276,0.7292073891819728,0.5388386352755603,1.1680368148535656,-2.7947154120160884,-0.0020645757864080684,-0.7956814780936343,0.47494687676245406,0.1351957297581411,0.4721460503751556,-2.529639008728873,1.2234643017776639,-1.4870860659437681,0.1535725782678862,-2.8349962412566607,1.8463137501269657,-0.4910576057843237,-1.6442003678496648,0.15427455723013844,-1.1395328172438068,-0.8039275617466225
100,-0.06781513863248778,0.1956233415102864,0.0367295179522398,-0.012246104306506815,3.0783500169560583,-0.23478366895306643,-1.3937002265951413,-0.7037099351873299,1.3865381974994138,-0.7722223620232544,0.7303217250111765,0.5376310381606878,1.1681427490783025,-2.7954021047615414,-0.004033796258762715,-0.7959947410586193,0.47415775292477236,0.1353216455067209,0.47252796924808854,-2.5295705976005087,1.2236961711557348,-1.4866244521279048,0.15430297719123506,-2.8372665189949413,1.8491786978654254,-0.49242690199181965,-1.646308220867582,0.15293304805392358,-1.1380952263643687,-0.8057152448624951
101,-0.06625776114131446,0.1936468092637841,0.036860740869285605,-0.011244875363898175,3.0789492555001106,-0.23528376264695688,-1.3960468330837303,-0.7034778168077901,1.38592102091195,-0.7718127419501336,0.7314310770049766,0.5364248951383769,1.1682488402048625,-2.7960900037106575,-0.005995752743149434,-0.796307656711401,0.4733744503081378,0.13544611606150458,0.47290874341578476,-2.5295022816465087,1.2239300643829405,-1.4861687391936547,0.1550308828459163,-2.839533295175694,1.852038030188467,-0.4937929862148646,-1.6484124797875208,0.15159653323386424,-1.1366659981837985,-0.8074980078763473
102,-0.0647087572186245,0.1916760470762579,0.0369919398671886,-0.010246872413750961,3.0795499150100656,-0.23578280188701434,-1.3983851507528509,-0.7032485763023132,1.385308206650619,-0.7714023867912386,0.7325354920465598,0.5352201913073458,1.1683550865093697,-2.796779108884679,-0.007950407928114859,-0.7966202289882802,0.4725969028173888,0.13556915498283229,0.47328836062730634,-2.5294340653931644,1.2241659866093237,-1.485718843249282,0.15575635349838213,-2.8417965654024675,1.8548917805870304,-0.49515585156549047,-1.6505131082332105,0.15026500893530897,-1.1352450262708749,-0.8092758765230066
103,-0.06316806072076196,0.18971101769098184,0.03712311174856611,-0.009252124668356402,3.0801519889979394,-0.23628078794902785,-1.4007152282124289,-0.7030221862139692,1.3846997122739886,-0.7709913091535638,0.7336350155897542,0.5340169133064407,1.1684614862302183,-2.797469419479206,-0.009897726802851602,-0.7969324614283904,0.47182504639528305,0.1356907755333519,0.47366680972729125,-2.529365953153764,1.2244039394786916,-1.4852746847742444,0.15647944287146973,-2.844056326535126,1.8577399779768413,-0.4965154932722396,-1.6526100727995332,0.1489384687822875,-1.133832209423327,-0.8110488771898374
104,-0.06163560682783121,0.18775168516095458,0.037254253328987054,-0.008260659433352205,3.080755470619554,-0.236777721858204,-1.4030371129306562,-0.7027986194329499,1.3840954962132297,-0.7705795212874506,0.7347296917748198,0.5328150491661441,1.1685680375739773,-2.7981609339388323,-0.011837676525478125,-0.7972443572139926,0.4710588188588646,0.13581099069830382,0.4740440805633863,-2.529297949045535,1.2246439215192062,-1.4848361882142243,0.15720020058755904,-2.8463125765574877,1.8605826472001252,-0.49787190845764184,-1.6547033427938316,0.14761690413151313,-1.1324274511849024,-0.8128170368184015
105,-0.06011133194550873,0.18579801472919552,0.03738536144122883,-0.007272502254333112,3.0813603527040763,-0.2372736044234389,-1.4053508513393966,-0.7025778491832031,1.383495517713905,-0.7701670351156626,0.7358195635326196,0.5316145881749504,1.1686747387207104,-2.7988536500245904,-0.013770226303207999,-0.7975559192067225,0.4702981597522042,0.13592981320375327,0.4744201639027995,-2.529230057004953,1.224885928493858,-1.484403281617259,0.15791867256674377,-2.848565314458408,1.8634198094758194,-0.49922509593852465,-1.6567928900030655,0.14630030431835037,-1.131030659411206,-0.814580382816498
106,-0.058595173616716734,0.18384997272113235,0.03751643293907816,-0.0062876770494132775,3.0819666277808793,-0.2377684362680246,-1.4076564889286556,-0.7023598490103381,1.3828997367835185,-0.769753862259623,0.7369046726783545,0.5304155207591075,1.1687815878287657,-2.7995475648749166,-0.01569534728321039,-0.7978671499801913,0.46954301021385214,0.13604725553299024,0.4747950513570321,-2.5291622808015677,1.2251299537149012,-1.4839758963067529,0.1586349013846065,-2.8508145401249463,1.866251482803548,-0.5005750560468069,-1.6588786884841433,0.14498865687762016,-1.1296417458793564,-0.816338942979511
107,-0.05708707044215748,0.1819075264478605,0.03764746470071484,-0.005306206229143222,3.082574288103985,-0.23826221785714424,-1.4099540703312279,-0.702144592770665,1.382308114144232,-0.769340014063091,0.7379850599959276,0.5292178383743688,1.168888583039082,-2.80024267506077,-0.01761301245308407,-0.7981780518493032,0.4687933128575092,0.136163329941294,0.4751687353139491,-2.529094624050509,1.2253759883259172,-1.4835539665875894,0.15934892659372307,-2.8530602542463814,1.8690776823260935,-0.5019217904686671,-1.6609607143750353,0.1436819477418217,-1.1282606259370003,-0.8180927454200979
108,-0.05558696200880795,0.1799706441191762,0.03777845363171463,-0.004328110805044249,3.0831833256743164,-0.23875494952247517,-1.4122436393985218,-0.7019320546212461,1.381720611190217,-0.7689255016135359,0.7390607653138938,0.5280215334085425,1.1689957224790555,-2.8009389766354813,-0.01952319654997565,-0.7984886268966171,0.4680490116645719,0.1362780484692372,0.47554120887643186,-2.529027090223787,1.2256240215548069,-1.4831374294819462,0.16006078501260146,-2.8553024582279765,1.8718984206546143,-0.5032653021001963,-1.6630389457245207,0.14238016141908635,-1.1268872181866805,-0.8198418185053575
109,-0.05409478882556489,0.1780392947653952,0.03790939666770456,-0.0033534104878969557,3.083793732259973,-0.23924663148418823,-1.414525239268464,-0.7017222090108493,1.3811371899491636,-0.7685103357614314,0.7401318275738553,0.5268265990937436,1.169103004266008,-2.8016364651798544,-0.021425875977470584,-0.7987988769960453,0.4673100518873447,0.1363914229546867,0.47591246580693686,-2.528959682660515,1.2258740409406723,-1.4827262244917616,0.1607705109853836,-2.857541154113498,1.874713708160419,-0.5046055949178353,-1.6651133623386456,0.14108328115294266,-1.1255214442019577,-0.8215861908007017
110,-0.05261049226531196,0.17611344816706878,0.038040290776701485,-0.0023821237768067746,3.084405499414714,-0.23973726387060276,-1.4167989124262914,-0.7015150306717055,1.3805578130475187,-0.7680945271376798,0.7411982848920753,0.5256330294273649,1.169210426510293,-2.802335135842978,-0.02332102872947342,-0.7991088038341569,0.4665763799618318,0.1365034650436407,0.4762825004773533,-2.528892404576164,1.226126032537251,-1.4823202933851198,0.16147813661529892,-2.859776344515604,1.8775235532367258,-0.5059426738620767,-1.6671839456421684,0.13979128906575744,-1.1241632282720506,-0.8233258910197376
111,-0.05113401451275416,0.17419307479179738,0.03817113296116205,-0.0014142680399671442,3.0850186184948227,-0.24022684673573164,-1.4190647007589616,-0.7013104946119844,1.3799824436790662,-0.7676780861693502,0.7422601746150038,0.5244408191008849,1.1693179873180726,-2.803034983379182,-0.02520863432037311,-0.799418408929324,0.46584794342913316,0.13661418620002677,0.4766513078236162,-2.528825259070933,1.2263799810952971,-1.481919580004095,0.16218369197455354,-2.8620080325532986,1.8803279625334794,-0.5072765447330632,-1.6692506785534456,0.1385041662875281,-1.1228124971720905,-0.8250609479795373
112,-0.0496652985174309,0.17227814573742337,0.038301920259770236,-0.0004498595879485203,3.085633080674511,-0.2407153800749272,-1.4213226456038324,-0.7011085761089079,1.379411045576508,-0.7672610230938972,0.7433175333693399,0.5232499634357185,1.169425684793797,-2.80373600218151,-0.02708867372086057,-0.799727693648927,0.46512469086456626,0.13672359771457254,0.47701888330458686,-2.5287582491373364,1.2266358702260576,-1.481524030091852,0.16288720529306536,-2.864236221795731,1.8831269411679838,-0.5086072140968596,-1.671313545371374,0.13722189307152868,-1.121469179956377,-0.8267913905607384
113,-0.048204287951378634,0.17036863268095626,0.03843264974898628,0.0005110862597415622,3.086248876959997,-0.2412028638388186,-1.4235727877922013,-0.7009092507024355,1.3788435829857346,-0.7668433479720111,0.744370397107189,0.5220604583253954,1.169533517042414,-2.804438186312053,-0.028961129298829835,-0.8000366592248134,0.4644065718137256,0.13683171071284753,0.47738522286476465,-2.528691377667078,1.2268936825477739,-1.4811335911370263,0.16358870312820833,-2.866460916211703,1.8859204929138282,-0.5099346892012979,-1.6733725316731514,0.13594444889815793,-1.1201332077722919,-0.8285172476719747
114,-0.04675092717096755,0.1684645078326493,0.03856331854437891,0.001468555114157052,3.086865998202385,-0.24168929794571162,-1.4258151676882345,-0.7007124941894565,1.378280020642507,-0.7664250706992359,0.7454188011468191,0.5208723001834263,1.1696414821713348,-2.8051415295294575,-0.030825984764852068,-0.8003453067671842,0.46369353673477065,0.13693853616256546,0.4777503229004383,-2.528624647457284,1.2271533998169453,-1.480748212233607,0.16428821051750844,-2.8686821201242974,1.8887086203703276,-0.5112589779004113,-1.675427624221739,0.13467181256819946,-1.1188045136927645,-0.8302385482181903
115,-0.0453051611824852,0.16656574389470497,0.038693923801760996,0.0024225334618674993,3.087484435109466,-0.24217468229260594,-1.4280498252237555,-0.7005182826184357,1.3777203237513038,-0.7660062010164759,0.7464627802094669,0.5196854858962808,1.1697495782921774,-2.805846025313878,-0.032683225121763616,-0.8006536372770677,0.4629855369463063,0.13704408488022535,0.4781141802289258,-2.528558061216161,1.2274150030459108,-1.480367843954735,0.16498575111603475,-2.8708998381701134,1.8914913251144725,-0.5125800885865727,-1.677478810882035,0.13340396228657964,-1.117483032565397,-0.8319553210724349
116,-0.043866935611083034,0.16467231402413934,0.03882446271814704,0.003373008614825351,3.0881041782565357,-0.24265901676496857,-1.4302767999293262,-0.7003265922844636,1.3771644579661084,-0.7655867485195019,0.7475023684525984,0.5185000127809579,1.1698578035223115,-2.8065516668896366,-0.03453283661795607,-0.800961651657521,0.4622825245802828,0.13714836753716203,0.4784767920605891,-2.528491621568131,1.2276784726081484,-1.4799924382389824,0.1656813473200508,-2.873114075262637,1.8942686078371762,-0.5138980301295464,-1.6795260805448644,0.13214087573759717,-1.1161687008765506,-0.8336675950507798
117,-0.042436196672741254,0.16278419179938347,0.038954932532549266,0.004319968664658591,3.0887252180963287,-0.24314230124538905,-1.4324961309619995,-0.7001373997246649,1.3766123893729376,-0.7651667226675567,0.74853759949999,0.5173158785466859,1.169966155986222,-2.8072584472458044,-0.036374806703998494,-0.8012693507236872,0.4615844525394025,0.13725139466506878,0.4788381559733409,-2.5284253310585028,1.2279437883325484,-1.479621948287838,0.16637502037833077,-2.875324836559331,1.8970404684654276,-0.5152128118217414,-1.681569423057984,0.13088253015249815,-1.114861456628867,-0.8353753988900346
118,-0.041012891148942056,0.160901351190242,0.03908533052662781,0.005263402440949915,3.089347544968149,-0.2436245356212296,-1.4347078571300886,-0.6999506817139304,1.376064084473932,-0.7647461327911469,0.7495685064689535,0.5161330812603323,1.1700746338167094,-2.8079663591549173,-0.03820912399225957,-0.8015767352118253,0.46089127445857103,0.13735317666104804,0.479198269889393,-2.528359192157717,1.228210929587789,-1.4792563284732474,0.16706679049240103,-2.8775321274320658,1.8998069062717866,-0.5165244433290297,-1.683608829163391,0.12962890237018052,-1.1135612392308576,-0.8370787612279731
119,-0.039596966363773196,0.1590237665308678,0.03921565402520896,0.006203299473107858,3.089971149106277,-0.24410571979137155,-1.4369120169152652,-0.6997664152609329,1.375519510172848,-0.7643249880991042,0.7505951219950007,0.5149516193151493,1.170183235155944,-2.8086753951900056,-0.040035778219231793,-0.8018838057874138,0.460202944669979,0.13745372379223997,0.479557132054018,-2.5282932072652144,1.228479875357828,-1.4788955342541754,0.16775667690683882,-2.8797359534405538,1.902567919972519,-0.5178329346465582,-1.6856442904402884,0.1283799688917312,-1.112267989397328,-0.8387777105858102
120,-0.03818837016321206,0.15715141249544656,0.03934590039668441,0.007139649955474984,3.0905960206477183,-0.24458585367215008,-1.439108648492259,-0.6995845776044,1.374978633761806,-0.7639032976849867,0.7516174782542094,0.5137714914025178,1.170291958156386,-2.809385547740104,-0.04185476021029,-0.8021905630524244,0.4595194181714421,0.1375530462000733,0.4799147410161229,-2.528227378712962,1.2287506043094185,-1.4785395221012707,0.16844469799064285,-2.8819363203084847,1.9053235078155262,-0.5191382960590419,-1.6876757992531364,0.12713570592942675,-1.1109816490595357,-0.8404722753526989
121,-0.036787050896365886,0.15528426407631507,0.03947606705330311,0.008072444715354,3.0912221496393584,-0.24506493720255954,-1.4412977897464136,-0.6994051462096139,1.3744414229091686,-0.7634810705328859,0.752635606983527,0.5125926964863865,1.1704008009815876,-2.810096809024393,-0.04366606184664435,-0.8024970075518469,0.4588406505976652,0.13765115390417818,0.48027109561045317,-2.52816170876867,1.229023094852466,-1.4781882494287995,0.16913087131058752,-2.884133233902086,1.9080736676591143,-0.5204405381050792,-1.689703348704272,0.1258960894507634,-1.1097021612840883,-0.8421624837720372
122,-0.03539295739846676,0.15342229656426637,0.03960615145136653,0.009001675183664768,3.091849526044578,-0.2455429703488039,-1.4434794782893188,-0.6992280987651149,1.373907845648431,-0.7630583155226991,0.7536495394992231,0.511415233780135,1.1705097618068863,-2.8108091711050998,-0.04546967603427243,-0.8028031397795434,0.4581665981941309,0.1377480568059962,0.4806261949412638,-2.5280961996387297,1.2292973251939625,-1.4778416745331064,0.16981521369737806,-2.8863267002108683,1.9108183970425343,-0.5217396715450772,-1.691726932590637,0.12466109521802428,-1.108429470199694,-0.8438483639293999
123,-0.0340060389754406,0.15156548553081883,0.03973615109133696,0.00992733336797417,3.0924781397493812,-0.24601995310825922,-1.445653751472722,-0.6990534131795858,1.3733778703680195,-0.7626350414349176,0.7546593067136813,0.5102391027256159,1.1706188388200023,-2.8115226258992907,-0.04726559667463731,-0.8031089601834985,0.45749721779334285,0.13784376469211912,0.4809800383673122,-2.5280308534709057,1.2295732733861509,-1.4774997565369379,0.17049774130534026,-2.8885167253303314,1.9135576932491305,-0.523035707332418,-1.6937465453641993,0.12343069882383909,-1.1071635209309638,-0.8455299437419275
124,-0.03262624538988771,0.1497138068122495,0.03986606351786783,0.0108494118276666,3.093107980568082,-0.2464958855129082,-1.4478206464008996,-0.6988810675788986,1.372851465801907,-0.7622112569549814,0.7556649391507017,0.5090643029741567,1.1707280302215486,-2.812237165189652,-0.04905381863701838,-0.8034144691705271,0.4568324667931826,0.13793828723738435,0.48133262548804173,-2.5279656723567987,1.2298509173695154,-1.4771624553390252,0.17117846966630343,-2.8907033154464363,1.9162915533628506,-0.5243286565875346,-1.6957621820956987,0.12220487572314476,-1.10590425953855,-0.847207250949022
125,-0.03125352684832938,0.14786723649521188,0.03999588631976396,0.011767903651046506,3.0937390382485876,-0.24697076763230147,-1.4499801999416495,-0.6987110403033058,1.372328601020963,-0.7617869706772412,0.756666466959464,0.5078908343693255,1.1708373342254632,-2.812952780634366,-0.05083433773229976,-0.803719667110495,0.4561723031371627,0.13803163400775206,0.48168395613083964,-2.5279006583341066,1.2301302350111258,-1.4768297315683954,0.1718574137382671,-2.8928864768216656,1.9190199743187917,-0.5256185305745991,-1.697773838441384,0.12098360126191358,-1.1046516329649751,-0.848880313104216
126,-0.029887833989589593,0.1460257509037772,0.04012561712987927,0.012682802434185118,3.094371302477319,-0.2474445995760941,-1.4521324487360503,-0.6985433099047618,1.3718092454249584,-0.7613621911085666,0.7576639199272925,0.5067186969312817,1.1709467490593715,-2.813669463776168,-0.052607150688076976,-0.8040245543401029,0.4555166852963818,0.13812381446298622,0.4820340303392631,-2.527835813388703,1.2304112041388136,-1.4765015465429265,0.1725345879493817,-2.89506621578251,1.9217429529483856,-0.5269053406805576,-1.6997815106124448,0.11976685070297768,-1.1034055889855765,-0.8505491575680927
127,-0.028529117874194588,0.14418932658775352,0.0402552536249585,0.013594102261342625,3.0950047628838027,-0.24791738149620163,-1.4542774292071186,-0.6983778551443587,1.3712933687351658,-0.7609369266716357,0.7586573274913413,0.5055478908425546,1.171056272964885,-2.8143872060506614,-0.054372255124957226,-0.8043291311662755,0.4548655722530063,0.13821483795915962,0.4823828483621406,-2.52777113945655,1.2306938025716048,-1.4761778622317174,0.17321000623771887,-2.8972425387082437,1.924460486019769,-0.5281890983962729,-1.7017851953468692,0.11855459924924451,-1.1021660761640433,-0.8522138115021518
128,-0.02717732997468495,0.14235794031215318,0.04038479352542906,0.014501797686813919,3.09563940904496,-0.2483891135886149,-1.45641517756748,-0.698214654989867,1.3707809409874891,-0.7605111857079373,0.7596467187493136,0.5043784164351064,1.1711659041978462,-2.8151059987939657,-0.05612964953394147,-0.8046333978691996,0.4542189234851234,0.13830471375100023,0.4827304106434635,-2.527706638425462,1.230978008146797,-1.4758586412208832,0.17388368208725832,-2.8994154520208535,1.9271725702738247,-0.5294698152995596,-1.7037848898834924,0.11734682206456815,-1.1009330438120857,-0.8538743018635211
129,-0.025832422166745722,0.14053156904769085,0.040514234595148475,0.015405883718061383,3.096275230489125,-0.24885979609490977,-1.4585457298261617,-0.6980536886133685,1.3702719325260724,-0.7600849764805138,0.7606321224693126,0.5032102741785515,1.1712756410285206,-2.815825833249764,-0.05787933325478817,-0.804937354705045,0.45357669895282315,0.13839345099409495,0.4830767178129924,-2.527642312136738,1.2312637987440214,-1.4755438466824313,0.17455562856047405,-2.9015849621760106,1.929879202456332,-0.530747503039921,-1.7057805919380173,0.11614349429251371,-1.0997064419528135,-0.8555306554004282
130,-0.024494346721069763,0.13871018996220755,0.04064357464111254,0.016306355800011836,3.0969122166998155,-0.2493294293034832,-1.460669121794597,-0.6978949353889724,1.3697663139973373,-0.7596583071764694,0.7616135670989123,0.5020434646694169,1.1713854817417464,-2.8165467005758003,-0.05962130645526893,-0.8052410019084005,0.45293885908538467,0.13848105874696456,0.4834217706775107,-2.527578162386668,1.2315511523066032,-1.4752334423459064,0.17522585832786383,-2.903751075654979,1.9325803793466176,-0.5320221733248152,-1.7077722996808187,0.11494459107322791,-1.0984862212874518,-0.8571828986483545
131,-0.02316305629587833,0.13689378041292585,0.04077281151312854,0.01720320980040719,3.0975503571192764,-0.24979801355054523,-1.4627853890919298,-0.6977383748906069,1.3692640563444096,-0.7592311859092686,0.7625910807735281,0.500877988621341,1.171495424637043,-2.8172685918498876,-0.06135557011123592,-0.8055443396944559,0.45230536476945293,0.13856754597302265,0.48376557021266403,-2.5275141909279366,1.2318400468604933,-1.474927392472524,0.17589438369473037,-2.9059137989573696,1.9352760977830616,-0.5332938379072946,-1.7097600117163565,0.11375008755860673,-1.0972723331650556,-0.8588310579268017
132,-0.021838503930030596,0.13508231793945163,0.04090194310345786,0.018096441996109353,3.098189641151819,-0.25026554922089245,-1.4648945671496936,-0.697583986889877,1.3687651308018915,-0.7588036207208426,0.7635646913241586,0.4997138468561178,1.1716054680286847,-2.817991498075469,-0.06308212598742888,-0.8058473682609545,0.4516761773381049,0.13865292154242945,0.48410811755533173,-2.5274503994709216,1.2321304605310244,-1.4746256618315445,0.1765612166254908,-2.9080731385946526,1.937966354685773,-0.5345625085748817,-1.7117437270640457,0.11255995892593185,-1.0960647295549222,-0.8604751593366059
133,-0.020520643036660964,0.13327578025744594,0.041030967346431566,0.018986049060270044,3.0988300581669717,-0.2507320367484862,-1.4669966912159327,-0.697431751353984,1.3682695088909498,-0.7583756195835245,0.7645344262845617,0.4985510402955017,1.1717156102457427,-2.8187154101867757,-0.06480097661895765,-0.8061500877899408,0.451051258560714,0.13873719423385078,0.4844494139964805,-2.5273867896849085,1.2324223715577132,-1.4743282156786612,0.17722636876576303,-2.9102291010843566,1.9406511470767212,-0.5358281971395563,-1.7137234451404415,0.11137418039012953,-1.0948633630214282,-0.8621152287577457
134,-0.019209427397289293,0.13147414525289852,0.041159882218042385,0.019872028050284964,3.0994715975024616,-0.2511974766168572,-1.469091796358828,-0.6972816484436988,1.367777162414685,-0.7579471904018292,0.7655003128979236,0.49738956995370065,1.1718258496320995,-2.8194403190536197,-0.06651212529340245,-0.8064524984493242,0.45043057063353126,0.13882037273613074,0.4847894609744573,-2.5273233631992227,1.232715758307311,-1.4740350197362009,0.17788985146245193,-2.912381692944884,1.9433304720975755,-0.5370909154287413,-1.7156991657426197,0.11019272721479026,-1.093668186701049,-0.8637512918475915
135,-0.017904811156354793,0.12967739097694175,0.041288685735516195,0.020754376396459964,3.100114248467037,-0.25166186935935486,-1.4711799174698794,-0.6971336585113845,1.3672880634537568,-0.7575183410140925,0.7664623781230706,0.49622943693048843,1.1719361845464387,-2.8201662154858553,-0.06821557603348039,-0.8067546003942777,0.4498140761709104,0.13890246564988634,0.4851282600686812,-2.527260121604289,1.2330105992852813,-1.4737460401749587,0.1785516757820351,-2.914530920690882,1.946004327025485,-0.5383506752771893,-1.7176708890326369,0.10901557472207284,-1.092479154281341,-0.8653833740395518
136,-0.016606748816129495,0.12788549564114915,0.041417375956865704,0.02163309189132404,3.1007580003431507,-0.25212521555925854,-1.473261089266698,-0.696987762099065,1.366802184362238,-0.7570890791939839,0.7674206486402702,0.4950706424048762,1.1720466133622134,-2.8208930902375435,-0.06991133358023226,-0.8070563937684891,0.4492017381971109,0.13898348148903092,0.48546581299369956,-2.527197066452626,1.2333068731458674,-1.473461243597502,0.17921185252722832,-2.916676790829116,1.948672709287002,-0.5396074885196774,-1.7196386155229721,0.10784269830160442,-1.0912962199816916,-0.8670115005420748
137,-0.015315195231971692,0.1260984376132693,0.04154595098042888,0.022508172679530484,3.1014028423895073,-0.2525875158497664,-1.4753353462954482,-0.6968439399365324,1.3663194977636774,-0.7566594126519041,0.7683751508566632,0.4939131876292895,1.1721571344675945,-2.8216209340108405,-0.07159940337668824,-0.8073578787052795,0.44859352013862075,0.13906342868223273,0.4858021215935762,-2.5271341992597827,1.233604558700895,-1.4731805970228,0.17987039225219145,-2.918819309854795,1.9513356164703362,-0.5408613669844322,-1.721602346062861,0.10667407341847618,-1.0901193385356587,-0.8686356963379688
138,-0.014030105607883966,0.12431619541335034,0.0416744089443944,0.023379617248293436,3.1020487638434946,-0.25304877091387523,-1.4774027229329807,-0.6967021729394924,1.3658399765473501,-0.7562293490362795,0.769325910911363,0.4927570739242012,1.172267746265404,-2.822349737459643,-0.07327979155197586,-0.8076590553286037,0.4479893858169461,0.13914231557431447,0.4861371878365832,-2.5270715215052157,1.2339036349274408,-1.4729040678720475,0.1805273052764197,-2.920958484248305,1.9539930463361033,-0.54211232248721,-1.7235620818254405,0.10550967562042426,-1.0889484651747428,-0.8702559861840093
139,-0.012751435492343907,0.12253874771021497,0.041802748026316124,0.024247424418312204,3.102695753923504,-0.2535089814841636,-1.4794632533886924,-0.6965624422077437,1.3653635938646767,-0.7557988959347629,0.7702729546802556,0.49160230267317745,1.1723784471730325,-2.8230794911930084,-0.07495250490583703,-0.807959923753944,0.44738929944182054,0.13922015042759853,0.4864710138101706,-2.527009034633126,1.2342040809744832,-1.4726316239555663,0.18118260169745012,-2.9230943204723077,1.9566449968267199,-0.5433603668259689,-1.725517824295632,0.10434948054427681,-1.087783555613449,-0.8718723946108017
140,-0.011479140774379146,0.12076607331824998,0.04193096644261846,0.025111593335140646,3.1033438018311466,-0.25396814834249015,-1.4815169717061436,-0.696424729023387,1.3648903231257974,-0.7553680608753489,0.7712163077805293,0.4904488753182965,1.1724892356223444,-2.8238101857783704,-0.07661755089352504,-0.8082604840891098,0.4467932256047923,0.13929694142320276,0.4868036017161911,-2.526946740053246,1.2345058761686407,-1.472363233460679,0.1818362914025,-2.9252268249691746,1.9592914660745766,-0.5446055117760744,-1.7274695752586984,0.10319346392173889,-1.0866245660355116,-0.8734849459228736
141,-0.010213177679861093,0.11899815119447792,0.04205906244809432,0.02597212346096297,3.1039928967533794,-0.2544262723196161,-1.483563911764461,-0.6962890148490638,1.364420137996285,-0.7549368513274128,0.7721559955749617,0.48929679335590576,1.1726001100595722,-2.8245418117445698,-0.078274937611055,-0.8085607364349514,0.44620112927315064,0.13937269666229046,0.4871349538663589,-2.526884639141586,1.2348090000190937,-1.4720988649404612,0.18248838407914172,-2.927356004158719,1.961932452409112,-0.5458477690859848,-1.729417336789417,0.10204160158458067,-1.0854714530811662,-0.8750936641989739
142,-0.008953502767994583,0.11723496043588186,0.04218703433539705,0.026829014566741236,3.104643027864542,-0.254883354294762,-1.4856041072795532,-0.69615528132622,1.3639530123939838,-0.7545052747026803,0.7730920431759871,0.4881460583326848,1.172711068945202,-2.825274359584718,-0.07992467378078438,-0.8088606808859989,0.445612975784159,0.13944742416727854,0.48746507267792394,-2.526822733241149,1.2351134322217712,-1.471838487303285,0.18313888922510851,-2.9294818644361977,1.9645679543628938,-0.5470871504733699,-1.7313611112418141,0.1008938694692869,-1.084324173835367,-0.8766985732925549
143,-0.0077000729279829,0.11547648027695721,0.04231488043452786,0.02768226672470328,3.1052941843283155,-0.2553393951951059,-1.487637591805159,-0.6960235102733945,1.363488920485964,-0.7540733383561328,0.7740244754495652,0.48699667184198603,1.1728221107538503,-2.8260078197589027,-0.08156676873730262,-0.8091603175310322,0.44502873083956296,0.13952113188300672,0.48779396066954467,-2.526761023662609,1.2354191526628833,-1.4715820698030837,0.18378781615731496,-2.931604412170557,1.9671979706768072,-0.5483236676216218,-1.7333009012394163,0.0997502436212203,-1.0831826858168563,-0.8782996968324194
144,-0.0064528453758498595,0.11372269008746698,0.04244259911231979,0.028531880301142773,3.105946355299606,-0.255794395995231,-1.489664398733751,-0.6958936836845298,1.3630278366855797,-0.7536410495868576,0.774953317018871,0.4858486355204271,1.172933233974134,-2.826742182696758,-0.08320123241361105,-0.8094596464535914,0.44444836050034725,0.13959382767787087,0.48812162045734453,-2.5266995116849587,1.2357261414218628,-1.4713295820302617,0.18443517402016885,-2.9337236537029003,1.9698225003044372,-0.549557332176718,-1.735236709665973,0.09861070019834578,-1.0820469469680036,-0.879897058223516
145,-0.005211777651402528,0.1119735693703795,0.04257018877191943,0.029377855949506013,3.106599529926361,-0.2562483577165289,-1.4916845612973118,-0.6957657837273035,1.362569735649624,-0.7532084156388443,0.775878592267823,0.4847019510447127,1.1730444371085358,-2.8274774387999018,-0.08482807532757664,-0.8097586677324319,0.4438718311817168,0.1396655193449231,0.48844805475113817,-2.526638198556133,1.2360343787737815,-1.4710809939031944,0.1850809717932419,-2.935839595345154,1.9724415424157216,-0.5507881557444034,-1.7371685396566168,0.09747521547455791,-1.0809169156453393,-0.8814906806478655
146,-0.003976827615319886,0.11022909775996977,0.04269764785226731,0.030220194603742527,3.107253697351319,-0.25670128142656407,-1.4936981125679984,-0.6956397927414792,1.3621145922755686,-0.7527754437017353,0.7768003253444632,0.4835566201286637,1.1731557186732635,-2.828213578444257,-0.08644730856864431,-0.810057381441933,0.4432991096482803,0.13973621460294075,0.4887732663508151,-2.526577085493604,1.2363438451912931,-1.4708362756602607,0.18572521829836092,-2.937952243378913,1.975055096399951,-0.5520161498876609,-1.7390963945894204,0.09634376584264967,-1.0797925506107162,-0.8830805870656042
147,-0.00274795344635426,0.10848925502006718,0.04282497482757783,0.031058897471898706,3.1079088467137015,-0.2571531682384061,-1.4957050854587108,-0.6955156932372764,1.3616623816988846,-0.7523421409115328,0.7777185401642059,0.48241264452043625,1.173267077198107,-2.8289505919822653,-0.08805894378479483,-0.8103557876524614,0.4427301630094169,0.13980592109746645,0.4890972581428698,-2.526516173684955,1.236654521346155,-1.4705953978523578,0.18636792220617446,-2.9400616040544487,1.9776631618681755,-0.5532413261244418,-1.741020278077327,0.09521632781695663,-1.0786738110230385,-0.8846668002161332
148,-0.0015251136386337794,0.10675402104243457,0.04295216820681958,0.03189396602993584,3.10856496715085,-0.2576040193099327,-1.4977055127235759,-0.695393467893756,1.3612130792904347,-0.7519085143512676,0.7786332604129641,0.4812700259999136,1.173378511226291,-2.8296884697450015,-0.08966299316973612,-0.8106538864306981,0.4421649587148089,0.13987464640182118,0.48942003309706833,-2.5264554642884343,1.2369663881103707,-1.4703583313358566,0.1870090920422441,-2.9421676835898647,1.980265738655077,-0.5544636959256323,-1.7429401939604185,0.0940928780357075,-1.0775606564305051,-0.8862493426193602
149,-0.00030826699905531284,0.10502337584526478,0.0430792265331967,0.03272540201575565,3.1092220477998085,-0.258053835843109,-1.4996994269583601,-0.6952730995572245,1.360766660653933,-0.7514745710516317,0.7795445095501664,0.4801287663762549,1.1734900193143265,-2.8304272020441967,-0.09125946945031765,-0.8109516778399302,0.44160346455012406,0.13994239801809188,0.48974159426324176,-2.526394958433488,1.2372794265569955,-1.4701250472659537,0.1876487361927054,-2.9442704881703836,1.98286282682036,-0.5556832707132335,-1.7448561462985022,0.0929733932631085,-1.0764530467633164,-0.8878282365770241
150,0.0009026273552414973,0.10329729957178227,0.04320614838363188,0.03355320742341812,3.109880077798857,-0.25850261908324657,-1.5016868606008205,-0.6951545712396516,1.3603231016234663,-0.7510403179915797,0.7804523108116744,0.47898886748558867,1.1736016000318599,-2.8311667791741773,-0.09284838587415814,-0.8112491619403123,0.4410456486328351,0.14000918337809531,0.4900619447681991,-2.5263346572212755,1.237593617960639,-1.4698955170903891,0.1882868629095376,-2.9463700239477566,1.9854544266497076,-0.5569000618587341,-1.74676813936399,0.09185785039118663,-1.0753509423268035,-0.8894035041740944
151,0.002107609999327546,0.10157577248893906,0.04333293236825166,0.0343773844975378,3.1105390462890017,-0.2589503703182457,-1.5036678459310016,-0.6950378661171042,1.3598823782610703,-0.7506057620988994,0.7813566872126079,0.47785033118883735,1.1737132519615214,-2.831907191413726,-0.09442975619747841,-0.8115463387891015,0.44049147940816225,0.14007500984431928,0.49038108781275147,-2.526274561725171,1.237908943797698,-1.469669712543493,0.1889234803154792,-2.948466297039778,1.9880405386553432,-0.5581140806816578,-1.7486761776350503,0.09074622644141427,-1.0742543037949386,-0.8909751672802338
152,0.003306721202872425,0.09985877498619465,0.0434595771298744,0.03519793572784612,3.111198942415418,-0.25939709087782364,-1.5056424150714898,-0.6949229675281933,1.35944446685436,-0.7501709102507573,0.7822576615500868,0.47671315936966296,1.173824973698773,-2.832648429027873,-0.09600359467313158,-0.811843208440868,0.43994092564512965,0.14013988471084263,0.4906990266688413,-2.526214672991247,1.2382253857463483,-1.4694476056405343,0.18955859640862058,-2.9505593135299004,1.99062116357624,-0.5593253384482703,-1.7505802657890153,0.08963849856613512,-1.0731630922041924,-0.8925432475513206
153,0.004500000932474114,0.09814628757437116,0.04358608134350147,0.036014863843908534,3.111859755328854,-0.25984278213273215,-1.5076105999876293,-0.6948098589725361,1.3590093439142068,-0.7497357692742185,0.7831552564058972,0.47557735393252326,1.1739367638517553,-2.8333904822696185,-0.09756991603882398,-0.8121397709476839,0.43939395643272383,0.1402038152042351,0.4910157646767701,-2.5261549920387454,1.2385429256863223,-1.4692291686723458,0.19019221906670356,-2.952649079466938,1.9931963023780084,-0.5605338463704291,-1.7524804086960237,0.08853464404980997,-1.072077268947706,-0.8941077664310203
154,0.0056874888539362334,0.09643829088457578,0.043712443715811976,0.036828171809986196,3.1125214741869955,-0.26028744549396643,-1.509572432487708,-0.6946985241092299,1.3585769861724617,-0.7493003459467444,0.7840494941490868,0.47444291680082973,1.1740486210411363,-2.834133341381595,-0.09912873550552075,-0.8124360263592943,0.4388505411761472,0.14026680848443815,0.4913313052425193,-2.5260955198605366,1.2388615456984935,-1.4690143742002009,0.1908243560511538,-2.954735600864849,1.995765956252495,-0.5617396156045654,-1.7543766114128876,0.08743464031009834,-1.07099679576975,-0.8956687451524024
155,0.006869224334498175,0.09473476566718315,0.04383866298466142,0.037637862820033,3.113184088155792,-0.2607310824119678,-1.5115279442231184,-0.6945889467553398,1.3581473705797185,-0.7488646469966705,0.7849403969384955,0.47330984991519937,1.1741605438999585,-2.8348769965976715,-0.10068006874603055,-0.812731974723271,0.4383106495931572,0.1403288716456273,0.4916456518351589,-2.526036257423565,1.2391812280642913,-1.4688031950509213,0.19145501501086962,-2.956818883702591,1.9983301266171216,-0.5629426572507829,-1.7562688791771666,0.08633846489879116,-1.069921634760442,-0.8972262047395957
156,0.008045246445022884,0.0930356927908712,0.043964737918584545,0.03844394029281955,3.113847586410749,-0.26117369437582194,-1.513477166688499,-0.6944811108843981,1.357720474303117,-0.748428679103665,0.7858279867252274,0.4721781552317929,1.1742725310734885,-2.8356214381445035,-0.10222393188376482,-0.8130276160851506,0.43777425171048523,0.14039001171705728,0.4919588079843402,-2.5259772056692853,1.239501955264964,-1.4685956043121964,0.1920842034857885,-2.958898933924042,2.000888815113988,-0.564142982352066,-1.7581572174014377,0.0852460955026074,-1.068851748350705,-0.8987801660094783
157,0.009215593962146523,0.0913410532417048,0.044090667316302665,0.039246407867176536,3.114511958138186,-0.26161528291245484,-1.5154201312218598,-0.6943750006249167,1.3572962747241828,-0.7479924488991699,0.7867122852550666,0.47104783472073275,1.1743845812190674,-2.8363666562430345,-0.10376034148166682,-0.8133229504885613,0.4372413178603285,0.1404502356638905,0.4922707772778666,-2.525918365514087,1.239823709980707,-1.4683915753280978,0.19271192891025035,-2.9609757574379816,2.003442023608763,-0.5653406018935858,-1.7600416316677505,0.08415750994386707,-1.0677870993074388,-0.9003306495733963
158,0.010380305370393828,0.0896508281222618,0.044216450006235704,0.04004526939735057,3.115177192536461,-0.2620558495858275,-1.5173568690046981,-0.6942706002589107,1.3568747494366995,-0.7475559629668278,0.7875933140708437,0.46991889036459483,1.1744966930059615,-2.83711264110995,-0.10528931453130702,-0.8136179779753366,0.43671181867690917,0.1405095503880095,0.49258156335934056,-2.525859737849709,1.2401464750896711,-1.4681910816947736,0.19333819861617496,-2.963049360118121,2.0059897541893834,-0.5665355268020954,-1.7619221277222554,0.08307268618105125,-1.0667276507288919,-0.9018776758389074
159,0.011539418864262473,0.08796499865079697,0.04434208484601915,0.04084052894846624,3.1158432788171666,-0.26249539599613153,-1.5192874110621046,-0.6941678942204339,1.3564558762446148,-0.7471192278428922,0.7884710945147526,0.4687913241569693,1.174608865115216,-2.837859382959085,-0.10681086844214088,-0.8139126985856199,0.4361857250930963,0.14056796272881408,0.49289116992588167,-2.5258013235436483,1.2404702336668647,-1.4679940972563061,0.1939630198360689,-2.965119747803188,2.0085320091645817,-0.5677277679454064,-1.763798711469997,0.08199160230925881,-1.0656733660402138,-0.903421265011547
160,0.012692972350279485,0.08628354616043948,0.04446757072202607,0.04163219079208867,3.1165102062062924,-0.26293392377898595,-1.5212117882628668,-0.6940668670941256,1.3560396331599758,-0.746682250016626,0.7893456477306259,0.4676651381010844,1.174721096239509,-2.838606872002794,-0.10832502103092609,-0.814207112357959,0.43566300833708543,0.1406254794640039,0.49319960072591357,-2.5257431234395553,1.2407949689829636,-1.4678005961007243,0.19458639970587618,-2.9671869262970496,2.011068791062258,-0.56891733613194,-1.7656713889698625,0.08091423656056912,-1.0646242089891726,-0.9049614370966109
161,0.013841003449032316,0.08460645209842027,0.04459290654889438,0.04242025940188146,3.117177963945363,-0.26337143460463724,-1.5231300313195695,-0.693967503613769,1.355625998400892,-0.7462450359306873,0.7902169946661665,0.46654033420849034,1.1748333850830077,-2.8393550984532796,-0.10983179051129627,-0.8145012193293941,0.43514363992913313,0.14068210731034644,0.49350685955701606,-2.525685138357625,1.2411206645030366,-1.467610552556157,0.19520834526768518,-2.9692509013688775,2.013600102627712,-0.5701042421103459,-1.7675401664296806,0.07984056730431827,-1.063580143642026,-0.9064982119009547
162,0.014983549497176956,0.08293369802532584,0.04471809126905944,0.04320473944935519,3.1178465412925456,-0.2638079301771631,-1.5250421707886963,-0.6938697886608605,1.3552149503895277,-0.7458075919815033,0.7910851560751422,0.4654169144977977,1.1749457303612276,-2.840104052523883,-0.11133119548348858,-0.8147950195355379,0.43462759167834114,0.1407378529244318,0.49381295026384003,-2.5256273690949795,1.2414473038851999,-1.4674239411871157,0.1958288634723032,-2.971311678753346,2.0161259468217474,-0.571288496569183,-1.7694050502014582,0.07877057304729647,-1.0625411343795306,-0.9080316090348036
163,0.016120647549425167,0.0812652656143755,0.044843123852292124,0.04398563579970228,3.118515927523731,-0.2642434122336808,-1.5269482370707346,-0.6937737072631899,1.354806467750117,-0.7453699245196348,0.7919501525195433,0.4642948809934683,1.1750581308008914,-2.8408537244303425,-0.11282325492422281,-0.8150885130106499,0.434114835679489,0.14079272290341374,0.4941178767360824,-2.5255698164260414,1.2417748709792074,-1.4672407367909017,0.19644796118170912,-2.9733692641508638,2.018646326818668,-0.5724701101366565,-1.7712660467767538,0.07770423243387294,-1.0615071458930816,-0.9095616479135732
164,0.017252334380512678,0.0796011366507193,0.044968003295242434,0.04476295350771419,3.1191861119335904,-0.2646778825435615,-1.5288482604102835,-0.6936792445934319,1.3544005293070065,-0.7449320398501301,0.7928120043717057,0.4631742357246538,1.1751705851397924,-2.8416041043920135,-0.11430798817672976,-0.8153816997877058,0.43360534430991077,0.14084672378573815,0.4944216429065188,-2.5255124811029037,1.242103349824985,-1.4670609143941242,0.19706564517139352,-2.9754236632278332,2.0211612460041697,-0.5736490933804069,-1.7731231627821777,0.07664152424605429,-1.0604781431809704,-0.9110883477596969
165,0.01837864648714999,0.07794129303075431,0.045092728620988745,0.04553669781377745,3.119857083836604,-0.2651113429076501,-1.53074227089617,-0.6935863859677477,1.3539971140827185,-0.7444939442328702,0.7936707318164022,0.46205498072408063,1.1752830921266584,-2.8423551826330633,-0.11578541494092687,-0.8156745798984618,0.4330990902264144,0.14089986205185898,0.4947242527490923,-2.525455363855691,1.2424327246511169,-1.4668844492493254,0.1976819221325945,-2.9774748816169354,2.02367070797314,-0.5748254568073468,-1.7749764049750154,0.07558242740348195,-1.0594540915447521,-0.9126117276044592
166,0.019499620089957207,0.07628571676145689,0.04521729887859269,0.04630687413994512,3.120528832568068,-0.26554379515749255,-1.5326302984615705,-0.693495116844398,1.3535962012960385,-0.7440556438829057,0.7945263548529021,0.4609371180269768,1.1753956505210181,-2.843106949383629,-0.11725555526373936,-0.8159671533735152,0.43259604636224136,0.14095214412494206,0.49502571027705494,-2.5253984653929145,1.2427629798732902,-1.4667113168317043,0.19829679867443697,-2.9795229249174384,2.026174716527383,-0.57599921086354,-1.776825780238969,0.07452692096337335,-1.058434956585714,-0.9141318062898317
167,0.02061529113538418,0.0746343899597292,0.045341713142659786,0.0470734880860808,3.1212013474850773,-0.26597524115457016,-1.5345123728841434,-0.6934054228223666,1.353197770360124,-0.7436171449707859,0.7953788932970021,0.45982064967003955,1.1755082590930706,-2.843859394880952,-0.11871842952956507,-0.8162594202423616,0.4320961859240639,0.14100357637155725,0.49532601954116134,-2.5253417864018215,1.243094100092703,-1.4665414928359326,0.19891028132598246,-2.981567798695525,2.0286732756732637,-0.5771703659341215,-1.778671295580011,0.07347498412041137,-1.0574207042014394,-0.9156486024703114
