epoch,W1[0],W1[1],W1[2],W1[3],W1[4],W1[5],W1[6],W1[7],W1[8],W1[9],W1[10],W1[11],W1[12],W1[13],W1[14],W1[15],W1[16],W1[17],W1[18],W1[19],W2[0],W2[1],W2[2],W2[3],W2[4],W2[5],W2[6],W2[7],W2[8],W2[9]
0,-1.6435368260452403,-1.060238406949901,-2.050346265243786,-1.5176484927607155,0.2744742981311224,-1.295097655229068,0.5802515980650976,-0.1440277823530134,1.5534304563822536,0.7845314148934018,0.22644927191309802,-0.4625970804762037,-0.4492718649512137,-0.6704919343472732,-0.25269603489001635,-1.7767040851957152,-0.14017600460343518,-0.14206847093553263,-0.28326093988301054,0.23806833525364055,-1.0365881164119681,-1.2117063405611017,-1.174635355596026,-0.3742091405086845,-1.0761239129698101,1.1688898937791337,-0.2753903595497554,1.1052712989592588,-0.7128368897936403,-0.654928156904819
1,-1.6450048790513134,-1.0616961503139888,-2.0509986707700065,-1.5179050952039825,0.2721074368918856,-1.2949469224585646,0.5796721655808983,-0.14166236708977245,1.552323797127142,0.7834401806647204,0.22493796267006252,-0.46424415954626874,-0.44990481583152603,-0.6707801946547374,-0.25533457363653694,-1.776303624105241,-0.14081622769118665,-0.13941969344284852,-0.28441011999127425,0.23684988436032056,-1.0358257607280266,-1.2111476371688417,-1.174906155864024,-0.37429445695779656,-1.072722486249943,1.168304618204964,-0.2710526594685479,1.108037401632608,-0.7069789521798426,-0.6494027874926559
2,-1.6464838255944116,-1.0631601310695893,-2.05165467803478,-1.5181629099640426,0.2697245976500638,-1.2948030958389756,0.5790958815118633,-0.13926518731639229,1.551212310308106,0.7823464337287448,0.2234143598347696,-0.46590482801620753,-0.450540747687256,-0.6710709995492828,-0.25799971228433466,-1.7759001453486067,-0.14145483398864353,-0.1367267751570745,-0.2855659093996926,0.2356246562597331,-1.0350857329558618,-1.2106147555876476,-1.1752048077717354,-0.37440653541550833,-1.0693295396971279,1.1676879775983995,-0.2667016549206572,1.1108192116714528,-0.701093433521894,-0.6438516838011716
3,-1.6479731635712278,-1.0646296081028495,-2.0523139558944488,-1.5184217983618546,0.2673267517528894,-1.2946667056890964,0.5785231406234383,-0.13683683123866205,1.5500965148859858,0.7812507691965225,0.2218789458713136,-0.4675785793472574,-0.4511792984185566,-0.6713642571324411,-0.2606908195504992,-1.7754938575600459,-0.1420914308875105,-0.13398983937302542,-0.286727834890239,0.23439315529846172,-1.0343697717483369,-1.210109439120824,-1.1755325999660404,-0.37454678042507356,-1.065948098547004,1.1670387444947379,-0.2623402856491357,1.1136148268193422,-0.6951838145663443,-0.6382781057128372
4,-1.649472353828022,-1.066103799524783,-2.052976152647006,-1.518681613506572,0.2649149343046764,-1.2945382952456628,0.5779543413948435,-0.1343779773871584,1.5489769550005792,0.7801538055274888,0.22033224321158557,-0.4692648645145498,-0.45182008375867155,-0.6716598673368444,-0.26340719792404166,-1.7750849854644921,-0.14272561805125933,-0.13120909789854796,-0.28789539609364545,0.23315591420942627,-1.0336796569361109,-1.2096334662005641,-1.1758908356550046,-0.37471661810836476,-1.062581304196788,1.166355687786816,-0.25797164935056316,1.1164222169166724,-0.689253781940245,-0.6326855051457361
5,-1.6509808209527819,-1.0675818843230314,-2.0536408966677486,-1.5189422005573747,0.26249024225538214,-1.294418418700915,0.5773898841628767,-0.13188939602364694,1.5478541984802003,0.7790561825664023,0.21877481374464527,-0.47096309256691055,-0.4524626979284022,-0.671957722004551,-0.26614808396755246,-1.7746737696659545,-0.1433569890364956,-0.12838485446177872,-0.28906806664754525,0.23191349286971463,-1.0330172032920306,-1.2091886438858959,-1.1762808273721124,-0.3749174906346329,-1.0592324051915403,1.1656375784631055,-0.253598994910872,1.1192392270412184,-0.6833072208966338,-0.6270775192308645
6,-1.6524979544327474,-1.0690630044714249,-2.054307797267119,-1.5192033970730894,0.2600538318246627,-1.294307638972827,0.5768301691312924,-0.1293719498291607,1.5467288350485018,0.7779585592632036,0.21720725792765128,-0.47267263159210904,-0.4531067145371489,-0.6722577050433189,-0.2689126491992875,-1.774260466273879,-0.14398513307260752,-0.12551750756064275,-0.29024529565648777,0.23066647674292476,-1.0323842534516319,-1.2087768005573933,-1.1767038911951084,-0.37515085005636895,-1.0559047465487394,1.164883195846513,-0.24922571372983862,1.1220635821050449,-0.6773482057004857,-0.6214579612829435
7,-1.6540231101920493,-1.0705462675083273,-2.0549764457784936,-1.5194650334525432,0.25760691524123036,-1.2942065252126915,0.5762755942625891,-0.12682659380213218,1.5456014742286033,0.7768616110811984,0.21563021349751368,-0.47439281010973516,-0.45375168774162256,-0.6725596926657458,-0.27170000159096247,-1.7738453463574957,-0.14460963698823748,-0.12260755266908877,-0.2914265094587465,0.2294154750013858,-1.031782670001154,-1.2083997778271809,-1.1771613404392711,-0.37541815152961994,-1.052601757412764,1.1640913343034922,-0.24485532907586724,1.1248928929857211,-0.6713809875722717,-0.6158308094869411
8,-1.6555556125183324,-1.0720307495867822,-2.055646416879993,-1.5197269334671537,0.25515075678858046,-1.2941156500604996,0.5757265530729366,-0.12425437430332227,1.5444727429504548,0.7757660271055632,0.21404435376798528,-0.47612291890791486,-0.45439715366951955,-0.6728635537151101,-0.2745091877081828,-1.77342869522048,-0.14523008726917513,-0.11965558371849651,-0.2926111136993824,0.2281611183293583,-1.0312143267617944,-1.2080594216998763,-1.1776544788571386,-0.3757208459498994,-1.0493269370625187,1.1632608103805866,-0.2404914834452714,1.1277246642475378,-0.6654099801456658,-0.6102001932592426
9,-1.6570947563804823,-1.0735154989905447,-2.056317270150167,-1.519988914885603,0.25268666816088975,-1.2940355866647344,0.5751834323547218,-0.12165642719531736,1.5433432828737168,0.7746725068711693,0.2124503855034948,-0.4778622133329963,-0.45504263211099427,-0.6731691500804446,-0.27733919551046227,-1.7730108114910845,-0.1458460722283069,-0.11666229377923601,-0.2937984957029773,0.2269040564146464,-1.0306810993176658,-1.2077575730384489,-1.1781845933896595,-0.37606037204958537,-1.0460838393302758,1.162390470312506,-0.2361379239374637,1.1305563034819,-0.6594397424412071,-0.6045703772846346
10,-1.6586398101320456,-1.0749995401003292,-2.056988551852726,-1.5202507901886202,0.25021600314685705,-1.2939669054896612,0.5746466098546614,-0.11903397503801143,1.5422137474451283,0.7735817569359291,0.21084904636856278,-0.4796099160332473,-0.45568762847571115,-0.6734763372018484,-0.2801889578163291,-1.772592006026181,-0.14645718426440923,-0.11362847487661504,-0.2949880271329526,0.22564495514284386,-1.0301848548546622,-1.2074960574080582,-1.178752946527108,-0.37643814801805203,-1.0428760555270238,1.1614791978326897,-0.23179848569861802,1.1333851322655761,-0.6534749594080366,-0.5989457432772438
11,-1.6601900185868188,-1.0764818777843046,-2.057659796940471,-1.5205123673699392,0.24774015167410623,-1.293910170939738,0.5741164519384552,-0.11638832331758482,1.5410847987161282,0.7724944872330505,0.20924110195997767,-0.4813652201486553,-0.45633163600771426,-0.6737849646653403,-0.28305735642630364,-1.772172600631347,-0.14706302218298636,-0.11055501688742145,-0.296179066917612,0.2243844935154989,-1.0297274413976039,-1.207276674390226,-1.1793607683514957,-0.37685556272128806,-1.0397071960082558,1.1605259222044186,-0.22747707353052968,1.1362083987015918,-0.647520420140059,-0.5933307695642319
12,-1.661744606444585,-1.077961502176292,-2.0583305312633446,-1.5207734508174617,0.24526053326208916,-1.2938659378371877,0.5735933112753779,-0.11372085570473783,1.5399571039531994,0.7714114072424928,0.20762734243785258,-0.48312729292932727,-0.4569741382444489,-0.6740948768846999,-0.2859432268828652,-1.771752926603127,-0.14766319354918292,-0.10744290547783335,-0.29737096441619487,0.22312336032060262,-1.029310676553013,-1.2071011864785326,-1.1800092483451774,-0.37731396661289923,-1.0365808705529902,1.159529626378432,-0.2231776418073554,1.1390232914710718,-0.6415809939295695,-0.5877300086440461
13,-1.6633027820363744,-1.0794373937946373,-2.0590002739602418,-1.5210338422666072,0.2427785899467092,-1.2938347477947911,0.5730775245779043,-0.11103302835790337,1.5388313320797442,0.7703332220282783,0.2060085787809784,-0.4848952797550231,-0.4576146117001747,-0.6744059138657846,-0.2888453638322819,-1.7713333231038306,-0.14825731704020206,-0.1042932190603846,-0.2985630627915421,0.2218622505907361,-1.0289363358839085,-1.2069713076847284,-1.1806995270623795,-0.37781466244260636,-1.033500667766539,1.1584893551721414,-0.21890417288923247,1.1418269552862668,-0.6356616043787678,-0.5821480629247182
14,-1.6648637413501894,-1.0809085289447034,-2.0596685400090893,-1.5212933418158383,0.2402957787545959,-1.293817125531351,0.5725694104322778,-0.10832636330828968,1.5377081499940413,0.7692606281938383,0.20438563870124565,-0.48666830851832443,-0.4582525287479223,-0.6747179120468165,-0.2917625269388157,-1.7709141353835132,-0.14884502476277167,-0.10110712476655428,-0.29975470254970416,0.22060186189069025,-1.0286061410603726,-1.2068886919999409,-1.1814326877709693,-0.3783588958810304,-1.0304701337526898,1.1574042233564779,-0.21466065426682515,1.1446165075965808,-0.6297672018456738,-0.5765895589002419
15,-1.666426672290212,-1.0823738853387668,-2.060334842904891,-1.5215517489924837,0.23781356381851979,-1.293813575181761,0.5720692672557988,-0.10560244098522198,1.5365882188127002,0.7681943098120168,0.20275936226099844,-0.4884454943242075,-0.45888736066827795,-0.6750307052061575,-0.2946934472878262,-1.7704957128680312,-0.14942596450015427,-0.09788587345188611,-0.300945225201226,0.21934289048212777,-1.0283217479445084,-1.2068549218688331,-1.1822097481804135,-0.37894784619010524,-1.027492750332028,1.1562734235296301,-0.21045105471288297,1.1473890563620102,-0.623902734553612,-0.5710591200724321
16,-1.6679907591153882,-1.0838324478591956,-2.060998697431178,-1.5218088638553307,0.23533340823727258,-1.2938245766569558,0.5715773714154375,-0.10286289196160564,1.5354721900927988,0.7671349343894518,0.20113059724566223,-0.49022594444971274,-0.45951858082786745,-0.6753441254272171,-0.2976368342012087,-1.7700784071360505,-0.14999980185308515,-0.09463079377171386,-0.3021339769941741,0.21808602741763292,-1.0280847347800792,-1.2068714968443903,-1.1830316523780502,-0.379582617076305,-1.0245719131086546,1.1550962336528996,-0.20627929975414172,1.1501417186734744,-0.6180731187404488,-0.5655613389698314
17,-1.669555186997303,-1.0852832143845055,-2.0616596224867543,-1.5220644881190883,0.23285676579291173,-1.293850582111015,0.5710939755401684,-0.10010938801961757,1.534360702088344,0.7660831489266354,0.19950019435150726,-0.49200876349936434,-0.4601456679456798,-0.6756580041084351,-0.3005913823769511,-1.7696625698114998,-0.1505662222399134,-0.09134328538685584,-0.3033203126654579,0.21683195462005006,-1.0278965906648687,-1.206939822596901,-1.1838992630991214,-0.38026422786850894,-1.0217109097062047,1.1538720241229792,-0.20214924680762988,1.1528716399685734,-0.6122832082630092,-0.5601007486521767
18,-1.6711191466326791,-1.0867252015935696,-2.062317143926997,-1.5223184262847955,0.23038507264510225,-1.293892012573155,0.57061930705619,-0.09734363265512999,1.5332543760976904,0.7650395761348494,0.19786900225463958,-0.49379305868534057,-0.46076810940153917,-0.6759721730048186,-0.3035557792548705,-1.7692485504010105,-0.15112493272313202,-0.08802481137927289,-0.30450359915483494,0.21558134100515405,-1.027758704487103,-1.2070612004521322,-1.184813354456119,-0.3809936051633559,-1.0189128985047222,1.1526002642574318,-0.19806466034810757,1.1555760135657533,-0.60653776410164,-0.5546817941168491
19,-1.672681838842898,-1.088157450661138,-2.062970797377365,-1.522570486759633,0.22791973912600846,-1.2939492548011953,0.5701535669700272,-0.09456735115510202,1.5321538129579617,0.76400481086934,0.19623786263195891,-0.4955779451564476,-0.4613854045382954,-0.6762864652863634,-0.30652871250324387,-1.7688366941082314,-0.15167566363239143,-0.08467688997686804,-0.3056832192253157,0.21433483870627698,-1.0276723545057187,-1.2072368176303765,-1.1857746052497056,-0.3817715750780786,-1.0161808882117596,1.151280528076138,-0.1940291874866635,1.158252100221002,-0.6008414242280808,-0.5493088040410781
20,-1.6742424790918282,-1.089579032758081,-2.0636201309763225,-1.5228204829494172,0.22546214175953413,-1.2940226584102477,0.5696969289195238,-0.09178228039454103,1.531059589740342,0.7629794168345162,0.19460760520764941,-0.49736255129695806,-0.4619970679078129,-0.6766007165979053,-0.3095088775164367,-1.7684273396584351,-0.15221816995792475,-0.08130108570357267,-0.3068585749345859,0.2130930794584589,-1.0276386987476391,-1.2074677383498287,-1.186783592976671,-0.38259885624395057,-1.0135177185935496,1.1499124992709802,-0.1900463343434894,1.1608972474000783,-0.5951986743054727,-0.5439859632993106
21,-1.6758003018540273,-1.0909890542724716,-2.0642647080056378,-1.5230682343073376,0.2230136156255752,-1.2941125333259296,0.5692495385070987,-0.08899015850806681,1.5299722566963478,0.7619639236117298,0.19297904289960863,-0.4991460239155161,-0.46260263241069954,-0.676914766104566,-0.3124949848120024,-1.7680208171674394,-0.1527522324929549,-0.07789900008491626,-0.3080290909045486,0.21185667119698523,-1.0276587663835497,-1.2077548959447022,-1.1878407886401783,-0.38347605366267107,-1.0109260426751723,1.1484959752688868,-0.18611944359002458,1.1635089079566565,-0.5896138196817818,-0.5387172866884479
22,-1.6773545647680954,-1.0923866616727276,-2.0649041093679497,-1.523313567323251,0.2205754471833769,-1.294219147605413,0.5688115129235487,-0.08619271459519971,1.5288923344999867,0.7609588240534817,0.19135296713899227,-0.500927533245676,-0.46320165228098154,-0.6772284575070134,-0.31548576721719945,-1.7676174460885148,-0.15327765870894697,-0.07447226204982543,-0.3091942173401022,0.2106261949208889,-1.0277334502271769,-1.2080990861309484,-1.1889465524541456,-0.38440365353349715,-1.0084083106926425,1.1470308703092207,-0.18225167351698326,1.1660846579130253,-0.5840909591170662,-0.5335065942744756
23,-1.6789045525145174,-1.093771045941374,-2.0655379358746053,-1.523556316439029,0.21814886765827896,-1.2943427256623172,0.5683829408643724,-0.08339165861802524,1.527820311824231,0.7599645720799311,0.1897301434327635,-0.5027062776832113,-0.4637937058695846,-0.677541640011248,-0.318479986739431,-1.7672175332696105,-0.15379428335332382,-0.07102251817600425,-0.31035343275367555,0.20940220186627073,-1.0278635004822394,-1.2085009615308782,-1.1901011305173919,-0.3853820191411188,-1.0059667560455439,1.1455172174749144,-0.17844597895569544,1.1686222130551178,-0.5786339606513583,-0.5283574887428382
24,-1.6804495803635595,-1.0951414465173352,-2.0661658103109035,-1.523796324877052,0.21573504708344027,-1.2944834469230528,0.5679638827342788,-0.0805886716448554,1.5267566432827138,0.758981580904658,0.18811130723389194,-0.5044814881910029,-0.46437839818444826,-0.677854169238544,-0.3214764410225991,-1.7668213711509642,-0.15430196876526703,-0.06755142292864758,-0.3115062463586494,0.20818521102733312,-1.0280495198367199,-1.2089610275431268,-1.1913046525146553,-0.3864113878737208,-1.0036033834573768,1.1439551696371157,-0.17470509434165785,1.1711194440772412,-0.5732464399745983,-0.5232733350927367
25,-1.6819889973464728,-1.0964971546956426,-2.0667873792508957,-1.5240334453708735,0.21333508907303678,-1.2946414449330514,0.5675543711294884,-0.07778539658411719,1.525701747759289,0.7580102217070781,0.18649716017683726,-0.5062524323098743,-0.4649553631502443,-0.6781659080624886,-0.32447396930149297,-1.7664292361300198,-0.15480060491125838,-0.06406062904036072,-0.312652200102354,0.20697570705509363,-1.0282919599767417,-1.2094796396170988,-1.192557130481387,-0.3874918694180916,-1.0013199595036555,1.1423449992947308,-0.17103151916257292,1.1735743900431093,-0.5679317416046606,-0.5182572429638876
26,-1.6835221890120928,-1.097837516445665,-2.0674023145996263,-1.524267540789278,0.21095002638650454,-1.2948168069216957,0.5671544115818223,-0.07498342953935132,1.524656007139392,0.7570508227590912,0.1848883667274444,-0.508018417722908,-0.4655242655568054,-0.6784767273617106,-0.32747145777869563,-1.7660413871167078,-0.15529010914785749,-0.0605517781741259,-0.31379087031755365,0.20577413855514606,-1.028591119563095,-1.2100570019622423,-1.1938584586480367,-0.3886234451548047,-0.9991180056167124,1.140687097312373,-0.16742750598019368,1.175985269967503,-0.5626929231161635,-0.5133120518251064
27,-1.6850485797405577,-1.0991619346219423,-2.0680103148468727,-1.5244984846473528,0.20858081732530664,-1.2950095738250553,0.566763983543624,-0.07218431189947735,1.523619765448317,0.7561036690038213,0.18328555128670204,-0.5097787953311887,-0.4660848026722626,-0.6787865066788352,-0.33046784436260107,-1.7656580642976647,-0.15577042572465508,-0.057026492001278725,-0.3149218689799036,0.2045809167968951,-1.0289471436833764,-1.2106931676932653,-1.1952084143581134,-0.3898059687522572,-0.9969987936230186,1.1389819705820885,-0.16389505115798683,1.1783504923656474,-0.5575327425938588,-0.5084403191896187
28,-1.686567634595949,-1.1004698705549691,-2.0686111060228956,-1.5247261615006675,0.20622834298511517,-1.2952197407560855,0.5663830415883995,-0.06938952325908412,1.5225933283929114,0.755169002075023,0.18168929577734638,-0.5115329618101758,-0.46663670550428454,-0.6790951347783333,-0.33346212272043085,-1.7652794881230924,-0.15624152504520883,-0.053486363813210674,-0.3160448445674738,0.20339641483773474,-1.0293600247628623,-1.2113880403837207,-1.1966066600333491,-0.39103916793454563,-0.9949633438155487,1.1372302386550694,-0.16043588836712275,1.1806686626635445,-0.5524536494125549,-0.5036443119546975
29,-1.688078860709803,-1.1017608450223488,-2.0692044423531346,-1.5249504672211525,0.20389340536789516,-1.295447257903079,0.566011516798819,-0.06660047524224218,1.5215769632950833,0.7542470207371916,0.1801001377314226,-0.5132803616275879,-0.4671797397004338,-0.6794025100982065,-0.33645334561603746,-1.7649058585248363,-0.15670340270791228,-0.04993295076950289,-0.3171594825267711,0.20222096705698667,-1.0298296048886248,-1.212141376973249,-1.1980527461395432,-0.392322647375594,-0.9930124255121554,1.1354326294087151,-0.15705148488377074,1.182938588410315,-0.5474577783733944,-0.49892600089553624
30,-1.6895818081972906,-1.1030344386131656,-2.069790106615016,-1.5251713091556718,0.2015767263407854,-1.2956920318291743,0.5656493183114527,-0.06381850628105597,1.5205708993981564,0.753337881718883,0.17851856888604073,-0.5150204885153641,-0.4677137060862312,-0.6797085410927549,-0.3394406275182033,-1.7645373543691123,-0.15715607835206266,-0.04636776686712353,-0.3182655053574808,0.20105486908635048,-1.0303555794749792,-1.2129527919490128,-1.199546115088708,-0.39365589265135,-0.9911465600028009,1.1335899738312503,-0.15374304063320507,1.185159282281292,-0.5425469471564064,-0.49428705827759445
31,-1.6910760706171166,-1.1042902915098363,-2.0703679102058334,-1.5253886061705435,0.199278947412448,-1.2959539271388356,0.565296334986329,-0.06104487737772017,1.5195753285207212,0.7524417009054257,0.17694503428405287,-0.5167528863995412,-0.4682384408467965,-0.6800131464659438,-0.3424231464805373,-1.7641741331423055,-0.15759959433681686,-0.04279227669593661,-0.31936267233515253,0.1998983781163849,-1.0309375021748932,-1.2138217627002397,-1.201086105997523,-0.39503827516383744,-0.98936602574529,1.1317032000202012,-0.15051148988269414,1.1873299629065501,-0.5377226569839149,-0.489728858490154
32,-1.6925612849945333,-1.1055281027217578,-2.0709376929358645,-1.5256022885872846,0.19700063028316706,-1.2962327684716202,0.5649524371690843,-0.0582807688570144,1.518590406027356,0.7515585548522138,0.17537993186657078,-0.5184771498024107,-0.46875381536467775,-0.6803162552970452,-0.3454001453084501,-1.7638163308635648,-0.15803401428223707,-0.03920789002583331,-0.3204507788970882,0.19875171355232885,-1.0315747909221415,-1.214747635926833,-1.2026719602092186,-0.39646905793586884,-0.9876708656320282,1.129773326502036,-0.1473575054371572,1.1894500536022088,-0.5329860963305495,-0.4852524815483681
33,-1.6940371314341378,-1.1067476288135425,-2.071499322565385,-1.5258122980166149,0.19474225811276036,-1.2965283427793246,0.5646174785140369,-0.05552727809566918,1.517616252081522,0.7506884825761843,0.17382361253541287,-0.5201929237407777,-0.4692597357325046,-0.6806178070622119,-0.34837093204164526,-1.7634640622136757,-0.15845942150224948,-0.03561595725103318,-0.3215296557216197,0.19761505798751688,-1.0322667349731682,-1.2157296349691034,-1.2043028274761134,-0.39794740216359187,-0.9860608961201417,1.1278014549879982,-0.14428150515038338,1.1915191791199986,-0.528338147464851,-0.4808587192631346
34,-1.6955033323551183,-1.1079486821773623,-2.0720526941078843,-1.5260185870991991,0.19250423744055295,-1.296840401839817,0.5642912978378809,-0.05278541819645725,1.5166529531431037,0.7498314875808901,0.17227638065593892,-0.5218999031523183,-0.46975614196425336,-0.6809177515573968,-0.3513348797917823,-1.7631174208660148,-0.15887591735912943,-0.032017765698170435,-0.32259916753471973,0.19648855845881388,-1.0330125028060873,-1.2167668679159709,-1.2059777726932612,-0.39947237440592925,-0.9845357179945106,1.1257887626855863,-0.14128366053109226,1.193537160563232,-0.5237793955658624,-0.47654808383873093
35,-1.6969596513862923,-1.109131128903854,-2.072597728924614,-1.5262211191627266,0.19028690068435325,-1.297168664959462,0.5639737209757187,-0.050056117558662926,1.5157005636714544,0.7489875400697298,0.1707384949644445,-0.5235978318887501,-0.470243006933093,-0.6812160487295188,-0.3542914259842371,-1.7627764800023533,-0.15928361956816803,-0.028414536787242504,-0.3236592116804515,0.19537232794590764,-1.033811150727046,-1.2178583363434892,-1.2076957830699848,-0.40104295428537046,-0.9830947285180356,1.1237364942863335,-0.1383639071977555,1.1955040086438091,-0.5193101401262757,-0.4723208186278956
36,-1.6984058919615965,-1.1102948863091648,-2.073134373637509,-1.526419867805702,0.18809050914056277,-1.297512821815987,0.5636645626137079,-0.047340220283070965,1.5147591079943246,0.7481565793022805,0.1692101698394279,-0.5252865013197232,-0.4707203350669437,-0.6815126684239778,-0.3572400710600922,-1.76244129299393,-0.15968266047957955,-0.02480742401880332,-0.32470971649316643,0.1942664470749132,-1.0346616320311681,-1.2190029445340687,-1.209455775625386,-0.4026580425733519,-0.981737134715593,1.1216459537487526,-0.1355219569190023,1.1974199154748861,-0.5149304083318138,-0.4681769107531143
37,-1.699841895658677,-1.1114399201771445,-2.073662598888611,-1.5266148164187872,0.18591525640513315,-1.2978725353947678,0.5633636280755414,-0.04463848733896287,1.5138285823036217,0.7473385160501509,0.1676915768926243,-0.5269657485949698,-0.4711881608350099,-0.6818075900575197,-0.36018037669961445,-1.7621118942265654,-0.16007318536259416,-0.02119751174725881,-0.32575063950968147,0.19317096598648106,-1.0355628065662177,-1.2201995090290108,-1.2112566048959699,-0.40431646953536765,-0.9804619675371852,1.1195184959908355,-0.1327573109673599,1.19928524510725,-0.5106399700943199,-0.4641161052910315
38,-1.701267540323983,-1.1125662417755342,-2.074182397974416,-1.5268059576546869,0.18376127213487087,-1.2982474449736925,0.5630707150431686,-0.041951598412847374,1.512908956740412,0.7465332351111587,0.1661828468336816,-0.528635454614392,-0.4716465470596895,-0.6821008022260565,-0.3631119636315876,-1.7617883000476318,-0.1604553507141761,-0.017585814688967732,-0.3267819655590112,0.19208590632934439,-1.036513450551561,-1.2214467683724812,-1.2130970707479953,-0.40601700341562896,-0.9792680966510906,1.1173555185997175,-0.13006927451251107,1.20110052302453,-0.5064383544128875,-0.460137920713615
39,-1.7026827380273988,-1.113673904703471,-2.074693785383141,-1.5269932928574472,0.1816286260703307,-1.2986371691148046,0.5627856151954655,-0.03928015435369742,1.512000177533779,0.7457405978437589,0.1646840715616412,-0.5302955417564936,-0.4720955830884748,-0.6823923022573664,-0.3660345090940995,-1.7614705098123655,-0.16082932261203825,-0.013973278105151254,-0.3278037047657411,0.19101126334184626,-1.0375122665124814,-1.2227433929133547,-1.2149759261937085,-0.4077583589481337,-0.9781542456285222,1.1151584536574686,-0.1274569717854263,1.2028664248135341,-0.5023248667424022,-0.4562416652841254
40,-1.704087432888105,-1.1147630016249144,-2.0751967952618786,-1.527176831461686,0.17951733224494193,-1.2990413086246397,0.5625081157518632,-0.03662468012713605,1.5111021691609587,0.744960444687315,0.16319530643685065,-0.5319459714150321,-0.4725353828598445,-0.6826820957186536,-0.3689477440119221,-1.7611585070072775,-0.16119527512871037,-0.01036077859334614,-0.3288158905009451,0.18994700798630504,-1.0385578931998625,-1.2240879945418934,-1.2168918851187978,-0.4095392057899498,-0.9771190072964799,1.1129287597718949,-0.12491936175573112,1.2045837642218657,-0.49829860706099727,-0.45242645411707005
41,-1.705481598811212,-1.1158336609389425,-2.0756914798390707,-1.527356590371716,0.177427353309763,-1.2994594494493705,0.5622380009111347,-0.033985628191048896,1.510214836499375,0.7441925976378299,0.16171657268842263,-0.533586741392138,-0.47296608289581243,-0.6829701958887792,-0.3718514499536996,-1.7608522604291728,-0.16155338882046685,-0.00674912541718675,-0.32981857731182973,0.1888930891039377,-1.0396489153771302,-1.225479136250443,-1.2188436298378467,-0.4113581767829004,-0.9761608590541541,1.1106679143901812,-0.12245525408047786,1.2062534808062708,-0.49435848834592355,-0.4486912266280187
42,-1.706865237171915,-1.1168860434334922,-2.0761779078258,-1.5275325933298114,0.17535860490904223,-1.2998911654753702,0.5619750531785471,-0.03136338220719088,1.5093380669447027,0.7434368626529785,0.16024785991468946,-0.5352178831936129,-0.473387840251879,-0.6832566232045943,-0.37474545592902303,-1.760551725399481,-0.16190384930202525,-0.0031390623024858256,-0.33081183885818705,0.18784943556131514,-1.0407838733695813,-1.2269153414206653,-1.2208298184048196,-0.41321387596119746,-0.9752781779694172,1.1083774064615899,-0.12006332510205087,1.207876627362705,-0.4905032551899404,-0.4450347641202399
43,-1.708238374480659,-1.1179203389642494,-2.076656162817178,-1.5277048702820497,0.1733109600482663,-1.3003360212104302,0.561719054577343,-0.02875826100715759,1.5084717324726933,0.7426930319645472,0.15878912863710906,-0.5368394592688601,-0.47380083045274257,-0.6835414046902775,-0.37762963508136954,-1.7602568449951097,-0.1622468459151648,0.0004687303723327333,-0.33179576588039184,0.18681595836281786,-1.0419612722852687,-1.2283951027537976,-1.222849091616333,-0.41510488623447195,-0.974469255494719,1.1060587295036575,-0.11774213369519611,1.2094543573137209,-0.4867315023162968,-0.4414557072794078
44,-1.7096010600592224,-1.118936763195238,-2.0771263417127117,-1.5278734567492476,0.17128425340331846,-1.3007935743254824,0.5614697877429811,-0.026170522736256766,1.5076156916261323,0.7419608862805643,0.1573403128715798,-0.5384515602341234,-0.4742052454394104,-0.6838245733779106,-0.38050390132808176,-1.7599675512787964,-0.1625825704968448,0.004073633061683417,-0.3327704642202232,0.18579255270716322,-1.0431795908309944,-1.2299168907745435,-1.224900079656284,-0.4170297766877016,-0.9737323116652058,1.1037133751147223,-0.11549013678714493,1.2109879122112805,-0.48304169277849573,-0.43795257337400817
45,-1.7109533637538843,-1.1199355544323926,-2.0775885531720286,-1.5280383932095818,0.1692782855264891,-1.3012633780411373,0.5612270369007162,-0.023600369104997403,1.5067697914118345,0.7412401968634008,0.15590132268495277,-0.5400543021135678,-0.4746012915504111,-0.6841061677267785,-0.3833682059932821,-1.7596837665138445,-0.1629112162500703,0.00767508428132882,-0.3337360529123358,0.18477909996966846,-1.0444372896612337,-1.2314791618530805,-1.2269814083410364,-0.41898710945140016,-0.9730655086653923,1.101342826964469,-0.11330570439959546,1.2124786094942719,-0.4794321756602466,-0.43452377298652306
46,-1.7122953737080528,-1.1209169705761888,-2.0780429161198435,-1.5281997244985255,0.16729282691216063,-1.3017449833475803,0.5609905887289172,-0.02104794968478937,1.5059338690959354,0.7405307274738413,0.1544720467085408,-0.5416478236284182,-0.47498918755676767,-0.6843862310480596,-0.3862225344740827,-1.7594054043501415,-0.1632329767186829,0.011272577643012874,-0.33469266236084727,0.1837754695954018,-1.0457328192116213,-1.2330803657029812,-1.2290917049345524,-0.420975446106819,-0.9724669636735783,1.0989485552837128,-0.11118713408613795,1.2139278306205366,-0.4759012031203515,-0.43116762612809345
47,-1.7136271942130064,-1.1218812862143794,-2.0784895583115985,-1.5283574992307958,0.16532762189184796,-1.302237941050266,0.5607602331120259,-0.018513366191720493,1.5051077538888642,0.7398322361745224,0.1530523545844787,-0.5432322835600019,-0.4753691627673338,-0.684664810940738,-0.3890669029748436,-1.7591323709703686,-0.1635480448654627,0.014865658753383757,-0.33564043261232007,0.18278152089167804,-1.0470646269816872,-1.2347189523253097,-1.2312296035123982,-0.4229933536015979,-0.9719347609149247,1.0965320118650541,-0.10913266466289674,1.2153370096737386,-0.47244694665594716,-0.4278823776163889
48,-1.7149489436518297,-1.1228287898711338,-2.0789286149688753,-1.5285117692481143,0.16338239233476776,-1.3027418036373866,0.5605357637882451,-0.01599667670969391,1.5042912685142187,0.7391444769891699,0.15164209932477965,-0.5448078582082416,-0.4757414552181097,-0.684941958743717,-0.3919013553387103,-1.7588645661872961,-0.16385661225141648,0.01845392202994717,-0.3365795117334573,0.18179710471141938,-1.0484311642436037,-1.2363933783806076,-1.233393749862315,-0.42503940966111875,-0.9714669628742902,1.094094625577399,-0.10714048915317906,1.2167076225264046,-0.46906751248488154,-0.42466621162223855
49,-1.7162607525482743,-1.1237597814244957,-2.0793602274914917,-1.5286625890957353,0.1614568411361296,-1.3032561269682112,0.5603169788979456,-0.013497899811548229,1.5034842306582934,0.7384672014167155,0.1502411195667659,-0.5463747389630278,-0.4761063099562982,-0.6852177290082915,-0.39472596000035926,-1.7586018844849514,-0.16415886831288745,0.022037007481065338,-0.33751005429913733,0.18082206502168494,-1.0498308921646462,-1.238102112980768,-1.2355828059169172,-0.42711220768964625,-0.9710616206383073,1.0916377983897811,-0.10520876688835941,1.2180411766223833,-0.46576095597354916,-0.42151726531471817
50,-1.717562761729181,-1.1246745697000935,-2.079784542251202,-1.528810015529918,0.15955065548081798,-1.3037804717840984,0.5601036814394217,-0.011017018543870629,1.5026864542992213,0.7378001598016457,0.14884924171215563,-0.5479331300020168,-0.4764639774271926,-0.6854921789943382,-0.39754080707888284,-1.7583442159982183,-0.16445499973214114,0.02561459749118879,-0.3384322199940131,0.17985624035415046,-1.0512622873407882,-1.239843642901854,-1.2377954537210014,-0.42921036116312006,-0.9707167833525716,1.0891629018934128,-0.10333563472679971,1.219339201425111,-0.46252529505988516,-0.4184336415565118
51,-1.718855120606321,-1.1255734702454994,-2.080201709470115,-1.5289541070578156,0.15766350987501954,-1.3043144050462678,0.5598956796390291,-0.008553984247911407,1.5018977509165774,0.7371431025638211,0.14746628194041536,-0.5494832461248321,-0.47681471196953346,-0.685765368192844,-0.40034600562513917,-1.758091447427062,-0.16474518989633852,0.02918641364674229,-0.33934617232880093,0.17889946513648416,-1.0527238467472884,-1.2416164772267158,-1.240030398941922,-0.43133250752216595,-0.9704305067941557,1.08667127430546,-0.10151921737012624,1.2206032395626587,-0.4593585226422002,-0.41541342062124254
52,-1.720137985581023,-1.1264568032865452,-2.0806118821853614,-1.5290949235106268,0.1557950689426311,-1.3048575011062986,0.5596927872429471,-0.006108720195218185,1.5011179305838716,0.7364957812925469,0.14609204808999815,-0.5510253107304057,-0.4771587704227648,-0.6860373578767024,-0.40314168103371234,-1.757843462883024,-0.16502961843927866,0.032752213632515785,-0.34025207747058733,0.1779515709054138,-1.0542140921192986,-1.2434191514328214,-1.2422863739364869,-0.43347731157953107,-0.9702008610719127,1.0841642179336386,-0.09975763677156593,1.2218348386867202,-0.4562586179230099,-0.41245467092199045
53,-1.7214115185728154,-1.1273248918642536,-2.0810152153001646,-1.5292325256503054,0.15394498998696188,-1.30540934271681,0.559494823737841,-0.003681125022262262,1.50034680294764,0.7358579497108767,0.14472634140377072,-0.5525595539413218,-0.4774964108476631,-0.6863082106810896,-0.4059279726259077,-1.7576001446669407,-0.1653084608599532,0.03631178822313865,-0.3411501031849748,0.17701238740382688,-1.0557315737814617,-1.2452502309460827,-1.2445621403919278,-0.43564346846076024,-0.970025937477288,1.0816429970772834,-0.09804902064427587,1.2230355440505427,-0.4532235567129551,-0.4095554587553587
54,-1.7226758856714484,-1.1281780601488327,-2.0814118647202973,-1.5293669748096548,0.15211292532133913,-1.3059695218909295,0.5593016145075977,-0.0012710759533908077,1.4995841780978556,0.7352293645170399,0.14336895813727513,-0.5540862108765081,-0.47782789136011705,-0.6865779902141743,-0.4087050314069459,-1.757361373977943,-0.16558188821177827,0.039864958389314774,-0.3420404178866603,0.17608174356550693,-1.0572748739502305,-1.2471083141857002,-1.246856491561721,-0.4378297061005749,-0.9699038545166812,1.0791088363380017,-0.09639151008873278,1.2242068918003237,-0.45025132071337526,-0.40671385707825575
55,-1.7239312559101327,-1.1290166319253672,-2.0818019865739426,-1.5294983325652372,0.15029852437477184,-1.3065376406199676,0.5591129909330946,0.0011215681941066902,1.4988298673351492,0.7346097861105205,0.14201969103048206,-0.5556055200714658,-0.47815346907639,-0.686846760698432,-0.4114730179977203,-1.757127031554753,-0.16585006685632958,0.04341157253401693,-0.34292318979406533,0.17515946839210375,-1.0588426095363297,-1.2489920351282728,-1.2491682541194695,-0.4400347873201703,-0.9698327631629523,1.0765629193112736,-0.09478326636738517,1.2253504029657498,-0.44733990580720656,-0.4039279533451438
56,-1.725177800156561,-1.129840929244402,-2.082185736512186,-1.529626660442202,0.1485014355808642,-1.3071133114592615,0.5589287904416572,0.0034969642251750947,1.4980836838408707,0.7339989792107233,0.14067833064538332,-0.557117722043417,-0.47847339916699555,-0.687114586642415,-0.41423210073911515,-1.7568969982510723,-0.16611315827548145,0.046951503869808994,-0.3437985861828944,0.17424539172769268,-1.060433434477473,-1.2509000654216968,-1.2514962896557698,-0.4422575115125955,-0.9698108513685951,1.074006387629339,-0.09322247686204678,1.2264675781280683,-0.4444873293967785,-0.4011958564419988
57,-1.7264156901172703,-1.1306512712295138,-2.082563269086745,-1.529752019649875,0.14672130805974548,-1.3076961579924367,0.5587488565125011,0.005855282001495446,1.4973454432563846,0.7333967133763692,0.13934466657316125,-0.5586230579972626,-0.4787879340153403,-0.6873815325424761,-0.416982453964934,-1.7566711555474945,-0.166371318936014,0.050484647944893976,-0.34466677273296387,0.1733393449368214,-1.0620460416332702,-1.2528311160808463,-1.2538394958440613,-0.44449671596461615,-0.9698363478865744,1.071440340325291,-0.09170736025508607,1.2275598927382483,-0.44169163683397183,-0.3985157027598156
58,-1.7276450974501414,-1.1314479730331657,-2.0829347372010845,-1.5298744708467498,0.14495779310394533,-1.3082858151844203,0.5585730386440443,0.008196702091664945,1.496614964178182,0.7328027634338002,0.13801848851578452,-0.5601217686670529,-0.47909732247652165,-0.6876476626136515,-0.4197242564379131,-1.7564493860028594,-0.16662470020098902,0.05401092032237036,-0.345527912962289,0.17244116149229935,-1.063679164275305,-1.2547839387977717,-1.2561968073019776,-0.446751276844073,-0.9699075254470321,1.0688658334884082,-0.09023617097951712,1.228628793053289,-0.438950906993277,-0.3958856614553604
59,-1.7288661929792568,-1.1322313449316048,-2.083300291630725,-1.529994073933368,0.14321054547994422,-1.3088819296334424,0.5584011922885437,0.010521413631184518,1.4958920685754469,0.7322169098222772,0.13669958724773965,-0.5616140932867582,-0.4794018092310899,-0.6879130405486708,-0.42245768994206967,-1.7562315736483383,-0.16687344828248196,0.057530254414502886,-0.34638216774221586,0.17155067747918343,-1.065331577205749,-1.256757326899288,-1.2585671961747638,-0.44902010988183017,-0.9700227033391701,1.0662838801813104,-0.088807202985804,1.2296756926554349,-0.43626325704176533,-0.3933039389502188
60,-1.7300791460059595,-1.1330016915492565,-2.083660080608339,-1.530110887871477,0.14147922455761697,-1.309484159732028,0.5582331787590612,0.012829612384619785,1.4951765821366547,0.7316389388641447,0.13538775546424195,-0.5631002686834504,-0.4797016342281738,-0.6881777293038799,-0.42518293802371304,-1.7560176043277937,-0.16711770423058203,0.06104259947155306,-0.347229694887319,0.17066773202147562,-1.0670020975377,-1.258750115984451,-1.2609496724669738,-0.4513021707770457,-0.9701802494477922,1.0636954505904148,-0.08741879287473002,1.2307019695168087,-0.43362684646206967,-0.3907687827212146
61,-1.731284123709729,-1.1337593112029487,-2.0840142494691256,-1.530224970527782,0.13976349528000914,-1.3100921757466268,0.558068865113321,0.015121499000949572,1.4944683345516356,0.7310686429674422,0.1340827885227071,-0.5645805284855424,-0.47999703221210677,-0.6884417909107219,-0.427900184872798,-1.7558073659881104,-0.16735760395392013,0.06454791872283927,-0.3480706488138242,0.1697921676380002,-1.0686895851697964,-1.2607611842736248,-1.2633432841479835,-0.45359645535376947,-0.9703785817933925,1.0611014723823624,-0.08606932244623143,1.2317089635706626,-0.4310398803853659,-0.3882784844361659
62,-1.7324812906323932,-1.1345044953563488,-2.084362940351901,-1.5303363785405812,0.13806302898588838,-1.3107056598250966,0.5579081240185767,0.01739727745212782,1.4937671597353073,0.7305058207681836,0.13278448508452953,-0.5660551024384542,-0.4802882323265524,-0.6887052863113228,-0.43060961433588196,-1.7556007489232706,-0.16759327826734402,0.06804618766617343,-0.34890518026044537,0.16892383053378984,-1.070392942986653,-1.262789452699725,-1.2657471170559234,-0.4559019994958587,-0.9706161696234535,1.0585028312404587,-0.08475722071381178,1.2326979747499085,-0.4285006122912472,-0.3858313824888912
63,-1.733670808239208,-1.1352375281751663,-2.0847062919514063,-1.530445167207575,0.13637750409733135,-1.3113243059407493,0.5577508336011853,0.01965715364421232,1.493072895999012,0.7299502772191199,0.13149264766433447,-0.5675242158199519,-0.48057545779010113,-0.688968275216667,-0.4333114090517295,-1.7553976459759535,-0.16782485296272345,0.07153739250061508,-0.34973343606572044,0.16806257083310033,-1.07211111681536,-1.2648338847708358,-1.2681602946235002,-0.45821787888596344,-0.9708915341009035,1.0559003715567272,-0.08348096543319224,1.2336702614537227,-0.42600734613046537,-0.3834258639865403
64,-1.7348528345504453,-1.1359586861739561,-2.085044439317418,-1.5305513903931502,0.1347066066842837,-1.31194781978113,0.5575968772841782,0.0219013341900119,1.4923853861750753,0.7294018236313695,0.13020708309386803,-0.5689880889474112,-0.48085892563736893,-0.6892308159858168,-0.43600574970055733,-1.7551979527003811,-0.16805244889922621,0.07502152869655947,-0.35055555899618424,0.1672082427599115,-1.073843095166775,-1.2668934862318397,-1.2705819774478997,-0.4605432085729323,-0.9712032486335879,1.0532948972568037,-0.08223908419234932,1.234627039403692,-0.42355843792493963,-0.3810603662408612
65,-1.7360275238372977,-1.1366682379457143,-2.085377513696381,-1.5306551004534943,0.1330500309175918,-1.3125759185891255,0.5574461436157402,0.024130025332030066,1.4917044776998634,0.7288602776748478,0.1289276029075879,-0.5704469367693741,-0.4811388465197609,-0.689492965524619,-0.43869281435799684,-1.7550015674900352,-0.16827618210975526,0.07849859969649788,-0.3513716876200026,0.16636070477146866,-1.07558790878866,-1.2689673045509986,-1.2730113627255806,-0.4628771423904767,-0.9715499388862476,1.050687172736594,-0.08103015510816809,1.2355694808520785,-0.4211522968973486,-0.37873337781305827
66,-1.73719502637615,-1.137366443965876,-2.085705642411479,-1.5307563481779347,0.13140747942148462,-1.3132083309634193,0.5572985260911506,0.026343432004498648,1.4910300226602633,0.7283254633429707,0.12765402365683415,-0.5719009685339691,-0.4814154245602548,-0.6897547792023634,-0.4413727779450484,-1.754808391673736,-0.16849616392057168,0.08196861573932385,-0.3521819562210095,0.16551981965009124,-1.0773446300559497,-1.271054428255654,-1.275447683571336,-0.465218872248351,-0.9719302825139454,1.048077923891329,-0.07985280717270278,1.236498714106237,-0.4187873861801518,-0.3764434391595743
67,-1.7383554882555259,-1.1380535564627876,-2.0860289487772348,-1.5308551827449768,0.12977866353590142,-1.3138447966247306,0.5571539229704141,0.028541757023464835,1.4903618778081449,0.727797210886657,0.12638616715921425,-0.5733503875270304,-0.48168885725679267,-0.6900163107848837,-0.44404581176558394,-1.754618329583408,-0.1687125010814453,0.08543159280077528,-0.3529864947484203,0.16468545455812927,-1.0791123722216074,-1.2731539861394037,-1.2778902082395283,-0.4675676273156939,-0.9723430086532239,1.045467839219342,-0.07870572028958174,1.2374158233349197,-0.4164622231511441,-0.3741891429235389
68,-1.7395090512303328,-1.1387298193472093,-2.086347552044968,-1.5309516516915809,0.12816330349844005,-1.3144850661536982,0.5570122370935069,0.030725200394187288,1.4896999045470016,0.7272753567222104,0.12512386068954268,-0.5747953908730749,-0.48195933542913794,-0.690277612382642,-0.44671208312330285,-1.7544312885966777,-0.16892529590397315,0.08888755164247192,-0.35378542879783254,0.16385748106059753,-1.0808902885496852,-1.2752651463613047,-1.2803382392639424,-0.46992267311456803,-0.9727868972045745,1.0428575709845562,-0.07758762503849839,1.2383218486241074,-0.41417537943972443,-0.3719691339138637
69,-1.7406558526183402,-1.1393954681939056,-2.0866615673756543,-1.5310458008943013,0.1265611285550571,-1.3151289007057212,0.5568733756948911,0.03289395872548464,1.4890439688946193,0.7267597433172331,0.12386693711834794,-0.5762361693926497,-0.48222704320434545,-0.690538734412393,-0.44937175501044413,-1.7542471791572536,-0.1691346464059832,0.09233651696200343,-0.354578879619467,0.16303577511966358,-1.0826775713503813,-1.2773871154558651,-1.2827911125312583,-0.4722833105401469,-0.9732607779370956,1.0402477364232643,-0.07649730220306171,1.2392177862520055,-0.41192548064503703,-0.3697821088111037
70,-1.741796025234159,-1.140050730268889,-2.0869711058369766,-1.5311376745609946,0.12497187700800003,-1.3157760717075357,0.5567372502187025,0.0350482247411384,1.4883939414252683,0.7262502190583195,0.12261523500360878,-0.5776729075099432,-0.4824921580362967,-0.6907997255710907,-0.4520249858609867,-1.7540659147758324,-0.1693406464601974,0.09577851663662161,-0.35536696414993496,0.16222021706482057,-1.0844734509351048,-1.2795191372708603,-1.2852481963017426,-0.47464887482246026,-0.9737635294435663,1.0376389189823116,-0.07543358209459372,1.2401045891549367,-0.4097112058040888,-0.3676268156363068
71,-1.7429296973563297,-1.1406958245963787,-2.0872762744215763,-1.5312273152318878,0.1233952962088024,-1.3164263605398,0.5566037761357948,0.03718818687896175,1.4877496971945954,0.7257466381038887,0.1213685986410174,-0.5791057832049474,-0.4827548507550649,-0.6910606328207685,-0.45467192936152084,-1.7538874120140762,-0.16954338594556292,0.099213581053271,-0.3561497950641447,0.16141069154223786,-1.0862771945078327,-1.281660491848339,-1.2877088901894163,-0.47701873444312826,-0.9742940779715856,1.0350316695772437,-0.07439534370180229,1.2409831675579543,-0.4075312866449083,-0.36550205301619426
72,-1.74405699272345,-1.1413309620600265,-2.08757717608376,-1.5313147637888844,0.12183114250353931,-1.3170795582094876,0.5564728727636278,0.039314028968688325,1.4871111156500734,0.7252488602251562,0.12012687807769738,-0.5805349680048596,-0.48301528564218876,-0.6913215013832008,-0.4573127343134328,-1.7537115904539957,-0.16974295089987526,0.10264174251793588,-0.3569274808442712,0.1606070874464599,-1.0880881050074052,-1.2838104942626014,-1.2901726241126696,-0.47939229001910644,-0.9748513961539609,1.0324265078603294,-0.07338151369366082,1.2418543897460979,-0.405384506656838,-0.3634066692751901
73,-1.7451780305556084,-1.1419563455334354,-2.0878739097921364,-1.531400059472069,0.1202791811369236,-1.317735465015447,0.5563444630898068,0.04142592998039654,1.4864780805295723,0.7247567506379068,0.11888992909393557,-0.5819606270098091,-0.4832736205282419,-0.6915823747432299,-0.4599475445405055,-1.7535383726548792,-0.16993942367251091,0.10606303473757403,-0.35770012586301325,0.15980929783731596,-1.089905519913838,-1.2859684934274342,-1.2926388572250898,-0.48176897316413586,-0.9754345016591729,1.0298239234896394,-0.07239106530031972,1.2427190829542543,-0.4032697000071739,-0.3613395613820837
74,-1.7462929255976998,-1.1425721700354494,-2.088166570595875,-1.531483239902453,0.11873918612123303,-1.318393890210068,0.5562184735999307,0.04352406383575343,1.485850479750346,0.7242701798274194,0.11765761315712446,-0.5833829189483882,-0.48353000690938974,-0.691843294659717,-0.4625764988364926,-1.7533676840997081,-0.17013288307626276,0.10947749236823348,-0.35846783047864,0.15901721984461276,-1.0917288100302724,-1.288133870883484,-1.295107076835131,-0.4841482453373477,-0.9760424557805375,1.027224377391522,-0.07142301709447833,1.243578034355574,-0.40118575033060605,-0.3592996737764876
75,-1.7474017881815023,-1.143178622906122,-2.088455249702491,-1.5315643411100883,0.11721094007549746,-1.319054651659627,0.5560948341102661,0.045608599274927296,1.485228205290466,0.7237890233686086,0.11642979735175919,-0.5848019962588451,-0.48378459007991553,-0.6921043011831552,-0.4651997309476645,-1.753199453132821,-0.17032340453742847,0.11288515062329844,-0.3592306911395965,0.15823075456291097,-1.0935573782508088,-1.2903060395753465,-1.2975767973222052,-0.48652959668731494,-0.9766743619806042,1.0246283030098975,-0.07047643169337488,1.2444319921302902,-0.3991315894152971,-0.3572859970977629
76,-1.7485047243036862,-1.143775883999677,-2.0887400345652516,-1.5316433975667427,0.11569423403984411,-1.3197175755055244,0.555973477605648,0.04767969977257346,1.4846111530645043,0.7233131617431855,0.1152063542889947,-0.5862180051921635,-0.4840375092779791,-0.6923654326790569,-0.467817369585754,-1.7530336108904059,-0.1705110602434422,0.11628604493617307,-0.3599888004966789,0.1574498069384328,-1.095390658323211,-1.2924844426267426,-1.3000475590557947,-0.48891254489877484,-0.9773293644054061,1.0220361075367677,-0.06955041439941587,1.2452816665985977,-0.39710619580696366,-0.35529756683673464
77,-1.7496018357171956,-1.1443641258911532,-2.0890210089785004,-1.5317204422224135,0.11418886726940242,-1.320382495828322,0.5558543400829055,0.04973752349683594,1.4839992227950483,0.7228424801554,0.11398716199894487,-0.5876310859336018,-0.4842888978421355,-0.6926267258562974,-0.4704295384671351,-1.7528700912252375,-0.17069591928746464,0.11968021067208032,-0.36074224752101997,0.15667428564991445,-1.0972281136142898,-1.2946685521210404,-1.3025189273232936,-0.49129663404826307,-0.9780066463813931,1.0194481731192293,-0.06864411179547038,1.2461277314029493,-0.3951085933500185,-0.3533334619283218
78,-1.7506932200336993,-1.1449435140937834,-2.0892982531793507,-1.531795506545017,0.1126946470117057,-1.3210492543161942,0.5557373604000194,0.05178222330582519,1.4833923178814303,0.7223768683477145,0.1127721038085998,-0.5890413727395961,-0.4845388833763926,-0.6928882157996721,-0.473036356374456,-1.7527088306269218,-0.17087804780945656,0.12306768288402112,-0.36149111762633285,0.1559041029850017,-1.099069235884714,-1.2968578678933709,-1.3049904912714658,-0.49368143347400384,-0.978705428906241,1.0168648580390824,-0.06775671030900135,1.2469708247267244,-0.39313784968267806,-0.3513928033011594
79,-1.751778970835045,-1.1455142072844795,-2.08957184395438,-1.5318686205626595,0.11121138827109758,-1.321717699939155,0.5556224801311459,0.053813946776525505,1.4827903452668805,0.7219162204175592,0.11156106820794924,-0.5904489940872397,-0.4847875879218203,-0.6931499360059868,-0.47563793723731207,-1.752549768138765,-0.17105750913335768,0.1264484961083013,-0.36223549279405354,0.15513917471358976,-1.1009135440790103,-1.2990519163396614,-1.3074618628656638,-0.49606653666458433,-0.9794249691432309,1.0142864978618469,-0.06688743475749445,1.2478115505377105,-0.39119307470095405,-0.3494747523983977
80,-1.752859177791877,-1.146076357535102,-2.089841854750099,-1.5319398129079538,0.10973891356325377,-1.3223876886301844,0.555509643427572,0.055832836261552374,1.4821932153051416,0.7214604346361474,0.1103539487066315,-0.5918540728338437,-0.48503512813294297,-0.6934119184230657,-0.4782343902288847,-1.75239284527225,-0.17123436390007762,0.1298226841953858,-0.36297545170019574,0.15437941995932863,-1.1027605831356395,-1.3012502492470734,-1.309932675870276,-0.4984515601702055,-0.9801645589275293,1.0117134065526439,-0.0660355468860729,1.2486504798462117,-0.3892734190046176,-0.34757850968212034
81,-1.7539339267877736,-1.1466301105474697,-2.0901083557861093,-1.5320091108639045,0.10827705266256557,-1.3230590829741764,0.5553987968846177,0.05783902896961906,1.4816008416274429,0.7210094132701715,0.10915064368317637,-0.5932567263843522,-0.4852816154573491,-0.6936741934911212,-0.48082581987579115,-1.7522380059199851,-0.17140867019607983,0.1331902801721799,-0.3637110698428911,0.15362476107035278,-1.104609922821229,-1.3034524426495822,-1.3124025848532692,-0.5008361425396367,-0.9809235232914674,1.0091458775569742,-0.0652003439067495,1.2494881519688656,-0.3873780723365479,-0.3457033131322279
82,-1.7550033000474605,-1.1471756058903169,-2.0903714141699967,-1.5320765404109309,0.1068256423447978,-1.3237317519054477,0.5552898894144499,0.05983265706598237,1.4810131410105944,0.7205630624070603,0.10795105622867965,-0.5946570668646349,-0.485527156317139,-0.6939367901859868,-0.48341232617868285,-1.7520851962678734,-0.17158048367740272,0.13655131613216165,-0.3644424196697311,0.1528751234901454,-1.1064611565923286,-1.305658095711759,-1.3148712642171447,-0.50321994328541,-0.9817012190147988,1.0065841848449257,-0.0643811570474591,1.25032507579041,-0.3855062620253514,-0.3438484367491773
83,-1.7560673762678163,-1.1477129772366406,-2.090631094013117,-1.5321421262746522,0.10538452612712965,-1.3244055704143778,0.5551828721247387,0.06181384778951963,1.4804300332468465,0.7201212917843545,0.1067550939865331,-0.5960552012989109,-0.4857718522910027,-0.6941997360637632,-0.48599400474140336,-1.7519343647071512,-0.17174985768901851,0.13990582315009883,-0.36516957070415496,0.1521304356293162,-1.1083139004874147,-1.3078668296432168,-1.317338407258145,-0.5056026418792587,-0.9824970332049227,1.0040285839177923,-0.0635773501178298,1.2511617310166974,-0.38365725143974916,-0.3420131890686478
84,-1.7571262307505535,-1.1482423526000847,-2.090887456546543,-1.532205891974098,0.10395355400741105,-1.325080419263615,0.5550776982030521,0.06378272358344263,1.479851441016051,0.71968401462365,0.10556266898963823,-0.5974512317897659,-0.48601580029587693,-0.6944630573064814,-0.48857094690676567,-1.7517854617468553,-0.17191684337947666,0.14325383121837426,-0.3658925896702441,0.1513906287389514,-1.1101677920512962,-1.3100782866456442,-1.3198037252551214,-0.5079839367793394,-0.9833103819111606,1.0014793127764685,-0.06278831809758248,1.2519985694132176,-0.38183033846197995,-0.34019691169500943
85,-1.7581799355355991,-1.148763854569205,-2.09114056023654,-1.5322678598700494,0.10253258220421732,-1.3257561847141537,0.5549743228068623,0.06573940223698094,1.479277289760572,0.7192511474694577,0.1043736974963534,-0.5988452556994215,-0.48625909276727286,-0.6947267787684256,-0.49114323989723646,-1.7516384399271894,-0.17208148981081953,0.14659536920221683,-0.36661154061538764,0.1506556367860892,-1.1120224892935728,-1.3122921288938807,-1.322266946589086,-0.5103635444903597,-0.984140708776384,0.9989365928513284,-0.06201348575248766,1.252836016024259,-0.3800248539863351,-0.3383989778593955
86,-1.759228559534325,-1.1492776005386225,-2.0913904608990177,-1.5323280512132547,0.10112147289905928,-1.326432758261482,0.5548727029590164,0.06768399703566678,1.4787075075633043,0.7188226100332501,0.10318809982626122,-0.6002373658310861,-0.4865018178374962,-0.6949909240228052,-0.49371096695902505,-1.7514932537341918,-0.172243844063792,0.1499304648113913,-0.36732648503037424,0.14992539633177873,-1.11387766968235,-1.3145080375520724,-1.3247278158941511,-0.5127411986573762,-0.984987483728584,0.996400629893575,-0.061252306281949935,1.2536744703686153,-0.37824016044793307,-0.3366187910072171
87,-1.7602721686619023,-1.1497837029362332,-2.091637211812496,-1.5323864861922927,0.09972009398190383,-1.3271100363819035,0.5547727974485057,0.06961661691812848,1.4781420250290902,0.7183983250428849,0.10200580019669514,-0.601627650609379,-0.4867440595110971,-0.6952555154085,-0.49627420750826223,-1.7513498595160368,-0.17240395133839503,0.15325914458613676,-0.3680374819665477,0.14919984641209696,-1.1157330291740262,-1.316725711825584,-1.3271860932402575,-0.5151166491937065,-0.9858502017143554,0.9938716148283068,-0.06050426000152434,1.2545143076084535,-0.3764756503859361,-0.3348557834190972
88,-1.761310825968153,-1.1502822694457744,-2.091880863829185,-1.5324431839808945,0.09832831880097849,-1.3277879202890557,0.554674566736362,0.07153736663754987,1.4775807751697558,0.7179782180975393,0.10082672656083139,-0.6030161942589617,-0.48698589783699386,-0.6955205740766385,-0.49883303727812683,-1.751208215401241,-0.1725618550498569,0.15658143389536405,-0.36874458814973626,0.14847892842242372,-1.1175882812796287,-1.3189448680490259,-1.3296415533478498,-0.5174896614431292,-0.9867283814757227,0.9913497245697472,-0.05976885306299038,1.25535587968858,-0.3747307450446102,-0.3331094148684365
89,-1.7623445917663745,-1.1507734032241745,-2.092121465483848,-1.5324981627845538,0.09694602591767101,-1.3284663157005807,0.5545779728664934,0.07344634692618107,1.477023693292937,0.7175622175282259,0.09965081044803159,-0.6044030769806407,-0.48722740907680767,-0.695786120036801,-0.5013875284659329,-1.7510682812189984,-0.1727175969201155,0.15989735694532534,-0.3694478580907288,0.14776258600520978,-1.1194431561678821,-1.321165238810486,-1.3320939848344373,-0.5198600153763102,-0.9876215643712593,0.9888351227992652,-0.0590456162140092,1.256199516443902,-0.37300489301491546,-0.331379171318145
90,-1.76337352375969,-1.1512572031132204,-2.092359063100174,-1.532551439886287,0.09557309886719176,-1.3291451326148431,0.5544829793812732,0.075343654661493,1.476470716894812,0.7171502542639211,0.09847798680701399,-0.6057883751243203,-0.4874686658690314,-0.6960521722026674,-0.503937749879329,-1.7509300184218186,-0.17287121706492042,0.1632069367971561,-0.37014734419212547,0.14705076494141586,-1.121297399804937,-1.3233865721118176,-1.3345431894927935,-0.5222275048211887,-0.9885293132420401,0.9863279607069555,-0.05833410359886202,1.2570455266733715,-0.37129756891868987,-0.32966456365847746
91,-1.7643976771645593,-1.1517337638451726,-2.0925937008944318,-1.5326030316914263,0.09420942592553791,-1.329824285097543,0.5543895512416878,0.07722938303275415,1.4759217855568154,0.7167422617032901,0.09730819385233437,-0.6071721613582903,-0.48770973738872936,-0.6963187484369568,-0.5064837670808872,-1.7507933900105992,-0.173022754076676,0.16651019539186063,-0.3708430968514412,0.1463434130457504,-1.123150773130476,-1.325608630564643,-1.3369889816003928,-0.5245919367268929,-0.9894512113226116,0.9838283776976691,-0.05763389160130621,1.2578941991791386,-0.3696082721369344,-0.32796512648738374
92,-1.765417104831151,-1.1522031762420466,-2.092825421076234,-1.5326529537713447,0.09285489988318606,-1.33050369107803,0.5542976547518494,0.07910362170697756,1.4753768408463765,0.7163381755919639,0.09614137291457207,-0.6085545048344242,-0.48795068950253173,-0.6965858655955284,-0.5090256425304703,-1.7506583604622332,-0.1731722451031564,0.1698071535814698,-0.3715351645603797,0.14564048006579086,-1.12500305126973,-1.3278311906215547,-1.3394311872595497,-0.5269531304606055,-0.9903868611968571,0.9813365020624775,-0.05694457773018342,1.2587458037700165,-0.36793652558322976,-0.32628041693432813
93,-1.766431857360333,-1.1526655274083513,-2.0930542639462644,-1.532701220906035,0.09150941782583995,-1.331183272155093,0.5542072574876816,0.08096645699333646,1.4748358262216845,0.715937933905291,0.09497746829453949,-0.6099354713489467,-0.48819158491874737,-0.6968535395705336,-0.5115634357248686,-1.750524895659818,-0.1733197259222305,0.17309783116524172,-0.3722235940002352,0.14494191758503588,-1.1268540227807846,-1.3300540418418674,-1.3418696437676174,-0.5293109171366887,-0.9913358837983764,0.9788524516166283,-0.056265779548066046,1.2596005922287012,-0.3662818745228925,-0.3246100135281331
94,-1.7674419832170971,-1.1531209009171417,-2.0932802679908757,-1.5327478471254794,0.090172880922473,-1.3318629534119732,0.5541183282295837,0.08281797200528336,1.474298686940467,0.7155414767364663,0.0938164271217664,-0.6113151234985018,-0.48843248333246875,-0.697121785332533,-0.5140972033342813,-1.7503929628255053,-0.17346523101273958,0.1763822469299069,-0.3729084301334066,0.14424767892990356,-1.1287034889364305,-1.3322769861911505,-1.3443041990165159,-0.5316651389772746,-0.9922979174547809,0.9763763343051061,-0.05559713364292892,1.2604587992424723,-0.3646438854381197,-0.3229535151090588
95,-1.7684475288402766,-1.153569376989301,-2.0935034699734745,-1.5327928457497593,0.0888451942208289,-1.3325426632403252,0.5540308368988877,0.08465824681972851,1.4737653699727369,0.7151487461899165,0.09265819921745021,-0.6126935208313183,-0.4886734415655892,-0.6973906169715012,-0.5166269993353019,-1.7502625304560095,-0.17360879362167445,0.1796604186930772,-0.3735897162910391,0.14355771908066337,-1.130551263039711,-1.334499837373681,-1.3467347109207843,-0.5340156487034589,-0.9932726169751204,0.9739082487769507,-0.05493829464257698,1.261320643297353,-0.3630221449390571,-0.3213105397850324
96,-1.7694485387484553,-1.154011032666017,-2.0937239050226575,-1.532836229427868,0.08752626645047733,-1.3332223331728388,0.55394475449792,0.08648735863274178,1.473235823917449,0.7147596862798093,0.09150273696201108,-0.6140707199933229,-0.48891451370169164,-0.6976600477366651,-0.5191528751401334,-1.7501335682607722,-0.1737504458277995,0.18293236334904467,-0.3742674942568283,0.1428719945862667,-1.132397169772236,-1.3367224201968826,-1.3491610468733024,-0.5363623089561662,-0.9942596527795106,0.971448284929513,-0.054288934271342945,1.2621863275359237,-0.3614162587204628,-0.3196807239316918
97,-1.7704450556420057,-1.154445941974459,-2.0939416067170753,-1.5328780101752024,0.08621600983346442,-1.333901897724219,0.5538600530534907,0.08830538191133804,1.47270999892299,0.7143742428335383,0.09034999516734496,-0.6154467748691039,-0.48915575121580246,-0.6979300900751306,-0.5216748797218211,-1.7500060471027623,-0.17389021860187262,0.1861980969162931,-0.37494180434704116,0.14219046348302117,-1.1342410445742683,-1.3389445699667608,-1.3515830832277784,-0.5387049917457203,-0.9952587100699044,0.9689965244238399,-0.05364874044838642,1.263056040579164,-0.3598258505634115,-0.31806372123569215
98,-1.7714371205012216,-1.1548741760867025,-2.0941566071670215,-1.5329181994097185,0.08491433990254842,-1.3345812942402184,0.5537767055636317,0.0901123885409916,1.472187846611412,0.713992363400028,0.08919993095382743,-0.6168217367176705,-0.48939720309903295,-0.6982007556692644,-0.5241930597353449,-1.7498799389418802,-0.17402814186360818,0.1894576345861322,-0.37561268548682514,0.1415130852170374,-1.1360827330555405,-1.3411661319132975,-1.3540007048070768,-0.5410435779291115,-0.9962694880408559,0.9665530411723875,-0.05301741642677497,1.2639299573128504,-0.3582505613812979,-0.3164592017805471
99,-1.772424772680539,-1.1552958034719718,-2.0943689370927663,-1.5329568079867404,0.08362117532696856,-1.3352604627544078,0.5536946859474169,0.0919084479685999,1.4716693200063138,0.7136139971626952,0.08805250363208711,-0.6181956543029866,-0.4896389159781568,-0.6984720554728114,-0.52670745963446,-1.7497552167809178,-0.17416424453552978,0.19271099077194248,-0.3762801752828885,0.1408398205703644,-1.1379220904357268,-1.343386960644744,-1.3564138044364327,-0.5433779567139401,-0.9972916991290496,0.9641179018002525,-0.05239467997240305,1.2648082396391698,-0.3566900483092404,-0.314866851174127
100,-1.7734080499988638,-1.155710890042308,-2.0945786258996657,-1.5329938462324277,0.08233643774565975,-1.3359393458523694,0.5536139689976994,0.09369362734068333,1.4711543734642585,0.7132390948568986,0.08690767458953705,-0.6195685740192972,-0.4898809342301924,-0.6987439997457344,-0.5292181217842156,-1.7496318546140222,-0.1742985545938561,0.19595817915858907,-0.3769443100926449,0.14017063159071838,-1.1397589810134703,-1.3456069196297311,-1.3588222825005973,-0.5457080251879977,-0.9983250683003104,0.9616911660811032,-0.05178026258170528,1.2656910371943102,-0.3551439838358583,-0.31328636971681756
101,-1.7743869888260368,-1.1561194992917838,-2.0947857017500913,-1.533029323975906,0.08106005160779522,-1.336617888543002,0.5535345303366083,0.09546799163666574,1.4706429626096176,0.7128676086917048,0.08576540718162748,-0.6209405400112843,-0.49012330009207794,-0.6990165980877712,-0.5317250865691168,-1.7495098273775982,-0.17443109911656113,0.19919921275162622,-0.3776051250899255,0.1395054815247016,-1.1415932776628588,-1.3478258807061059,-1.3612260465239487,-0.5480336878734509,-0.9993693323727729,0.959272887348973,-0.0511739087370415,1.2665784880328799,-0.35361205497629533,-0.31171747160924373
102,-1.7753616241654964,-1.1565216924294055,-2.0949901916322355,-1.5330632505800739,0.07979194402051441,-1.3372960381366246,0.5534563463736533,0.09723160379713108,1.470135044272723,0.7124994922757989,0.0846256666277616,-0.6223115942891196,-0.4903660537655403,-0.6992898594707131,-0.5342283924969253,-1.7493891109035822,-0.17456190432874608,0.20243410392596933,-0.37826265432736544,0.13884433475440125,-1.1434248613562328,-1.350043723615404,-1.363625010772609,-0.5503548563045906,-1.0004242393748592,0.9568631128870537,-0.05057537519857098,1.267470719280071,-0.3520939624852782,-0.3101598841983887
103,-1.7763319897331986,-1.1569175285058642,-2.095192121425861,-1.5330956349711027,0.07853204460367284,-1.3379737441295734,0.5533793942662935,0.09898452484699558,1.469630576431205,0.7121347005473654,0.08348841991179759,-0.6236817768384968,-0.4906092335172732,-0.6995637922694133,-0.5367280762981209,-1.7492696818750126,-0.1746909956454564,0.2056628644737628,-0.37891693079557864,0.13818715673725368,-1.1452536207122206,-1.352260335561875,-1.3660190958776195,-0.5526714486281247,-1.0014895479367065,0.9544618842946027,-0.049984430331389246,1.268367847752539,-0.3505894201089416,-0.30861334726088063
104,-1.777298118032877,-1.1573070645342993,-2.095391515965057,-1.533126485666655,0.07728028535143398,-1.338650958094991,0.5533036518828298,0.10072681401357278,1.469129518154395,0.7117731897077693,0.08235363568704536,-0.625051125725744,-0.4908528757745475,-0.6998384042915388,-0.5392241730210668,-1.7491515177838204,-0.17481839771207378,0.20888550565121536,-0.37956798647923656,0.1375339139490558,-1.1470794515679017,-1.3544756107949896,-1.3684082284782377,-0.5549833892250052,-1.0025650267136794,0.9520692378330439,-0.049400853466671196,1.2692699805490095,-0.3490981538741039,-0.3070776123221789
105,-1.7782600404277285,-1.1576903556052571,-2.0955883990980935,-1.5331558108028416,0.07603660050050991,-1.3393276335795126,0.5532290977674906,0.10245852883954226,1.4686318295506702,0.7114149171588656,0.08122128418565366,-0.6264196771981299,-0.49109701521638655,-0.7001137028060846,-0.5417167161229435,-1.7490345968907586,-0.17494413444240792,0.2121020382242147,-0.38021585241016914,0.13688457383000344,-1.1489022565740188,-1.3566894502143725,-1.3707923408844347,-0.557290608352801,-1.0036504538406112,0.949685204752313,-0.04882443429554624,1.2701772156116469,-0.3476199014136494,-0.3055524420103623
106,-1.7792177872086192,-1.1580674549960257,-2.0957827937444424,-1.5331836181599476,0.07480092640484749,-1.340003726005564,0.5531557111075828,0.10417972529085996,1.4681374717176134,0.7110598414437722,0.08009133713227351,-0.6277874657794889,-0.4913416848604431,-0.7003896945706738,-0.5442057375565268,-1.7489188981873909,-0.17506822905460898,0.21531247251256835,-0.3808605587176074,0.13623910473363537,-1.150721944812178,-1.3589017609961307,-1.3731713707576982,-0.5595930418076481,-1.004745616415432,0.94730981159846,-0.04825497229442431,1.2710896422592441,-0.34615441132665586,-0.3040376094432094
107,-1.7801713876589165,-1.1584384142745385,-2.0959747219490614,-1.53320991518696,0.07357320141654929,-1.3406791925789936,0.5530834717025892,0.1058904578596727,1.467646406694872,0.7107079221909405,0.07896376766187553,-0.6291545243612966,-0.4915869161457204,-0.7006663858576659,-0.5466912678529043,-1.7488044013600568,-0.17519070410501655,0.21851681843274792,-0.3815021346756859,0.135597475878562,-1.152538431433001,-1.3611124562395678,-1.3755452608092666,-0.5618906306048387,-1.0058503100108611,0.9449430805034864,-0.047692276180493015,1.2720073416932933,-0.3447014425718996,-0.30253289764725305
108,-1.7811208701160457,-1.158803283398038,-2.0961642049340248,-1.5332347090249248,0.07235336577281315,-1.3413539922017685,0.5530123599350985,0.10759077966231907,1.4671585974195887,0.7103591200613658,0.07783855024159317,-0.6305208842893375,-0.49183273901128155,-0.7009437824791057,-0.549173336200229,-1.748691086755729,-0.17531158152005671,0.22171508553904146,-0.38214060874832473,0.1349596573028578,-1.154351637314224,-1.3633214546333032,-1.3779139585149425,-0.5641833206771333,-1.0069643382128697,0.9425850294583602,-0.04713616339611576,1.272930387478005,-0.3432607638933738,-0.3010380990074974
109,-1.7820662620298875,-1.1591621108066936,-2.096351263147592,-1.5332580065291705,0.07114136148867146,-1.3420280853894746,0.5529423567434577,0.10928074253251577,1.4666740076842895,0.7100133966987817,0.07671566059645883,-0.631886575446107,-0.4920791819710937,-0.7012218898105386,-0.5516519705186225,-1.7485789353496852,-0.17543088262629372,0.2249072830630426,-0.3827760086316069,0.13432561982099872,-1.1561614887377605,-1.365528680139847,-1.3802774158456668,-0.5664710625899132,-1.0080875121846467,0.9402356725701092,-0.046586459620876174,1.2738588459953324,-0.3418321532764658,-0.2995530147464953
110,-1.7830075900181237,-1.1595149435123697,-2.096535916310806,-1.5332798142904323,0.06993713225530927,-1.3427014341933723,0.5528734435960476,0.1109603971098421,1.466192602097113,0.7096707146826874,0.07559507563889717,-0.6332516263290979,-0.49232627218515396,-0.7015007128137267,-0.5541271975313428,-1.7484679287149085,-0.17554862817873845,0.22809341995142557,-0.3834083612937667,0.13369533498322694,-1.1579679170847832,-1.3677340616977067,-1.3826355890130562,-0.5687538112723187,-1.009219650254837,0.9378950203038603,-0.04604299831003541,1.2747927768760516,-0.3404153974334585,-0.2980774544315026
111,-1.7839448799186448,-1.159861827182736,-2.096718183461714,-1.53330013865491,0.06874062334374083,-1.3433740021267662,0.5528056024670801,0.11262979292364667,1.4657143460442643,0.709331037484063,0.07447677340183781,-0.6346160641251188,-0.49257403552704293,-0.7017802560582989,-0.5565990428323396,-1.748358048993141,-0.1756648383875112,0.2312735049019731,-0.384037693012902,0.13306877503722855,-1.1597708585479098,-1.3699375329401404,-1.3849884382291402,-0.57103152576355,-1.0103605775288573,0.9355630797106516,-0.04550562025819412,1.2757322334079284,-0.33901029131704175,-0.2966112355084473
112,-1.7848781568391336,-1.160202806220912,-2.096898082997299,-1.5333189857433018,0.06755178151362515,-1.3440457540954578,0.5527388158138289,0.11428897847250893,1.465239205654587,0.7089943294236328,0.07336073297530901,-0.6359799147807967,-0.4928224966480515,-0.7020605237423666,-0.5590675309503207,-1.7482492788675095,-0.17577953294295173,0.23444754639784104,-0.3846640294125201,0.13244591289201163,-1.1615702538596104,-1.3721390319296976,-1.387335927479561,-0.5733041689735396,-1.01151012552213,0.933239854641809,-0.04497417318698014,1.276677262921986,-0.33761663766054917,-0.29515418286148093
113,-1.7858074452039359,-1.1605379238408386,-2.097075632713219,-1.533336361468842,0.06637055492700379,-1.3447166563320623,0.5526730665552048,0.1159380012993952,1.4647671477661457,0.7086605556325408,0.07224693444637394,-0.6373432030694134,-0.49307167903802435,-0.7023415197121424,-0.5615326854094566,-1.7481416015366495,-0.17589273103926498,0.2376155527400553,-0.38528739549502417,0.1318267220838761,-1.1633660480359898,-1.3743385009077271,-1.3896780243095275,-0.5755717074572385,-1.0126681318141197,0.930925345950641,-0.04444851135561458,1.2776279071578642,-0.33623424654366624,-0.2937061283969065
114,-1.7867327687983323,-1.1608672221385556,-2.0972508498414357,-1.5333522715543872,0.06519689306674713,-1.3453866763339752,0.5526083380515934,0.11757690806265367,1.4642981398947137,0.7083296820153081,0.07113535884227194,-0.6387059526542253,-0.49332160508306117,-0.7026232474805951,-0.5639945287868527,-1.7480350006902519,-0.1760044513967869,0.24077753207824992,-0.3859078156732449,0.13121117674436933,-1.1651581901351293,-1.3765358860580625,-1.392014699621849,-0.5778341112017857,-1.0138344397220966,0.9286195516821691,-0.04392849519324333,1.2785842026092364,-0.33486293498238945,-0.29226691065031457
115,-1.7876541508103208,-1.1611907421595744,-2.0974237510858305,-1.5333667215485818,0.06403074665949941,-1.3460557828047917,0.552544614085879,0.11920574460299664,1.46383215020407,0.7080016752149494,0.070025988076629,-0.6400681861484148,-0.493572296120214,-0.7029057102451762,-0.5664530827669173,-1.7479294604859605,-0.17611471228295028,0.24393349243966386,-0.3865253138001166,0.13059925157012522,-1.1669466330292124,-1.3787311372841262,-1.3943459274863974,-0.5800913534258679,-1.0150088979935878,0.9263224672515791,-0.04341399095195645,1.2795461808502224,-0.33350252654205403,-0.2908363744157909
116,-1.7885716138700194,-1.1615085239625194,-2.097594352655885,-1.5333797168411414,0.06287206760291779,-1.346723945598982,0.5524818788455795,0.12082455600662012,1.4633691474780064,0.7076765025801278,0.06891880489860343,-0.6414299251718186,-0.49382377248931597,-0.7031889109046542,-0.5689083681927518,-1.7478249655275535,-0.17622353153202663,0.24708344175642302,-0.38713991319659563,0.12999092179448818,-1.168731333189683,-1.380924207998732,-1.3966716849603782,-0.582343410390602,-1.0161913605165271,0.9240340856120393,-0.042904870379455236,1.2805138688437079,-0.3321528509722843,-0.2894143703960991
117,-1.7894851800867957,-1.1618206066792116,-2.0977626702985215,-1.5333912626772883,0.061720808897005264,-1.3473911356696435,0.5524201169060264,0.12243338666461202,1.4629091010939543,0.7073541321342354,0.0678137928448355,-0.6427911904045757,-0.49407605358207224,-0.7034728520750897,-0.5713604051146921,-1.7477215008443383,-0.17633092656371605,0.2502273878911409,-0.38775163667791385,0.12938616316082677,-1.1705122504847285,-1.3831150549258926,-1.3989919519188208,-0.5845902612213084,-1.0173816860461482,0.9217543974125048,-0.04240101041036419,1.2814872892324523,-0.33081374386276186,-0.2880007548727771
118,-1.7903948710842275,-1.1621270285713652,-2.097928719328176,-1.5334013641713764,0.06057692457934338,-1.348057325019155,0.5523593132145215,0.12403228032880029,1.4624519809981442,0.7070345325462889,0.06671093619407284,-0.6441520016378338,-0.4943291578885428,-0.7037575361049875,-0.5738092128361243,-1.747619051871698,-0.17643691440065346,0.2533653386608767,-0.3883605065782575,0.12878495189744574,-1.1722893479884062,-1.3853036379139725,-1.4013067108947226,-0.5868318877395684,-1.0185797379477117,0.9194833911460889,-0.041902292875223505,1.282466460613833,-0.32948504631874587,-0.2865953893951279
119,-1.791300708032997,-1.1624278270840553,-2.098092514655194,-1.5334100263197359,0.05944036966403605,-1.3487224866525656,0.5522994530754121,0.12562128016419122,1.4619977576822099,0.7067176731035396,0.06561021992434614,-0.6455123778216529,-0.4945831030411392,-0.7040429650896584,-0.5762548099566988,-1.7475176044327276,-0.17654151168489576,0.256497301859495,-0.38896654477395676,0.12818726469400882,-1.1740625918007648,-1.3874899197595607,-1.4036159469283105,-0.5890682743049919,-1.019785383954195,0.9172210532895568,-0.041408604226235816,1.2834513977990476,-0.3281666046553207,-0.2851981404871216
120,-1.792202711681817,-1.1627230388961192,-2.098254070812619,-1.5334172540127764,0.05831110008418212,-1.3493865945335648,0.5522405221360259,0.1272004287981468,1.4615464021611595,0.7064035236856964,0.06451162967257393,-0.6468723371102351,-0.4948379058562568,-0.7043291408848248,-0.5786972144130618,-1.7474171447208993,-0.1766447346934511,0.2596232852784745,-0.38956977270526943,0.12759307867938824,-1.1758319508783446,-1.389673866041461,-1.4059196474249096,-0.5912994076661476,-1.020998495938115,0.9149673684344639,-0.040919835278879324,1.2844421120575606,-0.3268582701093871,-0.2838088793712671
121,-1.7931009023864852,-1.1630126999676396,-2.0984134019814578,-1.5334230520463776,0.0571890726377005,-1.3500496235428838,0.5521825063734122,0.1287697683664477,1.461097885952636,0.7060920547406689,0.06341515169647818,-0.6482318969046109,-0.4950935823736572,-0.7046160651195026,-0.5811364435172224,-1.7473176592837019,-0.17674659935290774,0.2627432967262165,-0.3901702113968364,0.1270023714008608,-1.1775973968744722,-1.391855444964234,-1.408217802020933,-0.5935252768201367,-1.0222189496966907,0.9127223194104342,-0.040435880968537063,1.2854386113475533,-0.3255598985684537,-0.2824274817085496
122,-1.7939953001371587,-1.1632968455846584,-2.098570522014488,-1.5334274251326008,0.05607424493633796,-1.350711549438986,0.5521253920818373,0.13032934055638568,1.4606521810573914,0.7057832372617431,0.0623207728386968,-0.6495910738929067,-0.4953501478937137,-0.7049037392081913,-0.5835725139926681,-1.7472191350071988,-0.17684712125321747,0.26585734404590555,-0.3907678814768851,0.12641512080457387,-1.1793589039887897,-1.3940346272107498,-1.4105104024575337,-0.5957458728803153,-1.0234466247495944,0.9104858874010472,-0.039956640121329545,1.286440900533101,-0.3242713503153253,-0.28105382735357004
123,-1.7948859245839401,-1.163575510401262,-2.0987254444586876,-1.5334303779097527,0.05496657535769605,-1.3513723488209157,0.5520691658609892,0.1318791866470261,1.4602092599409076,0.7054770427661013,0.06122848049298265,-0.6509498840883114,-0.4956076170126261,-0.7051921643624032,-0.5860054420083403,-1.7471215591014546,-0.17694631566068486,0.26896543513197746,-0.39136280319525285,0.12583130521720823,-1.1811164488254933,-1.3962113858032372,-1.41279744246148,-0.5979611889517006,-1.024681404148573,0.9082580520527733,-0.03948201523837448,1.2874489815887749,-0.32299248978782513,-0.27968780012405886
124,-1.795772795060861,-1.163848728479171,-2.098878182576345,-1.5334319149518314,0.05386602300012003,-1.3520319990931777,0.5520138146048433,0.13341934754677817,1.4597690955160951,0.705173443274611,0.06013826257238294,-0.6523083428648607,-0.4958660036557095,-0.7054813416015625,-0.5884352432105765,-1.7470249190867786,-0.17704419753021092,0.27206757794524933,-0.3919549964402971,0.125250903328768,-1.1828700102597767,-1.3983856959723453,-1.415078917632842,-0.6001712200136147,-1.02592317429826,0.9060387915773773,-0.03901191229273322,1.2884628537923326,-0.32172318535272587,-0.2783292875839762
125,-1.7966559306083443,-1.1641165333249692,-2.0990287493649267,-1.5334320407773843,0.052772547640299046,-1.3526904784325289,0.5519593254911502,0.13494986382840568,1.4593316611270069,0.7048724112928018,0.059050107479296676,-0.6536664649911473,-0.4961253211088544,-0.7057712717633032,-0.5908619327531227,-1.746929202780742,-0.1771407815168369,0.2751637805267684,-0.3925444807547596,0.1246738941764319,-1.1846195693120076,-1.400557535033753,-1.417354825339095,-0.6023759628091491,-1.0271718247875308,0.9038280828481801,-0.038546240538338467,1.289482513906134,-0.3204633090931034,-0.2769781808394451
126,-1.7975353499942284,-1.1643789579250912,-2.099177157575753,-1.533430759857805,0.051686109693433034,-1.3533477657565693,0.5519056859715041,0.1364707757616086,1.458896930533508,0.7045739197929626,0.05796400407731202,-0.6550242646620674,-0.4963855820482552,-0.7060619555131943,-0.5932855253253151,-1.7468343982859207,-0.1772360819866317,0.2782540510104353,-0.3931312753506451,0.12410025712940224,-1.1863651090291867,-1.4027268822718943,-1.4196251646152716,-0.6045754157410512,-1.0284272482307906,0.9016259014905513,-0.038084912330231674,1.2905079563478896,-0.3192127366083634,-0.2756343743468017
127,-1.798411071733428,-1.164636034778691,-2.099323419731557,-1.5334280766250983,0.050606670175828025,-1.3540038406940276,0.5518528837619565,0.13798212334330015,1.4584648778968425,0.7042779421972882,0.056879941664729115,-0.6563817555287033,-0.4966467985684967,-0.7063533933539196,-0.5957060351785284,-1.7467404939783249,-0.1773301130269631,0.28133839763445884,-0.39371539912317327,0.12352997187469265,-1.188106614373263,-1.4048937188303823,-1.4218899360698072,-0.6067695787736586,-1.0296893401186114,0.8994322219669818,-0.03762784295547163,1.2915391733513168,-0.3179713468262284,-0.2742977657320794
128,-1.7992831141063064,-1.1648877959285069,-2.099467548142972,-1.533423995479138,0.04953419066978761,-1.3546586835566379,0.5518009068341388,0.13948394632570113,1.4580354777660456,0.7039844523620129,0.05579790994967828,-0.6577389507264427,-0.4969089822090853,-0.7066455856339395,-0.5981234761509817,-1.7466474784964723,-0.17742288845619128,0.28441682875169627,-0.39429687066386027,0.12296301840379742,-1.1898440721159045,-1.407058027608743,-1.4241491417957521,-0.6089584533405249,-1.0309579986771704,0.8972470176570633,-0.03717495047410722,1.2925761551172616,-0.3167390218260054,-0.2729682556212788
129,-1.8001514951758273,-1.1651342729898262,-2.0996095549240117,-1.5334185207944444,0.04846863329067434,-1.3553122753125177,0.5517497434068633,0.14097628424236772,1.4576087050651476,0.7036934245624689,0.05471789902674691,-0.6590958629014287,-0.4971721439795096,-0.7069385325556595,-0.6005378616909911,-1.7465553407310697,-0.17751442183282062,0.28748935283893584,-0.39487570827278223,0.12239937700018898,-1.1915774707393443,-1.4092197931650896,-1.4264027852870322,-0.611142042257405,-1.0322331247359697,0.8950702609326869,-0.03672615556963854,1.2936188899558048,-0.31551564667249077,-0.27164574748080694
130,-1.8010162328035584,-1.1653754971776609,-2.099749452006593,-1.5334116569265046,0.04740996065602047,-1.355964597560954,0.5516993819381706,0.1424591764322657,1.4571845350811239,0.7034048334790135,0.05363989935503263,-0.6604525042354292,-0.4974362943829077,-0.7072322341831299,-0.6029492048787536,-1.7464640698152651,-0.17760472646414366,0.2905559785051742,-0.3954519299700708,0.12183902822759268,-1.193306800342942,-1.4113790016243877,-1.4286508713594648,-0.6133203496402799,-1.0335146216033433,0.8929019232287497,-0.03628138140841962,1.2946673644198556,-0.31430110925990007,-0.2703301474675012
131,-1.801877344664585,-1.1656114993322275,-2.0998872511541546,-1.5334034082176604,0.04635813585657335,-1.3566156325085161,0.5516498111177958,0.1439326620619988,1.4567629434525422,0.7031186541837708,0.05256390173754373,-0.661808886469214,-0.49770144343841827,-0.7075266904493008,-0.6053575184467436,-1.7463736551154383,-0.17769381541440868,0.29361671449894183,-0.396025553506688,0.12128195291899094,-1.1950320525551237,-1.4135356405919823,-1.4308934060762495,-0.6154933808281258,-1.0348023949492888,0.8907419751096439,-0.03584055350748476,1.2957215634307053,-0.3130953001652416,-0.26902136428768236
132,-1.8027348482614007,-1.165842309942829,-2.1000229639744172,-1.5333937790025851,0.045313122429165985,-1.3572653629464162,0.5516010198600265,0.14539678014629523,1.4563439061588672,0.7028348621281361,0.051489897301871555,-0.66316502092452,-0.49796760070228663,-0.7078219011628563,-0.6077628147987999,-1.746284086222496,-0.17778170151254125,0.2966715697147284,-0.39659659637452516,0.12072813216631106,-1.1967532204503797,-1.4156896990720764,-1.4331303966776714,-0.6176611423101442,-1.036096352695185,0.8885903863317864,-0.03540359961030769,1.2967814703959923,-0.3118981125105842,-0.2677193090647114
133,-1.8035887609368288,-1.1660679591702272,-2.1001566019313365,-1.5333827736133716,0.04427488433130877,-1.3579137722290409,0.5515529972969286,0.1468515695668512,1.4559273995103794,0.7025534331309959,0.05041787748206328,-0.6645209185246848,-0.49823477528779464,-0.7081178660146465,-0.610165106027976,-1.746195352943642,-0.17786839735944746,0.2997205531985578,-0.3971650758158682,0.12017754731075421,-1.1984702984710183,-1.4178411673908664,-1.4353618515147657,-0.6198236416571893,-1.0373964049099769,0.8864471259024299,-0.03497044957002874,1.2978470673205074,-0.3107094418336971,-0.2664238952145517
134,-1.8044390998860356,-1.166288476867592,-2.100288176356288,-1.533370396384252,0.043243385917403496,-1.3585608442535877,0.5515057327719144,0.14829706908962734,1.4555134001386703,0.702274343367619,0.04934783400162662,-0.6658765898140206,-0.49850297588407966,-0.7084145845837422,-0.6125644039332259,-1.7461074452945955,-0.17795391533492536,0.30276367415276134,-0.397731008832269,0.11963017993372468,-1.2001832823533924,-1.4199900371240595,-1.4375877799867123,-0.621980887457141,-1.0387024637124433,0.8843121621349832,-0.03454103523971062,1.298918334910243,-0.30952918596656886,-0.2651350383288649
135,-1.8052858821676827,-1.1665038926001088,-2.1004176984585317,-1.5333566516559696,0.042218591916485575,-1.359206563440738,0.5514592158336339,0.14973331738068826,1.455101884987678,0.701997569359174,0.0482797588576017,-0.6672320449760035,-0.49877221077390416,-0.7087120563431285,-0.6149607200349916,-1.7460203534922265,-0.17803826760420924,0.3058009419399972,-0.39829441219286066,0.11908601184832161,-1.201892169058333,-1.4221363010285113,-1.4398081924817385,-0.6241328892539899,-1.0400144431791745,0.8821854627010541,-0.03411529036920674,1.299995252670074,-0.30835724492133804,-0.2638526560651951
136,-1.8061291247142746,-1.16671423566332,-2.10054517933499,-1.5333415437798208,0.04120046741140538,-1.3598509147163051,0.5514134362301671,0.1511603530206724,1.4546928313052299,0.7017230879628362,0.04721364430563807,-0.6685872938503409,-0.49904248785043553,-0.7090102806650598,-0.6173540655897566,-1.7459340679475872,-0.1781214661241699,0.3088323660865601,-0.3988553024421522,0.11854502509135693,-1.2035969567055333,-1.4242799529777388,-1.4420231003213215,-0.6262796574904118,-1.0413322592579122,0.8800669946794155,-0.03369315050824945,1.3010777989954305,-0.3071935207831935,-0.262576668043818
137,-1.8069688443417447,-1.1669195351002755,-2.1006706299793865,-1.5333250771213853,0.04018897781936398,-1.3604938834938005,0.5513683839034987,0.15257821451797499,1.4542862166350572,0.7014508763624432,0.04614948284601855,-0.6699423459489856,-0.4993138146330911,-0.709309256826092,-0.6197444516036268,-1.745848579259314,-0.17820352264919284,0.31185795628502666,-0.39941369590733583,0.11800720191586575,-1.2052976445116508,-1.4264209879010772,-1.4442325157074958,-0.6284212034536224,-1.0426558296859276,0.8779567246020816,-0.03327455291538679,1.3021659512583132,-0.3060379176098279,-0.2613069957508587
138,-1.807805057758329,-1.1671198197175618,-2.100794061290774,-1.5333072560639633,0.0391840888737231,-1.361135455657862,0.5513240489842575,0.15398694032072274,1.4538820188092556,0.701180912059667,0.045087267210573954,-0.6712972104711555,-0.4995861982825022,-0.7096089840118107,-0.6221318888449954,-1.7457638782073746,-0.17828444873675448,0.31487772239627726,-0.3999696087051383,0.1174725247840772,-1.206994232731901,-1.4285594017262633,-1.446436451673081,-0.6305575392243181,-1.0439850739131271,0.8758546184976731,-0.032859436472417534,1.303259685887974,-0.30489034133704956,-0.26004356244729926
139,-1.808637781572768,-1.1673151181002739,-2.100915484081488,-1.5332880850117347,0.03818576660701324,-1.361775617548495,0.5512804217867039,0.1553865688276157,1.453480215941159,0.7009131728656671,0.04402699035043606,-0.6726518963174165,-0.49985964561464685,-0.7099094613212713,-0.6245163878563481,-1.7456799557471454,-0.17836425575271575,0.31789167445093586,-0.4005230567482465,0.11694097636081582,-1.2086867226049356,-1.4306951913252395,-1.4486349220346573,-0.6326886776285154,-1.0453199130295956,0.8737606419322345,-0.032447741603993586,1.3043589784465717,-0.30375069969018026,-0.2587862930835228
140,-1.8094670323018807,-1.1675054586259945,-2.1010349090845644,-1.5332675683926564,0.03719397733506803,-1.362414355946075,0.5512374928039497,0.1567771383977075,1.4530807864186042,0.7006476368931948,0.04296864542457874,-0.6740064121028844,-0.5001341631141991,-0.7102106877711676,-0.6268979589652605,-1.7455968030037925,-0.17844295487635095,0.3208998226502663,-0.4010740557513344,0.11641253950730521,-1.2103751163008039,-1.4328283544629878,-1.4508279413481244,-0.6348146321921182,-1.0466602696973064,0.8716747600476603,-0.03203941020207799,1.305463803700098,-0.30261890210088843,-0.2575351142190576
141,-1.8102928263775446,-1.167690869477839,-2.101152346960645,-1.5332457106611128,0.03620868764221668,-1.3630516580570715,0.551195252703396,0.1581586873591917,1.4526837088975555,0.7003842825491187,0.04191222578909988,-0.6753607661695975,-0.5004097569471401,-0.7105126622997434,-0.6292766122946353,-1.7455144112669416,-0.17852055710512837,0.32390217736656196,-0.40162262123671827,0.11588719727534727,-1.212059416871815,-1.4349588897492103,-1.4530155248666914,-0.6369354170980467,-1.0480060680857386,0.8695969375978764,-0.031634385554964235,1.3065741356848468,-0.3014948596291259,-0.25628995394720516
142,-1.8111151801531258,-1.1678713786566206,-2.1012678083044047,-1.5332225163003337,0.03522986436747011,-1.3636875115004448,0.5511536923223748,0.15953125401725898,1.452288962296073,0.7001230885273455,0.040857724987199175,-0.6767149665981096,-0.500686432972673,-0.7108153837704624,-0.6316523577722291,-1.7454327719856182,-0.17859707325925872,0.3268987491430647,-0.402168768539664,0.11536493290185246,-1.213739628206126,-1.4370867965926863,-1.4551976885011535,-0.6390510471457774,-1.0493572338111634,0.867527138982911,-0.031232612280579743,1.3076899477696893,-0.30037848488985597,-0.25505074182425463
143,-1.8119341099093862,-1.1680470139921926,-2.1013813036505278,-1.5331979898245935,0.0342574745916399,-1.3643219042946813,0.5511128026639832,0.16089487666108593,1.4518965257885954,0.6998640338021082,0.03980513673980942,-0.6780690212183489,-0.5009641967544837,-0.7111188509754481,-0.6340252051395103,-1.7453518767634415,-0.17867251398602582,0.3298895486934469,-0.4027125128133706,0.11484572980369723,-1.2154157549838882,-1.4392120751581479,-1.4573744487823208,-0.6411615377131484,-1.0507136938793702,0.8654653282809861,-0.03083403626381225,1.3088112127144031,-0.29926969198427855,-0.2538174088030022
144,-1.812749631859907,-1.1682178031540138,-2.1014928434792606,-1.5331721357812051,0.03329148562533248,-1.3649548248454264,0.5510725748930969,0.1622495935700134,1.4515063788005207,0.6996070976215996,0.03875445493684112,-0.6794229376197881,-0.5012430535713825,-0.7114230626387099,-0.6363951639598922,-1.7452717173540562,-0.17874688976391348,0.33287458690088867,-0.4032538690336508,0.11432957157288715,-1.2170878026358047,-1.4413347263255194,-1.4595458228254694,-0.6432669047202939,-1.0520753766316204,0.8634114692787477,-0.0304386045976131,1.3099379027242863,-0.2981683964352751,-0.25258988717031083
145,-1.8135617621560558,-1.1683837736609863,-2.101602438221565,-1.533144958752318,0.0323318649977643,-1.3655862619336825,0.5510330003325522,0.16359544301896942,1.451118501003065,0.6993522595019279,0.037705673629002484,-0.6807767231609674,-0.5015230084273672,-0.7117280174191644,-0.6387622436263781,-1.745192285656788,-0.17882021090654132,0.3358538748167812,-0.40379285200332926,0.1138164419720047,-1.2187557773039464,-1.4434547516513831,-1.461711828296698,-0.6453671645955827,-1.0534422116936297,0.861365525499748,-0.030046265527645923,1.3110699895012767,-0.2970745151268121,-0.2513681104884617
146,-1.8143705168915283,-1.1685449528906109,-2.1017100982638945,-1.5331164633565366,0.031378580446346574,-1.366216204704536,0.5509940704594871,0.1649324632831882,1.450732872308379,0.6990994992213733,0.03665878702015906,-0.6821303849784085,-0.5018040660611371,-0.712033713913466,-0.6411264533686599,-1.7451135737125087,-0.1788924875664215,0.3388274236590855,-0.4043294763563781,0.11330632492992283,-1.2204196858046965,-1.4455721533325359,-1.4638724833810761,-0.6474623342434395,-1.0548141299273899,0.8593274602312855,-0.029656968400262607,1.312207444291786,-0.2959879662470574,-0.2501520135400621
147,-1.8151759121064919,-1.1687013680875014,-2.1018158339526223,-1.5330866542503656,0.030431599906991465,-1.366844642656387,0.5509557769018307,0.16626069264227458,1.4503494728649073,0.6988487968149255,0.03561378946019906,-0.683483929994959,-0.5020862309550942,-0.7123401506586576,-0.6434878022597014,-1.7450355736996987,-0.178963729738548,0.34179524481037404,-0.4048637565618069,0.11279920453776586,-1.2220795355936935,-1.4476869341715122,-1.466027806752478,-0.6495524310139368,-1.0561910633856533,0.8572972365497011,-0.029270663613601568,1.3133502379314408,-0.29490866923497827,-0.24894153227628985
148,-1.8159779637913573,-1.168853046371298,-2.1019196555981337,-1.5330555361294966,0.029490891505093795,-1.3674715656306482,0.550918111434933,0.16758016938366008,1.4499682830529732,0.6986001325690846,0.03457067543837262,-0.6848373649276007,-0.5023695073438583,-0.7126473261346508,-0.6458462992218417,-1.7449582779306942,-0.1790339472638283,0.34475734981558165,-0.4053957069273241,0.11229506504510105,-1.223735334732653,-1.449799097543957,-1.4681778175450044,-0.6516374726740535,-1.0575729452689164,0.8552748173442243,-0.028887302571615373,1.3144983408869204,-0.29383654473020293,-0.24773660376826592
149,-1.8167766878902043,-1.1690000147440176,-2.102021573478611,-1.533023113729943,0.028556423547145535,-1.3680969638018903,0.5508810659783255,0.16889093180549425,1.4495892834805744,0.6983534870169074,0.03352943957707477,-0.6861906962947555,-0.5026538992223287,-0.7129552387665463,-0.6482019530324509,-1.7448816788481083,-0.1791031498323681,0.34771375037949104,-0.4059253416027859,0.11179389085634484,-1.225387091857955,-1.451908647367738,-1.470322535325899,-0.6537174773804995,-1.0589597098847463,0.8532601653394543,-0.028506837640846393,1.3156517232950595,-0.29277151452594224,-0.24653716616136087
150,-1.817572100303882,-1.169142300096876,-2.102121597843525,-1.5329893918290338,0.02762816451294242,-1.3687208276684035,0.5508446325926063,0.17019301821901286,1.449212454979376,0.6981088409332826,0.03249007662604386,-0.6875439304231206,-0.5029394103533155,-0.7132638869268058,-0.6505547723291656,-1.744805769021415,-0.17917134698661769,0.35066445836397575,-0.4064526745834474,0.11129566652736897,-1.227034816150895,-1.4540155880736938,-1.4724619800698693,-0.6557924636540146,-1.0603512926093024,0.8512532431165601,-0.028129222109779944,1.3168103549993844,-0.291713501524778,-0.24534315863225098
151,-1.8183642168928085,-1.1692799292166165,-2.1022197389168538,-1.532954375246276,0.02670608304834461,-1.3693431480431573,0.5508088034764408,0.1714864669504215,1.4488377786008864,0.6978661753304218,0.03145258145694862,-0.6888970734540623,-0.5032260442747694,-0.7135732689372803,-0.6529047656147338,-1.7447305411436864,-0.1792385481243887,0.35360948578502344,-0.40697771971302876,0.11080037676229271,-1.2286785173094945,-1.4561199245779195,-1.4745961721347338,-0.6578624503550538,-1.0617476298509207,0.8492540131332742,-0.027754410150614695,1.3179742055842358,-0.2906624296971376,-0.244154521348552
152,-1.819153053479489,-1.1694129287913755,-2.102316006900046,-1.5329180688440927,0.025790147958555464,-1.3699639160451302,0.5507735709636725,0.17277131634233134,1.4484652356128058,0.697625471453549,0.030416949058338718,-0.6902501313495958,-0.503513804306632,-0.7138833830711082,-0.6552519412614943,-1.7446559880284744,-0.17930476250174948,0.35654884480956034,-0.4075004906866106,0.11030800641044798,-1.2303182055217818,-1.4582216622555024,-1.4767251322383168,-0.6599274566607778,-1.06314865901563,0.8472624377427509,-0.027382356783299873,1.319143244406624,-0.28961822404228577,-0.24297119543086856
153,-1.8199386258507728,-1.1695413254161149,-2.1024104119747395,-1.5328804775284457,0.024880328201884617,-1.370583123090994,0.5507389275205368,0.17404760475478195,1.4480948074955335,0.6973867107767784,0.02938317453093519,-0.6916031098979788,-0.5038026935573303,-0.7141942275544871,-0.6575963075155173,-1.7445821026068267,-0.17936999923580638,0.3594825477520966,-0.40802100105336975,0.10981854046350555,-1.231953891440455,-1.460320806915618,-1.478848881436517,-0.6619875020432718,-1.0645543184744797,0.8452784792113582,-0.027013017841697795,1.320317440625953,-0.28858081055167284,-0.24179312291710678
154,-1.8207209497598658,-1.1696651455976494,-2.1025029643052617,-1.5328416062493504,0.023976592883963622,-1.3712007608871273,0.5507048657429721,0.17531537056588303,1.4477264759388249,0.6971498749991663,0.028351253083238298,-0.6929560147189411,-0.5040927149299369,-0.7145058005683297,-0.6599378725004267,-1.7445088779244309,-0.17943426730737796,0.36241060707121125,-0.4085392642191671,0.10933196405275077,-1.2335855861588456,-1.4624173647779084,-1.4809674411024842,-0.66404260624892,-1.065964547532569,0.8433020997354649,-0.026646349941739013,1.3214967632317447,-0.2875501161744909,-0.24062024672890783
155,-1.8215000409281183,-1.1697844157592956,-2.1025936740409126,-1.5328014600012894,0.02307891125238424,-1.3718168214219466,0.5506713783540228,0.17657465217210605,1.4473602228385882,0.6969149460409271,0.027321180027431967,-0.6943088512685759,-0.5043838711280146,-0.7148181002498095,-0.6622766442209282,-1.7444363071388773,-0.1794975755635689,0.3653330353658947,-0.4090552934489977,0.10884826244649842,-1.2352133011881048,-1.464511342450068,-1.48308083290684,-0.666092789278869,-1.0673792863996696,0.8413332614572816,-0.026282310451445363,1.322681181069482,-0.2865260687852967,-0.23945251064006762
156,-1.8222759150466024,-1.1698991622451664,-2.1026825513180554,-1.5327600438235316,0.022187252691731288,-1.3724312969585306,0.5506384582013291,0.1778254879882544,1.4469960302938107,0.6966819060398015,0.026292950775565024,-0.6956616248439137,-0.5046761646611664,-0.7151311246938045,-0.6646126305660631,-1.7443643835170348,-0.17955993272024934,0.36824984537176464,-0.40956910186931333,0.10836742104763675,-1.2368370484355427,-1.4666027469065643,-1.4851890787988802,-0.6681380713705161,-1.0687984761623457,0.8393719264798115,-0.02592085746270401,1.323870662864689,-0.2855085971535694,-0.2382898592468175
157,-1.823048587777494,-1.1700094113241357,-2.1027696062620196,-1.5327173628003645,0.021301586718983696,-1.3730441800275275,0.5506060982546976,0.17906791644713882,1.4466338806036056,0.6964507373475672,0.025266560835990735,-0.697014340587199,-0.5049695978503075,-0.7154448719542432,-0.6669458393122067,-1.7442931004325317,-0.17962134736444565,0.3711610499571717,-0.410080702470226,0.10788942539129145,-1.2384568401840514,-1.4686915854684293,-1.487292200988708,-0.6701784729799639,-1.0702220587574758,0.8374180568809623,-0.0255619497646826,1.325065177245352,-0.28449763091507996,-0.23713223793984736
158,-1.8238180747552755,-1.1701151891934929,-2.102854848988833,-1.5326734220612444,0.020421882979258954,-1.3736554634203266,0.5505742916037509,0.18030197599898373,1.4462737562643733,0.6962214225266833,0.024242005810047196,-0.6983670034898898,-0.5052641728326762,-0.7157593400453619,-0.6692762781258302,-1.7442224513633366,-0.17968182795664794,0.3740666621192084,-0.4105901081076019,0.1074142611426012,-1.24007268907255,-1.4707778657840573,-1.4893902219302388,-0.6722140147653838,-1.0716499769470929,0.8354716147268673,-0.025205546818782582,1.3262646927627872,-0.28349310054495525,-0.23597959287796066
159,-1.8245843915877709,-1.1702165219823106,-2.1029382896067923,-1.5326282267808704,0.019548111241877702,-1.3742651401824815,0.550543031455649,0.18152770511058774,1.4459156399670663,0.695993944347059,0.023219281388962253,-0.6997196183963981,-0.5055598915666004,-0.7160745269428758,-0.6716039545660423,-1.7441524298894329,-0.17974138283303917,0.3769666949796362,-0.411097331505053,0.10694191409459648,-1.24168460807739,-1.4728615958109543,-1.4914831643050321,-0.6742447175712373,-1.0730821742944594,0.8335325620844627,-0.02485160873503403,1.3274691779110452,-0.2824949373323289,-0.2348318709632575
160,-1.8253475538570267,-1.1703134357545433,-2.103019938217884,-1.5325817821791885,0.018680241396726655,-1.374873203607371,0.55051231113288,0.18274514226426097,1.4455595145945546,0.6957682857829391,0.02219838335096762,-0.7010721900075882,-0.5058567558360326,-0.7163904305850723,-0.6739288760869269,-1.744083029690581,-0.17980002020765046,0.37986116178074225,-0.41160238525583415,0.10647237016617453,-1.2432926104946687,-1.4749427837983786,-1.4935710510069027,-0.6762706024133056,-1.0745185951413037,0.8316008610333617,-0.02450009624984137,1.3286786011449487,-0.28150307335647645,-0.23368901981774828
161,-1.8261075771200501,-1.1704059565118738,-2.103099804919064,-1.5325340935213292,0.017818243450899336,-1.3754796472300856,0.5504821240711175,0.18395432595655972,1.4452053632190813,0.695544430009899,0.02117930755860776,-0.7024247228840496,-0.5061547672548703,-0.7167070488738301,-0.6762510500396925,-1.744014244544164,-0.17985774817444716,0.3827500758811388,-0.41210528182465206,0.1060056154001633,-1.2448967099233958,-1.4770214382708273,-1.4956539051272655,-0.6782916904644818,-1.0759591845861434,0.8296764736770667,-0.02415097070499501,1.329892930896841,-0.28051744146433916,-0.2325509877613067
162,-1.826864476909416,-1.1704941101963284,-2.1031778998034056,-1.5324851661174856,0.016962087525595467,-1.3760844648215282,0.550452463817139,0.185155294696838,1.4448531690998052,0.6953223604019404,0.02016204995623003,-0.7037772214491577,-0.5064539272710719,-0.7170243796755681,-0.6785704836746462,-1.7439460683231123,-0.1799145747093494,0.38563345075151556,-0.4126060335493936,0.10554163596146807,-1.2464969202494665,-1.4790975680123168,-1.4977317499411775,-0.6803080030412808,-1.0774038884636328,0.8277593621535565,-0.02380419402786929,1.3311121355921298,-0.2795379752493469,-0.23141772379087658
163,-1.8276182687337525,-1.1705779226926725,-2.1032542329611266,-1.5324350053227345,0.016111743853260977,-1.3766876503827166,0.5504233240268034,0.1863480870056343,1.4445029156804219,0.6951020605286842,0.019146606567643467,-0.7051296899919397,-0.5067542371705825,-0.7173424208221312,-0.6808871841430055,-1.7438784949939001,-0.1799705076721913,0.388511299970356,-0.4131046526427784,0.10508041813529462,-1.248093255630392,-1.4811711820514135,-1.4998046088940336,-0.682319561591029,-1.0788526533248697,0.8258494886452846,-0.023459728712731914,1.332336183663699,-0.2785646090314564,-0.23028917756085232
164,-1.8283689680781148,-1.1706574198306041,-2.1033288144805034,-1.5323836165368054,0.015267182774951801,-1.377289198139279,0.5503946984630856,0.18753274141291018,1.4441545865868608,0.6948835141526511,0.018132973493934296,-0.706482132669756,-0.5070556980810813,-0.7176611701116147,-0.6832011584985617,-1.743811518614614,-0.18002555480862184,0.3913836372196269,-0.41360115119394153,0.10462194832544353,-1.249685730480749,-1.4832422896469712,-1.501872505588883,-0.684326387679693,-1.0803054264186047,0.82394681538862,-0.023117537803095087,1.3335650435652586,-0.2775972778383257,-0.2291652993645579
165,-1.8291165904042572,-1.17073262738676,-2.103401654448677,-1.5323310052038028,0.01442837473790566,-1.3778891025361328,0.5503665809941631,0.18870929645615722,1.4438081656250517,0.6946667052266277,0.017121146911427083,-0.7078345535108108,-0.5073583109755591,-0.7179806253091328,-0.6855124136992039,-1.7437451333330853,-0.18007972375195122,0.3942504762804503,-0.4140955411699524,0.10416621305267025,-1.2512743594583033,-1.4853109002745373,-1.5039354637743338,-0.6863285029803131,-1.0817621556732977,0.8220513046827627,-0.022777584875042667,1.3347986837836985,-0.27663591738755183,-0.22804604011675406
