epoch,W1[0],W1[1],W1[2],W1[3],W1[4],W1[5],W1[6],W1[7],W1[8],W1[9],W1[10],W1[11],W1[12],W1[13],W1[14],W1[15],W1[16],W1[17],W1[18],W1[19],W2[0],W2[1],W2[2],W2[3],W2[4],W2[5],W2[6],W2[7],W2[8],W2[9]
0,-1.2004953100306583,-1.0726161870636266,1.915900947377848,1.3196929361910141,1.6850447189198867,0.636581556599414,-0.9939761561031331,0.744582316301043,0.4306906727211511,-0.22536243960862412,0.8568727646312582,-0.05989569404187969,-0.4464690758785073,0.5332123138716264,1.454247532028229,0.03844296315759074,0.8608583398097969,-0.24309585066192388,0.6909653790121796,-0.3788940935638115,-1.02075363787931,-1.3890021135050772,0.4377784742339467,2.515591049448651,-0.008779624252177428,2.341865806182812,-0.017094587233145667,-0.6130926459699642,1.7661849675813104,0.498479951377682
1,-1.2002238475831397,-1.0722199633993899,1.9158277713530627,1.3190609991806963,1.6850464659807305,0.6357856125211236,-0.9939711203092881,0.7447825082519115,0.4300568562775992,-0.2255468536117234,0.8581266001876932,-0.0578533789644498,-0.447082133059364,0.5297521749230016,1.4542554733304702,0.034999104273019166,0.8608793305419474,-0.24220714107401983,0.6886494396528291,-0.37960128026714146,-1.0292207783625325,-1.3962345581519415,0.4302042452695154,2.5067528243500914,-0.018793742270388616,2.3339412426727364,-0.025612963548539723,-0.6206809645093586,1.757401391186727,0.491452055788096
2,-1.1999290225774728,-1.0717905181718226,1.9157503813347896,1.3183799198337876,1.6850504898541885,0.6349301492136961,-0.9939630089466182,0.7450002230685717,0.42937759291224054,-0.22574232317024512,0.8594764848567864,-0.055656408725503814,-0.4477264376666127,0.5260510161396812,1.4542736636909734,0.03132641832680721,0.8609129764712998,-0.24124416922039446,0.6861767637789459,-0.3803468717208006,-1.038228480131059,-1.4039305202177284,0.4221683096393063,2.4973981790693043,-0.029447112891857107,2.325566742146229,-0.03466127642093866,-0.6287478440054084,1.7480952741760547,0.48400589949591794
3,-1.1996073752836396,-1.071322986407258,1.915668324224375,1.3176428599884853,1.685057301307161,0.6340071219991373,-0.993951161613563,0.7452380643906625,0.4286468926448039,-0.2259501152923795,0.8609337289448618,-0.05328663333409127,-0.44840426859928445,0.5220827689383611,1.4543042367638224,0.027401287880344252,0.860961803526106,-0.2401975299576322,0.6835308220471732,-0.38113399987566743,-1.0478325780547784,-1.4121383223277046,0.41362334734592093,2.4874769832703962,-0.040807097096304916,2.316699952443023,-0.04429312073559561,-0.6373433903799384,1.7382153460120444,0.4761003784376682
4,-1.199254749780161,-1.070811528998906,1.915581084564002,1.316841674313289,1.6850675440036338,0.6330069952352394,-0.9939347516640379,0.7454991609334122,0.4278576788153546,-0.22617169279395,0.8625110704022266,-0.05072360676455337,-0.4491179102943223,0.5178185401237348,1.4543497909526157,0.023197791662820946,0.8610288694535773,-0.23905648098623464,0.6806933863207192,-0.3819659149412276,-1.0580948829261985,-1.4209116404357884,0.4045166578313566,2.4769341389322275,-0.05294880561832343,2.3072945992205396,-0.05456761095797018,-0.6465235088676562,1.7277052399198185,0.46769023617167094
5,-1.1988661279837967,-1.070249100145302,1.9154880773103244,1.3159666142026496,1.6850820346370798,0.6319184190202198,-0.9939127380306209,0.7457872922639843,0.4270015578813105,-0.22640874616717913,0.8642227068625687,-0.0479445275146666,-0.44986953239127925,0.5132267410787946,1.4544134855494997,0.018687939634767947,0.861117867269871,-0.2378088441767975,0.6776446542321282,-0.3828458705420939,-1.0690830256976065,-1.4303094788736384,0.39479002837486976,2.465709808754012,-0.06595522391421026,2.2973007912940195,-0.06554914256384876,-0.6563500496793824,1.716503754455444,0.4587262221887309
6,-1.1984354240043846,-1.0696271582995471,1.915388641884242,1.3150059655227808,1.6851018162476896,0.6307278402104948,-0.9938838022883342,0.7461070451100918,0.42606854424397844,-0.2266632275837034,0.8660841944820455,-0.04492438613841531,-0.450660997764668,0.5082735896209493,1.454499144978933,0.013842290288000447,0.8612332331861878,-0.23644098942757746,0.6743636264359105,-0.3837769287170154,-1.0808696355891712,-1.4403956256179107,0.3843800007546365,2.453740223325703,-0.0799166874917652,2.2866658496524797,-0.07730648590732019,-0.6668905115942572,1.704545737730599,0.4491557173260766
7,-1.1979552337947443,-1.0689353124601702,1.9152820395599677,1.3139456138584147,1.6851282288481992,0.6294190461034422,-0.9938462670935481,0.7464640045288634,0.4250467400272489,-0.2269373839975699,0.8681121063679308,-0.041636486842924675,-0.4514935674219774,0.5029242399679658,1.454611359446435,0.008631194479659644,0.8613802427472668,-0.2349379817517838,0.6708289036010237,-0.3847616457975454,-1.0935303983045772,-1.4512372215388327,0.37321882852714,2.440959433790513,-0.0949292285825906,2.2753359750510422,-0.0899107722964133,-0.6782169729847809,1.6917639919104013,0.4389241270950525
8,-1.1974165400181136,-1.0681609014989093,1.9151674578053848,1.3127685404054024,1.6851630021702846,0.6279726528914343,-0.9937979922164053,0.7468649809805301,0.4239219799268844,-0.2272337831697848,0.8703232838174989,-0.03805360249246143,-0.4523674629772587,0.49714491984080234,1.4547555572834656,0.0030270216769047575,0.8615650625226992,-0.23328402208863935,0.6670201488746319,-0.385801588035411,-1.1071403249153013,-1.462901899634069,0.36123655982420577,2.427302536696515,-0.11109107644817118,2.263259199235018,-0.10343172861904958,-0.690403754688727,1.6780927722056551,0.4279774772969869
9,-1.1968083841408845,-1.0672885191764134,1.9150440276106666,1.3114542732086545,1.6852083753240117,0.6263655796753007,-0.9937362460153667,0.7473182660511163,0.42267747201132105,-0.22755532112984736,0.8727334369350893,-0.03415014011051766,-0.45328124485706783,0.49090659747875925,1.4549380027406864,-0.0029921507998677674,0.8617946979826266,-0.23146338001185932,0.66292055154476,-0.38689661744404436,-1.121767311886996,-1.4754527408407314,0.3483648497066461,2.412711071567425,-0.12849630774557155,2.25039019993306,-0.11793128576872539,-0.7035231204293078,1.6634736493325886,0.4162667936399413
10,-1.196117543049577,-1.0662995294379487,1.9149108633699348,1.3099783615038643,1.685267246248569,0.6245706031189543,-0.9936575552469937,0.7478338919164456,0.4212935039655544,-0.22790519120079145,0.8753547735729063,-0.029905810783735175,-0.4542309777520812,0.48419081356331667,1.4551656411139324,-0.009436819019268464,0.8620767392358857,-0.2294620925734422,0.6585206945253954,-0.3880438952570632,-1.137461875420778,-1.4889401194826775,0.3345432519670491,2.397141404101392,-0.14722439506902488,2.236697631713956,-0.13345351478513215,-0.7176381442952807,1.6478646362465281,0.40375494742809515
11,-1.195328294928088,-1.0651716772490134,1.9147671393813726,1.308312018611921,1.6853433477885096,0.6225561816301342,-0.9935575477988043,0.7484238362119602,0.41974734991604756,-0.22828678269421868,0.878192307763348,-0.025311332351350534,-0.45520920350607574,0.47699826025594283,1.455445674362063,-0.01629781808501851,0.8624187597391996,-0.22727075115260834,0.6538241851412111,-0.38923659535854344,-1.154242021730777,-1.5033895500216055,0.3197287335905103,2.3805767825726623,-0.16732441661680014,2.2221744805497017,-0.15000995071252923,-0.7327918713914198,1.6312533550568935,0.3904265577352702
12,-1.1944224384200794,-1.06387900271115,1.9146122212755092,1.3064222037134963,1.6854414334831598,0.6202868821684724,-0.9934308259154987,0.7491020576670875,0.41801361216305527,-0.22870346299391647,0.8812386330458385,-0.020376467918863755,-0.4562038525915377,0.46936021028741115,1.4557847227254834,-0.023535574091111955,0.8628271911211473,-0.22488862839063253,0.648855087723141,-0.39046243763644545,-1.172073003876497,-1.518785246170966,0.3039087438068703,2.3630430723167932,-0.18879341751084758,2.206851320431825,-0.16756016418191366,-0.7489923676265613,1.6136742798005945,0.37630098847004695
13,-1.1933798414837182,-1.062392413430004,1.9144458710018109,1.3042725814207228,1.6855674305020443,0.6177249256358205,-0.9932709459407486,0.7498841672748515,0.41606535486525964,-0.22915818606835142,0.8844674231387423,-0.015139935832889185,-0.4571974166766715,0.46135162585695133,1.4561874564999002,-0.031068063919202367,0.8633055348548875,-0.222329054372005,0.6436663660729937,-0.39170237274359254,-1.190843828951679,-1.5350507650650589,0.2871169986760742,2.34462652583889,-0.21155050248122226,2.1908109079844276,-0.1859895084395814,-0.7661946345830382,1.5952282639170565,0.36144711262479595
14,-1.1921799115770177,-1.06068142580266,1.9142685328534592,1.3018259556422402,1.6857284783986293,0.6148335123801549,-0.9930706316209068,0.7507864552124527,0.41387647826836127,-0.2296528785808109,0.8878269021632484,-0.009679177392304568,-0.458166938500379,0.45310250336793595,1.4566547413164805,-0.03876080397578413,0.8638519678644192,-0.21962517176446156,0.6383470825896687,-0.3929300507140898,-1.2103461838428722,-1.552031158092475,0.2694489922589788,2.3254891908133484,-0.23541211395384837,2.174200218498754,-0.2050896150869841,-0.7842829534240903,1.5760994461258757,0.345996178885695
15,-1.1908043993391162,-1.0587176285541646,1.9140816749614862,1.2990487657453358,1.685932731075954,0.6115825060469492,-0.9928223879639329,0.7518239723684975,0.411425709891934,-0.23018760683520734,0.8912358554091234,-0.004115907701640543,-0.4590854861037182,0.44480138203543357,1.4571816846553876,-0.04642450946487782,0.8644568192579604,-0.21683404666124356,0.633024439045451,-0.39411291538017923,-1.230265946895623,-1.5694847451182221,0.25107164425715645,2.3058746113896333,-0.2600786705445126,2.1572336452768877,-0.22455141311100374,-0.8030604308479897,1.5565611976084779,0.3301465206807708
16,-1.1892416966395005,-1.0564801266663055,1.9138881012361968,1.29591780003802,1.6861887890837348,0.6079564497897292,-0.9925196537859964,0.7530075305268299,0.4087021582246957,-0.23075964518825606,0.8945855510135059,0.001387774394472803,-0.4599254738910296,0.43668421721651196,1.4577564022692262,-0.053826509122810194,0.865100922130728,-0.21403625332843218,0.6278563303319982,-0.39521553620506955,-1.2501990183941427,-1.5870941109813832,0.23222037936886258,2.28609602271324,-0.28514470114592916,2.1401809592376635,-0.243981689516721,-0.8222540006034506,1.536962051100828,0.3141532453017467
17,-1.1874921146729576,-1.0539623894669436,1.9136920833703233,1.2924282385891253,1.6865047026174875,0.6039636044048151,-0.9921584593936691,0.7543399459004887,0.4057114914432411,-0.23136272775320466,0.8977497419991223,0.006645855148851942,-0.4606633050063648,0.429006056479158,1.4583604692621706,-0.06071787746268786,0.8657560390838924,-0.2113287614916842,0.6230128447143927,-0.3962048454806077,-1.2696967114651603,-1.6045010205753176,0.21317999855379113,2.2665045021636225,-0.31013864506949695,2.123338403767567,-0.26294769631695275,-0.8415394417613052,1.5176883767048852,0.2983003399679476
18,-1.1855726770277455,-1.0511787189590749,1.9134991488161779,1.2886007714427148,1.6868866678235515,0.5996431707030502,-0.9917392370923689,0.7558125124427871,0.4024807859796978,-0.23198686648794917,0.9006011860121902,0.011474531133970477,-0.46128375086656437,0.4220021857505849,1.4589714485490506,-0.06686980044275444,0.8663879098690732,-0.20881191955568337,0.6186510384741946,-0.3970556471546034,-1.2883308669671552,-1.621357979156158,0.1942531975914793,2.2474449114514923,-0.3345839573822074,2.1069902425345575,-0.2810398164853632,-0.8605815020030225,1.499112608801935,0.2828617046368418
19,-1.1835193790285687,-1.0481677609834184,1.9133154584617431,1.2844848202477415,1.6873377567915162,0.5950672820864339,-0.9912681363480076,0.7574031199728734,0.39905974944175154,-0.2326190174445995,0.9030291142551485,0.015718792314235938,-0.4617822293070386,0.41585324037808624,1.4595667358464568,-0.07210589048802404,0.8669611186878808,-0.20657490960775274,0.614892241242407,-0.3977542094182687,-1.3057551270108927,-1.6373778387730902,0.17572747994899526,2.229215439774106,-0.3580597298009812,2.091374656238184,-0.29792954681508793,-0.8790751039786548,1.4815456607903479,0.2680652391047318
20,-1.1813853826775946,-1.044991033092533,1.913146897672,1.2801558015689514,1.687857110613596,0.5903357671459967,-0.9907572031313847,0.7590771204875989,0.3955170285153507,-0.23324455003412603,0.9049514929744437,0.019269705761832928,-0.46216419478996196,0.4106672142521013,1.4601271556660531,-0.07631898182167945,0.8674439864248922,-0.20468503380753542,0.6118101028109257,-0.39829870808909107,-1.3217398816960058,-1.6523631219133619,0.1578510020384704,2.2120440039469718,-0.3802396978322191,2.07666528058161,-0.3134016773841179,-0.8967734800997289,1.4652098996074496,0.25407266683861596
21,-1.1792351935214147,-1.0417263362222835,1.9129981628247663,1.2757066882906336,1.6884398814901276,0.5855645871698628,-0.9902231957034513,0.760791002633072,0.39193228144555825,-0.23384911444224166,0.9063193973047619,0.02206864414773496,-0.462442382871341,0.40648106742302637,1.4606390456211118,-0.0794702458656016,0.8678119350662612,-0.20318355804865823,0.6094311229034246,-0.3986970091142596,-1.3361744673051728,-1.6662092808296327,0.14082087652340974,2.1960836945490283,-0.4009031674337393,2.062969856078873,-0.3273551825960643,-0.9134982952508767,1.450236132469705,0.2409779886000634
22,-1.1771365045788669,-1.0384579619684389,1.912872133354055,1.2712363629172916,1.6890779190536267,0.5808713592421837,-0.9896853775187618,0.7624978145534097,0.3883863449634637,-0.2344203571499229,0.9071149178987601,0.024101483131243936,-0.46263338764371087,0.4032751469574045,1.4610945936808841,-0.08157671490708009,0.8680488488729216,-0.20208723180951352,0.6077434671396522,-0.39896329464833363,-1.3490464897542949,-1.678889364914408,0.1247807921017843,2.181420362151664,-0.41992588242802364,2.050339495431819,-0.339782693165147,-0.9291363520838994,1.4366764998623822,0.2288183247619657
23,-1.175152088946657,-1.0352665613894496,1.9127696808471049,1.2668380926386467,1.6897609454455835,0.5763620225816601,-0.9891629847874707,0.7641527563943509,0.38495221437360766,-0.23494906434761959,0.9073456525660317,0.025388280352164574,-0.4627547338863374,0.400991421328582,1.4614909891037235,-0.08269502064574388,0.8681468375739336,-0.20139288409859385,0.6067084910351956,-0.3991148647682748,-1.3604130827501597,-1.6904319123309741,0.10982334645608428,2.168084306015376,-0.4372627063324702,2.0387810917979072,-0.35074273496446184,-0.943630290322143,1.4245227956299862,0.21758873660584674
24,-1.1733336981337021,-1.0322211397590921,1.9126898867698936,1.2625907824203115,1.690477867541496,0.5721215753153007,-0.9886730575481611,0.7657175873928139,0.38168877600076795,-0.2354295823280676,0.907038200056796,0.025972569768533914,-0.4628229018084459,0.39954971712280235,1.4618291071561906,-0.08290632776942665,0.8681050582372231,-0.20108285019224453,0.6062713355839873,-0.39916973591746985,-1.3703743783349176,-1.700900437494385,0.09599456501499486,2.1560617705370113,-0.45292972940268317,2.0282687437103,-0.3603343639340149,-0.9569681458186506,1.4137237847384703,0.20725568599355781
25,-1.1717188795961835,-1.0293744475953057,1.9126305183274253,1.2585542256149045,1.6912179252435124,0.5682099287636744,-0.9882290522342283,0.7671631504356968,0.37863797680700895,-0.2358596080708973,0.9062319105466522,0.02591214604350286,-0.46285225947912473,0.39885996903156024,1.4621122184487823,-0.08230427157731421,0.8679281253713996,-0.20113001801601724,0.6063692597239816,-0.3991450972487762,-1.3790531083259874,-1.7103777375170734,0.08330002055847688,2.145305335838666,-0.4669883382311643,2.0187532388444973,-0.3686777497763538,-0.9691734416196653,1.4041995074249052,0.19776745830140247
26,-1.1703305837667708,-1.0267617799944688,1.912588582442061,1.2547681825580763,1.69197150302828,0.5646622832968357,-0.9878403182510082,0.7684700106717104,0.375825029743211,-0.2362395765958275,0.9049734275241537,0.025271798362927332,-0.4628546663827849,0.3988306325129189,1.4623449402308915,-0.08098602315719247,0.8676244554657084,-0.2015020350801543,0.606937652853699,-0.39905645296724135,-1.3865803731736035,-1.718955020047544,0.07171238191299979,2.135743442004135,-0.47953138098978937,2.0101699127233776,-0.3759006458988609,-0.980295992886997,1.3958526774202185,0.1890618187953995
27,-1.169178776701296,-1.0244023549746397,1.9125608191106684,1.251254252210765,1.6927305668966415,0.5614925297928903,-0.9875122727392153,0.7696276692067823,0.3732606587886778,-0.23657188943016294,0.9033122604859772,0.02411791814260001,-0.462839502137237,0.39937405479378907,1.4625324739705834,-0.07904609128469892,0.8672047613573145,-0.20216456570240857,0.6079140793643132,-0.3989172473266502,-1.3930863042416919,-1.7267247655804692,0.06117978394189102,2.127289084400641,-0.49067125391169886,2.002445211009505,-0.3821295086390696,-0.9904034796490441,1.3885776452445189,0.18107160444082926
28,-1.168263093328347,-1.0223021517125543,1.9125440637560482,1.2480192531910643,1.693488784370642,0.558698046534206,-0.9872470026268102,0.7706329727718941,0.37094429706151466,-0.23686017097569936,0.9012974798400065,0.02251476559359608,-0.46281392671483557,0.4004095919164806,1.462680096496013,-0.07657239508524784,0.8666808181413435,-0.20308362976148606,0.6092407553765236,-0.3987388041636688,-1.3986943038635191,-1.7337762379375738,0.05163406993382163,2.1198473607257977,-0.5005300078908541,1.9955020185686618,-0.3874840210776978,-0.9995740604449593,1.382267217874567,0.17372878008081785
29,-1.1675757244563991,-1.020457221520098,1.9125354676457775,1.2450590257353054,1.6942414272119954,0.5562646199669739,-0.9870440372451842,0.7714882665464935,0.36886738660452395,-0.23710865704180492,0.898975493183003,0.020522131640195868,-0.462783237848172,0.401865112042926,1.4627928489244288,-0.0736441372271077,0.8660645452380835,-0.20422712916845254,0.6108658299676625,-0.3985304547184784,-1.4035178304909635,-1.740192837951589,0.0429980440193981,2.1133215171331696,-0.5092316484290195,1.9892637203135204,-0.3920740487905898,-1.0078903367916405,1.376817524210056,0.16696727859970817
30,-1.1671040260818688,-1.0188568089267007,1.9125326004018088,1.2423619471946186,1.694985155881602,0.5541707367928724,-0.9869011095930423,0.7721996568984619,0.36701627173357276,-0.23732174879098994,0.8963887503955469,0.018194099984583517,-0.46275124161523506,0.40367739419373466,1.4628753680201976,-0.070331011260645,0.8653673898403748,-0.2055657145169491,0.6127438086600142,-0.3982997628788933,-1.4076589535703925,-1.7460507370779255,0.03519123577490004,2.1076173540661647,-0.5168966276606435,1.9836570303577032,-0.395998292670033,-1.0154348126863368,1.3721311617086704,0.16072484858802913
31,-1.1668326181463053,-1.0174859493128496,1.9125334704836348,1.2399118207873057,1.695717761772621,0.5523909454552983,-0.9868148077792797,0.7727755680089105,0.36537447783945,-0.23750372058967673,0.8935751641106239,0.015578609766118813,-0.4627205902893991,0.4057918239890308,1.4629318134859528,-0.06669331159425268,0.8645999613835904,-0.20707316099998255,0.6148354119868781,-0.3980527860627632,-1.4112080890660248,-1.7514183842994901,0.028134069997665687,2.102646101936983,-0.523638296582576,1.978613740640521,-0.3993440752075524,-1.0222867789475711,1.368118941500782,0.1549441116043057
32,-1.166744933016411,-1.016327450350536,1.9125364970437915,1.2376900578632593,1.6964379152746643,0.5508982792476407,-0.986781082444433,0.7732256427365546,0.3639243649783025,-0.2376585502824232,0.8905680262056306,0.012717549109759724,-0.46269306769289137,0.4081616905283978,1.4629658555757867,-0.06278258587807788,0.8637718540578667,-0.20872641152946592,0.61710710368715,-0.397794333323729,-1.4142444702283286,-1.7563565832460502,0.02175060537272778,2.0983260377285244,-0.5295609367131426,1.9740716134885192,-0.40218783111360407,-1.0285204012275757,1.3647005862403745,0.14957302544385337
33,-1.166824277383323,-1.0153633023541326,1.9125404582371266,1.2356772185802896,1.6971449443376285,0.5496658796499102,-0.986795614604051,0.7735599617508221,0.3626482451200301,-0.23778983694102168,0.8873962320191143,0.009647162708232248,-0.4626698182989219,0.4107472999338953,1.4629806975919566,-0.0586425594060481,0.8628915977161198,-0.21050541650131735,0.619530459942954,-0.39752819981858384,-1.4168370285280434,-1.7609189146295043,0.015970131371657828,2.0945831661809313,-0.5347589522504641,1.9699746566829361,-0.4045959881266772,-1.0342037307019634,1.361804713162978,0.1445649326375794
34,-1.1670545094466198,-1.0145756211236057,1.9125444322404657,1.2338540340079178,1.6978386523152174,0.5486680035815669,-0.9868540661645054,0.7737885227471264,0.36152908375199744,-0.2379007758986585,0.8840846698587379,0.006398615645889747,-0.4626515247580682,0.4135150462853915,1.4629791161837804,-0.05431014829566313,0.8619666886926651,-0.21239286574093602,0.6220814935702456,-0.3972573687688425,-1.4190454603664553,-1.765152342969676,0.010727931234372549,2.0913512661823397,-0.5393168447502519,1.9662729919579385,-0.4066260212399376,-1.0393983658275048,1.3593683758854525,0.13987834320020434
35,-1.1674204340687386,-1.0139472372604754,1.9125477402066207,1.2322020397152704,1.6985191747369948,0.5478805886294711,-0.9869522400117191,0.7739209160178202,0.36055090139086854,-0.23799416823614766,0.8806546783717747,0.00299860862611065,-0.46263854198228144,0.4164365232044125,1.4629635086556063,-0.04981644963664055,0.8610036650208953,-0.21437387707606442,0.6247400014080462,-0.3969841794016835,-1.4209213349408845,-1.7690978983249437,0.0059654798105068406,2.0885715446416504,-0.5433096694582574,1.9629224821158668,-0.4083275410618227,-1.0441595387833587,1.3573363682979795,0.13547656521795357
36,-1.1679080028192232,-1.0134620330661581,1.9125498955857398,1.2307039340441204,1.6991868703233646,0.5472815185825654,-0.987086174511219,0.7739661399827668,0.3596989701670451,-0.2380724489146962,0.8771245109940736,-0.0005300188958474706,-0.4626309965187347,0.41948771896546094,1.4629359409060834,-0.04518764867554413,0.8600082020770005,-0.21643568141002664,0.6274889706112287,-0.3967104633054424,-1.4225091575872133,-1.7727913635660781,0.0016302857171849108,2.086192075090787,-0.546803754447656,1.9598842350129417,-0.40974333429250864,-1.0485364554587944,1.3556604295627923,0.13132726348499207
37,-1.1685043857099369,-1.0131051074100266,1.9125505613392766,1.2293437500055553,1.6998422401327424,0.5468506960324467,-0.9872521926449276,0.7739325119188053,0.35895987730228546,-0.23813772334533517,0.873509773254751,-0.004167731953441526,-0.4626288591436829,0.42264831192194685,1.4628981925448272,-0.04044581730416208,0.8589852136134162,-0.21856732661640224,0.6303140583935828,-0.3964376533603698,-1.4238473435849197,-1.7762639265706763,-0.0023244711354065478,2.0841671412414295,-0.5498575345210315,1.9571240629572872,-0.41091031371244036,-1.0525727687034971,1.3542984380996912,0.12740199894162046
38,-1.169197962824422,-1.0128628282925498,1.9125495149907912,1.228106906312485,1.7004858688355775,0.5465699975672181,-0.9874469210705514,0.7738276406827579,0.35832150659799533,-0.23819180620802025,0.8698238163820449,-0.007897804902988421,-0.4626319972830678,0.4259010675541894,1.4628517975676694,-0.03560959874563529,0.8579389494735379,-0.22075941099003496,0.6332031471735974,-0.3961668698250404,-1.4249690836689837,-1.7795427763856568,-0.0059404040814123584,2.0824565616311794,-0.5525224062549594,1.9546119460108309,-0.41186036042751867,-1.0563071053367112,1.35321364545473,0.12367578109365003
39,-1.1699782690545937,-1.0127228154376708,1.9125466207123563,1.226980183664532,1.7011183828844019,0.5464231626713599,-0.987667290089887,0.7736584379274912,0.3577729727523337,-0.2382362590330833,0.866078081567348,-0.01170589153810565,-0.4626402124876166,0.4292313301798064,1.462798080061794,-0.030694784581852187,0.856873085468713,-0.2230038498618781,0.6361459703214742,-0.3958989878994154,-1.425903098318545,-1.7826516350560233,-0.009254420291879345,2.0810250400703936,-0.5548435492605608,1.9523215266242848,-0.41262105630125284,-1.0597735974445825,1.3523739760370141,0.12012665121853393
40,-1.1708359139773217,-1.0126738818569252,1.9125418073809244,1.2259516576246776,1.7017404213161642,0.5463956496312529,-0.9879105221318834,0.7734311517714986,0.3573045313601979,-0.238272424774978,0.8622823954786911,-0.015579657762347831,-0.46265326696479386,0.43262659865152514,1.4627381850182204,-0.025714795540474573,0.855790803515862,-0.225293674920353,0.6391338006364525,-0.3956346905327989,-1.4266742866532511,-1.7856112244547937,-0.012299217286108947,2.079841565525661,-0.5568606846705692,1.9502296491328208,-0.4132163128342237,-1.063002389318244,1.351751402931222,0.11673530469111965
41,-1.1717624909743576,-1.0127059535686185,1.9125350515270352,1.2250106087420338,1.7023526158505784,0.546474479338852,-0.9881741138551943,0.7731514123120201,0.35690747906890624,-0.23830145864878016,0.8584452208250325,-0.019508470957018926,-0.4626709021656356,0.4360761743276351,1.462673104634776,-0.020681079194145642,0.8546948616748041,-0.2276228636901693,0.6421591927759781,-0.39537450961464626,-1.4273042800150604,-1.7884396717015263,-0.015103752679872452,2.078878871661454,-0.5586087583767808,1.9483159489530562,-0.4136669067208629,-1.066020105142093,1.3513214006136776,0.11348475485830628
42,-1.1727504842764962,-1.0128099798067682,1.9125263642028474,1.2241474231237723,1.7029555777429832,0.5466480795374594,-0.9884558151980213,0.7728242821767827,0.35657405268915776,-0.2383243550978323,0.8545738671387453,-0.02348313900334206,-0.4626928516395443,0.43957087000775574,1.4626037006200274,-0.015603437521575662,0.8535876545658583,-0.22998619572961793,0.6452157711182949,-0.3951188580866677,-1.427811911832683,-1.7911528588366943,-0.017693675796837113,2.078112958165892,-0.5601185465138769,1.9465624912075998,-0.41399093366433315,-1.068850271235491,1.35106247025295,0.11036003743979658
43,-1.1737931790102818,-1.0129778413821426,1.912515780942535,1.2233534916032056,1.703549889490745,0.5469061365943703,-0.9887536074773976,0.7724543079016652,0.3562973323266178,-0.2383419710809958,0.8506746672510819,-0.027495691844766745,-0.46271884977472383,0.44310276962480705,1.4625307230354032,-0.0104902961315932,0.8524712650557535,-0.2323791319076904,0.6482980553576086,-0.39486805499159,-1.4282136153396883,-1.7937647231715728,-0.0200917168091745,2.07752267141264,-0.5614171863238162,1.9449534557243269,-0.41420419190900293,-1.0715136918869104,1.3509557307986204,0.10734795258703021
44,-1.1748845769934997,-1.013202261743319,1.912503354137251,1.2226211122977266,1.7041360999895616,0.5472394584103153,-0.9890656818143566,0.7720455696466709,0.3560711512041352,-0.23835504601998017,0.8467531246800314,-0.03153919896949318,-0.46274863759900936,0.44666502983333384,1.4624548261867416,-0.0053489254350407986,0.8513475082499078,-0.23479771329036078,0.6514013171530874,-0.39462234503933,-1.4285237598908584,-1.7962875147202264,-0.02231803325650429,2.0770893396772974,-0.5625286384130731,1.943474864042768,-0.41432050607629917,-1.0740287807808313,1.3509845681900248,0.10443684089678161
45,-1.176019319555884,-1.013476723253943,1.91248914728177,1.2219433991735371,1.704714722112971,0.5476398499278131,-0.989390418616718,0.7716017278857932,0.3558900133495805,-0.23836421880155773,0.8428140366309386,-0.03560761693534897,-0.46278196649053016,0.45025171599560426,1.462376582026032,-0.00018562248166704032,0.8502179688345617,-0.23723847650628713,0.6545214621886359,-0.39438191392092437,-1.428754935444017,-1.798732016700283,-0.024390516122215555,2.0767964571631943,-0.5634740876024107,1.9421143436245958,-0.4143520006949847,-1.0764118515321648,1.3511343350577187,0.10161638944628516
46,-1.1771926177640288,-1.0137953899066339,1.912473230664493,1.2213141978531923,1.7052862319695161,0.5481000014211972,-0.9897263684993994,0.7711260664209202,0.35574901942197806,-0.23837004222989358,0.8388615966995216,-0.03969566186781511,-0.4628186004106708,0.45385766632226743,1.4622964914652898,0.004994139282188509,0.8490840327427456,-0.23969838286384895,0.6576549329558697,-0.3941469003233947,-1.4289181935040751,-1.8011077344825417,-0.026325058808380868,2.076629410928767,-0.5642722897667198,1.9408609245303046,-0.41430933154681227,-1.0786773714683384,1.3513920938094615,0.09887746403040462
47,-1.1784001899047265,-1.0141530368898442,1.912455678166222,1.2207280090502535,1.7058510692994373,0.5486133890289628,-0.9900722348003682,0.7706215315118861,0.35564380042911736,-0.23837299529715691,0.8348994807577582,-0.04379870264149001,-0.46285831710007863,0.45747837902562494,1.4622149939459692,0.010185586367535197,0.8479469140150876,-0.24217475889281548,0.660798628409884,-0.39391740538218073,-1.4290232516009245,-1.8034230577055315,-0.02813579280023135,2.0765752450851025,-0.5649398717165562,1.9397048641521175,-0.4142018817335497,-1.0808381829004783,1.3517463967267047,0.09621196407276457
48,-1.1796382057942394,-1.0145449869430654,1.9124365649080526,1.2201799195100147,1.7064096386246421,0.5491741866171591,-0.9904268577148472,0.7700907671778042,0.3555704588128779,-0.23837349360150495,0.8309309189416164,-0.047912671160412305,-0.4629009085544103,0.4611099182805647,1.4621324755533374,0.015384542838782574,0.8468076776137704,-0.24466524635468376,0.6639498373582731,-0.3936935001398968,-1.4290786672597013,-1.8056853996217253,-0.029835293843807013,2.0766224571248904,-0.5654915905586898,1.9386374960395403,-0.4140379282732093,-1.0829056959352432,1.3521870974942285,0.09361269705106627
49,-1.1809032373431296,-1.0149670531639785,1.9124159655477193,1.219665540053077,1.7069623108763192,0.5497771879053689,-0.9907891999913131,0.7695361468722577,0.3555255162517818,-0.23837189819917018,0.826958756164801,-0.052033986767005894,-0.4629461810070349,0.46474883556988134,1.462049275917574,0.020587345198541277,0.8456672588383142,-0.2471677600931846,0.6671061830354335,-0.3934752314506313,-1.42909198644609,-1.8079013171437626,-0.03143476226333799,2.076760821820087,-0.5659405582547768,1.9376510993343343,-0.4138247840740825,-1.0848900565426862,1.3527051893609106,0.09107326966302347
50,-1.1821922147588932,-1.0154154877922785,1.9123939530697458,1.219180950177483,1.7075094253048315,0.5504177377570202,-0.9911583340900283,0.7689598018090816,0.3555058674939278,-0.2383685231363742,0.8229855031586445,-0.05615949233202912,-0.4629939545814145,0.4683921036343909,1.4619656941023846,0.02579077136150491,0.8445264798915864,-0.24968045237774916,0.6702655768000404,-0.39326262666930295,-1.4290698706331153,-1.8100766145271387,-0.03294418073434189,2.0769812387090796,-0.5662984363693626,1.936738785799212,-0.4135689193154839,-1.0868002932005318,1.3532926658417472,0.08858799333087677
51,-1.1835023877742394,-1.015886936438573,1.9123705979503816,1.2187226486211977,1.7080512915345893,0.5510916715778515,-0.9915334306849289,0.7683636462442591,0.35550873954916085,-0.23836364186937772,0.8190133796814599,-0.060286400015542294,-0.46304406272939097,0.47203706077374136,1.4618819936473024,0.030991981132025503,0.8433860640560197,-0.25220168263001735,0.6734261792891294,-0.39305569738891694,-1.4290182059300804,-1.8122164331638357,-0.034372452474379436,2.077275599744559,-0.5665756053113432,1.9358944018554285,-0.4132760655737859,-1.0886444450323025,1.353942400502856,0.08615180198291415
52,-1.1848312913235546,-1.0163783972200886,1.912345967605838,1.218287509284827,1.708588191668516,0.5517952618456522,-0.9919137483838149,0.7677494000210645,0.3555316556129725,-0.2383574927480199,0.8150443512440873,-0.06441224505149476,-0.46309635153807976,0.47568136367040537,1.461798406900958,0.036188466097577816,0.8422466478638625,-0.25472999162120996,0.6765863676823968,-0.39285444242959894,-1.4289421971246774,-1.8143253295662731,-0.035727522456511285,2.07763667417131,-0.5667813117508281,1.9351124434285758,-0.41295130545664177,-1.090429673973658,1.3546480429189303,0.08376018035316694
53,-1.18617671513906,-1.0168871842866922,1.912320126053517,1.2178727419420592,1.7091203823768857,0.5525251708897335,-0.992298624544203,0.7671186086717551,0.3555724031513175,-0.23835028370970973,0.8110801604538955,-0.06853484620678493,-0.4631506789638852,0.4793229472543861,1.4617151387586478,0.041378007251769655,0.8411087915807179,-0.2572640793916102,0.6797447079885657,-0.3926588502378932,-1.4288464490000834,-1.8164073432866112,-0.03701648391291385,2.0780580081420856,-0.5669237973445571,1.9343879817370149,-0.4125991500313659,-1.0921623631518582,1.3554039283604988,0.08140910130435877
54,-1.187536676792375,-1.0174108952574812,1.9122931337322426,1.2174758572081132,1.7096480969269787,0.5532784091374143,-0.9926874670692152,0.7664726613472557,0.3556290056363177,-0.2383421963067356,0.8071223538791272,-0.07265227180979386,-0.46320691403469105,0.48295999040467236,1.461632369897806,0.04655863898368509,0.8399729882674681,-0.25980278627770914,0.682899931473493,-0.3924689008198162,-1.4287350368848186,-1.8184660562355464,-0.03824567208868123,2.078533836959834,-0.5670104114274122,1.9337165984455413,-0.4122236059400445,-1.0938482033527435,1.3562049991639054,0.07909497090615979
55,-1.1889093977613459,-1.0179473821315248,1.912265047440055,1.217094635285683,1.7101715471254917,0.5540522981400351,-0.9930797470771457,0.7658128068210195,0.35569969748254293,-0.23833338916950364,0.803172305171863,-0.07676281044261958,-0.46326493604868246,0.4865908865080318,1.4615502595887677,0.051728618330091174,0.8388396716405857,-0.26234507654253625,0.6860509145167679,-0.39228456730413136,-1.4286115680603935,-1.8205046446298832,-0.03942074693261788,2.0790590081598115,-0.5670477099202968,1.933094328852169,-0.41182823377033534,-1.0954922691784958,1.3570467360689855,0.07681458019420731
56,-1.1902932821531769,-1.0184947252811716,1.9122359203577837,1.2167270980581486,1.7106909251566802,0.5548444377789744,-0.9934749923484517,0.7651401677873587,0.35578290178941674,-0.23832400099140305,0.7992312350546183,-0.08086494555349742,-0.4633246337891622,0.4902142180767439,1.461468948144932,0.05688639859572556,0.8377092229134818,-0.26489002419452196,0.6891966613178276,-0.39210581721139237,-1.428479235378188,-1.8225259246024355,-0.040546766172959325,2.0796289139211175,-0.5670415423588102,1.9325176119832717,-0.41141619898509885,-1.097099086265538,1.3579250980868272,0.07456506269911137
57,-1.1916868977616433,-1.0190512101797475,1.9122058021340655,1.2163714841481699,1.7112064053070213,0.5556526771312184,-0.9938727814639711,0.7644557536496194,0.3558772105459804,-0.23831415310693274,0.7953002286671889,-0.08495733337790727,-0.46338590476817826,0.4938287347728272,1.4613885590655378,0.06203060661456364,0.8365819767707021,-0.26743680065350717,0.6923362889805579,-0.3919326134880783,-1.4283408642122075,-1.8245323923449526,-0.041628250019468876,2.0802394315300674,-0.5669971286551357,1.9319832466467914,-0.4109903164957946,-1.0986726907318,1.3588364696910202,0.07234385697272523
58,-1.1930889591779361,-1.0196153065558722,1.9121747390132147,1.216026226604571,1.7117181455726531,0.5564750885438613,-0.994272738557725,0.7637604719704717,0.35598136699932276,-0.23830395172305982,0.7913802506822538,-0.08903878366424535,-0.46344865450707057,0.49743333430409414,1.4613092009153625,0.06716002305976666,0.8354582266013765,-0.269984663982245,0.6954690145921713,-0.39176491535252894,-1.4281989536896142,-1.8265262595193832,-0.04266923855624621,2.080886870813549,-0.5669191269599695,1.9314883526395508,-0.4105530897854162,-1.1002166818523327,1.3597776143178342,0.07014867345504465
59,-1.194498312711454,-1.0201856497032944,1.9121427739917778,1.2156899329209558,1.7122262891496434,0.557309944527823,-0.9946745286164453,0.7630551387356851,0.35609424992752353,-0.2382934898541165,0.787472158526635,-0.09310824278729732,-0.46351279585867994,0.50102704575252,1.4612309689783378,0.0722735653184773,0.8343382290974228,-0.2725329494504273,0.6985941439820788,-0.3916026789895597,-1.4280557129890152,-1.828509484560237,-0.043673342738472586,2.0815679276246346,-0.5668116937852374,1.9310303364272219,-0.41010674533953234,-1.101734268817948,1.3607456333202277,0.06797746512255903
60,-1.1959139229088847,-1.0207610237078917,1.9121099469930418,1.215361367125605,1.7127309658097056,0.5581556971337406,-0.9950778532658967,0.7623404875641452,0.3562148595923237,-0.23828284900253893,0.7835767139868807,-0.09716477890387284,-0.4635782483735643,0.5046090149723877,1.461153946716092,0.07737027253500128,0.8332222083048069,-0.27508106123797593,0.7017110619028382,-0.3914458581229573,-1.427913093371371,-1.8304838003971475,-0.044643789777833766,2.0822796426001577,-0.5666785373756653,1.9306068607179812,-0.4096532630228972,-1.103228312309537,1.361737929653012,0.06582840144065999
61,-1.1973348604876295,-1.0213403463823663,1.9120762950514034,1.2150394337140191,1.7132322931656834,0.5590109595182854,-0.9954824469911211,0.7616171779804869,0.35634230517640864,-0.23827210062111856,0.7796945934304539,-0.10120756886293379,-0.4636449377108834,0.5081784917580571,1.4610782070575015,0.08244929249639121,0.8321103592020048,-0.2776284651167508,0.7048192234207834,-0.3912944044890464,-1.427772816505203,-1.8324507390487224,-0.04558346359233483,2.083019364525019,-0.5665229651726024,1.930215817436592,-0.4091944029392997,-1.1047013615176335,1.3627521756764942,0.06369984521135962
62,-1.1987602915234865,-1.0219226557244883,1.9120418525005576,1.2147231632233193,1.713730377832185,0.559874489447961,-0.9958880737439586,0.7608858028523987,0.35647579353571257,-0.2382613073869326,0.7758263968351924,-0.10523588662986934,-0.4637127950934403,0.5117348185318583,1.4610038135412833,0.08750987009138951,0.8310028508681574,-0.2801746819763112,0.707918146340759,-0.391148268229799,-1.4276363995624581,-1.834411653473632,-0.046494940903783144,2.0837847177343374,-0.5663479260922633,1.9298553036773944,-0.40873172922991213,-1.1061556871497173,1.3637862845574256,0.06159033196524858
63,-1.2001894677530032,-1.022507097736791,1.9120066511610498,1.2144116992719545,1.7142253164873724,0.5607451745206083,-0.9962945238966628,0.7601468950822067,0.356614619119043,-0.23825052431254545,0.7719726557881935,-0.1092490930232725,-0.46378175680557504,0.5152774203438352,1.460930821330311,0.0925513371197753,0.8298998292937825,-0.28271928208105074,0.711007404519223,-0.3910073982202484,-1.4275051774906937,-1.8363677370104097,-0.047380523487833726,2.0845735730653443,-0.566156048238836,1.9295236002747866,-0.4082666311971828,-1.1075933108941478,1.3648383848223005,0.05949855159516055
64,-1.2016217178684878,-1.0230929154648054,1.911970720523956,1.214104286909232,1.714717196842205,0.5616220189131814,-0.9967016115052041,0.7594009336315524,0.3567581549260876,-0.23823979971626086,0.7681338405895082,-0.1132466265942918,-0.4638517637320808,0.5188057960086865,1.460859278113575,0.09757310326654037,0.8288014198789635,-0.2852618799638076,0.7140866219442205,-0.39087174234204314,-1.4273803228084743,-1.8383200406917086,-0.04824226701496785,2.08538402193874,-0.565949672587418,1.9292191526802356,-0.4078003420846943,-1.1090160317473166,1.3659067976816763,0.05742333196993871
65,-1.2030564396987447,-1.0236794391275632,1.9119340879283977,1.2138002621374537,1.7152060985235138,0.5625041314885684,-0.9971091718500245,0.7586483489486381,0.3569058443909433,-0.23822917607002098,0.7643103665749038,-0.11722799550469767,-0.4639227609359913,0.5223195102327681,1.4607892249094063,0.10257464808570867,0.8277077296573376,-0.2878021298756663,0.7171554674804644,-0.39074124771266283,-1.427262863221867,-1.8402694886803062,-0.049082006864226875,2.0862143532063273,-0.5657308830997388,1.9289405538772917,-0.4073339557962559,-1.1104254495577552,1.3669900167974391,0.05536362430130086
66,-1.2044930931815456,-1.0242660772285492,1.9118967787313275,1.213499042485293,1.715692093877202,0.5633907151149371,-0.997517059225643,0.7578895278594241,0.35705719409210046,-0.23821869074088087,0.7605025997545984,-0.12119277028128471,-0.46399469727290477,0.5258181866065866,1.4607206967816695,0.10755551386338352,0.8266188492787323,-0.29033972172371714,0.7202136501938723,-0.3906158608779862,-1.4271536973189112,-1.842216892041646,-0.04990138124334885,2.08706303244989,-0.5655015336748169,1.928686529101871,-0.40686844179810583,-1.1118229860960043,1.368086690209628,0.05331849006613614
67,-1.2059311940449777,-1.0248523085478416,1.9118588164685726,1.213200118524813,1.716175248697679,0.5642810570688321,-0.9979251449536867,0.7571248179771586,0.3572117672016648,-0.23820837663974487,0.7567108618505525,-0.12514057734199419,-0.464067525039433,0.5293015013568008,1.4606537234790309,0.11251529924985665,0.8255348547787279,-0.2928743774384964,0.723260915183103,-0.3904955279744442,-1.427053608564486,-1.844162961040181,-0.05070185190780612,2.0879286834570507,-0.5652632722851783,1.9284559221653441,-0.406404658415058,-1.1132099039207144,1.3691956041770694,0.05128708931152005
68,-1.2073703081244045,-1.0254376749271048,1.9118202230065489,1.2129030462365,1.7166556228893803,0.5651745204084903,-0.9983333155966949,0.7563545316785413,0.35736917759680836,-0.23819826278916098,0.7529354348030655,-0.12907109320388366,-0.46414119965335565,0.5327691777671045,1.4605883300060662,0.11745365356722202,0.8244558091596024,-0.2954058477210928,0.7262970398564814,-0.3903801948658318,-1.4269632777889334,-1.8461083161233474,-0.051484722735984645,2.0888100716344544,-0.5650175626054651,1.9282476832036601,-0.4059433647036132,-1.1145873232786616,1.3703156687178706,0.0492686701910355
69,-1.2088100462500728,-1.0260217747686429,1.9117810186843758,1.2126074401371298,1.7171332710659324,0.5660705362169776,-0.9987414713524827,0.7555789496895351,0.35752908456525373,-0.23818837482036886,0.749176564807587,-0.13298403929535565,-0.46421567936310726,0.5362209811901054,1.4605245371338336,0.1223702717126113,0.8233817638038967,-0.2979339091267837,0.729321830601641,-0.3902698072589244,-1.4268832943391758,-1.8480534977369738,-0.052251156387433245,2.0897060891481334,-0.5647657034028846,1.9280608576976221,-0.4054852310615317,-1.1159562372481828,1.3714459046628076,0.04726255959923882
70,-1.2102500596475945,-1.0266042571780627,1.9117412224463646,1.2123129670944088,1.717608243092187,0.5669685966261017,-0.9991495246109777,0.7547983243192291,0.3576911880442373,-0.23817873540843826,0.7454344659344478,-0.13687917730534063,-0.46429092498430236,0.5396567145829301,1.4604623618565824,0.12726488958847,0.8223127597391279,-0.300458361447817,0.7323351198026201,-0.390164310801302,-1.4268141660401172,-1.8499989750987602,-0.053002189244954964,2.0906157416061473,-0.5645088459269229,1.9278945766281368,-0.40503084871339257,-1.117317525311264,1.3725854320576185,0.04526815478680832
71,-1.211690035799798,-1.0271848166874258,1.9117008519650236,1.2120193407603406,1.718080584574033,0.567868248541907,-0.9995573986573317,0.7540128823761209,0.35785522433903666,-0.23816936465317565,0.7417093233773396,-0.14075630501077668,-0.46436689966110717,0.5430762145081772,1.4604018178004514,0.1321372800006787,0.8212488287698718,-0.30297902536278404,0.7353367631653109,-0.3900636511641856,-1.4267563280962008,-1.8519451540416496,-0.053738744818655385,2.0915381361202963,-0.5642480095081905,1.9277480476463262,-0.404580738194624,-1.1186719655184847,1.3737334597698803,0.04328491585247177
72,-1.2131296947239207,-1.0277631885022205,1.9116599237548557,1.2117263165623144,1.7185503373005429,0.568769088001138,-0.9999650265067678,0.753222827797643,0.3580209622729464,-0.238160280412486,0.7380012963705788,-0.14461525253103782,-0.4644435686503827,0.5464793475493188,1.460342915589306,0.13698724897315476,0.8201899944914783,-0.30549574032410615,0.7383266373173103,-0.38996777411260936,-1.4267101510476168,-1.853892384026105,-0.054461645770359904,2.0924724706024196,-0.5639840955524555,1.9276205471522376,-0.4041353569418873,-1.1200202453927641,1.3748892761730385,0.041312359019565204
73,-1.214568785622916,-1.0283391442211938,1.9116184532773108,1.2114336871971252,1.7190175396426974,0.5696707550955634,-1.000372349858097,0.7524283440206394,0.3581881997256635,-0.2381514985940246,0.7343105208102867,-0.148455878964173,-0.4645208991266492,0.5498660070959724,1.460285663172268,0.14181463243413742,0.8191362731979964,-0.30800836265861636,0.7413046376525478,-0.38987662556485836,-1.4266759478823858,-1.8558409644091745,-0.055171624699609935,2.0934180241670157,-0.5637179000952468,1.927511413187874,-0.4036951060851241,-1.121362971701909,1.3760522407947435,0.03935005061531104
74,-1.2160070838738855,-1.028912487983137,1.911576455037313,1.2111412785786486,1.7194822269126044,0.5705729294076389,-1.0007793181541482,0.7516295961177305,0.3583567605215121,-0.2381430334102413,0.7306371116104413,-0.15227806936512217,-0.4645988600060478,0.5532361104598491,1.4602300661169727,0.14661929323490025,0.8180876746954432,-0.3105167638591657,0.7442706763947263,-0.3897901516427863,-1.426653980394036,-1.8577911500485051,-0.05586933381737104,2.0943741485260494,-0.5634501250643996,1.9274200390606888,-0.40326033652570153,-1.1227006792160057,1.3772217768292858,0.03739760167984917
75,-1.2174443883203874,-1.02948305299923,1.9115339426718245,1.2108489461947858,1.719944431686826,0.5714753259067955,-1.0011858877385207,0.7508267327220631,0.35852649163287736,-0.23813489760128462,0.7269811648211795,-0.1560817320306326,-0.46467742178760457,0.5565895962867744,1.4601761278721312,0.15140111846633325,0.8170442030302946,-0.3130208290477122,0.7472246808567112,-0.3897082987143651,-1.4266444648645846,-1.8597431563109612,-0.05655535362032178,2.0953402602741407,-0.5631813883821403,1.9273458676227928,-0.4028313543756437,-1.1240338385534197,1.3783973644249374,0.03545466313990307
76,-1.2188805188386913,-1.0300506984335602,1.911490929030922,1.2105565718336562,1.7204041840971418,0.5723776912607774,-1.001592021099112,0.7500198877607509,0.35869726066771385,-0.23812710262968415,0.7233427595336519,-0.15986679605953297,-0.46475655641022545,0.559926422234137,1.4601238500025935,0.1561600170428484,0.8160058571419889,-0.3155204555925315,0.7501665918756655,-0.3896310134296055,-1.426647577143786,-1.8616971635480133,-0.0572302006668802,2.096315833973173,-0.5629122330244473,1.9272883861390857,-0.40240842582469316,-1.1253628632083277,1.3795785346666274,0.033520921488873506
77,-1.2203153141510124,-1.03061530659804,1.9114474262518728,1.2102640606429174,1.7208615120917996,0.5732798005210157,-1.001997686189808,0.7492091820153658,0.3588689536130963,-0.2381196588502507,0.7197219595930648,-0.1636332091604382,-0.4648362371239712,0.5632465628865305,1.4600732323997536,0.16089591752650542,0.8149726314472817,-0.3180155518640754,0.7530963624060024,-0.3895582427508121,-1.426663457187919,-1.8636533210934685,-0.0578943345457491,2.0973003959548926,-0.5626431351431982,1.9272471216845546,-0.4019917814947244,-1.126688115843119,1.380764864182838,0.03159609492125695
78,-1.221748629861394,-1.0311767804311724,1.9114034458266893,1.2099713384895874,1.721316441670049,0.5741814541450865,-1.00240285582256,0.7483947245260903,0.35904147280954996,-0.23811257565821783,0.7161188151392237,-0.16738093568194,-0.464916438374278,0.5665500078853255,1.4600242734698439,0.16560876616722806,0.8139445163634554,-0.3205060361156529,0.7560139562542055,-0.3894899339779889,-1.4266922131146367,-1.8656117508332648,-0.05854816411854009,2.098293518768511,-0.5623745113457811,1.9272216370171689,-0.40158162033467815,-1.128009913920475,1.3819559703130588,0.0296799298746964
79,-1.2231803366922822,-1.0317350412330268,1.9113589986636363,1.209678349590884,1.7217689970925178,0.5750824753229361,-1.0028075071228324,0.7475766138545707,0.3592147351333738,-0.2381058616182831,0.7125333639918612,-0.17110995484295144,-0.4649971356978969,0.5698367602504981,1.4599769703023924,0.1702985251375653,0.812921498776652,-0.32299183547654925,0.758919346941275,-0.38942603477009086,-1.426733924824413,-1.8675725503918679,-0.059192053109818475,2.0992948162077947,-0.5621067252172323,1.9272115268783008,-0.40117811310357887,-1.129328534742346,1.383151506778722,0.02777219793777984
80,-1.2246103189019513,-1.0322900266314035,1.9113140951431438,1.2093850543894236,1.7222192010697635,0.5759827075768055,-1.003211621042077,0.7467549392190949,0.3593886703663886,-0.23809952457688857,0.7089656328962468,-0.17482025914317675,-0.4650783056294302,0.5731068348753168,1.459931318820887,0.17496517094270875,0.8119035624609462,-0.32547288504646654,0.7618125166800613,-0.38936649316271404,-1.4267886472338287,-1.869535795975195,-0.05982632511056773,2.100303938858802,-0.5618400931613907,1.9272164146774764,-0.40078140548423197,-1.1306442199562696,1.3843511598064013,0.025872693085985752
81,-1.2260384728648623,-1.0328416887565426,1.91126874516856,1.209091427648672,1.72266707493113,0.5768820126077099,-1.0036151819215104,0.7459297815144409,0.3595632197345365,-0.2380935717598008,0.7054156386429976,-0.17851185293571664,-0.46515992561743724,0.5763602571764935,1.4598873139174722,0.1796086929884597,0.8108906884531993,-0.3279491270812941,0.7646934554560619,-0.3893112575827328,-1.4268564131612267,-1.8715015449058767,-0.06045126805449684,2.101320570115344,-0.5615748896299032,1.927235949522618,-0.400391620865787,-1.1319571795833994,1.3855546446572569,0.023981229212000167
82,-1.2274647057987538,-1.0333899926038688,1.9112229582121614,1.2087974567468471,1.7231126387758466,0.5777802683639578,-1.0040181771020262,0.7451012142275889,0.3597383345985546,-0.23808800985680323,0.7018833890746082,-0.18218475114562716,-0.4652419739491737,0.5795970618841796,1.4598449495733277,0.1842290922915902,0.8098828553882194,-0.33042051026120883,0.7675621602014179,-0.38926027686031794,-1.4269372359010741,-1.873469837882985,-0.06106713822071337,2.102344422614577,-0.5613113518010593,1.9272698035608251,-0.4000088628294258,-1.1332675956171818,1.3867617025213543,0.022097637920052645
83,-1.2288889346238256,-1.03393491456621,1.9111767433568083,1.208503140149549,1.7235559116081307,0.5786773673095637,-1.0044205965755664,0.7442693042594377,0.3599139752815644,-0.23808284509509844,0.6983688839899733,-0.18583897811986447,-0.4653244296831111,0.5828172919577619,1.459804218966199,0.1888263803185933,0.8088800397982944,-0.33288698903299624,0.7704186340528782,-0.38921350023871076,-1.4270311115196195,-1.8754407009950742,-0.06167416381098224,2.1033752350498776,-0.5610496837642828,1.9273176695982266,-0.3996332173679291,-1.1345756252367292,1.3879720977396521,0.020221766556986105
84,-1.2303110849407846,-1.034476441118685,1.9111301093336128,1.208208486043286,1.7239969114578924,0.5795732148725482,-1.0048224326737427,0.743434112661722,0.36009011001987984,-0.23807808330282668,0.6948721159570617,-0.1894745665954892,-0.4654072725884603,0.5860209976148223,1.4597651145664112,0.19340057794019905,0.8078822163807564,-0.33534852301927387,0.7732628856854161,-0.38917087738207334,-1.4271380209010842,-1.8774141475124202,-0.062272548145017474,2.104412769322435,-0.5607900602605792,1.9273792589705578,-0.39926475486673996,-1.1358814036745386,1.3891856153201656,0.018353476455528803
85,-1.231731090115793,-1.0350145676410551,1.911083064555961,1.207913511113773,1.7244356554884943,0.5804677280550526,-1.0052236797899,0.742595695297463,0.36026671402466104,-0.23807372996393833,0.6913930710429023,-0.19309155677429576,-0.46549048309099494,0.5892082354618762,1.4597276282225562,0.19795171449026813,0.8068893582368643,-0.33780507648801117,0.776094928713998,-0.3891323583816928,-1.4272579315706269,-1.8793901794817092,-0.06286247251295397,2.1054568079968305,-0.560532630024263,1.9274542996389306,-0.3989035318713344,-1.137185046774259,1.3904020587181687,0.01649264136771093
86,-1.2331488904615187,-1.0355492973637819,1.9110356171502114,1.207618239454423,1.7248721600928794,0.5813608341889456,-1.005624334131188,0.7417541034325021,0.3604437686432343,-0.23806979026551073,0.687931729469149,-0.19668999549319374,-0.46557404222453486,0.5923790677166336,1.4596917512379268,0.20247982691878033,0.8059014370849635,-0.3402566178763778,0.7789147811567424,-0.3890978937607776,-1.4273907993176271,-1.8813687891440394,-0.0634440987202678,2.106507152029329,-0.560277518766803,1.9275425344877881,-0.3985495926631895,-1.138486653270636,1.3916212478532997,0.014639146068593633
87,-1.23456443250453,-1.036080640425352,1.9109877749833613,1.2073227015918648,1.7253064409792536,0.582252469822181,-1.00602439349755,0.7409093842649543,0.3606212606099837,-0.23806626913846743,0.6844880662006821,-0.20026993548071195,-0.46565793158751184,0.595533561512537,1.459657474438661,0.20698495902962985,0.8049184234505852,-0.342703119363529,0.7817224649533616,-0.389067434478051,-1.4275365696404207,-1.8833499601949697,-0.06401757135691394,2.107563618740731,-0.5600248318395826,1.9276437198043181,-0.3982029706643758,-1.1397863068205525,1.3928430173391422,0.012792885112481445
88,-1.2359776683302264,-1.0366086130296241,1.9109395456879574,1.207026933616588,1.7257385132474024,0.5831425797226032,-1.0064238570848352,0.7400615813987746,0.3607991813776996,-0.23806317129254356,0.681062051473978,-0.20383143469093848,-0.4657421333040927,0.5986717882772373,1.4596247882344635,0.2114671607948351,0.8039402868358765,-0.3451445564874554,0.7845180055333716,-0.38904093193031997,-1.427695179031444,-1.885333668903424,-0.06458301981929016,2.1086260400084345,-0.5597746566087223,1.9277576239206484,-0.39786368968876856,-1.1410840778111841,1.3940672149032955,0.010953761725593123
89,-1.237388554997357,-1.037133236693039,1.9108909366845033,1.2067309764079752,1.7261683914566097,0.5840311159871913,-1.006822725309522,0.7392107352670385,0.36097752652115866,-0.23806050124623795,0.6776536512713244,-0.2073745557070586,-0.46582662998938723,0.6017938231774929,1.4595936826726836,0.2159264877375787,0.8029669958705186,-0.3475809078014936,0.7873014314290917,-0.3890183379541708,-1.427866556119799,-1.887319885104535,-0.06514056011078152,2.10969426065489,-0.5595270645718128,1.9278840260020045,-0.3975317650560397,-1.1423800249686684,1.395293699978144,0.009121686820791309
90,-1.2387970540149562,-1.0376545375725192,1.9108419552015932,1.2064348749440312,1.7265960896860557,0.5849180372459157,-1.0072209996527903,0.7383568835100047,0.3611562952055136,-0.2380582633524029,0.674262827746363,-0.21089936520742078,-0.4659114047183134,0.6048997446237109,1.4595641474864494,0.22036300037722362,0.8019985184460653,-0.35001215456651846,0.7900727739289362,-0.3889996048269238,-1.4280506226864929,-1.8893085730799548,-0.0656902964440621,2.1107681370119242,-0.5592821132434356,1.9280227149656828,-0.3972072045829472,-1.1436741967883293,1.3965223424445181,0.0072965781214361005
91,-1.2402031308752373,-1.0381725458657804,1.9107926082939877,1.2061386776870642,1.7270216215884824,0.5858033079504424,-1.007618682521904,0.7375000613125421,0.3613354897128033,-0.23805646182004292,0.670889539605907,-0.2144059334877544,-0.4659964409977345,0.6079896338280218,1.4595361721374878,0.22477676373011277,0.8010348218354457,-0.3524382804752231,0.7928320667669363,-0.3889846852669599,-1.42824729456603,-1.8912996923377583,-0.06623232266600136,2.1118475356424704,-0.559039847833655,1.9281734885172037,-0.3968900094649547,-1.1449666328053614,1.3977530215122322,0.005478359382747837
92,-1.2416067546366154,-1.0386872952765884,1.910742902858826,1.2058424360374425,1.7274450004378399,0.5866868977388888,-1.0080157771270748,0.7366403017050593,0.36151511502055167,-0.23805510073282313,0.6675337424524941,-0.21789433403379005,-0.4660817227415214,0.6110635744103785,1.4595097458541941,0.2291678468605567,0.8000758727991927,-0.3548592714052381,0.7955793458448264,-0.38897353243351585,-1.428456482446613,-1.8932931983028116,-0.06676672352391912,2.112932332203099,-0.5588003027412388,1.9283361522913736,-0.39658017505987825,-1.146257364722962,1.3989856247230974,0.003666959700253941
93,-1.2430078975516223,-1.0391988225382296,1.9106928456501533,1.205546203848327,1.727866239171552,0.5875687808687092,-1.008412287372159,0.7357776358316762,0.36169517842702414,-0.2380541840647264,0.6641953890916993,-0.22136464313910081,-0.46616723424822637,0.614121652047716,1.4594848576654604,0.23353632247695713,0.7991216376798043,-0.3572751151981602,0.7983146489833834,-0.3889660999260322,-1.4286780925799354,-1.895289042927342,-0.06729357579003341,2.1140224104324377,-0.5585635028811677,1.9285105190872176,-0.3962776915840565,-1.147546417413156,1.4002200470634634,0.001862312895966844
94,-1.2444065347349924,-1.039707166989135,1.9106424432919247,1.2052500369949877,1.7282853504279767,0.5884489357105805,-1.0088082177577096,0.734912093189008,0.3618756892182528,-0.23805371569324343,0.6608744298078322,-0.22481693956349688,-0.46625296018108925,0.6171639541617023,1.4594614964307144,0.23788226656850475,0.7981720824854986,-0.35968580146184265,0.8010380157000346,-0.3889623417831248,-1.4289120274103968,-1.8972871752304246,-0.06781294925923026,2.1151176612520755,-0.5583294648640157,1.9286964081868618,-0.39598254473045386,-1.1488338098039999,1.4014561901746607,6.435697390586655e-05
95,-1.245802643867678,-1.0402123701951973,1.9105917022896375,1.2049539929929547,1.7287023465795783,0.5893273442968735,-1.0092035732950564,0.7340437018386066,0.36205665837242934,-0.23805369941043195,0.6575708126112837,-0.22825130422776913,-0.4663388855501215,0.6201905696410553,1.4594396508665801,0.24220575807833508,0.7972271729644946,-0.3620913213935621,0.8037494870100379,-0.3889622124812408,-1.4291581861325462,-1.899287541774193,-0.06832490763373664,2.1162179819679268,-0.5580981980429903,1.9288936447494427,-0.39569471621713476,-1.1501195556654344,1.4026939616509027,-0.0017269663625542647
96,-1.2471962049329794,-1.040714475613873,1.9105406290407243,1.2046581306598296,1.7291172397622758,0.5902039919189445,-1.0095983594302231,0.7331724885957993,0.36223809829771153,-0.23805413893213823,0.6542844834604634,-0.2316678199409984,-0.466424995696043,0.6232015885948022,1.4594193095705246,0.2465068786094301,0.7962868746708345,-0.3644916676219086,0.8064491052488085,-0.38896566693305223,-1.4294164651846204,-1.9012900870837484,-0.06882950930688168,2.1173232755612514,-0.5578697054428103,1.9291020592720372,-0.39541418427366737,-1.1514036643047896,1.4039332744152706,-0.0035117121382423526
97,-1.2485871999813682,-1.0412135282956525,1.9104892298438312,1.2043625098161146,1.729530041901383,0.591078866768069,-1.0099925819766142,0.7322984791973941,0.3624200225998875,-0.23805503790563784,0.6510153864609732,-0.23506657115702637,-0.4665112762758676,0.6261971021332239,1.4594004610418183,0.2507857121599189,0.7953511530226586,-0.36688683406545985,0.8091369139132024,-0.38897266048562984,-1.4296867586852222,-1.9032947540170089,-0.06932680805687193,2.11843345005966,-0.5576439845831382,1.9293214871104194,-0.39514092407222495,-1.1526861411817928,1.4051740461653788,-0.0052899324846862284
98,-1.249975612920926,-1.0417095746189327,1.9104375109070924,1.2040671910208796,1.7299407647345146,0.5919519596153654,-1.010386247055515,0.7314216984504749,0.3626024458767058,-0.23805639991591845,0.6477634640443963,-0.23844764375702784,-0.4665977132499551,0.6291772021735544,1.4593830937001036,0.25504234488476235,0.7944199733537486,-0.36927681580649246,0.8118129575197858,-0.38898314891843633,-1.429968958819427,-1.9053014840900733,-0.06981685366037173,2.11954841797942,-0.557421028207974,1.9295517680531955,-0.3948749081094441,-1.1539669884519062,1.4064161988811787,-0.007061676974940056
99,-1.2513614293306452,-1.0422026620547302,1.910385478355502,1.2037722353385265,1.730349419831789,0.5928232635265361,-1.0107793610435485,0.7305421703642859,0.3627853835360064,-0.23805822849079966,0.6445286571288401,-0.24181112485543368,-0.4666842928703671,0.6321419812678039,1.459367195901832,0.25927686488110613,0.7934933009590694,-0.37166160897815764,0.8144772814783175,-0.3889970884411701,-1.430262956179937,-1.9073102177630772,-0.07029969243465815,2.120668095831291,-0.5572008249312312,1.9297927459435265,-0.3946161065444583,-1.1552462054458852,1.4076596583881507,-0.00882699291956841
100,-1.2527446362941175,-1.0426928389580392,1.910333138237477,1.2034777041332871,1.730756018613632,0.5936927736076857,-1.0111719305263238,0.7296599182670022,0.36296885163508147,-0.23806052710505865,0.6413109052631545,-0.24515710262673462,-0.4667710016703803,0.6350915324503383,1.4593527559548083,0.26348936199485984,0.7925711011349648,-0.37404121066370694,0.8171299319788485,-0.38901443569148614,-1.4305686400682969,-1.9093208946909859,-0.07077536771619931,2.1217924036829374,-0.5569833598076505,1.9300442683432588,-0.3943644874979526,-1.1565237890926212,1.4089043539698316,-0.010585925628099865
101,-1.254125222251399,-1.043180154382965,1.9102804965306897,1.2031836588884426,1.7311605723664425,0.5945604867788615,-1.0115639622575885,0.7287749649090001,0.3631528667389632,-0.2380632991837091,0.6381101467565501,-0.2484856661509485,-0.4668578264550267,0.6380259491030987,1.459339762131048,0.2676799276463035,0.7916533392145904,-0.3764156188064958,0.8197709558910022,-0.3890351477326171,-1.4308858987606496,-1.9113334539432876,-0.07124392028267745,2.1229212647716813,-0.5567686148372438,1.9303061862348165,-0.3941200173165688,-1.1577997342915751,1.4101502180242689,-0.012338518639802636
102,-1.2555031768670681,-1.0436646579190674,1.9102275591472495,1.2028901610475677,1.731563092256366,0.595426401572315,-1.0119554631232757,0.7278873325540786,0.3633374457955746,-0.2380665481045604,0.6349263187951636,-0.2517969052757618,-0.46694475429254456,0.640945324836551,1.4593282026781385,0.2718486546727473,0.7907399805991099,-0.378784832129622,0.8224004006741494,-0.38905918205091344,-1.4312146197420186,-1.9133478341961192,-0.0717053887247341,2.1240546051620357,-0.5565565694106035,1.9305783537566983,-0.393882660806527,-1.1590740342404382,1.4113971857595546,-0.014084813927221794
103,-1.2568784909127046,-1.0441463995466111,1.9101743319383002,1.2025972718753832,1.7319635893413823,0.596290517952795,-1.0123464401098965,0.7269970430599302,0.36352260602589537,-0.23807027720016796,0.6317593575469581,-0.2550909104935623,-0.4670317725066355,0.6438497533846645,1.4593180658292693,0.2759956371864696,0.7898309907851188,-0.38114885006417226,0.8250183142973173,-0.3890864965533176,-1.431554689912672,-1.9153639738999753,-0.0721598097730454,2.1251923534430417,-0.5563472007016262,1.9308606279688618,-0.39365238143991493,-1.1603466807230518,1.4126451949241141,-0.015824852075546972
104,-1.258251156162204,-1.0446254295086639,1.9101208206980913,1.2023050523360532,1.732362074581903,0.5971528371574706,-1.0127369002767912,0.7261041179490284,0.3637083648274893,-0.23807448975926984,0.628609198256201,-0.25836777283176393,-0.46711886866943586,0.6467393285123879,1.459309339812083,0.2801209704463403,0.7889263353887159,-0.383507672685157,0.8276247451677955,-0.38911704956478654,-1.4319059957697409,-1.9173818114258023,-0.07260721858573574,2.1263344404609636,-0.5561404840135123,1.9311528686446706,-0.3934291415367232,-1.1616176643620726,1.4138941855678788,-0.017558672440547304
105,-1.2596211652985114,-1.0451017981981996,1.9100670311675823,1.2020135629869972,1.7327585588500463,0.5980133615533327,-1.0131268507318032,0.7252085784709753,0.3638947396899157,-0.23807918902779246,0.6254757753286339,-0.2616275837549937,-0.467206030595118,0.6496141439342538,1.4593020128564784,0.2842247507417014,0.788025980166594,-0.3858613006543059,0.8302197420675066,-0.38915079982567213,-1.4322684235669023,-1.9194012851919746,-0.07304764900059862,2.127480799083376,-0.5559363930832675,1.931454938086433,-0.3932129024253703,-1.1628869748403843,1.4151440998308926,-0.019286313287512548
106,-1.2609885118305102,-1.045575556058559,1.9100129690376264,1.2017228638864874,1.7331530529377406,0.5988720945101559,-1.0135162986099868,0.7243104456572457,0.3640817481207027,-0.23808437820949624,0.6223590224083304,-0.26487043507785873,-0.46729324633405,0.6524742932428869,1.4592960732014846,0.28830707528722116,0.7871298910344822,-0.38820973516898444,0.8328033540963061,-0.3891877064890693,-1.4326418594546437,-1.9214223337743703,-0.07348113375611043,2.1286313639911056,-0.5557349003493747,1.9317667009618813,-0.39300362458416327,-1.164154601094823,1.4163948817562673,-0.02100781191337281
107,-1.2623531900189366,-1.0460467534957956,1.9099586399517814,1.201433014513489,1.7335455675637927,0.5997290402873056,-1.0139052510550055,0.7234097403691636,0.3642694075807033,-0.23809006046632275,0.619258872447134,-0.26809641888714786,-0.4673805041674465,0.6553198698463202,1.4592915091013143,0.29236804212757583,0.7862380340832378,-0.3905529779165679,0.8353756306214631,-0.38922772911813835,-1.4330261896033327,-1.9234448960015216,-0.07390770468478987,2.129786071494871,-0.5555359771868001,1.9320880241592244,-0.39280126776587065,-1.1654205314853876,1.4176464771247406,-0.02272320475393067
108,-1.2637151948103151,-1.0465154408015938,1.909904049508784,1.2011440736983674,1.7339361133800393,0.6005842039328618,-1.0142937152029097,0.7225064833398619,0.36445773542778015,-0.23809623891849552,0.6161752577674718,-0.2713056274724427,-0.46746779260245314,0.658150966913139,1.4592883088306872,0.2964077500509283,0.78535037559285,-0.39289103103367934,0.8379366212326524,-0.38927082768340776,-1.4334213003110772,-1.9254689110365915,-0.07432739288206762,2.130944859373813,-0.5553395941130428,1.9324187766586627,-0.39260579110734606,-1.1666847539427652,1.4188988333083867,-0.0244325274779261
109,-1.2650745217780162,-1.0469816680855826,1.9098492032647267,1.2008560995632327,1.734324700976689,0.6014375911936948,-1.0146816981680211,0.7216006952108911,0.3646467488678802,-0.23810291664441996,0.6131081101192586,-0.2744981532642228,-0.46755510036761344,0.6609676773245781,1.4592864606895097,0.30042629851028374,0.7844668820445926,-0.39522389706975963,0.8404863757018584,-0.3893169625600621,-1.4338270780981344,-1.9274943184477333,-0.07474022885348378,2.1321076667334067,-0.5551457209685338,1.9327588294184852,-0.3924171532259255,-1.1679472560966808,1.4201518991412965,-0.026135815069463834
110,-1.266431167069638,-1.0474454852160022,1.909794106734969,1.2005691494708264,1.73471134088695,0.6022892084352766,-1.0150692070306822,0.7206923965640782,0.3648364649126608,-0.23811009668042082,0.6100573607315237,-0.27767408877864735,-0.4676424164086708,0.6637700936327904,1.4592859530069844,0.3044237875518983,0.7835875201315337,-0.39755157895449533,0.8430249439476539,-0.3893660945252185,-1.434243409789433,-1.9295210582682156,-0.07514624264271982,2.133274433880533,-0.554954327074329,1.9331080552740725,-0.3922353123041312,-1.1692080253873078,1.421405624805284,-0.027833101900162416
111,-1.2677851273600005,-1.0479069417677866,1.9097387653958102,1.2002832799809753,1.7350960435910283,0.6031390625701458,-1.01545624882665,0.7197816079491673,0.36502690034292135,-0.23811778202035006,0.6070229403593326,-0.28083352656828287,-0.4677297298846666,0.6665583080245902,1.4592867741452158,0.30840031775000387,0.7827122567675903,-0.3998740799686789,0.8455523760033768,-0.389418184755195,-1.4346701825865928,-1.9315490710475351,-0.0755454639426945,2.134445102213725,-0.5547653813697143,1.9334663288483134,-0.3920602261640423,-1.1704670491617235,1.4226599617288924,-0.029524421792232042
112,-1.2691363998091196,-1.0483660869772333,1.9096831846859523,1.199998546813742,1.7354788195195705,0.6039871609940618,-1.015842830537946,0.7188683499077184,0.365218071677175,-0.23812597561509327,0.6040047793265054,-0.2839765591781254,-0.46781703016429677,0.6693324122900489,1.459288912502371,0.31235599014719034,0.7818410590952928,-0.40219140371812334,0.8480687219887736,-0.3894731948227732,-1.435107284130674,-1.9335782978946072,-0.0759379221917046,2.135619614126827,-0.5545788525320517,1.9338335264721112,-0.39189185233254203,-1.1717243147571714,1.4239148624981612,-0.031209808073552624
113,-1.2704849820245987,-1.0488229697025178,1.9096273700077744,1.1997150048185001,1.7358596790566159,0.6048335115289883,-1.0162289590849873,0.7179526429936894,0.36540999514476946,-0.23813468037199856,0.6010028075645868,-0.28710327910633704,-0.4679043068224964,0.6720924977953899,1.4592923565154479,0.3162909061998573,0.7809738944924072,-0.4045035541102916,0.8505740320847295,-0.3895310866944559,-1.435554602556742,-1.9356086805139914,-0.07632364665637044,2.1367979129245045,-0.5543947090809379,1.9342095261137957,-0.39173014809851364,-1.172979809572695,1.4251702807777877,-0.03288929362570232
114,-1.2718308720279354,-1.049277638389394,1.90957132672844,1.1994327079482445,1.7362386325421215,0.6056781223721459,-1.0166146413198507,0.7170345077910802,0.3656026866630297,-0.23814389915424766,0.5980169546484678,-0.29021377876917814,-0.46799154963722306,0.6748386554596871,1.4592970946626966,0.32020516772820934,0.7801107305775453,-0.40681053533333983,0.8530683565107451,-0.3895918227277228,-1.4360120265412173,-1.9376401612360075,-0.07670266650294823,2.137979942748213,-0.5542129194685134,1.9345942073163984,-0.39157507056293595,-1.1742335211305301,1.4264261712414708,-0.03456291092577917
115,-1.2731740682243027,-1.0497301410414948,1.909515060180857,1.1991517092385253,1.7366156902741077,0.606521002050452,-1.0169998840205339,0.7161139649289742,0.3657961618179551,-0.23815363478018664,0.5950471498290192,-0.29330815046967423,-0.4680787485864145,0.6775709757349295,1.459303115465736,0.32409887687032685,0.7792515352148808,-0.4091123518373051,0.8555517455048528,-0.38965536566828374,-1.4364794453428607,-1.939672683041494,-0.077075010858395,2.139165648511391,-0.5540334521575552,1.9349874511418548,-0.3914265766827225,-1.175485437128484,1.4276824895103584,-0.03623069208276208
116,-1.2745145693754063,-1.0501805251947078,1.909458575664505,1.1988720607904624,1.7369908625104726,0.607362159379748,-1.017384693886094,0.7151910350942791,0.36599043584805463,-0.2381638900226304,0.5920933220630544,-0.2963864863696067,-0.4681658938450988,0.6802895485890597,1.4593104074914005,0.32797213603989245,0.7783962765180724,-0.4114090083171974,0.8580242493057039,-0.38972167864733076,-1.4369567488381534,-1.9417061895818757,-0.07744070886241516,2.140354975842788,-0.553856275688802,1.935389140121313,-0.39128462330905095,-1.1767355454843915,1.4289391920986456,-0.0378926688690722
117,-1.2758523745750716,-1.0506288378951674,1.9094018784461466,1.1985938137573569,1.7373641594705163,0.6082016034282764,-1.0177690775325587,0.7142657390424336,0.3661855236309509,-0.23817466760815276,0.589155400040907,-0.299448878464461,-0.4682529757826372,0.6829944634916381,1.4593189593533502,0.3318250478872013,0.7775449228534884,-0.4137005096977829,0.8604859181365841,-0.38979072517879,-1.4374438275517392,-1.9437406251951286,-0.07779978971157765,2.1415478710369538,-0.5536813587387965,1.9357991582108134,-0.391149167220844,-1.1779838343736126,1.4301962363654719,-0.03954887274791956
118,-1.2771874832272472,-1.0510751256804454,1.9093449737604349,1.198317018334471,1.7377355913362107,0.6090393434839334,-1.0181530414895164,0.7133380976063171,0.3663814396724248,-0.2381859702163723,0.5862333122118744,-0.30249541856100776,-0.4683399849600831,0.6856858094018252,1.459328759713473,0.33565771526312144,0.7766974428428108,-0.41598686111986816,0.862936802191143,-0.38986246915657274,-1.4379405726825198,-1.945775934918164,-0.07815228269646801,2.1427442810110295,-0.5535086701693828,1.9362173907516924,-0.39102016515398746,-1.1792302922604228,1.4314535804723705,-0.041199334896952024
119,-1.2785198950261516,-1.0515194345635779,1.9092878668104296,1.198041723751596,1.7381051682532471,0.6098753890248747,-1.0185365921973022,0.7124081317035725,0.36657819809761005,-0.2381978004792421,0.5833269868077526,-0.30552619825722604,-0.46842691212764215,0.6883636747584054,1.4593397972831035,0.3394702411857081,0.7758538053650942,-0.41826806792791615,0.8653769516206445,-0.38993687485182676,-1.438446876125927,-1.9478120644960901,-0.07849821723272937,2.1439441532670855,-0.5533381790698683,1.9366437244351355,-0.3908975738268031,-1.180474907924052,1.4327111833456034,-0.04284408622866387
120,-1.2798496099383183,-1.0519618100196018,1.9092305627680328,1.197767978268071,1.73847290033189,0.6107097496931009,-1.0189197360047069,0.7114758623425331,0.36677581264407916,-0.23821016098034997,0.5804363518646635,-0.30854130892431236,-0.4685137482222197,0.6910281474716096,1.459352060824081,0.34326272880920705,0.7750139795583412,-0.4205441356588439,0.8678064165225703,-0.39001390691018756,-1.4389626304928311,-1.949848960388754,-0.07883762288674737,2.145147435859327,-0.5531698547927433,1.9370780472703704,-0.39078134996223307,-1.1817176704800405,1.4339690046427926,-0.04448315740796764
121,-1.2811766281863235,-1.052402296974313,1.909173066774352,1.1974958291699545,1.7388387976476614,0.6115424352706902,-1.0193024791671443,0.7105413106269156,0.36697429665659237,-0.2382230542542351,0.5775613352433481,-0.31154084169054586,-0.4686004843650453,0.6936793149165195,1.4593655391496658,0.3470352813952118,0.7741779348206517,-0.4228150700318682,0.8702252469304221,-0.39009353034902994,-1.4394877291254955,-1.9518865697749261,-0.07917052939664694,2.146354077365574,-0.5530036669837469,1.9375202485560519,-0.3906714503071406,-1.1829585693974962,1.435227004723328,-0.046116578867285714
122,-1.2825009502340066,-1.0528409397949894,1.909115383940002,1.1972253227690806,1.7392028702418798,0.6123734556583852,-1.0196848278452193,0.7096044977594304,0.3671736630833065,-0.23823648278572512,0.5747018646480881,-0.3145248874268064,-0.46868711185936307,0.696317263927863,1.4593802211253322,0.3507880022857648,0.7733456408109968,-0.42508087693928026,0.8726334928045905,-0.39017571055471956,-1.4400220661109344,-1.9539248405544354,-0.07949696668919087,2.147564026862493,-0.5528395856069794,1.9379702188544417,-0.3905678316490839,-1.184197594512778,1.4364851446220919,-0.04774438081947593
123,-1.2838225767730123,-1.0532777822828516,1.909057519345349,1.19695650440377,1.7395651281220699,0.6132028208562723,-1.020066788103647,0.7086654450444386,0.36737392447326456,-0.23825044900929757,0.5718578676443924,-0.31749353673356523,-0.4687736221881796,0.6989420807960285,1.4593960956694525,0.3545209948782154,0.7725170674496606,-0.4273415624380451,0.8750312040241688,-0.39026041327986505,-1.4405655362919914,-1.9559637213485377,-0.07981696489310121,2.1487772339041094,-0.5526775809656772,1.9384278499680305,-0.39047045083087667,-1.1854347360400617,1.437743386026092,-0.04936659326886845
124,-1.2851415087105063,-1.0537128676670622,1.9089994780407078,1.1966894184409849,1.7399255812622627,0.614030540946324,-1.020448365910477,0.7077241738897734,0.36757509297500696,-0.2382649553084681,0.569029271675574,-0.3204468799291872,-0.46886000701206215,0.7015538512641486,1.4594131517538866,0.35823436260166847,0.7716921849183902,-0.42959713274213085,0.8774184303796073,-0.3903476046405703,-1.441118035276418,-1.9580031614987572,-0.08013055434926332,2.1499936485031936,-0.5525176237191967,1.9388930349182956,-0.39037926476321483,-1.1866699845791906,1.4390016912536456,-0.05098324602065794
125,-1.2864577471579322,-1.0541462386000817,1.9089412650464956,1.1964241082797453,1.7402842396032012,0.6148566260765989,-1.020829567136586,0.7067807058078264,0.36777718033616374,-0.23828000401520805,0.5662160040783283,-0.32338500703940265,-0.46894625816697966,0.7041526605261204,1.4594313784044877,0.3619282088948747,0.7708709636602876,-0.4318475942154862,0.8797952215661119,-0.39043725111368677,-1.4416794594441984,-1.9600431110644165,-0.08043776561821828,2.151213221115162,-0.5523596848966877,1.9393656679263178,-0.39029423043561134,-1.1879033311211735,1.4402600232357965,-0.052594368688865925
126,-1.2877712934206929,-1.0545779371542265,1.908882885353347,1.1961606163556446,1.740641113052463,0.6156810864469191,-1.0212103975554003,0.7058350624159931,0.36798019790390385,-0.2382955974093924,0.5634179920974088,-0.326308007787822,-0.46903236766218154,0.7067385932254417,1.4594507647015356,0.36560263718543146,0.7700533743794763,-0.4340929533655921,0.8821616271777049,-0.39052931953406694,-1.4422497059533383,-1.9620835208190428,-0.08073862948530083,2.1524359026241675,-0.5522037359078814,1.9398456443950225,-0.3902153049258567,-1.1891347670516361,1.441518345499686,-0.05419999070306248
127,-1.2890821489886521,-1.0550080048192858,1.9088243439221981,1.1958989841463195,1.7409962114845141,0.6165039322958659,-1.0215908628428225,0.7048872654365566,0.3681841566261311,-0.23831173771828,0.5606351628994899,-0.3292159715873811,-0.4691183276781089,0.7093117334547624,1.459471299780106,0.36925775087017565,0.7692393880405669,-0.43633321683752296,0.8845176967018723,-0.3906237770918174,-1.4428286727443047,-1.964124342245816,-0.0810331769637381,2.1536616443311014,-0.5520497485513665,1.9403328608928279,-0.39014244540819293,-1.1903642841525066,1.4427766221536324,-0.055800141314013174
128,-1.2903903155273677,-1.0554364825010754,1.9087656456843396,1.1956392521777501,1.7413495447407008,0.6173251738889495,-1.0219709685773308,0.7039373366960807,0.36838906705332997,-0.23832842711602592,0.5578674435862909,-0.33210898753261764,-0.4692041305643339,0.7118721647560544,1.4594929728303858,0.3728936532966642,0.7684289758679487,-0.4385683914084591,0.8868634795147333,-0.3907205913295529,-1.4434162585432888,-1.9661655275322025,-0.0813214392959859,2.1548903979432597,-0.5518976950206844,1.9408272151385186,-0.39007560916036854,-1.191591874602178,1.4440348178737008,-0.05739484959839741
129,-1.2916957948699725,-1.0558634105208182,1.9087067955414472,1.1953814600312769,1.7417011226291927,0.6181448215078307,-1.0223507202402307,0.7029852981243775,0.3685949393409759,-0.2383456677232274,0.5551147612070324,-0.3349871443926904,-0.4692897688375239,0.7144199701213227,1.4595157730979378,0.3765104477456486,0.7676221093449265,-0.4407984839826004,0.8891990248766717,-0.3908197301396511,-1.444012362864438,-1.9682070295639023,-0.08160344795354667,2.156122115565453,-0.5517475479085334,1.9413286059871797,-0.3900147535697203,-1.1928175309743585,1.4452928978915727,-0.058984144462726
130,-1.2929985890096358,-1.0562888286152545,1.908647798365588,1.1951256463512345,1.7420509549248815,0.6189628854404815,-1.022730123216036,0.7020311717531031,0.36880178325243373,-0.23836346160650249,0.5523770427702832,-0.3378505306050625,-0.4693752351794266,0.7169552319937823,1.459539689883925,0.38010823741446026,0.7668187602127223,-0.4430235015864356,0.8915243819283787,-0.3909211617615082,-1.4446168860111839,-1.9702488019182183,-0.0818792346354832,2.1573567496923736,-0.5515992802093362,1.941836933417048,-0.38995983613841034,-1.1940412462357977,1.4465508279835488,-0.060568054646570266
131,-1.29429870009254,-1.0567127759373942,1.9085886589992103,1.1948718488531183,1.7423990513692438,0.6197793759721877,-1.0231091827929633,0.701074979714033,0.3690096081622778,-0.23838181077810222,0.5496542152552538,-0.34069923426977977,-0.46946052243487446,0.719478032269439,1.4595647125452977,0.38368712540123195,0.7660189004693588,-0.44524345136432725,0.8938395996872615,-0.39102485477879523,-1.445229729076786,-1.9722907988569482,-0.08214883126581646,2.158594253202042,-0.5514528653203976,1.9423520985171554,-0.3899108144879315,-1.1952630137430544,1.4478085744605367,-0.062146608725201065
132,-1.2955961304113197,-1.0571352910578369,1.9085293822551146,1.194620104332204,1.7427454216701743,0.6205943033773065,-1.0234879041635216,0.7001167442370588,0.3692184230599753,-0.2384007171955556,0.5469462056225833,-0.343533343144282,-0.4695456236098049,0.7219884522990175,1.4595908304949488,0.38724721468989,0.7652225023684385,-0.4474583405743776,0.8961447270441756,-0.391130778116716,-1.4458507939441845,-1.9743329753188807,-0.08241226998997248,2.159834579350196,-0.5513082770418473,1.9428740034756549,-0.3898676463629797,-1.1964828272384485,1.4490661041588928,-0.06371983511172359
133,-1.2968908823989105,-1.0575564119665921,1.9084699729164134,1.1943704486725555,1.743090075501794,0.6214076779117023,-1.0238662924251842,0.699156487647947,0.3694282365538807,-0.23842018276134735,0.5442529408246621,-0.3463529446386928,-0.46963053186929554,0.7244865728901889,1.4596180332018407,0.39078860813585675,0.7644295384178317,-0.44966817658454405,0.8984398127604464,-0.3912389010392661,-1.4464799832852557,-1.9763752869119702,-0.08266958317042337,2.1610776817654838,-0.5511654895755428,1.943402551568731,-0.38983028963477945,-1.197700680845323,1.4503233844320078,-0.06528776205878326
134,-1.2981829586227709,-1.057976176075339,1.9084104357364775,1.194122916856359,1.7434330225042376,0.6222195098057935,-1.0242443525811298,0.6981942323658913,0.3696390568754949,-0.2384402093226276,0.541574347815528,-0.349158125811539,-0.4697152405356121,0.726972474310051,1.459646310191109,0.3943114084524115,0.7636399813782861,-0.45187296686897666,0.900724905465147,-0.39134919314649425,-1.447117200559543,-1.9784176899052557,-0.08292080338164917,2.162323514445353,-0.5510244775230837,1.9439376471500145,-0.38979870230393854,-1.1989165690627277,1.451580383142533,-0.06685041765990818
135,-1.2994723617794335,-1.0583946202200742,1.908350775438872,1.1938775429735324,1.7437742722834269,0.6230298092581501,-1.0246220895410434,0.6972300009008907,0.3698508918839505,-0.23846079867095338,0.5389103535603701,-0.3519489733658571,-0.4697997430862678,0.7294462362878261,1.4596756510441449,0.3978157181976619,0.7628538042619664,-0.4540727190045537,0.9030000536526057,-0.39146162437176457,-1.4477623500125332,-1.9804601412205787,-0.08316596340453157,2.163572031752532,-0.5508852158830699,1.9444791956404246,-0.38977284250289834,-1.2001304867596199,1.452837068655163,-0.06840782985054562
136,-1.3007590946893564,-1.0588117806641,1.9082909967172852,1.1936343602315636,1.7441138344108287,0.6238385864295877,-1.0249995081219656,0.6962638158509791,0.37006374907068573,-0.23848195254206078,0.5362608850446692,-0.3547255736456483,-0.46988403315209376,0.7319079380177422,1.4597060453986592,0.40130163976208355,0.7620709803309329,-0.4562674406675941,0.9052653056801152,-0.3915761649790224,-1.448415336673536,-1.9825025984241484,-0.08340509622027663,2.1648231884120155,-0.5507476800477215,1.945027103518377,-0.3897526684980366,-1.201342429168666,1.4540934098298972,-0.0699600264088421
137,-1.302043160292043,-1.0592276931013118,1.9082311042354492,1.1933934009655367,1.7444517184232062,0.6246458514377136,-1.0253766130491844,0.6952956998993284,0.3702776355642781,-0.23850367261566768,0.5336258692830018,-0.3574880126326478,-0.46996810451531845,0.7343576581620662,1.4597374829487313,0.4047692753565902,0.7612914830955693,-0.45845713963072743,0.9075207097658256,-0.3916927855600619,-1.4490760663532205,-1.9845450197179981,-0.0836382350039512,2.1660769395084865,-0.5506118457989608,1.9455812783103028,-0.3897381386914739,-1.2025523918797203,1.455349376015713,-0.07150703495621044
138,-1.303324561641406,-1.0596423926597494,1.908171102627055,1.1931546966483122,1.744787933822361,0.625451614351881,-1.0257534089571592,0.6943256758112479,0.3704925581354085,-0.23852596051530572,0.5310052333275311,-0.3602363759433793,-0.4700519511076566,0.7367954748542657,1.4597699534448434,0.4082187270011,0.7605152863129634,-0.46064182375990553,0.9097663139867976,-0.3918114570317966,-1.4497444456408508,-1.9865873639313654,-0.083865413117707,2.167333240484097,-0.5504776893040476,1.9461416285814281,-0.38972921162262736,-1.203760370833039,1.4566049370445942,-0.07304888295772168
139,-1.3046033019013512,-1.060055913905378,1.9081109964956633,1.1929182779008267,1.7451224900748727,0.6262558851885162,-1.0261299003904742,0.6933537664310963,0.3707085232019328,-0.23854881780818113,0.5283989042762058,-0.36297074882646696,-0.4701355670084062,0.7392214657022745,1.459803446693904,0.4116500965135675,0.7597423639852502,-0.4628215010115407,0.9120021662772023,-0.39193215063353404,-1.4504203819012642,-1.9886295905120324,-0.08408666410375669,2.1685920471365563,-0.5503451871108429,1.9467080639267762,-0.3897258459695497,-1.204966362312293,1.457860063225863,-0.07458559772235387
140,-1.305879384341564,-1.0604682908460725,1.9080507904146122,1.1926841745024892,1.745455396611834,0.627058673906784,-1.0265060918048128,0.6923799946791225,0.37092553683404006,-0.23857224600506358,0.5258068092806859,-0.36569121616018113,-0.4702189464425538,0.7416357077918445,1.459837952559261,0.41506348549945343,0.7589726903579196,-0.46499617942975785,0.9142283144266489,-0.39205483792425305,-1.451103783271624,-1.9906716595176486,-0.08430202167715813,2.1698533156174737,-0.5502143161427708,1.9472804949623537,-0.38972800055008666,-1.20617036293742,1.459114725340771,-0.07611720640312657
141,-1.3071528123334772,-1.0608795569357776,1.90799048892692,1.1924524154016454,1.7457866628285865,0.6278599904045655,-1.0268819875679498,0.6914043835482505,0.37114360475947744,-0.23859624656020215,0.5232288755540117,-0.3683978624501978,-0.4703020837788874,0.7440382776899632,1.459873460960705,0.4184589953416081,0.7582062399180964,-0.46716586714374975,0.9164448060786294,-0.392179490779886,-1.4517945586579781,-1.9927135316070625,-0.08451151971845514,2.171117002430913,-0.5500850536935367,1.947858833316491,-0.389735634322882,-1.207372369657364,1.4603688946373123,-0.07764373599714476
142,-1.3084235893464076,-1.0612897450788226,1.907930096545188,1.1922230287260922,1.7461162980844571,0.6286598445147188,-1.0272575919607572,0.6904269561008184,0.37136273236882755,-0.2386208208712677,0.520665030378031,-0.3710907718275517,-0.4703849735281169,0.7464292514483253,1.4599099618744658,0.4218367271905452,0.7574429873927954,-0.46933057236522446,0.9186516887290678,-0.39230608139060474,-1.4524926177316506,-1.9947551680316806,-0.08471519226621729,2.172383064432119,-0.5499573774216525,1.9484429916213117,-0.3897487063882543,-1.2085723797427332,1.461622542825224,-0.07916521334557367
143,-1.309691718943846,-1.06169888763437,1.9078696177515015,1.191996041793623,1.7464443117024946,0.6294582460016034,-1.0276329091782186,0.6894477354652842,0.3715829247208222,-0.23864597027932094,0.5181152011105987,-0.3737700280467671,-0.4704676103410026,0.7488087046068421,1.4599474453332018,0.42519678195508637,0.7566829077471549,-0.47149030338593745,0.9208490097249619,-0.3924345822581119,-1.4531978709254891,-1.9967965306268693,-0.0849130735095149,2.173651458826386,-0.5498312653448149,1.9490328835043058,-0.3897671759889675,-1.209770390778413,1.4628756420711462,-0.08068166513356188
144,-1.310957204779889,-1.0621070164209832,1.9078090569973296,1.191771481122587,1.7467707129692116,0.6302552045578452,-1.0280079433304519,0.6884667448329067,0.3718041865476815,-0.23867169606880498,0.5155793151925592,-0.37643571448415136,-0.47054998900649003,0.7511767121971797,1.459985901425984,0.4285392602933573,0.7559259761826539,-0.4736450685752999,0.9230368162631104,-0.39256496619293724,-1.4539102294299875,-1.9988375818034185,-0.08510519778036077,2.174922143168033,-0.5497066958341726,1.9496284235799906,-0.3897910025109135,-1.2109664006561558,1.4641281649939164,-0.0821931178901287
145,-1.3122200505958026,-1.0625141627212924,1.9077484187034248,1.191549372442449,1.747095511134329,0.6310507298013258,-1.0283826984437339,0.687484007454411,0.3720265222604665,-0.23869799946756234,0.5130573001545237,-0.37908791413623755,-0.4706321044498537,0.7535333487463137,1.4600253202982736,0.43186426260411986,0.7551721681353141,-0.47579487637805706,0.9252151553889161,-0.39269720631173954,-1.4546296051893028,-2.0008782845390725,-0.08529159954614599,2.17619507535947,-0.5495836476085194,1.95022952744164,-0.38982014548372285,-1.2121604075671748,1.4653800846599778,-0.08369959798802833
146,-1.3134802602167073,-1.0629203572867512,1.9076877072597238,1.1913297407043384,1.747418715410525,0.6318448312723786,-1.028757178461528,0.6864995466366438,0.3722499359544366,-0.23872488164687486,0.5105490836234516,-0.381726709618365,-0.4707139517308475,0.755878688280094,1.460065692151897,0.4351718890184233,0.7544214592738898,-0.47793973531203027,0.927384073995257,-0.39283127603461454,-1.4553559108971812,-2.0029186023701437,-0.08547231340209274,2.177470213650327,-0.5494620997284367,1.9508361116530712,-0.389854564581317,-1.213352409994759,1.4666313745788804,-0.08520113164360239
147,-1.3147378375483763,-1.0633256303424654,1.907626927025248,1.1911126100915739,1.7477403349731908,0.6326375184311781,-1.0291313872455106,0.6855133857392277,0.37247443141440256,-0.23875234372152615,0.5080545933290451,-0.3843521831633869,-0.4707955260418632,0.7582128043268099,1.4601070072450153,0.4384622393915623,0.753673825498049,-0.4800796539659183,0.9295436188214212,-0.39296714908240943,-1.456089059992806,-2.004958499383217,-0.08564737406374431,2.1787475166366277,-0.549342031590416,1.9514480937404763,-0.38989421962241383,-1.2145424067069277,1.467882008698862,-0.08669774491663004
148,-1.3159927865741403,-1.0637300115920885,1.9075660823280054,1.1908980040301582,1.7480603789601905,0.6334288006553098,-1.0295053285765956,0.684525548171217,0.37270001212006887,-0.23878038674988594,0.5055737571099636,-0.38696441662049486,-0.47087682270609704,0.7605357699207518,1.4601492558920903,0.4417354132953279,0.7529292429365461,-0.4822146409971525,0.9316938364520978,-0.39310479947404403,-1.4568289666565806,-2.006997940206945,-0.085816816359509,2.1800269432600006,-0.5492234229209766,1.9520653921842877,-0.3899390705709964,-1.2157303967491386,1.4691319614024942,-0.08818946371018348
149,-1.3172451113518917,-1.0641335302227706,1.9075051774648943,1.190685945199232,1.7483788564716285,0.6342186872375078,-1.0298790061559557,0.6835360573877625,0.3729266812513584,-0.23880901173401523,0.503106502919867,-0.38956349145415375,-0.47095783717572437,0.7628476576057606,1.4601924284638488,0.44499151001054,0.7521876879453899,-0.48434470512980293,0.9338347733164194,-0.39324420152383915,-1.4575755458058557,-2.0090368900039524,-0.08598067522327257,2.1813084528069,-0.5491062537708017,1.9526879264110721,-0.38998907753675355,-1.2169163794370619,1.4703812075023825,-0.08967631377049566
150,-1.318494816011183,-1.0645362149101532,1.9074442167016081,1.190476455541481,1.7486957765696236,0.6350071873835508,-1.0302524236060377,0.6825449368867875,0.3731544416937146,-0.23883821961979176,0.5006527588332933,-0.3921494887431371,-0.47103856503008257,0.7651485394387635,1.4602365153872425,0.4482306285198506,0.7514491371060074,-0.48646985515253105,0.9359664756870528,-0.3933853298388527,-1.45832871309061,-2.011075314462841,-0.08613898568709137,2.1825920049078387,-0.5489905045089043,1.9533156167854462,-0.39004420077549895,-1.2181003543494295,1.471629722236909,-0.09115832068684548
151,-1.3197419047504129,-1.064938093823403,1.9073832042725427,1.1902695562734902,1.7490111482780897,0.6357943102103065,-1.0306255844715733,0.6815522102056805,0.37338329604337533,-0.2388680112970552,0.4982124530513755,-0.394722489179658,-0.47111900197386286,0.7674384869932894,1.4602815071454063,0.451452867500808,0.7507135672234041,-0.48859009991658653,0.9380889896793325,-0.3935281593162237,-1.4590883848890916,-2.013113179790307,-0.08629178287397608,2.183877559536614,-0.5488761558168379,1.9539483846020063,-0.390104400689575,-1.2192823213209705,1.4728774812660124,-0.09263550989146503
152,-1.320986381834098,-1.0653391946302764,1.9073221443807058,1.1900652678960388,1.749324980582524,0.6365800647439173,-1.030998492220582,0.6805579009180059,0.37361324661261586,-0.23889838759977108,0.49578551390740583,-0.39728257306858844,-0.47119914383531086,0.7697175713629624,1.4603273942776132,0.45465832531917183,0.7499809553243247,-0.49070544833384566,0.9402023612504347,-0.39367266514052457,-1.4598544783034286,-2.0151504527033706,-0.086439101990775,2.1851650770095263,-0.5487631886829627,1.9545861520772723,-0.3901696378282466,-1.2204622804354353,1.4741244606669963,-0.09410790665947247
153,-1.3222282515902226,-1.06573954450221,1.907261041197628,1.1898636102043345,1.749637282429802,0.6373644599181166,-1.031371150245367,0.6795620326302377,0.37384429543495584,-0.23892934930621296,0.49337186987224935,-0.3998298203267619,-0.47127898656443645,0.7719858631649688,1.4603741673792285,0.45784710002247164,0.7492512786554126,-0.49281590937488867,0.9423066361985875,-0.3938188227811223,-1.4606269111552117,-2.0171871004217206,-0.08658097832116342,2.186454517984574,-0.5486515843967755,1.9552288423416393,-0.390239872888088,-1.221640232018721,1.47537063693036,-0.09557553610883338
154,-1.3234675184076672,-1.0661391701194303,1.9071998988632783,1.1896646022981778,1.7499480627279824,0.6381475045726727,-1.0317435618635038,0.678564628978516,0.3740764442703283,-0.23896089713916227,0.4909714495596137,-0.4023643104823546,-0.4713585262312331,0.7742434325434973,1.4604218171016605,0.4610192893337998,0.7485245146813708,-0.4949214920671141,0.9444018601623163,-0.39396660798954863,-1.4614056019810577,-2.019223090660175,-0.08671744721874526,2.1877458434606285,-0.5485413245433122,1.9558763794313367,-0.39031506671336774,-1.2228161766320955,1.476615986955649,-0.09703842320035301
155,-1.3247041867337077,-1.066538097676079,1.9071387214859798,1.1894682625920594,1.750257330346116,0.6389292074519497,-1.0321157303188173,0.6775657136254309,0.3743096946102078,-0.23899303176612507,0.48858418173117774,-0.4048861226743401,-0.4714377590239068,0.7764903491731481,1.4604703341523098,0.46417499064583184,0.7478006410831247,-0.49702220549288867,0.9464880786197207,-0.39411599679687986,-1.4621904700281552,-2.021258391621258,-0.0868485441002712,2.1890390147765824,-0.5484323909976275,1.9565286882803925,-0.39039518029643266,-1.2239901150655303,1.4778604880473178,-0.09849659273770088
156,-1.3259382610715864,-1.0669363528853482,1.9070775131423305,1.189274608825182,1.7505650941140654,0.639709577203584,-1.032487658782354,0.6765653102568344,0.3745440476826947,-0.23902575379956512,0.4862099953015841,-0.407395335652014,-0.47151668124711527,0.7787266822623111,1.460519709294517,0.46731430101506677,0.7470796357559876,-0.499118058787731,0.9485653368877809,-0.39426696551112617,-1.462981435249798,-2.023292971987894,-0.0869743044389771,2.19033399361046,-0.5483247659193592,1.9571856947126016,-0.3904801747780943,-1.2251620483311403,1.4791041179106068,-0.09995006936746914
157,-1.3271697459781504,-1.067333960984623,1.907016277877126,1.189083658071408,1.7508713628223318,0.6404886223772669,-1.0328593503533408,0.6755634425786813,0.3747795044575553,-0.23905906379715264,0.4838488193432985,-0.4098920277745849,-0.47159528932021744,0.7809525005565106,1.4605699333475084,0.47043731715628145,0.7463614768078297,-0.5012090611385279,0.9506336801216922,-0.3944194907146313,-1.4637784183009093,-2.0253268009162197,-0.08709476375804551,2.1916307419784973,-0.5482184317473776,1.9578473254334992,-0.39057001144801873,-1.2263319776567352,1.4803468546474259,-0.10139887757926544
158,-1.3283986460615538,-1.0677309467406269,1.9069550197032858,1.188895426749129,1.751176145221889,0.6412663514236313,-1.0332308080601371,0.6745601343139018,0.37501606565121415,-0.2390929622620283,0.4815005830913396,-0.41237627701082774,-0.4716735797755334,0.7831678723417164,1.4606209971863395,0.4735441354371917,0.7456461425572516,-0.5032952217817818,0.9526931533142265,-0.39457354926148275,-1.464581340533559,-2.027359848028514,-0.08720995762419226,2.192929222234183,-0.548113371194527,1.958513508022337,-0.39066465174512144,-1.2274999044794848,1.4815886767522464,-0.10284304170584081
159,-1.329624965979024,-1.068127334454566,1.906893742601782,1.188709930631056,1.751479450024025,0.6420427726932368,-1.0336020348611756,0.6735554091993065,0.37525373173169885,-0.2391274496430818,0.4791652159478825,-0.4148481609387974,-0.47175154925661567,0.7853728654476203,1.4606728917418372,0.476634851873315,0.7449336115317621,-0.5053765500018889,0.9547438012951174,-0.39472911827493273,-1.4653901239924787,-2.0293920834062424,-0.0873199216413795,2.1942293970672613,-0.5480095672424586,1.959184170924066,-0.3907640572579681,-1.2286658304396962,1.4828295631079982,-0.10428258592325276
160,-1.3308487104346889,-1.068523147967273,1.9068324505215726,1.1885271848539294,1.7517812859001924,0.642817894435649,-1.0339730336458937,0.6725492909825234,0.3754925029235352,-0.23916252633524432,0.47684264748673866,-0.417307756745599,-0.47182919451653105,0.7875675472508766,1.4607256080005402,0.47970956212302895,0.7442238624659617,-0.5074530551294467,0.9567856687304696,-0.3948861751448302,-1.4662046914105729,-2.0314234775832167,-0.08742469144465626,2.195531229502694,-0.5479070031365586,1.9598592434413216,-0.3908681897251818,-1.2298297573747072,1.484069492981971,-0.10571753425106357
161,-1.332069884177462,-1.0689184106643423,1.906771147379537,1.1883472039281453,1.7520816614818657,0.6435917247986087,-1.0343438072356537,0.6715418034189703,0.3757323792125924,-0.23919819267979467,0.4745328074577157,-0.41975514122721264,-0.4719065124161545,0.7897519846783074,1.4607791370046372,0.48276836148282,0.7435168742997319,-0.5095247465395903,0.9588188001221906,-0.39504469752506427,-1.4670249662044328,-2.033454001538872,-0.08752430269412674,2.1968346828995804,-0.5478056623809706,1.9605386557264168,-0.3909770110358569,-1.2309916873128925,1.4853084460217212,-0.10714791055257337
162,-1.3332884919989862,-1.0693131454812599,1.9067098370604154,1.1881700017473005,1.7523805853604069,0.6443642718272892,-1.0347143583846552,0.670532970268861,0.37597336035087664,-0.23923444896467824,0.4722356257908588,-0.42219039078837045,-0.4719834999224745,0.7919262442100715,1.4608334698519045,0.48581134488271704,0.7428126261764305,-0.5115916336503568,0.9608432398074437,-0.3952046633310195,-1.4678508724698511,-2.035483626691653,-0.08761879106904652,2.1981397209500377,-0.5477055287337153,1.9612223387733434,-0.3910904832299803,-1.232151622467786,1.4865464022509796,-0.10857373853508778
163,-1.3345045387316323,-1.0697073749085215,1.9066485234167523,1.1879955915976528,1.7526780660869372,0.6451355434636349,-1.0350846897808352,0.669522815294247,0.3762154458612735,-0.23927129542483852,0.4699510326005771,-0.42461358144248346,-0.4720601541069104,0.7940903918827976,1.4608885976956403,0.4888386068819061,0.742111097441094,-0.5136537259210768,0.9628590319581214,-0.3953660507370432,-1.4686823349773406,-2.0375123248925155,-0.0877081922620462,2.199446307678039,-0.5476065862019055,1.9619102244097797,-0.39120856849885893,-1.2333095652323167,1.4877833420655653,-0.10999504175021939
164,-1.3357180292465525,-1.0701011209967393,1.9065872102688421,1.1878239861674962,1.7529741121722189,0.6459055475457821,-1.0354548040467588,0.6685113622560946,0.37645863504223764,-0.2393087322425605,0.4676789581896569,-0.42702478881161665,-0.47213647214364185,0.7962444932926809,1.460944511744598,0.4918502416645197,0.7414122676386473,-0.515711032850794,0.9648662205803384,-0.39552883817392465,-1.4695192791676577,-2.0395400684185363,-0.087792541973482,2.200754407438208,-0.5475088190370582,1.9626022452891099,-0.39133122918555485,-1.2344655181731579,1.4890192462293022,-0.11141184359422239
165,-1.3369289684517864,-1.070494405361735,1.9065259014046798,1.187655197556452,1.753268732086541,0.646674291807555,-1.0358247037405,0.6674986349113996,0.37670292697243035,-0.2393467595478255,0.4654193330531645,-0.4294240881265099,-0.4722124513079512,0.7983886135985441,1.461001203262918,0.49484634303559794,0.7407161165121197,-0.5177635639767099,0.9668648495139442,-0.3956930043263875,-1.4703616311473329,-2.0415668299666323,-0.08787187590591256,2.2020639849145756,-0.5474122117305014,1.9632983348824549,-0.3914584277853261,-1.2356194840251893,1.4902540958699388,-0.11282416730835967
166,-1.3381373612904195,-1.070887249189617,1.9064646005799144,1.1874892372846737,1.753561934259616,0.6474417838780369,-1.0361943913565121,0.6664846570103362,0.3769483205153036,-0.23938537741867721,0.4631720878822407,-0.4318115542266436,-0.4722880889745781,0.8005228175248623,1.4610586635700569,0.49782700441721617,0.7400226240008697,-0.5198113288726556,0.968854962432053,-0.3958585281305942,-1.471209317684207,-2.0435925826473875,-0.08794622975870044,2.2033750051192924,-0.5473167490088768,1.963998427470716,-0.39159012694607376,-1.2367714656860702,1.4914878724750738,-0.11423203597930137
167,-1.3393432127387908,-1.0712796732418417,1.9064033115178058,1.1873261163019662,1.7538537270804808,0.6482080312812121,-1.036563869326489,0.6654694522934447,0.3771948143236314,-0.239424585881598,0.46093715356778836,-0.4341872615603471,-0.47236338261608707,0.802647169364753,1.4611168840407152,0.500792318844775,0.7393317702388179,-0.5218543371475893,0.9708366028405924,-0.39602538877166427,-1.472062266202976,-2.045617299978985,-0.08801563922273768,2.2046874333913045,-0.5472224158297365,1.9647024581366348,-0.3917262894687948,-1.2379214662109246,1.492720557888085,-0.115635472539554
168,-1.3405465278047504,-1.0716716978602545,1.9063420379091869,1.1871658449968197,1.754144118897406,0.648973041435677,-1.0369331400202144,0.6644530444888547,0.3774424068439877,-0.23946438491189556,0.45871446120405673,-0.4365512841849486,-0.4724383298012486,0.8047617329829299,1.4611758561047632,0.5037423789634492,0.7386435355526871,-0.5238925984441193,0.9728098140778683,-0.3961935656812052,-1.472920404780746,-2.0476409558812416,-0.08808013997529368,2.2060012353949867,-0.5471291973772324,1.9654103627568678,-0.39186687830803935,-1.239069488807134,1.4939521343040656,-0.11703449976791924
