epoch,W1[0],W1[1],W1[2],W1[3],W1[4],W1[5],W1[6],W1[7],W1[8],W1[9],W1[10],W1[11],W1[12],W1[13],W1[14],W1[15],W1[16],W1[17],W1[18],W1[19],W2[0],W2[1],W2[2],W2[3],W2[4],W2[5],W2[6],W2[7],W2[8],W2[9]
0,-1.4633100921142068,-0.25130236734774725,0.3842274863203481,-0.1633017394584852,0.6314992961825353,-1.0909628482530338,-0.28501524477534634,0.35761516802998783,0.23285703551422013,-1.566898842829164,0.842869090307258,-1.2022953248063162,1.4999948760479789,0.38027682882384095,0.47048858842180924,1.541135707044612,-1.122920686901667,1.298683954887704,-0.938544955565904,-0.17523747783689547,-0.9769268261114213,0.5744455847408348,-2.276581799676755,-0.9820584163615169,0.39644374307450153,0.9936772173026129,-1.0682685207097347,2.437444473782813,-0.0013918585536703502,1.0179047549913982
1,-1.4642173347291898,-0.25189776808666214,0.38751850116485165,-0.16334953103937133,0.6313380947237706,-1.0903183273799346,-0.28398663374011873,0.35468364196052554,0.2328573619825385,-1.5670530047399138,0.8429483199897334,-1.2026023262085435,1.5013974319158636,0.3805369956773575,0.47012476769325,1.542023275959452,-1.1222967013683283,1.297121374216861,-0.9385448794998941,-0.17706343437997993,-0.9905169236760181,0.5623238621721017,-2.2903887724237766,-0.9949898160334254,0.38337747579651493,0.9808471128894267,-1.0804780458636214,2.424020969158225,-0.013928185404728153,1.0054078974902971
2,-1.4654128638065298,-0.25231415784550815,0.3902413848569886,-0.16375989979882977,0.6313012681165822,-1.0893692794429128,-0.28328218782000614,0.35249915419693867,0.23285578162159257,-1.5670073343627255,0.8427221160387717,-1.2027757365114642,1.502401637108756,0.38046569704561933,0.4698851392730997,1.5431564624154166,-1.1219225587442945,1.296082650762802,-0.938548170949444,-0.17861694509643747,-1.0028775133998833,0.5512383222669662,-2.302270231994625,-1.0064176324406728,0.37216196555991526,0.9695967756690271,-1.0917010225961299,2.4126499293771677,-0.025221568082803243,0.9938822459262712
3,-1.4668596081910341,-0.25258010082082627,0.39246285100752104,-0.16448931557641178,0.6313655708409424,-1.088169422312435,-0.2828677024330496,0.35096993778882263,0.23284535526327907,-1.5667951498665234,0.8422196971891395,-1.2028344834711358,1.5030495804256587,0.38009345094512204,0.4697507372945194,1.5444966765787433,-1.1217790559109206,1.2955193380453818,-0.9385606187858904,-0.17992515828743494,-1.0140832206401462,0.541111536690045,-2.31238580156311,-1.0164589272809934,0.3626230071806234,0.9597968328138119,-1.1019968092865202,2.403124519705497,-0.035371554278051776,0.9832671865129816
4,-1.4685209443332041,-0.25272181812151695,0.3942514429768197,-0.16549356612532365,0.6315109678812989,-1.0867665809579987,-0.28270671991710006,0.35000367546223216,0.23282176360027085,-1.5664466852008234,0.841474077898081,-1.202797080985468,1.503387259194318,0.3794553128095976,0.4697037694978974,1.5460077404835262,-1.1218422646968305,1.295375491089794,-0.9385859287221778,-0.18101849940348266,-1.0242395412200953,0.5318472541567528,-2.3209268721074485,-1.025258304552956,0.35456480104950155,0.9512922236760221,-1.1114485174774074,2.39521898713212,-0.04449816612470092,0.9734794504696637
5,-1.470363536493692,-0.25276193545293896,0.3956710432737906,-0.16673170970555826,0.6317210519940557,-1.0852009959005715,-0.28276441973091654,0.3495153705595498,0.2327826444747372,-1.5659877856802227,0.8405178787475751,-1.2026801951767918,1.503459110041381,0.37858619680787603,0.4697287247741975,1.5476580678940013,-1.1220873243106204,1.2955952912336504,-0.9386261730047385,-0.18192676529461266,-1.0334619838225838,0.5233457180594991,-2.3280881312549675,-1.0329651118012861,0.3477947230390888,0.9439252205949032,-1.120146863268067,2.3887149531212883,-0.05272395215927349,0.964428909525432
6,-1.4723584630261488,-0.2527192829362292,0.3967780374495562,-0.16816778510707067,0.6319827861638808,-1.0835054012151588,-0.2830094984620519,0.34943060922762537,0.2327269767707775,-1.5654397801379454,0.8393810820250143,-1.202498119939345,1.503305268191877,0.3775183370952784,0.4698126501021084,1.5494212381376142,-1.1224906367016474,1.2961271678721185,-0.9386822628740245,-0.18267711822475172,-1.0418635698578385,0.5155122961706253,-2.3340518471105107,-1.039720579879125,0.3421361940722234,0.937548128652442,-1.1281805447601618,2.3834145459752714,-0.0601640646657778,0.9560279062983931
7,-1.4744813266716563,-0.2526092179400384,0.3976206750422058,-0.169771159513642,0.6322859821210881,-1.0817059171993302,-0.2834147736724447,0.3496860952988134,0.2326545997378239,-1.5648199239711225,0.8380901215607184,-1.2022627740219327,1.502960608241409,0.3762802286582434,0.46994499266815615,1.5512757047621109,-1.12303090466098,1.296925515134227,-0.938754341969212,-0.18329333085732796,-1.049548476005967,0.5082614762190751,-2.3389809385236076,-1.0456519090669707,0.3374336926331299,0.9320288860065692,-1.135631363454873,2.379145037595703,-0.06692183294141812,0.948195918076091
8,-1.4767118668537798,-0.2524441395494419,0.398239544923248,-0.17151618309301062,0.6326227398623152,-1.0798231838062091,-0.28395709774786776,0.3502288339769908,0.2325658721974595,-1.5641420383883191,0.8366677486965429,-1.2019839416665072,1.502454770316007,0.3748964356814794,0.47011726739192156,1.553204143238162,-1.1236894587837984,1.2979510056694887,-0.9388420776904797,-0.18379573223374743,-1.0566095340571093,0.5015180918755424,-2.3430172285862505,-1.0508705184849336,0.3335533246858603,0.9272524791223689,-1.1425723082467092,2.3757587991624987,-0.07308757775321267,0.9408613277232607
9,-1.479033387549343,-0.2522340222499037,0.3986685049991744,-0.17338156330877622,0.632986946640817,-1.077873452046719,-0.28461695842562745,0.3510147928234056,0.23246144488049214,-1.5634171541933344,0.8351332867181438,-1.201669593947431,1.5018126462412391,0.37338783907715867,0.4703226905955952,1.5551927186796288,-1.1244502009854913,1.2991701972027354,-0.9389448623738871,-0.18420148925029395,-1.0631278869297036,0.4952170834807547,-2.34628237467997,-1.0554724935023394,0.3303812281377751,0.92312019719268,-1.1490672915053644,2.3731310647081125,-0.07873910818023125,0.933961596325408
10,-1.4814321648558293,-0.2519868943425978,0.39893571462196054,-0.17534968051868324,0.6333738652520315,-1.0758695232142192,-0.28537797746571925,0.3520074747229836,0.23234211454321252,-1.5626540799425455,0.8335030418810608,-1.2013262088884251,1.50105502533075,0.3717720653599894,0.47055584361458097,1.557230405318443,-1.1252993700589262,1.3005548481496574,-0.939061945759244,-0.18452501276938818,-1.0691737159962575,0.48930258846311475,-2.3488799631759703,-1.05954002918326,0.3278211365418859,0.9195479457429929,-1.1551717060085622,2.3711569200007263,-0.08394296153061302,0.9274426529174475
11,-1.4838969079418054,-0.25170923818977387,0.3990646053361456,-0.17740594856325512,0.6337798101348328,-1.0738215127521964,-0.2862264132793888,0.35317660092661407,0.23220873365167538,-1.5618598722323414,0.8317907468774696,-1.2009590558182652,1.5001992469623444,0.3700639578270638,0.47081238831892935,1.5593084058483833,-1.1262252452858879,1.302081165761416,-0.9391925190210191,-0.18477837953768148,-1.074807412123089,0.483726801988543,-2.3508979448974148,-1.0631432040074684,0.32579179529573826,0.9164642840411525,-1.1609333229330339,2.3697482389536355,-0.08875587286854363,0.9212579682925317
12,-1.4864182985376855,-0.2514063131370986,0.3990747271729992,-0.1795382595812203,0.6342018983834293,-1.0717374529155348,-0.287150713273456,0.35449697541774144,0.23206215642573078,-1.5610402119564821,0.8300079775047567,-1.2005724339622457,1.4992597923278752,0.36827602296890594,0.471088836617735,1.5614196777072848,-1.1272178477847845,1.3037290941385629,-0.9393357661862051,-0.18497172043018992,-1.0800808549727572,0.47844883157411755,-2.352411004450204,-1.0663417473541001,0.3242245533213927,0.9138085145994217,-1.1663932744599148,2.3688308898331676,-0.093226218501153,0.9153675600676096
13,-1.4889886106946368,-0.251082411064844,0.3989824578821381,-0.1817365203070886,0.6346378605500812,-1.0696237605869352,-0.2881411303851136,0.35594754021167935,0.2319032080758327,-1.5601996999078198,0.8281645190424987,-1.2001698665616296,1.498248792686947,0.3664188248840518,0.47138236797040706,1.5635585560342158,-1.128268666874613,1.3054816854654436,-0.9394908942453589,-0.18511355715368918,-1.0850386363904947,0.4734336469480291,-2.3534826888833416,-1.0691866502226175,0.3230612535873996,0.9115289657226333,-1.1715869952127707,2.3683423224423517,-0.0973953217491679,0.9097370484882024
14,-1.4916014026967879,-0.2507410566792204,0.3988015846479467,-0.18399227299428958,0.6350858975553242,-1.0674855975384285,-0.2891894033781017,0.35751060476751084,0.23173266854041624,-1.5593420869179166,0.8262686770443667,-1.199754256175885,1.4971764531436869,0.3645013208991613,0.4716906866421549,1.5657204575801833,-1.1293704213363247,1.3073245651476537,-0.9396571496533094,-0.18521108504835412,-1.089719158155896,0.4686511614955753,-2.3541672419537494,-1.0717215670231668,0.322252446151433,0.90958151065544,-1.176545068799638,2.3682295450169573,-0.10129858460327404,0.9043368125971523
15,-1.494251269959112,-0.25038516389248516,0.3985437757795931,-0.18629838910944937,0.635544572520812,-1.0653271470571708,-0.29028849426095554,0.3591712239102222,0.23155126511456428,-1.5584704523991317,0.8243275356732342,-1.1993280078568553,1.4960514001874523,0.36253114115655133,0.4720119106605071,1.5679016497477203,-1.1305168567429618,1.3092454863162992,-0.9398338263100157,-0.18527040642891265,-1.0941555836336836,0.46407544939921147,-2.3545111483719254,-1.073984004752161,0.32175590231331314,0.9079283200217898,-1.1812939633598891,2.368447455410844,-0.10496644545589011,0.8991412602787419
16,-1.4969336477966464,-0.250017157893062,0.39821896110900307,-0.18864882324792762,0.6360127288266807,-1.0631518263981303,-0.2914323743116099,0.3609166980361776,0.23135967040364017,-1.55758734284472,0.8223471699931346,-1.1988931264829072,1.4948809641891858,0.36051481875154795,0.47234448555600556,1.570099070892283,-1.1317025760829482,1.311233963119287,-0.9400202683267596,-0.1852967212813131,-1.0983766468067129,0.4596840880644447,-2.3545544170747483,-1.0760063173945893,0.3215353915658978,0.9065368243288772,-1.1858566583824393,2.3689574764225068,-0.10842517897140608,0.8941282083277109
17,-1.499644654235586,-0.24963907063090948,0.397835638248004,-0.19103841583835018,0.6364894278037025,-1.060962450304624,-0.292615850315751,0.3627361720755862,0.23115850335980337,-1.5566948794899633,0.8203328193787901,-1.1984512936339078,1.493671408071733,0.3584579779660263,0.47268711727985774,1.5723101904981658,-1.132922899440779,1.3132809707243298,-0.940215869695366,-0.18529448240202362,-1.1024073325240544,0.4554576100812489,-2.3543316403135175,-1.0778165310241743,0.32155967981573214,0.905378857029508,-1.190253173060942,2.3697264442410058,-0.11169755946381262,0.8892783613396366
18,-1.5023809646571036,-0.24925261577016555,0.3974011193294668,-0.1934627349166809,0.6369739011346323,-1.0587613572886054,-0.2938344235566783,0.36462031338680106,0.2309483320066521,-1.5557948422876033,0.8182890287995044,-1.1980039283986543,1.4924281121958571,0.35636548779772864,0.4730387198928181,1.5745329001945576,-1.134173748265628,1.315378700539741,-0.9404200722019425,-0.18526752144021244,-1.1062694451421209,0.4513790481280517,-2.353872865071291,-1.079439025945013,0.3218017101959097,0.9044299488223085,-1.1945010090966828,2.3707257039264653,-0.11480340938799861,0.8845748759809862
19,-1.5051397116269796,-0.24885924778325952,0.39692173024682503,-0.19591794900309578,0.6374655143054463,-1.0565505075445805,-0.29508417525341596,0.36656105242316267,0.23072967699507924,-1.554888735686384,0.8162197638887237,-1.197552235607701,1.4911557239649469,0.3542415871220355,0.4733983746216111,1.5767654285786719,-1.135451550078163,1.3175203605520247,-0.9406323624247105,-0.18521915137506653,-1.1099820826791924,0.4474335574062665,-2.353204309671183,-1.080895100101946,0.32223793287145563,0.9036687467829653,-1.1986155208911249,2.3719303726319714,-0.1177600525979034,0.8800029974172384
20,-1.507918404621328,-0.2484602087713952,0.39640297206035424,-0.19840072468327172,0.6379637383922024,-1.0543315592001505,-0.29636167327055224,0.368551373242055,0.23050301547289193,-1.5539778403984588,0.8141285047677889,-1.1970972442305654,1.4898582791332098,0.3520899868322946,0.4737652976760496,1.5790062744261297,-1.1367531599930059,1.3197000122676115,-0.9408522683333106,-0.18515225000894886,-1.1135620320541257,0.4436081021312911,-2.352348953720173,-1.0822034347975864,0.32284775571087804,0.9030765356974912,-1.202610224944474,2.373318738097268,-0.12058268933018902,0.875549755955082
21,-1.5107148654782638,-0.24805656575393334,0.3958496522629163,-0.2009081438129888,0.63846812816761,-1.0521059279610363,-0.29766389591569326,0.3705851436129774,0.23026878496389724,-1.5530632543413434,0.8120183227061413,-1.196639838069258,1.4885393004570768,0.34991395336241715,0.4741388148375634,1.581254154131955,-1.1380757959994665,1.321912437252462,-0.9410793558013715,-0.18506932819764618,-1.117024098917763,0.4398911946831162,-2.3513270248365594,-1.0833804804168172,0.32361309276716027,0.9026368427351195,-1.206497058743562,2.37487176605415,-0.12328470712620303,0.871203713577257
22,-1.5135271763029554,-0.2476492405254205,0.3952659919907478,-0.20343763633433604,0.6389783050253632,-1.0498748339721469,-0.2989881694720896,0.3726569766499824,0.2300273870851655,-1.5521459251806067,0.8098919429284592,-1.1961807804023714,1.4872018781999157,0.34771637716941434,0.47451834130179465,1.583507960198729,-1.1394169854700862,1.3241530275810829,-0.9413132252137467,-0.1849725858085084,-1.1203813834873513,0.43627267795819624,-2.3501564013880993,-1.0844407767830948,0.32451799189095787,0.9023351099866124,-1.2102865978488535,2.376572695353978,-0.12587793940523703,0.8669547516727527
23,-1.5163536372616908,-0.24723903368981143,0.39465571398274346,-0.20598692554341946,0.6394939435983495,-1.0476393387905145,-0.30033211679200594,0.3747621176138714,0.22977919101345112,-1.5512266763255032,0.8077517962338363,-1.195720733862757,1.4858487360790502,0.34549982906000526,0.4749033656159934,1.5857667283317674,-1.1407745208263578,1.3264176956114575,-0.9415535082677872,-0.18486395779667308,-1.123645511871841,0.43274354315884,-2.348852946864584,-1.085397220102783,0.3255483264434618,0.9021584222877524,-1.2139882384411398,2.3784067038704806,-0.1283728812496664,0.8627938927411066
24,-1.5191927322543686,-0.24682664411039662,0.39402211507988827,-0.2085539833203622,0.6400147612254393,-1.045400374672994,-0.3016936148204723,0.37689635088088624,0.22952453666194822,-1.55030622779657,0.8056000615648529,-1.1952602765452813,1.484482285505652,0.34326660667723774,0.4752934368228516,1.5880296112666292,-1.1421464226780464,1.3287027994067533,-0.9417998650169785,-0.18474515230499178,-1.1268268307052525,0.4292957766860089,-2.347430788520146,-1.0862612862161072,0.3266915390456588,0.9020952801491434,-1.2176103513242487,2.3803606316513948,-0.1307788701655726,0.8587131501262291
25,-1.5220431008859918,-0.2464126847323715,0.39336812626251677,-0.21113699335792843,0.6405405096275456,-1.0431587678621406,-0.3030707593517862,0.3790559231312597,0.2292637375585364,-1.5493852130569605,0.8034387012394065,-1.1947999151205932,1.4831046703817428,0.34101877300418126,0.4756881541273325,1.5902958578839825,-1.1435309090715895,1.3310050808544975,-0.9420519811740722,-0.1846176823065266,-1.1299345714960327,0.42592223098289705,-2.3459025504833146,-1.0870432180329819,0.3279364276901299,0.9021354095727517,-1.2211604123103474,2.3824227505222906,-0.13310423810892305,0.8547054009088874
26,-1.5249035154929484,-0.24599769552082215,0.39269636260145796,-0.2137343208358256,0.6410709683065952,-1.0409152571630569,-0.3044618356637415,0.38123747963577514,0.22899708343395195,-1.5484641926514506,0.8012694902182503,-1.1943400955610963,1.4817178042553596,0.3387581883741828,0.4760871585583328,1.5925647964937224,-1.1449263697427992,1.3333216141181776,-0.9423095656722698,-0.18448289200162454,-1.1329769899323507,0.4226165151413077,-2.3442795495644044,-1.087752183535631,0.32927296645119886,0.9022696021186649,-1.2246451130254217,2.384582571512928,-0.13535643987169949,0.8507642779751373
27,-1.527772862240592,-0.24558215409347475,0.39200916501248645,-0.21634448730868536,0.6416059392951952,-1.038670508809137,-0.30586529394534634,0.3834380111625218,0.22872484253768174,-1.5475436653087058,0.7990940405103812,-1.19388121195454,1.480323401269787,0.3364865371840155,0.47649012621501896,1.5948358214194671,-1.1463313444790624,1.335649762522009,-0.9425723484724703,-0.18434197893874474,-1.1359614844254096,0.41937290186497556,-2.3425719604085242,-1.0883964095211696,0.3306921545503765,0.9024895798577428,-1.2280704554416344,2.3868306831927883,-0.13754216195780194,0.8468840780054483
28,-1.5306501255118208,-0.24516648450233952,0.3913086353219959,-0.21896614982685655,0.6421452429704193,-1.0364251283910373,-0.30727972864784653,0.3856548095298058,0.22844726370385415,-1.5466240770186424,0.7969138216029952,-1.1934236137795917,1.478923002054934,0.3342053502728404,0.47689676277770393,1.5971083822051977,-1.1477445048653172,1.337987142340341,-0.9428400785990725,-0.18419601263615062,-1.1388946973920382,0.4161862480158565,-2.3407889553753094,-1.088983295284109,0.332185888744449,0.9027878808656897,-1.2314418328461454,2.3891586153613793,-0.1396674153026391,0.8430596827217703
29,-1.5335343749651187,-0.2447510645220081,0.39059666585200614,-0.22159808350612198,0.6426887147097547,-1.0341796704528416,-0.3087038610583306,0.38788543022628535,0.22816457819091743,-1.5457058284865013,0.7947301776313159,-1.1929676119394474,1.4775179954817745,0.3319160237440597,0.47730679903210194,1.5993819749122034,-1.1491646388240653,1.3403315922582586,-0.9431125223844263,-0.18404595032953017,-1.1417826021433615,0.4130519264791653,-2.3389388235115978,-1.089519509656091,0.33374685496721684,0.9031577617311939,-1.2347640994697027,2.3915587236161753,-0.14173761456666922,0.8392864912110046
30,-1.5364247547650092,-0.24433623172783392,0.3898749644962786,-0.224239166917428,0.6432362022162915,-1.0319346462288927,-0.3101365245296581,0.39012766083030936,0.22787700131867122,-1.5447892812803226,0.7925443418670273,-1.1925134837886002,1.4761096370211002,0.32961983485899066,0.4777199872089003,1.601656135087398,-1.1505906374690318,1.3426811475051321,-0.9433894619015308,-0.1838926503499999,-1.1446305777314156,0.40996576749423547,-2.3370290721697558,-1.0900110741905418,0.335368435924347,0.90359311420598,-1.23804163060287,2.394024091176772,-0.14375764623161547,0.8355603615337818
31,-1.5393204745858535,-0.24392228858930282,0.38914507607234716,-0.2268883697900888,0.6437875633776736,-1.0296905298942887,-0.3115766519074747,0.39237949420601226,0.2275847339250131,-1.54387476292274,0.7903574489949783,-1.1920614773402947,1.4746990643053153,0.3273179555129385,0.4781360979816681,1.6039304320715482,-1.1520214838801397,1.34503401785072,-0.9436706935651783,-0.1837368835410357,-1.147443473687609,0.40692400793050576,-2.3350665141711864,-1.0904634347727882,0.33704463195504747,0.9040883936508896,-1.2412783747061338,2.39654844502545,-0.14573192732413112,0.8318775601443539
32,-1.5422208020673587,-0.24350950675865743,0.38840840058578957,-0.22954474261892804,0.6443426645520802,-1.027447763624262,-0.31302326478054016,0.39463910564845706,0.2272879636630602,-1.5429625711268147,0.7881705455604979,-1.1916118148048382,1.473287310378601,0.3250114637094555,0.4785549179980723,1.6062044643840512,-1.1534562434785018,1.347388568803862,-0.9439560268829693,-0.18357934304636078,-1.150225666247299,0.40392324725679923,-2.33305734288886,-1.090881523526851,0.33876999296666,0.9046385573558015,-1.2444778987582947,2.399126083968998,-0.14766445626564328,0.828234717904917
33,-1.54512505646162,-0.2430981306993224,0.3876662089246702,-0.232207407843027,0.6449013791967143,-1.0252067616971248,-0.3144754642490937,0.3969048333051948,0.22698686615739638,-1.5420529773355687,0.7859845988995076,-1.1911646955795125,1.471875315030206,0.3227013533724114,0.4789762478443501,1.6084778559741668,-1.1548940557375844,1.3497433054746468,-0.9442452833391402,-0.18342065273958363,-1.1529811073783294,0.40096040917015957,-2.3310071971984523,-1.0912698125589364,0.34053955964423493,0.9052390111532704,-1.2476434278740542,2.4017518166633742,-0.14955885708324984,0.8246287916873195
34,-1.548032603260511,-0.2426883807706568,0.38691965640729437,-0.23487555232545498,0.6454635867715326,-1.0229679138280867,-0.31593242296108603,0.3991751613256163,0.22668160603625578,-1.5411462296933736,0.7838005048070802,-1.190720298787522,1.4704639345330255,0.32038854277411394,0.4793999003626182,1.6107502531704911,-1.156334127013292,1.3520968586583362,-0.9445382953957709,-0.18326137451719085,-1.155713367705887,0.398032708027895,-2.3289212179042433,-1.0916323608089427,0.3423488124566631,0.9058855630227671,-1.2507778800472351,2.404420907994239,-0.1514184180024081,0.821057030726152
35,-1.5509428496314608,-0.24228045586334707,0.3861697945302116,-0.23754842091288453,0.6460291718644404,-1.0207315878840042,-0.3173933782106158,0.40144870528905535,0.22637233785458327,-1.5402425555524506,0.7816190941543687,-1.1902787854448957,1.4690539500512372,0.318073881808063,0.4798256992561111,1.6130213221935312,-1.1577757243136204,1.354447972778078,-0.9448349055975601,-0.18310201463685044,-1.1584256742416912,0.39513761937117325,-2.32680409696704,-1.0919728550626326,0.3441936272396634,0.90657438260744,-1.2538838967331873,2.4071290324902845,-0.15324612526783454,0.8175169470271139
36,-1.5538552405211847,-0.24187453566206166,0.38541758120189495,-0.24022531089390975,0.6465980234947779,-1.0184981320996445,-0.31885762592898526,0.4037241995429039,0.2260592069211678,-1.5393421635979647,0.7794411386267128,-1.1898403003194618,1.4676460749335862,0.31575815829462506,0.4802534779297607,1.6152907471225018,-1.1592181698594508,1.3567954953873598,-0.9451349657678917,-0.18294302925090491,-1.1611209436744065,0.39227285394688555,-2.3246601206341526,-1.0922946459986562,0.34607023634616263,0.9073019657487441,-1.2569638698665955,2.4098722336764435,-0.1550446928966873,0.8140062892492833
37,-1.5567692553124024,-0.2414707825978329,0.384663889697681,-0.2429055672071847,0.6471700345603074,-1.0162678768926499,-0.32032451542815205,0.4060004861470085,0.22574235004145032,-1.5384452456594209,0.7772673557255103,-1.1894049735341552,1.4662409610706983,0.3134421034750926,0.4806830785233643,1.6175582282283987,-1.1606608363133686,1.359138367985181,-0.9454383362853509,-0.18278482925889258,-1.1638018118539788,0.38943633473163264,-2.3224932073857434,-1.0926007799984916,0.34797519452604136,0.9080651032942765,-1.2600199658143045,2.412646888461336,-0.15681658895149714,0.8105230195742674
38,-1.5596844049392051,-0.24106934354125664,0.38390951653100924,-0.2455885782767367,0.6477451013995773,-1.0140411363556883,-0.32179344478032973,0.40827650517345415,0.22542189618617187,-1.5375519782634235,0.7750984131517393,-1.1889729219573708,1.4648392044636966,0.3111263968227782,0.4811143511024812,1.6198234806021752,-1.1621031425741652,1.361475617939434,-0.9457448854311484,-0.18262778458172121,-1.1664706600002412,0.38662617654163556,-2.3203069414595485,-1.0928940273273917,0.3499053488374949,0.9088608535572191,-1.2630541466830383,2.4154496758062636,-0.15856405882449723,0.8070652931530137
39,-1.5626002293835277,-0.2406703512784235,0.38315518840290186,-0.24827377237320084,0.6483231234468635,-1.011818209489291,-0.32326385673713887,0.41055128615393643,0.22509796709474642,-1.5366625239726912,0.7729349326687758,-1.1885442504153587,1.4634413501260317,0.30881167027781,0.4815471529785585,1.6220862330203345,-1.1635445500517931,1.3638063513488108,-0.9460544887990855,-0.18247222794278,-1.169129638081594,0.3838406678783672,-2.3181046025907373,-1.0931769071956177,0.35185781200741273,0.9096865179070659,-1.2660681893358907,2.418277549048361,-0.16028914594603139,0.8036314397853966
40,-1.5655162954888815,-0.24027392580406226,0.38240156836451183,-0.25096061441722306,0.6489040029611708,-1.009599381226801,-0.3247352351078636,0.41282394050219756,0.22477067782111038,-1.5357770325479991,0.7707774935255073,-1.1881190527554055,1.4620478964196557,0.30649851199422645,0.48198134813494126,1.6243462270011453,-1.164984559351659,1.3661297467021745,-0.9463670287607375,-0.18231845822706108,-1.1717806857395163,0.38107825471433604,-2.3158891925003213,-1.0934517101276349,0.35382993875300806,0.9105396190549171,-1.2690637024167075,2.421127711353558,-0.16199371026444456,0.80021994754104
41,-1.568432195038731,-0.23988017546033502,0.3816492613052875,-0.25364860315564014,0.6494876448142305,-1.0073849232930978,-0.3262071015296874,0.41509365476796123,0.22444013722880232,-1.5348956419630577,0.7686266355070251,-1.187697412783456,1.4606592989096157,0.3041874696730717,0.482416806739613,1.6266032160135147,-1.1664227073088327,1.3684450492179243,-0.9466823939794606,-0.18216674347767342,-1.1744255510765271,0.37833752596880943,-2.313663458580061,-1.0937205179993879,0.355819304655253,0.9114178816658387,-1.272042141635919,2.4239975938599425,-0.16367944479075044,0.7968294480741737
42,-1.5713475430561121,-0.23948919794479806,0.380898818860939,-0.25633726865286577,0.6500739563252336,-1.0051750949308433,-0.3276790125737933,0.4173596846026498,0.2241064484411525,-1.5340184792969223,0.7664828616688452,-1.1872794050956823,1.4592759738070995,0.3018790535428842,0.482853404728935,1.6288569648077273,-1.1678585643224384,1.3707515657653586,-0.9470004789676416,-0.18201732357949604,-1.1770658075768143,0.3756172004610142,-2.3114299151509266,-1.0939852220476771,0.35782368723954194,0.9123192149882369,-1.2750048235334044,2.4268848361423796,-0.16534789045640133,0.793458703422286
43,-1.5742619762886745,-0.23910108120701282,0.38015074382021885,-0.25902617004966205,0.6506628471323201,-1.00297014352155,-0.32915055714034047,0.41962134933685286,0.223769709251697,-1.533145661524107,0.7643466408012223,-1.1868650958201106,1.4578983010593793,0.2995737390387815,0.4832910234494598,1.631107248843111,-1.1692917319485532,1.3730486602861713,-0.947321183682327,-0.18187041267175258,-1.1797028693883882,0.37291611515985934,-2.309190862613244,-1.0942475391090016,0.3598410489728683,0.9132416972380165,-1.2779529379022108,2.4297872686875,-0.16700044949501622,0.7901065941092067
44,-1.5771751518495898,-0.238715904249989,0.3794054940969566,-0.2617148935495383,0.6512542290927136,-1.000770305123519,-0.33062135410290605,0.4218780270858053,0.22343001249926628,-1.5322772962189686,0.7622184096623468,-1.1864545432816376,1.4565266271355137,0.29727196922288807,0.48372954934719886,1.6333538537924646,-1.1707218407166406,1.3753357496475818,-0.9476444131549939,-0.18172620132469108,-1.1823380051618815,0.3702332145755791,-2.3069484047575735,-1.0945090263063182,0.36186952193163197,0.9141835615151735,-1.2808875590303674,2.4327028971165854,-0.16863839752762938,0.7867721083991175
45,-1.5800867459899324,-0.23833373784992667,0.3786634863233549,-0.2644030505996952,0.651848016204914,-0.9985758049444032,-0.33209105016928747,0.42412915031263987,0.2230874464116174,-1.531413482187965,0.7600985750127484,-1.1860477986014828,1.4551612675487329,0.29497415698183177,0.4841688736956276,1.6355965751069965,-1.1721485481401384,1.377612299869709,-0.9479700771517715,-0.18158485851007675,-1.1849723506128613,0.3675675411607963,-2.3047044644643853,-1.094771094369665,0.36390739393158456,0.9151431830638145,-1.2838096558956997,2.4356298879342204,-0.17026289450482718,0.783454332569691
46,-1.5829964529824128,-0.23795464520548779,0.3779250991118701,-0.26709027623896914,0.6524441245476269,-0.9963868577626318,-0.3335593179308123,0.4263742017903907,0.22274209492097827,-1.5305543100409704,0.757987515477867,-1.1856449062402443,1.4538025091498445,0.29268068703119404,0.48460889235528015,1.6378352176287247,-1.1735715368964812,1.379877822679028,-0.9482980898608955,-0.18144653339064945,-1.1876069199508128,0.36491822660707884,-2.302460797986351,-1.0950350197493812,0.3659530959426702,0.9161190677145218,-1.2867201014297747,2.43856655561425,-0.17187499463716785,0.7801524420908258
47,-1.5859039840998783,-0.23757868252598444,0.37719067602577144,-0.2697762275898276,0.6530424722311374,-0.9942036683090661,-0.3350258540766846,0.4286127109130533,0.22239403795443505,-1.5296998627108354,0.7558855832612873,-1.1852459044921808,1.4524506122205254,0.29039191775193973,0.4850495055590874,1.6400695952399083,-1.1749905131557343,1.382131872347434,-0.9486283696045937,-0.18131135694990405,-1.190242616298023,0.36228448393870766,-2.3002190079783724,-1.0953019556578474,0.36800519063768294,0.9171098413714168,-1.2896196809512745,2.4415113508627377,-0.17347565542681012,0.7768656936108401
48,-1.588809066674919,-0.23720589956634597,0.376460528292434,-0.2724605824752825,0.6536429793576933,-0.9920264316178979,-0.3364903777535544,0.43084425031376783,0.2220433517017176,-1.5288502159287447,0.7537931057274221,-1.1848508259370656,1.4511058123908163,0.2881081828798057,0.48549061771868673,1.6422995305412327,-1.176405205040266,1.3843740427828302,-0.9489608385729562,-0.18117944348038512,-1.1928802412048125,0.35966560031858175,-2.2979805554164163,-1.0955729421565006,0.3700623619455974,0.9181142404259666,-1.2925090998557283,2.444462849921197,-0.17506574589772195,0.7735934176650046
49,-1.5917114432293342,-0.2368363401154682,0.3757349372883799,-0.2751430381447588,0.6542455679881686,-0.9898553333538818,-0.33795262905354995,0.43306843275466217,0.2216901088626119,-1.5280054386615813,0.7517103868693471,-1.18445969785491,1.4497683224013536,0.28582979306526013,0.4859321372478256,1.644524854552228,-1.1778153612006041,1.3866039648424895,-0.9492954225776532,-0.1810508919460428,-1.1955205033533953,0.35706093049235793,-2.2957467705260304,-1.0958489153887692,0.37212340549885675,0.9191311029961595,-1.295388990637211,2.447419744793154,-0.17664605410871617,0.770335012032313
50,-1.5946108706642124,-0.2364700424435035,0.375014156820863,-0.27782331009558886,0.6548501621128574,-0.9876905501214244,-0.3394123676165676,0.43528490825828275,0.22133437887594676,-1.5271655935164008,0.7496377086749257,-1.184072542607986,1.448438333727718,0.28355703731883936,0.48637397639971697,1.6467454064288287,-1.1792207494948939,1.388821303844874,-0.9496320508236339,-0.1809257872319833,-1.198164026530685,0.35446989080639685,-2.293518862824436,-1.096130716045987,0.3741872198793919,0.9201593609036528,-1.2982599193080215,2.4503808342937075,-0.17821729402246442,0.7670899356757527
51,-1.5975071195030242,-0.2361070397127871,0.3742984152272573,-0.2805011309789855,0.6554566876247284,-0.9855322497597782,-0.34086937133474354,0.43749336145503837,0.22097622813185983,-1.5263307371162131,0.7475753324022381,-1.1836893779938593,1.4471160180816598,0.2812901843543391,0.4868160511158189,1.6489610331941558,-1.1806211557612651,1.3910257572592906,-0.949970655697167,-0.1808042012930936,-1.2008113569402197,0.35189195374313603,-2.2912979303658076,-1.0964190971418917,0.37625279858119426,0.9211980323132892,-1.3011223912741958,2.4533450158357346,-0.17978011179424244,0.7638577032092918
52,-1.6003999731814855,-0.2357473603563775,0.37358791731055213,-0.28317624958116155,0.656065072293863,-0.9833805916275534,-0.34232343514881486,0.4396935091248329,0.2206157201688386,-1.5255009204505277,0.7455234997735656,-1.183310217572563,1.4458015288017738,0.2790294838403964,0.4872582808840116,1.6511715894795418,-1.1820163826740064,1.3932170525558374,-0.9503111725687855,-0.18068619421146476,-1.2034629699147803,0.34932664292436777,-2.2890849682673196,-1.0967147311616248,0.37831922261826373,0.9222462149693563,-1.3039768567177543,2.456311277878135,-0.18133509153618346,0.7606378798416012
53,-1.6032892273790567,-0.2353910284275954,0.3728828461267663,-0.2858484298717597,0.6566752457421224,-0.9812357268789323,-0.3437743699275655,0.4418850979141931,0.22025291585685244,-1.5246761892035088,0.7434824340957252,-1.1829350709705446,1.444495002144379,0.2767751675693907,0.4877005886045637,1.6533769372735858,-1.1834062486757544,1.3953949452006555,-0.9506535396098688,-0.1805718151712319,-1.2061192760839545,0.346773528538754,-2.2868808765834014,-1.097018216642955,0.3803856537160403,0.9233030799714035,-1.3068237155306537,2.459278692971449,-0.18288276060603234,0.7574300767523328
54,-1.6061746893878603,-0.2350380639234516,0.37218336463801177,-0.28851745011299895,0.6572871394173515,-0.9790977987333009,-0.3452220014227931,0.44406790221280806,0.2198878735677367,-1.5238565840620921,0.7414523413133447,-1.1825639441636318,1.4431965584838418,0.2745274505512574,0.48814290046261877,1.655576945677629,-1.184790586979015,1.3975592167836262,-0.9509976976217422,-0.18046110335835017,-1.2087806270446593,0.34423222315492236,-2.284686467587069,-1.0973300842404865,0.3824513280322789,0.9243678660395883,-1.3096633218403235,2.4622464113445295,-0.18442359446360992,0.754233946861763
55,-1.6090561775155399,-0.23468848308444534,0.3714896172431777,-0.29118310202396697,0.6579006865666392,-0.9769669427394884,-0.3466661692932716,0.4462417221755754,0.21952064933385704,-1.5230421410060078,0.7394334110006758,-1.1821968397409175,1.441906303430319,0.272286532038702,0.48858514580621143,1.65777149066653,-1.1861692446312413,1.3997096732674215,-0.9513435898763025,-0.18035408879189918,-1.2114473205772995,0.34170237788579183,-2.2825024725099654,-1.0976508023177036,0.3845155503599767,0.9254398742256039,-1.312495988162307,2.465213654983047,-0.18595802113325532,0.7510491809588983
56,-1.6119335205191834,-0.23434229867287407,0.37080173119672927,-0.29384518999532894,0.6585158222083269,-0.974843287035389,-0.3481067261920477,0.4484063818780688,0.21915129699596775,-1.522232891581332,0.7374258172967308,-1.1818337571512094,1.4406243288718477,0.27005259648938873,0.48902725702905075,1.659960454853996,-1.1875420816384605,1.401846143348288,-0.9516911619672843,-0.18025079309272668,-1.2141196054456616,0.3391836788734806,-2.28032954778662,-1.0979807821066612,0.38657768877059995,0.9265184630304067,-1.3153219892117625,2.4681797121565774,-0.1874864253062793,0.7478755041568366
57,-1.6148065570679295,-0.23399952023151335,0.3701198179248685,-0.2965035303504186,0.6591324831025905,-0.9727269526034226,-0.3495435369121315,0.4505617275948579,0.2187798683410793,-1.521428863158916,0.735429719787856,-1.1814746929334514,1.4393507139468296,0.26782581446992265,0.4894691694574883,1.6621437272620192,-1.1889089701430735,1.4039684769201581,-0.9520403616713801,-0.18015123019458007,-1.2167976858147058,0.3366758440673522,-2.2781682808432286,-1.098320382470824,0.3886371696606527,0.9276030438943749,-1.3181415654023303,2.4711439323561186,-0.1890091521138227,0.7447126726473894
58,-1.6176751352322576,-0.23366015432428947,0.3694439742472495,-0.2991579506492428,0.6597506077205294,-0.9706180535220428,-0.35097647758624423,0.45270762619138194,0.21840641323106616,-1.5206300791788339,0.7334452643413089,-1.1811196409323494,1.4380855259522285,0.26560634350582213,0.48991082124123647,1.6643212030941914,-1.1902697936519773,1.4060765436346974,-0.9523911388185029,-0.18005540700231218,-1.2194817253170172,0.3341786202705304,-2.2760191954668456,-1.0986699143028664,0.3906934731687125,0.928693077029291,-1.3209549260580513,2.4741057216081837,-0.19052651059737613,0.7415604707297518
59,-1.620539111998282,-0.23332420476037177,0.3687742835115493,-0.3018082890323973,0.6603701362117771,-0.9685166972133292,-0.35240543493678594,0.4548439636211384,0.21803097972267285,-1.5198365593818146,0.7314725838929615,-1.1807685925002798,1.4368288211921891,0.26339432888116415,0.49035215324751724,1.6664927835128336,-1.1916244463116006,1.4081702315507405,-0.9527434451705541,-0.17996332400126885,-1.2221718507957244,0.33169178043263103,-2.273882756787111,-1.0990296445860637,0.3927461289335477,0.9297880675647741,-1.3237622523615655,2.477064538135313,-0.19203877690150192,0.7384187080904413
60,-1.6233983528056182,-0.23299167280294736,0.3681108166474336,-0.3044543936022716,0.6609910103707101,-0.9664229846865635,-0.35383030557260925,0.4569706435208377,0.2176536141795137,-1.5190483200284872,0.7295117991918851,-1.1804215366864326,1.4355806457712728,0.2611899043911629,0.4907931089584124,1.6686583754200004,-1.1929728322268072,1.410249445867263,-0.9530972343081142,-0.17987497582155698,-1.2248681557491272,0.32921512116856744,-2.271759375899414,-1.0993998001451646,0.3947947121669213,0.9308875619845546,-1.3265637000596668,2.4800198883359816,-0.1935461972109403,0.7352872173138576
61,-1.6262527311075832,-0.23266255736380367,0.36745363314581314,-0.30709612183922785,0.6616131736013767,-0.964337010777607,-0.355250995329533,0.45908758589692206,0.21727436137660755,-1.5182653741071581,0.727563019504275,-1.1800784604140415,1.434341036336079,0.25899319305059315,0.4912336343712554,1.670817891242495,-1.1943148648209245,1.4123141077346213,-0.9534524615245317,-0.17979035176053995,-1.2275707035000234,0.3267484604851415,-2.2696494141556345,-1.0997805711102522,0.3968388400172575,0.9319911448303853,-1.3293594019454076,2.482971323059575,-0.1950489904522245,0.7321658516046925
62,-1.629102127952645,-0.2323368551847291,0.366802781968729,-0.3097333400506949,0.6622365708812993,-0.9622588643838409,-0.35666741865182666,0.46119472589747484,0.21689326459794167,-1.5174877315307522,0.7256263432789372,-1.179739348646463,1.4331100207686607,0.2568043077606828,0.49167367790195804,1.6729712487210835,-1.19565046623441,1.4143641531392828,-0.9538090837269245,-0.179709436266604,-1.230279530110746,0.3242916356987626,-2.267553187146218,-1.1001721141150207,0.3988781682025701,0.933098435653447,-1.332149470134273,2.485918434154431,-0.1965473507781256,0.7290544827050759
63,-1.6319464315861572,-0.23201456100664394,0.36615830239473024,-0.3123659228513213,0.6628611487243216,-0.9601886286944008,-0.3580794980121427,0.4632920126640819,0.21651036572751858,-1.5167153993234812,0.7237018587763552,-1.179404184542801,1.4318876188348346,0.25462335193686086,0.49211319029120276,1.6751183707041282,-1.196979566759882,1.4163995318576723,-0.9541670593436519,-0.17963220938697597,-1.2329946470631727,0.3218445015290834,-2.2654709683952827,-1.1005745552490782,0.4009123878929789,0.9342090861949163,-1.3349339981504702,2.488860851268945,-0.1980414498516599,0.7259529989908176
64,-1.6347855370715054,-0.2316956677272919,0.36552022480419327,-0.3149937526724998,0.663486855142688,-0.9581263814154309,-0.35948716336758635,0.4653794082586564,0.21612570533430395,-1.5159483817977462,0.7217896446632015,-1.1790729496037098,1.4306738427902297,0.2524504200995497,0.4925521245134594,1.6772591849458613,-1.1983021043114197,1.41842020647511,-0.9545263482378444,-0.17955864718214307,-1.235716043721411,0.319406928354626,-2.2634029927886554,-1.1009879927822794,0.40294122282482225,0.9353227777789352,-1.3377130628380565,2.491798238887492,-0.19953143894498698,0.7228613037324191
65,-1.6376193459298616,-0.2313801665482508,0.364888571408674,-0.317616719299714,0.6641136396085412,-0.9560721949900883,-0.3608903516497873,0.4674568866606299,0.21573932275146235,-1.51518668072174,0.7198897705740211,-1.1787456238079597,1.4294686979466953,0.2502855984300257,0.4929904356888031,1.6793936239095246,-1.1996180239261922,1.4204261514661058,-0.9548869116266147,-0.17948872210922281,-1.238443689593476,0.3169788006176225,-2.2613494597531587,-1.1014124996776666,0.4049644266298497,0.9364392189026098,-1.3404867261104538,2.4947302935844258,-0.201017450867276,0.7197793135077069
66,-1.6404477657977934,-0.23106804711196133,0.3642633569280672,-0.32023471943627,0.6647414530150254,-0.9540261368130456,-0.36228900628699434,0.46952443283024375,0.2153512561502406,-1.5144302954781816,0.7180022976417089,-1.1784221857403072,1.4282721832014966,0.2481289652932338,0.49342808099751995,1.6815216245755769,-1.200927277296602,1.4224173523325334,-0.9552487120055917,-0.1794224033764531,-1.2411775364070232,0.3145600153663234,-2.2593105362040866,-1.1018481259083308,0.40698178036428,0.9375581430088875,-1.343255036550828,2.497656741480769,-0.20249960173450035,0.7167069567539974
67,-1.643270710102022,-0.2307592976294187,0.3636445892190718,-0.3228476562920691,0.665370247637177,-0.9519882694392686,-0.3636830767563445,0.4715820418339702,0.2149615426088338,-1.5136792232145844,0.7161272789983094,-1.1781026127111756,1.4270842915315605,0.24598059172932404,0.4938650195974953,1.683643128255156,-1.2022298223312498,1.4243938047964126,-0.9556117130784519,-0.1793596572708124,-1.2439175200130692,0.31215048092395714,-2.2572863592765735,-1.102294900592364,0.408993090223666,0.9386793064292542,-1.3460180308748573,2.50057733588939,-0.20397799259311727,0.7136441724486641
68,-1.646088097750645,-0.2304539049991271,0.36303226985820913,-0.3254554391961576,0.6659999770927728,-0.9499586507868744,-0.36507251816457326,0.4736297180283451,0.2145702181765475,-1.5129334589854415,0.7142647602475928,-1.1777868808686174,1.425905010454886,0.24384054191557547,0.4943012125443762,1.685758080408951,-1.203525622743117,1.4263555140442357,-0.9559758796911341,-0.17930044746063786,-1.2466635621306106,0.30975011567436844,-2.25527703885545,-1.1027528339590433,0.4109981854305413,0.9398024864841622,-1.348775735266535,2.5034918551355103,-0.20545271090868084,0.7105909089078442
69,-1.6488998528401682,-0.23015185491787454,0.3624263946824249,-0.32805798323185564,0.6666305963032974,-0.947937334333912,-0.36645729085553724,0.47566747429872347,0.21417731793355008,-1.5121929958866942,0.7124147799107905,-1.177474965303007,1.4247343224611049,0.24170887360028673,0.4947366227145027,1.6878664304716087,-1.2048146476634563,1.4283024940199271,-0.9563411777704494,-0.1792447352749785,-1.2494155719441127,0.30735884695512516,-2.2532826599171947,-1.103221919158458,0.41299691628275353,0.9409274797299783,-1.3515281665968626,2.506400100540342,-0.20692383192961483,0.707547122693817
70,-1.6517059043777103,-0.22985313198385082,0.36182695429009887,-0.3306552088933229,0.6672620614551759,-0.9459243693089437,-0.3678373600430082,0.47769533134967246,0.21378287604649132,-1.5114578251828303,0.7105773698468195,-1.17716684014488,1.4235722054130586,0.23958563851013237,0.4951712147305938,1.689968131681774,-1.2060968712799556,1.4302347667636908,-0.9567075742668134,-0.17919247996130475,-1.252173447564981,0.3049766100495849,-2.2513032846966885,-1.1037021339259305,0.41498915235122863,0.9420541003420336,-1.3542753335345528,2.509301894556501,-0.20839141993562096,0.7045127776223076
71,-1.6545061860177526,-0.22955771979259665,0.3612339345051091,-0.33324704176247294,0.6678943299614063,-0.94391980087534,-0.3692126954672829,0.4797133170439007,0.21338692582024768,-1.5107279364269517,0.7087525556482694,-1.1768624786563213,1.4224186329211528,0.23747088273241512,0.49560495489017187,1.6920631409178217,-1.207372272497814,1.432152361794127,-0.9570750371008409,-0.1791436389230863,-1.254937077367342,0.30260334727005084,-2.2493389546906486,-1.1041934421118098,0.4169747808166785,0.9431821786240792,-1.3570172375572016,2.512197079044623,-0.20985552937951119,0.7014878438616342
72,-1.6573006358128255,-0.2292656010262435,0.3606473168064268,-0.33583341220519053,0.6685273604237092,-0.9419236703092392,-0.3705832710742266,0.4817214657867933,0.212989499746039,-1.5100033175741363,0.7069403570143783,-1.1765618533162756,1.4212735746921534,0.23536464707357932,0.4960378110966998,1.6941514185393154,-1.2086408346224322,1.4340553155311384,-0.9574435351135613,-0.17909816793865221,-1.257706341207728,0.3002390071247354,-2.2473896925088717,-1.1046957950864862,0.41895370493546547,0.9443115596351084,-1.359753873870764,2.5150855136813073,-0.21131620593062175,0.6984722971162305
73,-1.660089195977531,-0.22897675753647545,0.3600670787255652,-0.33841425508584916,0.6691611125952999,-0.9399360151711554,-0.3719490647154388,0.4837198179537777,0.2125906295461486,-1.50928395508841,0.7051407881021788,-1.1762649359001403,1.420136996853996,0.23326696739529135,0.4964697527933999,1.6962329282341957,-1.2099025450624825,1.4359436707572557,-0.9578130380200245,-0.1790560213626547,-1.260481111537589,0.29788354356179036,-2.2454555035837105,-1.1052091330298148,0.42092584262548244,0.9454421019251206,-1.3624852322446017,2.51796707448918,-0.21277348742738428,0.6954661178876324
74,-1.6628718126653124,-0.22869117042161904,0.3594931942140624,-0.3409895094991645,0.669795547344373,-0.9379568694712499,-0.3733100578682938,0.4857084193578914,0.21219034621546506,-1.5085698340436369,0.7033538578569546,-1.1759716975539798,1.4190088622580983,0.23117787492933695,0.49690075089971564,1.6983076368716716,-1.2111573950521783,1.4378174761151299,-0.9581835163660801,-0.17901715231137316,-1.2632612544169242,0.2955369152841638,-2.243536377747564,-1.1057333861135124,0.42289112516350635,0.9465736763719551,-1.365211297768844,2.5208416524804482,-0.21422740474609095,0.6924692908065425
75,-1.6656484357573935,-0.22840882009824348,0.3589256339830445,-0.3435591185184562,0.6704306266183757,-0.9359862638283107,-0.3746662353746715,0.4876873207550608,0.21178868006005264,-1.507860938218621,0.7015795703231014,-1.175682108863685,1.4178891307605819,0.22909739657253175,0.4973307777503702,1.7003755143607657,-1.2124053793916234,1.4396767856390433,-0.9585549414881243,-0.17898151283301522,-1.2660466304367477,0.2931990851295058,-2.241632290687552,-1.1062684755845178,0.42484949598603716,0.9477061651118505,-1.3679320515403108,2.523709152405896,-0.21567798259239146,0.6894818040300655
76,-1.6684190186633219,-0.2281296863676311,0.3583643658167908,-0.3461230289594263,0.671066313409134,-0.934024225622513,-0.37601758519724976,0.48965657738472973,0.21138566073294543,-1.507157250186712,0.6998179249364521,-1.1753961399193844,1.4167777594837425,0.22702555516279035,0.49775980703696965,1.7024365335144394,-1.2136464962041644,1.4415216583183943,-0.95892728547562,-0.1789490540640968,-1.268837095557551,0.2908700195097744,-2.2397432052859747,-1.1068143147567664,0.4268009095861528,0.9488394605568644,-1.3706474712827936,2.5265694916017756,-0.2171252402215955,0.6865036486986514
77,-1.6711835181325594,-0.2278537484774575,0.357809354862105,-0.34868119115859597,0.6717025717188815,-0.932070779142053,-0.3773640981922877,0.4916162485435991,0.2109813172673502,-1.5064587514001917,0.6980689167990811,-1.175113760375397,1.4156747030590262,0.22496236973744932,0.49818781375209176,1.704490669919206,-1.2148807467097298,1.4433521576912052,-0.9593005211362072,-0.1789197263729139,-1.2716325018704284,0.28854968790559166,-2.237869072854641,-1.107370809918324,0.4287453304993939,0.9499734644927457,-1.3733575319070639,2.5294225989275394,-0.21856919209342235,0.6835348184477016
78,-1.6739418940765818,-0.2275809851790006,0.3572605638951858,-0.35123355876557755,0.6723393665272323,-0.930125945723774,-0.3787057678978799,0.49356639719035816,0.21057567810743213,-1.5057654222697108,0.6963325369375662,-1.1748349395060067,1.4145799138527086,0.2229078557748916,0.4986147741357974,1.7065379018101186,-1.2161081350131797,1.445168351465802,-0.959674621963229,-0.17889347949105217,-1.274432698287047,0.28623806241076877,-2.236009834270618,-1.1079378611603554,0.4306827323721472,0.9511080872512685,-1.3760622060155885,2.5322684137878153,-0.22000984846643676,0.6805753089691717
79,-1.6766941094009593,-0.22731137478017885,0.35671795356758634,-0.3537800885483903,0.672976663759127,-0.9281897438879142,-0.3800425903367146,0.4955070895793998,0.21016877113684845,-1.505077242239039,0.6946087725456458,-1.174559646257317,1.4134933421754083,0.22086202542047265,0.49904066562449506,1.7085782099510094,-1.217328667906743,1.4469703111689018,-0.9600495621055092,-0.17887026263381922,-1.2772375311642064,0.283935117322765,-2.234165421020516,-1.10851536313396,0.4326130971064216,0.9522432469514412,-1.3787614643565582,2.53510688523245,-0.22144721593703376,0.6776251176188666
80,-1.679440129846903,-0.22704489519470192,0.35618148263275273,-0.35632074021106286,0.6736144302537718,-0.9262621894671271,-0.3813745638324175,0.49743839492162006,0.20976062370518556,-1.5043941898553788,0.6928976072121711,-1.1742878492954356,1.4124149364764982,0.2188248876977023,0.4994654668020862,1.7106115775198398,-1.2185423546856597,1.4487581118184336,-0.9604253163392277,-0.1788500246104258,-1.2800468448683135,0.2816408287751633,-2.2323357561599413,-1.1091032057404866,0.4345364140753126,0.9533788688043694,-1.3814552762314964,2.537937971128849,-0.22288129792748465,0.6746842430654506
81,-1.6821799238417834,-0.2267815239875992,0.3556511081545381,-0.35885547622279607,0.6742526337345817,-0.9243432957299343,-0.38270168883861055,0.49936038507050734,0.20935126265244627,-1.5037162428354836,0.6911990211352149,-1.1740195170512258,1.4113446435244255,0.2167964487055917,0.4998891573533164,1.7126379899990123,-1.2197492069761942,1.4505318316195057,-0.9608018600417461,-0.17883271392468686,-1.2828604822847165,0.2793551744085452,-2.230520755194353,-1.1097012747605581,0.43645267940382815,0.9545148844769069,-1.3841436098603934,2.540761637401221,-0.22431209512722766,0.6717526849775083
82,-1.6849134623581372,-0.226521238417376,0.35512678569900036,-0.36138426165799403,0.6748912427801337,-0.9224330734987808,-0.3840239677798611,0.5012731342318252,0.2089407143317257,-1.5030433781278159,0.689512991323159,-1.1737546177618428,1.410282408573888,0.21477671180302993,0.500311718019253,1.7146574350704877,-1.220949238575226,1.4522915516820125,-0.961179169167246,-0.17881827886696225,-1.2856782852764694,0.27707813307642437,-2.228720326887145,-1.1103094524266595,0.4383618953101046,0.9556512315095562,-1.3868264327080135,2.5435778573316945,-0.22573960589128053,0.668830443745274
83,-1.6876407187806997,-0.2262640154750315,0.3546084695107085,-0.3639070640465012,0.6755302267961257,-0.92053153126287,-0.38534140490374097,0.503176718695289,0.20852900463020588,-1.5023755719709666,0.6878394917835444,-1.17349311950927,1.409228175520764,0.21276567778101246,0.5007331305548102,1.7166699025155456,-1.222142465300668,1.4540373557584565,-0.9615572202240514,-0.1788066675980071,-1.288500095096769,0.27480968458315647,-2.226934374000395,-1.1109276179438061,0.4402640695023774,0.9567878527843904,-1.3895037117747453,2.5463866109185984,-0.22716382659936535,0.6659175202339183
84,-1.6903616687810152,-0.2260098319201583,0.35409611267470126,-0.36642385323341553,0.6761695559883335,-0.9186386752859634,-0.38665400614325923,0.5050712165867292,0.2081161589885918,-1.5017127999485487,0.686178493700433,-1.1732349902560475,1.4081818870456357,0.210763345023501,0.5011533776882396,1.7186753841190183,-1.2233289048519986,1.45576933000064,-0.9619359902535116,-0.17879782822535623,-1.2913257527589819,0.27254980945098334,-2.225162793973373,-1.1115556479624829,0.4421592146273857,0.9579246960390589,-1.3921754138551037,2.5491878842875355,-0.22858475197906808,0.663013915565524
85,-1.6930762901991967,-0.2257586643143293,0.35358966726516794,-0.36893460124787864,0.6768092013365529,-0.9167545097093299,-0.3879617789889717,0.5069567076393213,0.20770220241910387,-1.5010550370407703,0.6845299656009908,-1.1729801978783843,1.4071434847467,0.20876970965765312,0.5015724430825066,1.7206738735778297,-1.224508576680241,1.457487562733953,-0.9623154568103304,-0.17879170887282367,-1.2941550993678852,0.2702984887135934,-2.2234054795435516,-1.112193417007741,0.4440473477661896,0.959061713423218,-1.3948415057667538,2.55198166915116,-0.2300023753961052,0.6601196309271176
86,-1.6957845629324213,-0.22551048905196433,0.35308908448184967,-0.37143928218027356,0.677449134569509,-0.9148790366500341,-0.38926473237011233,0.5088332729825491,0.20728715952213492,-1.5004022576728813,0.6828938735119665,-1.1727287101968253,1.406112909262808,0.2067847656941207,0.5019903112984679,1.722665366413668,-1.2256815018667524,1.4591921442480593,-0.9626955979442351,-0.17878825774365686,-1.2969879764154681,0.26805570373378773,-2.221662319314549,-1.112840797868056,0.44592848997365736,0.9601988610939785,-1.397501954552697,2.554767962313858,-0.23141668911453564,0.6572346674023317
87,-1.6984864688297725,-0.2252652823888564,0.35259431477509157,-0.3739378720672912,0.6780893281407121,-0.9130122562947528,-0.39056287654412813,0.5107009949476462,0.20687105450167306,-1.499754435760678,0.6812701811067061,-1.1724804950046417,1.4050901003873335,0.20480850515807672,0.5024069677597727,1.7246498598896203,-1.2268477030102267,1.4608831666028528,-0.963076392182883,-0.17878742317784727,-1.2998242260443826,0.265821436043035,-2.219933198275124,-1.113497661947283,0.4478026658581457,0.9613360988472135,-1.4001567276590565,2.5575467652178028,-0.23282768452953864,0.6543590258244764
88,-1.70118199159305,-0.22502302046852604,0.35210530796041273,-0.37643034878435433,0.6787297552052365,-0.9111541669893073,-0.3918562229940383,0.5125599568883416,0.20645391117958517,-1.4991115447532417,0.6796588498433059,-1.1722355200940946,1.40407499717352,0.2028409182115931,0.5028223987194049,1.726627352930601,-1.2280072041213512,1.4625607234486198,-0.9634578185159112,-0.17878915370406256,-1.302663691281889,0.2635956672008775,-2.2182179982730648,-1.1141638795827966,0.4496699031981427,0.9624733897817913,-1.402805793090699,2.5603180835270924,-0.23423535237517443,0.6514927066489772
89,-1.7038711166831915,-0.22478367934656018,0.35162201332340154,-0.3789166919449175,0.679370389597395,-0.9093047653240971,-0.39314478433307043,0.5144102430158056,0.20603575300884971,-1.498473557673078,0.6780598390944778,-1.171993753280723,1.4030675380319197,0.20088199326795556,0.5032365912277901,1.7285978460474059,-1.2291600305245862,1.464224909859414,-0.9638398563800425,-0.17879339808663197,-1.3055062162469206,0.2613783786723177,-2.216516598447536,-1.114839320332668,0.4515302325928774,0.963610699994015,-1.4054491195467518,2.5630819267469263,-0.235639682909355,0.6486357098433106
90,-1.706553831231968,-0.22454723501308188,0.35114437971568624,-0.38139688280618683,0.6800112058092829,-0.907464046215618,-0.3944285742160645,0.5162519382467662,0.20561660308582191,-1.4978404471538154,0.6764731062696626,-1.1717551624257858,1.402067660820496,0.19893171709846677,0.5036495331023878,1.7305613412642256,-1.2303062087665737,1.4658758221787052,-0.964222485645164,-0.17880010536798424,-1.3083516463326836,0.25916955172146816,-2.2148288756232017,-1.1155238532345153,0.4533836871441184,0.9647479982997521,-1.4080866765379052,2.5658383078749916,-0.23704066607807614,0.6457880347927234
91,-1.7092301239586278,-0.22431366341348716,0.35067235564267824,-0.3838709041808316,0.6806521789701606,-0.9056320029842438,-0.3957076072571632,0.5180851280638299,0.20519648416160816,-1.4972121854756104,0.6748986069299022,-1.1715197154569885,1.4010753029279213,0.19699007493225587,0.504061212898697,1.732517842049463,-1.2314457665307101,1.4675135578764273,-0.9646056866013011,-0.1788092249069081,-1.3111998283670077,0.2569691673198924,-2.2131547046692,-1.1162173470384582,0.4552303021665903,0.9658852559819232,-1.4107184344872352,2.5685872430824372,-0.23843829166079708,0.6429496802201691
92,-1.7118999850911898,-0.22408294046757538,0.3502058893437347,-0.3863387403542842,0.6812932848266463,-0.9038086274284451,-0.3969818989533422,0.5199098983871081,0.20477541865262192,-1.4965887445984032,0.673336294895944,-1.1712873803876123,1.4000904013505688,0.19505705054957959,0.5044716198826005,1.7344673532496935,-1.2325787325574478,1.4691382154166053,-0.9649894399464172,-0.17882070641297712,-1.3140506107524907,0.2547772060681955,-2.211493958825817,-1.1169196704164186,0.4570701149246269,0.9670224465611976,-1.413344364816135,2.5713287514220147,-0.23983254939870202,0.6401206441190294
93,-1.7145634062920907,-0.22385504208719115,0.349744928865341,-0.3888003770072494,0.6819344997236865,-0.9019939098956152,-0.39825146561335967,0.5217263354563069,0.20435342865038805,-1.4959700961931532,0.6717861223500284,-1.1710581253341565,1.399112892763663,0.1931326263690701,0.5048807440039782,1.7364098810266195,-1.2337051365699179,1.4707498941347938,-0.9653737267749705,-0.17883449997745518,-1.316903843588311,0.2525936481295469,-2.2098465100015052,-1.117630692149833,0.4589031643928635,0.9681595455879065,-1.415964440016813,2.574062854561134,-0.241223429107436,0.637300923697312
94,-1.7172203805879223,-0.22362994419248705,0.3492894221278679,-0.3912558011430671,0.6825758005862744,-0.9001878393496661,-0.3995163242917347,0.5235345257224977,0.20393053593065757,-1.4953562116711827,0.670248039931779,-1.1708319185325973,1.3981427135870172,0.1912167835293554,0.5052885758715229,1.7383454327968728,-1.2348250092044966,1.4723486941246138,-0.9657585285671674,-0.17885055610097378,-1.3197593787754205,0.25041847317393007,-2.208212229042693,-1.1183502812976742,0.4607294910389356,0.9692965304533389,-1.4185786337126896,2.576789576537773,-0.24261092077577565,0.6344905153321315
95,-1.7198709023029966,-0.22340762272690873,0.34883931698641935,-0.39370500101959655,0.6832171649018857,-0.898390403435553,-0.400776492727389,0.5253345557488405,0.20350676196189071,-1.4947470622117436,0.6687219968285878,-1.1706087283533593,1.397179800045764,0.18930950196544938,0.5056951067286916,1.7402740171745235,-1.2359383819459564,1.4739347161327156,-0.9661438271788545,-0.17886882571825063,-1.3226170701066986,0.2482516603320197,-2.2065909859786346,-1.1190783073465338,0.46254913662631114,0.9704333802187302,-1.421186920707909,2.5795089435373146,-0.2439950146515742,0.6316894145333871
96,-1.7225149669965019,-0.22318805367099656,0.34839456128624513,-0.3961479660853098,0.6838585707035997,-0.896601588540879,-0.4020319892866122,0.5271265121195793,0.20308212791316163,-1.4941426187879197,0.6672079408608669,-1.1703885233150904,1.3962240882264465,0.18741076048028363,0.5061003284307325,1.7421956439161603,-1.2370452870668764,1.4755080614615526,-0.9665296048319966,-0.1788892602200973,-1.3254767733435022,0.24609318815768239,-2.2049826502434016,-1.1198146403443656,0.4643621440355275,0.9715700754603853,-1.423789277027083,2.582220983688559,-0.2453757013162068,0.6288976159156445
97,-1.7251525714030214,-0.22297121305509118,0.3479551029131595,-0.39858468691930243,0.6844999965538775,-0.8948213798547251,-0.40328283291003403,0.5289104813566811,0.20265665466153435,-1.4935428521909677,0.6657058185625067,-1.1701712720973223,1.3952755141288213,0.18552053681172634,0.5065042334227263,1.7441103238684155,-1.2381457575709993,1.477068831879379,-0.9669158441056913,-0.1789118114729443,-1.328338346279936,0.24394303459818684,-2.2033870908769293,-1.120559151019368,0.4661685571022439,0.9727065981295037,-1.4263856799462755,2.584925726877275,-0.24675297174863822,0.6261151131773242
98,-1.7277837133762035,-0.22275707697102384,0.34752088983937107,-0.40101515517495145,0.6851414215289661,-0.8930497614238453,-0.4045290430633089,0.5306865498435328,0.20223036279895557,-1.492947733053194,0.6642155752568659,-1.1699569435520958,1.3943340137136915,0.18363880769541105,0.5069068147185865,1.7460180689178053,-1.2392398271402523,1.4786171295369415,-0.9673025279276749,-0.17893643183609406,-1.3312016487960436,0.24180117697129086,-2.201804176706902,-1.1213117108853532,0.46796842047064385,0.9738429314253902,-1.4289761080161603,2.5876232045757983,-0.24812681738013814,0.6233418990863759
99,-1.7304083918353834,-0.22254562158286628,0.34709187016509857,-0.40343936352696474,0.6857828252039005,-0.8912867162063595,-0.40577063969123994,0.5324548037551523,0.20180327263870648,-1.4923572318694582,0.6627371551285915,-1.1697455067146216,1.3933995229470675,0.1817655489236753,0.5073080658809636,1.7479188919427753,-1.2403275300851637,1.4801530568903576,-0.9676896395662778,-0.1789630741768948,-1.3340665429010243,0.23966759194844794,-2.200233776513112,-1.1220721923348445,0.4697617794608423,0.9749790596808425,-1.43156054107819,2.5903134496872995,-0.24949723014058092,0.6205779654716979
100,-1.7330266067149716,-0.22233682313680972,0.3466679921563187,-0.4058573056215874,0.6864241876380767,-0.8895322261230713,-0.4070076431750881,0.5342153289944117,0.2013754042214525,-1.4917713190173898,0.6612705012915472,-1.1695369308130446,1.3924719778409334,0.17990073540088755,0.5077079810020043,1.7498128067678316,-1.2414089012984293,1.481676716629722,-0.968077162622791,-0.17899169188401312,-1.336932892767477,0.23754225554344557,-2.198675759175795,-1.1228404687210332,0.47154867994906136,0.976114968258605,-1.434138960274545,2.592996496403455,-0.25086420249718405,0.6178233032196263
101,-1.735638358916433,-0.2221306579702368,0.34624920427896344,-0.4082689760297442,0.6870654893613659,-0.8877862721065308,-0.40824007429283105,0.5359682111338055,0.2009467773209268,-1.4911899647763962,0.6598155558531115,-1.1693311852773747,1.3915513144908704,0.17804434119542176,0.5081065546849151,1.7516998281196552,-1.2424839762113984,1.4831882116130066,-0.9684650810242077,-0.17902223887896884,-1.3398005647575901,0.23542514310585128,-2.197129993809331,-1.1236164144296354,0.4733291682594394,0.977250643457874,-1.436711348052559,2.595672380074358,-0.25222772748646427,0.6150779022748877
102,-1.7382436502626972,-0.22192710252004585,0.3458354552298602,-0.41067437020291386,0.6877067113607482,-0.8860488341479578,-0.40946795418215426,0.5377135353623332,0.20051741144928026,-1.4906131393455382,0.6583722599750874,-1.1691282397476408,1.3906374691107783,0.17619633958851968,0.5085037820262854,1.7535799715850984,-1.2435527907532684,1.484687644804858,-0.9688533790163089,-0.17905466962608144,-1.3426694274421087,0.2333162293187002,-2.1955963498825843,-1.1243999049415951,0.4751032910664331,0.9783860724299226,-1.4392776881642553,2.5983411370896077,-0.25358779874012055,0.6123417516454598
103,-1.7408424834548428,-0.2217261333302824,0.345426693964685,-0.41307348443154535,0.6883478350674366,-0.8843198913421323,-0.41069130430597134,0.5394513864370973,0.20008732586212818,-1.4900408128603417,0.6569405539314476,-1.168928064081322,1.3897303780649075,0.1743567031202636,0.5088996585991284,1.7554532535709648,-1.2446153813127903,1.4861751192199213,-0.9692420411570613,-0.1790889391409661,-1.345539351612842,0.23121548819991203,-2.194074697327045,-1.1251908168875022,0.4768710953068589,0.9795212431019925,-1.441837965661565,2.6010028047695894,-0.25494441050548955,0.6096148394108458
104,-1.7434348620309201,-0.22152772705912827,0.345022869723176,-0.4154663158058395,0.68898884234447,-0.8825994219303575,-0.41191014642028756,0.5411818486392473,0.19965653956332144,-1.4894729554086121,0.655520377163124,-1.1687306283601073,1.3888299778974076,0.172525403632866,0.5092941804365962,1.7573196912654856,-1.245671784702302,1.4876507378703485,-0.9696310523103012,-0.17912500299770515,-1.3484102102893991,0.22912289310697362,-2.1925649066338555,-1.1259890280945153,0.47863262810070034,0.9806561441086762,-1.4443921668877517,2.603657421266064,-0.25629755766115947,0.6068971527333105
105,-1.746020790326776,-0.2213318604852953,0.34462393205183534,-0.41785286217873246,0.6896297154747526,-0.8808874033415908,-0.4131245025442331,0.5429050057339304,0.1992250713094672,-1.48890953704531,0.6541116683300364,-1.1685359028960272,1.3879362053595765,0.1707024123114673,0.5096873440163345,1.759179302601403,-1.2467220381239241,1.4891146037171774,-0.9700203976396797,-0.17916281733481057,-1.3512818787207836,0.22703841674446895,-2.191066848940697,-1.126794417626512,0.48038793667988344,0.9817907647300774,-1.44694027946551,2.606305025471232,-0.25764723572827575,0.6041886778716734
106,-1.7486002734387591,-0.2211385105138669,0.3442298308243297,-0.4202331221309293,0.6902704371495166,-0.879183812231836,-0.41433439493210666,0.5446209409339337,0.1987929396142224,-1.4883505278065474,0.6527143653605394,-1.1683438582370036,1.3870489974349822,0.1688876997226181,0.5100791462454384,1.7610321062205834,-1.2477661791377588,1.4905668196252857,-0.9704100626028457,-0.17920233886008366,-1.3541542343824142,0.22496203117407834,-2.189580396109442,-1.1276068658181242,0.48213706832428843,0.9829250948361012,-1.4494822922821644,2.6089456569345355,-0.2589934408780214,0.601489400197297
107,-1.7511733171881922,-0.22094765418162718,0.34384051625978007,-0.42260709493784676,0.6909109904571884,-0.8774886245218825,-0.41553984604728167,0.5463297368667281,0.19836016275238114,-1.487795897722756,0.6513284054984531,-1.1681544651718552,1.3861682913626159,0.16708123585061008,0.5104695844459763,1.7628781214400797,-1.2488042456319508,1.4920074883216534,-0.9708000329458457,-0.1792435248544686,-1.3570271569690917,0.2228937078267069,-2.1881054207953983,-1.1284262543032597,0.4838800703043319,0.9840591248362824,-1.4520181954723554,2.611579355786501,-0.2603361699357095,0.5987993042119385
108,-1.7537399280875028,-0.22075926866191464,0.3434559389391193,-0.42497478053833576,0.6915513588726387,-0.8758018154334754,-0.41674087853783864,0.5480314755446475,0.1979267587637751,-1.4872456168310773,0.649953725347834,-1.1679676947347968,1.385294024658222,0.16528299013180575,0.510858656341052,1.7647173682195763,-1.2498362757944765,1.493436712356682,-0.9711902946977229,-0.17928633317498885,-1.3599005283843781,0.22083341751643573,-2.1866417965088973,-1.1292524660386518,0.48561698982950946,0.9851928456346145,-1.4545479803985562,2.6142061626690074,-0.26167542038188535,0.5961183735671748
109,-1.756300113307914,-0.22057333126903447,0.3430760498196775,-0.42733617950506186,0.6921915262467989,-0.8741233595239912,-0.41793751521379857,0.5497262383379544,0.19749274545700463,-1.4866996551870215,0.6485902609156282,-1.1677835182094656,1.3844261351339404,0.16349293148710742,0.5112463600413725,1.7665498671301425,-1.2508623080865386,1.4948545940683433,-0.9715808341652965,-0.17933072225684782,-1.3627742327268155,0.21878113045602102,-2.1851893976699213,-1.1300853853229385,0.4873478740023442,0.9863262485888876,-1.4570716396297352,2.616826118671399,-0.2630111903507955,0.5934465910851365
110,-1.7588538806486052,-0.22038981946226097,0.3427008002481449,-0.4296912930164337,0.6928314767966242,-0.8724532307196956,-0.4191297790258407,0.5514141059505687,0.19705814041301595,-1.4861579828754372,0.647237947652339,-1.1676019071325083,1.383564560916386,0.16171102835269366,0.5116326940322966,1.7683756393242365,-1.2518823812174533,1.4962612355489426,-0.971971637928107,-0.17937665111476792,-1.3656481562733664,0.21673681627369365,-2.183748099656399,-1.1309248978117183,0.4890727697772332,0.9874593254740914,-1.4595891669184442,2.619439265271928,-0.26434347862654906,0.5907839387803147
111,-1.7614012385072535,-0.2202087108494591,0.3423301419720479,-0.4320401228299748,0.6934711950953891,-0.870791402347648,-0.42031769304539834,0.5530951583982467,0.19662296098853957,-1.4856205700208316,0.6458967204908317,-1.167422833296756,1.382709240463277,0.15993724870914258,0.512017657161338,1.7701947065068946,-1.252896534120927,1.4976567386143045,-0.9723626928335128,-0.17942407934363613,-1.3685221874604254,0.21470044403103875,-2.1823177788467483,-1.131770890528996,0.490791723923732,0.9885920684494772,-1.4621005571765855,2.6220456442840474,-0.26567228463726206,0.5881303978822313
112,-1.763942195851879,-0.220029983190352,0.3419640271498628,-0.43438267125704433,0.6941106660632992,-0.8691378471663211,-0.4215012804460335,0.5547694749890207,0.19618722431940228,-1.4850873867970817,0.6445665138833904,-1.1672462687540166,1.3818601125787215,0.15817156010905137,0.5124012486260967,1.7720070909080532,-1.2539048059326245,1.4990412047751978,-0.9727539859919251,-0.17947296711851854,-1.3713962168627125,0.21267198224175712,-2.180898312657189,-1.132623251875389,0.49250478299385625,0.989724470028912,-1.4646058064500842,2.6246452978071253,-0.26699760844745,0.5854859488587866
113,-1.7664767621939188,-0.2198536143994595,0.34160240835988215,-0.43671894113881826,0.6947498749584028,-0.8674925373949952,-0.4226805644860004,0.5564371343057205,0.1957509473237248,-1.484558403436568,0.6432472618371298,-1.1670721858175086,1.381017116427256,0.15641392970325332,0.5127834679626,1.7738128152559471,-1.254907235968941,1.5004147352108355,-0.9731455047721698,-0.17952327519410036,-1.3742701371703356,0.21065139889113202,-2.1794895795743137,-1.1334818716334312,0.4942119932930183,0.9908565230541921,-1.4671049118926687,2.6272382681811806,-0.2683194507489046,0.5828505714401158
114,-1.7690049475624605,-0.21967958254873027,0.34124523860793776,-0.43904893582344934,0.6953888073677919,-0.8658554447419837,-0.42385556849191297,0.5580982141904145,0.1953141467050159,-1.4840335902387654,0.6419388979478609,-1.1669005570639615,1.3801801915467278,0.15466432426572613,0.5131643150340284,1.7756119027515365,-1.2559038637068978,1.5017774307442973,-0.9735372367969665,-0.17957496490360375,-1.3771438431642735,0.20863866145604434,-2.178091459183346,-1.134346640970285,0.4959134008542516,0.991988220671014,-1.4695978717389417,2.6298245979452872,-0.2696378128502686,0.5802242446428086
115,-1.7715267624795732,-0.21950786586988924,0.3408924713340768,-0.44137265914433094,0.6960274491990763,-0.8642265404317455,-0.4250263158434406,0.5597527917306204,0.19487683895517208,-1.4835129175783213,0.6406413554324994,-1.1667313553354024,1.3793492778601026,0.1529227102172768,0.5135437900198099,1.7774043770439125,-1.256894728765083,1.5031293918197328,-0.9739291699385142,-0.17962799815723096,-1.3800172316905124,0.20663373692539608,-2.1767038321924934,-1.1352174524381329,0.49760905141540707,0.993119556307329,-1.4720846852769038,2.6324043297993165,-0.2709526966655004,0.5776069467943611
116,-1.7740422179366733,-0.21933844275651962,0.3405440604182783,-0.4436901153993945,0.6966657866721214,-0.8626057952309347,-0.4261928299589597,0.5614009432471473,0.1944390403573919,-1.4829963559126504,0.6393545671601021,-1.166564553740653,1.3785243156862745,0.15118905364808327,0.5139218934050623,1.7791902622066404,-1.2578798708855723,1.5044707184812158,-0.974321292314176,-0.1796823374401762,-1.3828902016330396,0.2046365918208185,-2.175326580453757,-1.1360941999725065,0.4992989903990342,0.9942505236538357,-1.4745653528200728,2.6349775065687218,-0.2722641047014002,0.5749986555577437
117,-1.7765513253718739,-0.21917129176589797,0.3401999601852911,-0.44600130933137705,0.6973038063110356,-0.8609931794734351,-0.427355134282097,0.5630427442834425,0.1940007669890124,-1.4824838757890713,0.638078465681605,-1.1664001256565517,1.3777052457499455,0.14946332033916557,0.5142986259703682,1.780969582714996,-1.258859329916763,1.505801510353131,-0.9747135922822548,-0.17973794581024594,-1.3857626538858834,0.2026471922175551,-2.173959586980525,-1.136976778888776,0.5009832628946875,0.9953811166463866,-1.4770398756793293,2.6375441711720975,-0.2735720400443513,0.5723993479559855
118,-1.7790540966482622,-0.21900639162059904,0.33986012540866617,-0.44830624610899855,0.6979414949363989,-0.8593886630844256,-0.4285132522691029,0.5646782695963264,0.19356203472427463,-1.4819754478515106,0.6368129832583385,-1.166238044728922,1.3768920091906438,0.1477454757828538,0.5146739887818654,1.7827423634240556,-1.259833145797063,1.5071218666219834,-0.9751060584378544,-0.17979478689512426,-1.3886344913243647,0.2006655037654227,-2.172602735962258,-1.1378650858770085,0.5026619136434217,0.9965113294501069,-1.4795082561346007,2.6401043665912645,-0.27487650634641475,0.5698090003966854
119,-1.781550544033061,-0.21884372120988616,0.3395245113140516,-0.4506049313089946,0.6985788396577214,-0.8577922156035189,-0.42966720737700076,0.5663075931480087,0.19312285923702446,-1.4814710428467994,0.6355580518893827,-1.166078284873302,1.376084547570937,0.14603548520231585,0.5150479831816399,1.7845086295476054,-1.260801358539382,1.5084318860195283,-0.9754986796088175,-0.17985282488931625,-1.391505618775708,0.19869149170976574,-2.1712559127765414,-1.1387590189953811,0.5043349870242612,0.9976411564450447,-1.4819704974064862,2.642658135843662,-0.27617750781089995,0.5672275886963726
120,-1.7840406801776258,-0.2186832595909015,0.339193073581811,-0.4528973708989533,0.699215827866122,-0.8562038062070129,-0.43081702305245956,0.5679307880992862,0.19268325600335412,-1.480970631630581,0.6343136033378264,-1.1659208202754512,1.375282802883895,0.14433331357020152,0.5154206107784056,1.7862684066378323,-1.2617640082163732,1.5097316668071297,-0.9758914448517391,-0.17991202455079988,-1.3943759429891496,0.1967251209123293,-2.1699190039987455,-1.139658477662315,0.5060025270424509,0.9987705922131891,-1.484426603627911,2.645205521956845,-0.2774750491775206,0.5646550881046495
121,-1.7865245180982399,-0.2185249859896699,0.3388657683490228,-0.4551835712209098,0.6998524472272196,-0.854623403729294,-0.4319627227213439,0.569547926803832,0.1922432403041895,-1.4804741851728542,0.6330795691559843,-1.1657656253916482,1.3744867175598565,0.14263892562645641,0.5157918734384601,1.7880217205657638,-1.2627211349463816,1.5110213067612603,-0.976284343448046,-0.1799723511974142,-1.3972453726056588,0.19476635587198535,-2.168591897409534,-1.1405633626474867,0.5076645773193122,0.9998996315267079,-1.4868765798158874,2.6477465679448997,-0.2787691357072335,0.5620914733280581
122,-1.7890020711576653,-0.2183688798019286,0.3385425522109118,-0.4574635389756539,0.7004886856742268,-0.853050976683428,-0.4331043297788972,0.5711590808034934,0.19180282722782746,-1.4799816745631673,0.6318558807096278,-1.1656126749487936,1.3736962344725423,0.14095228589535458,0.516161773276903,1.7897685975024276,-1.2636727788800546,1.5123009031600667,-0.9766773649001427,-0.18003377070300927,-1.4001138181273824,0.19281516074525643,-2.1672744820004164,-1.1414735760618486,0.5093211810835454,1.0010282693372738,-1.4893204318434532,2.6502813167866153,-0.2800597731668469,0.5595367185536212
123,-1.7914733530474165,-0.2182149205937945,0.33822338222176007,-0.45973728120771185,0.7011245314012402,-0.8514864932809705,-0.43424186758051797,0.5727643208245202,0.19136203167242707,-1.4794930710154848,0.6306424692012766,-1.1654619439443297,1.37291129694456,0.13927335870179472,0.5165303126491068,1.7915090639006994,-1.2646189801875767,1.5135705527709227,-0.9770704989276158,-0.18009624949338124,-1.4029811918869044,0.1908714993665873,-2.165966647977539,-1.1423890213467864,0.5109723811638339,1.0021565007663586,-1.4917581664118464,2.65280981140526,-0.2813469678134746,0.5569907974720141
124,-1.793938377770721,-0.21806308810228003,0.33790821589534187,-0.4620048052909638,0.7017599728567175,-0.8499299214510317,-0.4353753594330926,0.574363716774654,0.1909208683484581,-1.4790083458727408,0.6294392656925968,-1.1653134076459897,1.3721318487523424,0.1376021081869019,0.5168974941424289,1.7932431464778125,-1.2655597790464925,1.5148303518389075,-0.9774637354634971,-0.18015975454201347,-1.405847408016408,0.18893533526832293,-2.16466828676388,-1.1433096032625232,0.5126182199826219,1.0032843210963909,-1.4941897910229684,2.6553320946498253,-0.28263072637890385,0.5544536833003323
125,-1.7963971596261357,-0.21791336223566735,0.337597011204921,-0.46426611891486297,0.7023949987371376,-0.848381228858624,-0.43650482858684964,0.5759573377410128,0.19047935178110975,-1.4785274706110978,0.6282462011259479,-1.1651670415913866,1.3713578341305512,0.13593849832297333,0.5172633205681572,1.7949708721985016,-1.2664952156300837,1.5160803960761466,-0.9778570646505805,-0.18022425336564374,-1.4087123824168153,0.18700663170035706,-2.1633792910000094,-1.14423522787587,0.5142587395509459,1.0044117257626788,-1.4966153139521812,2.6578482092776157,-0.2839110560539364,0.5519253488044233
126,-1.7988497131917913,-0.21776572307375036,0.33728972658284817,-0.46652123007122404,0.7030295979808338,-0.8468403829223207,-0.4376302982277053,0.5775452519887111,0.19003749631266253,-1.4780504168439221,0.6270632063451191,-1.1650228215874534,1.3705891977759863,0.13428249292780362,0.5176277949536766,1.7966922682587583,-1.2674253300962706,1.517320780651956,-0.9782504768377907,-0.18028971401967506,-1.411576032726968,0.18508535164942064,-2.1620995545435484,-1.1451658025474152,0.5158939814642161,1.005538710346016,-1.499034744221477,2.660358197938066,-0.28518796447275535,0.5494057663207595
127,-1.8012960533102351,-0.21762015086795367,0.33698632091979136,-0.4687701470415514,0.7036637597619961,-0.8453073508312547,-0.4387517914700695,0.5791275269601608,0.18959531610482505,-1.4775771563254951,0.6258902121152902,-1.1648807237097414,1.369825884851027,0.1326340556784229,0.5179909205348529,1.7984073620701722,-1.268350162577009,1.518551600183739,-0.9786439625766011,-0.18035610509344652,-1.414438278292913,0.18317145785798544,-2.1608289724674608,-1.1461012359182314,0.5175239868988492,1.0066652705658896,-1.5014480915730548,2.6628621031576953,-0.2864614596973634,0.5468949077778296
128,-1.8037361950738464,-0.21747662604133602,0.33668675356363037,-0.47101287838487915,0.7042974734848373,-0.8437820995614815,-0.43986933135008616,0.580704229275001,0.1891528251410382,-1.4771076609544689,0.6247271491422509,-1.1647407243015893,1.369067840986639,0.13099315012427803,0.518352700748621,1.8001161812448376,-1.269269753168156,1.5197729487285883,-0.9790375126175008,-0.18042339570537924,-1.4172990401373404,0.1812649128427615,-2.1595674410572894,-1.1470414378961769,0.519148796609669,1.0077914022742263,-1.5038553664433294,2.665359967326097,-0.2877315502021328,0.5443927447170336
129,-1.8061701538108028,-0.21733512918848635,0.33639098431804343,-0.4732494329260973,0.7049307287779145,-0.8422645958917303,-0.44098294081928346,0.5822754247306108,0.1887100372287483,-1.4766419027770814,0.623573948090913,-1.1646027999731685,1.368315012284971,0.12935973969988535,0.5187131392257749,1.8018187535808023,-1.2701841419197806,1.5209849197755454,-0.9794311179065057,-0.18049155549801116,-1.420158240929222,0.17936567891277136,-2.1583148578074454,-1.1479863196418512,0.5207684509279942,1.0089171014496123,-1.5062565799373993,2.6678518326828833,-0.28899824485850156,0.54189924831307
130,-1.8085979450715717,-0.21719564107531944,0.336098973440812,-0.47547981974474024,0.7055635154886047,-0.8407548064185686,-0.44209264273860926,0.5838411783031617,0.18826696600165063,-1.4761798539901434,0.6224305396031425,-1.1644669276004156,1.367567345321567,0.1277337877369813,0.519072239783948,1.803515107048041,-1.271093368826896,1.5221876062384792,-0.9798247695817162,-0.18056055463293336,-1.4230158049536885,0.17747371818698798,-2.1570711214166427,-1.148935793554271,0.5223829897603443,1.0100423641919352,-1.5086517438039913,2.6703377413055125,-0.29026155291984584,0.5394143893938032
131,-1.8110195846159063,-0.21705814263877773,0.3358106816418676,-0.4777040481642152,0.7061958236777264,-0.8392526975710001,-0.4431984598728317,0.5854015541491693,0.18782362492190477,-1.4757214869438064,0.6212968543149406,-1.1643330843238557,1.3668247871472203,0.12611525747619537,0.5194300064207816,1.8052052697749326,-1.2719974738205948,1.5233811004495428,-0.9802184589699167,-0.18063036378563938,-1.4258716580821837,0.17558899261152558,-2.1558361317825674,-1.1498897732563134,0.5239924525876997,1.0111671867173972,-1.5110408704108975,2.672817735097926,-0.2915214840065546,0.5369381384596065
132,-1.8134350884003279,-0.21692261498644588,0.3355260700811023,-0.47992212774144966,0.7068276436143045,-0.837758235624518,-0.4443004148852841,0.5869566156075069,0.1873800272823227,-1.4752667741441248,0.6201728228730006,-1.1642012475473273,1.3660872852894863,0.12450411207826799,0.5197864433072722,1.8068892700352224,-1.2728964967595644,1.5245654941531759,-0.9806121775832185,-0.18070095414029844,-1.4287257277429197,0.1737114639763758,-2.1546097899958596,-1.150848173579976,0.5255968784652588,1.0122915653538593,-1.5134239727209182,2.675291855779935,-0.2927780480913283,0.5344704657021774
133,-1.815844472566073,-0.21678903939608346,0.3352451003659638,-0.4821340682569384,0.7074589657704734,-0.8362713867146335,-0.44539853033293625,0.5885064252018493,0.18693618620853084,-1.4748156882554189,0.6190583759506634,-1.164071394936614,1.365354787753879,0.12290031463483449,0.520141554781293,1.8085671362354554,-1.2737904774219666,1.5257408785006177,-0.981005917115744,-0.18077229738446196,-1.431577942891666,0.17184109393168423,-2.1533919983334777,-1.1518109105514978,0.5271963060226409,1.0134154965364757,-1.5158010642683197,2.677760144877304,-0.29403125548472026,0.5320113410228222
134,-1.818247753427488,-0.2166573973150817,0.33496773454885265,-0.4843398797051721,0.7080897808165143,-0.8347921168498978,-0.4464928286617742,0.5900510446435113,0.1864921146611065,-1.4743682021024518,0.6179534442632968,-1.1639435044179876,1.3646272430247677,0.12130382817879497,0.5204953453412848,1.8102388969028607,-1.2746794554976641,1.5269073440449004,-0.9813996694403512,-0.18084436570371287,-1.43442823398289,0.16997784400356403,-2.1521826602515137,-1.1527779013763755,0.5287907734644873,1.0145389768035873,-1.5181721591358148,2.6802226437124723,-0.29528111682093633,0.529560734050211
135,-1.8206449474608555,-0.21652767035984946,0.33469393512433976,-0.48653957228543043,0.7087200796160228,-0.8333203919244371,-0.44758333220247304,0.5915905348346565,0.1860478254376897,-1.473924288672427,0.6168579585831184,-1.1638175541766727,1.3639046000659913,0.11971461569428835,0.5208478196401108,1.8119045806736724,-1.2755634705807788,1.528064980736297,-0.9817934266053985,-0.1809171317762657,-1.4372765329412707,0.1681216756094453,-2.150981680377512,-1.1537490644243125,0.5303803185714211,1.0156620027928425,-1.5205372719320698,2.6826793933958752,-0.2965276430439057,0.5271186141576053
136,-1.8230360712936355,-0.21639984031513274,0.334423665026219,-0.48873315639292336,0.7093498532212027,-0.831856177730016,-0.4486700631663476,0.5931249558718444,0.1856033311750708,-1.473483921116817,0.6157718497534836,-1.1636935226552332,1.3631868083212086,0.1181326401262878,0.5211989824790692,1.8135642162818728,-1.2764425621625657,1.5292138779181945,-0.9821871808315495,-0.18099056876752503,-1.4401227731336002,0.16627255007296116,-2.1497889645023522,-1.1547243192141283,0.5319649787013245,1.01678457123752,-1.5228964177697415,2.6851304348178204,-0.2977708453936334,0.5246849504795613
137,-1.8254211416941055,-0.2162738891332731,0.33415688762441026,-0.4909206426102664,0.7099790928682831,-0.8303994399676479,-0.4497530436415666,0.5946543670498952,0.18515864435125434,-1.4730470727530272,0.6146950487026579,-1.1635713885518908,1.3624738177139981,0.11655786438983366,0.521548838802061,1.8152178325483426,-1.2773167696245904,1.5303541243233707,-0.9825809245086163,-0.18106465032460972,-1.4429668893410872,0.16443042863837193,-2.1486044195717398,-1.1557035863986564,0.5335447907909039,1.0179066789630304,-1.5252496122440462,2.687575808640878,-0.2990107353928425,0.5222597119281146
138,-1.827800175561386,-0.21614979893340874,0.333893566721726,-0.4931020416992751,0.7106077899730551,-0.828950144258767,-0.4508322955896179,0.5961788268660455,0.18471377728749952,-1.4726137170659097,0.6136274864570911,-1.1634511308187765,1.361765578647723,0.11499025137891887,0.5218973936899085,1.8168654583704047,-1.2781861322321966,1.5314858080706497,-0.9829746501924421,-0.18113935057084884,-1.4458088177320734,0.16259527248453098,-2.147427953677349,-1.1566867877496545,0.5351197913575086,1.019028322883576,-1.527596871411858,2.6900155552927565,-0.3002473248339132,0.519842867208451
139,-1.830173189915838,-0.21602755200062226,0.33363366655051363,-0.4952773645930656,0.711235936126524,-0.8275082561559769,-0.4519078408420119,0.5976983930243764,0.18426874215033764,-1.4721838277091264,0.6125690941542113,-1.1633327286601227,1.361062042005174,0.11342976397504101,0.5222446523548179,1.8185071227117495,-1.2790506891282512,1.5326090166619175,-0.9833683506018218,-0.18121464410025592,-1.4486484958351706,0.16076704273839626,-2.146259476047659,-1.1576738461427485,0.5366900165011784,1.0201494999989504,-1.5299382117713365,2.692449714959625,-0.30148062576612267,0.5174343848340716
140,-1.8325402018898185,-0.21590713078503943,0.3333771517691859,-0.49744662238844956,0.7118635230906759,-0.8260737411533909,-0.4529797010972123,0.5992131224404911,0.18382355095356678,-1.4717573785063744,0.6115198030547555,-1.1632161615303995,1.3603631591480032,0.11187636505543433,0.5225906201349854,1.8201428545927263,-1.2799104793271572,1.5337238369794755,-0.9837620186154615,-0.1812905059719865,-1.4514858625128282,0.15894570048809284,-2.1450988970385203,-1.1586646855424287,0.5382555019068933,1.0212702073914652,-1.5322736502420806,2.694878327579862,-0.3027106504831896,0.5150342331414595
141,-1.8349012287187818,-0.21578851790088194,0.3331239874586489,-0.49960982633861034,0.712490542794353,-0.8246465646965784,-0.4540478979177828,0.6007230712464247,0.18337821556022366,-1.4713343434524777,0.6104795445546501,-1.1631014091323981,1.3596688819159615,0.11033001750099418,0.5229353024893411,1.8217726830809917,-1.2807655417091222,1.5348303552837166,-0.9841556472689754,-0.18136691170478453,-1.4543208579353328,0.15713120679553255,-2.143946128123479,-1.159659230987116,0.539816282847005,1.022390442222985,-1.534603204145802,2.697301432838196,-0.3039374115111253,0.5126423803042559
142,-1.8372562877327157,-0.215671696125478,0.3328741391186383,-0.5017669878460507,0.7131169873292373,-0.8232266921921285,-0.45511245272773987,0.6022282947957697,0.18293274768453321,-1.4709146967143518,0.6094482501964594,-1.1629884514152675,1.3589791626259484,0.10879068420390559,0.5232787049924273,1.8233966372825026,-1.2816159150146733,1.5359286572111037,-0.9845492297519212,-0.18144383727142177,-1.4571534235552468,0.15532352270859717,-2.1428010818838987,-1.1606574085743109,0.5413723941838289,1.023510201732064,-1.5369268911875174,2.6997190701602225,-0.3051609215963915,0.5102587943469556
143,-1.8396053963478989,-0.2155566483982337,0.33262757266397264,-0.5039181184558004,0.7137428489459386,-0.8218140890168475,-0.4561733868101025,0.6037288476689987,0.18248715889383563,-1.4704984126318479,0.6084258516804132,-1.1628772685725068,1.3582939540708887,0.10725832807498722,0.5236208333294087,1.8250147463328408,-1.282461637839409,1.537018827772437,-0.9849427594048727,-0.18152125909313543,-1.4599835020822869,0.15352260927289268,-2.1416636719988946,-1.1616591454458407,0.5429238703723793,1.024629483231171,-1.5392447294372498,2.7021312787072675,-0.30638119369436634,0.5078834431581307
144,-1.8419485720589723,-0.21544335781956833,0.3323842544207327,-0.5060632298488745,0.7143681200501838,-0.820408720526598,-0.457230721304629,0.6052247836789716,0.18204146061049115,-1.4700854657184814,0.6074122808750282,-1.162767841039917,1.3576132095184417,0.10573291205076107,0.5239616932912098,1.8266270393888613,-1.2833027486289785,1.5381009513513941,-0.9853362297165312,-0.1815991540340671,-1.4628110374586432,0.1517284275430822,-2.140533813235117,-1.1626643697732153,0.5444707454632316,1.0257482841039942,-1.5415567373122345,2.704538097371585,-0.3075982409581152,0.5055162945031921
145,-1.8442858324313098,-0.21533180764981646,0.3321441511223739,-0.5082023338359728,0.7149927931991059,-0.8190105520647956,-0.45828447720573323,0.6067161558766109,0.18159566411376254,-1.4696758306620519,0.6064074698273363,-1.1626601494935158,1.3569368827095551,0.10421439910025788,0.5243012907697782,1.8282335456206518,-1.284139285674283,1.5391751117033288,-0.9857296343208729,-0.18167749939570746,-1.4656359748347412,0.14994093859380575,-2.1394114214363955,-1.1636730107431008,0.5460130531054963,1.0268666018028194,-1.5438629335596223,2.706939564771864,-0.3088120767274668,0.5031573160367001
146,-1.8466171950936827,-0.21522198130809952,0.3319072299057796,-0.5103354423514105,0.7156168610976302,-0.8176195489705722,-0.4593346753605717,0.6082030165567338,0.18114978054167544,-1.4692694823251573,0.605411350772731,-1.16255417484742,1.3562649278568724,0.10270275223156784,0.5246396317534685,1.8298342942037946,-1.2849712871068852,1.5402413919543154,-0.9861229669943353,-0.1817562729113498,-1.4684582605454433,0.14816010353019554,-2.138296413513273,-1.1646849985429215,0.5475508265498933,1.0279844338459743,-1.5461633372396721,2.7093357192490353,-0.3100227145183902,0.5008064753142328
147,-1.848942677731204,-0.21511386237116936,0.3316734583072624,-0.512462567447273,0.7162403165949542,-0.8162356765866173,-0.46038133646729434,0.6096854172640276,0.18070382089285628,-1.468866395745611,0.6044238561444448,-1.162449898251695,1.355597299642999,0.10119793449814525,0.5249767223225469,1.8314293143119211,-1.2857987908946258,1.5412998746004274,-0.9865162216530405,-0.18183545274055585,-1.4712778420866903,0.14638588349799514,-2.1371887074324416,-1.1657002643465963,0.5490840986519131,1.0291017778153326,-1.5484579677094248,2.7117265988623536,-0.3112301680126711,0.4984637398038244
148,-1.8512622980785471,-0.21500743457222626,0.33144280425851935,-0.5145837212877862,0.7168631526811201,-0.8148589002667089,-0.4614244810734512,0.6111634087991571,0.1802577960283483,-1.4684665461367623,0.6034449185826676,-1.1623473010901788,1.3549339532186413,0.09969990900487592,0.5253125686448099,1.8330186351095488,-1.2866218348374359,1.5423506415072374,-0.9869093923500561,-0.1819150174636366,-1.47409466809258,0.14461823969329166,-2.1360882222061024,-1.166718740300417,0.5506129018750551,1.0302186313538744,-1.5507468446068506,2.714112241385751,-0.31243445104788303,0.4961290768969825
149,-1.8535760739134286,-0.21490268179971372,0.3312152360825468,-0.516698916143893,0.7174853624836769,-0.8134891853829428,-0.462464129574549,0.6126370412249932,0.17981171667340504,-1.4680699088877283,0.6024744709433173,-1.1622463649782793,1.3542748442006178,0.09820863891391526,0.5256471769713185,1.8346022857451931,-1.2874404565633393,1.5433937739095276,-0.9873024732726936,-0.18199494607615116,-1.4769086883128788,0.1428571333718701,-2.1349948778812595,-1.167740359509073,0.5521372682941339,1.0313349921632975,-1.5530299878354623,2.716492684304442,-0.31363557760764943,0.49380245391929645
150,-1.8558840230503448,-0.21479958809609218,0.3309907224895213,-0.5188081643880313,0.7181069392644306,-0.8121264973326713,-0.4635003022127505,0.6141063638729524,0.17936559341926187,-1.46767645956354,0.6015124463064743,-1.1621470717607507,1.3536199286697572,0.09672408745030478,0.5259805536322416,1.8361802953447455,-1.2882546935246395,1.5444293524112007,-0.9876954587398438,-0.18207521798342588,-1.4797198535909653,0.14110252585819877,-2.1339085955289665,-1.1687650560218306,0.553657229598644,1.0324508580016785,-1.555307417549382,2.71886796481177,-0.314833561812193,0.4914838381406467
151,-1.8581861633345578,-0.21469813765659357,0.3307692325726505,-0.5209114784891049,0.7187278764162793,-0.8107708015451602,-0.46453301907571026,0.6155714253494377,0.17891943672488514,-1.4672861739052077,0.6005587779844869,-1.1620494035094493,1.3529691631686853,0.0952462179073744,0.5263127050328092,1.8377526930051071,-1.2890645829942835,1.5454574569853825,-0.98808834319935,-0.1821558129950965,-1.4825281158421983,0.1393543785540552,-2.132829297233535,-1.1697927648188655,0.5551728170961766,1.0335662266811776,-1.5575791541388564,2.7212381198062836,-0.316028417909167,0.4891731967850258
152,-1.8604825126363191,-0.21459831482795894,0.3305507358039999,-0.5230088710076395,0.7193481674601327,-0.8094220634879742,-0.4655623000955418,0.6170322735423718,0.1784732569186992,-1.4668990278297074,0.5996133995297606,-1.1619533425210724,1.352322504699509,0.09377499365193774,0.5266436376493705,1.8393195077880737,-1.2898701620623971,1.546478166974705,-0.9884811212254186,-0.18223671131967523,-1.4853334280327093,0.13761265294680167,-2.13175690608172,-1.1708234217977576,0.5566840617158793,1.0346810960657882,-1.5598452182162101,2.723603185889035,-0.31722016026476374,0.48687049703998186
153,-1.862773088845327,-0.2145001041071608,0.3303352020302994,-0.5251003545911196,0.7199678060419126,-0.8080802486730975,-0.46658816504790973,0.6184889556278144,0.17802706420029119,-1.4665149974298968,0.5986762447422376,-1.1618588713148819,1.3516799107214035,0.09231037812928683,0.5269733580255556,1.840880768714461,-1.2906714676329867,1.5474915610917623,-0.9888737875160661,-0.18231789355914477,-1.4881357441586098,0.13587731061731956,-2.1306913461518886,-1.1718569637601457,0.5581909940119557,1.0357954640691267,-1.5621056306022272,2.725963199361087,-0.31840880335509536,0.4845757060656953
154,-1.8650579098654065,-0.2144034901401118,0.3301226014687339,-0.5271859419694988,0.7205867859296327,-0.8067453226628011,-0.4676106335512419,0.619941518076655,0.17758086864209358,-1.4661340589743586,0.5977472476765775,-1.1617659726304144,1.3510413391481069,0.09085233486799303,0.5273018727685391,1.842436504758464,-1.2914685364208012,1.5484977174197323,-0.9892663368906042,-0.1823993407035814,-1.4909350192256134,0.13414831324761184,-2.1296325425031846,-1.1728933283985499,0.5596936441671962,1.0369093286522626,-1.5643604123129515,2.7283181962212226,-0.3195943617578419,0.4822887910036985
155,-1.8673369936094075,-0.2143084577203618,0.32991290470272183,-0.5292656459508768,0.7212051010105568,-0.8054172510752631,-0.4686297250660562,0.6213900066613743,0.17713468019104456,-1.4657561889071797,0.5968263426490465,-1.161674629425181,1.3504067483453306,0.0894008274845202,0.5276291885454024,1.8439867448422433,-1.2922614049483494,1.5494967134131534,-0.9896587642871609,-0.18248103412580882,-1.4937312092290624,0.13242562262808255,-2.128580421164697,-1.1739324542833582,0.5611920419965367,1.0380226878215868,-1.5666095845468981,2.730668212163849,-0.3207768501441604,0.4800097189852499
156,-1.869610357994314,-0.21421499178778433,0.3297060826776858,-0.5313394794173396,0.7218227452884326,-0.8040959995899503,-0.46964545889439746,0.6228344664628667,0.17668850867022623,-1.4653813638476674,0.5959134642441246,-1.1615848248723584,1.3497760971280879,0.08795581968765605,0.527955312079592,1.8455315178307306,-1.2930501095430673,1.550488625898852,-0.9900510647602403,-0.18256295557608399,-1.4965242711343572,0.1307092006645026,-2.1275349091246407,-1.1749742808499823,0.5626862169506395,1.0391355396267183,-1.5688531686726657,2.733013282577083,-0.32195628327085063,0.4777384571393716
157,-1.871878020936556,-0.21412307742725462,0.3295021066968181,-0.5334074553209546,0.7224397128807991,-0.8027815339527694,-0.4706578541793791,0.6242749418773172,0.17624236378048064,-1.4650095605900046,0.5950085473208371,-1.1614965423584716,1.3491493447579477,0.08651727528276745,0.5282802501474737,1.8470708525266475,-1.2938346863346315,1.5514735310770105,-0.9904432334783171,-0.1826450871768171,-1.4993141628577802,0.12899900938467054,-2.1264959343195557,-1.1760187483861821,0.5641761981194936,1.040247882158447,-1.57109118621694,2.7353534425410224,-0.3231326759727713,0.47547497260056065
158,-1.87414000034752,-0.21403269986731982,0.32930094841684465,-0.5354695866799172,0.723055998016367,-0.8014738199809958,-0.471666929904826,0.6257114766231272,0.17579625510200372,-1.464640756102851,0.5941115270188203,-1.1614097654810722,1.3485264509402162,0.0850851581758853,0.5286040095749788,1.8486047776657304,-1.2946151712524128,1.5524515045223728,-0.9908352657214692,-0.18272741141732662,-1.5021008432477103,0.12729501094477735,-2.1254634256235323,-1.1770657980195598,0.5656620142360294,1.0413597135467134,-1.5733236588528812,2.7376887268261787,-0.32430604315550127,0.4732192325161851
159,-1.8763963141292495,-0.21394384447886342,0.32910257984379027,-0.5375258865748438,0.723671595032469,-0.8001728235679851,-0.47267270489501323,0.6271441137478813,0.17535019209591715,-1.4642749275288887,0.5932223387641277,-1.1613244780464131,1.347907375821054,0.083659432377624,0.5289265972343407,1.8501333219121543,-1.2953916000230672,1.5534226211855775,-0.991227156879047,-0.18280991114863077,-1.50488427206622,0.12559716763548373,-2.1244373128374665,-1.1781153717052242,0.5671436936797445,1.0424710319586237,-1.575550608388882,2.7400191698920837,-0.3254763997882404,0.47097120405357257
160,-1.8786469801703318,-0.21385649677376467,0.3289069733287486,-0.5395763681452048,0.7242864983725793,-0.7988785106876779,-0.47367519781449735,0.6285728956353512,0.1749041841058182,-1.4639120521843192,0.5923409182747839,-1.1612406640671196,1.3472920799845296,0.08224006200694095,0.5292480200409205,1.8516565138541508,-1.296164008168258,1.5543869553946144,-0.9916189024473785,-0.18289256957827665,-1.507664409971051,0.1239054418877186,-2.1234175266783573,-1.1791674122136244,0.5686212644803387,1.0435818355965014,-1.5777720567576936,2.7423448058860487,-0.326643760896944,0.46873085440680257
161,-1.8808920163419631,-0.21377064240355448,0.3287141015636583,-0.5416210445858944,0.7249007025839004,-0.7975908473989008,-0.4746744271680356,0.6299978640125315,0.17445824035930765,-1.4635521075583113,0.5914672015660939,-1.1611583077598613,1.346680524449616,0.08082701129474082,0.5295682849501194,1.8531743819998137,-1.2969324310025059,1.555344580856398,-0.9920104980275106,-0.1829753702652083,-1.5104412184979583,0.12221979627820702,-2.12240399876864,-1.1802218631185544,0.5700947543213537,1.0446921226959747,-1.5799880260059054,2.7446656686420794,-0.327808141557686,0.4664981508032105
162,-1.8831314404941877,-0.21368626715806863,0.3285239375770893,-0.5436599291439315,0.7255142023150152,-0.7963097998494739,-0.4756704113005897,0.6314190599567001,0.17401236996949582,-1.4631950713124042,0.5906011249557147,-1.1610773935430243,1.3460726706671338,0.07942024458732937,0.529887398954375,1.854686954773085,-1.2976969036311645,1.5562955706584536,-0.9924019393229878,-0.18305829711467425,-1.5132146600434235,0.12054019353473595,-2.1213966616255724,-1.1812786687853258,0.5715641905438164,1.0458018915240987,-1.5821985382837709,2.746981791679938,-0.3289695568902446,0.46427306050961364
163,-1.8853652704523052,-0.21360335696409957,0.32833645473004014,-0.5456930351152879,0.7261269923136034,-0.7950353342801285,-0.47666316839741024,0.6328365239025006,0.17356658193648686,-1.462840921279868,0.5897426250684954,-1.160997906034385,1.3454684805166424,0.07801972634972154,0.5302053690802416,1.8561942605099189,-1.2984574609485138,1.5572399972707087,-0.9927932221376653,-0.18314133437317603,-1.5159846978477225,0.11886659654116585,-2.1203954486506684,-1.1823377743591108,0.5730296001498819,1.0469111403775144,-1.5844036158353727,2.7492932082043455,-0.3301280220519052,0.4620555508382671
164,-1.8875935240134405,-0.2135218978840479,0.3281516267117498,-0.5477203758418396,0.7267390674242207,-0.7937674170282428,-0.4776527164841984,0.6342502956490412,0.17312088514884133,-1.462489635465025,0.5888916388410923,-1.1609198300487877,1.344867916303287,0.07662542116880815,0.530522202385551,1.857696327454613,-1.2992141376359716,1.558177932547386,-0.9931843423735589,-0.18322446662345798,-1.5187512959783478,0.1171989683421959,-2.1194002941191887,-1.1833991257534524,0.5744910098064768,1.048019867580642,-1.586603280989117,2.7515999511043243,-0.3312835522314755,0.45984558915255885
165,-1.8898162189432712,-0.2134418761145741,0.32796942753552505,-0.5497419647084367,0.7273504225861378,-0.792506014531401,-0.4786390734273408,0.6356604143670067,0.17267528838501728,-1.4621411920425307,0.5880481035263665,-1.1608431505958268,1.344270940754602,0.07523729375638553,0.530837905956653,1.8591931837563074,-1.2999669681604173,1.5591094477289928,-0.9935752960287301,-0.18330767877953955,-1.5215144193137757,0.11553727214789083,-2.1184111331696895,-1.1844626696389415,0.5759484458489372,1.0491280714839122,-1.5887975561485483,2.753902052952669,-0.33243616264350645,0.45764314287245234
166,-1.8920333729729075,-0.2133632779852517,0.3277898315345859,-0.5517578151400873,0.7279610528312406,-0.7912510933307818,-0.4796222569342156,0.637066918605777,0.17222980031478974,-1.461795569356622,0.5872119566975683,-1.1607678528775338,1.3436775170172732,0.07385530895205235,0.5311524869057334,1.8606848574656425,-1.3007159867726248,1.560034613444403,-0.9939660791952063,-0.18339095608179054,-1.5242740335275735,0.11388147133797671,-2.1174279017936333,-1.1855283534320615,0.5774019342846429,1.050235750462031,-1.5909864637834767,2.756199546005548,-0.33358586852271505,0.45544817947968474
167,-1.89424500379592,-0.21328608995722284,0.3276128133579307,-0.5537679405992529,0.728570953281987,-0.7900026200743823,-0.4806022845535652,0.6384698463005516,0.17178442950064907,-1.4614527459203306,0.5863831362523158,-1.1606939222860726,1.343087608653866,0.07247943172597754,0.5314659523682074,1.8621713765315708,-1.3014612275058008,1.560953499713025,-0.9943566880569367,-0.18347428409205005,-1.5270301050728396,0.11223152946591317,-2.1164505368250626,-1.1865961252841961,0.5788515007966439,1.0513429029122832,-1.5931700264214115,2.758492462202227,-0.3347326851186024,0.4532606665227291
168,-1.8964511290655102,-0.2132102986218565,0.32743834796622256,-0.5557723545832515,0.7291801191494212,-0.7887605615200821,-0.48157917367593317,0.6398692347794736,0.17133918439917797,-1.4611127004146636,0.585561580416373,-1.160621344401441,1.3425011796395174,0.07110962718154336,0.5317783095001888,1.8636527687983198,-1.3022027241742267,1.5618661759470538,-0.9947471188877822,-0.18355764868878968,-1.5297826011669708,0.11058741026274924,-2.115478975930345,-1.1876659340708018,0.5802971707472795,1.0524495272528704,-1.5953482666392889,2.760780833164912,-0.3358766276902628,0.4510805716215283
