epoch,W1[0],W1[1],W1[2],W1[3],W1[4],W1[5],W1[6],W1[7],W1[8],W1[9],W1[10],W1[11],W1[12],W1[13],W1[14],W1[15],W1[16],W1[17],W1[18],W1[19],W2[0],W2[1],W2[2],W2[3],W2[4],W2[5],W2[6],W2[7],W2[8],W2[9]
0,-0.31846356539229215,-0.26168911434679687,-2.7383360669959234,0.004306678337025037,-0.30060404088361453,0.621074755800536,1.411044092399867,0.3343932378833257,-0.6593863193427856,-0.4122409293978073,0.9196646239960129,-1.55717241756117,-2.3141315689669684,-0.3324916328348348,0.4203159671322061,-0.8827746190954759,-0.9331801502099865,1.05818401740289,-0.7941671251122334,0.727121612012995,1.2811853696583442,-1.3958157490985161,0.6740981239157431,-1.066352992286163,-2.7289376538277264,-0.9533586472367992,-1.4687745530051108,-0.3475864703264456,-1.7716512000854023,-1.079814832650944
1,-0.317555023701328,-0.2622070309527997,-2.73832323776594,0.003501721712294066,-0.3027132884509359,0.6203477723267053,1.4099661088624098,0.33422166280608256,-0.6602285181255471,-0.41305810651531943,0.9205487642406579,-1.5576726974430157,-2.3141241989675216,-0.33327186881568116,0.4182690423382758,-0.8834829486509942,-0.9342289745901936,1.058018604952249,-0.7949732105769074,0.7263268911358183,1.283105631465871,-1.395415115143756,0.6740972328946334,-1.0651105079475844,-2.7273688729939365,-0.952053798530402,-1.4669029849715178,-0.34518879320251333,-1.7711090442510597,-1.0781023647668928
2,-0.31662949099265464,-0.2627335052171626,-2.7383101827067042,0.00268356537460785,-0.304859992413392,0.619608937279774,1.4088693173539741,0.33404815974170804,-0.6610842734744689,-0.41388896817886767,0.9214491485580237,-1.5581810268060126,-2.3141167674632706,-0.3340645991116567,0.41618656045257635,-0.8842026098441306,-0.9352958011697223,1.057851406593269,-0.7957918024782101,0.7255191383575865,1.2850613280883272,-1.3950081754171566,0.6740961267310841,-1.0638480828787895,-2.7257774837648445,-0.9507276016399105,-1.465000553619904,-0.342749260837977,-1.7705587835422913,-1.0763618415401988
3,-0.315686389908946,-0.26326880881165116,-2.7382968944496335,0.0018517942587956279,-0.30704535580580583,0.6188578795567522,1.4077531066850195,0.3338726894600647,-0.6619540095203379,-0.41473394869218355,0.9223663191577869,-1.5586976543352407,-2.3141092747488208,-0.3348702071047501,0.4140674073522885,-0.8849339508044685,-0.9363812058014345,1.0576823882943733,-0.7966232771060311,0.7246979490175119,1.2870536508545725,-1.394594740102976,0.6740947918415116,-1.0625651037850552,-2.7241628561700426,-0.9493793891869108,-1.4630662911024153,-0.3402665104345406,-1.7700001822840041,-1.0745923910488397
4,-0.3147251152265508,-0.2638132258365638,-2.7382833652841865,0.0010059744835384697,-0.30927063635980473,0.6180942113007644,1.4066168372615062,0.3336952118859791,-0.6628381695809009,-0.41559350216717317,0.9233008438971658,-1.5592228397372023,-2.3141017212579023,-0.33568909306421074,0.4119104198005618,-0.8856773350356986,-0.9374857906347943,1.0575115154322126,-0.797468026989145,0.7238629004661621,1.289083847869277,-1.3941746112604168,0.6740932136536593,-1.0612609303510485,-2.7225243352697306,-0.9480084638642203,-1.461099186032928,-0.3377391158787612,-1.7694329950571586,-1.0727931026502264
5,-0.313745032140959,-0.2643670535477924,-2.7382695871377565,0.00014565226074407067,-0.31153714965172635,0.6173175269344676,1.4054598394007816,0.33351568610956195,-0.6637372172719931,-0.4164681036777407,0.9242533178204073,-1.5597568543587665,-2.314094107581084,-0.3365216750896114,0.4097143827366951,-0.8864331422779385,-0.9386101856417299,1.0573387528168134,-0.7983264617782831,0.7230135510517656,1.2911532274476074,-1.3937475823902712,0.6740913765209986,-1.0599348937360953,-2.7208612399378116,-0.9466140967317497,-1.4590981809969017,-0.33516558400222546,-1.7688569662014393,-1.070963024808767
6,-0.31274547442637923,-0.2649306031344229,-2.738255551554175,-0.0007296472701289269,-0.31384627246369207,0.6165274021273488,1.4042814115287559,0.3333340704022699,-0.6646516376951082,-0.41735825049339725,0.9252243648076486,-1.5602999818466992,-2.314086434485658,-0.33736839011542047,0.4074780263942604,-0.8872017694267201,-0.9397550502469462,1.0571640647234235,-0.7991990091844942,0.722149439039666,1.293263161796035,-1.39331343797553,0.674089263628458,-1.0585862949721003,-2.719172861581063,-0.9451955253985197,-1.4570621698936266,-0.33254435058056236,-1.7682718292901174,-1.0691011627816733
7,-0.311725742458953,-0.2655042005508011,-2.7382412496707214,-0.001620421288553111,-0.3161994463737286,0.6157233926918725,1.4030808182489836,0.33315032223969954,-0.6655819387072737,-0.41826446339881035,0.9262146393418215,-1.5608525188506372,-2.314078702937983,-0.3382296949813971,0.40520002323576365,-0.8879836315126778,-0.9409210750705826,1.0569874149320904,-0.8000861159763755,0.7212700814601558,1.2954150909589752,-1.3928719529944409,0.6740868568884715,-1.057214403257434,-2.717458462791672,-0.9437519520825632,-1.4549899950985188,-0.32987377605105545,-1.7676773065757432,-1.0672064761531506
8,-0.3106851010921982,-0.2660881874073025,-2.7382266721935213,-0.0025271906264302435,-0.31859818159199954,0.6149050334030625,1.4018572882734925,0.33296439833225583,-0.6665286522795566,-0.4191872881059376,0.927224828402977,-1.5614147757725572,-2.3140709141285964,-0.33910606757340067,0.4028789846918063,-0.8887791627462386,-0.9421089837917073,1.056808766776182,-0.8009882490399457,0.7203749728795994,1.2976105270525982,-1.3924228924044457,0.6740841368262059,-1.0558184541396938,-2.7157172759305404,-0.9422825415398635,-1.4528804444322108,-0.32715214092701983,-1.7670731084053235,-1.065277876206486
9,-0.30962277737225596,-0.2666829219243832,-2.738211809371216,-0.003450501195297529,-0.32104406106145117,0.6140718367356858,1.40061001220437,0.33277625466501964,-0.6674923359510172,-0.42012729676591204,0.9282556535001705,-1.561987077565972,-2.314063069500487,-0.33999800803949237,0.40051345769209556,-0.8895888176318996,-0.9433195351417685,1.0566280832012251,-0.8019058965051002,0.7194635840894243,1.2998510588089218,-1.3919660105954008,0.6740810824526762,-1.054397647579839,-2.713948501638917,-0.9407864188528813,-1.4507322479222597,-0.32437764088540844,-1.7664589326036673,-1.0633142231229373
10,-0.30853795807941437,-0.2672887799548456,-2.738196650966769,-0.004390925514447977,-0.3235387448424822,0.6132232915127693,1.3993381401542206,0.33258584654834306,-0.6684735743854516,-0.4210850895884014,0.9293078728518589,-1.5625697645882908,-2.3140551707809314,-0.3409060400864949,0.39810192097506125,-0.8904130721569599,-0.9445535250377972,1.05644532683565,-0.802839568942758,0.7185353607072203,1.30213835645517,-1.391501050810462,0.674077671124281,-1.052951145889797,-2.7121513072761654,-0.9392626670686072,-1.4485440743423197,-0.32154838150231013,-1.765834463823652,-1.0613143229956925
11,-0.30742978708118546,-0.2679061560796345,-2.738181186227272,-0.005349064347712787,-0.3260839748026053,0.6123588614587182,1.3980407791926603,0.3323931286809439,-0.6694729810388164,-0.4220612965767518,0.930382283726629,-1.5631631935099568,-2.3140472200173936,-0.3418307123624636,0.3956427811622906,-0.8912524250598658,-0.9458117888658438,1.0562604600752674,-0.8037898006369487,0.717589721683844,1.3044741769553976,-1.3910277445330208,0.6740738783870954,-1.0514780715352523,-2.7103248252818393,-0.9377103246754441,-1.446314527512621,-0.31866237260910374,-1.765199372862266,-1.0592769246465674
12,-0.30629736248092104,-0.2685354647828788,-2.738165403851602,-0.006325548457222807,-0.328681579633467,0.6114779836498216,1.3967169906050003,0.33219805522754847,-0.6704911999458081,-0.4230565793878467,0.9314797249569843,-1.5637677382841808,-2.3140392196180444,-0.3427725999308006,0.3931343685835258,-0.8921073991836123,-0.9470952039258568,1.0560734451835776,-0.8047571509362045,0.7166260577100906,1.3068603696435017,-1.3905458108381181,0.6740696778040242,-1.0499775047949615,-2.7084681514606967,-0.9361283829075994,-1.4440421423445848,-0.3157175222400466,-1.7645533159414326,-1.057200716232533
13,-0.3051397335445625,-0.26917714171231394,-2.7381492919557715,-0.007321040483058732,-0.33133348021901937,0.6105800668544344,1.3953657869482023,0.3320005799134567,-0.6715289076346748,-0.4240716333262574,0.9326010796398821,-1.5643837911812435,-2.31403117239754,-0.3437323058420055,0.3905749328376006,-0.8929785429199213,-0.9484046920499479,1.0558842444103302,-0.8057422056886874,0.7156437295161648,1.3092988822789877,-1.3900549557068236,0.6740650407626554,-1.0484484812676338,-2.7065803431899496,-0.9345157828650446,-1.4417253806113743,-0.31271163014001957,-1.763895933952846,-1.055084321628644
14,-0.30395589738662754,-0.26983164503165413,-2.738132838035799,-0.008336236958310457,-0.3340416953800655,0.6096644897546101,1.3939861288880726,0.33180065613877907,-0.6725868151799581,-0.4251071894829308,0.9337472780387054,-1.5650117638915113,-2.3140230816288048,-0.3447104628092887,0.38796263807448295,-0.8938664317501723,-0.9497412224067328,1.0556928201311218,-0.8067455787655011,0.7146420660568863,1.3117917675591901,-1.3895548713021986,0.67405993626135,-1.0468899892171553,-2.7046604175488635,-0.932871412436517,-1.4393626264251878,-0.3096423807990454,-1.763226851666333,-1.0529262965735138
15,-0.30274479539494425,-0.27049945687192917,-2.738116028927933,-0.00937187046968699,-0.33680834802180126,0.6087305990404464,1.392576921800492,0.33159823711553327,-0.673665670403498,-0.4261640170293431,0.934919300702379,-1.5656520887014271,-2.314014951101666,-0.3457077349944633,0.38529555798358006,-0.8947716698892878,-0.951105814505168,1.0554991350112417,-0.8077679136765656,0.7136203625752935,1.314341190124067,-1.3890452352056402,0.6740543306707447,-1.0453009667467905,-2.702707349371928,-0.9311941030125015,-1.4369521814011483,-0.3065073359780763,-1.762545676901659,-1.0507251245631681
16,-0.30150530937195413,-0.2711810848892483,-2.7380988507660358,-0.010428711974438438,-0.3396356717123054,0.6077777073678968,1.3911370121182929,0.3313932760312977,-0.6747662602346617,-0.4272429256787356,0.9361181818183802,-1.5663052197468248,-2.314006785189337,-0.3467248199106572,0.38257167047373153,-0.8956948920389521,-0.9524995414120181,1.0553031521974707,-0.8088098852832681,0.7125778785371085,1.3169494340921468,-1.3885257096126673,0.6740481874674413,-1.0436802987929683,-2.7007200692281947,-0.9294826259746864,-1.4344922594867882,-0.30330392668845785,-1.7618519996642048,-1.0484792124789948
17,-0.3002362573686285,-0.27187706393689653,-2.738081288935939,-0.011507573284955433,-0.34252601772113467,0.6068050911703142,1.3896651834041833,0.3311857262437116,-0.6758894132413755,-0.4283447683267212,0.9373450128174166,-1.56697163434794,-2.3139985889238783,-0.34776245044842696,0.37978885203094925,-0.896636765256653,-0.9539235331977267,1.0551048355421047,-0.8098722016117993,0.7115138354283982,1.319618911168661,-1.3879959404875812,0.6740414669361751,-1.042026813929416,-2.698697461331158,-0.9277356889480642,-1.4319809814354105,-0.3000294445854809,-1.761145391245618,-1.0461868859356098
18,-0.2989363891851921,-0.2725879578600895,-2.738063328026577,-0.012609309732977938,-0.3454818625481803,0.6058119883135465,1.3881601521289317,0.3309755415108021,-0.6770360023441118,-0.4294704438841917,0.9386009462485367,-1.5676518344304347,-2.3139903680819693,-0.34882139703177256,0.3769448717410725,-0.8975979909470475,-0.9553789806260278,1.0549041498641347,-0.8109556057706064,0.7104274144087563,1.322352169369278,-1.3874555566769236,0.6740341258362067,-1.0403392809728043,-2.6966383613857676,-0.9259519318017102,-1.4294163689011181,-0.2966810327346203,-1.7604254032914013,-1.0438463843349193
19,-0.29760438151094565,-0.2733143614220986,-2.7380449517776904,-0.013734823025846873,-0.34850581597364727,0.6047975955840282,1.3866205631328858,0.3307626762629232,-0.6782069477254928,-0.43062090031603406,0.9398871999443462,-1.5683463480365842,-2.313982129282521,-0.3499024699103113,0.3740373849662347,-0.8985793069820397,-0.9568671391030421,1.0547010612532826,-0.8120608779746926,0.7093177538124794,1.3251519024050868,-1.3869041689823185,0.6740261170270357,-1.0386164053817695,-2.6945415543819773,-0.9241299223843803,-1.4267963381330953,-0.29325567570753924,-1.759691566838497,-1.0414558556135223
20,-0.2962388326735613,-0.2740569023707773,-2.7380261430239083,-0.01488506430763109,-0.3516006296602954,0.6037610659990336,1.3850449847478636,0.3305470859230298,-0.6794032199485788,-0.4317971378996401,0.9412050614967714,-1.569055730930475,-2.3139738800979126,-0.35100652159341533,0.3710639266665629,-0.8995814899556673,-0.9583893329018156,1.0544955374234695,-0.8131888376784987,0.7081839464905615,1.328020959776413,-1.3863413691941526,0.6740173890477872,-1.0368568254423016,-2.6924057723477035,-0.9222681519815158,-1.4241186932469636,-0.28975018896386806,-1.7589433913273305,-1.0390133506720574
21,-0.29483825696633703,-0.27481624365474727,-2.7380068836350104,-0.016061037438210253,-0.3547692063387727,0.6027015059281299,1.3834319035555815,0.33032872728310264,-0.6806258432971521,-0.4330002127175216,0.9425558930643817,-1.569780568300552,-2.3139656291809336,-0.35213444943138367,0.3680219043620742,-0.9006053575793761,-0.9599469596781747,1.054287548123325,-0.8143403458177472,0.7070250369869636,1.3309623576245477,-1.3857667290886655,0.6740078856437451,-1.035059108234135,-2.6902296920784483,-0.9203650304811427,-1.4213811190518235,-0.2861612074743389,-1.7581803635945255,-1.0365168174772803
22,-0.29340107852010955,-0.2755930857985908,-2.7379871544521914,-0.01726380250342731,-0.35801460960576276,0.6016179720149472,1.3817797187581768,0.3301075589458164,-0.6818758993513424,-0.4342312403984519,0.9439411365325361,-1.5705214765621265,-2.3139573864098466,-0.353287198347627,0.36490859073457493,-0.9016517712224413,-0.9615414952933059,1.0540770656125271,-0.8155163071588017,0.7058400185436077,1.3339792903913017,-1.38517979939248,0.673997545232488,-1.033221745375114,-2.688011932866223,-0.9184188812376485,-1.4185811734131566,-0.28248517354133895,-1.7574019468547264,-1.0339640948308124
23,-0.2919256246849312,-0.2763881694462922,-2.737966935220166,-0.018494479569159575,-0.361340074362496,0.6005094678887395,1.3800867361361373,0.3298835418420275,-0.683154530811652,-0.4354914001213621,0.9453623190474466,-1.5712791052613817,-2.3139491630544016,-0.35446576372428124,0.36172111587585926,-0.9027216386010863,-0.9631744989574662,1.0538640652141396,-0.8167176727516778,0.7046278299300026,1.3370751433361674,-1.384580108720452,0.6739863003008804,-1.0313431485437186,-2.6857510542571172,-0.9164279356246946,-1.4157162791343312,-0.2787183237746694,-1.7566075796827367,-1.0313529058028845
24,-0.29041011888534224,-0.2772022780818011,-2.737946204514989,-0.019754252691487846,-0.3647490179175853,0.5993749406559561,1.3783511615692385,0.3296566398363937,-0.6844629455837529,-0.43678193889561323,0.946821058944481,-1.5720541390809544,-2.313940971966103,-0.355671194441504,0.3584564591970808,-0.9038159166181313,-0.9648476187075271,1.0536485259546953,-0.8179454424796785,0.7033873520954834,1.340253505959427,-1.3839671624950867,0.6739740767227731,-1.0294216447842646,-2.6834455538751425,-0.9143903272718202,-1.4127837153433511,-0.2748566751837007,-1.7557966750106548,-1.0286808508353653
25,-0.28885267291228656,-0.2780362409348642,-2.7379249396675127,-0.021044374193930227,-0.368245051772715,0.5982132771632865,1.3765710940970994,0.3294268204354536,-0.6858024211351688,-0.4381041761301006,0.9483190720894403,-1.572847299945176,-2.313932827796602,-0.35690459606777925,0.35511144102537806,-0.9049356143526431,-0.9665625972284256,1.053430431305614,-0.8192006676945247,0.702117404644889,1.3435181863762697,-1.3833404418587651,0.6739607929856187,-1.0274554716050648,-2.681093865360188,-0.9123040859838994,-1.4097806083771032,-0.2708960103527681,-1.7549686191590215,-1.0259454005263533
26,-0.287251278614655,-0.27889093607906323,-2.7379031166824714,-0.02236616922077415,-0.371831994101869,0.597023300025562,1.3747445184979608,0.32919405561484505,-0.6871743091329631,-0.4394595085017406,0.9498581786488737,-1.573659349220398,-2.313924747248748,-0.3581671341946456,0.3516827139283574,-0.9060817961958636,-0.9683212780247513,1.0532097700416505,-0.8204844539205643,0.700816742142356,1.3468732266812564,-1.3826994025938213,0.6739463593122706,-1.025442771887402,-2.678694356480541,-0.9101671313489214,-1.4067039221632105,-0.26683186167527007,-1.754122770926393,-1.023143888119164
27,-0.28560379895439253,-0.2797672937271602,-2.7378807101532816,-0.023721040572659224,-0.37551388292383137,0.5958037634146849,1.3728692973675993,0.3289583227850725,-0.6885800403685837,-0.44084941513100323,0.9514403103013648,-1.5744910900023195,-2.313916749365624,-0.35946003790411224,0.3481667538257174,-0.9072555851254384,-0.9701256119432788,1.0529865372345064,-0.8217979636048722,0.699484050253024,1.3503229193334563,-1.38204347407029,0.6739306766619602,-1.0233815886330455,-2.6762453274959133,-0.9079772660480385,-1.403550448110326,-0.26265949463445687,-1.7532584607684654,-1.0202735017323614
28,-0.2839079583914738,-0.2806662997261749,-2.737857693172774,-0.025110473826445313,-0.379294989952737,0.5945533486096892,1.370943162685348,0.3287196059184031,-0.690021129971773,-0.44227546306798754,0.9530675178956899,-1.5753433694776466,-2.313908855863829,-0.3607846033502989,0.3445598509711927,-0.9084581661043751,-0.9719776640397979,1.0527607354025252,-0.8231424188814263,0.6981179417391903,1.3538718245792285,-1.3813720582471616,0.6739136355917668,-1.0212698595908094,-2.673745009865986,-0.9057321688930853,-1.4003167945321173,-0.2583738901365107,-1.7523749901062122,-1.0173312763854336
29,-0.2821613325693505,-0.2815889992508659,-2.7378340372402428,-0.026536042735675707,-0.3831798350913678,0.5932706593134335,1.3689637068615412,0.32847789686314294,-0.6914991829095538,-0.4437393130867024,0.9547419795532042,-1.5762170813414724,-2.313901091518364,-0.3621421974281173,0.3408581009184054,-0.9096907895838554,-0.9738796207735156,1.0525323758405842,-0.8245191043065905,0.6967169523362423,1.3575247889105408,-1.3806845287605294,0.6738951149567386,-1.0191054118190837,-2.6711915654228724,-0.903429387631561,-1.3969993756493293,-0.25396972592574313,-1.7514716308128424,-1.0143140858978623
30,-0.2803613372783783,-0.2825365006891172,-2.7378097121654394,-0.0279994149001465,-0.3871732015052653,0.5919542167487188,1.3669283732710575,0.3282331968757807,-0.6930158997582652,-0.44524272577722557,0.9564660092000165,-1.5771131682440882,-2.3138934846078003,-0.3635342614905901,0.33705739562275044,-0.9109547750795751,-0.9758337974988669,1.0523014801579242,-0.8259293695092816,0.6952795365450763,1.3612869645301642,-1.3799802301414748,0.673874980423104,-1.0168859562623023,-2.668583086154579,-0.9010663315783631,-1.3935944002394587,-0.24944135714450602,-1.750547624942197,-1.0112186347690753
31,-0.27850521668511713,-0.2835099797057487,-2.7377846859704236,-0.029502357682628492,-0.39128015118080295,0.590602454556348,1.364834446291881,0.32798551840636175,-0.6945730827258414,-0.44678756791464946,0.9582420654984882,-1.5780326242311131,-2.31388606742995,-0.3649623150620253,0.33315341488009453,-0.9122515147791259,-0.9778426462068475,1.0520680820557629,-0.8273746316817286,0.6938040633923602,1.3651638297588033,-1.3792584772183565,0.6738530827646342,-1.0146090824461131,-2.665917594781658,-0.898640264158541,-1.3900978600363554,-0.2447827961441743,-1.7496021847770566,-1.0080414501847523
32,-0.27659003083039285,-0.28451068346194486,-2.7377589247905987,-0.03104674433691164,-0.3955060408249135,0.589213713530448,1.3626790408868825,0.3277348871780304,-0.6961726418872195,-0.4483758190694008,0.9600727611261283,-1.5789764971282765,-2.313878876900086,-0.3664279594759484,0.329141618364275,-0.9135824771223693,-0.9799087634448144,1.0518322293811462,-0.8288563778147814,0.6922888122287403,1.3691612102703443,-1.3785185547729375,0.6738292559070549,-1.012272253430053,-2.66319304635215,-0.896148295477519,-1.3865055180245107,-0.23998769171142212,-1.7486344932954179,-1.0047788743433002
33,-0.2746126424200666,-0.285539934955178,-2.7377323927767545,-0.032634560293118536,-0.3998565379054642,0.587786236243131,1.3604590917927784,0.3274813446080162,-0.6978166015769675,-0.4500095784046661,0.9619608723214957,-1.5799458908062367,-2.3138719552459324,-0.3679328813434441,0.32501723860211484,-0.9149492102769374,-0.9820348983136226,1.0515939864986026,-0.830376166554207,0.6907319686589677,1.3732853009762878,-1.37775971753817,0.6738033146793374,-1.0098728011995899,-2.6604073311322436,-0.8935873750764735,-1.3828128968274365,-0.23504930794987763,-1.7476437051769658,-1.0014270573576036
34,-0.27256970296143673,-0.28659913742837273,-2.7377050520006176,-0.03426790952249512,-0.40433763655592797,0.586318161632284,1.3581713424142625,0.32722495062448304,-0.6995071068587306,-0.4516910715820387,0.9639093485793332,-1.5809419672406384,-2.3138653508161857,-0.36947885572818295,0.3207752753205365,-0.9163533454058763,-0.9842239604021976,1.051353437026764,-0.831935629520035,0.689131620728195,1.3775426882944826,-1.3769811906483251,0.6737750522235616,-1.0074079227336912,-2.657558279133781,-0.8909542850831574,-1.379015267459499,-0.229960503156012,-1.746628948501723,-0.9979819510645856
35,-0.2704576383374633,-0.2876897787760834,-2.7376768623672505,-0.0359490208731843,-0.4089556729718544,0.5848075196542744,1.3558123335658787,0.32696578694161765,-0.701246429959392,-0.45342265766460965,0.9659213223283872,-1.5819659482571553,-2.313859119022334,-0.3710677488674353,0.31641049171969376,-0.9177965995927457,-0.9864790274699373,1.0511106869931346,-0.833536471888188,0.6874857555269058,1.3819403724246857,-1.3761821706805244,0.6737442370066837,-1.0048746770522923,-2.6546436666969986,-0.8882456340352765,-1.3751076387997427,-0.2247137091559023,-1.74558932732942,-0.9944393041725654
36,-0.26827263396355017,-0.288813435848374,-2.7376477815387474,-0.03768025422903689,-0.4137173398046564,0.5832522261391938,1.3533783922621285,0.3267039608640648,-0.703036976515077,-0.45520683586567706,0.9680001183622191,-1.583019116819313,-2.3138533234370438,-0.37270152023203934,0.3119174133740064,-0.919280778249664,-0.9888033526239861,1.050865868466473,-0.8351804719804913,0.6857922564249704,1.3864857891070157,-1.3753618274618178,0.6737106093677698,-1.0022699836334437,-2.6516612256403613,-0.8854578517380215,-1.371084748259291,-0.21930091173387908,-1.744523925392927,-0.9907946592986104
37,-0.2660106197411968,-0.28997177851833233,-2.737617764875056,-0.039464106293136895,-0.4186296989043101,0.5816500780318974,1.3508656208310272,0.3264396097011961,-0.7048812914240336,-0.45704625193876874,0.9701492627120311,-1.5841028176769427,-2.3138480370764767,-0.37438222366049073,0.3072903306456282,-0.9208077767839964,-0.9912003706581255,1.0506191437325727,-0.8368694795434539,0.684048901205388,1.3911868301500607,-1.3745193068592374,0.6736738775228885,-0.9995906226963926,-2.648608655601823,-0.8825871856237415,-1.3669410542566156,-0.2137136329943184,-1.7434318111937923,-0.9870433526006801
38,-0.26366725511411504,-0.2911665733348243,-2.7375867653995303,-0.04130321573379021,-0.4237001915695259,0.5799987492598145,1.3482698867220433,0.326172905881475,-0.7067820640352425,-0.45894370393800016,0.9723724905465961,-1.5852184571434358,-2.3138433438986326,-0.37611200723059157,0.30252330571915015,-0.9223795812374611,-0.9936737031188361,1.0503707100851638,-0.8386054123154009,0.6822533614430084,1.3960518617722408,-1.3736537348234112,0.6736337129367203,-0.9968332379789955,-2.645483640330538,-0.8796296992150048,-1.3626707312940831,-0.20794291676525478,-1.7423120448544445,-0.9831805168990271
39,-0.26123791465113494,-0.29239968652592174,-2.737554733799059,-0.04320036735013538,-0.4289366452233986,0.5782957875410768,1.3455868135011042,0.32590406286690465,-0.7087421323180942,-0.46090214699366266,0.974673752552334,-1.5863675017085312,-2.3138393405552167,-0.3778931114436063,0.29761018564001385,-0.923998267534896,-0.9962271615373833,1.050120805308601,-0.8403902503826717,0.6804032035659425,1.4010897394896586,-1.3727642230212913,0.673589744954878,-0.9939943428009631,-2.642283868848138,-0.8765812734583277,-1.3582676686527555,-0.20197931849057355,-1.7411636871620344,-0.9792010894157628
40,-0.25871767473334656,-0.2936730860477535,-2.737521618471414,-0.045158494813669015,-0.43434727513501503,0.5765386125370655,1.342811773679055,0.32563334197650806,-0.7107644855538026,-0.4629246966425591,0.97705721908,-1.5875514751179114,-2.313836138440666,-0.3797278651874899,0.292544623070516,-0.9256659988860042,-0.9988647481092683,1.049869713932035,-0.8422260277055454,0.6784958921508297,1.4063098178902393,-1.3718498764724663,0.6735415545738701,-0.9910703304044335,-2.639007062587273,-0.8734376119013556,-1.3537254739995888,-0.19581290148212413,-1.7399858113354665,-0.975099825549365
41,-0.2561013021186964,-0.2949888422852769,-2.7374873656359835,-0.04718068141677152,-0.43994067944266063,0.5747245158655759,1.3399398842123835,0.32536106023486716,-0.7128522649591136,-0.4650146301217128,0.9795272811359919,-1.5887719534589773,-2.3138338660887494,-0.38161867881414796,0.2873201068747996,-0.9273850207691497,-1.0015906529082066,1.0496177743345012,-0.844114820050024,0.6765287961412304,1.4117219531390022,-1.370909803698621,0.6734886672066001,-0.9880574898066236,-2.635651009834652,-0.870194250938683,-1.3490374835420513,-0.18943324193224212,-1.738777518162071,-0.9708713204515249
42,-0.2533832454051902,-0.2963491269022825,-2.7374519195283864,-0.049270158105396436,-0.4457258252915775,0.5728506636281773,1.3369660057536241,0.325087599365287,-0.7150087614926401,-0.46717538487307875,0.9820885470378309,-1.5900305576814107,-2.313832671974507,-0.383568033507622,0.28193000511528904,-0.9291576527887943,-1.004409246484847,1.0493653867749269,-0.8460587283895921,0.6744991988446859,1.417336495442131,-1.3699431300091232,0.6734305442805419,-0.9849520286921897,-2.6322136090573656,-0.8668465766585446,-1.3441967807803894,-0.18282944574064533,-1.7375379552854857,-0.966510040596444
43,-0.25055763072451137,-0.297756209204356,-2.7374152227048065,-0.05143029788608333,-0.4517120233690214,0.5709141022717269,1.3338847470213473,0.32481341604473135,-0.7172374098990879,-0.46941055331120907,0.9847458332365371,-1.5913289428493895,-2.313832727786911,-0.3855784659328585,0.276367623592515,-0.9309862765349982,-1.0073250664148938,1.0491130224077265,-0.8480598566393462,0.6724043127614633,1.4231642679360648,-1.36894901467918,0.6733665734838238,-0.9817501052209786,-2.6286929229734515,-0.8633898501916586,-1.3391962264073853,-0.17599018100776392,-1.736266341582704,-0.9620103680357298
44,-0.24761826338223075,-0.299212449217293,-2.7373772164883325,-0.05366460547358669,-0.45790888749481673,0.5689117688024593,1.330690476013166,0.3245390535258788,-0.7195417778125547,-0.47172387267150917,0.9875041474256282,-1.5926687832683548,-2.3138342322450924,-0.3876525469369365,0.2706262836878988,-0.932873318383205,-1.010342796022661,1.0488612333198004,-0.8501202823529136,0.6702413005283774,1.4292165275406572,-1.3679266729312753,0.6732960574524953,-0.9784478710334559,-2.62508724553472,-0.8598192439002574,-1.3340285024974028,-0.16890373100774136,-1.7349619977454127,-0.9573666606205371
45,-0.24455863762908261,-0.3007202864922614,-2.737337841597305,-0.05597670078246114,-0.46432627520585223,0.5668405066032225,1.3273773402049183,0.3242651547057386,-0.721925548464296,-0.47411920848146094,0.9903686616017507,-1.5940517524534348,-2.3138374155374257,-0.38979285282745946,0.2646994239653681,-0.9348212259560942,-1.013467233112832,1.0486106635834596,-0.8522420187529701,0.6680073035234482,1.4355049022051845,-1.3668754038045445,0.6732182006721172,-0.9750415282002768,-2.621395184309393,-0.8561298912517314,-1.3286861748136272,-0.16155807359121946,-1.7336243843754462,-0.9525733321454328
46,-0.2413719573073478,-0.3022822234274386,-2.737297039004668,-0.05837029456481142,-0.47097420446790983,0.5646970883689595,1.3239392983659433,0.3239924766738569,-0.7243924952232957,-0.47660052988197277,0.9933446722147655,-1.5954794967124095,-2.3138425444669988,-0.39200192748184975,0.25858073072809784,-0.936832436731225,-1.0167032460993657,1.0483620612557247,-0.8544269661867713,0.665699479966061,1.442041297675294,-1.3657946251860775,0.6731320943515073,-0.9715274033755029,-2.6176157610612463,-0.8523169537921746,-1.3231617778380802,-0.1539409942807295,-1.7322531491087099,-0.9476249571133732
47,-0.23805117076815765,-0.3039008016471038,-2.7372547510875433,-0.06084915416351685,-0.47786274078570246,0.5624782479660468,1.3203701671670167,0.3237219066978806,-0.726946445845648,-0.47917187467764116,0.9964375439536295,-1.5969536009117051,-2.313849928387081,-0.39428223325924516,0.2522643034631483,-0.938909337029188,-1.0200557144396292,1.0481162911595656,-0.8566768508151027,0.6633150546498875,1.4488377654301001,-1.3646839174733802,0.6730366990206477,-0.9679020429534356,-2.613748533582629,-0.848375709253226,-1.3174479279703617,-0.14604024178740685,-1.730848184481622,-0.942516405607508
48,-0.23458902418860128,-0.30557856971245695,-2.737210923137386,-0.0634170570009737,-0.4850018481178239,0.5601807233230391,1.3166636863435888,0.3234544794895505,-0.7295912339362981,-0.48183730162942334,0.9996526330818432,-1.598475544795177,-2.3138599260033175,-0.39663608841729103,0.24574486175620694,-0.9410542093771966,-1.0235294497925764,1.047874348147318,-0.8589931480852396,0.6608513827378361,1.4559063218277102,-1.3635430775209774,0.6729308246153042,-0.9641623335557419,-2.6097937419913175,-0.844301665454383,-1.3115374711994765,-0.13784373623607063,-1.7294096984239578,-0.9372430145239524
49,-0.23097813820104246,-0.30731804017243913,-2.7371655053124457,-0.06607772908697504,-0.4924011962348496,0.557801312746683,1.3128136067610257,0.32319139542734,-0.7323306347634208,-0.4846008271518078,1.0029951856094628,-1.6000466480594102,-2.3138729531015856,-0.3990655885191179,0.2390180006880433,-0.9432691660464084,-1.027129093873562,1.0476373703598183,-0.8613769883528809,0.6583060302886955,1.4632587068555463,-1.3623721846673293,0.6728131078477475,-0.9603056526179267,-2.605752482656677,-0.8400907052366183,-1.305423672340676,-0.12933984191584338,-1.7279382993621404,-0.9318008020682492
50,-0.22721111351893453,-0.30912163373033696,-2.7371184551246723,-0.0688347655551151,-0.5000699166420811,0.5553369472826275,1.3088138062381298,0.3229340391786087,-0.7351682822617973,-0.4874663432909546,1.006470205049951,-1.6016680022987615,-2.313889491226239,-0.4015725092133676,0.23208050173290917,-0.9455560664610461,-1.0308589886593003,1.04740665174557,-0.863829041976763,0.6556768743094215,1.4709060693934712,-1.3611716806954137,0.6726819867398989,-0.9563300540902102,-2.601626912552074,-0.8357392680736159,-1.2991004535017536,-0.12051771766576891,-1.7264350978874428,-0.9261867327846354
51,-0.2232806718954613,-0.31099160815560295,-2.737069740560563,-0.07169153010218723,-0.5080162991576581,0.5527847818351863,1.3046584383042332,0.32268399784994023,-0.7381075638960731,-0.49043751372151506,1.0100822841915924,-1.6033403879823043,-2.3139100972757003,-0.4041581878740185,0.2249307054795174,-0.9479164162522976,-1.0347230145329538,1.0471836527833285,-0.866349381417758,0.652962225039689,1.4788585648678345,-1.3599424654841703,0.672535672330743,-0.9522344941498023,-2.5974204859650785,-0.8312445740885193,-1.2925626895795392,-0.11136775872423371,-1.7249018266980258,-0.9203990402280465
52,-0.21917983911146752,-0.3129299695890359,-2.737019343936672,-0.07465103032241825,-0.5162474220234171,0.5501423076231954,1.3003421190203635,0.32244307738798617,-0.7411514901445431,-0.4935176446265019,1.0138353954129855,-1.6050641749033092,-2.3139354138920885,-0.40682338202488616,0.21756895069777854,-0.9503512460899799,-1.038724392335873,1.0469700079554003,-0.8689373184763862,0.6501609727427614,1.4871248510707789,-1.3586860097639801,0.6723721177875981,-0.9480191011021373,-2.593138223911711,-0.8266048957171185,-1.285806567968157,-0.1018821435164581,-1.7233409799446466,-0.9144376133590866
53,-0.21490217650325089,-0.3149383641841402,-2.736967266580987,-0.07771576645332312,-0.5247687104700189,0.5474074880408248,1.2958601563440701,0.32221331545183435,-0.7443025358709663,-0.4967095278793474,1.0177326348687308,-1.6068392051693348,-2.3139661803884346,-0.4095681034135995,0.2099980808841514,-0.9528609692141986,-1.0428654463578844,1.0467675280562247,-0.8715912159861556,0.6472727603233633,1.495711469413024,-1.3574044856721617,0.6721889854792167,-0.9436854920117961,-2.5887870140277545,-0.8218198808769546,-1.2788300178526173,-0.09205549672310881,-1.721755972046304,-0.9083044503819814
54,-0.21044206645978009,-0.3170179487433478,-2.7369135344049735,-0.08088755218080156,-0.533583422500082,0.5445789189374706,1.2912088249454425,0.3219969883957983,-0.7475624519845332,-0.5000152551374522,1.02177591772913,-1.6086646589239109,-2.31400324377052,-0.41239142824413294,0.2022240138589544,-0.9554452179821877,-1.047147327363112,1.046578194920781,-0.8743082752685145,0.6442981814061961,1.5046221028686035,-1.3561009145599154,0.6719836130387558,-0.9392371356591311,-2.5843759348589908,-0.8168909288135454,-1.271633210917907,-0.08188567514657397,-1.7201513143153335,-0.9020041794859751
55,-0.205795054901741,-0.3191692403186643,-2.736858204380068,-0.08416730811765487,-0.5426920668875631,0.5416560125281131,1.2863856865155157,0.32179660938147664,-0.7509320477914406,-0.5034360035214371,1.025965625010884,-1.6105389047698748,-2.3140475691621436,-0.41529128664308823,0.19425636167621085,-0.958102661929636,-1.0515696981625446,1.046404145681871,-0.8770843036840349,0.6412390008583859,1.513856709459911,-1.3547793295594608,0.6717529800849753,-0.9346797567326932,-2.579916593084357,-0.8118216153272118,-1.2642191294013045,-0.07137467427348514,-1.7185328051549158,-0.8955446391600705
56,-0.2009582495043716,-0.3213919468339052,-2.736801371848089,-0.08755483159991888,-0.5520917675554117,0.5386392013984548,1.2813899510647966,0.321614914066055,-0.7544109475638459,-0.5069717967297677,1.0303002078341412,-1.6124593394436972,-2.314100248631012,-0.4182642381096589,0.186109076599689,-0.9608308129825145,-1.05613038933554,1.0462476433213097,-0.8799134708781808,0.6380983909265769,1.5234105425147713,-1.3534449476225399,0.671493678097028,-0.930021769342248,-2.575423455151253,-0.8066181573765163,-1.2565941885515608,-0.06052963988492228,-1.7169077260138454,-0.8889375008491207
57,-0.19593076588038952,-0.3236847837954236,-2.7367431784694847,-0.09104855069913766,-0.5617756008642606,0.5355301552466853,1.2762228681965067,0.32145482993344027,-0.7579973292777491,-0.5106212498865872,1.0347757625334564,-1.6144222247403701,-2.314162507049028,-0.42130524455729396,0.17780108415489534,-0.9636258276101923,-1.0608250396622063,1.0461110302292576,-0.8827880678786653,0.6348811711010702,1.5332730871259423,-1.3521043420034784,0.6712018869404351,-0.9252747187551129,-2.570914146231066,-0.8012898978014062,-1.2487688883414256,-0.04936394969997502,-1.7152850306618688,-0.8821989033905725
58,-0.19071420484145019,-0.3260452861238696,-2.736683820442158,-0.09464527581029138,-0.5717319476328879,0.5323319981364816,1.2708881288212188,0.32131942535347074,-0.7616876592103579,-0.5143813121169888,1.0393855999864317,-1.6164225339197014,-2.3142357032393495,-0.4244074584364904,0.16935684700721435,-0.9664823207479513,-1.0656467445344586,1.0459966619436478,-0.88569828984125,0.6315940336754993,1.543426966639121,-1.350765601557123,0.6708733626576188,-0.9204536989111437,-2.5664096799507425,-0.7958497791898106,-1.2407584538344756,-0.03789830470686437,-1.7136755098636514,-0.8753500521992384
59,-0.1853131324128437,-0.3284696288764147,-2.73662355641066,-0.09833996850773312,-0.5819439186671,0.5290495084450898,1.2653922477112272,0.32121183513284607,-0.7654764428214796,-0.5182470274250669,1.044119844276548,-1.618453824473926,-2.3143213243286933,-0.4275620497839924,0.16080678556214942,-0.9693932117685586,-1.0705857453937744,1.0459068194530108,-0.8886320703012773,0.6282457303061489,1.5538469026384625,-1.349438458109891,0.6705034422269909,-0.9155777006581737,-2.5619345733654706,-0.790314762501595,-1.2325834059835235,-0.02616173983632992,-1.7120919077215169,-0.8684177178736611
60,-0.17973552147689795,-0.3309524756114806,-2.7365627142487234,-0.10212555375082268,-0.5923889286069028,0.52568927812405,1.259744886875705,0.321135160929831,-0.7693560192570806,-0.5222113410515105,1.0489651079543534,-1.6205081584547638,-2.3144209710408514,-0.43075810178962043,0.15218746622916735,-0.9723496277224303,-1.0756292026385634,1.0458436006257803,-0.8915750009995949,0.624847188814242,1.5644988436782248,-1.3481343583011476,0.6700870718204949,-0.910669833683761,-2.557516795314768,-0.7847061327725395,-1.2242699872463365,-0.014192432511634476,-1.710548960861516,-0.8614345515901961
61,-0.1739931018301256,-0.3334868774156263,-2.7365016956748414,-0.10599280657346026,-0.603038503905862,0.5222598036065088,1.2539590711027535,0.32109234763470346,-0.7733164324748397,-0.5262649836420137,1.0539043011528286,-1.6225760943565466,-2.3145363317754155,-0.4339826079300357,0.14354146136674142,-0.9753408920621286,-1.080761101077489,1.0458087945580974,-0.8945103747767259,0.6214115257624899,1.575339405953325,-1.3468664529219545,0.669618865303459,-0.9057573568998987,-2.5531874956653944,-0.7790496241111093,-1.2158503532873437,-0.0020381617802842696,-1.709063328836307,-0.8544391228731374
62,-0.16810155727625603,-0.33606424777830507,-2.7364409775102025,-0.10993034619385714,-0.6138584114339279,0.5187714793992865,1.2480512431631647,0.32108604064995583,-0.7773454143951305,-0.5303964672648875,1.0589166360189382,-1.62464677429025,-2.314669143867594,-0.4372206027666183,0.13491679220814043,-0.9783546263109143,-1.0859623377432115,1.0458037467189267,-0.8974193872440186,0.61795392118622,1.5863157843000384,-1.3456494765550975,0.6690931988998297,-0.9008714516599283,-2.548980471366072,-0.7733752934637287,-1.2073624386747173,0.010243740613376583,-1.70765338560674,-0.8474755850741711
63,-0.16208050814675706,-0.338674436957637,-2.7363811083864875,-0.11392476693754247,-0.6248091791724172,0.5152364689282115,1.2420411104777211,0.32111843356224384,-0.7814285123752205,-0.534592223406076,1.0639778822199517,-1.6267081252912556,-2.314821141541979,-0.44045545104993755,0.12636589322374114,-0.9813769858484522,-1.0912110334655876,1.0458292271247516,-0.9002815235867043,0.6144913294558447,1.5973662837131328,-1.3444994950160476,0.6685043456843176,-0.8960466839475679,-2.5449313454770133,-0.7677170818475505,-1.1988494168133434,0.022587092156761836,-1.7063388497182241,-0.8405928914266938
64,-0.15595322912414164,-0.34130592286291034,-2.7363226999329564,-0.11796092487814912,-0.6358470462814292,0.5116684369218195,1.2359512502196557,0.321191120158081,-0.7855493828841197,-0.5388369019189924,1.0690609103211997,-1.6287471830693265,-2.3149939917750637,-0.44366930458088594,0.11794408605788567,-0.9843930381272974,-1.0964830898290516,1.0458853173683917,-0.9030751385932778,0.6110420158908625,1.608421580495003,-1.3434335090071505,0.6678466496321631,-0.8913201285683038,-2.5410764680746234,-0.7621120264351162,-1.1903587068003154,0.034918311916407874,-1.7051402460035223,-0.8338435241698776
65,-0.14974607739823684,-0.34394612332990504,-2.7362664119634275,-0.12202238147218794,-0.646925327347266,0.5080821435965763,1.229806466446746,0.3213049678858284,-0.7896902551186055,-0.5431138313883388,1.0741365268386098,-1.6307505306176684,-2.315189221412876,-0.44684371397312067,0.10970762017986319,-0.9873872727458664,-1.101752982352748,1.045971333845351,-0.9057782116715589,0.6076249318047872,1.6194067444303846,-1.3424689195592339,0.667114733506819,-0.8867301701192795,-2.5374515902730597,-0.7565991274213593,-1.1819405327498806,0.04715863691781214,-1.7040782137921793,-0.8272817604310952
66,-0.14348764342520118,-0.3465818180849705,-2.7362129319263415,-0.12609198270311428,-0.6579961119441428,0.5044929212485484,1.2236329280920473,0.32146003039496535,-0.7938325443299271,-0.54740561766697,1.0791745612381174,-1.632704825012859,-2.3154081410810265,-0.44996035626312203,0.10171141483675289,-0.990344210635133,-1.1069947430326648,1.046085802762188,-0.908369228045604,0.6042589678078842,1.6302439455011535,-1.3416228823100989,0.6663037285864863,-0.8823150469311007,-2.5340904073200337,-0.7512179254951258,-1.1736461082981389,0.059227004349401924,-1.7031727027050925,-0.8209615735380875
67,-0.13720767981703152,-0.3491996506006899,-2.7361629497707867,-0.13015252873213606,-0.6690121589269952,0.50091607458251,1.2174571538490426,0.3216555137661897,-0.7979575692534927,-0.5516948330991753,1.084145119380692,-1.6345973674907066,-2.3156517731302038,-0.45300181491644337,0.09400670515976067,-0.9932490590012095,-1.1121830486462791,1.0462264969350459,-0.9108281092205759,0.60096215053319,1.6408556495522402,-1.3409115993915628,0.6654095083627015,-0.8781112549766631,-2.531023103142491,-0.7460068990976172,-1.1655255874879578,0.07104338213460258,-1.7024421217537553,-0.8149343419571526
68,-0.13093590340538264,-0.3517866646868156,-2.736117130233691,-0.1341874706351271,-0.67992880127725,0.49736626199304884,1.2113049400158105,0.32188980446766324,-0.8020473073952512,-0.5559647302690943,1.0890198814393617,-1.6364166594544653,-2.315920791506262,-0.4559523329764267,0.08663883452642909,-0.9960883453467934,-1.1172943052966542,1.046390535600502,-0.9131370980872625,0.5977508644395892,1.6511680054931386,-1.3403496142353455,0.6644289044385812,-0.8741519656961069,-2.528275045645703,-0.7410018321409122,-1.1576259758164493,0.08253223307340771,-1.7019025240117995,-0.8092465906631808
69,-0.12470079064857198,-0.35433082233299545,-2.7360760851495627,-0.13818156293442926,-0.6907056655188076,0.4938569212877472,1.2052003414701697,0.322160558092526,-0.8060851119697747,-0.5601999066037348,1.0937733062462596,-1.6381528846774265,-2.316215480634287,-0.45879845839839833,0.07964543072270686,-0.9988504624910892,-1.1223076130200214,1.046574538312198,-0.9152815030927163,0.5946391822801601,1.6611140716083836,-1.3399491808585688,0.6633598822906849,-0.8704656229572757,-2.525865772004871,-0.7362343199044147,-1.1499892159445975,0.09362575129387714,-1.7015669119355938,-0.8039380042427918
70,-0.11852848968535819,-0.35682145074267296,-2.7360403485454308,-0.14212140617341476,-0.7013080351669813,0.49039979763006497,1.199164809258713,0.32246483865831793,-0.8100563184289409,-0.5643868526267131,1.0983836145484351,-1.6397982672374278,-2.3165357181593764,-0.4615295147994438,0.07305515209657154,-1.0015260684816962,-1.1272055103528933,1.0467748150806617,-0.9172502237228436,0.5916383733452353,1.6706365395389742,-1.3397197723891947,0.6622016579888872,-0.8670748643924625,-2.523808365946274,-0.7317305666169625,-1.1426506431436156,0.10426653137883517,-1.7014447352055788,-0.7990399196612807
71,-0.11244195214376823,-0.3592495776139354,-2.73601035694306,-0.14599583165083113,-0.7117077447315201,0.4870046149374516,1.1932165620484745,0.3227992910303097,-0.8139486861108617,-0.5685143357700659,1.1028334590295863,-1.6413472737690662,-2.3168809831405706,-0.46413785787769574,0.0668871031076145,-1.0041083080172322,-1.1319744341013547,1.046987569633177,-0.9190360124114029,0.5887566308484148,1.6796896915899548,-1.3396677746685137,0.660954743954304,-0.8639958647342193,-2.5221092726824326,-0.7275105850102384,-1.1356379494089612,0.11440941759110404,-1.70154162614315,-0.7945744352547203
72,-0.106460349911863,-0.36160813162168975,-2.7359864365243327,-0.1497961058889513,-0.7218835645188454,0.48367890897343346,1.1873702300022033,0.32316032558381796,-0.8177526469477286,-0.5725735983078006,1.1071102398420307,-1.642796652556798,-2.3172503878144877,-0.4666189106584867,0.061150918508621345,-1.0065928495886993,-1.1366048748637547,1.0472090922918553,-0.9206354675925043,0.5859990259984897,1.6882404502292965,-1.3397963842213039,0.6596209208991178,-0.8612381354163527,-2.5207685355081657,-0.7235878467840892,-1.12897071665081,0.12402241063186369,-1.7018593837940859,-0.7905541791249826
73,-0.10059879679388367,-0.3638920050931877,-2.735968797816755,-0.15351595888632347,-0.7318211083324712,0.4804280168229186,1.1816367686469114,0.3235442950245311,-0.8214613615832573,-0.5765583752896813,1.1112060774435224,-1.6441453247971443,-2.317642728143649,-0.46897100128462405,0.05584742632330543,-1.0089777580923611,-1.141091252541769,1.0474359231751253,-0.9220487891516481,0.5833676648659809,1.6962685155666126,-1.3401057021625546,0.65820314220279,-0.8588047513678322,-2.5197803855060967,-0.7199693689050134,-1.1226604983000525,0.1330866486133151,-1.702396184838498,-0.7869826880821934
74,-0.09486835332547973,-0.3660979934088067,-2.7359575375615406,-0.15715146174096878,-0.7415123507208723,0.4772551985916351,1.1760236064125276,0.3239476475439703,-0.8250706071960692,-0.5804647602024634,1.1151174974476237,-1.6453941600692308,-2.31805654661717,-0.471195048769737,0.050969740040988615,-1.0112632407353521,-1.1454315685347658,1.0476649735876116,-0.9232793532512199,0.58086200181322,1.7037657047718824,-1.340592992792907,0.6567053842428605,-0.8566929264958933,-2.5191340824992134,-0.7166561683032316,-1.116711363105151,0.14159559513383474,-1.7031469745782333,-0.7838552778166884
75,-0.08927626302711945,-0.3682246375549102,-2.7359526466378923,-0.16070079229506448,-0.7509548697782799,0.4741618560380845,1.17053496844489,0.3243670466047768,-0.8285785367030281,-0.5842909589659523,1.1188449076394873,-1.6465456762389186,-2.31849020036072,-0.4732941520406878,0.04650460706826581,-1.013451312239058,-1.1496269077806698,1.047893601398404,-0.9243331749375189,0.5784792530242332,1.7107346850019038,-1.341253061555151,0.6551324604324589,-0.8548948316386831,-2.518814894619838,-0.7136439856140431,-1.1111207755779213,0.14955364005454927,-1.7041039780996627,-0.7811602470419937
76,-0.08382635326436429,-0.3702720014757122,-2.7359540224456445,-0.16416393148348238,-0.7601509359918915,0.47114780978825055,1.1651723121603006,0.32479945391857173,-0.8319853548132049,-0.5880369763826904,1.1223919541396434,-1.647603703995185,-2.3189419283459505,-0.47527313647728037,0.0424338495898179,-1.0155454243377007,-1.1536808647569912,1.0481196430274347,-0.9252183250491249,0.5762148547463019,1.7171873218473244,-1.3420787025648282,0.6534898176745159,-0.8533985433910519,-2.5188051125701234,-0.7109241688389983,-1.1058806762166202,0.15697434299468763,-1.7052572703297209,-0.7788802531934432
77,-0.07851953246240644,-0.37224141522896154,-2.7359614840064554,-0.16754232980796666,-0.7691065533857714,0.46821160013580265,1.159934814274182,0.32524217732025634,-0.8352929541415134,-0.5917042752553611,1.1257648356395664,-1.6485730502035456,-2.319409912947937,-0.4771381032523464,0.03873576494155757,-1.0175500971069187,-1.157598957116071,1.048341409270956,-0.9259443566802051,0.5740629199113872,1.7231428551564314,-1.3430611695186958,0.6517833321726404,-0.852189024324819,-2.5190850159964127,-0.708484616207527,-1.1009786359512679,0.16387853381348932,-1.7065953513505745,-0.7769937172193536
78,-0.07335432379793881,-0.37413521030441343,-2.735974788168479,-0.17083857563475632,-0.7778305346127772,0.4653507836157825,1.1548198603991344,0.3256928886394722,-0.8385045471107194,-0.5952954400707627,1.1289716376907275,-1.6494591851721527,-2.3198923328198795,-0.4788960140948764,0.03538639308472391,-1.0194705790967986,-1.1613880742459106,1.0485576543770332,-0.9265217806821368,0.5720166597285119,1.7286260771655557,-1.344190632552276,0.650019118024308,-0.8512490574428595,-2.5196337358429104,-0.7063106972802988,-1.096398984470853,0.1702924432068567,-1.7081056860884052,-0.7754761490399212
79,-0.06832738903628506,-0.37595646687754586,-2.735993645592877,-0.17405608761652494,-0.7863336643189551,0.4625622060646988,1.1498235024542813,0.32614961830020645,-0.8416243196304721,-0.5988138673169401,1.1320217290840886,-1.6502679693435665,-2.3203874056670903,-0.4805543310872874,0.032360598679616284,-1.021312552448325,-1.1650559905627407,1.0487675279361284,-0.9269616135997695,0.5700687501029781,1.7336656391063376,-1.3454565945507397,0.648203357804115,-0.8505600832235394,-2.5204299820364926,-0.7043860955321354,-1.0921238425018356,0.17624598524576737,-1.709775181649135,-0.7743013230581046
80,-0.06343401094662203,-0.37770878593555657,-2.736017735564904,-0.17719884455117804,-0.7946279803485483,0.4598422409166279,1.144940862805318,0.3266107335950464,-0.8446571228553816,-0.6022634952607997,1.1349252437286361,-1.6510054265774705,-2.320893420788013,-0.48212071999401224,0.029632948362422945,-1.0230818899804575,-1.168610958002655,1.0489705179693092,-0.9272750077451455,0.5682116340686637,1.738292563772235,-1.34684825113687,0.6463421602589654,-0.850102911225349,-2.5214526267374153,-0.702693538988321,-1.0881340171579654,0.18177126394643414,-1.7115905884822467,-0.7734422673679506
81,-0.05866851607514151,-0.3793960932143228,-2.7360467190317777,-0.180271158593669,-0.8027261828823545,0.45718698801948554,1.1401664753890857,0.3270749068716632,-0.8476082110924938,-0.6056485785273819,1.1376926564949337,-1.6516775648905415,-2.3214087621328012,-0.48360281738698807,0.02717838765475481,-1.0247844644483846,-1.1720613805306854,1.0491663917654335,-0.9274729630048676,0.5664377598128486,1.7425390002160708,-1.348354787606734,0.6444414468058765,-0.8498582971398183,-2.5226811482935596,-0.7012154048526734,-1.0844097434008868,0.1869013346866589,-1.7135388217886498,-0.7728720571942729
82,-0.05402463026812585,-0.3810224772288156,-2.7360802495774292,-0.183277492348619,-0.8106411680655045,0.4545924329568821,1.1354945623844184,0.3275410786956399,-0.8504830277304913,-0.6089735074578145,1.1403344509608628,-1.6522902413794496,-2.321931923135092,-0.48500805654220674,0.024972736695636332,-1.026426005826384,-1.1754155657601595,1.049355139067518,-0.9275661135173878,0.5647397592723322,1.7464372258643641,-1.3499656128486053,0.6425068659706579,-0.8498073895523036,-2.5240959501832054,-0.6999341982811477,-1.0809312720801594,0.1916692210742764,-1.7156072067478614,-0.7725644216379242
83,-0.04949576689953197,-0.3825920604437393,-2.7361179822800685,-0.18622231689875768,-0.8183856744784354,0.45205456984193004,1.1309192503846148,0.3280084197619877,-0.8532870369027961,-0.6122426688389775,1.142860870548591,-1.6528490657688586,-2.322461514777641,-0.4863435442646065,0.02299303133182582,-1.028012000166283,-1.1786815444378473,1.0495369204632263,-0.9275645789611476,0.5631105751610063,1.7500188809075692,-1.3516705347618119,0.6405437332354438,-0.8499320589051637,-2.5256785736952594,-0.6988329146684694,-1.0776793162254592,0.19610716840308304,-1.7177836554815815,-0.7724941838115614
84,-0.045075252561652075,-0.384108900645423,-2.7361595805607486,-0.1891100059179173,-0.825972026769892,0.4495694921409343,1.1264347330247162,0.32847629413357693,-0.8560255961652128,-0.615460342805069,1.1452817413335936,-1.6533593361317482,-2.3229962683492467,-0.4876159797999921,0.021217738139761674,-1.0295476227768692,-1.1818669467591814,1.0497120224447465,-0.9274778690477222,0.5615435453213057,1.7533144082394856,-1.3534598842287777,0.6385569928494806,-0.8502151252807304,-2.5274118242065002,-0.6978952998756889,-1.0746353733468588,0.20024610423242284,-1.720056785770253,-0.7726375595723701
85,-0.040756497585808356,-0.3855769185654521,-2.7362047212291465,-0.19194476025489154,-0.8334119596485363,0.4471334566739683,1.1220353882583687,0.32894422539448875,-0.8587038643436709,-0.6186306300604112,1.147606353883782,-1.6538260003569125,-2.323535034221794,-0.48883160717638047,0.019626870640098,-1.0310376986333223,-1.1849789243847706,1.0498808195970388,-0.9273148301256234,0.5600324531221148,1.756352667261318,-1.3553245957541722,0.6365511978227796,-0.850640502805584,-2.529279829903841,-0.6971060248108356,-1.0717819438208473,0.20411527254573042,-1.722415992043343,-0.772972341075999
86,-0.03653311978565394,-0.38699984748615385,-2.736253097980575,-0.19473055736593844,-0.8407165061312037,0.4447429258768492,1.117715858558718,0.3294118665497769,-0.861326738477269,-0.62175740365962,1.1498433920012867,-1.6542536375010548,-2.3240767777863174,-0.48999619316786697,0.01820203084870128,-1.0324866836334108,-1.1880241079308782,1.0500437437094488,-0.9270836239298604,0.5585715517773426,1.7591606893850011,-1.3572562529329233,0.6345305043867445,-0.8511932777795188,-2.5312680496388547,-0.6964507907038743,-1.06910266526984,0.20774200817031377,-1.7248514786520115,-0.7734779898495802
87,-0.03239902980120765,-0.3883812006814346,-2.736304423610189,-0.1974711204077249,-0.8478959356399919,0.44239459297167905,1.1134711017116807,0.3298789739652821,-0.8638988141041869,-0.6248442800889358,1.1520008975363392,-1.6546464539780352,-2.3246205734795584,-0.49111502422259284,0.01692639646706251,-1.033898661265344,-1.1910085910878534,1.0502012592142083,-0.9267917300011015,0.557155569307241,1.7617635452909066,-1.3592471063337244,0.6324986775158271,-0.851859735881805,-2.5333632439770346,-0.6959163801231474,-1.066582381205818,0.21115162089177486,-1.7273542643582498,-0.7741356612047222
88,-0.028348485793315177,-0.38972425292333523,-2.7363584311989997,-0.20016990245461727,-0.8549597296525923,0.4400853940780834,1.1092964189221182,0.33034538528589763,-0.8664243637575388,-0.6278946050967856,1.154086262067007,-1.6550082904201122,-2.3251655976341827,-0.49219291690490885,0.015784670128327412,-1.0352773502461057,-1.1939379340427345,1.0503538441628952,-0.92644596485128,0.5557796996497734,1.7641842976033222,-1.3612900704814208,0.6304591045413102,-0.8526273515924068,-2.5355534208499435,-0.6954906668748282,-1.0642071598504352,0.214367362677313,-1.7299161656592161,-0.7749281784083878
89,-0.02437612430192569,-0.3910320327802726,-2.736414874501531,-0.2028300820261957,-0.861916584778208,0.4378125106331036,1.1051874658915168,0.3308110010563251,-0.8689073292796582,-0.6309114504773397,1.1561062379035179,-1.655342635886473,-2.3257111207104466,-0.4932342375340733,0.014763003557005147,-1.0366261196178372,-1.1968171803449479,1.0505019758939869,-0.926052512401151,0.5544395842901348,1.7664440167552555,-1.3633787055947097,0.6284148143692512,-0.8534847506675834,-2.5378277647784855,-0.6951625958208497,-1.0619642764618988,0.21741045577488569,-1.7325297652173917,-0.7758399716176353
90,-0.0204769730408653,-0.3923073229590826,-2.7364735277339243,-0.20545456681339633,-0.8687744351497131,0.4355733648505484,1.101140251487239,0.3312757696559508,-0.8713513243160129,-0.633897618732668,1.1580669624200863,-1.6556526468379793,-2.3262564993199715,-0.4942429276918913,0.01384890643929845,-1.0379480086001824,-1.1996508826547843,1.0506461205704922,-0.9256169614787786,0.5531312877797314,1.7685618418737832,-1.3655071887149377,0.6263685002858291,-0.8544216543502359,-2.540176556523103,-0.6949221415970425,-1.059842169995813,0.22030016366278232,-1.7351883704077058,-0.7768569934519857
91,-0.01664645038123404,-0.3935526664467888,-2.7365341849287215,-0.20804600312710347,-0.8755404877927926,0.4333656103800113,1.0971511276818857,0.33173967511657376,-0.8737596440507869,-0.6368556531834394,1.1599739910642748,-1.6559411689237002,-2.326801168333527,-0.4952225330982125,0.013031147278092223,-1.0392457491716183,-1.2024431339139712,1.0507867258392853,-0.9251443472208368,0.5518512696833315,1.770555072226097,-1.3676702779219065,0.6243225447638976,-0.8554288120872786,-2.54259108826272,-0.6947602533498886,-1.0578303826660824,0.22305389061203584,-1.7378859658825003,-0.7779666203581463
92,-0.012880355343592866,-0.3947703766614446,-2.736596658991502,-0.21060678914099695,-0.8822212661231281,0.4311871198375117,1.0932167736285878,0.3322027273932724,-0.8761352798642305,-0.6397878516480107,1.1618323355209712,-1.6562107601346356,-2.327344633271775,-0.4961762340202947,0.012299651492557741,-1.040521789896656,-1.2051976013742949,1.0509242159579661,-0.9246391940673244,0.5505963548206804,1.7724392779872853,-1.3698632725095166,0.6222790450595367,-0.8564979279095212,-2.5450635779929347,-0.6946687909986369,-1.0559194890231756,0.22568729887733746,-1.7406171631153828,-0.7791575466523325
93,-0.0091748511068277,-0.3959625502127178,-2.7366607805665315,-0.2131390904572986,-0.8888226579403932,0.42903597047537534,1.0893341760603954,0.33266495468643714,-0.8784809371168396,-0.642696282264207,1.163646504422415,-1.6564637142838905,-2.3278864631070517,-0.4971068759066031,0.01164540045438318,-1.0417783199426158,-1.20791756163152,1.0510589888347388,-0.9241055587069494,0.5493637031397006,1.7742284217891395,-1.3720819712989636,0.6202398387024393,-0.8576215843017674,-2.5475870857265543,-0.694640457182921,-1.0541010195436702,0.22821443523303084,-1.7433771491134098,-0.7804196762863661
94,-0.005526444356791976,-0.3971310812004147,-2.7367263967943596,-0.21564485689527774,-0.8953499652597888,0.4269104289323953,1.0855006076514615,0.3331263974542631,-0.880799054698992,-0.64558280039455,1.1654205447198938,-1.6567020840855746,-2.3284262835514538,-0.4980169993393992,0.011060333957418123,-1.0430172925575594,-1.2106059353637357,1.051191414522371,-0.9235470718431084,0.548150780150658,1.7759349847088448,-1.3743226306964564,0.6182065282410764,-0.8587931663271221,-2.550155433229071,-0.6946687279605903,-1.0523673824078958,0.23064786075543822,-1.7461616358688623,-0.7817440159283956
95,-0.001931962234965369,-0.3982776762468301,-2.736793370024002,-0.2181258396978949,-0.9018079540828776,0.42480893574681133,1.0817136045397788,0.3335871038014517,-0.8830918253349678,-0.6484490658454184,1.1671580823950283,-1.656927703342863,-2.328963770868111,-0.49890886870558016,0.010537257723370242,-1.0442404475281706,-1.2132653208934099,1.0513218347937503,-0.9229669780373828,0.5469553285421609,1.777570092110529,-1.3765819236445043,0.6161805048082502,-0.8600067879348843,-2.5527631283810868,-0.6947477844487066,-1.0507117860967625,0.23299877948278355,-1.748966811636818,-0.7831225718203975
96,0.001611471805971763,-0.399403869673378,-2.7368615765257367,-0.22058360858318884,-0.9082009027954394,0.4227300901135252,1.0779709438688183,0.33404712597632613,-0.8853612159081926,-0.6512965598558927,1.168862361617634,-1.6571422079337845,-2.3294986462152787,-0.49978449921182316,0.010069756889244516,-1.045449332319524,-1.2158980260068015,1.0514505635017417,-0.9223681731745846,0.5457753413703328,1.7791436361256197,-1.3788569002558015,0.6141629702318783,-0.86125722173865,-2.5554052947864223,-0.6948724469200432,-1.049128164624129,0.23527716292909526,-1.7517892947512326,-0.7845482520151764
97,0.005106462291656301,-0.4005110384010733,-2.7369309052372537,-0.22301956824516517,-0.9145326483242896,0.4206726352129,1.0742706219418359,0.3345065177520382,-0.8876089872915274,-0.6541266014845603,1.1705362817792684,-1.6573470554143175,-2.330030670514153,-0.500645682035479,0.009652115948551726,-1.0466453217319778,-1.2185060976956104,1.0515778874896393,-0.9217532393026664,0.5446090370445719,1.780664392614571,-1.381144950640941,0.6121549575369934,-0.8625398330649925,-2.558077606902049,-0.6950381123453648,-1.0476111065973002,0.2374918684568857,-1.7546260904098894,-0.7860147749527285
98,0.008555365492497267,-0.40160041628570825,-2.737001256565462,-0.2254349740442082,-0.9208066295166044,0.4186354443222281,1.0706108333826458,0.33496533250653165,-0.8898367133333619,-0.6569403631528054,1.1721824320694454,-1.6575435431530126,-2.330559639818949,-0.501494007521096,0.009279245284037414,-1.0478296360055803,-1.2210913496527573,1.0517040678711105,-0.9211244767504396,0.543454836212672,1.7821401312525074,-1.3834437702308042,0.6101573497749455,-0.8638505187118969,-2.5607762307238477,-0.6952406959782802,-1.0461557888288726,0.2396507502867945,-1.7574745506491358,-0.787516584863933
99,0.011960312213981392,-0.402673107698959,-2.7370725412582146,-0.22783094672822723,-0.9270259274488155,0.4166175078345562,1.0669899515471672,0.3354236218498678,-0.892045798776842,-0.6597388851999936,1.1738031234340531,-1.6577328249782939,-2.331085381160084,-0.5023308864153769,0.008946614199965076,-1.0490033573687214,-1.2236553874723064,1.0518293415413411,-0.9204839335305516,0.5423113405632536,1.7835777179768257,-1.3857513277382867,0.6081708971808781,-0.8651856505932283,-2.5634977698961134,-0.6954765772883669,-1.0447579148764101,0.24176076249393338,-1.7603323375772866,-0.7890487741504464
100,0.015323229320678342,-0.4037301002422785,-2.7371446793541288,-0.2302084861002338,-0.9331933025476427,0.41461792124644276,1.0634065103200567,0.33588143467642895,-0.8942374959840634,-0.662523089376861,1.1754004178780777,-1.6579159263656957,-2.331607748827008,-0.5031575691897487,0.008650190209711592,-1.050167445072638,-1.2261996315849006,1.0519539228154078,-0.9198334321059778,0.5411773135054138,1.7849832094698386,-1.3880658357906475,0.6061962327060705,-0.8665420242587208,-2.566239217003481,-0.695742550337424,-1.0434136586355793,0.2438280537547782,-1.7631973898280329,-0.7906070126523204
101,0.018645859825367133,-0.4047722765364434,-2.737217599214164,-0.2325684836018635,-0.9393112285294452,0.41263587413103936,1.0598591873512706,0.3363388165437322,-0.8964129204064298,-0.6652937912543319,1.1769761551594933,-1.658093758222909,-2.332126621055333,-0.5039751635365001,0.00838638423879881,-1.0513227489824477,-1.2287253380141419,1.0520780051170848,-0.9191745936442102,0.5400516626472947,1.7863619396602608,-1.3903857241837636,0.6042338860021516,-0.8679168121503534,-2.568997909736564,-0.6960357785449386,-1.0421196129355246,0.2458580539013279,-1.766067892121695,-0.7921874835544448
102,0.021929781463868828,-0.4058004250703078,-2.7372912366353592,-0.23491173382034278,-0.9453819232485392,0.410670640081355,1.0563467887312612,0.3367958092996085,-0.8985730647922437,-0.6680517115606651,1.1785319769776887,-1.6582671293497429,-2.3326418970826714,-0.5047846501469212,0.00815200134872168,-1.0524700218129526,-1.2312336170733775,1.052201762662575,-0.9185088599110974,0.5389334239715449,1.7877185984429727,-1.3927096156551648,0.6022842959531617,-0.8693075213712107,-2.571771491585614,-0.6963537536874335,-1.0408727429647333,0.24785555253989708,-1.76894224777434,-0.7937868255799243
103,0.02517642374022825,-0.4068152501211615,-2.737365534044835,-0.23723894495240136,-0.9514073766003805,0.40872156758731515,1.052868235065016,0.33725245089587874,-0.9007188121575231,-0.6707974864840343,1.1800693487954308,-1.6584367576610861,-2.3331534945385033,-0.5055868968920675,0.007944196561206441,-1.053609930106778,-1.2337254501418877,1.052325352100136,-0.9178375129710152,0.5378217475923874,1.7890573029602106,-1.395036304037709,0.6003478218618722,-0.8707119556907906,-2.574557876701172,-0.6966942589106161,-1.0396703442774748,0.2498247701232443,-1.7718190539660748,-0.7954020810577644
104,0.02838708347170736,-0.4078173807788749,-2.7374404397706145,-0.23955074827564674,-0.9573893756592534,0.40678807179663323,1.0494225488798499,0.33770877533993726,-0.902850947569625,-0.6735316769932899,1.1815895794537867,-1.6586032802660253,-2.333661347135009,-0.5063826715316722,0.007760435357035989,-1.0547430640559394,-1.2362017046686664,1.0524489140791988,-0.917161692865528,0.536715884973177,1.7903816618773751,-1.397364734635196,0.5984247534009981,-0.8721281814824855,-2.577355218560474,-0.6970553354939746,-1.038510005084097,0.2517694219446585,-1.7746970795651125,-0.7970306494221359
105,0.03156293889329218,-0.4088073791189629,-2.7375159073848336,-0.24184770668828542,-0.9633295272482066,0.4048696271015489,1.0460088432863068,0.3381648127463399,-0.904970168808339,-0.6762547772389994,1.183093838748932,-1.6587672624972156,-2.33416540262786,-0.50717265307659,0.007598458431820972,-1.0558699462674384,-1.2386631475539738,1.0525725747321384,-0.9164824134417878,0.5356151774826838,1.7916948331371723,-1.399693986651251,0.5965153194397335,-0.8735544972779284,-2.5801618820883836,-0.6974352530875536,-1.0373895725045652,0.25369277556495856,-1.7775752452995353,-0.798670245692137
106,0.03470506240073241,-0.4097857475775424,-2.737591895114351,-0.2441303223835889,-0.969229278145917,0.4029657604895948,1.0426263118030905,0.3386205894590364,-0.9070770959779039,-0.6789672221016239,1.1845831731415788,-1.6589292059827025,-2.3346656210182575,-0.5079574419266084,0.0074562503083257445,-1.0569910395703437,-1.2411104570559044,1.052696447058994,-0.9158005764966969,0.5345190461712073,1.7929995756977086,-1.402023257500448,0.5946196958527925,-0.8749894066239635,-2.5829764188982716,-0.6978324831345888,-1.0363071224571037,0.25559770219870454,-1.7804526060710566,-0.8003188634877074
107,0.037814432022374604,-0.41075293558524645,-2.7376683653135045,-0.24639904372753124,-0.9750899331342917,0.4010760455955622,1.0392742192535853,0.339076128221679,-0.9091722801475945,-0.6816693939551906,1.186058519766308,-1.6590895558486332,-2.33516197296988,-0.5087375688997204,0.007332011427740939,-1.0581067539569449,-1.243544233363062,1.052820632210704,-0.9151169843948633,0.5334269826527929,1.7942982957617815,-1.404351848833619,0.5927380124138892,-0.8764315939373184,-2.585797545338921,-0.6982456751973286,-1.0352609328577014,0.25748672258230937,-1.783328335212246,-0.801974742154172
108,0.04089194171541246,-0.41170934551853466,-2.737745283993733,-0.24865427140760854,-0.9809126710844698,0.3992000973928451,1.0359518936417589,0.33953144837880866,-0.9112562110994339,-0.6843616287140413,1.1875207189011467,-1.6592487071363626,-2.33565443841677,-0.5095135032618885,0.007224133368168444,-1.0592174527446954,-1.2459650079662923,1.0529452206702155,-0.9144323513087268,0.5323385409864032,1.7955930879922077,-1.4066791541158414,0.5908703588691139,-0.8778799030667724,-2.588624123056321,-0.6986736359135733,-1.0342494598178693,0.2593620478302281,-1.7862017104989212,-0.8036363375911293
109,0.043938410583341726,-0.412655338026294,-2.737822620404895,-0.25089636391876347,-0.9866985592692933,0.39733756746470494,1.0326587189178926,0.33998656609494277,-0.9133293242601938,-0.6870442212279152,1.1889705250486169,-1.6594070105118766,-2.3361430053404746,-0.5102856598585644,0.0071311768658129686,-1.0603234580392795,-1.2483732519531685,1.0530702933335028,-0.9137473132187014,0.5312533304562519,1.796885772186354,-1.4090046476044646,0.5890167902785325,-0.8793333182906065,-2.5914551418027973,-0.6991153103258745,-1.033271316544602,0.2612256157604924,-1.7890721017415074,-0.8053022964083609
110,0.046954591109647496,-0.4135912367877684,-2.7379003466633414,-0.2531256424491644,-0.9924485660786615,0.395488139799208,1.02939412854883,0.3404414945818945,-0.9153920068919074,-0.6897174300873098,1.190408616769142,-1.6595647773395676,-2.336627668696929,-0.5110544054412067,0.007051852341755615,-1.061425055572584,-1.2507693833391953,1.0531959224943628,-0.9130624368003527,0.530171009159191,1.798177925855543,-1.4113278745847226,0.5871773317069661,-0.8807909474968588,-2.59428970424938,-0.699569765342243,-1.0323252546659882,0.2630791231408659,-1.7919389597921827,-0.80697143306018
111,0.04994117649902561,-0.41451733275513286,-2.737978437422081,-0.2553423952247523,-0.9981635723014318,0.39365152705530004,1.0261575998126506,0.34089624432722815,-0.917444603611177,-0.692381481897158,1.1918356053968095,-1.6597222841864718,-2.3371084294755926,-0.5118200642740536,0.006985002663907731,-1.0625224989828752,-1.2531537735399096,1.0533221727380273,-0.9123782273148713,0.5290912783147438,1.7994709131242737,-1.4136484427313274,0.5853519823375732,-0.8822520073143015,-2.5971270125800165,-0.7000361751053569,-1.031410147726857,0.26492405427423504,-1.79480180681795,-0.808642709638812
112,0.05289880721246163,-0.4154338879307809,-2.738056869578701,-0.2575468813672786,-1.0038443811243898,0.3918274672514321,1.02294864874341,0.34135082331874605,-0.9194874213030377,-0.6950365750726502,1.1932520427565287,-1.6598797768172708,-2.3375852938752217,-0.5125829230986781,0.006929587899280732,-1.063616013598235,-1.2555267530785206,1.053449101749341,-0.9116951356086914,0.5280138772208697,1.80076591033205,-1.415966014475424,0.5835407190747733,-0.8837158099823194,-2.5999663566678177,-0.7005138080657528,-1.0305249766201883,0.266761706308241,-1.7976602277029272,-0.8103152180360486
113,0.05582807677678328,-0.4163411387258642,-2.7381356220170514,-0.2597393343162396,-1.0094917269857595,0.39001572083215696,1.0197668256575132,0.3418052372614383,-0.9215207334903258,-0.6976828832067249,1.194658427990908,-1.660037473734807,-2.3380582725823715,-0.5133432355264955,0.006884671835740066,-1.0647057997783849,-1.2578886166146186,1.0535767610415987,-0.9110135643181992,0.5269385787857201,1.8020639286883628,-1.4182803002670876,0.5817434996963237,-0.8851817517675095,-2.6028071036537037,-0.7010020155727119,-1.0296688167410621,0.26859321162080485,-1.800513862455831,-0.811988164209929
114,0.05872953694324645,-0.41723929894299194,-2.73821467537903,-0.261919964860819,-1.0151062834080977,0.3882160680720537,1.0166117111991952,0.34225948978449755,-0.923544784214615,-0.7003205580544962,1.1960552135949345,-1.6601955693156079,-2.3385273801402793,-0.5141012259224909,0.006849410074763604,-1.0657920358644912,-1.2602396273709333,1.053705196612236,-0.910333873366173,0.5258651855723832,1.803365834299907,-1.4205910526339018,0.579960265608083,-0.8866493027534802,-2.605648688766522,-0.7015002218140944,-1.0288408266701463,0.2704195576009208,-1.8033623995106667,-0.8136608543191773
115,0.06160370226358028,-0.4181285624223872,-2.7382940118631502,-0.2640889638237867,-1.020688669923411,0.38642830678011997,1.013482912848311,0.34271358263689095,-0.9255597914799735,-0.7029497321757752,1.197442810746883,-1.6603542365850223,-2.3389926343971834,-0.5148570928370326,0.006823039517326373,-1.0668748807814321,-1.2625800210271656,1.053834449531477,-0.9096563848279614,0.5247935262998996,1.8046723658590278,-1.4228980609459612,0.5781909442491961,-0.8881179978478109,-2.6084906072408733,-0.7020079149529737,-1.0280402382128595,0.2722416041134142,-1.8062055698198747,-0.8153326825123391
116,0.06445105414589146,-0.41900910538729486,-2.7383736150468865,-0.26624650443533976,-1.0262394581920922,0.38465225027134897,1.0103800618390757,0.34316751587064803,-0.9275659503061554,-0.7055705212729391,1.1988215940149003,-1.660513629672042,-2.339454056024396,-0.5156110120367419,0.006804869083884534,-1.067954476332298,-1.2649100091426124,1.0539645564698397,-0.908981387237443,0.5237234527496272,1.8059841502540632,-1.4252011468067676,0.5764354511901264,-0.8895874288663388,-2.6113324072045123,-0.702524639324416,-1.027266347638194,0.274060098907609,-1.8090431416496076,-0.8170031201809128
117,0.06727204444703785,-0.4198810885210977,-2.738453469730095,-0.2683927444311494,-1.0317591774068484,0.3828877255755472,1.0073028104435207,0.3436212880115191,-0.9295634354334481,-0.7081830262577468,1.2001919055104233,-1.6606738859797283,-2.339911668095583,-0.5163631391799971,0.006794271526580914,-1.0690309492206216,-1.2672297821626235,1.0540955501701021,-0.9083091393955183,0.5226548370313409,1.8073017163358618,-1.4275001599979307,0.5746936919611455,-0.8910572375698231,-2.614173683421378,-0.7030499885700721,-1.0265185079776595,0.27587569120318095,-1.811874915996367,-0.8186717065062379
118,0.07006709865260595,-0.42074465880545964,-2.738533561797088,-0.27052782790542135,-1.037248319063208,0.38113457185653515,1.0042508295781598,0.3440748962170186,-0.9315524037172743,-0.7107873350773017,1.2015540585520137,-1.6608351281033713,-2.340365495719706,-0.5171136121777568,0.006790676207320694,-1.0701044128319506,-1.2695395120578707,1.0542274598690047,-0.9076398737372474,0.5215875691683004,1.8086255070504187,-1.4297949749133085,0.572965563644541,-0.8925271095416144,-2.6170140717890926,-0.7035835996013695,-1.0257961222599004,0.27768894366195185,-1.814700722552955,-0.8203380401485258
119,0.07283661869051349,-0.4215999511458938,-2.738613878095188,-0.27265188694659076,-1.0427073411694494,0.37939263901770687,1.0012238066967352,0.34452833642212777,-0.9335329962468322,-0.7133835243262465,1.2029083408962862,-1.6609974655250648,-2.340815565720991,-0.5178625532759433,0.006793562729367899,-1.0711749688028631,-1.2718393546399316,1.054360311673586,-0.9069737993077244,0.5205215549649047,1.8099558901252863,-1.4320854874252609,0.571250956259896,-0.893996768807271,-2.619853244501264,-0.7041251472940457,-1.025098637570263,0.27950034293198545,-1.8175204161596024,-0.8220017719432732
120,0.07558098541952836,-0.4224470898084588,-2.738694406327841,-0.274765043080359,-1.0481366719608496,0.37766178647250365,0.9982214439358902,0.34498160347310897,-0.9355053402185357,-0.7159716606694133,1.204255017586371,-1.6611609961102674,-2.3412619063600792,-0.5186100708916348,0.006802455322698384,-1.0722427084023838,-1.2741294515917667,1.0544941288966867,-0.9063111043913371,0.5194567141245222,1.8112931674771204,-1.4343716121320547,0.5695497539683039,-0.8954659731081813,-2.62269090579521,-0.7046743398275792,-1.0244255398370083,0.28131030893000586,-1.8203338736832786,-0.8236625984854846
121,0.0783005608296542,-0.42328618968881665,-2.7387751349605614,-0.2768674085421276,-1.053536713175975,0.37594188206070084,0.9952434564842412,0.3454346912500027,-0.9374695505918048,-0.7185518020965607,1.2055943334627166,-1.6613258074291117,-2.34170454709122,-0.5193562612317114,0.006816917894625422,-1.0733077137479186,-1.2764099322472509,1.0546289323557758,-0.9056519588341642,0.51839297858866,1.8126375834893482,-1.4366532799412033,0.5678618361182702,-0.8969345097512424,-2.6255267882149314,-0.7052309145928302,-1.0237763492570422,0.2831192030097742,-1.8231409912746135,-0.8253202564957713
122,0.0809956899873737,-0.4241173574326351,-2.7388560531381905,-0.27895908739848235,-1.0589078429462733,0.374232801093519,0.9922895711485915,0.34588759277845277,-0.9394257315518221,-0.7211239990284746,1.2069265153759805,-1.6614919779226986,-2.3421435183510013,-0.5201012097193822,0.006836549667300513,-1.0743700588753056,-1.2786809151499727,1.0547647406388991,-0.9049965160948539,0.517330291071843,1.8139893322923637,-1.4389304359486745,0.5661870781532896,-0.8984021919655992,-2.628360649327346,-0.7057946345999595,-1.0231506162840702,0.28492733514750485,-1.8259416819576224,-0.826974517874591
123,0.08366670275514909,-0.4249406924242739,-2.738937150612113,-0.2810401765352127,-1.0642504183444286,0.37253442551247307,0.989359525093979,0.34634030033154295,-0.9413739778012239,-0.723688295291592,1.2082517741372343,-1.6616595779323515,-2.3425788513746557,-0.5208449922511326,0.006860981332692892,-1.0754298106803188,-1.2809425094179936,1.0549015703411992,-0.9043449150553864,0.5162686037694532,1.8153485641637481,-1.4412030375785174,0.5645253523986379,-0.8998688557054507,-2.6311922688370766,-0.706365285326534,-1.0225479181110477,0.2867349702605427,-1.8287358735125725,-0.8286251853617927
124,0.08631391531133359,-0.4257562876588489,-2.739018417676241,-0.28311076652740336,-1.0695647776317512,0.3708466431485809,0.9864530647368938,0.34679280552234354,-0.9433143757002952,-0.7262447289763955,1.209570306236649,-1.6618286706077812,-2.343010578036469,-0.5215876763040567,0.006889871663669062,-1.0764870297469507,-1.2831948159381232,1.0550394362751405,-0.9036972816195877,0.5152078772183476,1.8167153911526615,-1.4434710529515755,0.5628765287427551,-0.901334356845059,-2.6340214460515634,-0.706942671952722,-1.0219678555867964,0.2885423337622279,-1.83152350661693,-0.8302720887283319
125,0.08893763149372755,-0.42656423051110526,-2.7390998451107023,-0.2851709424053866,-1.0748512422402419,0.3691693470700764,0.9835699447733715,0.34724509938786025,-0.9452470042730811,-0.7287933331931191,1.2108822953582286,-1.6619993127083001,-2.3434387307112536,-0.5223293219112454,0.006922904526924816,-1.077541771076011,-1.2854379284104898,1.0551783516572608,-0.9030537301241123,0.5141480792923742,1.8180898920206008,-1.4457344594556247,0.5612404752266871,-0.9027985687184388,-2.6368479976540002,-0.7075266169367149,-1.0214100505137704,0.290349616443999,-1.8343045332134107,-0.8319150814356421
126,0.09153814398739159,-0.42736460341303734,-2.73918142413231,-0.287220784328778,-1.080110118520841,0.36750243500813795,0.980709927325778,0.34769717246506243,-0.9471719360948923,-0.7313341367367723,1.2121879137149407,-1.662171555309615,-2.3438633421542177,-0.5230699825208575,0.006959786249856372,-1.0785940847259958,-1.2876719342617067,1.055318328273999,-0.9024143645837954,0.5130891843169473,1.819472116580077,-1.447993242492534,0.5596170585533704,-0.9042613799618352,-2.639671755746668,-0.7081169578890492,-1.0208741432802726,0.29215697876520924,-1.837078915077799,-0.8335540377058068
127,0.09411573537498351,-0.4281574844508528,-2.7392631463509813,-0.2892603681794244,-1.0853416992857006,0.36584580885135476,0.9778727811939901,0.348149014859639,-0.9490892380749467,-0.7338671646721224,1.2134873232257455,-1.662345444427287,-2.344284445396894,-0.5238097057526854,0.007000243299076744,-1.0796440163767684,-1.2898969154427582,1.0554593766288858,-0.9017792797907763,0.5120311722886692,1.8208620895032683,-1.45024739438094,0.5580061445270675,-0.9057226926220907,-2.642492566131724,-0.7087135457094131,-1.0203597907860171,0.2939645546217216,-1.8398466225624186,-0.8351888499524524
128,0.09667067906579103,-0.42894294789068244,-2.7393450037313904,-0.29128976608284507,-1.0905462651690576,0.3641993742007353,0.9750582811983477,0.34860061630809935,-0.9509989721463378,-0.736392438848058,1.214780676553484,-1.662521021566671,-2.344702073657095,-0.5245485340644174,0.007044020233263947,-1.0806916078253448,-1.2921129491257877,1.0556015060731516,-0.9011485622845581,0.5109740281876023,1.8222598136642825,-1.4524969133954921,0.5564075984319599,-0.9071824204984168,-2.645310286800482,-0.7093162429538794,-1.0198666646248895,0.2957724546559928,-1.8426076334940042,-0.8368194265282825
129,0.09920324011776585,-0.4297210646413686,-2.7394269885592104,-0.29330904686664117,-1.095724085828393,0.36256303997801986,0.9722662076032417,0.3490519662338003,-0.9529011958741361,-0.738909978349667,1.2160681180203547,-1.6626983242080147,-2.3451162602610944,-0.5252865053383661,0.007090877897437422,-1.08173689742198,-1.2943201083122648,1.0557447249215912,-0.9005222912081957,0.5099177413712347,1.8236652730711729,-1.4547418029259909,0.5548212853577681,-0.9086404876889935,-2.648124786605695,-0.7099249224043492,-1.0193944494931317,0.29758076916394816,-1.8453619322072494,-0.8384456897504822
130,0.10171367596520313,-0.4304919026617097,-2.73950909341139,-0.29531827646336267,-1.1008754210049962,0.36093671808091127,0.9694963456115222,0.34950305379744134,-0.9547959629911978,-0.7414197998954009,1.2173497844157068,-1.6628773862343795,-2.345527038576487,-0.5260236533981685,0.007140591829660521,-1.08277992045377,-1.2965184623634987,1.0558890405553287,-0.899900539064041,0.5088623050404619,1.8250784354372214,-1.4569820707417496,0.5532470704792682,-0.9100968273172696,-2.650935944094461,-0.710539465815399,-1.0189428417950406,0.299389570647387,-1.8481095086975428,-0.8400675741698957
131,0.10420223706323539,-0.4312555273186939,-2.7395913111299675,-0.2973175182644479,-1.1060005214607909,0.35932032307959083,0.9667484849210785,0.34995386794253375,-0.9566833238701525,-0.7439219181858387,1.218625805709137,-1.6630582383091652,-2.345934441954347,-0.526760008463842,0.007192950854616175,-1.0838207094821184,-1.298708077463132,1.056034459512953,-0.8992833723809124,0.5078077157690327,1.8264992544351242,-1.4592177283482792,0.5516848192956989,-0.9115513804158782,-2.653743646482069,-0.7111597628167224,-1.0185115484216787,0.3011989160548507,-1.850850357878386,-0.8416850250540192
132,0.10666916745899989,-0.4320120017024972,-2.73967363479899,-0.2993068334310759,-1.111099629806266,0.3577137719495551,0.9640224193359754,0.35040439743630897,-0.9585633259390698,-0.7464163462098038,1.2198963056803116,-1.6632409082092146,-2.3463385036795037,-0.527495597552586,0.007247755841549971,-1.084859294639666,-1.3008890170200815,1.0561809875713324,-0.8986708523031776,0.5067539730889161,1.8279276716725188,-1.4614487904249556,0.55013439783529,-0.9130040949487687,-2.6565477887495152,-0.7117857099520093,-1.0181002856810932,0.3030088487487532,-1.8535844789307256,-0.843297997057487
133,0.1091147052981786,-0.4327613869033548,-2.7397560577241586,-0.3012862811670845,-1.1161729812325907,0.3561169838363979,0.9613179464254473,0.35085463090649655,-0.960436014047433,-0.7489030955129107,1.2211614024755744,-1.6634254211187818,-2.3467392569278807,-0.5282304448318457,0.0073048186067655565,-1.0858957038915984,-1.3030613420193495,1.0563286298172792,-0.8980630351110069,0.5057010791249296,1.8293636184226978,-1.4636752743337085,0.5485956728294716,-0.914454924954515,-2.659348272849509,-0.7124172098374326,-1.0177087783611827,0.30481940023204124,-1.8563118747329757,-0.8449064530569406
134,0.1115390832745823,-0.43350374225481725,-2.7398385734148643,-0.3032559189584996,-1.1212208041594183,0.3545298798486849,0.9586348672248534,0.35130455687436535,-0.9623014307882818,-0.7513821764330271,1.222421209100186,-1.6636117998890232,-2.347136734729996,-0.5289645719303763,0.007363960943231549,-1.0869299632656608,-1.3052251113272326,1.0564773907111,-0.8974599726799725,0.5046490382727565,1.8308070171402988,-1.4658971996899821,0.5470685118607407,-0.9159038297958468,-2.662145007007656,-0.7130541704249772,-1.0173367589086728,0.3066305916636482,-1.8590325513618604,-0.8465103631299902
135,0.11394252902954113,-0.4342391255473784,-2.7399211755683206,-0.3052158027836824,-1.126243320808513,0.3529523828755286,0.9559729859734143,0.3517541637843884,-0.9641596167817009,-0.7538535983066013,1.2236758338539786,-1.6638000652671197,-2.3475309699398217,-0.5296979982123635,0.0074250137619534026,-1.0879620970546855,-1.3073803819566405,1.0566272741429596,-0.8968617128872068,0.5035978569151731,1.8322577827881747,-1.4681145879882838,0.5455527834876474,-0.9173507735022772,-2.6649379051071316,-0.7136965043576429,-1.0169839667097058,0.3084424351884792,-1.8617465176554062,-0.8481097036604656
136,0.11632526550706107,-0.43496759321599454,-2.7400038580555393,-0.30716598729762595,-1.1312407477121076,0.3513844174258774,0.953332109884176,0.35220344003086024,-0.966010610924227,-0.7563173696493435,1.2249253807172655,-1.6639902360986547,-2.347921995208314,-0.5304307410190517,0.007487816331610116,-1.088992127994976,-1.3095272092975465,1.0567782834828796,-0.8962682999704856,0.5025475431719199,1.8337158239984965,-1.4703274622755793,0.5440483573499212,-0.9187957241943105,-2.6677268861465797,-0.7143441284051517,-1.016650147459342,0.31025493510455115,-1.8644537848304596,-0.8497044565543358
137,0.1186875112699955,-0.43568920050460014,-2.7400866149089174,-0.3091065259935141,-1.1362132961638323,0.34982590948689174,0.9507120489421994,0.35265237398176563,-0.9678544506082117,-0.7587734983143339,1.2261699496930223,-1.6641823295064448,-2.3483098429610005,-0.5311628158817976,0.007552215604582682,-1.0900200774234885,-1.3116656473169626,1.0569304216251014,-0.8956797748458464,0.5014981066791953,1.8351810440883491,-1.4725358468666159,0.5425551042563654,-0.9202386535791329,-2.6705118737622486,-0.714996962970184,-1.0163350526088453,0.3120680888871741,-1.8671543661480403,-0.8512946085525988
138,0.12102948078185521,-0.436404001610362,-2.740169440311245,-0.3110374713442818,-1.1411611726191049,0.3482767863990968,0.9481126157274639,0.3531009540001713,-0.9696911719147046,-0.7612219916302653,1.2274096371106231,-1.6643763610486348,-2.3486945453791037,-0.531894236709998,0.007618065618934608,-1.0910459654163935,-1.313795748732296,1.0570836910274644,-0.8950961753886929,0.5004495583952262,1.8366533419476372,-1.4747397670959825,0.5410728962578087,-0.9216795365089265,-2.673292795806471,-0.7156549316563959,-1.0160384388810104,0.3138818880876445,-1.8698482766206486,-0.8528801506291265
139,0.12335138465832697,-0.437112049810088,-2.740252328585955,-0.3129588749265907,-1.1460845790510437,0.34673697674627885,0.9455336252594015,0.3535491684633871,-0.9715208097829984,-0.7636628565222063,1.228644535895777,-1.664572344858542,-2.3490761343837328,-0.5326250159569264,0.007685226967167213,-1.092069810911286,-1.315917565161462,1.057238093746371,-0.8945175366827486,0.49940191042879356,1.838132612814947,-1.4769392491023527,0.5396016067071071,-0.9231183505940442,-2.676069583975562,-0.7163179608905508,-1.0157600678449978,0.3156963191217986,-1.872535532756367,-0.8544610774629358
140,0.12565342989208358,-0.4378133975709225,-2.7403352741884626,-0.3148707875293455,-1.1509837132672303,0.3452064102583389,0.942974894860355,0.35399700578011906,-0.9733433981596119,-0.7660960996169882,1.2298747358107431,-1.6647702937684328,-2.3494546416227435,-0.5333551647661454,0.00775356632368347,-1.0930916318150385,-1.3180311472527122,1.0573936314678523,-0.8939438912407015,0.49835517588796374,1.8396187489551181,-1.4791343196409172,0.5381411103079313,-0.9245550758642377,-2.678842173481074,-0.716985979592043,-1.015499705543211,0.3175113639619036,-1.8752161523352253,-0.8560373869756526
141,0.12793582005403892,-0.43850809664720813,-2.740418271698468,-0.31677325924861915,-1.1558587691920015,0.3436850177255333,0.9404362440355853,0.35444445440581573,-0.9751589701291541,-0.7685217273350646,1.2311003236684104,-1.6649702194191567,-2.3498300984599174,-0.5340846931008452,0.007822956023872252,-1.0941114450990463,-1.3201365447967657,1.0575503055351843,-0.8933752691999308,0.4973093687466052,1.8411116402505985,-1.4813250059205048,0.5366912831538493,-0.925989694471975,-2.68161050275908,-0.7176589188839249,-1.0152571221636777,0.31932700074372306,-1.8778901542138502,-0.8576090799260808
142,0.1301987554738226,-0.439196198165169,-2.7405013158130953,-0.31866633957063367,-1.1607099371183864,0.3421727309227195,0.9379174943677491,0.3548915028563895,-0.976967558029227,-0.7709397459704743,1.2323213835233848,-1.665172132357335,-2.3502025359661487,-0.5348136098581687,0.007893273688585162,-1.0951292668834023,-1.3222338068235149,1.0577081169734568,-0.8928116984962975,0.49626450372655934,1.8426111747171914,-1.4835113354623215,0.535252002759017,-0.9274221904326204,-2.68437451321283,-0.7183367118402744,-1.0150320917522195,0.3211432042991451,-1.8805575581549132,-0.8591761595547873
143,0.1324424334019158,-0.4398777526968766,-2.7405844013407727,-0.3205500774442437,-1.1655374039333037,0.3406694825423961,0.935418469424019,0.35533813972047645,-0.978769193551269,-0.7733501617603413,1.2335379968428515,-1.6653760421215906,-2.3505719849123756,-0.535541922970341,0.007964401888535056,-1.09614511251135,-1.3243229816852855,1.0578670665114487,-0.8922532050186274,0.4952205961935908,1.8441172389535003,-1.4856933359776168,0.5338231480816206,-0.9288525493968973,-2.6871341489846814,-0.7190192932653838,-1.0148243919594018,0.32295994662349436,-1.8832183846783108,-0.860738631272493
144,0.13466704815559633,-0.4405528103247825,-2.740667523195764,-0.3224245213441957,-1.170341353319194,0.3391752061354693,0.932938994674249,0.35578435367038286,-0.980563907829012,-0.7757529809451751,1.2347502426596342,-1.6655819573191395,-2.3509384757640253,-0.5362696394941956,0.0080362278438107,-1.0971589966151984,-1.3264041171283905,1.0580271546011248,-0.8916998127462017,0.4941776620654664,1.8456297185322472,-1.4878710352619193,0.5324045995410635,-0.9302807584516237,-2.689889356753727,-0.7197065995008083,-1.0146338038178921,0.32477719728553067,-1.8858726549313933,-0.8622965023868311
145,0.13687279125058222,-0.441221420697952,-2.740750676393266,-0.32428971932628353,-1.1751219659348788,0.337689836058811,0.9304788974187824,0.35623013347184973,-0.9823517315160305,-0.7781482098210808,1.2359581977095861,-1.6657898856938924,-2.3513020386767627,-0.5369967656905015,0.008108643154287418,-1.0981709331747402,-1.328477260354496,1.0581883814350321,-0.8911515438712915,0.4931357177307111,1.8471484983406363,-1.4900444611037738,0.5309962390297622,-0.931706805945205,-2.6926400855559782,-0.7203985682568042,-1.014460111546398,0.3265949237871578,-1.8885203905758836,-0.8638497818627081
146,0.13905985152003653,-0.441883633080996,-2.740833856045014,-0.3261457190753842,-1.1798794195780977,0.3362133074287856,0.9280380067246752,0.35667546799275573,-0.9841326948536816,-0.7805358547848585,1.2371619365551783,-1.6659998341870905,-2.3516627034933744,-0.5377233070943216,0.008181543557227553,-1.0991809355690816,-1.3305424580731273,1.0583507469618407,-0.8906084189085303,0.4920947799767636,1.8486734628760566,-1.4922136412061695,0.5295979499203034,-0.9331306813348091,-2.6953862866243465,-0.7210951384651211,-1.0143031023768363,0.32841309187900536,-1.8911616136894212,-0.8653984801120945
147,0.14122841522239518,-0.44253949639657936,-2.7409170573553228,-0.3279925679472405,-1.1846138893318765,0.33474555608002343,0.9256161533692611,0.357120346210865,-0.9859068277305845,-0.7829159223728503,1.2383615316969296,-1.6662118089913647,-2.3520204997416276,-0.5384492685774859,0.008254828708816756,-1.1001890166226884,-1.3325997565464747,1.0585142509002485,-0.8900704567927027,0.4910548659264089,1.850204496502647,-1.4943786031190731,0.5282096170686132,-0.9345523750525265,-2.698127913246013,-0.7217962501504864,-1.0141625664018086,0.3302316658372885,-1.8937963466799157,-0.866942608809593
148,0.14337866613930478,-0.44318905926228,-2.741000275617522,-0.32983031300475135,-1.1893255476966205,0.3332865185288064,0.9232131697901166,0.35756475722071623,-0.9876741597346452,-0.7852884192942917,1.239557053674119,-1.6664258155990077,-2.3523754566329735,-0.5391746544041293,0.008328401986779194,-1.101195188646348,-1.3346492016275178,1.0586788927514408,-0.8895376749663384,0.49001599298149817,1.851741483673568,-1.4965393741816737,0.5268311268137084,-0.9359718783881571,-2.7008649206350728,-0.722501844318452,-1.0140382964398245,0.3320506087066896,-1.8964246122111232,-0.8684821807305827
149,0.14551078566480152,-0.4438323700224797,-2.7410835062107277,-0.33165900104943874,-1.194014564709592,0.33183613194050887,0.9208288900406038,0.35800869023973875,-0.9894347201985197,-0.7876533524598331,1.2407485711560429,-1.6666418588451524,-2.3527276030619775,-0.5398994682801308,0.008402170311563577,-1.1021994634736636,-1.3366908387923517,1.0588446718102746,-0.8890100894583332,0.48897817877308836,1.8532843091232292,-1.4986959814731247,0.5254623669745199,-0.9373891833865573,-2.703597265818599,-0.7232118628575643,-1.0139300879160347,0.33386988251342015,-1.899046433138049,-0.8700172096091418
150,0.14762495288672747,-0.4444694767758862,-2.7411667445969212,-0.33347867864868036,-1.1986811080532371,0.33039433410060476,0.9184631497502691,0.3584521346136734,-0.9911885382392942,-0.7900107290058173,1.2419361510249316,-1.6668599429464632,-2.353076967606372,-0.5406237133971874,0.008476043983898368,-1.1032018524936218,-1.3387247131674918,1.0590115871753398,-0.8884877149546722,0.487941441117237,1.854832858033201,-1.5008484517707141,0.5241032268442202,-0.9388042827577378,-2.7063249075345017,-0.723926248454072,-1.013837738756521,0.3356894484521124,-1.901661832450956,-0.8715477100132922
151,0.14972134466125997,-0.44510042739921474,-2.7412499863182904,-0.33528939215922393,-1.2033253431536395,0.3289610633888116,0.9161157860894715,0.35889507982136737,-0.9929356427930753,-0.7923605563148258,1.2431198584514962,-1.6670800715358776,-2.3534235785276487,-0.5413473924721663,0.00854993653678362,-1.1042023666797076,-1.3407508695528314,1.0591796377580271,-0.8879705648622006,0.48690579797578004,1.8563870161750775,-1.5029968115145282,0.5227535971824223,-0.9402171697981273,-2.7090478061397607,-0.7246449445176074,-1.0137610492944327,0.3375092670497407,-1.904270833226906,-0.8730736972354237
152,0.1518001356813256,-0.4457252695674935,-2.741333226994807,-0.33709118774743807,-1.207947433270235,0.3275362587559943,0.9137866377376863,0.3593375154790045,-0.994676062645096,-0.7947028420329493,1.2442997569639636,-1.6673022476938666,-2.3537674637721078,-0.5420705077823036,0.008623764600223193,-1.1052010166159822,-1.3427693524408457,1.0593488222907224,-0.8874586513662742,0.48587126742150266,1.85794667003316,-1.5051410867777906,0.5214133702055767,-0.9416278383216179,-2.711765923527783,-0.725367895116472,-1.0136998221864788,0.33932929830937847,-1.9068734585878961,-0.8745951871960143
153,0.15386149853957726,-0.4463440507714023,-2.7414164623220105,-0.3388841114066992,-1.2125475395777738,0.32611985970349733,0.9114755448550059,0.3597794313438274,-0.9964098264558717,-0.7970375940841775,1.24547590851135,-1.6675264739766322,-2.354108650972299,-0.5427930611967443,0.008697447777208472,-1.1061978125204897,-1.3447802060325547,1.05951913933423,-0.8869519854830199,0.48483786760718284,1.8595117069094698,-1.5072813032421593,0.5200824395758433,-0.9430362825991748,-2.7144792230537913,-0.7260950449213298,-1.0136538623384685,0.34114950183625237,-1.9094697316647649,-0.8761121963590042
154,0.15590560378653187,-0.4469568183320048,-2.7414996880689775,-0.34066820897226496,-1.2171258212414038,0.32471180626461527,0.9091823490564173,0.36022081731740047,-0.9981369627838778,-0.7993648206822614,1.2466483735216334,-1.6677527524416005,-2.354447167448798,-0.5435150542048622,0.008770908529646968,-1.1071927642663113,-1.3467834742506946,1.059690587284516,-0.8864505771068493,0.48380561673805184,1.8610820150132992,-1.5094174861773537,0.518760700388684,-0.9444424973059502,-2.717187669467288,-0.7268263391562569,-1.0136229768387617,0.34296983694825195,-1.9120596755661474,-0.8776247416573828
155,0.1579326199843955,-0.44756361941318984,-2.74158290007645,-0.34244352613394274,-1.2216824354856402,0.32331203898794586,0.9069068933884878,0.36066166344845874,-0.9998575001051623,-0.8016845303403534,1.247817210955403,-1.6679810846705343,-2.354783040212266,-0.5442364879417416,0.008844072073088741,-1.1081858814005492,-1.3487792007504917,1.0598631643788523,-0.8859544350537915,0.48277453304726964,1.8626574835372283,-1.5115496604245617,0.5174480491593836,-0.9458464774749692,-2.719891228850748,-0.7275617235562304,-1.0136069748986332,0.34479026277278807,-1.9146433133518468,-0.879132840427727
156,0.1599427137570391,-0.4481645010321031,-2.7416660942551103,-0.34421010844682465,-1.2262175376578968,0.3219204989224022,0.904649022308142,0.3611019599353821,-1.0015714668302607,-0.8039967318786976,1.248982478355497,-1.6682114717905459,-2.355116295965746,-0.5449573632111578,0.008916866279244201,-1.1091771731614852,-1.3507674289283775,1.0600368687014339,-0.8854635671011408,0.4817446347740627,1.864238002721303,-1.5136778503831436,0.5161443838086835,-0.9472482184565735,-2.722589868563815,-0.7283011443302518,-1.0136056677986793,0.34661073833165934,-1.9172206680100663,-0.8806365103525878
157,0.16193604983653354,-0.4487595100678126,-2.7417492665839815,-0.3459680013403264,-1.2307312812871707,0.32053712760368636,0.9024085816632473,0.36154169712833073,-1.0032788913187312,-0.8063014344306085,1.2501442318930711,-1.6684439144932552,-2.355446961107164,-0.5456776805063532,0.00898922158540961,-1.1101666484941317,-1.3527482019289432,1.060211698188529,-0.8849779800238567,0.48071594014421354,1.8658234639068596,-1.5158020800002132,0.5148496036476864,-0.9486477158829101,-2.725283557192339,-0.7290445481294014,-1.0136188688405086,0.3484312226153834,-1.9197917624380176,-0.8821357694097597
158,0.16391279110660442,-0.44934869326842514,-2.741832413108943,-0.3477172501257403,-1.2352238181384014,0.3191618670420525,0.9001854186747675,0.3619808655310739,-1.0049798018915963,-0.808598647446947,1.2513025264104967,-1.6686784130523136,-2.3557750617319924,-0.5463974400288664,0.009061070910024902,-1.1111543160643618,-1.3547215626503932,1.0603876506332208,-0.8844976796280988,0.47968846735262927,1.8674137595812945,-1.517922372762724,0.5135636093621663,-0.9500449656368405,-2.727972264501708,-0.7297918820192062,-1.01364639330305,0.3502516746482692,-1.9223566194254773,-0.8836306358275858
159,0.16587309864332436,-0.44993209725684385,-2.7419155299413447,-0.3494579000024851,-1.2396952982629665,0.3177946597112074,0.897979381920271,0.3624194558025401,-1.0066742268419384,-0.8108883806992778,1.252457415461428,-1.6689149673394814,-2.3561006236360584,-0.5471166417056441,0.009132349573682887,-1.1121401842717893,-1.3566875537487217,1.0605647236897873,-0.8840226707822347,0.47866223454774953,1.8690087834149225,-1.5200387516917393,0.512286302996405,-0.9514399638247225,-2.7306559613939587,-0.7305430934557824,-1.0136880584029007,0.35207205354535054,-1.9249152616409206,-0.8851211280455601
160,0.16781713175332302,-0.45050976853533437,-2.7419986132567113,-0.35118999606321616,-1.244145870045715,0.31643544853821476,0.8957903213186093,0.36285745875811476,-1.0083621944438694,-0.8131706442818721,1.2536089513483457,-1.6691535768394299,-2.3564236723184604,-0.5478352852046355,0.00920299522499236,-1.11312426126154,-1.3586462176408085,1.0607429148777627,-0.8835529574456182,0.4776372598175822,1.8706084302909225,-1.5221512393386,0.5110175879366557,-0.9528327067525879,-2.733334619868246,-0.7312981302652799,-1.0137436832582052,0.3538923185621637,-1.9274677116199028,-0.8866072646795761
161,0.16974504800976287,-0.45108175348904694,-2.7420816592935284,-0.35291358329793593,-1.248575680248898,0.31508417689428686,0.8936180881156045,0.363294865370708,-1.010043732960067,-0.8154454486126962,1.2547571851578412,-1.6693942406634132,-2.3567442329845796,-0.5485533699490441,0.009272947770770245,-1.1141065549350448,-1.3605975965066037,1.060922221585719,-0.8830885426953946,0.476613561177182,1.8722125963292455,-1.5242598577827442,0.5097573688943222,-0.9542231909052951,-2.736008212984277,-0.732056940626214,-1.0138130888556236,0.35571242913822987,-1.9300139917554036,-0.8880890644912568
162,0.1716570032862991,-0.4516480983886246,-2.7421646643520976,-0.35462870659723156,-1.2529848740533096,0.31374078858635995,0.8914625348706083,0.3637316667716131,-1.0117188706480509,-0.8177128044335128,1.2559021667938783,-1.6696369575619403,-2.357062330549164,-0.5492708951303926,0.00934214931010217,-1.1150870729599676,-1.3625417322905495,1.0611026410748001,-0.8826294287515656,0.4755911565574083,1.8738211789052548,-1.5263646286309582,0.5085055518889295,-0.9556114129282904,-2.73867671482838,-0.7328194730543225,-1.0138960980200031,0.35753234493499986,-1.9325541242898816,-0.8895665463608667
163,0.1735531517892177,-0.45220884939201145,-2.7422476247934555,-0.3563354107547483,-1.2573735950969147,0.3124052278493637,0.8893235154438075,0.36416785425117465,-1.013387635765343,-0.8199727228092059,1.2570439450092386,-1.669881725936562,-2.35737798963947,-0.5499878597205354,0.009410544071866657,-1.116065822779364,-1.3644786667023656,1.0612841704820375,-0.8821756170005121,0.47457006379481864,1.8754340766637705,-1.528465573017873,0.5072620442309527,-0.9569973696116569,-2.741340100481916,-0.7335856763896303,-1.013992535386414,0.35935202586892356,-1.9350881313088202,-0.8910397292633726
164,0.1754336460879225,-0.45276405254556246,-2.742330537038353,-0.3580337404689956,-1.2617419855112115,0.3110774393391044,0.8872008849841739,0.3646034192592816,-1.0150500565736524,-0.8222252151264258,1.25818256743533,-1.6701285438508722,-2.357691234598446,-0.550704262482739,0.009478078355367575,-1.1170428116201603,-1.3664084412173105,1.0614668068234747,-0.8817271080171517,0.47355030062257186,1.8770511895291073,-1.5305627116075333,0.506026754504558,-0.9583810578761679,-2.7439983459917663,-0.7343554997854437,-1.0141022273742557,0.361171432140227,-1.9376160347355706,-0.8925086322472694
165,0.1772986371439231,-0.4533137537845424,-2.7424133975662808,-0.35972374034457133,-1.2660901859555418,0.30975736812569304,0.8850944999179664,0.36503835340570157,-1.0167061613421928,-0.8244702930916402,1.2593180806105233,-1.6703774090408121,-2.358002089487947,-0.5514201019819331,0.009544700473762442,-1.118018046501027,-1.3683310970760139,1.061650546997123,-0.8812839015858867,0.4725318846622291,1.8786724187116248,-1.5326560645958993,0.5047995925503079,-0.9597624747610999,-2.746651428342678,-0.7351288926990294,-1.0142250021631753,0.3629905242579078,-1.9401378563273246,-0.8939732744158397
166,0.17914827433845834,-0.4538579989330936,-2.7424962029145474,-0.3614054548928776,-1.2704183356495429,0.3084449596874555,0.8830042179377041,0.3654726484602689,-1.0183559783502427,-0.8267079687286678,1.260450530007154,-1.670628318924354,-2.3583105780919706,-0.5521353765942273,0.009610360700012227,-1.1189915342397143,-1.3702466752839617,1.0618353877857654,-0.8808459967204766,0.4715148334163553,1.8802976667112412,-1.534745651714148,0.5035804694478677,-0.9611416174135876,-2.7492993254312608,-0.7359058048837663,-1.0143606896705741,0.364809263061398,-1.9426536176720675,-0.8954336749105525
167,0.18098270549887432,-0.45439683370373996,-2.7425789496773927,-0.36307892853239554,-1.2747265724039092,0.3071401599052723,0.8809298979915456,0.3659062963529382,-1.0199995358890344,-0.8289382543757595,1.2615799600573154,-1.6708812706106342,-2.358616723919901,-0.5528500845157701,0.009675011215111138,-1.1199632814599088,-1.3721552166107078,1.062021325859632,-0.8804133916829565,0.4704991642618346,1.8819268373183082,-1.5368314922326642,0.5023692974987526,-0.9625184830793327,-2.751942016041462,-0.7366861863825823,-1.014509121530505,0.3666276097392881,-1.945163340186382,-0.896889852896345
